Episode: 1: [[ 0.00038884  0.07915682 -0.1991477   0.19625255  0.08258589  0.18920116
  -0.04360167  0.16507865 -0.02560349  0.17246272 -0.22293717 -0.08706672
   0.07914953  0.03728709 -0.10895123 -0.05665225 -0.00047292]
 [ 0.12605025 -0.13230765  0.17317271  0.02761011  0.11817244 -0.16222523
  -0.23520546 -0.04156371 -0.22891587 -0.14649746 -0.23922575 -0.17649803
   0.13773252  0.0482946   0.04996083  0.04103218 -0.12707937]
 [-0.17318076  0.08335919  0.22996886  0.08556113 -0.08895731  0.03877114
  -0.0321402  -0.03124172  0.13332692 -0.11153022 -0.23441038  0.1704327
  -0.20873488 -0.22104588  0.21450874  0.20550609 -0.18107939]] 
Episode: 2: [[-3.66833410e-06  7.87635967e-02 -1.99539825e-01  1.95859522e-01
   8.21918845e-02  1.88808247e-01 -4.39943112e-02  1.64684698e-01
  -2.59964671e-02  1.72070086e-01 -2.23330542e-01 -8.74591172e-02
   7.87561014e-02  3.68929058e-02 -1.09344043e-01 -5.70450798e-02
  -8.66829301e-04]
 [ 1.26446918e-01 -1.31911114e-01  1.73569724e-01  2.80068666e-02
   1.18569098e-01 -1.61828235e-01 -2.34808758e-01 -4.11669202e-02
  -2.28518784e-01 -1.46100745e-01 -2.38829121e-01 -1.76100925e-01
   1.38129324e-01  4.86913696e-02  5.03578633e-02  4.14289646e-02
  -1.26682550e-01]
 [-1.73574865e-01  8.29661414e-02  2.29573607e-01  8.51670951e-02
  -8.93499181e-02  3.83762680e-02 -3.25342901e-02 -3.16349864e-02
   1.32931828e-01 -1.11924365e-01 -2.34803647e-01  1.70037329e-01
  -2.09128767e-01 -2.21438751e-01  2.14113712e-01  2.05111846e-01
  -1.81472808e-01]] 
Episode: 3: [[-0.0003128   0.07845575 -0.19985574  0.19554228  0.08247563  0.18906626
  -0.04430311  0.16434368 -0.02571033  0.17173253 -0.2236558  -0.08720135
   0.07841851  0.03714902 -0.10971908 -0.05737076 -0.00121804]
 [ 0.12616245 -0.13219701  0.17329207  0.02771905  0.11827832 -0.1621119
  -0.2350954  -0.04145073 -0.22880423 -0.14639173 -0.2391164  -0.17636551
   0.13784015  0.04840434  0.05008591  0.04114217 -0.12697086]
 [-0.17328225  0.08326001  0.22986217  0.08546035 -0.08905657  0.03866429
  -0.03224099 -0.03134307  0.1332165  -0.11163023 -0.23451042  0.17030463
  -0.20883517 -0.22114672  0.2143975   0.20540425 -0.18117936]] 
Episode: 4: [[-0.00051273  0.07825897 -0.19992796  0.19538149  0.0827277   0.1893874
  -0.04449452  0.16424492 -0.02543089  0.17160782 -0.22379673 -0.08687928
   0.07830117  0.03742605 -0.10958005 -0.05749859 -0.001275  ]
 [ 0.12610267 -0.13226166  0.1732644   0.02761661  0.11814613 -0.1621902
  -0.23518422 -0.04150005 -0.22890201 -0.1465343  -0.23920238 -0.17631115
   0.13772012  0.04831914  0.05010339  0.04104852 -0.12707514]
 [-0.17318076  0.08336862  0.22990142  0.08557273 -0.08897261  0.0386801
  -0.0321236  -0.0312876   0.13319077 -0.11148851 -0.23441665  0.1701605
  -0.20871511 -0.22109711  0.2143587   0.20550251 -0.18107834]] 
Episode: 5: [[-0.00046859  0.07827806 -0.19978184  0.19550541  0.08303627  0.1897171
  -0.04444678  0.16444123 -0.02510782  0.17180197 -0.22363894 -0.08655147
   0.07849117  0.03772894 -0.10932222 -0.05732596 -0.00106352]
 [ 0.12605192 -0.13231924  0.17324232  0.02753122  0.11803358 -0.16226055
  -0.23525867 -0.04154452 -0.22898509 -0.14665224 -0.23927484 -0.17627673
   0.13762085  0.04824466  0.05011214  0.04096435 -0.12716432]
 [-0.17316243  0.08339957  0.22985893  0.08560493 -0.08897018  0.03861587
  -0.03208777 -0.03132432  0.1330805  -0.11142268 -0.23440433  0.16994914
  -0.20867603 -0.22113493  0.21424128  0.20551775 -0.1810602 ]] 
Episode: 6: [[-0.00042258  0.07830594 -0.19969103  0.19561951  0.08330776  0.18996531
  -0.04439718  0.164602   -0.02487703  0.17194672 -0.22350869 -0.08634058
   0.07863567  0.03798109 -0.10916969 -0.05719081 -0.00088811]
 [ 0.1259882  -0.13240576  0.17320064  0.02743916  0.11791474 -0.16233678
  -0.23534238 -0.04162038 -0.22906688 -0.1467601  -0.23936656 -0.17626993
   0.1375238   0.04815293  0.05010065  0.04087714 -0.12726744]
 [-0.17313561  0.08344709  0.22985211  0.08564566 -0.08894267  0.03859005
  -0.0320458  -0.03132078  0.13302885 -0.11135542 -0.2343671   0.16982506
  -0.20862718 -0.2211347   0.21418351  0.20554765 -0.18101868]] 
Episode: 7: [[-0.00058517  0.07814787 -0.1998486   0.19547431  0.08326453  0.18985781
  -0.04455514  0.16447625 -0.02494732  0.17180376 -0.22364984 -0.08645931
   0.07849405  0.03788971 -0.10931494 -0.05733183 -0.0010103 ]
 [ 0.12590234 -0.13251558  0.17313033  0.02733463  0.11778785 -0.16242948
  -0.23544133 -0.04172575 -0.2291598  -0.14687084 -0.23947717 -0.17631172
   0.13742046  0.04804     0.05005045  0.04077626 -0.12738574]
 [-0.17298697  0.08360062  0.22999515  0.08579596 -0.08879218  0.03872776
  -0.03189536 -0.03117746  0.13316026 -0.11119889 -0.23421396  0.16993815
  -0.2084748  -0.2209915   0.21431546  0.20569853 -0.18086687]] 
Episode: 8: [[-0.00074972  0.07797375 -0.20002252  0.19532451  0.08318675  0.18972427
  -0.04471707  0.1643271  -0.02504241  0.17165442 -0.22381367 -0.0866012
   0.0783461   0.03776883 -0.109478   -0.05747801 -0.00115649]
 [ 0.12583283 -0.13260257  0.17308183  0.02724808  0.11768129 -0.16249862
  -0.23552208 -0.04180711 -0.22923166 -0.14696394 -0.23956588 -0.17633009
   0.13733335  0.0479496   0.05002365  0.04069385 -0.12748225]
 [-0.1728457   0.08375191  0.23013984  0.08593731 -0.08863991  0.03886912
  -0.0317528  -0.03103333  0.13329506 -0.11105283 -0.23406121  0.17006001
  -0.2083306  -0.22084622  0.21445058  0.20584078 -0.1807169 ]] 
Episode: 9: [[-0.00098105  0.07815995 -0.20023833  0.19509576  0.08337907  0.18951124
  -0.04495898  0.16451555 -0.02524984  0.17161626 -0.22362565 -0.08681118
   0.07812425  0.03795824 -0.10969304 -0.05771056 -0.00096955]
 [ 0.12563287 -0.13280252  0.17288257  0.02704698  0.11747982 -0.1626985
  -0.23572245 -0.04200699 -0.22943209 -0.14716597 -0.23976614 -0.17652865
   0.13713187  0.04774908  0.04982487  0.0404932  -0.12768295]
 [-0.17264187  0.08395741  0.23034276  0.0861419  -0.08843504  0.03907153
  -0.03154858 -0.03082851  0.13349737 -0.11084697 -0.2338555   0.17026149
  -0.20812596 -0.22064121  0.21465303  0.20604508 -0.18051167]] 
Episode: 10: [[-0.00121848  0.07813947 -0.20047975  0.19486643  0.08333892  0.1892754
  -0.0451788   0.1645254  -0.02548492  0.17141904 -0.22363898 -0.0870553
   0.07789494  0.03790641 -0.10992904 -0.0579213  -0.00099282]
 [ 0.12566938 -0.132893    0.17289259  0.02710429  0.11737127 -0.16269656
  -0.23570107 -0.04210092 -0.22939856 -0.14712718 -0.23987016 -0.17650379
   0.13719305  0.04765871  0.0498536   0.04054635 -0.1277796 ]
 [-0.17259715  0.08410911  0.23050994  0.08616833 -0.08824847  0.03923159
  -0.03147365 -0.03068885  0.13366348 -0.11081264 -0.23368381  0.17041907
  -0.20807369 -0.22046253  0.21482284  0.206071   -0.1803608 ]] 
Episode: 11: [[-0.00107914  0.07831395 -0.2006556   0.19497156  0.08350415  0.18904984
  -0.04506486  0.16471294 -0.0257363   0.17154759 -0.22345747 -0.08723279
   0.07798062  0.03806345 -0.11002818 -0.05779063 -0.00081801]
 [ 0.12572119 -0.13308166  0.17290275  0.02723002  0.11716232 -0.1626453
  -0.23563673 -0.04229774 -0.22928227 -0.1470704  -0.24007769 -0.17648503
   0.13728914  0.04747135  0.04987323  0.04061876 -0.127978  ]
 [-0.17274287  0.08419201  0.23062955  0.08601496 -0.08806062  0.03932487
  -0.03160033 -0.03062894  0.13372816 -0.11095484 -0.23359625  0.1705344
  -0.20820928 -0.22035614  0.21489042  0.2059169  -0.18021467]] 
Episode: 12: [[-0.00099819  0.07834522 -0.20089029  0.19500655  0.08352842  0.18877353
  -0.04500254  0.16476303 -0.0260255   0.1716239  -0.22341497 -0.08746135
   0.07801142  0.03805709 -0.11019778 -0.0576981  -0.00080227]
 [ 0.125707   -0.13325562  0.17285398  0.02728494  0.1169719  -0.16264684
  -0.2356467  -0.04247164 -0.22923277 -0.14708416 -0.24025524 -0.17651081
   0.13732012  0.04728813  0.04982705  0.04062365 -0.12815678]
 [-0.17279798  0.08438422  0.23083332  0.08595631 -0.08780482  0.03950758
  -0.03163632 -0.03045218  0.13389312 -0.11100078 -0.23339899  0.1707249
  -0.2082537  -0.22014302  0.21506229  0.20584211 -0.17998445]] 
Episode: 13: [[-0.00079409  0.07853214 -0.20074838  0.1951972   0.08371382  0.18890373
  -0.04480323  0.16495635 -0.02590487  0.17182763 -0.22322834 -0.08732391
   0.07820022  0.03823045 -0.11005186 -0.05748846 -0.00061857]
 [ 0.12557144 -0.1334963   0.17269674  0.02721024  0.11671951 -0.16276944
  -0.23576336 -0.04270833 -0.22928974 -0.14720523 -0.2404967  -0.17662728
   0.13722627  0.04703969  0.04967603  0.04051904 -0.12840113]
 [-0.17296635  0.08429335  0.23072995  0.08578378 -0.08787142  0.03940813
  -0.03180405 -0.03056171  0.13377666 -0.11117139 -0.23348291  0.17061417
  -0.20842701 -0.22021855  0.21495232  0.20565224 -0.18006419]] 
Episode: 14: [[-0.0005382   0.07878578 -0.20051736  0.19544747  0.08396794  0.18912905
  -0.0445515   0.16521522 -0.02568376  0.17208008 -0.22297569 -0.08709509
   0.07845164  0.03847788 -0.10981949 -0.05723079 -0.0003648 ]
 [ 0.12535617 -0.13374393  0.17247406  0.02700677  0.116461   -0.16298409
  -0.23597436 -0.04295634 -0.22948925 -0.14741784 -0.2407475  -0.17683865
   0.13701884  0.04679428  0.04945745  0.04031013 -0.1286515 ]
 [-0.17308216  0.08426753  0.23057736  0.0856668  -0.08788085  0.03925746
  -0.03195081 -0.03058825  0.1336614  -0.11132417 -0.23352845  0.17048162
  -0.20853697 -0.22020431  0.21481372  0.20549256 -0.18003504]] 
Episode: 15: [[-3.7760631e-04  7.8970917e-02 -2.0040795e-01  1.9561990e-01
   8.4162757e-02  1.8922384e-01 -4.4376202e-02  1.6541794e-01
  -2.5594374e-02  1.7224154e-01 -2.2278780e-01 -8.6994395e-02
   7.8612462e-02  3.8660552e-02 -1.0972115e-01 -5.7048865e-02
  -1.5646558e-04]
 [ 1.2512870e-01 -1.3398637e-01  1.7225102e-01  2.6779033e-02
   1.1620726e-01 -1.6318434e-01 -2.3621152e-01 -4.3188222e-02
  -2.2967742e-01 -1.4764486e-01 -2.4100091e-01 -1.7704643e-01
   1.3679405e-01  4.6552602e-02  4.9252681e-02  4.0085491e-02
  -1.2889692e-01]
 [-1.7299135e-01  8.4370688e-02  2.3064402e-01  8.5753024e-02
  -8.7777168e-02  3.9331347e-02 -3.1872887e-02 -3.0533850e-02
   1.3374548e-01 -1.1124694e-01 -2.3342091e-01  1.7056346e-01
  -2.0844680e-01 -2.2008173e-01  2.1489559e-01  2.0554066e-01
  -1.7993021e-01]] 
Episode: 16: [[-3.03195906e-04  7.90232047e-02 -2.00394303e-01  1.95702106e-01
   8.42316225e-02  1.89231113e-01 -4.42898981e-02  1.65486321e-01
  -2.55979560e-02  1.72310710e-01 -2.22720310e-01 -8.69866684e-02
   7.86738023e-02  3.87071632e-02 -1.09717540e-01 -5.69591559e-02
  -9.63993225e-05]
 [ 1.24948494e-01 -1.34171993e-01  1.72076926e-01  2.65937876e-02
   1.15993537e-01 -1.63342297e-01 -2.36397788e-01 -4.33806367e-02
  -2.29820013e-01 -1.47819266e-01 -2.41215229e-01 -1.77201554e-01
   1.36627093e-01  4.63467129e-02  4.90823835e-02  3.99148017e-02
  -1.29095450e-01]
 [-1.72847122e-01  8.45663771e-02  2.30789289e-01  8.58968198e-02
  -8.75767246e-02  3.94832045e-02 -3.17420401e-02 -3.03636994e-02
   1.33903667e-01 -1.11109421e-01 -2.33218804e-01  1.70715004e-01
  -2.08302543e-01 -2.19866619e-01  2.15062618e-01  2.05649182e-01
  -1.79727778e-01]] 
Episode: 17: [[-3.4153773e-04  7.8975074e-02 -2.0051792e-01  1.9566332e-01
   8.4186442e-02  1.8910310e-01 -4.4311568e-02  1.6544154e-01
  -2.5737995e-02  1.7227167e-01 -2.2275893e-01 -8.7115884e-02
   7.8627378e-02  3.8644761e-02 -1.0984591e-01 -5.6977972e-02
  -1.4876816e-04]
 [ 1.2474269e-01 -1.3435943e-01  1.7188208e-01  2.6388226e-02
   1.1578312e-01 -1.6353109e-01 -2.3660134e-01 -4.3565810e-02
  -2.2999434e-01 -1.4801614e-01 -2.4142395e-01 -1.7738456e-01
   1.3643688e-01  4.6141431e-02  4.8883345e-02  3.9719902e-02
  -1.2928857e-01]
 [-1.7261238e-01  8.4830448e-02  2.3102498e-01  8.6131111e-02
  -8.7309919e-02  3.9721303e-02 -3.1516887e-02 -3.0115331e-02
   1.3414435e-01 -1.1087875e-01 -2.3295079e-01  1.7095323e-01
  -2.0806853e-01 -2.1959054e-01  2.1530846e-01  2.0586392e-01
  -1.7945957e-01]] 
Episode: 18: [[-2.1789526e-04  7.9078883e-02 -2.0049113e-01  1.9578265e-01
   8.4290259e-02  1.8911609e-01 -4.4179194e-02  1.6554917e-01
  -2.5734892e-02  1.7239179e-01 -2.2265708e-01 -8.7098993e-02
   7.8740790e-02  3.8733289e-02 -1.0982087e-01 -5.6852091e-02
  -4.2708751e-05]
 [ 1.2459220e-01 -1.3445406e-01  1.7178589e-01  2.6256951e-02
   1.1568512e-01 -1.6362152e-01 -2.3674177e-01 -4.3612681e-02
  -2.3006205e-01 -1.4816323e-01 -2.4151812e-01 -1.7747489e-01
   1.3631946e-01  4.6049725e-02  4.8766788e-02  3.9593086e-02
  -1.2937103e-01]
 [-1.7265260e-01  8.4783822e-02  2.3103680e-01  8.6091228e-02
  -8.7352589e-02  3.9746527e-02 -3.1569719e-02 -3.0183997e-02
   1.3417059e-01 -1.1092073e-01 -2.3299190e-01  1.7097542e-01
  -2.0811102e-01 -2.1961886e-01  2.1533206e-01  2.0581417e-01
  -1.7951046e-01]] 
Episode: 19: [[-2.15636042e-04  7.90375173e-02 -2.00559765e-01  1.95772871e-01
   8.42409655e-02  1.89038217e-01 -4.41699922e-02  1.65506646e-01
  -2.58201901e-02  1.72395959e-01 -2.22701326e-01 -8.71696174e-02
   7.87388235e-02  3.86734158e-02 -1.09881021e-01 -5.68413846e-02
  -7.90825870e-05]
 [ 1.24627486e-01 -1.34361640e-01  1.71896547e-01  2.63186209e-02
   1.15777031e-01 -1.63516834e-01 -2.36694455e-01 -4.34846878e-02
  -2.29945838e-01 -1.48110881e-01 -2.41419122e-01 -1.77370638e-01
   1.36375099e-01  4.61537614e-02  4.88534309e-02  3.96362022e-02
  -1.29265398e-01]
 [-1.72681004e-01  8.47535506e-02  2.31036678e-01  8.60528797e-02
  -8.73717219e-02  3.97594422e-02 -3.16161960e-02 -3.02490219e-02
   1.34178743e-01 -1.10966511e-01 -2.33031139e-01  1.70978725e-01
  -2.08150700e-01 -2.19645321e-01  2.15339497e-01  2.05769300e-01
  -1.79562315e-01]] 
Episode: 20: [[-2.2052154e-04  7.9019368e-02 -2.0063464e-01  1.9575864e-01
   8.4215552e-02  1.8895167e-01 -4.4165123e-02  1.6548611e-01
  -2.5921477e-02  1.7238960e-01 -2.2271970e-01 -8.7256879e-02
   7.8736886e-02  3.8632307e-02 -1.0995853e-01 -5.6844838e-02
  -8.8237626e-05]
 [ 1.2467321e-01 -1.3428232e-01  1.7200866e-01  2.6383216e-02
   1.1584243e-01 -1.6340153e-01 -2.3665814e-01 -4.3382011e-02
  -2.2981666e-01 -1.4806043e-01 -2.4134076e-01 -1.7725426e-01
   1.3642502e-01  4.6237104e-02  4.8956469e-02  3.9698374e-02
  -1.2917325e-01]
 [-1.7270914e-01  8.4707014e-02  2.3104231e-01  8.6017042e-02
  -8.7396868e-02  3.9774358e-02 -3.1649396e-02 -3.0316208e-02
   1.3419454e-01 -1.1099875e-01 -2.3308167e-01  1.7099135e-01
  -2.0818610e-01 -2.1967453e-01  2.1535464e-01  2.0572509e-01
  -1.7963229e-01]] 
Episode: 21: [[-1.6187431e-04  7.9061471e-02 -2.0063461e-01  1.9581516e-01
   8.4261730e-02  1.8892841e-01 -4.4090476e-02  1.6553284e-01
  -2.5951087e-02  1.7244945e-01 -2.2268283e-01 -8.7261401e-02
   7.8804247e-02  3.8661595e-02 -1.0997303e-01 -5.6775030e-02
  -3.1367497e-05]
 [ 1.2469646e-01 -1.3422273e-01  1.7210309e-01  2.6430199e-02
   1.1589046e-01 -1.6329406e-01 -2.3663688e-01 -4.3289095e-02
  -2.2970138e-01 -1.4803445e-01 -2.4127242e-01 -1.7717043e-01
   1.3645579e-01  4.6304051e-02  4.9044341e-02  3.9736032e-02
  -1.2909508e-01]
 [-1.7279167e-01  8.4607303e-02  2.3098235e-01  8.5919537e-02
  -8.7489679e-02  3.9729767e-02 -3.1748168e-02 -3.0443644e-02
   1.3414930e-01 -1.1108711e-01 -2.3318508e-01  1.7094155e-01
  -2.0828095e-01 -2.1976705e-01  2.1531497e-01  2.0561971e-01
  -1.7975985e-01]] 
Episode: 22: [[-1.57284638e-04  7.90411010e-02 -2.00681522e-01  1.95813924e-01
   8.42507854e-02  1.88866287e-01 -4.40780893e-02  1.65519059e-01
  -2.60236003e-02  1.72460705e-01 -2.22707212e-01 -8.73117074e-02
   7.88124949e-02  3.86274979e-02 -1.10029511e-01 -5.67613989e-02
  -3.47961686e-05]
 [ 1.24679685e-01 -1.34185806e-01  1.72155336e-01  2.64449976e-02
   1.15919054e-01 -1.63228378e-01 -2.36647785e-01 -4.32117060e-02
  -2.29634821e-01 -1.48041666e-01 -2.41203368e-01 -1.77121788e-01
   1.36462227e-01  4.63626608e-02  4.90930602e-02  3.97422872e-02
  -1.29038587e-01]
 [-1.72785401e-01  8.46025497e-02  2.30999619e-01  8.59103575e-02
  -8.74984935e-02  3.97530608e-02 -3.17541286e-02 -3.04891523e-02
   1.34179711e-01 -1.11094408e-01 -2.33214900e-01  1.70963526e-01
  -2.08293989e-01 -2.19776303e-01  2.15343818e-01  2.05600709e-01
  -1.79799885e-01]] 
Episode: 23: [[-1.60368407e-04  7.90033117e-02 -2.00732991e-01  1.95795089e-01
   8.42175037e-02  1.88802809e-01 -4.40726466e-02  1.65470958e-01
  -2.60992441e-02  1.72458902e-01 -2.22740248e-01 -8.73673633e-02
   7.88067952e-02  3.85637432e-02 -1.10094167e-01 -5.67741655e-02
  -6.37024787e-05]
 [ 1.24585897e-01 -1.34262189e-01  1.72080308e-01  2.63876189e-02
   1.15833685e-01 -1.63288698e-01 -2.36731902e-01 -4.32340167e-02
  -2.29691312e-01 -1.48136616e-01 -2.41255641e-01 -1.77199304e-01
   1.36409059e-01  4.63125482e-02  4.90359142e-02  3.96786518e-02
  -1.29096925e-01]
 [-1.72717527e-01  8.46999064e-02  2.31098458e-01  8.59701410e-02
  -8.74008089e-02  3.98540869e-02 -3.17015238e-02 -3.04261912e-02
   1.34287253e-01 -1.11022785e-01 -2.33136654e-01  1.71068713e-01
  -2.08251923e-01 -2.19674125e-01  2.15442434e-01  2.05657408e-01
  -1.79727465e-01]] 
Episode: 24: [[-1.6376129e-04  7.8956068e-02 -2.0078500e-01  1.9578105e-01
   8.4180728e-02  1.8872933e-01 -4.4073652e-02  1.6541499e-01
  -2.6175607e-02  1.7245698e-01 -2.2279561e-01 -8.7430008e-02
   7.8805670e-02  3.8503736e-02 -1.1017308e-01 -5.6783978e-02
  -9.8696626e-05]
 [ 1.2455318e-01 -1.3426645e-01  1.7206681e-01  2.6393889e-02
   1.1581101e-01 -1.6332114e-01 -2.3674920e-01 -4.3207686e-02
  -2.2972514e-01 -1.4817369e-01 -2.4125192e-01 -1.7724299e-01
   1.3639775e-01  4.6304420e-02  4.9018580e-02  3.9652389e-02
  -1.2910949e-01]
 [-1.7269117e-01  8.4750369e-02  2.3115663e-01  8.5979395e-02
  -8.7347142e-02  3.9946068e-02 -3.1688228e-02 -3.0392926e-02
   1.3438021e-01 -1.1099326e-01 -2.3308349e-01  1.7115782e-01
  -2.0824303e-01 -2.1960926e-01  2.1552999e-01  2.0568545e-01
  -1.7968468e-01]] 
Episode: 25: [[-1.48645777e-04  7.88968876e-02 -2.00826779e-01  1.95782140e-01
   8.41405392e-02  1.88683107e-01 -4.40541022e-02  1.65372610e-01
  -2.62185428e-02  1.72484294e-01 -2.22864613e-01 -8.74795169e-02
   7.88343102e-02  3.84492092e-02 -1.10242315e-01 -5.67762963e-02
  -1.30218701e-04]
 [ 1.24528117e-01 -1.34292766e-01  1.72033161e-01  2.63764374e-02
   1.15790978e-01 -1.63382918e-01 -2.36787051e-01 -4.31983769e-02
  -2.29788408e-01 -1.48216978e-01 -2.41274670e-01 -1.77303568e-01
   1.36356175e-01  4.63025533e-02  4.89657670e-02  3.95978913e-02
  -1.29131049e-01]
 [-1.72688961e-01  8.48296136e-02  2.31218919e-01  8.59910250e-02
  -8.72921422e-02  4.00327668e-02 -3.16812173e-02 -3.03595793e-02
   1.34463355e-01 -1.10989019e-01 -2.32994497e-01  1.71246246e-01
  -2.08243400e-01 -2.19554722e-01  2.15631038e-01  2.05715731e-01
  -1.79638132e-01]] 
Episode: 26: [[-1.81218071e-04  7.87936822e-02 -2.00905234e-01  1.95732579e-01
   8.40627626e-02  1.88596249e-01 -4.40852679e-02  1.65286437e-01
  -2.62919515e-02  1.72451839e-01 -2.22973749e-01 -8.75555947e-02
   7.88115487e-02  3.83541621e-02 -1.10340171e-01 -5.68158440e-02
  -2.01015879e-04]
 [ 1.24502242e-01 -1.34293437e-01  1.72036499e-01  2.63889190e-02
   1.15790643e-01 -1.63444534e-01 -2.36812949e-01 -4.31666598e-02
  -2.29817793e-01 -1.48226276e-01 -2.41268173e-01 -1.77341595e-01
   1.36312768e-01  4.63426821e-02  4.89266589e-02  3.95707674e-02
  -1.29153386e-01]
 [-1.72638550e-01  8.49336907e-02  2.31291711e-01  8.60316530e-02
  -8.72144625e-02  4.01570462e-02 -3.16311270e-02 -3.03001050e-02
   1.34552255e-01 -1.10948436e-01 -2.32888550e-01  1.71344817e-01
  -2.08191156e-01 -2.19492659e-01  2.15750992e-01  2.05775052e-01
  -1.79554328e-01]] 
Episode: 27: [[-1.5652878e-04  7.8774609e-02 -2.0090176e-01  1.9574547e-01
   8.4067956e-02  1.8859395e-01 -4.4056021e-02  1.6528273e-01
  -2.6285496e-02  1.7247431e-01 -2.2298139e-01 -8.7548614e-02
   7.8857675e-02  3.8340848e-02 -1.1035938e-01 -5.6795985e-02
  -1.9335505e-04]
 [ 1.2448078e-01 -1.3432121e-01  1.7199787e-01  2.6410012e-02
   1.1575783e-01 -1.6355650e-01 -2.3682506e-01 -4.3164819e-02
  -2.2989216e-01 -1.4822838e-01 -2.4128844e-01 -1.7742395e-01
   1.3629173e-01  4.6349771e-02  4.8852649e-02  3.9562229e-02
  -1.2919614e-01]
 [-1.7264928e-01  8.4974788e-02  2.3131482e-01  8.6004153e-02
  -8.7195061e-02  4.0236458e-02 -3.1652730e-02 -3.0297779e-02
   1.3459811e-01 -1.1097012e-01 -2.3286363e-01  1.7139499e-01
  -2.0822378e-01 -2.1948469e-01  2.1581785e-01  2.0576069e-01
  -1.7952964e-01]] 
Episode: 28: [[ 5.0937728e-05  7.8672640e-02 -2.0086658e-01  1.9596334e-01
   8.4286228e-02  1.8857010e-01 -4.3840170e-02  1.6506669e-01
  -2.6481921e-02  1.7262825e-01 -2.2318593e-01 -8.7334067e-02
   7.9039708e-02  3.8135052e-02 -1.1014402e-01 -5.6610219e-02
  -3.9345564e-04]
 [ 1.2454348e-01 -1.3411534e-01  1.7185371e-01  2.6198870e-02
   1.1590597e-01 -1.6379832e-01 -2.3704211e-01 -4.2947736e-02
  -2.2972457e-01 -1.4844367e-01 -2.4107805e-01 -1.7765431e-01
   1.3649632e-01  4.6560802e-02  4.9013659e-02  3.9375942e-02
  -1.2898490e-01]
 [-1.7285499e-01  8.4784530e-02  2.3139274e-01  8.5795775e-02
  -8.7411270e-02  4.0459886e-02 -3.1597696e-02 -3.0241104e-02
   1.3475348e-01 -1.1077158e-01 -2.3302683e-01  1.7127213e-01
  -2.0844142e-01 -2.1951674e-01  2.1560653e-01  2.0567647e-01
  -1.7972799e-01]] 
Episode: 29: [[ 0.00024704  0.07863111 -0.20076422  0.19616318  0.0844929   0.18858507
  -0.04362948  0.16488534 -0.02661473  0.17280662 -0.22335503 -0.0871193
   0.07920383  0.03802156 -0.10995299 -0.05640988 -0.00053592]
 [ 0.12448127 -0.1339737   0.17164637  0.02599199  0.11594251 -0.16406293
  -0.2372684  -0.04277576 -0.2296226  -0.14867319 -0.24092403 -0.17788142
   0.13665913  0.04668752  0.04911593  0.03912317 -0.1288181 ]
 [-0.173012    0.08464046  0.23146273  0.08562626 -0.08760381  0.04068655
  -0.03149605 -0.03014802  0.13487497 -0.11056555 -0.23311633  0.1711409
  -0.20862295 -0.21956013  0.21542497  0.20567617 -0.17989795]] 
Episode: 30: [[ 0.00053296  0.07880169 -0.20052132  0.1964216   0.08472186  0.1888002
  -0.04333789  0.16479419 -0.02651409  0.17308185 -0.22335778 -0.08683071
   0.07947277  0.03806789 -0.1097148  -0.05612244 -0.00051247]
 [ 0.12426159 -0.1339311   0.17135933  0.02574152  0.1158331  -0.16439188
  -0.23754221 -0.04266646 -0.22971486 -0.14893581 -0.24085182 -0.17816702
   0.13669738  0.04670628  0.04901052  0.03880201 -0.12871298]
 [-0.17323604  0.08445925  0.23133291  0.0853798  -0.08779703  0.04075791
  -0.03160874 -0.03019297  0.1347814  -0.1104935  -0.23327228  0.17090024
  -0.20886436 -0.21972507  0.21523108  0.20549728 -0.18010566]] 
Episode: 31: [[ 0.00080506  0.07894454 -0.20029925  0.1966594   0.08492757  0.18898083
  -0.04307486  0.16471156 -0.02642314  0.17333546 -0.22335126 -0.0865743
   0.07970089  0.03809509 -0.10949945 -0.05585606 -0.00051025]
 [ 0.12401447 -0.13390525  0.17106798  0.0255022   0.11573187 -0.16470519
  -0.23779789 -0.04257656 -0.22982381 -0.14918894 -0.24080497 -0.17843565
   0.13673148  0.04671539  0.04891323  0.03847996 -0.12863083]
 [-0.17342538  0.08431971  0.2312523   0.08516589 -0.08797015  0.04085816
  -0.03169142 -0.03019531  0.13473119 -0.11041353 -0.23338763  0.17071566
  -0.20907038 -0.21981469  0.21505623  0.20535885 -0.1802489 ]] 
Episode: 32: [[ 0.00094166  0.07890464 -0.2002093   0.1968166   0.08506914  0.18903226
  -0.04293216  0.1645702  -0.02642183  0.17342465 -0.22345626 -0.08641412
   0.07978196  0.03800904 -0.10934526 -0.05573462 -0.00062099]
 [ 0.12369291 -0.13398208  0.17071715  0.025212    0.11550291 -0.1650657
  -0.23810211 -0.04256623 -0.23003256 -0.14948983 -0.24084881 -0.178748
   0.13662447  0.04660832  0.04871742  0.03810902 -0.12862249]
 [-0.17337964  0.08441041  0.23141627  0.08521006 -0.08804439  0.04109437
  -0.03152709 -0.02998035  0.13490054 -0.11020102 -0.23323691  0.17081186
  -0.20905696 -0.21962836  0.21496852  0.20549405 -0.18017012]] 
Episode: 33: [[ 0.00109308  0.07896886 -0.20007657  0.19698183  0.08522723  0.18911643
  -0.04277318  0.16448216 -0.02638906  0.17356105 -0.22347839 -0.08624446
   0.07990584  0.03800861 -0.10918595 -0.05556404 -0.00066498]
 [ 0.12340236 -0.13403705  0.17039502  0.02495326  0.11530085 -0.16539417
  -0.2383673  -0.04255293 -0.23022865 -0.1497752  -0.2408812  -0.17903493
   0.1365206   0.04651096  0.04852839  0.03776702 -0.12861793]
 [-0.17336464  0.08441219  0.23150995  0.08520909 -0.08813982  0.04127108
  -0.03143006 -0.02986014  0.1350207  -0.11004057 -0.23318061  0.1708639
  -0.20907606 -0.21954225  0.2148743   0.2055552  -0.18013981]] 
