Episode: 1: [[0. 0. 0. 0. 0. 0. 0. 0. 0. 0.]
 [0. 0. 0. 0. 0. 0. 0. 0. 0. 0.]
 [0. 0. 0. 0. 0. 0. 0. 0. 0. 0.]
 [0. 0. 0. 0. 0. 0. 0. 0. 0. 0.]
 [0. 0. 0. 0. 0. 0. 0. 0. 0. 0.]] 
Episode: 2: [[ 0.0008      0.0008      0.00079999 -0.0008      0.0008      0.
   0.0008      0.          0.          0.0008    ]
 [ 0.0008     -0.0008      0.00079999  0.0008     -0.0008      0.
   0.0008      0.          0.          0.0008    ]
 [ 0.0008     -0.0008      0.00079999  0.0008     -0.0008      0.
  -0.0008      0.          0.         -0.0008    ]
 [ 0.0008     -0.0008     -0.0008      0.0008     -0.0008      0.
   0.0008      0.          0.         -0.0008    ]
 [ 0.0008      0.0008     -0.0008      0.0008      0.0008      0.
  -0.0008      0.          0.         -0.0008    ]] 
Episode: 3: [[ 0.0014582   0.00080261  0.00140183 -0.00144736  0.0014388   0.
   0.00140578  0.          0.          0.00052737]
 [ 0.00048985 -0.00026845  0.00139835  0.00152853 -0.00042548  0.
   0.00030822  0.          0.          0.00028482]
 [ 0.00049895 -0.00156705  0.00139785  0.00152133 -0.00145975  0.
  -0.0016      0.          0.         -0.00160083]
 [ 0.00075789 -0.00151162 -0.00025101  0.00156545 -0.00148302  0.
   0.00075789  0.          0.         -0.0016    ]
 [ 0.00158552  0.00030789 -0.00039417  0.00152894  0.00022303  0.
  -0.00021182  0.          0.         -0.00048779]] 
Episode: 4: [[ 2.0463679e-03  9.6542097e-04  1.8605056e-03 -2.0757713e-03
   1.9730784e-03  0.0000000e+00  1.4904916e-03  0.0000000e+00
   0.0000000e+00  5.0576974e-04]
 [ 6.6535540e-05  1.6385784e-04  1.8857139e-03  2.0299833e-03
  -1.7559274e-04  0.0000000e+00  1.5260580e-04  0.0000000e+00
   0.0000000e+00 -1.2363441e-04]
 [ 1.4419155e-04 -2.1238411e-03  1.9052220e-03  2.0467606e-03
  -1.9664150e-03  0.0000000e+00 -1.9641304e-03  0.0000000e+00
   0.0000000e+00 -2.0231628e-03]
 [ 6.1140727e-04 -2.0104588e-03  2.4428469e-04  2.2242698e-03
  -1.9969055e-03  0.0000000e+00  1.0265294e-03  0.0000000e+00
   0.0000000e+00 -1.8095939e-03]
 [ 2.3291109e-03 -1.2209003e-04 -7.3495125e-05  2.1334402e-03
  -2.1942091e-04  0.0000000e+00  3.6061672e-04  0.0000000e+00
   0.0000000e+00 -6.5215561e-04]] 
Episode: 5: [[ 2.6875045e-03  1.3363633e-03  2.2102206e-03 -2.4041964e-03
   2.4377450e-03  0.0000000e+00  1.3329437e-03  0.0000000e+00
   0.0000000e+00  4.9057009e-04]
 [-4.7019593e-04  5.4863282e-04  2.3064881e-03  2.5400377e-03
   6.9702155e-06  0.0000000e+00  1.1572841e-05  0.0000000e+00
   0.0000000e+00 -4.6558448e-04]
 [-3.2443655e-04 -2.6529343e-03  2.3399957e-03  2.5451994e-03
  -2.4106263e-03  0.0000000e+00 -2.0854797e-03  0.0000000e+00
   0.0000000e+00 -2.4985627e-03]
 [ 3.1338495e-04 -2.4437387e-03  6.4475235e-04  2.8292248e-03
  -2.4538147e-03  0.0000000e+00  1.4133891e-03  0.0000000e+00
   0.0000000e+00 -2.1908674e-03]
 [ 3.0946741e-03 -3.9311798e-04  7.7972953e-07  2.6461235e-03
  -5.6786905e-04  0.0000000e+00  4.6601702e-04  0.0000000e+00
   0.0000000e+00 -8.8836323e-04]] 
Episode: 6: [[ 3.2456724e-03  1.8728061e-03  2.6639074e-03 -2.5050319e-03
   2.8901508e-03  0.0000000e+00  1.6558578e-03  0.0000000e+00
   0.0000000e+00  4.3421920e-04]
 [-7.9687982e-04  1.0643654e-03  2.6555164e-03  2.9709046e-03
   4.3911469e-04  0.0000000e+00 -3.7035960e-04  0.0000000e+00
   0.0000000e+00 -8.6856377e-04]
 [-6.7957962e-04 -3.2230832e-03  2.6304519e-03  2.9747917e-03
  -2.8552732e-03  0.0000000e+00 -2.4004702e-03  0.0000000e+00
   0.0000000e+00 -3.0344045e-03]
 [ 3.1052536e-05 -2.9330852e-03  7.9503504e-04  3.3174776e-03
  -2.9459156e-03  0.0000000e+00  1.9067497e-03  0.0000000e+00
   0.0000000e+00 -2.6743917e-03]
 [ 3.8304478e-03 -3.9592228e-04  3.5315199e-04  3.2177521e-03
  -8.2304812e-04  0.0000000e+00  2.6752142e-04  0.0000000e+00
   0.0000000e+00 -1.2944553e-03]] 
Episode: 7: [[ 3.61472112e-03  1.62361120e-03  2.36316537e-03 -2.87561538e-03
   2.63224565e-03  0.00000000e+00  2.14098860e-03  0.00000000e+00
   0.00000000e+00  1.30853456e-04]
 [-1.29793608e-03  8.11998732e-04  2.76698219e-03  2.77530239e-03
   7.82546631e-05  0.00000000e+00 -4.10034787e-04  0.00000000e+00
   0.00000000e+00 -8.32820369e-04]
 [-1.17741805e-03 -3.83008970e-03  3.10210348e-03  2.89795478e-03
  -3.40967299e-03  0.00000000e+00 -2.83432333e-03  0.00000000e+00
   0.00000000e+00 -3.20062670e-03]
 [-3.97445518e-04 -3.52663826e-03  1.23206398e-03  3.35481903e-03
  -3.53945885e-03  0.00000000e+00  2.46906327e-03  0.00000000e+00
   0.00000000e+00 -2.88398587e-03]
 [ 3.89277167e-03 -7.96702225e-04  1.08372406e-04  3.86359240e-03
  -1.29371835e-03  0.00000000e+00 -9.72141424e-05  0.00000000e+00
   0.00000000e+00 -1.40061497e-03]] 
Episode: 8: [[ 4.1224305e-03  1.4004894e-03  2.1309573e-03 -3.1511239e-03
   2.3990425e-03  0.0000000e+00  2.6007514e-03  0.0000000e+00
   0.0000000e+00 -1.2160138e-04]
 [-1.8914302e-03  6.0017454e-04  2.9399232e-03  2.5996305e-03
  -2.4430326e-04  0.0000000e+00 -4.3939630e-04  0.0000000e+00
   0.0000000e+00 -8.1429054e-04]
 [-1.7598040e-03 -4.3904921e-03  3.5341280e-03  2.8314069e-03
  -3.9096489e-03  0.0000000e+00 -3.2023061e-03  0.0000000e+00
   0.0000000e+00 -3.4985789e-03]
 [-9.1824529e-04 -4.1057286e-03  1.6133181e-03  3.3584768e-03
  -4.0899832e-03  0.0000000e+00  2.7626907e-03  0.0000000e+00
   0.0000000e+00 -3.2067487e-03]
 [ 4.1397354e-03 -1.1385281e-03 -5.8983387e-05  4.5348024e-03
  -1.6889939e-03  0.0000000e+00 -1.9102776e-04  0.0000000e+00
   0.0000000e+00 -1.6258432e-03]] 
Episode: 9: [[ 4.7136093e-03  1.1070743e-03  1.9159162e-03 -3.3706804e-03
   2.1626661e-03  0.0000000e+00  2.7206067e-03  0.0000000e+00
   0.0000000e+00 -5.2237947e-04]
 [-2.5238590e-03  3.8296479e-04  3.1362646e-03  2.4551761e-03
  -5.3840602e-04  0.0000000e+00 -4.3866411e-04  0.0000000e+00
   0.0000000e+00 -7.9253374e-04]
 [-2.3646390e-03 -4.9029747e-03  3.9381240e-03  2.7724365e-03
  -4.3605771e-03  0.0000000e+00 -3.3772304e-03  0.0000000e+00
   0.0000000e+00 -3.6585280e-03]
 [-1.4461261e-03 -4.6276595e-03  1.9453326e-03  3.4036648e-03
  -4.5923027e-03  0.0000000e+00  2.9870556e-03  0.0000000e+00
   0.0000000e+00 -3.6133062e-03]
 [ 4.5203264e-03 -1.5629048e-03 -1.9374436e-04  5.2465894e-03
  -2.1055031e-03  0.0000000e+00 -9.8827179e-05  0.0000000e+00
   0.0000000e+00 -1.6433030e-03]] 
Episode: 10: [[ 5.1563610e-03  7.4522628e-04  1.7012778e-03 -3.7069200e-03
   1.8967065e-03  0.0000000e+00  2.6250877e-03  0.0000000e+00
   0.0000000e+00 -1.0190450e-03]
 [-3.1139581e-03  1.4273949e-04  3.2819365e-03  2.3071398e-03
  -8.1729383e-04  0.0000000e+00 -2.5696825e-04  0.0000000e+00
   0.0000000e+00 -6.4581889e-04]
 [-3.0080976e-03 -5.4164315e-03  4.2950297e-03  2.6911702e-03
  -4.7995090e-03  0.0000000e+00 -3.4427610e-03  0.0000000e+00
   0.0000000e+00 -3.8294564e-03]
 [-2.0355058e-03 -5.1522320e-03  2.2158693e-03  3.2218772e-03
  -5.0915279e-03  0.0000000e+00  3.0305828e-03  0.0000000e+00
   0.0000000e+00 -4.0840907e-03]
 [ 4.7575179e-03 -1.9971801e-03 -1.7278065e-04  5.8780466e-03
  -2.5105055e-03  0.0000000e+00 -4.8256439e-05  0.0000000e+00
   0.0000000e+00 -1.5526497e-03]] 
Episode: 11: [[ 5.5201580e-03  4.2113257e-04  1.5129262e-03 -3.9695520e-03
   1.6518459e-03  0.0000000e+00  2.6173103e-03  0.0000000e+00
   0.0000000e+00 -1.5134201e-03]
 [-3.6115458e-03 -6.5195578e-05  3.3953637e-03  2.1533796e-03
  -1.0607194e-03  0.0000000e+00 -1.6037375e-04  0.0000000e+00
   0.0000000e+00 -5.1568641e-04]
 [-3.5864930e-03 -5.8793984e-03  4.6054758e-03  2.5831060e-03
  -5.1977863e-03  0.0000000e+00 -3.5596846e-03  0.0000000e+00
   0.0000000e+00 -3.8012015e-03]
 [-2.6106450e-03 -5.6209629e-03  2.4439457e-03  2.9317078e-03
  -5.5494248e-03  0.0000000e+00  3.0739787e-03  0.0000000e+00
   0.0000000e+00 -4.3597668e-03]
 [ 4.9475920e-03 -2.3968674e-03 -1.2106872e-04  6.4118565e-03
  -2.8745974e-03  0.0000000e+00 -1.5692270e-04  0.0000000e+00
   0.0000000e+00 -1.5276168e-03]] 
Episode: 12: [[ 5.8372724e-03  1.2293889e-04  1.3390596e-03 -4.2104018e-03
   1.4284060e-03  0.0000000e+00  2.6471505e-03  0.0000000e+00
   0.0000000e+00 -1.9219749e-03]
 [-4.0243929e-03 -2.5900773e-04  3.4811904e-03  2.0117543e-03
  -1.2817696e-03  0.0000000e+00 -5.4720836e-05  0.0000000e+00
   0.0000000e+00 -4.0445547e-04]
 [-4.0270211e-03 -6.2991898e-03  4.8797247e-03  2.4921114e-03
  -5.5585336e-03  0.0000000e+00 -3.6365283e-03  0.0000000e+00
   0.0000000e+00 -3.8428965e-03]
 [-2.9686152e-03 -6.0381722e-03  2.6455293e-03  2.7245898e-03
  -5.9700450e-03  0.0000000e+00  3.2423339e-03  0.0000000e+00
   0.0000000e+00 -4.7118538e-03]
 [ 5.1442808e-03 -2.7658497e-03 -9.1156682e-05  6.9096321e-03
  -3.2067494e-03  0.0000000e+00 -3.7732907e-04  0.0000000e+00
   0.0000000e+00 -1.5201041e-03]] 
Episode: 13: [[ 6.2368638e-03 -1.5502637e-04  1.2040331e-03 -4.4460394e-03
   1.2329818e-03  0.0000000e+00  2.6934897e-03  0.0000000e+00
   0.0000000e+00 -2.3256557e-03]
 [-4.4688871e-03 -4.3416795e-04  3.5732090e-03  1.8707238e-03
  -1.4801254e-03  0.0000000e+00  5.9708644e-05  0.0000000e+00
   0.0000000e+00 -2.8409157e-04]
 [-4.4401889e-03 -6.7092222e-03  5.1364596e-03  2.4700193e-03
  -5.8968724e-03  0.0000000e+00 -3.6607510e-03  0.0000000e+00
   0.0000000e+00 -3.9674570e-03]
 [-3.1843907e-03 -6.4625223e-03  2.8378582e-03  2.7338178e-03
  -6.3775317e-03  0.0000000e+00  3.5101657e-03  0.0000000e+00
   0.0000000e+00 -5.1263617e-03]
 [ 5.4792720e-03 -3.1014285e-03 -9.1686125e-05  7.4847038e-03
  -3.4840819e-03  0.0000000e+00 -4.3108271e-04  0.0000000e+00
   0.0000000e+00 -1.5375315e-03]] 
Episode: 14: [[ 6.51799934e-03 -3.81832593e-04  1.08674588e-03 -4.69424110e-03
   1.06024509e-03  0.00000000e+00  2.72444077e-03  0.00000000e+00
   0.00000000e+00 -2.65464350e-03]
 [-4.76599811e-03 -5.79074025e-04  3.63610988e-03  1.75587775e-03
  -1.65155286e-03  0.00000000e+00  1.04802886e-04  0.00000000e+00
   0.00000000e+00 -1.81157578e-04]
 [-4.66374727e-03 -7.07875192e-03  5.34961978e-03  2.46860343e-03
  -6.20390987e-03  0.00000000e+00 -3.59483087e-03  0.00000000e+00
   0.00000000e+00 -4.11913218e-03]
 [-3.23438784e-03 -6.83950819e-03  2.98593100e-03  2.75333715e-03
  -6.74375752e-03  0.00000000e+00  3.79223935e-03  0.00000000e+00
   0.00000000e+00 -5.45800338e-03]
 [ 5.73135819e-03 -3.39003117e-03 -5.75833292e-05  7.95948692e-03
  -3.72812641e-03  0.00000000e+00 -6.02279208e-04  0.00000000e+00
   0.00000000e+00 -1.54400093e-03]] 
Episode: 15: [[ 6.6599119e-03 -5.9133925e-04  9.8313310e-04 -4.8877429e-03
   9.0851646e-04  0.0000000e+00  2.7860000e-03  0.0000000e+00
   0.0000000e+00 -2.9429907e-03]
 [-4.8620962e-03 -7.2228030e-04  3.6432818e-03  1.6721784e-03
  -1.8091406e-03  0.0000000e+00  1.2788344e-04  0.0000000e+00
   0.0000000e+00 -1.4300560e-04]
 [-4.6952893e-03 -7.4322033e-03  5.5138846e-03  2.4864555e-03
  -6.4881369e-03  0.0000000e+00 -3.5167641e-03  0.0000000e+00
   0.0000000e+00 -4.2548580e-03]
 [-3.1468710e-03 -7.1972180e-03  3.0897909e-03  2.7618166e-03
  -7.0795524e-03  0.0000000e+00  3.9162701e-03  0.0000000e+00
   0.0000000e+00 -5.7386444e-03]
 [ 5.9300344e-03 -3.6521505e-03 -2.2094251e-05  8.4055997e-03
  -3.9476114e-03  0.0000000e+00 -7.8098261e-04  0.0000000e+00
   0.0000000e+00 -1.4925885e-03]] 
Episode: 16: [[ 6.8486701e-03 -7.7155698e-04  9.1064331e-04 -4.9434979e-03
   7.6532795e-04  0.0000000e+00  2.9963779e-03  0.0000000e+00
   0.0000000e+00 -3.2384288e-03]
 [-4.9790004e-03 -8.3081890e-04  3.6866236e-03  1.6458682e-03
  -1.9533432e-03  0.0000000e+00  1.5761596e-04  0.0000000e+00
   0.0000000e+00 -4.4138815e-05]
 [-4.7723632e-03 -7.7254656e-03  5.6732176e-03  2.5592463e-03
  -6.7411154e-03  0.0000000e+00 -3.5979755e-03  0.0000000e+00
   0.0000000e+00 -4.3825395e-03]
 [-3.0988543e-03 -7.5087701e-03  3.1827702e-03  2.7595148e-03
  -7.3902174e-03  0.0000000e+00  3.9096228e-03  0.0000000e+00
   0.0000000e+00 -6.0903034e-03]
 [ 6.1769411e-03 -3.8791024e-03 -1.3750240e-06  8.8851508e-03
  -4.1437093e-03  0.0000000e+00 -9.6945715e-04  0.0000000e+00
   0.0000000e+00 -1.3506915e-03]] 
Episode: 17: [[ 6.8374802e-03 -1.0712127e-03  8.6761185e-04 -4.9747424e-03
   6.1553804e-04  0.0000000e+00  3.3073025e-03  0.0000000e+00
   0.0000000e+00 -3.6461721e-03]
 [-4.8335884e-03 -9.1850810e-04  3.6254001e-03  1.6564279e-03
  -2.0240496e-03  0.0000000e+00  1.8588014e-05  0.0000000e+00
   0.0000000e+00  9.4956260e-05]
 [-4.6936455e-03 -7.9508442e-03  5.7526091e-03  2.6629306e-03
  -6.9311573e-03  0.0000000e+00 -3.7680096e-03  0.0000000e+00
   0.0000000e+00 -4.3411856e-03]
 [-2.9331471e-03 -7.7945590e-03  3.2000337e-03  2.8622206e-03
  -7.6307687e-03  0.0000000e+00  4.0139589e-03  0.0000000e+00
   0.0000000e+00 -6.2930151e-03]
 [ 6.2000495e-03 -4.1972050e-03  1.6805636e-04  9.1209812e-03
  -4.3710158e-03  0.0000000e+00 -1.2526137e-03  0.0000000e+00
   0.0000000e+00 -1.0924340e-03]] 
Episode: 18: [[ 6.9822446e-03 -1.4424158e-03  6.6929875e-04 -4.8006936e-03
   4.8267539e-04  0.0000000e+00  3.4211241e-03  0.0000000e+00
   0.0000000e+00 -4.1402606e-03]
 [-4.9204556e-03 -1.1064743e-03  3.6032593e-03  1.6641832e-03
  -2.1418200e-03  0.0000000e+00 -2.5530061e-04  0.0000000e+00
   0.0000000e+00  4.7616784e-05]
 [-4.7625727e-03 -8.1704492e-03  5.9579425e-03  2.6492039e-03
  -7.1670017e-03  0.0000000e+00 -3.7776260e-03  0.0000000e+00
   0.0000000e+00 -4.1662166e-03]
 [-2.9094333e-03 -8.0031762e-03  3.3997605e-03  2.7891551e-03
  -7.9274178e-03  0.0000000e+00  4.2119352e-03  0.0000000e+00
   0.0000000e+00 -6.3690031e-03]
 [ 6.3514877e-03 -4.5336955e-03  9.2825547e-05  9.4686290e-03
  -4.6357820e-03  0.0000000e+00 -1.3818544e-03  0.0000000e+00
   0.0000000e+00 -7.4033445e-04]] 
Episode: 19: [[ 0.00723683 -0.00180257  0.00051169 -0.00469552  0.00036291  0.
   0.0036575   0.          0.         -0.00465923]
 [-0.0050332  -0.00125731  0.0036233   0.00166252 -0.00223849  0.
  -0.00041275  0.          0.          0.00010745]
 [-0.00484614 -0.0082779   0.00616326  0.00266278 -0.0073679   0.
  -0.003915    0.          0.         -0.0041495 ]
 [-0.00281526 -0.00811136  0.00357391  0.00283801 -0.008188    0.
   0.0042814   0.          0.         -0.00653519]
 [ 0.00662117 -0.00486201  0.00010405  0.00988294 -0.00486285  0.
  -0.00160694  0.          0.         -0.00031139]] 
Episode: 20: [[ 0.00747535 -0.00216241  0.00036193 -0.00463904  0.00024895  0.
   0.00377827  0.          0.         -0.00516296]
 [-0.00512767 -0.00140855  0.00364622  0.00166793 -0.00234363  0.
  -0.00051796  0.          0.          0.00015572]
 [-0.00488299 -0.00837256  0.00635535  0.00268364 -0.00757188  0.
  -0.00408597  0.          0.         -0.0040651 ]
 [-0.00265029 -0.00821805  0.00372079  0.00291099 -0.00845264  0.
   0.00424081  0.          0.         -0.00667197]
 [ 0.00687318 -0.00520046  0.00011225  0.01025277 -0.00511019  0.
  -0.00169445  0.          0.          0.00018124]] 
Episode: 21: [[ 7.7827829e-03 -2.4647750e-03  2.4366040e-04 -4.5849476e-03
   1.4958080e-04  0.0000000e+00  3.9902749e-03  0.0000000e+00
   0.0000000e+00 -5.6340769e-03]
 [-5.2697747e-03 -1.5296064e-03  3.7099540e-03  1.6858659e-03
  -2.4413962e-03  0.0000000e+00 -5.9749431e-04  0.0000000e+00
   0.0000000e+00  2.4106143e-04]
 [-4.9812314e-03 -8.4587773e-03  6.5349303e-03  2.7341058e-03
  -7.7569839e-03  0.0000000e+00 -4.3191747e-03  0.0000000e+00
   0.0000000e+00 -3.9956616e-03]
 [-2.5095586e-03 -8.3124917e-03  3.8494188e-03  3.0605304e-03
  -8.6924937e-03  0.0000000e+00  4.1054483e-03  0.0000000e+00
   0.0000000e+00 -6.8909437e-03]
 [ 7.1547437e-03 -5.4944614e-03  9.3108356e-05  1.0573569e-02
  -5.3276797e-03  0.0000000e+00 -1.7792151e-03  0.0000000e+00
   0.0000000e+00  5.3380040e-04]] 
Episode: 22: [[ 7.95265567e-03 -2.81791226e-03  1.54069668e-04 -4.62273229e-03
   4.04233106e-05  0.00000000e+00  4.23773890e-03  0.00000000e+00
   0.00000000e+00 -6.18027244e-03]
 [-5.31251309e-03 -1.64060073e-03  3.73751228e-03  1.70109014e-03
  -2.49953265e-03  0.00000000e+00 -7.70558312e-04  0.00000000e+00
   0.00000000e+00  3.35966470e-04]
 [-4.99367993e-03 -8.48764647e-03  6.68371655e-03  2.79182638e-03
  -7.90535845e-03  0.00000000e+00 -4.64505050e-03  0.00000000e+00
   0.00000000e+00 -3.82968038e-03]
 [-2.35143374e-03 -8.36439431e-03  3.95133486e-03  3.22261150e-03
  -8.88425857e-03  0.00000000e+00  3.88809154e-03  0.00000000e+00
   0.00000000e+00 -7.16658495e-03]
 [ 7.31865549e-03 -5.83451614e-03  1.52159264e-04  1.09376535e-02
  -5.57024917e-03  0.00000000e+00 -1.96135580e-03  0.00000000e+00
   0.00000000e+00  9.57289885e-04]] 
Episode: 23: [[ 8.19634553e-03 -2.94751930e-03  1.30708795e-04 -4.86977771e-03
   9.98506675e-06  0.00000000e+00  4.58078831e-03  0.00000000e+00
   0.00000000e+00 -6.73818309e-03]
 [-5.16462093e-03 -1.67730462e-03  3.73753416e-03  1.66347588e-03
  -2.55106296e-03  0.00000000e+00 -9.90168890e-04  0.00000000e+00
   0.00000000e+00  3.35079327e-04]
 [-4.89933463e-03 -8.63265526e-03  6.76068384e-03  2.86197336e-03
  -8.09135661e-03  0.00000000e+00 -5.04866801e-03  0.00000000e+00
   0.00000000e+00 -3.55989090e-03]
 [-2.10999767e-03 -8.59944057e-03  3.97760794e-03  3.31135490e-03
  -9.13882907e-03  0.00000000e+00  3.59949237e-03  0.00000000e+00
   0.00000000e+00 -7.31477235e-03]
 [ 7.52001768e-03 -6.14129519e-03  2.51379824e-04  1.13893505e-02
  -5.84870065e-03  0.00000000e+00 -2.01632013e-03  0.00000000e+00
   0.00000000e+00  1.21552078e-03]] 
Episode: 24: [[ 8.4914928e-03 -3.0236992e-03  1.3699048e-04 -5.0353603e-03
  -7.7250979e-06  0.0000000e+00  4.8269867e-03  0.0000000e+00
   0.0000000e+00 -7.2784992e-03]
 [-5.0485954e-03 -1.6983395e-03  3.7385856e-03  1.6844476e-03
  -2.5868542e-03  0.0000000e+00 -1.2719934e-03  0.0000000e+00
   0.0000000e+00  3.0937881e-04]
 [-4.8659802e-03 -8.7871319e-03  6.8092928e-03  2.9791016e-03
  -8.2526188e-03  0.0000000e+00 -5.4508224e-03  0.0000000e+00
   0.0000000e+00 -3.2829519e-03]
 [-1.9311849e-03 -8.8295946e-03  3.9789476e-03  3.4487874e-03
  -9.3600554e-03  0.0000000e+00  3.2950498e-03  0.0000000e+00
   0.0000000e+00 -7.5357691e-03]
 [ 7.7473428e-03 -6.3927225e-03  3.3444309e-04  1.1816113e-02
  -6.0898457e-03  0.0000000e+00 -1.9972557e-03  0.0000000e+00
   0.0000000e+00  1.4154827e-03]] 
Episode: 25: [[ 8.8805677e-03 -3.0463652e-03  1.6182652e-04 -5.1211845e-03
   3.4024483e-06  0.0000000e+00  5.1528402e-03  0.0000000e+00
   0.0000000e+00 -7.7216509e-03]
 [-5.0411723e-03 -1.7037463e-03  3.7797487e-03  1.7345584e-03
  -2.6162637e-03  0.0000000e+00 -1.4784496e-03  0.0000000e+00
   0.0000000e+00  3.5331328e-04]
 [-4.9386844e-03 -8.9411950e-03  6.8623815e-03  3.1562881e-03
  -8.3970623e-03  0.0000000e+00 -5.8969213e-03  0.0000000e+00
   0.0000000e+00 -3.1645338e-03]
 [-1.7993129e-03 -9.0457015e-03  3.9832992e-03  3.7128853e-03
  -9.5448596e-03  0.0000000e+00  2.9295052e-03  0.0000000e+00
   0.0000000e+00 -7.8256084e-03]
 [ 8.0807069e-03 -6.5833246e-03  3.7653957e-04  1.2169155e-02
  -6.3087777e-03  0.0000000e+00 -1.8772081e-03  0.0000000e+00
   0.0000000e+00  1.5025802e-03]] 
Episode: 26: [[ 9.2003364e-03 -3.0297623e-03  2.0143884e-04 -5.2170092e-03
   3.5960376e-05  0.0000000e+00  5.5267834e-03  0.0000000e+00
   0.0000000e+00 -8.0469577e-03]
 [-4.9793194e-03 -1.6857295e-03  3.7898887e-03  1.7727739e-03
  -2.6158348e-03  0.0000000e+00 -1.7212585e-03  0.0000000e+00
   0.0000000e+00  3.8901257e-04]
 [-4.9004634e-03 -9.0783481e-03  6.8863630e-03  3.3718247e-03
  -8.5172541e-03  0.0000000e+00 -6.2994915e-03  0.0000000e+00
   0.0000000e+00 -3.0866389e-03]
 [-1.5677311e-03 -9.2358794e-03  3.9655049e-03  4.0804595e-03
  -9.6995486e-03  0.0000000e+00  2.6988834e-03  0.0000000e+00
   0.0000000e+00 -8.0109118e-03]
 [ 8.4006665e-03 -6.7015048e-03  3.8702405e-04  1.2337256e-02
  -6.4707301e-03  0.0000000e+00 -1.8724548e-03  0.0000000e+00
   0.0000000e+00  1.4694032e-03]] 
Episode: 27: [[ 9.4995573e-03 -3.0180055e-03  2.4801123e-04 -5.2467235e-03
   6.9616006e-05  0.0000000e+00  5.8900556e-03  0.0000000e+00
   0.0000000e+00 -8.3577661e-03]
 [-4.9204924e-03 -1.6691128e-03  3.8043240e-03  1.8022262e-03
  -2.6139447e-03  0.0000000e+00 -1.9577562e-03  0.0000000e+00
   0.0000000e+00  4.1280012e-04]
 [-4.8543992e-03 -9.2176087e-03  6.9091036e-03  3.5412356e-03
  -8.6321058e-03  0.0000000e+00 -6.6673788e-03  0.0000000e+00
   0.0000000e+00 -3.0669523e-03]
 [-1.3355819e-03 -9.4322953e-03  3.9478103e-03  4.3705045e-03
  -9.8496173e-03  0.0000000e+00  2.5868174e-03  0.0000000e+00
   0.0000000e+00 -8.2680658e-03]
 [ 8.7140556e-03 -6.7955363e-03  3.9866980e-04  1.2429961e-02
  -6.6014128e-03  0.0000000e+00 -1.9016269e-03  0.0000000e+00
   0.0000000e+00  1.4690518e-03]] 
Episode: 28: [[ 0.00989168 -0.00301028  0.00032847 -0.00517261  0.00012023  0.
   0.00631088  0.          0.         -0.0086928 ]
 [-0.00497234 -0.00164652  0.0039143   0.00178914 -0.00261734  0.
  -0.00217952  0.          0.          0.00048356]
 [-0.00494102 -0.00938301  0.00695323  0.00370428 -0.00876068  0.
  -0.00706389  0.          0.         -0.00305123]
 [-0.00124596 -0.00968462  0.00392924  0.00470954 -0.01002958  0.
   0.00239483  0.          0.         -0.00858852]
 [ 0.00909071 -0.00687611  0.00038718  0.01243484 -0.00672675  0.
  -0.00182659  0.          0.          0.00143969]] 
Episode: 29: [[ 0.0102833  -0.00304464  0.00040245 -0.0050816   0.00016609  0.
   0.00655796  0.          0.         -0.00907046]
 [-0.0050332  -0.00163891  0.00401761  0.00180666 -0.00262541  0.
  -0.00231254  0.          0.          0.00051367]
 [-0.00495013 -0.0095496   0.00699729  0.00391072 -0.00888423  0.
  -0.00729246  0.          0.         -0.00310705]
 [-0.00105477 -0.00995311  0.00391226  0.00513927 -0.01020347  0.
   0.00224641  0.          0.         -0.00896483]
 [ 0.00949857 -0.00699024  0.0003817   0.01231719 -0.00687516  0.
  -0.00166103  0.          0.          0.00152368]] 
Episode: 30: [[ 0.0107543  -0.00291219  0.00047028 -0.00513891  0.0002921   0.
   0.0067276   0.          0.         -0.00938016]
 [-0.00525086 -0.00160731  0.00419775  0.001734   -0.0026551   0.
  -0.00227555  0.          0.          0.00063693]
 [-0.00508155 -0.00975402  0.00705484  0.00405176 -0.00904034  0.
  -0.00740441  0.          0.         -0.00315849]
 [-0.000996   -0.01018329  0.00389422  0.00552465 -0.01039935  0.
   0.00203319  0.          0.         -0.00939053]
 [ 0.00994668 -0.00695678  0.00030762  0.01218048 -0.0069277   0.
  -0.00141549  0.          0.          0.00148996]] 
Episode: 31: [[ 0.01129246 -0.00269044  0.00061415 -0.00517861  0.00044836  0.
   0.00687451  0.          0.         -0.00979197]
 [-0.0055971  -0.00151861  0.0044689   0.00171344 -0.00266479  0.
  -0.00234914  0.          0.          0.00081924]
 [-0.00531747 -0.01000314  0.00709093  0.00425264 -0.00920579  0.
  -0.00761884  0.          0.         -0.0030791 ]
 [-0.00105225 -0.0104655   0.00382099  0.00594502 -0.01061332  0.
   0.00188814  0.          0.         -0.00968176]
 [ 0.0104415  -0.0068815   0.00022641  0.0120717  -0.00693804  0.
  -0.00124712  0.          0.          0.00156639]] 
Episode: 32: [[ 0.01184823 -0.00248176  0.00077084 -0.00520771  0.00060076  0.
   0.00706635  0.          0.         -0.01020701]
 [-0.00593963 -0.00142768  0.004751    0.00170979 -0.00267091  0.
  -0.00243248  0.          0.          0.00100751]
 [-0.00559145 -0.01023254  0.00712537  0.00448607 -0.0093488   0.
  -0.00792174  0.          0.         -0.00306788]
 [-0.00114745 -0.0107304   0.00375188  0.00644452 -0.01078864  0.
   0.00166608  0.          0.         -0.01003064]
 [ 0.01096493 -0.00680759  0.00015057  0.01208722 -0.00694503  0.
  -0.00099944  0.          0.          0.00173896]] 
Episode: 33: [[ 0.0124111  -0.00230116  0.00092824 -0.00525077  0.00073786  0.
   0.00722167  0.          0.         -0.01058245]
 [-0.00627876 -0.00136011  0.00501251  0.00162435 -0.00268553  0.
  -0.00251441  0.          0.          0.00103635]
 [-0.00581413 -0.01045027  0.00716473  0.00465645 -0.00950652  0.
  -0.008078    0.          0.         -0.00304119]
 [-0.00116773 -0.01094184  0.00369186  0.00698917 -0.01098124  0.
   0.00155967  0.          0.         -0.01025476]
 [ 0.01151514 -0.00673704  0.00015293  0.01197196 -0.00695816  0.
  -0.00087557  0.          0.          0.00178884]] 
Episode: 34: [[ 0.01289878 -0.00219352  0.00107416 -0.0053177   0.00083794  0.
   0.00740964  0.          0.         -0.0109797 ]
 [-0.00656767 -0.00130388  0.0052437   0.00151682 -0.00269049  0.
  -0.00265392  0.          0.          0.00107492]
 [-0.00598741 -0.01063438  0.00719499  0.00476029 -0.00965291  0.
  -0.00820674  0.          0.         -0.00296888]
 [-0.00117379 -0.0111427   0.00362247  0.0073387  -0.01116816  0.
   0.00155582  0.          0.         -0.01037056]
 [ 0.01199874 -0.00671445  0.00018963  0.0119527  -0.00698344  0.
  -0.00086105  0.          0.          0.00193536]] 
Episode: 35: [[ 0.01345212 -0.00193406  0.00145142 -0.00514566  0.00108157  0.
   0.00769864  0.          0.         -0.01141847]
 [-0.00696709 -0.00109564  0.0056217   0.00136317 -0.0025655   0.
  -0.0029217   0.          0.          0.00122985]
 [-0.00626089 -0.01059278  0.00722904  0.00489204 -0.00982411  0.
  -0.0084319   0.          0.         -0.00278102]
 [-0.00128813 -0.01107024  0.0036051   0.00777084 -0.01125786  0.
   0.00146172  0.          0.         -0.01038712]
 [ 0.01256453 -0.00659111  0.00037196  0.01197099 -0.00689842  0.
  -0.00075294  0.          0.          0.00196473]] 
Episode: 36: [[ 0.01394399 -0.0017088   0.00178656 -0.00504717  0.00129786  0.
   0.00792759  0.          0.         -0.01181348]
 [-0.00731807 -0.00091296  0.00594148  0.00120066 -0.00245203  0.
  -0.00312708  0.          0.          0.00135544]
 [-0.00648031 -0.01055781  0.00724674  0.00500085 -0.0099764   0.
  -0.00858112  0.          0.         -0.00260414]
 [-0.00133986 -0.01100565  0.0035753   0.00817272 -0.01133833  0.
   0.00146765  0.          0.         -0.01037735]
 [ 0.01308437 -0.0064867   0.00053794  0.01196021 -0.00682055  0.
  -0.0007508   0.          0.          0.0019496 ]] 
Episode: 37: [[ 0.0145007  -0.00148868  0.00212397 -0.00494333  0.00149269  0.
   0.00816238  0.          0.         -0.0122489 ]
 [-0.00770222 -0.00073562  0.00625543  0.00109744 -0.00234591  0.
  -0.00332955  0.          0.          0.00163525]
 [-0.00679323 -0.01052525  0.00722424  0.00518107 -0.01009959  0.
  -0.00882361  0.          0.         -0.00232624]
 [-0.00146383 -0.01094214  0.0034891   0.00865039 -0.01138674  0.
   0.00138333  0.          0.         -0.01045624]
 [ 0.01360309 -0.00635545  0.00071989  0.01200968 -0.00674282  0.
  -0.00065516  0.          0.          0.0020252 ]] 
Episode: 38: [[ 0.01501284 -0.0011394   0.00252337 -0.00483424  0.00177383  0.
   0.00849285  0.          0.         -0.01261508]
 [-0.0079913  -0.00044526  0.00657004  0.00090467 -0.00215606  0.
  -0.00365068  0.          0.          0.00177051]
 [-0.00696624 -0.01044152  0.00716927  0.00529592 -0.01017672  0.
  -0.00914763  0.          0.         -0.00203299]
 [-0.00146587 -0.01084872  0.00337634  0.0091932  -0.01137236  0.
   0.00121865  0.          0.         -0.01043967]
 [ 0.01416937 -0.00609644  0.00097427  0.011924   -0.00659245  0.
  -0.00047652  0.          0.          0.00199223]] 
Episode: 39: [[ 0.01556666 -0.0008491   0.00290108 -0.00467137  0.00204664  0.
   0.00877947  0.          0.         -0.01307933]
 [-0.00826938 -0.00018194  0.00686068  0.00075326 -0.00197344  0.
  -0.00401959  0.          0.          0.00186989]
 [-0.00705818 -0.01042506  0.00711583  0.00546507 -0.01026141  0.
  -0.00945249  0.          0.         -0.00189594]
 [-0.00136088 -0.01083873  0.00326401  0.00979215 -0.01138829  0.
   0.00115989  0.          0.         -0.01051173]
 [ 0.01480634 -0.00588871  0.00124917  0.01180436 -0.006416    0.
  -0.00039639  0.          0.          0.00206229]] 
Episode: 40: [[ 1.6104158e-02 -5.8295717e-04  3.2319338e-03 -4.5303246e-03
   2.2966831e-03  0.0000000e+00  8.9133093e-03  0.0000000e+00
   0.0000000e+00 -1.3483628e-02]
 [-8.5593211e-03  4.2380088e-05  7.1389922e-03  6.4293644e-04
  -1.8272015e-03  0.0000000e+00 -4.2381310e-03  0.0000000e+00
   0.0000000e+00  1.9795781e-03]
 [-7.1863183e-03 -1.0448182e-02  7.0821596e-03  5.6651095e-03
  -1.0366342e-02  0.0000000e+00 -9.6149184e-03  0.0000000e+00
   0.0000000e+00 -1.7715213e-03]
 [-1.3036041e-03 -1.0862835e-02  3.1734460e-03  1.0438957e-02
  -1.1444255e-02  0.0000000e+00  1.1956107e-03  0.0000000e+00
   0.0000000e+00 -1.0614993e-02]
 [ 1.5408927e-02 -5.7020001e-03  1.5019353e-03  1.1667878e-02
  -6.2522115e-03  0.0000000e+00 -2.3226249e-04  0.0000000e+00
   0.0000000e+00  2.0261719e-03]] 
Episode: 41: [[ 1.6701629e-02 -3.0549214e-04  3.5815316e-03 -4.3016202e-03
   2.5314351e-03  0.0000000e+00  8.9716064e-03  0.0000000e+00
   0.0000000e+00 -1.3979504e-02]
 [-8.9714406e-03  2.4906680e-04  7.5300778e-03  5.9993844e-04
  -1.7158312e-03  0.0000000e+00 -4.4285962e-03  0.0000000e+00
   0.0000000e+00  2.1115858e-03]
 [-7.4174283e-03 -1.0489395e-02  7.0838542e-03  5.8450848e-03
  -1.0478672e-02  0.0000000e+00 -9.8252138e-03  0.0000000e+00
   0.0000000e+00 -1.5758934e-03]
 [-1.3591392e-03 -1.0876634e-02  3.0954906e-03  1.0896839e-02
  -1.1503154e-02  0.0000000e+00  1.2706161e-03  0.0000000e+00
   0.0000000e+00 -1.0794923e-02]
 [ 1.6076637e-02 -5.4651564e-03  1.6103198e-03  1.1616598e-02
  -6.0691331e-03  0.0000000e+00 -9.5438787e-05  0.0000000e+00
   0.0000000e+00  1.8960073e-03]] 
Episode: 42: [[ 0.01735079 -0.00019829  0.00393502 -0.00414195  0.0027081   0.
   0.00912443  0.          0.         -0.01455288]
 [-0.0094239   0.00043276  0.00794189  0.00054397 -0.00161709  0.
  -0.00456504  0.          0.          0.00227722]
 [-0.0076279  -0.01060985  0.00711202  0.00607282 -0.01061845  0.
  -0.0100937   0.          0.         -0.00152363]
 [-0.00130319 -0.01103973  0.00303179  0.01141703 -0.01164083  0.
   0.00124914  0.          0.         -0.01104334]
 [ 0.01679934 -0.00546417  0.00161298  0.01163852 -0.00597788  0.
   0.00011996  0.          0.          0.0018769 ]] 
Episode: 43: [[ 1.7965313e-02 -6.2912564e-05  4.2554075e-03 -4.0058773e-03
   2.8849095e-03  0.0000000e+00  9.2939725e-03  0.0000000e+00
   0.0000000e+00 -1.5032844e-02]
 [-9.8319231e-03  6.1596651e-04  8.3039170e-03  5.0167809e-04
  -1.5225633e-03  0.0000000e+00 -4.6932590e-03  0.0000000e+00
   0.0000000e+00  2.4416172e-03]
 [-7.7653388e-03 -1.0726271e-02  7.1238526e-03  6.3072559e-03
  -1.0749632e-02  0.0000000e+00 -1.0357116e-02  0.0000000e+00
   0.0000000e+00 -1.5416013e-03]
 [-1.1489271e-03 -1.1181984e-02  2.9510614e-03  1.1952681e-02
  -1.1759247e-02  0.0000000e+00  1.1415096e-03  0.0000000e+00
   0.0000000e+00 -1.1319800e-02]
 [ 1.7493287e-02 -5.4302434e-03  1.5959000e-03  1.1647260e-02
  -5.8779675e-03  0.0000000e+00  2.8838657e-04  0.0000000e+00
   0.0000000e+00  1.7632511e-03]] 
Episode: 44: [[ 1.85697842e-02  3.37352176e-05  4.54579666e-03 -3.87896644e-03
   3.02281021e-03  0.00000000e+00  9.43225995e-03  0.00000000e+00
   0.00000000e+00 -1.55531429e-02]
 [-1.02309706e-02  7.70544808e-04  8.64547957e-03  4.76643705e-04
  -1.44605304e-03  0.00000000e+00 -4.77026869e-03  0.00000000e+00
   0.00000000e+00  2.58857571e-03]
 [-7.89061189e-03 -1.08336844e-02  7.14202691e-03  6.53924327e-03
  -1.08738886e-02  0.00000000e+00 -1.05545465e-02  0.00000000e+00
   0.00000000e+00 -1.58679381e-03]
 [-9.69398825e-04 -1.13110812e-02  2.87980074e-03  1.24561535e-02
  -1.18723847e-02  0.00000000e+00  1.13304763e-03  0.00000000e+00
   0.00000000e+00 -1.16550960e-02]
 [ 1.81686673e-02 -5.42297773e-03  1.52047258e-03  1.16559910e-02
  -5.78977447e-03  0.00000000e+00  4.01692028e-04  0.00000000e+00
   0.00000000e+00  1.75757019e-03]] 
Episode: 45: [[ 0.01916618  0.00013267  0.00481882 -0.00376092  0.00315746  0.
   0.00957875  0.          0.         -0.01601665]
 [-0.01062164  0.00092173  0.00897196  0.00047121 -0.00137376  0.
  -0.00479978  0.          0.          0.00273493]
 [-0.00802254 -0.01094553  0.00716072  0.00677815 -0.0109922   0.
  -0.01074785  0.          0.         -0.00169903]
 [-0.00079363 -0.01144376  0.00282216  0.01298308 -0.01198442  0.
   0.00103767  0.          0.         -0.01204298]
 [ 0.01884084 -0.00540977  0.00140627  0.01171899 -0.00570468  0.
   0.0005972   0.          0.          0.00182581]] 
Episode: 46: [[ 0.01981592  0.00038615  0.00519629 -0.00334655  0.00341182  0.
   0.00983204  0.          0.         -0.01628646]
 [-0.01112114  0.0011032   0.00944257  0.00042909 -0.00132007  0.
  -0.00477906  0.          0.          0.00306899]
 [-0.00825976 -0.01131366  0.00721716  0.00708199 -0.01124927  0.
  -0.01080919  0.          0.         -0.00191906]
 [-0.00074225 -0.01174361  0.00280023  0.01356534 -0.01225717  0.
   0.00103961  0.          0.         -0.01247788]
 [ 0.01956848 -0.00545352  0.00142934  0.01164184 -0.00567923  0.
   0.00067867  0.          0.          0.00179136]] 
Episode: 47: [[ 0.02027245  0.00046749  0.00551966 -0.00300491  0.00354179  0.
   0.01001118  0.          0.         -0.0166273 ]
 [-0.0114558   0.00123327  0.00978035  0.00037778 -0.00127006  0.
  -0.00477569  0.          0.          0.00333268]
 [-0.00835164 -0.01160504  0.00723284  0.0071855  -0.01147178  0.
  -0.01075843  0.          0.         -0.00207445]
 [-0.00059195 -0.0120043   0.00274424  0.01397055 -0.01251546  0.
   0.00112863  0.          0.         -0.01278171]
 [ 0.02019448 -0.00560061  0.00150706  0.01170385 -0.00570524  0.
   0.00065849  0.          0.          0.00185554]] 
Episode: 48: [[ 0.02069205  0.00054529  0.00581225 -0.00270115  0.00366635  0.
   0.01018902  0.          0.         -0.016941  ]
 [-0.01176398  0.0013521   0.01008471  0.00032934 -0.00122417  0.
  -0.00476241  0.          0.          0.00357048]
 [-0.00842918 -0.01187079  0.00724735  0.00729547 -0.01168011  0.
  -0.01069415  0.          0.         -0.00222391]
 [-0.00044174 -0.01224359  0.00269314  0.01438425 -0.01275979  0.
   0.00126053  0.          0.         -0.01310374]
 [ 0.02077931 -0.00572752  0.00157989  0.01171128 -0.00572251  0.
   0.00059003  0.          0.          0.00188915]] 
Episode: 49: [[ 0.0210369   0.0006246   0.00608003 -0.00243025  0.00378644  0.
   0.01036984  0.          0.         -0.01723952]
 [-0.01201881  0.00147275  0.01035579  0.00025556 -0.00116654  0.
  -0.00480937  0.          0.          0.00375773]
 [-0.00849915 -0.01209559  0.00725662  0.00734494 -0.01186652  0.
  -0.01065762  0.          0.         -0.00229304]
 [-0.00033973 -0.01244076  0.00264934  0.01464636 -0.01296829  0.
   0.00146647  0.          0.         -0.01330593]
 [ 0.02129108 -0.00582695  0.00171874  0.01172386 -0.00574863  0.
   0.0004354   0.          0.          0.00182384]] 
Episode: 50: [[ 0.02135548  0.00072938  0.00627887 -0.00229484  0.00391436  0.
   0.01040519  0.          0.         -0.01748171]
 [-0.01222211  0.00155889  0.01057311  0.0001079  -0.00114503  0.
  -0.00471615  0.          0.          0.00392131]
 [-0.00849364 -0.0123452   0.00727118  0.00734987 -0.01204508  0.
  -0.01051443  0.          0.         -0.00247562]
 [-0.00018532 -0.01262489  0.00262278  0.01488103 -0.01316146  0.
   0.00173695  0.          0.         -0.01357418]
 [ 0.02179086 -0.00586882  0.0018762   0.01167299 -0.00574342  0.
   0.00037715  0.          0.          0.00167041]] 
Episode: 51: [[ 2.16363240e-02  8.31589510e-04  6.45951787e-03 -2.19687284e-03
   4.03148355e-03  0.00000000e+00  1.04253991e-02  0.00000000e+00
   0.00000000e+00 -1.77259482e-02]
 [-1.23963142e-02  1.63648953e-03  1.07862093e-02 -4.30702821e-05
  -1.13383203e-03  0.00000000e+00 -4.57200827e-03  0.00000000e+00
   0.00000000e+00  4.03005397e-03]
 [-8.44513532e-03 -1.25850504e-02  7.30165653e-03  7.31905596e-03
  -1.22320186e-02  0.00000000e+00 -1.02772322e-02  0.00000000e+00
   0.00000000e+00 -2.58751633e-03]
 [ 1.90023075e-05 -1.27947293e-02  2.63388362e-03  1.50168044e-02
  -1.33679435e-02  0.00000000e+00  2.06694263e-03  0.00000000e+00
   0.00000000e+00 -1.37285544e-02]
 [ 2.22548433e-02 -5.91704203e-03  1.97004410e-03  1.15295015e-02
  -5.71829733e-03  0.00000000e+00  2.32092410e-04  0.00000000e+00
   0.00000000e+00  1.48837501e-03]] 
Episode: 52: [[ 2.18290519e-02  8.52285069e-04  6.61345012e-03 -2.16096570e-03
   4.09735227e-03  0.00000000e+00  1.04114590e-02  0.00000000e+00
   0.00000000e+00 -1.80450771e-02]
 [-1.25276428e-02  1.69624458e-03  1.09382831e-02 -1.62750264e-04
  -1.11055968e-03  0.00000000e+00 -4.38302476e-03  0.00000000e+00
   0.00000000e+00  4.04338632e-03]
 [-8.36506113e-03 -1.27932103e-02  7.31683383e-03  7.27709336e-03
  -1.23983324e-02  0.00000000e+00 -9.95709002e-03  0.00000000e+00
   0.00000000e+00 -2.61523598e-03]
 [ 2.27471901e-04 -1.29487738e-02  2.63226172e-03  1.50253419e-02
  -1.35651883e-02  0.00000000e+00  2.45022262e-03  0.00000000e+00
   0.00000000e+00 -1.37808835e-02]
 [ 2.26124078e-02 -6.04664162e-03  2.07922817e-03  1.15322759e-02
  -5.73291257e-03  0.00000000e+00  9.54156803e-06  0.00000000e+00
   0.00000000e+00  1.42045680e-03]] 
Episode: 53: [[ 0.02199982  0.0008527   0.00674215 -0.00215674  0.00415324  0.
   0.01039764  0.          0.         -0.01838961]
 [-0.01266152  0.00173372  0.01108436 -0.00028902 -0.0010991   0.
  -0.00413997  0.          0.          0.00404893]
 [-0.00831448 -0.01297576  0.00734919  0.00719864 -0.01256921  0.
  -0.00956375  0.          0.         -0.00257877]
 [ 0.00038065 -0.0130689   0.00265048  0.01492165 -0.01377655  0.
   0.00288121  0.          0.         -0.01374174]
 [ 0.02292447 -0.00617237  0.00214991  0.01158948 -0.00570608  0.
  -0.00028218  0.          0.          0.00137155]] 
Episode: 54: [[ 0.02227548  0.00089229  0.00688198 -0.0021491   0.0042249   0.
   0.01042912  0.          0.         -0.01875153]
 [-0.01294075  0.00178256  0.01134226 -0.00039042 -0.00112475  0.
  -0.00399902  0.          0.          0.00418638]
 [-0.00839201 -0.01320738  0.00741814  0.00715067 -0.01280862  0.
  -0.00917352  0.          0.         -0.00244051]
 [ 0.00040944 -0.01324073  0.00268751  0.01481106 -0.01406401  0.
   0.0033549   0.          0.         -0.01366992]
 [ 0.02334085 -0.00624437  0.00219598  0.01168262 -0.00564106  0.
  -0.00063567  0.          0.          0.00123214]] 
Episode: 55: [[ 0.02252724  0.00092615  0.00702103 -0.00214642  0.0042864   0.
   0.01044851  0.          0.         -0.01914198]
 [-0.01316652  0.00182526  0.01158375 -0.00044174 -0.00114868  0.
  -0.00393477  0.          0.          0.00425442]
 [-0.00838428 -0.01339985  0.00748105  0.00716483 -0.01303756  0.
  -0.00879554  0.          0.         -0.00222518]
 [ 0.00054219 -0.01338886  0.00268283  0.01468177 -0.01434067  0.
   0.00369397  0.          0.         -0.01351879]
 [ 0.02375063 -0.00631803  0.00227384  0.01189426 -0.00559659  0.
  -0.00086122  0.          0.          0.00119015]] 
Episode: 56: [[ 0.02268336  0.00098097  0.00714714 -0.00216457  0.00436188  0.
   0.01048568  0.          0.         -0.01948625]
 [-0.0132994   0.00187627  0.01179212 -0.00047746 -0.00115078  0.
  -0.00389676  0.          0.          0.00433132]
 [-0.00825978 -0.01356288  0.00752942  0.00719656 -0.01322265  0.
  -0.00852668  0.          0.         -0.00200658]
 [ 0.00076702 -0.01350366  0.00267405  0.01461261 -0.01455037  0.
   0.00391232  0.          0.         -0.01329658]
 [ 0.0240939  -0.00634765  0.00231052  0.01207931 -0.00554364  0.
  -0.00097233  0.          0.          0.00111865]] 
Episode: 57: [[ 0.02286304  0.00105565  0.00726644 -0.00217541  0.00445565  0.
   0.01047804  0.          0.         -0.0197354 ]
 [-0.01344215  0.00192637  0.01197876 -0.00052334 -0.00114928  0.
  -0.00381038  0.          0.          0.00442563]
 [-0.00817981 -0.01370594  0.00756233  0.00723461 -0.01338117  0.
  -0.00822516  0.          0.         -0.001793  ]
 [ 0.00095137 -0.01359658  0.00265582  0.01464079 -0.0147192   0.
   0.00418809  0.          0.         -0.01301064]
 [ 0.02442638 -0.0063584   0.0023347   0.01212697 -0.00547148  0.
  -0.00115892  0.          0.          0.00095879]] 
Episode: 58: [[ 0.02303096  0.00110683  0.0073628  -0.00224118  0.00453524  0.
   0.01043964  0.          0.         -0.02000503]
 [-0.01358629  0.00196762  0.01216073 -0.00055715 -0.00115819  0.
  -0.00374608  0.          0.          0.00448927]
 [-0.0081019  -0.0138338   0.00760871  0.00727004 -0.01354787  0.
  -0.00791011  0.          0.         -0.00160216]
 [ 0.00113933 -0.01368568  0.00265095  0.01462863 -0.0149121   0.
   0.00452198  0.          0.         -0.01283244]
 [ 0.02472121 -0.00637818  0.00235865  0.012236   -0.00540545  0.
  -0.00141719  0.          0.          0.0009109 ]] 
Episode: 59: [[ 0.02318308  0.00115823  0.00746234 -0.00230594  0.00461109  0.
   0.01043281  0.          0.         -0.02022678]
 [-0.01371301  0.00202382  0.01232497 -0.00065135 -0.00115172  0.
  -0.00374127  0.          0.          0.00454815]
 [-0.00801428 -0.01394918  0.0076478   0.00724162 -0.0137031   0.
  -0.00757843  0.          0.         -0.00138789]
 [ 0.00133522 -0.01378052  0.00264157  0.01454864 -0.01510915  0.
   0.00490799  0.          0.         -0.01258616]
 [ 0.02499176 -0.00640225  0.00243542  0.0122434  -0.00534998  0.
  -0.00173956  0.          0.          0.00077295]] 
Episode: 60: [[ 0.02337706  0.00124182  0.00755662 -0.00233345  0.00470298  0.
   0.01047652  0.          0.         -0.02034863]
 [-0.0138729   0.00208521  0.01251187 -0.00074137 -0.00115124  0.
  -0.00379911  0.          0.          0.00464186]
 [-0.00801274 -0.01403859  0.00771049  0.0072286  -0.01385555  0.
  -0.00732575  0.          0.         -0.00115214]
 [ 0.0014233  -0.01384615  0.0026542   0.01453934 -0.01529306  0.
   0.00516901  0.          0.         -0.01227884]
 [ 0.02527246 -0.00637919  0.00249389  0.01219486 -0.00528482  0.
  -0.00193861  0.          0.          0.00055458]] 
Episode: 61: [[ 0.0236134   0.00138508  0.00765664 -0.00233511  0.00484232  0.
   0.01054711  0.          0.         -0.02040387]
 [-0.01404894  0.0021632   0.01270708 -0.00078994 -0.00114405  0.
  -0.00386381  0.          0.          0.00475829]
 [-0.00804112 -0.01411697  0.00777275  0.00733238 -0.01399875  0.
  -0.0071568   0.          0.         -0.00095669]
 [ 0.00149391 -0.01389179  0.00266481  0.01464491 -0.01545157  0.
   0.00531787  0.          0.         -0.01208408]
 [ 0.02561171 -0.00627196  0.00260004  0.01208144 -0.00521082  0.
  -0.00202719  0.          0.          0.00026441]] 
Episode: 62: [[ 2.38706879e-02  1.53390423e-03  7.75140431e-03 -2.33180285e-03
   4.98127332e-03  0.00000000e+00  1.06037585e-02  0.00000000e+00
   0.00000000e+00 -2.04607174e-02]
 [-1.42345121e-02  2.23579700e-03  1.29006403e-02 -8.24583520e-04
  -1.13787293e-03  0.00000000e+00 -3.96662345e-03  0.00000000e+00
   0.00000000e+00  4.88091074e-03]
 [-8.10970925e-03 -1.41864391e-02  7.84054026e-03  7.46186823e-03
  -1.41261686e-02  0.00000000e+00 -7.06723379e-03  0.00000000e+00
   0.00000000e+00 -7.90883147e-04]
 [ 1.53433392e-03 -1.39144268e-02  2.68549286e-03  1.48146478e-02
  -1.55852465e-02  0.00000000e+00  5.36604924e-03  0.00000000e+00
   0.00000000e+00 -1.19949114e-02]
 [ 2.59532612e-02 -6.13224786e-03  2.68310588e-03  1.19751235e-02
  -5.12686698e-03  0.00000000e+00 -2.01684050e-03  0.00000000e+00
   0.00000000e+00 -5.15314678e-05]] 
Episode: 63: [[ 0.02422557  0.00163616  0.00779698 -0.00246019  0.00510352  0.
   0.01051906  0.          0.         -0.02062077]
 [-0.01449316  0.00221502  0.01308858 -0.00082111 -0.00118926  0.
  -0.00390063  0.          0.          0.00485673]
 [-0.00829495 -0.01431243  0.00793414  0.00762707 -0.01430129  0.
  -0.00687548  0.          0.         -0.00059691]
 [ 0.00146574 -0.01397986  0.002716    0.01502596 -0.01576949  0.
   0.00549484  0.          0.         -0.01182904]
 [ 0.02628192 -0.00599207  0.00274446  0.01197372 -0.0050311   0.
  -0.00191786  0.          0.         -0.0002866 ]] 
Episode: 64: [[ 0.02457666  0.00170286  0.00784406 -0.00254802  0.00520943  0.
   0.01042163  0.          0.         -0.02076621]
 [-0.01475089  0.00219221  0.01326403 -0.00080601 -0.00123951  0.
  -0.00389129  0.          0.          0.00485302]
 [-0.00850248 -0.01441458  0.00802243  0.0078192  -0.01445365  0.
  -0.00669279  0.          0.         -0.00050557]
 [ 0.00134814 -0.01402829  0.00274463  0.01532796 -0.01592543  0.
   0.00569599  0.          0.         -0.01176556]
 [ 0.02659718 -0.00590837  0.00281185  0.01185911 -0.00494671  0.
  -0.00189196  0.          0.         -0.00049578]] 
Episode: 65: [[ 0.02495     0.00174723  0.00788391 -0.00249988  0.00527503  0.
   0.01038986  0.          0.         -0.02088999]
 [-0.01507935  0.00216105  0.01347701 -0.00075063 -0.00128476  0.
  -0.00389553  0.          0.          0.00491326]
 [-0.00881069 -0.01441213  0.0081229   0.00791493 -0.01455032  0.
  -0.00662786  0.          0.         -0.00029744]
 [ 0.0011337  -0.01397745  0.00276881  0.01548503 -0.01599185  0.
   0.00579152  0.          0.         -0.01162301]
 [ 0.02680562 -0.00578513  0.00271057  0.01188487 -0.00487858  0.
  -0.00177895  0.          0.         -0.0006086 ]] 
Episode: 66: [[ 2.5251836e-02  1.7698306e-03  7.9277148e-03 -2.5076834e-03
   5.3241365e-03  0.0000000e+00  1.0361663e-02  0.0000000e+00
   0.0000000e+00 -2.1027496e-02]
 [-1.5339004e-02  2.1345350e-03  1.3642901e-02 -7.3280674e-04
  -1.3138775e-03  0.0000000e+00 -3.8693270e-03  0.0000000e+00
   0.0000000e+00  4.9611563e-03]
 [-9.0310816e-03 -1.4405514e-02  8.1933532e-03  7.9813628e-03
  -1.4629857e-02  0.0000000e+00 -6.5308404e-03  0.0000000e+00
   0.0000000e+00 -6.3103245e-05]
 [ 1.0099997e-03 -1.3927746e-02  2.7779876e-03  1.5645498e-02
  -1.6049480e-02  0.0000000e+00  5.9625786e-03  0.0000000e+00
   0.0000000e+00 -1.1409456e-02]
 [ 2.6998594e-02 -5.7012192e-03  2.6168600e-03  1.1863007e-02
  -4.8257927e-03  0.0000000e+00 -1.7670207e-03  0.0000000e+00
   0.0000000e+00 -6.7666068e-04]] 
Episode: 67: [[ 0.02564921  0.00181821  0.00797492 -0.00246845  0.00538696  0.
   0.01031168  0.          0.         -0.02119072]
 [-0.01572542  0.00212712  0.01389003 -0.00070032 -0.00134678  0.
  -0.00387087  0.          0.          0.00504868]
 [-0.00934997 -0.01439027  0.00830245  0.00805134 -0.01473006  0.
  -0.00649624  0.          0.          0.00021559]
 [ 0.000822   -0.01387502  0.00280848  0.01581297 -0.01613546  0.
   0.00603127  0.          0.         -0.01113219]
 [ 0.02731861 -0.00555729  0.00237533  0.01183891 -0.00472718  0.
  -0.00166693  0.          0.         -0.00083403]] 
Episode: 68: [[ 0.02602955  0.00190351  0.00801818 -0.00244322  0.00546853  0.
   0.01026983  0.          0.         -0.02132314]
 [-0.01607802  0.00213082  0.01411767 -0.00063063 -0.00137618  0.
  -0.00389862  0.          0.          0.00513724]
 [-0.00961362 -0.01437944  0.0083964   0.00823228 -0.01481722  0.
  -0.00652543  0.          0.          0.00043512]
 [ 0.00072924 -0.01381858  0.00283459  0.01607575 -0.01619854  0.
   0.00600805  0.          0.         -0.01096813]
 [ 0.02764305 -0.00537469  0.00214147  0.01176245 -0.00461267  0.
  -0.00148784  0.          0.         -0.00098034]] 
Episode: 69: [[ 0.02642061  0.0019985   0.00805758 -0.00236585  0.00555275  0.
   0.01020552  0.          0.         -0.02137775]
 [-0.01642784  0.00213242  0.01433326 -0.00057766 -0.00140853  0.
  -0.00390765  0.          0.          0.00523278]
 [-0.00989186 -0.01436722  0.00848387  0.00839195 -0.01489457  0.
  -0.0064946   0.          0.          0.00061678]
 [ 0.00059903 -0.01374856  0.00286216  0.01638874 -0.0162442   0.
   0.00600748  0.          0.         -0.01077155]
 [ 0.02801183 -0.00519318  0.0018567   0.01158211 -0.0045252   0.
  -0.00128988  0.          0.         -0.00120827]] 
Episode: 70: [[ 0.02686716  0.00204985  0.00811102 -0.00219216  0.00564133  0.
   0.01028091  0.          0.         -0.02144564]
 [-0.01678633  0.00214493  0.01457449 -0.00050427 -0.00142997  0.
  -0.0039959   0.          0.          0.00530833]
 [-0.01013444 -0.01430728  0.00857226  0.00854154 -0.01496521  0.
  -0.00658036  0.          0.          0.00073512]
 [ 0.00055046 -0.01366691  0.00289262  0.01668088 -0.01629309  0.
   0.0059928   0.          0.         -0.01068034]
 [ 0.02845604 -0.00507155  0.00153054  0.01138311 -0.00442896  0.
  -0.00113901  0.          0.         -0.00138839]] 
Episode: 71: [[ 0.02736191  0.00208448  0.00818975 -0.00194026  0.00567852  0.
   0.01048438  0.          0.         -0.02152753]
 [-0.01720351  0.00219858  0.01486246 -0.00030471 -0.00143594  0.
  -0.00422663  0.          0.          0.00546007]
 [-0.01047429 -0.01417744  0.00863722  0.00883101 -0.01498185  0.
  -0.00676943  0.          0.          0.00085561]
 [ 0.00039732 -0.01355282  0.00284759  0.01705511 -0.01626486  0.
   0.0058935   0.          0.         -0.01068377]
 [ 0.02890577 -0.00491911  0.0012321   0.01133419 -0.00436978  0.
  -0.00091337  0.          0.         -0.00145288]] 
Episode: 72: [[ 2.79220156e-02  2.06894288e-03  8.25874507e-03 -1.68655463e-03
   5.67660993e-03  0.00000000e+00  1.05770128e-02  0.00000000e+00
   0.00000000e+00 -2.16180794e-02]
 [-1.76420435e-02  2.22453941e-03  1.51220150e-02 -4.93175030e-05
  -1.44207571e-03  0.00000000e+00 -4.49122442e-03  0.00000000e+00
   0.00000000e+00  5.57076978e-03]
 [-1.08011626e-02 -1.39829889e-02  8.66591930e-03  9.15008876e-03
  -1.49764735e-02  0.00000000e+00 -7.02949660e-03  0.00000000e+00
   0.00000000e+00  1.09239842e-03]
 [ 2.86576687e-04 -1.33772194e-02  2.74546538e-03  1.73267778e-02
  -1.62219629e-02  0.00000000e+00  5.71823400e-03  0.00000000e+00
   0.00000000e+00 -1.06015252e-02]
 [ 2.94169076e-02 -4.76310775e-03  8.53150908e-04  1.14172883e-02
  -4.27284418e-03  0.00000000e+00 -7.26026658e-04  0.00000000e+00
   0.00000000e+00 -1.60127156e-03]] 
Episode: 73: [[ 0.02846632  0.00209531  0.00833163 -0.00146689  0.00568723  0.
   0.01067195  0.          0.         -0.02167606]
 [-0.0180527   0.00226405  0.01536809  0.00019788 -0.00144569  0.
  -0.00475814  0.          0.          0.00570153]
 [-0.01111639 -0.01385093  0.00868784  0.00947207 -0.0149825   0.
  -0.00737192  0.          0.          0.0012457 ]
 [ 0.00018762 -0.01324655  0.00264738  0.01764183 -0.01618299  0.
   0.00547478  0.          0.         -0.01061282]
 [ 0.02993936 -0.00457276  0.0005431   0.01155995 -0.0041724   0.
  -0.0004672   0.          0.         -0.00181637]] 
Episode: 74: [[ 0.02895341  0.00214921  0.00840332 -0.00130968  0.00571708  0.
   0.01089167  0.          0.         -0.02173317]
 [-0.01840949  0.00231395  0.01557912  0.00043036 -0.00143635  0.
  -0.0051051   0.          0.          0.00585563]
 [-0.01138118 -0.01373398  0.00870087  0.00983641 -0.01500044  0.
  -0.0077888   0.          0.          0.00142754]
 [ 0.00014933 -0.01312565  0.00255173  0.01803627 -0.01616479  0.
   0.00517074  0.          0.         -0.01053782]
 [ 0.03042731 -0.00437373  0.00025821  0.01167346 -0.00406597  0.
  -0.00025609  0.          0.         -0.00203518]] 
Episode: 75: [[ 2.93692779e-02  2.20731623e-03  8.47754069e-03 -1.17520639e-03
   5.74130518e-03  0.00000000e+00  1.11466786e-02  0.00000000e+00
   0.00000000e+00 -2.17218809e-02]
 [-1.87032111e-02  2.37251678e-03  1.57479066e-02  6.34753611e-04
  -1.41773629e-03  0.00000000e+00 -5.40580461e-03  0.00000000e+00
   0.00000000e+00  5.95693430e-03]
 [-1.15555748e-02 -1.36229927e-02  8.71807151e-03  1.01647619e-02
  -1.50160203e-02  0.00000000e+00 -8.18016287e-03  0.00000000e+00
   0.00000000e+00  1.53828191e-03]
 [ 1.53822592e-04 -1.30170155e-02  2.47643050e-03  1.83943752e-02
  -1.61573477e-02  0.00000000e+00  4.85363044e-03  0.00000000e+00
   0.00000000e+00 -1.04543706e-02]
 [ 3.08320802e-02 -4.14843811e-03  9.43557097e-05  1.17680170e-02
  -3.96344718e-03  0.00000000e+00 -8.86738926e-05  0.00000000e+00
   0.00000000e+00 -2.32853414e-03]] 
Episode: 76: [[ 2.96700057e-02  2.18419195e-03  8.52243416e-03 -1.12662674e-03
   5.71903447e-03  0.00000000e+00  1.12596219e-02  0.00000000e+00
   0.00000000e+00 -2.17489041e-02]
 [-1.89317670e-02  2.38617347e-03  1.58695318e-02  7.34416419e-04
  -1.41532300e-03  0.00000000e+00 -5.51300030e-03  0.00000000e+00
   0.00000000e+00  6.03493443e-03]
 [-1.16763795e-02 -1.35228075e-02  8.71728640e-03  1.03285778e-02
  -1.50370942e-02  0.00000000e+00 -8.41932558e-03  0.00000000e+00
   0.00000000e+00  1.73126010e-03]
 [ 1.33149166e-04 -1.29207931e-02  2.37451261e-03  1.86014753e-02
  -1.61676947e-02  0.00000000e+00  4.65471391e-03  0.00000000e+00
   0.00000000e+00 -1.02937007e-02]
 [ 3.11309118e-02 -4.03263466e-03 -1.91476338e-05  1.18686100e-02
  -3.87991662e-03  0.00000000e+00 -2.98764353e-05  0.00000000e+00
   0.00000000e+00 -2.65773898e-03]] 
Episode: 77: [[ 2.99433954e-02  2.17471155e-03  8.56402796e-03 -1.08642352e-03
   5.70202945e-03  0.00000000e+00  1.13769239e-02  0.00000000e+00
   0.00000000e+00 -2.17742845e-02]
 [-1.91382058e-02  2.40047299e-03  1.59732625e-02  8.11339472e-04
  -1.41073030e-03  0.00000000e+00 -5.60175534e-03  0.00000000e+00
   0.00000000e+00  6.09928509e-03]
 [-1.17815789e-02 -1.34417769e-02  8.71305447e-03  1.04487371e-02
  -1.50579344e-02  0.00000000e+00 -8.61599389e-03  0.00000000e+00
   0.00000000e+00  1.92925497e-03]
 [ 1.19603144e-04 -1.28383795e-02  2.27996917e-03  1.87358167e-02
  -1.61792152e-02  0.00000000e+00  4.56194393e-03  0.00000000e+00
   0.00000000e+00 -1.00758923e-02]
 [ 3.14041190e-02 -3.91652202e-03 -1.35724389e-04  1.19622881e-02
  -3.80520080e-03  0.00000000e+00 -6.84185579e-05  0.00000000e+00
   0.00000000e+00 -2.98392237e-03]] 
Episode: 78: [[ 3.0222474e-02  2.1994773e-03  8.6180633e-03 -1.0333279e-03
   5.6936820e-03  0.0000000e+00  1.1559570e-02  0.0000000e+00
   0.0000000e+00 -2.1839427e-02]
 [-1.9327261e-02  2.4273773e-03  1.6067583e-02  9.4006985e-04
  -1.4071101e-03  0.0000000e+00 -5.7637799e-03  0.0000000e+00
   0.0000000e+00  6.1451877e-03]
 [-1.1868470e-02 -1.3396200e-02  8.6965570e-03  1.0651322e-02
  -1.5089566e-02  0.0000000e+00 -8.8479538e-03  0.0000000e+00
   0.0000000e+00  2.0630485e-03]
 [ 1.6157622e-04 -1.2786946e-02  2.1751395e-03  1.8968508e-02
  -1.6199201e-02  0.0000000e+00  4.3925806e-03  0.0000000e+00
   0.0000000e+00 -9.9657169e-03]
 [ 3.1699438e-02 -3.7654741e-03 -2.6624146e-04  1.2058250e-02
  -3.7314077e-03  0.0000000e+00 -1.1876951e-05  0.0000000e+00
   0.0000000e+00 -3.1789278e-03]] 
Episode: 79: [[ 3.0576531e-02  2.2693540e-03  8.6972648e-03 -9.8574092e-04
   5.6993314e-03  0.0000000e+00  1.1856095e-02  0.0000000e+00
   0.0000000e+00 -2.1952130e-02]
 [-1.9517804e-02  2.4493204e-03  1.6132280e-02  1.0477566e-03
  -1.3731751e-03  0.0000000e+00 -5.8945538e-03  0.0000000e+00
   0.0000000e+00  6.2189940e-03]
 [-1.2011984e-02 -1.3512130e-02  8.6510209e-03  1.0791315e-02
  -1.5150754e-02  0.0000000e+00 -9.1259526e-03  0.0000000e+00
   0.0000000e+00  2.3128926e-03]
 [ 1.7785157e-04 -1.2885144e-02  2.0463786e-03  1.9064700e-02
  -1.6233847e-02  0.0000000e+00  4.3261847e-03  0.0000000e+00
   0.0000000e+00 -9.7810924e-03]
 [ 3.2029167e-02 -3.6716224e-03 -4.1078206e-04  1.2273453e-02
  -3.6889962e-03  0.0000000e+00 -5.2066436e-05  0.0000000e+00
   0.0000000e+00 -3.2666184e-03]] 
Episode: 80: [[ 0.03089157  0.00234266  0.0087658  -0.00092809  0.00570995  0.
   0.0121032   0.          0.         -0.02200298]
 [-0.01967384  0.00246621  0.01618036  0.0011459  -0.00134257  0.
  -0.00597291  0.          0.          0.00628835]
 [-0.01211305 -0.01361436  0.00859824  0.01089526 -0.01520392  0.
  -0.00932952  0.          0.          0.0025465 ]
 [ 0.00023715 -0.01296986  0.00191954  0.01911923 -0.01626404  0.
   0.00435227  0.          0.         -0.00952961]
 [ 0.03231914 -0.00354972 -0.00053928  0.01245228 -0.00361963  0.
  -0.00017896  0.          0.         -0.00344242]] 
Episode: 81: [[ 0.0313037   0.002399    0.00885583 -0.0007563   0.005701    0.
   0.01234293  0.          0.         -0.02205874]
 [-0.01997282  0.00249513  0.01631008  0.00132499 -0.00132268  0.
  -0.00615627  0.          0.          0.00641772]
 [-0.01233181 -0.01364433  0.00858715  0.01109567 -0.01524674  0.
  -0.00958635  0.          0.          0.00283722]
 [ 0.00017554 -0.01300602  0.00182221  0.01923834 -0.01627117  0.
   0.00429003  0.          0.         -0.00921809]
 [ 0.03272795 -0.00344269 -0.00076784  0.01266914 -0.0035778   0.
  -0.00020233  0.          0.         -0.00369697]] 
Episode: 82: [[ 3.17976363e-02  2.47748010e-03  8.96760542e-03 -4.97051689e-04
   5.70241921e-03  0.00000000e+00  1.26399556e-02  0.00000000e+00
   0.00000000e+00 -2.21253466e-02]
 [-2.03497317e-02  2.55440618e-03  1.64729021e-02  1.56860205e-03
  -1.28933927e-03  0.00000000e+00 -6.36968343e-03  0.00000000e+00
   0.00000000e+00  6.61778357e-03]
 [-1.26541918e-02 -1.36326235e-02  8.54155142e-03  1.13585284e-02
  -1.52678965e-02  0.00000000e+00 -9.92801413e-03  0.00000000e+00
   0.00000000e+00  3.19931190e-03]
 [ 6.61585500e-06 -1.30160376e-02  1.68593170e-03  1.93824582e-02
  -1.62557457e-02  0.00000000e+00  4.14845115e-03  0.00000000e+00
   0.00000000e+00 -8.85264669e-03]
 [ 3.31525691e-02 -3.29167279e-03 -1.07017555e-03  1.29426261e-02
  -3.52010853e-03  0.00000000e+00 -1.32861314e-04  0.00000000e+00
   0.00000000e+00 -3.98455234e-03]] 
Episode: 83: [[ 3.2276630e-02  2.5491347e-03  9.0601742e-03 -1.8257443e-04
   5.7059298e-03  0.0000000e+00  1.2769922e-02  0.0000000e+00
   0.0000000e+00 -2.2208991e-02]
 [-2.0694749e-02  2.5865675e-03  1.6612574e-02  1.8093856e-03
  -1.2775623e-03  0.0000000e+00 -6.5866867e-03  0.0000000e+00
   0.0000000e+00  6.7349928e-03]
 [-1.2870725e-02 -1.3690441e-02  8.4994044e-03  1.1539687e-02
  -1.5324137e-02  0.0000000e+00 -1.0122358e-02  0.0000000e+00
   0.0000000e+00  3.5761176e-03]
 [-3.1325191e-05 -1.3066559e-02  1.5607057e-03  1.9408084e-02
  -1.6295610e-02  0.0000000e+00  4.1066841e-03  0.0000000e+00
   0.0000000e+00 -8.4387958e-03]
 [ 3.3595469e-02 -3.1793965e-03 -1.3644620e-03  1.3168788e-02
  -3.4769964e-03  0.0000000e+00 -1.6074951e-04  0.0000000e+00
   0.0000000e+00 -4.3394282e-03]] 
Episode: 84: [[ 3.27544697e-02  2.63428898e-03  9.13908146e-03  1.51520173e-04
   5.72812231e-03  0.00000000e+00  1.29056349e-02  0.00000000e+00
   0.00000000e+00 -2.22733673e-02]
 [-2.10453793e-02  2.62378226e-03  1.67623218e-02  2.03183084e-03
  -1.26544456e-03  0.00000000e+00 -6.76614139e-03  0.00000000e+00
   0.00000000e+00  6.84725028e-03]
 [-1.31107541e-02 -1.37433419e-02  8.47324450e-03  1.16781816e-02
  -1.53688835e-02  0.00000000e+00 -1.02875493e-02  0.00000000e+00
   0.00000000e+00  3.91067239e-03]
 [-9.38426529e-05 -1.31106945e-02  1.45027169e-03  1.93545111e-02
  -1.63237173e-02  0.00000000e+00  4.05665301e-03  0.00000000e+00
   0.00000000e+00 -8.08401126e-03]
 [ 3.40441167e-02 -3.05123953e-03 -1.64989592e-03  1.33803040e-02
  -3.41269164e-03  0.00000000e+00 -2.37983055e-04  0.00000000e+00
   0.00000000e+00 -4.70578158e-03]] 
Episode: 85: [[ 0.03319339  0.00271852  0.00920909  0.00043401  0.0057562   0.
   0.01301577  0.          0.         -0.02230267]
 [-0.02136043  0.00266171  0.01690432  0.00223705 -0.00125474  0.
  -0.00692523  0.          0.          0.00695151]
 [-0.01331267 -0.01379201  0.00845275  0.01182945 -0.01540654  0.
  -0.01042903  0.          0.          0.0041503 ]
 [-0.00011252 -0.01314752  0.00136448  0.0193658  -0.0163397   0.
   0.00398744  0.          0.         -0.00785068]
 [ 0.03445354 -0.00292638 -0.00192192  0.01357227 -0.00333878  0.
  -0.00026952  0.          0.         -0.00500783]] 
Episode: 86: [[ 0.03371544  0.00296985  0.00930637  0.00087394  0.00592566  0.
   0.01324806  0.          0.         -0.02216377]
 [-0.02181258  0.0027651   0.01715077  0.00237059 -0.00119271  0.
  -0.00722586  0.          0.          0.00728433]
 [-0.01362031 -0.0137412   0.00849852  0.01212564 -0.01539657  0.
  -0.01066761  0.          0.          0.00439002]
 [-0.00024279 -0.0130921   0.00135366  0.01948833 -0.01627991  0.
   0.00383874  0.          0.         -0.00755527]
 [ 0.03496832 -0.00255235 -0.00223504  0.01361108 -0.00315436  0.
  -0.00020695  0.          0.         -0.00537632]] 
Episode: 87: [[ 3.4310415e-02  3.2951536e-03  9.4389580e-03  1.3320058e-03
   6.1504766e-03  0.0000000e+00  1.3581356e-02  0.0000000e+00
   0.0000000e+00 -2.2047464e-02]
 [-2.2381885e-02  2.9156161e-03  1.7510982e-02  2.4331030e-03
  -1.1175929e-03  0.0000000e+00 -7.5293868e-03  0.0000000e+00
   0.0000000e+00  7.7931141e-03]
 [-1.4021121e-02 -1.3688804e-02  8.6138686e-03  1.2364203e-02
  -1.5401602e-02  0.0000000e+00 -1.0912044e-02  0.0000000e+00
   0.0000000e+00  4.6411916e-03]
 [-4.7218040e-04 -1.2999259e-02  1.3965851e-03  1.9709717e-02
  -1.6225656e-02  0.0000000e+00  3.6186902e-03  0.0000000e+00
   0.0000000e+00 -7.3751654e-03]
 [ 3.5574384e-02 -2.1572453e-03 -2.5109777e-03  1.3514924e-02
  -2.9562993e-03  0.0000000e+00 -5.9996033e-05  0.0000000e+00
   0.0000000e+00 -5.8041881e-03]] 
Episode: 88: [[ 0.03496933  0.0037172   0.00962397  0.00193161  0.00646428  0.
   0.01400987  0.          0.         -0.02208453]
 [-0.02305144  0.00311996  0.01799448  0.00244587 -0.00100279  0.
  -0.0078882   0.          0.          0.00829824]
 [-0.01450401 -0.01359463  0.00877577  0.01244662 -0.0153762   0.
  -0.0112427   0.          0.          0.00499759]
 [-0.00078962 -0.01286364  0.00143034  0.01979671 -0.01610289  0.
   0.00333455  0.          0.         -0.00712776]
 [ 0.03625957 -0.00165615 -0.00271854  0.01352916 -0.00272804  0.
   0.00016261  0.          0.         -0.00628508]] 
Episode: 89: [[ 0.03559807  0.00415539  0.0097938   0.00243612  0.00678157  0.
   0.01439428  0.          0.         -0.02207405]
 [-0.02367505  0.00332158  0.0184466   0.00245615 -0.00090427  0.
  -0.00821279  0.          0.          0.00878419]
 [-0.0149534  -0.01352936  0.00892382  0.012574   -0.01537185  0.
  -0.01153142  0.          0.          0.00528174]
 [-0.00107219 -0.01275217  0.00145309  0.01998509 -0.01600632  0.
   0.00299288  0.          0.         -0.00698016]
 [ 0.03691638 -0.00112047 -0.00288479  0.01345043 -0.00247178  0.
   0.00045305  0.          0.         -0.0067846 ]] 
Episode: 90: [[ 0.03628671  0.004588    0.00994588  0.00286854  0.00710663  0.
   0.01463803  0.          0.         -0.02214346]
 [-0.02439076  0.00346201  0.01893125  0.00242115 -0.00084953  0.
  -0.00841459  0.          0.          0.00915856]
 [-0.01547938 -0.01349395  0.00911172  0.01248762 -0.01539942  0.
  -0.01181381  0.          0.          0.00566685]
 [-0.00143725 -0.01262928  0.00148899  0.0200438  -0.01591372  0.
   0.00259955  0.          0.         -0.00676199]
 [ 0.03757119 -0.00060864 -0.00299407  0.01350904 -0.00227975  0.
   0.0008043   0.          0.         -0.0071464 ]] 
Episode: 91: [[ 3.7027843e-02  5.0482918e-03  1.0116120e-02  3.3214139e-03
   7.4700643e-03  0.0000000e+00  1.4916269e-02  0.0000000e+00
   0.0000000e+00 -2.2161640e-02]
 [-2.5174556e-02  3.6220318e-03  1.9423917e-02  2.4107345e-03
  -7.8878272e-04  0.0000000e+00 -8.6808503e-03  0.0000000e+00
   0.0000000e+00  9.6270116e-03]
 [-1.6072832e-02 -1.3463346e-02  9.3090329e-03  1.2505204e-02
  -1.5458768e-02  0.0000000e+00 -1.2179053e-02  0.0000000e+00
   0.0000000e+00  6.1031305e-03]
 [-1.8755699e-03 -1.2518854e-02  1.5448168e-03  2.0205745e-02
  -1.5871856e-02  0.0000000e+00  2.1598428e-03  0.0000000e+00
   0.0000000e+00 -6.5559270e-03]
 [ 3.8298998e-02 -8.9122208e-05 -3.1292588e-03  1.3457353e-02
  -2.0845567e-03  0.0000000e+00  1.2100646e-03  0.0000000e+00
   0.0000000e+00 -7.5678695e-03]] 
Episode: 92: [[ 0.03759761  0.00542358  0.0102493   0.00360536  0.00779002  0.
   0.01509938  0.          0.         -0.02222382]
 [-0.02580356  0.00375578  0.01981364  0.00243779 -0.00072315  0.
  -0.00898211  0.          0.          0.01005026]
 [-0.01647969 -0.01345388  0.00946995  0.01273768 -0.01558566  0.
  -0.012394    0.          0.          0.00650409]
 [-0.00215694 -0.01245125  0.00158945  0.0204596  -0.01597031  0.
   0.00185042  0.          0.         -0.00631362]
 [ 0.03890764  0.00038452 -0.00327459  0.01328413 -0.00185023  0.
   0.00148468  0.          0.         -0.00798678]] 
Episode: 93: [[ 0.03813626  0.00578815  0.01037268  0.00387011  0.00810147  0.
   0.01524755  0.          0.         -0.02224893]
 [-0.02638128  0.00388339  0.02017362  0.00248522 -0.00066353  0.
  -0.00925384  0.          0.          0.01046271]
 [-0.01685499 -0.01345251  0.00961728  0.0130242  -0.01570268  0.
  -0.01258951  0.          0.          0.0068334 ]
 [-0.00240117 -0.01239385  0.00163532  0.02079528 -0.01605894  0.
   0.00148631  0.          0.         -0.00618185]
 [ 0.03949488  0.00085514 -0.00339493  0.01302381 -0.00160988  0.
   0.00182133  0.          0.         -0.00839499]] 
Episode: 94: [[ 0.03852852  0.00613743  0.0104967   0.0040806   0.00836283  0.
   0.01542697  0.          0.         -0.02231328]
 [-0.02675567  0.00400286  0.02042526  0.00251472 -0.00059362  0.
  -0.00952329  0.          0.          0.01076993]
 [-0.01706742 -0.01345531  0.00968789  0.01325998 -0.01578928  0.
  -0.01282845  0.          0.          0.00713152]
 [-0.00250878 -0.01233241  0.00163193  0.02106771 -0.01611639  0.
   0.00116307  0.          0.         -0.00597734]
 [ 0.04000022  0.00129855 -0.0035721   0.01276669 -0.00140953  0.
   0.00203414  0.          0.         -0.00874719]] 
Episode: 95: [[ 0.03891436  0.00640355  0.01060405  0.00417736  0.00855562  0.
   0.01548466  0.          0.         -0.02241322]
 [-0.02709274  0.00408868  0.02064892  0.00249137 -0.00055771  0.
  -0.00968449  0.          0.          0.01093139]
 [-0.01719182 -0.01350094  0.00975381  0.01337328 -0.01593749  0.
  -0.01293011  0.          0.          0.00733344]
 [-0.00251711 -0.01233379  0.0016211   0.02120343 -0.01628765  0.
   0.00095871  0.          0.         -0.00586574]
 [ 0.04050613  0.00163761 -0.00365872  0.01266342 -0.00120425  0.
   0.00213578  0.          0.         -0.00896538]] 
Episode: 96: [[ 0.03923967  0.00669002  0.0107056   0.00425126  0.00875266  0.
   0.01555843  0.          0.         -0.0224484 ]
 [-0.02738279  0.0041978   0.02083643  0.00242365 -0.00050192  0.
  -0.00988381  0.          0.          0.01113584]
 [-0.01728093 -0.01353593  0.00980233  0.01342591 -0.01606715  0.
  -0.01306323  0.          0.          0.00756237]
 [-0.00251253 -0.01230892  0.00160909  0.02124714 -0.01641737  0.
   0.00068875  0.          0.         -0.00567936]
 [ 0.04095525  0.00199388 -0.00370586  0.01255914 -0.00100666  0.
   0.00215778  0.          0.         -0.00925885]] 
Episode: 97: [[ 0.03940278  0.00685662  0.01078741  0.00425085  0.00892538  0.
   0.01565785  0.          0.         -0.02262847]
 [-0.0275954   0.00429491  0.02094552  0.00226193 -0.00038478  0.
  -0.01010929  0.          0.          0.0112495 ]
 [-0.01743458 -0.01349309  0.009812    0.01339838 -0.01614943  0.
  -0.01310256  0.          0.          0.00789971]
 [-0.00261935 -0.01224763  0.00153534  0.02118128 -0.01654246  0.
   0.00053213  0.          0.         -0.0054258 ]
 [ 0.04123885  0.00225269 -0.00360479  0.01234022 -0.00071625  0.
   0.00208795  0.          0.         -0.00948761]] 
Episode: 98: [[ 0.03967453  0.00689043  0.01095175  0.0044372   0.00901792  0.
   0.01587974  0.          0.         -0.02292467]
 [-0.02779301  0.00441434  0.02112259  0.00219637 -0.00023727  0.
  -0.0104706   0.          0.          0.01116518]
 [-0.01751754 -0.01324676  0.00967965  0.01330288 -0.01613069  0.
  -0.01324984  0.          0.          0.00818057]
 [-0.00267719 -0.01208436  0.00115352  0.02101483 -0.01661578  0.
   0.00047735  0.          0.         -0.005211  ]
 [ 0.04163782  0.00249486 -0.00346584  0.01226959 -0.00029985  0.
   0.00193571  0.          0.         -0.00959515]] 
Episode: 99: [[ 3.98954600e-02  6.94676116e-03  1.10269738e-02  4.52058297e-03
   9.17967968e-03  0.00000000e+00  1.59455277e-02  0.00000000e+00
   0.00000000e+00 -2.31311657e-02]
 [-2.80071367e-02  4.44834400e-03  2.13441905e-02  2.18103221e-03
  -1.45542988e-04  0.00000000e+00 -1.06313098e-02  0.00000000e+00
   0.00000000e+00  1.08800521e-02]
 [-1.75326020e-02 -1.30915521e-02  9.68090724e-03  1.32014025e-02
  -1.61218997e-02  0.00000000e+00 -1.32702189e-02  0.00000000e+00
   0.00000000e+00  8.38778540e-03]
 [-2.61815521e-03 -1.20099206e-02  9.64391511e-04  2.07587034e-02
  -1.66282654e-02  0.00000000e+00  5.14085288e-04  0.00000000e+00
   0.00000000e+00 -5.03993407e-03]
 [ 4.20054011e-02  2.67279893e-03 -3.47594870e-03  1.23303933e-02
   5.65498231e-05  0.00000000e+00  1.70953956e-03  0.00000000e+00
   0.00000000e+00 -9.65832639e-03]] 
Episode: 100: [[ 4.00909558e-02  7.00924452e-03  1.10991793e-02  4.59538354e-03
   9.34236776e-03  0.00000000e+00  1.60609242e-02  0.00000000e+00
   0.00000000e+00 -2.32686009e-02]
 [-2.81935632e-02  4.49013524e-03  2.15422176e-02  2.12218519e-03
  -6.05972818e-05  0.00000000e+00 -1.07855434e-02  0.00000000e+00
   0.00000000e+00  1.06486585e-02]
 [-1.75131038e-02 -1.29369078e-02  9.68792848e-03  1.31271053e-02
  -1.61351543e-02  0.00000000e+00 -1.32790841e-02  0.00000000e+00
   0.00000000e+00  8.62952694e-03]
 [-2.50979769e-03 -1.19317044e-02  8.01092770e-04  2.06356701e-02
  -1.66894626e-02  0.00000000e+00  5.84934722e-04  0.00000000e+00
   0.00000000e+00 -4.79936600e-03]
 [ 4.23280858e-02  2.85510230e-03 -3.50848469e-03  1.22617334e-02
   4.00162186e-04  0.00000000e+00  1.44016987e-03  0.00000000e+00
   0.00000000e+00 -9.81299113e-03]] 
Episode: 101: [[ 4.0281303e-02  7.0868726e-03  1.1175571e-02  4.7019301e-03
   9.4963945e-03  0.0000000e+00  1.6238512e-02  0.0000000e+00
   0.0000000e+00 -2.3361549e-02]
 [-2.8371789e-02  4.5425519e-03  2.1751452e-02  2.0807432e-03
   1.8391154e-05  0.0000000e+00 -1.1005533e-02  0.0000000e+00
   0.0000000e+00  1.0475222e-02]
 [-1.7498057e-02 -1.2775976e-02  9.7054336e-03  1.3091823e-02
  -1.6142758e-02  0.0000000e+00 -1.3341756e-02  0.0000000e+00
   0.0000000e+00  8.8391732e-03]
 [-2.3964872e-03 -1.1840153e-02  6.5458869e-04  2.0625627e-02
  -1.6739940e-02  0.0000000e+00  5.6237372e-04  0.0000000e+00
   0.0000000e+00 -4.5968564e-03]
 [ 4.2621683e-02  3.0602040e-03 -3.6153877e-03  1.2125506e-02
   7.0271187e-04  0.0000000e+00  1.2874485e-03  0.0000000e+00
   0.0000000e+00 -1.0049524e-02]] 
Episode: 102: [[ 4.0531702e-02  7.1402006e-03  1.1245706e-02  4.8173382e-03
   9.6452171e-03  0.0000000e+00  1.6403524e-02  0.0000000e+00
   0.0000000e+00 -2.3367092e-02]
 [-2.8599773e-02  4.5960960e-03  2.1976609e-02  2.0190694e-03
   9.3249902e-05  0.0000000e+00 -1.1192738e-02  0.0000000e+00
   0.0000000e+00  1.0397446e-02]
 [-1.7571790e-02 -1.2619824e-02  9.7656995e-03  1.3059744e-02
  -1.6167186e-02  0.0000000e+00 -1.3399325e-02  0.0000000e+00
   0.0000000e+00  9.0184025e-03]
 [-2.4015715e-03 -1.1753433e-02  5.7079084e-04  2.0709679e-02
  -1.6820367e-02  0.0000000e+00  5.2817242e-04  0.0000000e+00
   0.0000000e+00 -4.5018867e-03]
 [ 4.2947702e-02  3.1793599e-03 -3.7444085e-03  1.1881559e-02
   9.2694518e-04  0.0000000e+00  1.2076368e-03  0.0000000e+00
   0.0000000e+00 -1.0359310e-02]] 
Episode: 103: [[ 0.04076366  0.0072142   0.01131041  0.00491913  0.00979065  0.
   0.01658623  0.          0.         -0.02329773]
 [-0.0288039   0.00465745  0.02217654  0.00194158  0.00017243  0.
  -0.01137393  0.          0.          0.01037977]
 [-0.01761947 -0.01248801  0.00981164  0.01299768 -0.01618337  0.
  -0.01348853  0.          0.          0.0091499 ]
 [-0.00237463 -0.01167941  0.00048327  0.02069698 -0.01687715  0.
   0.00041255  0.          0.         -0.00433577]
 [ 0.04327027  0.00330273 -0.00387037  0.01172783  0.00112826  0.
   0.00105999  0.          0.         -0.01073463]] 
Episode: 104: [[ 0.04103589  0.00734057  0.01138653  0.00499116  0.00993756  0.
   0.01678038  0.          0.         -0.0232093 ]
 [-0.02902424  0.00472714  0.02238706  0.0017807   0.00024495  0.
  -0.01158115  0.          0.          0.01037008]
 [-0.01772018 -0.01235904  0.00983486  0.01286642 -0.01617578  0.
  -0.01362752  0.          0.          0.00931586]
 [-0.00240062 -0.01158204  0.00035873  0.02061539 -0.0168735   0.
   0.00022201  0.          0.         -0.00409939]
 [ 0.04364348  0.00351772 -0.0040728   0.01164992  0.00133296  0.
   0.00101682  0.          0.         -0.01116857]] 
Episode: 105: [[ 4.12766635e-02  7.49015948e-03  1.14578800e-02  5.07308077e-03
   1.00920778e-02  0.00000000e+00  1.70045830e-02  0.00000000e+00
   0.00000000e+00 -2.31153425e-02]
 [-2.92033292e-02  4.80335532e-03  2.25682799e-02  1.64945528e-03
   3.16607446e-04  0.00000000e+00 -1.18024340e-02  0.00000000e+00
   0.00000000e+00  1.03696305e-02]
 [-1.77721139e-02 -1.22317933e-02  9.84482653e-03  1.27505148e-02
  -1.61660891e-02  0.00000000e+00 -1.37970438e-02  0.00000000e+00
   0.00000000e+00  9.44926962e-03]
 [-2.34150444e-03 -1.14660338e-02  2.32739359e-04  2.05557272e-02
  -1.68583337e-02  0.00000000e+00  5.05931639e-05  0.00000000e+00
   0.00000000e+00 -3.86729697e-03]
 [ 4.39901017e-02  3.74222361e-03 -4.26984811e-03  1.15671400e-02
   1.54539209e-03  0.00000000e+00  9.13236465e-04  0.00000000e+00
   0.00000000e+00 -1.16150230e-02]] 
Episode: 106: [[ 4.1547015e-02  7.6510124e-03  1.1527792e-02  4.9580969e-03
   1.0270268e-02  0.0000000e+00  1.7070962e-02  0.0000000e+00
   0.0000000e+00 -2.3184663e-02]
 [-2.9409874e-02  4.8598964e-03  2.2722680e-02  1.6088869e-03
   3.6904900e-04  0.0000000e+00 -1.1928398e-02  0.0000000e+00
   0.0000000e+00  1.0228172e-02]
 [-1.7856594e-02 -1.2252003e-02  9.8656863e-03  1.2800160e-02
  -1.6323315e-02  0.0000000e+00 -1.3835302e-02  0.0000000e+00
   0.0000000e+00  9.7024925e-03]
 [-2.3583958e-03 -1.1538833e-02  1.0706395e-04  2.0608356e-02
  -1.7105630e-02  0.0000000e+00 -1.6605840e-05  0.0000000e+00
   0.0000000e+00 -3.5712614e-03]
 [ 4.4308756e-02  3.9489637e-03 -4.3386375e-03  1.1460827e-02
   1.7354235e-03  0.0000000e+00  7.3054852e-04  0.0000000e+00
   0.0000000e+00 -1.1918869e-02]] 
Episode: 107: [[ 4.17892933e-02  7.79432477e-03  1.16068488e-02  4.83568246e-03
   1.04344878e-02  0.00000000e+00  1.71548091e-02  0.00000000e+00
   0.00000000e+00 -2.32220627e-02]
 [-2.95795090e-02  4.92702890e-03  2.28452832e-02  1.55046722e-03
   4.35708091e-04  0.00000000e+00 -1.20123941e-02  0.00000000e+00
   0.00000000e+00  1.01156430e-02]
 [-1.79260448e-02 -1.22864535e-02  9.86337289e-03  1.28201284e-02
  -1.64640043e-02  0.00000000e+00 -1.38434777e-02  0.00000000e+00
   0.00000000e+00  9.91807319e-03]
 [-2.38665775e-03 -1.16160186e-02 -2.95982791e-05  2.06733514e-02
  -1.73198581e-02  0.00000000e+00 -1.42931080e-04  0.00000000e+00
   0.00000000e+00 -3.33223934e-03]
 [ 4.46022302e-02  4.11882112e-03 -4.38342569e-03  1.13109257e-02
   1.90637365e-03  0.00000000e+00  4.76863264e-04  0.00000000e+00
   0.00000000e+00 -1.22134360e-02]] 
Episode: 108: [[ 0.04197598  0.00788272  0.01165636  0.00471028  0.01054769  0.
   0.01722516  0.          0.         -0.02325386]
 [-0.02972274  0.00496556  0.02296248  0.0014075   0.00048875  0.
  -0.01201498  0.          0.          0.00997031]
 [-0.01801318 -0.01227565  0.00986643  0.0126833  -0.01657176  0.
  -0.0137858   0.          0.          0.01023242]
 [-0.00250953 -0.01161686 -0.00019035  0.0206254  -0.01747304  0.
  -0.00016952  0.          0.         -0.00302969]
 [ 0.04485508  0.00425255 -0.00440395  0.01130024  0.00206654  0.
   0.00015947  0.          0.         -0.01257514]] 
Episode: 109: [[ 4.2176042e-02  7.9779401e-03  1.1706416e-02  4.6230457e-03
   1.0665726e-02  0.0000000e+00  1.7283702e-02  0.0000000e+00
   0.0000000e+00 -2.3178885e-02]
 [-2.9870968e-02  5.0013345e-03  2.3078253e-02  1.2267120e-03
   5.3237745e-04  0.0000000e+00 -1.1998419e-02  0.0000000e+00
   0.0000000e+00  9.8873228e-03]
 [-1.8106591e-02 -1.2264645e-02  9.8670144e-03  1.2517813e-02
  -1.6658638e-02  0.0000000e+00 -1.3715272e-02  0.0000000e+00
   0.0000000e+00  1.0547752e-02]
 [-2.6078350e-03 -1.1616595e-02 -3.3247884e-04  2.0586416e-02
  -1.7589649e-02  0.0000000e+00 -2.8035283e-04  0.0000000e+00
   0.0000000e+00 -2.6700890e-03]
 [ 4.5114379e-02  4.3986239e-03 -4.4352836e-03  1.1273239e-02
   2.2192255e-03  0.0000000e+00 -3.6592490e-05  0.0000000e+00
   0.0000000e+00 -1.2996921e-02]] 
Episode: 110: [[ 0.04231193  0.00805187  0.01173477  0.00451568  0.01076884  0.
   0.0173193   0.          0.         -0.02309912]
 [-0.02995692  0.00501038  0.02317084  0.00108445  0.00055118  0.
  -0.01197526  0.          0.          0.00975637]
 [-0.01811637 -0.01227543  0.0098768   0.0123657  -0.01676984  0.
  -0.01364085  0.          0.          0.01080044]
 [-0.00261097 -0.01161838 -0.00045206  0.0205168  -0.01773462  0.
  -0.00038107  0.          0.         -0.00240211]
 [ 0.0453453   0.00452628 -0.00448511  0.0112881   0.00236713  0.
  -0.00018022  0.          0.         -0.01334147]] 
Episode: 111: [[ 0.04235563  0.00808574  0.01174687  0.00442281  0.01083819  0.
   0.01733983  0.          0.         -0.02312114]
 [-0.0299575   0.00501467  0.02320312  0.00096022  0.00057719  0.
  -0.01202893  0.          0.          0.00959114]
 [-0.01799686 -0.01231875  0.00985649  0.01220608 -0.01686669  0.
  -0.01347707  0.          0.          0.01092574]
 [-0.00250139 -0.01164017 -0.00060319  0.02035176 -0.01784503  0.
  -0.00038438  0.          0.         -0.00224885]
 [ 0.04549916  0.00456894 -0.00449424  0.01135094  0.00243676  0.
  -0.00039884  0.          0.         -0.01355371]] 
Episode: 112: [[ 0.04238453  0.00812084  0.01174933  0.00433901  0.01089906  0.
   0.01734249  0.          0.         -0.02314111]
 [-0.02994242  0.00501916  0.02320952  0.00087128  0.0006018   0.
  -0.01208536  0.          0.          0.00943984]
 [-0.01783059 -0.01235466  0.00981984  0.01208705 -0.01695124  0.
  -0.01332553  0.          0.          0.01103681]
 [-0.00229318 -0.01165472 -0.00075963  0.02023254 -0.01794188  0.
  -0.00043563  0.          0.         -0.00208176]
 [ 0.04564954  0.00462114 -0.00450479  0.01140842  0.00251264  0.
  -0.0006323   0.          0.         -0.01377437]] 
Episode: 113: [[ 0.04251873  0.00815993  0.01176188  0.00424541  0.01093882  0.
   0.01726356  0.          0.         -0.02316283]
 [-0.03000641  0.00504135  0.02324524  0.00091824  0.00061569  0.
  -0.01208047  0.          0.          0.00930471]
 [-0.01776803 -0.01240686  0.00977562  0.0120958  -0.01705429  0.
  -0.0131858   0.          0.          0.01111867]
 [-0.00217582 -0.01172145 -0.00092313  0.02020932 -0.01807673  0.
  -0.00056916  0.          0.         -0.0020195 ]
 [ 0.04585281  0.00466837 -0.00456346  0.0115362   0.00257004  0.
  -0.00075243  0.          0.         -0.01393817]] 
Episode: 114: [[ 0.04276982  0.00819181  0.01185647  0.00415065  0.01097443  0.
   0.01722726  0.          0.         -0.02334796]
 [-0.03023501  0.00503915  0.02344491  0.00099216  0.00058678  0.
  -0.01201184  0.          0.          0.00929977]
 [-0.0178396  -0.01245563  0.00979426  0.01214356 -0.01719623  0.
  -0.01317623  0.          0.          0.01132886]
 [-0.0021822  -0.01175091 -0.00106139  0.02020617 -0.01822994  0.
  -0.00071716  0.          0.         -0.00187564]
 [ 0.04618751  0.00475074 -0.00468115  0.01170092  0.00264468  0.
  -0.00093069  0.          0.         -0.01418294]] 
Episode: 115: [[ 0.04296374  0.00821483  0.01194448  0.00401482  0.01100353  0.
   0.01713409  0.          0.         -0.02360199]
 [-0.03041564  0.0050414   0.02358501  0.00105169  0.0005874   0.
  -0.01188474  0.          0.          0.00923825]
 [-0.01789571 -0.0124997   0.00977714  0.01211542 -0.01730226  0.
  -0.0130527   0.          0.          0.01150311]
 [-0.00223174 -0.01176281 -0.0012398   0.02009606 -0.01834734  0.
  -0.0007625   0.          0.         -0.0016746 ]
 [ 0.04645756  0.00481692 -0.00471657  0.01197304  0.00275768  0.
  -0.00118065  0.          0.         -0.01430525]] 
Episode: 116: [[ 0.04310767  0.00829227  0.01201807  0.00386637  0.01105184  0.
   0.01704764  0.          0.         -0.02374519]
 [-0.03052283  0.00505249  0.02369088  0.00112309  0.00058951  0.
  -0.01175004  0.          0.          0.00923183]
 [-0.01782872 -0.01258212  0.0097324   0.01213446 -0.01740365  0.
  -0.01289078  0.          0.          0.01156828]
 [-0.00216474 -0.01180885 -0.00145101  0.02007511 -0.01845546  0.
  -0.00088894  0.          0.         -0.00158172]
 [ 0.04671847  0.00493706 -0.00480472  0.01220303  0.00289395  0.
  -0.00145844  0.          0.         -0.01451235]] 
Episode: 117: [[ 0.04324766  0.0083946   0.01208634  0.0037452   0.01111387  0.
   0.01696926  0.          0.         -0.02385817]
 [-0.03062122  0.0050745   0.02378568  0.00122807  0.00059727  0.
  -0.01167621  0.          0.          0.00921937]
 [-0.01773484 -0.01265697  0.00968672  0.01220794 -0.01749765  0.
  -0.01275088  0.          0.          0.01159466]
 [-0.00201672 -0.01183487 -0.00164005  0.02014934 -0.01854688  0.
  -0.00108874  0.          0.         -0.00153991]
 [ 0.04696095  0.00507392 -0.00489997  0.01240713  0.00301115  0.
  -0.00161828  0.          0.         -0.01470378]] 
Episode: 118: [[ 0.04333318  0.00847229  0.0121401   0.00364638  0.01118986  0.
   0.01687303  0.          0.         -0.02398852]
 [-0.03065933  0.00508208  0.02383632  0.00135967  0.0006125   0.
  -0.01159598  0.          0.          0.0092262 ]
 [-0.01755555 -0.01279679  0.00961997  0.01232175 -0.01760479  0.
  -0.01255359  0.          0.          0.01154564]
 [-0.00177324 -0.01193572 -0.0018479   0.02032267 -0.01865617  0.
  -0.00118087  0.          0.         -0.00159041]
 [ 0.04717633  0.00516248 -0.0049436   0.01246915  0.00312678  0.
  -0.00185172  0.          0.         -0.01480702]] 
Episode: 119: [[ 0.04353658  0.00864559  0.01219692  0.00356332  0.01132134  0.
   0.0168809   0.          0.         -0.02393956]
 [-0.03071469  0.00513293  0.02386629  0.00153726  0.00063152  0.
  -0.01155674  0.          0.          0.00943602]
 [-0.01726855 -0.01292825  0.00953665  0.01262014 -0.0177402   0.
  -0.01249226  0.          0.          0.01136487]
 [-0.00144463 -0.01201306 -0.00206746  0.02058451 -0.01878983  0.
  -0.00135116  0.          0.         -0.00172382]
 [ 0.0475226   0.00532833 -0.00496997  0.01240014  0.0032767   0.
  -0.00197193  0.          0.         -0.01499733]] 
Episode: 120: [[ 0.04377462  0.00883078  0.01225694  0.00354451  0.01145619  0.
   0.01686649  0.          0.         -0.02380939]
 [-0.03080115  0.00519309  0.0239281   0.00173896  0.0006452   0.
  -0.01157185  0.          0.          0.00967203]
 [-0.01704153 -0.01307771  0.00947725  0.01295178 -0.01788367  0.
  -0.01247707  0.          0.          0.01114609]
 [-0.00115837 -0.01212289 -0.00226961  0.02092538 -0.01893519  0.
  -0.00159167  0.          0.         -0.0019317 ]
 [ 0.04789017  0.00551625 -0.00498693  0.01229134  0.0034207   0.
  -0.00199045  0.          0.         -0.01526562]] 
Episode: 121: [[ 0.04404617  0.00901207  0.01230876  0.0035883   0.01159556  0.
   0.01684799  0.          0.         -0.02353173]
 [-0.03094717  0.00525476  0.02403304  0.00193231  0.00064425  0.
  -0.0115655   0.          0.          0.00995327]
 [-0.01691631 -0.01316368  0.00947173  0.01327545 -0.01801721  0.
  -0.01244681  0.          0.          0.01101565]
 [-0.00098129 -0.01217131 -0.00240572  0.02131383 -0.01906328  0.
  -0.00189524  0.          0.         -0.00203078]
 [ 0.04826691  0.00569645 -0.00502278  0.01214815  0.0035478   0.
  -0.00191765  0.          0.         -0.01560376]] 
Episode: 122: [[ 0.04415667  0.00917775  0.01237515  0.00362158  0.01168196  0.
   0.01697119  0.          0.         -0.02344515]
 [-0.03090334  0.00532454  0.02397591  0.00201787  0.00067549  0.
  -0.01160628  0.          0.          0.01019349]
 [-0.01667797 -0.01328605  0.0092938   0.01350388 -0.01805662  0.
  -0.01253538  0.          0.          0.01087269]
 [-0.00071215 -0.01222718 -0.00272169  0.02167711 -0.0190766   0.
  -0.00225545  0.          0.         -0.00220763]
 [ 0.04857823  0.00588942 -0.0048981   0.0119255   0.00369615  0.
  -0.00194156  0.          0.         -0.01590629]] 
Episode: 123: [[ 0.04420562  0.00942158  0.01244673  0.00364361  0.01182941  0.
   0.01712042  0.          0.         -0.02327612]
 [-0.03081998  0.00544596  0.02387975  0.002063    0.00073976  0.
  -0.0115812   0.          0.          0.01045636]
 [-0.01635559 -0.0134834   0.00910936  0.01366884 -0.01813853  0.
  -0.01253364  0.          0.          0.01066106]
 [-0.0003609  -0.01237444 -0.00302735  0.02189686 -0.01915098  0.
  -0.00249222  0.          0.         -0.00240677]
 [ 0.04884783  0.00612636 -0.00473255  0.01176272  0.00390864  0.
  -0.0020523   0.          0.         -0.01624248]] 
Episode: 124: [[ 4.43126485e-02  9.63249430e-03  1.25154322e-02  3.65818059e-03
   1.19683566e-02  0.00000000e+00  1.72167607e-02  0.00000000e+00
   0.00000000e+00 -2.30999552e-02]
 [-3.07931043e-02  5.54441614e-03  2.38190331e-02  2.03573331e-03
   7.89697515e-04  0.00000000e+00 -1.14698643e-02  0.00000000e+00
   0.00000000e+00  1.07446425e-02]
 [-1.60887949e-02 -1.36462981e-02  8.95408727e-03  1.37632862e-02
  -1.82071496e-02  0.00000000e+00 -1.24980435e-02  0.00000000e+00
   0.00000000e+00  1.04808016e-02]
 [-3.28719398e-05 -1.24729499e-02 -3.29902349e-03  2.20733527e-02
  -1.91946086e-02  0.00000000e+00 -2.79222080e-03  0.00000000e+00
   0.00000000e+00 -2.51741987e-03]
 [ 4.91568036e-02  6.33086637e-03 -4.64113010e-03  1.15946252e-02
   4.08956781e-03  0.00000000e+00 -2.06269906e-03  0.00000000e+00
   0.00000000e+00 -1.66419726e-02]] 
Episode: 125: [[ 0.04441277  0.00985214  0.01260377  0.00363318  0.01210838  0.
   0.01737275  0.          0.         -0.02289583]
 [-0.03075732  0.00565177  0.02376722  0.00199147  0.00084501  0.
  -0.01139572  0.          0.          0.01103218]
 [-0.01582503 -0.0138203   0.00880239  0.01387208 -0.01829306  0.
  -0.01248801  0.          0.          0.0102983 ]
 [ 0.0002813  -0.01259077 -0.00356     0.02228752 -0.01926935  0.
  -0.00311624  0.          0.         -0.00252884]
 [ 0.04944644  0.00653644 -0.00456406  0.01138285  0.00428281  0.
  -0.00216112  0.          0.         -0.01709813]] 
Episode: 126: [[ 0.04460551  0.01005169  0.01267689  0.00355343  0.012252    0.
   0.01737235  0.          0.         -0.02273184]
 [-0.03082509  0.00573862  0.02377707  0.00202739  0.0008893   0.
  -0.01120358  0.          0.          0.01136046]
 [-0.01568179 -0.01400133  0.00869702  0.0140623  -0.01839777  0.
  -0.01236304  0.          0.          0.01011161]
 [ 0.00049659 -0.01274094 -0.00379378  0.02258605 -0.01937349  0.
  -0.00332039  0.          0.         -0.0026271 ]
 [ 0.04974045  0.0067555  -0.00451984  0.01106806  0.00448257  0.
  -0.0023336   0.          0.         -0.01741067]] 
Episode: 127: [[ 0.0448834   0.01028596  0.01280341  0.00350872  0.01249597  0.
   0.01744672  0.          0.         -0.02261849]
 [-0.03098299  0.00587929  0.0238389   0.00208823  0.00095862  0.
  -0.01110181  0.          0.          0.01155504]
 [-0.0156796  -0.01433262  0.0085912   0.01429553 -0.01863698  0.
  -0.0123616   0.          0.          0.01008357]
 [ 0.00057901 -0.01305098 -0.00402544  0.02295993 -0.01964045  0.
  -0.00353792  0.          0.         -0.00262754]
 [ 0.05001458  0.00687624 -0.00447956  0.01072522  0.00463291  0.
  -0.00239975  0.          0.         -0.01759442]] 
Episode: 128: [[ 0.04515387  0.01050353  0.01293836  0.00351872  0.01272908  0.
   0.01754979  0.          0.         -0.02248262]
 [-0.03112796  0.00602056  0.02389095  0.00219019  0.00103254  0.
  -0.01099953  0.          0.          0.01173793]
 [-0.01567065 -0.01461513  0.00847966  0.01455434 -0.01884584  0.
  -0.01237905  0.          0.          0.01000877]
 [ 0.00067961 -0.01332648 -0.00424232  0.02339129 -0.01987699  0.
  -0.00364607  0.          0.         -0.00271578]
 [ 0.05029348  0.00699836 -0.00447639  0.010394    0.00480021  0.
  -0.00252717  0.          0.         -0.01772404]] 
Episode: 129: [[ 0.0453038   0.01059555  0.01304231  0.0035016   0.01286271  0.
   0.01765352  0.          0.         -0.02248144]
 [-0.03118563  0.00611905  0.02388877  0.00228714  0.00110143  0.
  -0.01084379  0.          0.          0.01178909]
 [-0.01556055 -0.01483121  0.00835618  0.0147286  -0.0190026   0.
  -0.01236362  0.          0.          0.00999151]
 [ 0.00086679 -0.01355836 -0.00446301  0.02367275 -0.02006137  0.
  -0.00379641  0.          0.         -0.00270736]
 [ 0.05048316  0.00703355 -0.00445799  0.01022307  0.00487587  0.
  -0.00273068  0.          0.         -0.01774336]] 
Episode: 130: [[ 0.04535069  0.01070799  0.0131261   0.00342717  0.01302452  0.
   0.01766049  0.          0.         -0.0224652 ]
 [-0.0311604   0.00619765  0.02383154  0.00235141  0.00117731  0.
  -0.01069553  0.          0.          0.0118578 ]
 [-0.01539171 -0.0150381   0.00820923  0.01488945 -0.01914833  0.
  -0.01223393  0.          0.          0.01010181]
 [ 0.00107346 -0.01377372 -0.00469783  0.02396384 -0.02022678  0.
  -0.003844    0.          0.         -0.0026121 ]
 [ 0.05054587  0.00709433 -0.00441557  0.00996476  0.00495582  0.
  -0.00300253  0.          0.         -0.01785762]] 
Episode: 131: [[ 0.04543267  0.01088957  0.01318994  0.00330672  0.01321198  0.
   0.01763872  0.          0.         -0.02234375]
 [-0.0311629   0.00625697  0.02378119  0.00238283  0.00122221  0.
  -0.01055742  0.          0.          0.01197723]
 [-0.01528649 -0.01526625  0.00808113  0.01501305 -0.01932055  0.
  -0.01206129  0.          0.          0.01019437]
 [ 0.00118443 -0.01399717 -0.00489792  0.02415574 -0.02040482  0.
  -0.00397433  0.          0.         -0.00243881]
 [ 0.05065067  0.00725873 -0.00440225  0.00976785  0.00507868  0.
  -0.00321056  0.          0.         -0.01805698]] 
Episode: 132: [[ 0.04559123  0.01100073  0.01326541  0.003258    0.01336363  0.
   0.01767763  0.          0.         -0.0223418 ]
 [-0.0312166   0.00632019  0.02375723  0.00239242  0.00127532  0.
  -0.01048638  0.          0.          0.01206047]
 [-0.01521898 -0.01547641  0.00798882  0.01512578 -0.01948695  0.
  -0.01194081  0.          0.          0.01020436]
 [ 0.00132047 -0.01421476 -0.00505417  0.02435186 -0.02059048  0.
  -0.00406106  0.          0.         -0.00237053]
 [ 0.05085252  0.00730321 -0.00446222  0.00967945  0.00513878  0.
  -0.00330854  0.          0.         -0.01813953]] 
Episode: 133: [[ 0.0457721   0.01110985  0.01334479  0.00322249  0.0135071   0.
   0.01771421  0.          0.         -0.02233836]
 [-0.03129399  0.00638223  0.02375239  0.00244929  0.00132247  0.
  -0.010428    0.          0.          0.01216586]
 [-0.01520316 -0.01566097  0.00791065  0.01528781 -0.01963197  0.
  -0.0118625   0.          0.          0.0101856 ]
 [ 0.00140267 -0.01440534 -0.00518946  0.02462204 -0.02074827  0.
  -0.00422681  0.          0.         -0.0023966 ]
 [ 0.05107258  0.00736341 -0.00451864  0.00963216  0.00520841  0.
  -0.00330766  0.          0.         -0.01823158]] 
Episode: 134: [[ 0.04580132  0.01154775  0.0131071   0.00319874  0.01414222  0.
   0.01760612  0.          0.         -0.02217527]
 [-0.03118861  0.00675705  0.02351149  0.00293189  0.0015592   0.
  -0.01054856  0.          0.          0.01203011]
 [-0.0150624  -0.0161085   0.00808511  0.01575309 -0.01996975  0.
  -0.01167597  0.          0.          0.01003042]
 [ 0.00158785 -0.01449469 -0.00500963  0.02497038 -0.02093283  0.
  -0.00446355  0.          0.         -0.00250746]
 [ 0.05111041  0.00767051 -0.00466392  0.00946491  0.00546731  0.
  -0.00339576  0.          0.         -0.018411  ]] 
Episode: 135: [[ 0.04590402  0.01206933  0.01291814  0.00306434  0.01479974  0.
   0.01746604  0.          0.         -0.02194148]
 [-0.03109809  0.00713273  0.02331134  0.00334326  0.00179293  0.
  -0.01054751  0.          0.          0.01192058]
 [-0.01506232 -0.0166877   0.00822134  0.01614767 -0.02035004  0.
  -0.01144244  0.          0.          0.0100292 ]
 [ 0.00164282 -0.01477118 -0.00489517  0.02519301 -0.0211937   0.
  -0.00459401  0.          0.         -0.00251981]
 [ 0.05111748  0.00795636 -0.004751    0.00938035  0.00571616  0.
  -0.0035384   0.          0.         -0.01866874]] 
Episode: 136: [[ 0.0460729   0.01256886  0.01273862  0.00297241  0.01542794  0.
   0.01733456  0.          0.         -0.02179107]
 [-0.03110769  0.00746587  0.02314665  0.00373623  0.00201013  0.
  -0.01045999  0.          0.          0.01187218]
 [-0.01517364 -0.01721588  0.00837252  0.01652271 -0.02070464  0.
  -0.01119877  0.          0.          0.01016441]
 [ 0.00159989 -0.01499801 -0.00477588  0.0253917  -0.02141837  0.
  -0.00470108  0.          0.         -0.00244365]
 [ 0.05116694  0.00821288 -0.00482962  0.00934378  0.0059393   0.
  -0.00365263  0.          0.         -0.01890968]] 
Episode: 137: [[ 0.04624765  0.01301176  0.01258487  0.00291404  0.01599602  0.
   0.01721832  0.          0.         -0.02161618]
 [-0.03113282  0.00777157  0.02301701  0.00409427  0.00220114  0.
  -0.01036848  0.          0.          0.01183166]
 [-0.01529813 -0.01768559  0.00851939  0.01685139 -0.02102649  0.
  -0.01099617  0.          0.          0.01031913]
 [ 0.00153779 -0.01522569 -0.00466396  0.02554304 -0.02163618  0.
  -0.00487829  0.          0.         -0.00234606]
 [ 0.05122873  0.00842135 -0.00490197  0.00930851  0.00614211  0.
  -0.00366605  0.          0.         -0.01917516]] 
Episode: 138: [[ 0.04640227  0.01336208  0.01244087  0.00287485  0.01644931  0.
   0.01716524  0.          0.         -0.0213754 ]
 [-0.03119156  0.00803432  0.02290459  0.00447603  0.0023537   0.
  -0.01037151  0.          0.          0.01183916]
 [-0.0155244  -0.01814546  0.00866835  0.0172032  -0.02136679  0.
  -0.01082131  0.          0.          0.01032889]
 [ 0.00137119 -0.01548195 -0.00454881  0.02568781 -0.02191819  0.
  -0.00494973  0.          0.         -0.00234581]
 [ 0.0512516   0.00858043 -0.00494061  0.00921088  0.00630647  0.
  -0.00376732  0.          0.         -0.01941948]] 
Episode: 139: [[ 0.04655734  0.01369258  0.01231682  0.00283855  0.01686584  0.
   0.0171159   0.          0.         -0.02112139]
 [-0.03123965  0.0082777   0.02279484  0.00482647  0.00247832  0.
  -0.01039174  0.          0.          0.01186459]
 [-0.01568711 -0.01859012  0.00879651  0.01753163 -0.02169689  0.
  -0.01072443  0.          0.          0.01028591]
 [ 0.00128617 -0.01573522 -0.00444795  0.02584397 -0.02219195  0.
  -0.00510182  0.          0.         -0.00243302]
 [ 0.05130611  0.00871143 -0.00498931  0.00911655  0.00645578  0.
  -0.00376926  0.          0.         -0.0196884 ]] 
Episode: 140: [[ 0.0467047   0.01402453  0.01220138  0.00282126  0.01725949  0.
   0.01707741  0.          0.         -0.02085816]
 [-0.03127799  0.00850429  0.02269202  0.00516579  0.00259006  0.
  -0.01040534  0.          0.          0.01190188]
 [-0.01579468 -0.01900973  0.00890208  0.017849   -0.02200103  0.
  -0.01063642  0.          0.          0.01020391]
 [ 0.00128976 -0.01597375 -0.00436738  0.02602005 -0.02244255  0.
  -0.00531373  0.          0.         -0.00257363]
 [ 0.05138132  0.00885758 -0.00505343  0.00902028  0.00660992  0.
  -0.00381262  0.          0.         -0.02002638]] 
Episode: 141: [[ 0.04691658  0.01437918  0.01209719  0.00281335  0.01764335  0.
   0.01704528  0.          0.         -0.02059825]
 [-0.03135974  0.00872303  0.02262347  0.00548885  0.00268154  0.
  -0.01039679  0.          0.          0.01196443]
 [-0.01588386 -0.01938296  0.00899227  0.01816498 -0.02226363  0.
  -0.01054699  0.          0.          0.01009158]
 [ 0.00137083 -0.01616715 -0.00432443  0.0262113  -0.02262631  0.
  -0.00559213  0.          0.         -0.00278759]
 [ 0.05155186  0.00907216 -0.00518382  0.00893332  0.00681965  0.
  -0.00385425  0.          0.         -0.02042745]] 
Episode: 142: [[ 0.04723957  0.01464585  0.01204626  0.00282932  0.01798546  0.
   0.01706203  0.          0.         -0.02030764]
 [-0.03160714  0.00887998  0.02265071  0.00576255  0.00272964  0.
  -0.01056042  0.          0.          0.01201246]
 [-0.01608947 -0.01973133  0.0090982   0.01837769 -0.02257965  0.
  -0.01055122  0.          0.          0.01004106]
 [ 0.00133285 -0.01637765 -0.00429111  0.02627517 -0.02287361  0.
  -0.00575473  0.          0.         -0.00289257]
 [ 0.05176811  0.009254   -0.00515501  0.0088839   0.00701999  0.
  -0.00398131  0.          0.         -0.02088502]] 
Episode: 143: [[ 0.04757832  0.01485011  0.01197728  0.00279864  0.01828796  0.
   0.0169336   0.          0.         -0.02003638]
 [-0.03190051  0.00896853  0.02273616  0.00603269  0.0026982   0.
  -0.01053632  0.          0.          0.01205643]
 [-0.01635622 -0.0201297   0.00926174  0.01852475 -0.02298206  0.
  -0.01043668  0.          0.          0.00997479]
 [ 0.00122715 -0.01667772 -0.00423464  0.02622508 -0.02325321  0.
  -0.00581327  0.          0.         -0.00307436]
 [ 0.05198189  0.00941359 -0.00515523  0.00896696  0.00723122  0.
  -0.00400601  0.          0.         -0.02119899]] 
Episode: 144: [[ 0.0478961   0.01504381  0.01192123  0.00277686  0.0185647   0.
   0.01680423  0.          0.         -0.01977245]
 [-0.03216073  0.00905014  0.02280984  0.00632041  0.00266853  0.
  -0.01052158  0.          0.          0.01210327]
 [-0.01656984 -0.02049454  0.00940354  0.01872892 -0.02334573  0.
  -0.01035338  0.          0.          0.00984864]
 [ 0.0011901  -0.01694816 -0.00417937  0.0262872  -0.02359058  0.
  -0.00595355  0.          0.         -0.00332517]
 [ 0.05219622  0.00955829 -0.0051808   0.00902784  0.00741434  0.
  -0.00393877  0.          0.         -0.02146409]] 
Episode: 145: [[ 0.04812372  0.01516971  0.01186221  0.00270553  0.01878635  0.
   0.01670727  0.          0.         -0.01966306]
 [-0.03235712  0.00910841  0.0228534   0.00652765  0.00264292  0.
  -0.01049107  0.          0.          0.01204346]
 [-0.01675892 -0.02080074  0.00953574  0.01879628 -0.02366745  0.
  -0.0102044   0.          0.          0.00987288]
 [ 0.00107838 -0.01715979 -0.00413462  0.0262362  -0.02387465  0.
  -0.00599214  0.          0.         -0.00346349]
 [ 0.05231296  0.00961562 -0.0051973   0.00919736  0.00753427  0.
  -0.00396768  0.          0.         -0.02160498]] 
Episode: 146: [[ 0.04819343  0.01519563  0.01179073  0.00255312  0.01895818  0.
   0.01663832  0.          0.         -0.01945851]
 [-0.03243993  0.00911044  0.02285508  0.00658337  0.00261317  0.
  -0.01031106  0.          0.          0.01194504]
 [-0.01687393 -0.0209942   0.00964408  0.01871439 -0.023933    0.
  -0.00995263  0.          0.          0.00998313]
 [ 0.00093963 -0.01729095 -0.00412963  0.02608398 -0.02411227  0.
  -0.00593936  0.          0.         -0.00350069]
 [ 0.05229283  0.00959949 -0.00521347  0.00933679  0.00765273  0.
  -0.00408296  0.          0.         -0.02182866]] 
Episode: 147: [[ 0.0482661   0.01518645  0.01172718  0.00242286  0.01908387  0.
   0.01652686  0.          0.         -0.01927272]
 [-0.03251142  0.00910613  0.02283609  0.00667871  0.00256483  0.
  -0.01013376  0.          0.          0.01192194]
 [-0.01694044 -0.02122969  0.00972611  0.01870286 -0.02422225  0.
  -0.00969724  0.          0.          0.00994579]
 [ 0.00090124 -0.01748556 -0.00412727  0.02604843 -0.02440405  0.
  -0.00580446  0.          0.         -0.00362128]
 [ 0.05229094  0.00954617 -0.00528765  0.00939874  0.00776212  0.
  -0.00421459  0.          0.         -0.02196978]] 
Episode: 148: [[ 0.04839722  0.01522331  0.01168211  0.00235436  0.01923113  0.
   0.01642897  0.          0.         -0.01901637]
 [-0.03260984  0.00911591  0.02284977  0.00676692  0.00252519  0.
  -0.00997615  0.          0.          0.01194128]
 [-0.01702287 -0.02145565  0.00981268  0.01875809 -0.0244834   0.
  -0.0094679   0.          0.          0.00993077]
 [ 0.00089659 -0.01767014 -0.00412371  0.02612244 -0.02464803  0.
  -0.00577051  0.          0.         -0.00364266]
 [ 0.05236619  0.00952686 -0.00534243  0.00932704  0.007872    0.
  -0.00424345  0.          0.         -0.02219366]] 
Episode: 149: [[ 0.04858783  0.01525569  0.01166168  0.00230939  0.01936771  0.
   0.01634841  0.          0.         -0.01880593]
 [-0.03275493  0.00914013  0.02290251  0.00692336  0.00249363  0.
  -0.00983704  0.          0.          0.01198431]
 [-0.01716574 -0.02168025  0.00991555  0.01892391 -0.02473539  0.
  -0.00931767  0.          0.          0.00981505]
 [ 0.00084827 -0.01785852 -0.00410252  0.02629449 -0.02488576  0.
  -0.00582727  0.          0.         -0.00374891]
 [ 0.05250848  0.00947442 -0.00542993  0.00924777  0.00793242  0.
  -0.00417999  0.          0.         -0.02229788]] 
