Episode: 1: [[0. 0. 0. 0. 0.]
 [0. 0. 0. 0. 0.]
 [0. 0. 0. 0. 0.]
 [0. 0. 0. 0. 0.]
 [0. 0. 0. 0. 0.]] 
Episode: 2: [[ 0.0007     -0.00069988  0.0007     -0.0007     -0.0007    ]
 [ 0.0007      0.0007      0.0007     -0.0007      0.0007    ]
 [ 0.0007      0.0007      0.0007      0.0007      0.0007    ]
 [ 0.0007      0.0007     -0.0007      0.0007      0.0007    ]
 [-0.0007      0.0007      0.0007     -0.0007      0.0007    ]] 
Episode: 3: [[ 0.00053361 -0.00124436  0.00093249 -0.001209   -0.00127349]
 [ 0.0004381   0.00140028  0.00056452 -0.0009418   0.00029528]
 [ 0.00034273  0.00111787  0.00023724  0.00027064  0.00087832]
 [ 0.0004817   0.00084688 -0.00124212  0.00138281  0.00139927]
 [-0.00137873  0.00095552  0.00031832 -0.00084084  0.00140093]] 
Episode: 4: [[ 1.3218164e-04 -1.7850327e-03  1.0984858e-03 -1.0628474e-03
  -1.9024127e-03]
 [-2.0773570e-05  1.8165071e-03  2.4959320e-04 -8.8021095e-04
  -2.3867423e-04]
 [-1.6514338e-04  1.2945916e-03 -3.0027647e-04 -2.6633334e-04
   7.1854249e-04]
 [ 8.7676628e-05  8.0686802e-04 -1.8173670e-03  2.0623028e-03
   1.8047615e-03]
 [-2.0680388e-03  1.0183725e-03 -1.4039973e-04 -7.8010390e-04
   1.1493183e-03]] 
Episode: 5: [[-0.00036047 -0.00238479  0.0015239  -0.00089078 -0.00242194]
 [-0.00055618  0.00185719  0.00012615 -0.00091402 -0.0007287 ]
 [-0.00073538  0.00133856 -0.00089832 -0.00084622  0.00031352]
 [-0.00042043  0.00060805 -0.00243977  0.00239248  0.00193851]
 [-0.00274096  0.0010503  -0.00067556 -0.0007398   0.0006937 ]] 
Episode: 6: [[-6.4368657e-04 -3.0184612e-03  2.0380178e-03 -5.2832655e-04
  -2.5540136e-03]
 [-1.0241346e-03  1.6860605e-03  2.6519864e-04 -6.9633435e-04
  -7.0332782e-04]
 [-1.2599166e-03  1.1592339e-03 -1.1909242e-03 -1.4178872e-03
   2.2864886e-05]
 [-9.2978415e-04  3.3457461e-04 -2.8169302e-03  2.1625680e-03
   2.3284769e-03]
 [-3.3203880e-03  1.1018639e-03 -9.0896914e-04 -6.1860302e-04
   4.6056713e-04]] 
Episode: 7: [[-9.9290581e-04 -2.8641908e-03  1.8759650e-03 -4.5303552e-04
  -2.8584504e-03]
 [-1.4004569e-03  1.7417400e-03  2.5170486e-05 -3.9527114e-04
  -5.3515087e-04]
 [-1.7190782e-03  8.8687032e-04 -1.6327952e-03 -1.8971126e-03
  -1.9950695e-04]
 [-1.4635227e-03 -1.8839241e-05 -3.3045304e-03  2.2685593e-03
   2.7347018e-03]
 [-3.8483148e-03  9.0575783e-04 -1.3235089e-03 -3.4594597e-04
   3.3483142e-04]] 
Episode: 8: [[-9.5800165e-04 -2.8631077e-03  2.0671545e-03 -7.9137541e-04
  -3.2562208e-03]
 [-1.3173312e-03  2.0891055e-03  7.4783020e-05 -6.8501919e-04
  -5.3752813e-04]
 [-1.6561848e-03  1.1233641e-03 -2.0945468e-03 -2.4014460e-03
  -4.8551137e-05]
 [-1.4382934e-03  1.5302665e-04 -3.8331929e-03  2.5598265e-03
   3.1615500e-03]
 [-4.4081435e-03  1.0125904e-03 -1.7829682e-03 -5.5413286e-04
  -3.2300624e-05]] 
Episode: 9: [[-9.4792095e-04 -2.8416419e-03  2.2285564e-03 -1.1321366e-03
  -3.6412084e-03]
 [-1.2417537e-03  2.4667941e-03  9.2445400e-05 -9.9585066e-04
  -7.4661063e-04]
 [-1.6397323e-03  1.3733315e-03 -2.5032461e-03 -2.9573296e-03
   1.5490538e-06]
 [-1.4768757e-03  3.5440890e-04 -4.3302635e-03  2.7086663e-03
   3.4849683e-03]
 [-4.9770079e-03  1.2120251e-03 -2.2218970e-03 -7.9509709e-04
  -4.6342015e-04]] 
Episode: 10: [[-6.6276820e-04 -3.1389419e-03  2.0653883e-03 -1.4164788e-03
  -4.0769065e-03]
 [-9.6690474e-04  2.7252685e-03 -2.1106293e-04 -1.1757396e-03
  -1.0561085e-03]
 [-1.4672719e-03  1.5867894e-03 -2.9983451e-03 -2.8832201e-03
  -3.2799755e-05]
 [-1.5234017e-03  5.6043157e-04 -4.8880833e-03  3.0579581e-03
   3.8771017e-03]
 [-5.1847952e-03  1.1688559e-03 -2.7386136e-03 -8.3709485e-04
  -7.0041238e-04]] 
Episode: 11: [[-4.1725318e-04 -3.1161676e-03  1.7399946e-03 -1.7958377e-03
  -4.0475666e-03]
 [-7.5102691e-04  3.1352164e-03 -4.8860005e-04 -1.5241752e-03
  -8.2815235e-04]
 [-1.4303562e-03  1.9280893e-03 -3.5552934e-03 -3.0586380e-03
  -3.2397198e-05]
 [-1.6050145e-03  8.2635309e-04 -5.4892516e-03  3.0954997e-03
   3.8697182e-03]
 [-5.3206384e-03  1.3393525e-03 -3.3028207e-03 -9.9882670e-04
  -6.7996548e-04]] 
Episode: 12: [[-0.00018787 -0.00311211  0.00138707 -0.00218637 -0.00398221]
 [-0.00047387  0.00340882 -0.00081291 -0.00187271 -0.00069734]
 [-0.00149242  0.0022671  -0.00413797 -0.00329801 -0.00017156]
 [-0.00164584  0.00107868 -0.00612492  0.00330092  0.00375064]
 [-0.00542372  0.00141214 -0.00388439 -0.00110097 -0.00070555]] 
Episode: 13: [[ 1.9396577e-04 -3.0087251e-03  1.0018860e-03 -2.5482965e-03
  -3.7395288e-03]
 [-5.8530433e-05  3.7766637e-03 -1.1539748e-03 -2.1621461e-03
  -3.7363861e-04]
 [-1.5044681e-03  2.6476271e-03 -4.6408484e-03 -3.6611003e-03
  -2.9677528e-04]
 [-1.4498822e-03  1.3143884e-03 -6.7245266e-03  3.6209477e-03
   3.8533071e-03]
 [-5.4447078e-03  1.5989578e-03 -4.3878285e-03 -1.4306533e-03
  -1.0006775e-03]] 
Episode: 14: [[ 5.5389648e-04 -2.9084932e-03  6.4947258e-04 -2.8956512e-03
  -3.5107241e-03]
 [ 3.3535957e-04  4.1282624e-03 -1.4683951e-03 -2.4547111e-03
  -7.2906674e-05]
 [-1.4753976e-03  3.0254861e-03 -5.1097069e-03 -3.9792275e-03
  -3.5195818e-04]
 [-1.2678844e-03  1.5638650e-03 -7.2954856e-03  3.9116899e-03
   3.8950632e-03]
 [-5.4457542e-03  1.7911162e-03 -4.8585800e-03 -1.7560557e-03
  -1.2741197e-03]] 
Episode: 15: [[ 0.00100498 -0.00287876  0.00026873 -0.00329894 -0.00326245]
 [ 0.00082244  0.00457685 -0.00168457 -0.00284066  0.00026993]
 [-0.00122495  0.00350618 -0.00528053 -0.00434429 -0.00040788]
 [-0.00092594  0.00196634 -0.00758872  0.00417134  0.00376238]
 [-0.00517088  0.00212952 -0.00508588 -0.00202475 -0.0014985 ]] 
Episode: 16: [[ 1.4183802e-03 -2.8394675e-03 -8.6850967e-05 -3.6489645e-03
  -3.0137899e-03]
 [ 1.2727410e-03  5.0130473e-03 -1.8987375e-03 -3.1885158e-03
   5.8721268e-04]
 [-9.9068554e-04  3.9957496e-03 -5.4553663e-03 -4.6877088e-03
  -4.7375305e-04]
 [-5.6633295e-04  2.3942143e-03 -7.8933556e-03  4.4468674e-03
   3.6556071e-03]
 [-4.8449719e-03  2.5278404e-03 -5.3118002e-03 -2.3810391e-03
  -1.8034731e-03]] 
Episode: 17: [[ 0.00174828 -0.00279273 -0.00043586 -0.00394375 -0.00277524]
 [ 0.00164559  0.00538445 -0.00215522 -0.0034927   0.0008823 ]
 [-0.0008252   0.00441162 -0.00568897 -0.00496489 -0.00048743]
 [-0.00035332  0.00274385 -0.00825368  0.00479153  0.00358099]
 [-0.00461804  0.00279657 -0.00559834 -0.00266456 -0.00208505]] 
Episode: 18: [[ 0.00216423 -0.00268799 -0.00081049 -0.00412348 -0.00251066]
 [ 0.00207977  0.00565053 -0.00249847 -0.00360887  0.00120879]
 [-0.00068894  0.00472914 -0.00601852 -0.00510031 -0.00041624]
 [-0.00035927  0.00302246 -0.00865157  0.00512201  0.00345378]
 [-0.00449399  0.00302087 -0.00595854 -0.00292762 -0.002339  ]] 
Episode: 19: [[ 0.002515   -0.0025905  -0.0011882  -0.00429026 -0.00226894]
 [ 0.0024399   0.00592337 -0.0028491  -0.00371216  0.00152065]
 [-0.00062874  0.00506113 -0.0063567  -0.00525512 -0.00032458]
 [-0.00043928  0.00330476 -0.00907671  0.00542046  0.00335355]
 [-0.00441572  0.00325786 -0.0063283  -0.00317862 -0.00259582]] 
Episode: 20: [[ 0.00271603 -0.0025264  -0.00154538 -0.00440853 -0.00205292]
 [ 0.00263131  0.00615828 -0.00319471 -0.00378878  0.00180012]
 [-0.00071712  0.0053041  -0.00669756 -0.00540136 -0.00022275]
 [-0.00067682  0.00345983 -0.00951784  0.0056996   0.00331782]
 [-0.00446119  0.00342049 -0.00670098 -0.00339026 -0.0028412 ]] 
Episode: 21: [[ 0.00285454 -0.00247257 -0.00186794 -0.00452097 -0.00187039]
 [ 0.00277094  0.00636165 -0.00352218 -0.00385285  0.00203191]
 [-0.00084767  0.0055181  -0.00707069 -0.00555385 -0.00015214]
 [-0.00096236  0.0035764  -0.01000295  0.00597552  0.00333586]
 [-0.00455482  0.00357401 -0.0071182  -0.00358619 -0.00305639]] 
Episode: 22: [[ 0.00284284 -0.00240698 -0.00218964 -0.00458216 -0.00171302]
 [ 0.00274373  0.00652181 -0.00387394 -0.00388637  0.00222657]
 [-0.00112373  0.00566528 -0.00743394 -0.00577919 -0.00015594]
 [-0.00131521  0.00360353 -0.0104685   0.00613433  0.00327013]
 [-0.00476356  0.0036517  -0.0074972  -0.00365376 -0.00322202]] 
Episode: 23: [[ 0.00276541 -0.00233976 -0.00249586 -0.0046146  -0.001573  ]
 [ 0.00265263  0.00665954 -0.00421921 -0.00389517  0.00239309]
 [-0.00144812  0.00577565 -0.00780378 -0.00599365 -0.00021297]
 [-0.00170223  0.00357569 -0.01093934  0.00626513  0.00318579]
 [-0.00502698  0.00369267 -0.00788273 -0.00369621 -0.00335556]] 
Episode: 24: [[ 0.00260077 -0.0022656  -0.00275736 -0.00461706 -0.00146355]
 [ 0.00247453  0.00674428 -0.00455332 -0.0038688   0.00252693]
 [-0.00184783  0.00581678 -0.00816348 -0.00624646 -0.00026269]
 [-0.0021198   0.0034921  -0.01138914  0.00637078  0.00318407]
 [-0.00537277  0.00369063 -0.00824159 -0.00372916 -0.00349439]] 
Episode: 25: [[ 0.00241389 -0.00219573 -0.00301113 -0.00461346 -0.00137387]
 [ 0.00227427  0.00682713 -0.00487522 -0.00383963  0.0026347 ]
 [-0.00224479  0.00584828 -0.00850663 -0.00648957 -0.00029351]
 [-0.00254536  0.00338776 -0.01182319  0.00643155  0.00319945]
 [-0.00572413  0.00365453 -0.00858206 -0.003743   -0.0036159 ]] 
Episode: 26: [[ 0.00214234 -0.00211087 -0.00328142 -0.00461129 -0.00132331]
 [ 0.00199507  0.00690461 -0.00522158 -0.00378711  0.00268821]
 [-0.0027122   0.00581787 -0.00882263 -0.00675215 -0.00045565]
 [-0.00303739  0.00320278 -0.01224139  0.00640158  0.00321878]
 [-0.00611434  0.00359081 -0.00887856 -0.00372389 -0.00369   ]] 
Episode: 27: [[ 0.00190987 -0.00210203 -0.0034994  -0.00462725 -0.00129692]
 [ 0.00177871  0.00697253 -0.00551173 -0.00373798  0.00273651]
 [-0.00311104  0.00582873 -0.00913177 -0.00701676 -0.00062146]
 [-0.00344011  0.00308695 -0.01265722  0.00638978  0.00320741]
 [-0.00642183  0.00357995 -0.00918132 -0.00375494 -0.0038398 ]] 
Episode: 28: [[ 0.00168645 -0.00206685 -0.00369171 -0.00462501 -0.00126589]
 [ 0.00156339  0.0070474  -0.00577526 -0.00367208  0.00281543]
 [-0.00350579  0.00585392 -0.00945903 -0.00726184 -0.00069281]
 [-0.00385484  0.00300201 -0.0131028   0.00633151  0.00324281]
 [-0.00673934  0.00358605 -0.00951112 -0.00380317 -0.00400443]] 
Episode: 29: [[ 0.00147788 -0.00203673 -0.00388845 -0.00466899 -0.00123692]
 [ 0.00137485  0.00715885 -0.00605391 -0.0036571   0.00284747]
 [-0.00384486  0.00590691 -0.00975473 -0.00749525 -0.0007796 ]
 [-0.00425449  0.00293712 -0.01350934  0.00627288  0.00318973]
 [-0.0070191   0.00361398 -0.00979201 -0.003862   -0.00418559]] 
Episode: 30: [[ 0.00130217 -0.00172859 -0.00416356 -0.004647   -0.00122848]
 [ 0.00117584  0.00716823 -0.00632288 -0.00365216  0.00277811]
 [-0.0041715   0.00595963 -0.01015794 -0.007706   -0.00103955]
 [-0.00467524  0.00300747 -0.01399785  0.00619608  0.00303685]
 [-0.0073011   0.00376007 -0.01018785 -0.00385773 -0.00439761]] 
Episode: 31: [[ 0.00118    -0.00139339 -0.00441911 -0.00472266 -0.0012999 ]
 [ 0.00102093  0.00716121 -0.0065477  -0.00372847  0.00265217]
 [-0.00443053  0.00603367 -0.0105543  -0.00795201 -0.00130679]
 [-0.00502391  0.00311123 -0.01448207  0.00615064  0.002829  ]
 [-0.00751604  0.003887   -0.01059101 -0.00383528 -0.00458478]] 
Episode: 32: [[ 0.00108147 -0.00109999 -0.00464671 -0.00482508 -0.0013532 ]
 [ 0.00090533  0.00715974 -0.00675038 -0.00382034  0.00256043]
 [-0.00463861  0.00612666 -0.01095712 -0.00816874 -0.00150724]
 [-0.00534498  0.00323563 -0.01497017  0.0061562   0.00264984]
 [-0.00770337  0.00401515 -0.01100038 -0.00378509 -0.0047657 ]] 
Episode: 33: [[ 0.00093117 -0.00083568 -0.00501061 -0.00461388 -0.00107026]
 [ 0.0008275   0.00740696 -0.00671601 -0.00392366  0.00264543]
 [-0.00489203  0.00646722 -0.01116542 -0.00851906 -0.00168726]
 [-0.00557188  0.00351685 -0.01542581  0.00600774  0.00240577]
 [-0.00797785  0.00430133 -0.01127373 -0.00376687 -0.00477237]] 
Episode: 34: [[ 0.00086634 -0.00061625 -0.00542811 -0.00438561 -0.00077238]
 [ 0.00077998  0.00765482 -0.00684281 -0.00402695  0.00269088]
 [-0.00512043  0.00677011 -0.01143058 -0.00880888 -0.00184456]
 [-0.00583736  0.00375609 -0.01591512  0.00602625  0.00225555]
 [-0.00822811  0.00445146 -0.01158319 -0.00374835 -0.00487974]] 
Episode: 35: [[ 0.00099368 -0.00060968 -0.00590987 -0.00418514 -0.00034098]
 [ 0.00090679  0.00800596 -0.00700704 -0.00429389  0.00293856]
 [-0.00507697  0.00724185 -0.01164532 -0.00895523 -0.00169097]
 [-0.00585135  0.00419431 -0.01630774  0.00608276  0.00197458]
 [-0.00821321  0.00478997 -0.01180609 -0.00363666 -0.00499587]] 
Episode: 36: [[ 1.0858721e-03 -5.6227262e-04 -6.4188642e-03 -3.9847884e-03
   4.6739409e-05]
 [ 9.7390084e-04  8.2927793e-03 -7.1602575e-03 -4.5666751e-03
   3.1332371e-03]
 [-5.0773867e-03  7.6508862e-03 -1.1842187e-02 -9.0758838e-03
  -1.6011776e-03]
 [-5.9206681e-03  4.5843022e-03 -1.6682431e-02  6.1047333e-03
   1.6687822e-03]
 [-8.2459738e-03  5.0803628e-03 -1.2029169e-02 -3.5433765e-03
  -5.1082047e-03]] 
Episode: 37: [[ 0.00117204 -0.00062923 -0.00688427 -0.00389475  0.00025308]
 [ 0.00105428  0.00860647 -0.00721866 -0.00489029  0.00309822]
 [-0.00499639  0.00812102 -0.01212565 -0.00922075 -0.00157699]
 [-0.00590938  0.00506466 -0.01714573  0.00611864  0.00135525]
 [-0.008232    0.00548272 -0.01237039 -0.00344033 -0.00526071]] 
Episode: 38: [[ 0.00124759 -0.00072266 -0.00734961 -0.00381209  0.00048482]
 [ 0.00111251  0.0089381  -0.00725102 -0.00521245  0.00312642]
 [-0.00495701  0.00857507 -0.01244705 -0.00941439 -0.00157471]
 [-0.00595948  0.0055269  -0.01766072  0.00602007  0.00105555]
 [-0.00822515  0.00588077 -0.01276302 -0.00333012 -0.00539128]] 
Episode: 39: [[ 0.00134035 -0.00074488 -0.00780857 -0.00374444  0.00070976]
 [ 0.00116698  0.00929579 -0.00735096 -0.00551564  0.00315866]
 [-0.00493065  0.00898169 -0.01280609 -0.00967421 -0.00161066]
 [-0.00604638  0.00592693 -0.01819406  0.0059698   0.00076712]
 [-0.0082695   0.00623252 -0.01317784 -0.00325143 -0.00552096]] 
Episode: 40: [[ 0.00138882 -0.00077688 -0.00821089 -0.00358122  0.00093488]
 [ 0.00114366  0.00954065 -0.00744381 -0.00565792  0.00321311]
 [-0.00497905  0.00925272 -0.01313782 -0.00990048 -0.0017111 ]
 [-0.00620843  0.00618138 -0.01871579  0.00578556  0.00056334]
 [-0.00837835  0.00647461 -0.0135578  -0.00308878 -0.00561746]] 
Episode: 41: [[ 0.00156439 -0.00110582 -0.00856867 -0.00363046  0.00111933]
 [ 0.00117575  0.00998225 -0.00737528 -0.00597293  0.00330048]
 [-0.00502905  0.00974094 -0.01328129 -0.01025484 -0.00188196]
 [-0.00604257  0.00662069 -0.01917073  0.0055256   0.00037437]
 [-0.00827546  0.00689864 -0.01380832 -0.00292464 -0.00553855]] 
Episode: 42: [[ 0.00174561 -0.00146728 -0.00896784 -0.00365562  0.00130393]
 [ 0.00122673  0.01044202 -0.00737918 -0.00625201  0.00338172]
 [-0.00508611  0.01021322 -0.01347028 -0.01054692 -0.00199241]
 [-0.00592751  0.00703395 -0.01965259  0.00535683  0.00021114]
 [-0.00819465  0.00730214 -0.01409645 -0.00284433 -0.00550338]] 
Episode: 43: [[ 1.9140603e-03 -1.8118321e-03 -9.3455529e-03 -3.7110031e-03
   1.4549661e-03]
 [ 1.2773633e-03  1.0863500e-02 -7.3845275e-03 -6.5479618e-03
   3.4099566e-03]
 [-5.1342221e-03  1.0639351e-02 -1.3697689e-02 -1.0808846e-02
  -2.1373273e-03]
 [-5.8331848e-03  7.3927860e-03 -2.0164337e-02  5.2157398e-03
   4.2192889e-05]
 [-8.1136487e-03  7.6353601e-03 -1.4422623e-02 -2.7741105e-03
  -5.5124527e-03]] 
Episode: 44: [[ 2.0873311e-03 -2.1182734e-03 -9.7224172e-03 -3.9217505e-03
   1.4232100e-03]
 [ 1.3989703e-03  1.1292463e-02 -7.3608840e-03 -6.9740470e-03
   3.2464701e-03]
 [-5.1689264e-03  1.1085449e-02 -1.3969800e-02 -1.1190224e-02
  -2.4439243e-03]
 [-5.6861620e-03  7.7947429e-03 -2.0719595e-02  5.1141442e-03
  -4.0649634e-06]
 [-7.9746498e-03  7.9790270e-03 -1.4802239e-02 -2.8022844e-03
  -5.5412734e-03]] 
Episode: 45: [[ 2.2847843e-03 -2.5572483e-03 -1.0232195e-02 -4.1721351e-03
   1.3658856e-03]
 [ 1.5649021e-03  1.1713065e-02 -7.4557648e-03 -7.3624747e-03
   3.0985493e-03]
 [-5.1983315e-03  1.1498966e-02 -1.4298958e-02 -1.1461145e-02
  -2.6892980e-03]
 [-5.5504558e-03  8.1586149e-03 -2.1282583e-02  5.1522092e-03
   6.2062418e-06]
 [-7.8289062e-03  8.2795294e-03 -1.5225584e-02 -2.6932086e-03
  -5.5770129e-03]] 
Episode: 46: [[ 2.5265482e-03 -2.9789209e-03 -1.0741727e-02 -4.4306759e-03
   1.3279765e-03]
 [ 1.7624367e-03  1.2134841e-02 -7.6098018e-03 -7.7787070e-03
   2.9837096e-03]
 [-5.1751630e-03  1.1891903e-02 -1.4625279e-02 -1.1706100e-02
  -2.8791609e-03]
 [-5.3742775e-03  8.5094711e-03 -2.1834165e-02  5.3190384e-03
  -3.5227849e-06]
 [-7.7190651e-03  8.5592801e-03 -1.5651198e-02 -2.6185464e-03
  -5.6554973e-03]] 
Episode: 47: [[ 2.6820095e-03 -3.3504283e-03 -1.1258240e-02 -4.5950119e-03
   1.3313215e-03]
 [ 1.8290939e-03  1.2492168e-02 -7.8136809e-03 -8.1051998e-03
   2.8867479e-03]
 [-5.2821892e-03  1.2194203e-02 -1.4923920e-02 -1.1915477e-02
  -2.9854423e-03]
 [-5.3302590e-03  8.7359855e-03 -2.2331938e-02  5.3830375e-03
   3.9025370e-05]
 [-7.7136285e-03  8.7785628e-03 -1.6024182e-02 -2.4755362e-03
  -5.6495415e-03]] 
Episode: 48: [[ 2.7341701e-03 -3.6910272e-03 -1.1721320e-02 -4.7155940e-03
   1.3206574e-03]
 [ 1.7932098e-03  1.2809452e-02 -8.0101686e-03 -8.3616935e-03
   2.7708537e-03]
 [-5.4762228e-03  1.2457303e-02 -1.5229274e-02 -1.2117474e-02
  -3.1317156e-03]
 [-5.3610490e-03  8.9159943e-03 -2.2830594e-02  5.4088896e-03
   6.6188128e-05]
 [-7.8002014e-03  8.9556528e-03 -1.6394664e-02 -2.3523155e-03
  -5.6715449e-03]] 
Episode: 49: [[ 2.7798307e-03 -3.9959345e-03 -1.2108127e-02 -4.8348722e-03
   1.3087360e-03]
 [ 1.7520988e-03  1.3090607e-02 -8.1556197e-03 -8.6063072e-03
   2.6347521e-03]
 [-5.6754122e-03  1.2704143e-02 -1.5528207e-02 -1.2268257e-02
  -3.2667434e-03]
 [-5.4282127e-03  9.0875160e-03 -2.3336660e-02  5.4186494e-03
   9.5270450e-05]
 [-7.8881988e-03  9.1335373e-03 -1.6770827e-02 -2.1955455e-03
  -5.6774016e-03]] 
Episode: 50: [[ 0.00275978 -0.00426119 -0.01248353 -0.00494296  0.0013087 ]
 [ 0.00165628  0.01333062 -0.00835743 -0.00880837  0.00253796]
 [-0.00592234  0.01290275 -0.01582964 -0.01240898 -0.00336647]
 [-0.00557412  0.00919812 -0.02382865  0.0055022   0.00018207]
 [-0.00800858  0.00928116 -0.0171358  -0.00209262 -0.0057419 ]] 
Episode: 51: [[ 0.00275037 -0.00442405 -0.0128256  -0.00503736  0.00129918]
 [ 0.00155978  0.01349592 -0.00853811 -0.00899601  0.00242409]
 [-0.00614134  0.0130661  -0.01613456 -0.01251651 -0.00346428]
 [-0.00572069  0.00929611 -0.02431276  0.00558583  0.00024282]
 [-0.00812716  0.00939176 -0.01751115 -0.00188114 -0.00576432]] 
Episode: 52: [[ 0.0026886  -0.00457024 -0.01315373 -0.00511713  0.00128706]
 [ 0.00140939  0.01364973 -0.00874628 -0.00914563  0.00231541]
 [-0.00641157  0.01318172 -0.01643719 -0.01261462 -0.00359256]
 [-0.00590455  0.0093218  -0.0247876   0.0056541   0.00030375]
 [-0.00831237  0.00943909 -0.01787007 -0.0016629  -0.00581056]] 
Episode: 53: [[ 0.00256997 -0.0046907  -0.01343648 -0.00518377  0.00126924]
 [ 0.00120149  0.01378202 -0.00896248 -0.00926916  0.00220458]
 [-0.00672847  0.01326363 -0.01676437 -0.01271289 -0.00373024]
 [-0.00611755  0.00930217 -0.02528981  0.0057106   0.00042229]
 [-0.00855905  0.0094599  -0.01824611 -0.00143792 -0.00587216]] 
Episode: 54: [[ 0.0024366  -0.00476154 -0.01369084 -0.00522896  0.00126128]
 [ 0.00097242  0.0138785  -0.00916152 -0.00937531  0.00210461]
 [-0.00705816  0.01332534 -0.01707862 -0.01280714 -0.00386014]
 [-0.00633853  0.00927462 -0.02577082  0.00577311  0.00052116]
 [-0.00882237  0.00946867 -0.01860007 -0.00122726 -0.00591888]] 
Episode: 55: [[ 0.0023239  -0.00486421 -0.01380064 -0.00530501  0.00124455]
 [ 0.00077868  0.01397319 -0.00925219 -0.0094829   0.00207691]
 [-0.00734749  0.0133988  -0.01734848 -0.01295984 -0.00391369]
 [-0.00653439  0.00926118 -0.02623581  0.00576802  0.00062164]
 [-0.00902342  0.0094998  -0.01892352 -0.0010034  -0.005857  ]] 
Episode: 56: [[ 0.00220861 -0.0049769  -0.01382534 -0.00539616  0.00123428]
 [ 0.0005981   0.01402196 -0.00926655 -0.00959161  0.00204276]
 [-0.00762359  0.01345869 -0.01761764 -0.01311488 -0.00404594]
 [-0.00676207  0.00927579 -0.0267073   0.00573321  0.00081851]
 [-0.00925897  0.00957438 -0.01925768 -0.00087137 -0.00575938]] 
Episode: 57: [[ 0.00216578 -0.00500701 -0.01389633 -0.00548965  0.00120539]
 [ 0.00048989  0.01410568 -0.0093765  -0.00969432  0.00199319]
 [-0.00784423  0.01351963 -0.01796317 -0.0132414  -0.00412663]
 [-0.00695079  0.0092822  -0.02723209  0.00577464  0.00095975]
 [-0.00948692  0.00956658 -0.01965899 -0.00065788 -0.00568886]] 
Episode: 58: [[ 0.00213865 -0.00510063 -0.01410086 -0.00549627  0.0012354 ]
 [ 0.00039692  0.01425366 -0.00962792 -0.00967455  0.00206927]
 [-0.00807094  0.0135512  -0.01838456 -0.01330995 -0.00412454]
 [-0.00722384  0.00923844 -0.02782407  0.00587687  0.0011779 ]
 [-0.00974597  0.00948164 -0.02012512 -0.0004711  -0.00562578]] 
Episode: 59: [[ 0.00210297 -0.00511614 -0.01433462 -0.00550901  0.00126012]
 [ 0.00033257  0.01436823 -0.00989094 -0.00965075  0.00215693]
 [-0.00827244  0.01357955 -0.01880092 -0.01336774 -0.00407696]
 [-0.00747123  0.00920494 -0.02841294  0.00598257  0.00146378]
 [-0.00999191  0.00943567 -0.02058012 -0.00044181 -0.0056107 ]] 
Episode: 60: [[ 0.00201637 -0.00515301 -0.01456584 -0.00553655  0.00121879]
 [ 0.00025339  0.01443143 -0.010076   -0.00962881  0.00216101]
 [-0.00849107  0.01360333 -0.01918315 -0.01344133 -0.00408239]
 [-0.00771616  0.00921309 -0.02896992  0.00606483  0.0016379 ]
 [-0.01022773  0.00944839 -0.02101773 -0.00048065 -0.00568063]] 
Episode: 61: [[ 0.00194509 -0.00517458 -0.0147846  -0.00557109  0.00117618]
 [ 0.00019573  0.01449355 -0.01025335 -0.00961235  0.00216894]
 [-0.00867249  0.01363155 -0.01953526 -0.01349376 -0.00406288]
 [-0.00792838  0.00923472 -0.02948574  0.00613179  0.00175334]
 [-0.01042009  0.00948666 -0.02141657 -0.00051747 -0.00574809]] 
Episode: 62: [[ 0.00190265 -0.00515787 -0.01504114 -0.0056202   0.00112159]
 [ 0.00013955  0.01455027 -0.01042512 -0.00964151  0.00212297]
 [-0.008842    0.01366356 -0.0198625  -0.01357103 -0.00413449]
 [-0.00811775  0.00925876 -0.02999534  0.00621197  0.00189622]
 [-0.01057237  0.00951044 -0.02179469 -0.00057692 -0.00584984]] 
Episode: 63: [[ 0.00187317 -0.00522412 -0.01533908 -0.00573494  0.00105632]
 [ 0.00016213  0.01465295 -0.01062884 -0.00969267  0.00208845]
 [-0.00897248  0.01372035 -0.02022432 -0.01363767 -0.0041882 ]
 [-0.00829994  0.0093004  -0.03053872  0.00639448  0.0020161 ]
 [-0.01075198  0.00953371 -0.02220628 -0.00069605 -0.00597293]] 
Episode: 64: [[ 0.00195284 -0.00518001 -0.01550828 -0.00574017  0.00099948]
 [ 0.00026406  0.01470186 -0.01076753 -0.009624    0.00205461]
 [-0.0090826   0.01372493 -0.02060745 -0.0136528  -0.00419458]
 [-0.00849422  0.00929712 -0.03107114  0.00662221  0.00217128]
 [-0.01095712  0.0094922  -0.02259837 -0.00079437 -0.00610747]] 
Episode: 65: [[ 0.00202843 -0.00521923 -0.01583179 -0.00592701  0.00085589]
 [ 0.00035286  0.01478941 -0.01094104 -0.00976509  0.00190115]
 [-0.00909081  0.01386104 -0.02079662 -0.01377608 -0.00428383]
 [-0.00848816  0.00940174 -0.03148663  0.00674211  0.0022182 ]
 [-0.01111807  0.00953026 -0.02283687 -0.00087638 -0.00598504]] 
Episode: 66: [[ 0.00210327 -0.005248   -0.01620464 -0.00617879  0.00067618]
 [ 0.00046274  0.01490289 -0.01117332 -0.01000289  0.0016528 ]
 [-0.00907741  0.01401362 -0.02097446 -0.01388355 -0.00443178]
 [-0.00847988  0.00952273 -0.03188333  0.00686377  0.00209098]
 [-0.01127533  0.0095524  -0.02306666 -0.00084573 -0.00581847]] 
Episode: 67: [[ 0.00223287 -0.0052347  -0.01659802 -0.00637626  0.00053453]
 [ 0.00060377  0.01502289 -0.01151618 -0.01016917  0.00148661]
 [-0.00904983  0.01414695 -0.02116361 -0.01396043 -0.00462873]
 [-0.0084908   0.00961105 -0.03228676  0.0071119   0.00212979]
 [-0.01141413  0.00951582 -0.02330244 -0.00076249 -0.00573791]] 
Episode: 68: [[ 0.00237529 -0.00521348 -0.01695051 -0.00658154  0.00042468]
 [ 0.00076769  0.01513471 -0.01182855 -0.01034213  0.00138181]
 [-0.00897444  0.01428232 -0.02134209 -0.01404453 -0.00473551]
 [-0.00849358  0.00970828 -0.03266118  0.00735546  0.00216371]
 [-0.01151391  0.00951771 -0.02351728 -0.00070608 -0.00567527]] 
Episode: 69: [[ 0.00250305 -0.00517995 -0.01727661 -0.00676715  0.00032739]
 [ 0.00091724  0.0152357  -0.01211728 -0.01049475  0.00129126]
 [-0.00891687  0.01440144 -0.02152023 -0.01411791 -0.00483953]
 [-0.00851367  0.00979105 -0.03302626  0.00758784  0.00220714]
 [-0.01161489  0.00950929 -0.02373019 -0.00065928 -0.00562297]] 
Episode: 70: [[ 0.00261414 -0.00514444 -0.0175403  -0.00692387  0.00028371]
 [ 0.0010772   0.01534582 -0.01235141 -0.01059803  0.00131456]
 [-0.00888787  0.01452564 -0.02173889 -0.01429474 -0.00487661]
 [-0.00858031  0.00987841 -0.03341471  0.00774369  0.00221013]
 [-0.01175705  0.0095348  -0.0239738  -0.00065757 -0.00554167]] 
Episode: 71: [[ 0.00284276 -0.00516509 -0.01777361 -0.00717575  0.00023034]
 [ 0.00121214  0.01539564 -0.01250255 -0.010772    0.00133508]
 [-0.00886052  0.01464693 -0.02197849 -0.01446458 -0.00481568]
 [-0.00858424  0.00995867 -0.033805    0.00789699  0.00213329]
 [-0.01183565  0.00954093 -0.02426412 -0.00049415 -0.00541429]] 
Episode: 72: [[ 0.0029675  -0.00517336 -0.0179586  -0.00738877  0.00018141]
 [ 0.00124599  0.01542752 -0.0125875  -0.01091638  0.00132069]
 [-0.00893065  0.01473612 -0.02227022 -0.01463069 -0.00481709]
 [-0.00864321  0.01001023 -0.03427491  0.0080114   0.00208841]
 [-0.01198387  0.00955228 -0.02461435 -0.00033101 -0.00529217]] 
Episode: 73: [[ 0.00304889 -0.00529146 -0.01815125 -0.00761783  0.00011548]
 [ 0.00121397  0.0154492  -0.01264674 -0.01109715  0.0012933 ]
 [-0.00901141  0.01480366 -0.02261418 -0.01474395 -0.00485536]
 [-0.00871246  0.01003212 -0.0347851   0.00817901  0.00205027]
 [-0.01212731  0.00954731 -0.02502776 -0.00013767 -0.00519291]] 
Episode: 74: [[ 3.1098134e-03 -5.3462950e-03 -1.8309232e-02 -7.8339819e-03
   5.9694357e-05]
 [ 1.1741696e-03  1.5449775e-02 -1.2703180e-02 -1.1273572e-02
   1.2546298e-03]
 [-9.1003347e-03  1.4845261e-02 -2.2947367e-02 -1.4865851e-02
  -4.9346401e-03]
 [-8.8007385e-03  1.0024192e-02 -3.5275098e-02  8.3219036e-03
   2.0084123e-03]
 [-1.2300337e-02  9.5069204e-03 -2.5422130e-02  6.0220209e-05
  -5.1121470e-03]] 
Episode: 75: [[ 3.16487206e-03 -5.38446708e-03 -1.84543096e-02 -8.04155506e-03
  -1.54733789e-05]
 [ 1.13289303e-03  1.54516166e-02 -1.27272941e-02 -1.14496760e-02
   1.19558431e-03]
 [-9.17940401e-03  1.48957055e-02 -2.32647303e-02 -1.49812540e-02
  -4.99325246e-03]
 [-8.87569785e-03  1.00475559e-02 -3.57496031e-02  8.46904144e-03
   1.94413541e-03]
 [-1.24309994e-02  9.49834287e-03 -2.58011334e-02  2.16670189e-04
  -5.05192997e-03]] 
Episode: 76: [[ 3.21870879e-03 -5.41836815e-03 -1.86055172e-02 -8.26256443e-03
  -7.74263463e-05]
 [ 1.12598343e-03  1.54676605e-02 -1.26983486e-02 -1.16427029e-02
   1.17579091e-03]
 [-9.25919320e-03  1.50237549e-02 -2.35664118e-02 -1.51502742e-02
  -4.97374823e-03]
 [-8.97275470e-03  1.02306847e-02 -3.62340249e-02  8.52745958e-03
   1.89016899e-03]
 [-1.25586707e-02  9.68637131e-03 -2.61911321e-02  2.46061827e-04
  -5.08599030e-03]] 
Episode: 77: [[ 0.00313331 -0.00542134 -0.01867454 -0.00838683 -0.00013033]
 [ 0.00095153  0.0154274  -0.01266078 -0.01175339  0.00112181]
 [-0.0095092   0.01509209 -0.02386825 -0.01538058 -0.00510798]
 [-0.00915181  0.01033396 -0.0366919   0.00852378  0.00182258]
 [-0.01280225  0.00982011 -0.02655315  0.00031341 -0.00516175]] 
Episode: 78: [[ 0.00301508 -0.00543308 -0.01872805 -0.00848569 -0.00017582]
 [ 0.00075423  0.01537869 -0.01265119 -0.01183561  0.00107244]
 [-0.00978143  0.01513654 -0.02421157 -0.01557171 -0.00521313]
 [-0.00937347  0.01041053 -0.03720905  0.00851493  0.00178936]
 [-0.0130797   0.00995023 -0.02694633  0.00040274 -0.00524125]] 
Episode: 79: [[ 0.00291618 -0.00540274 -0.01870862 -0.00858932 -0.00022216]
 [ 0.00059363  0.01531673 -0.01259001 -0.01192185  0.00101666]
 [-0.01000585  0.01517909 -0.02456465 -0.01574937 -0.00530403]
 [-0.00956783  0.01048653 -0.03774252  0.00848174  0.00173132]
 [-0.0133064   0.01006705 -0.0273557   0.00045406 -0.00535185]] 
Episode: 80: [[ 0.00275944 -0.00535157 -0.01872233 -0.00867701 -0.00027502]
 [ 0.00039203  0.01524164 -0.01256082 -0.01199352  0.0009301 ]
 [-0.01026304  0.01520224 -0.02490439 -0.0158924  -0.00538248]
 [-0.00979398  0.01053908 -0.03824582  0.00843472  0.00178114]
 [-0.01356244  0.01014979 -0.02773585  0.00053631 -0.00540297]] 
Episode: 81: [[ 0.00262806 -0.00528518 -0.01879191 -0.00878802 -0.0003114 ]
 [ 0.00022561  0.01519497 -0.0125662  -0.01208592  0.00086845]
 [-0.01047053  0.01524985 -0.02518249 -0.01602701 -0.00542724]
 [-0.00999788  0.01063424 -0.03868885  0.00837537  0.00179978]
 [-0.01377127  0.01027055 -0.02804603  0.00064658 -0.00541189]] 
Episode: 82: [[ 2.4350844e-03 -5.2805156e-03 -1.8895149e-02 -8.9319181e-03
  -3.3328842e-04]
 [ 2.2703438e-05  1.5237500e-02 -1.2661489e-02 -1.2203494e-02
   8.3980098e-04]
 [-1.0696536e-02  1.5337761e-02 -2.5437439e-02 -1.6150093e-02
  -5.4830904e-03]
 [-1.0248621e-02  1.0744132e-02 -3.9098088e-02  8.3454959e-03
   1.8723221e-03]
 [-1.4069203e-02  1.0405421e-02 -2.8322045e-02  7.2014314e-04
  -5.4850709e-03]] 
Episode: 83: [[ 0.002213   -0.00527338 -0.01897991 -0.00905427 -0.00035745]
 [-0.00021426  0.01527756 -0.01274637 -0.01229766  0.0008089 ]
 [-0.01095412  0.01541586 -0.02566683 -0.01629329 -0.00556754]
 [-0.0105126   0.01083434 -0.03947094  0.0082868   0.00192134]
 [-0.01438845  0.01053127 -0.02856104  0.00077799 -0.00557612]] 
Episode: 84: [[ 0.00233078 -0.00544961 -0.01897227 -0.00935814 -0.00036967]
 [-0.00011948  0.01562461 -0.01274357 -0.01258244  0.00075462]
 [-0.01088591  0.0156673  -0.02573196 -0.0166062  -0.00589944]
 [-0.01054537  0.01114016 -0.03970133  0.00818566  0.00179387]
 [-0.01460299  0.01082118 -0.02866203  0.000866   -0.00559627]] 
Episode: 85: [[ 2.3879975e-03 -5.6031556e-03 -1.8999930e-02 -9.6144574e-03
  -3.7191913e-04]
 [-9.3585964e-05  1.5960256e-02 -1.2804780e-02 -1.2851275e-02
   6.8513321e-04]
 [-1.0870307e-02  1.5912017e-02 -2.5822245e-02 -1.6931139e-02
  -6.1781080e-03]
 [-1.0605439e-02  1.1430196e-02 -3.9935511e-02  8.0702780e-03
   1.7116888e-03]
 [-1.4834642e-02  1.1095067e-02 -2.8762599e-02  8.5226115e-04
  -5.7078460e-03]] 
Episode: 86: [[ 2.44736834e-03 -5.72252879e-03 -1.89955775e-02 -9.84139182e-03
  -3.51469411e-04]
 [-5.80663218e-05  1.62378512e-02 -1.28334267e-02 -1.30998865e-02
   6.14795426e-04]
 [-1.08415531e-02  1.61279850e-02 -2.59250440e-02 -1.72504764e-02
  -6.45331526e-03]
 [-1.06847305e-02  1.16957659e-02 -4.01833765e-02  7.89351016e-03
   1.56122458e-03]
 [-1.50225330e-02  1.13305477e-02 -2.88785547e-02  8.95995705e-04
  -5.79983974e-03]] 
Episode: 87: [[ 2.47904239e-03 -5.80896297e-03 -1.89906713e-02 -1.00344615e-02
  -3.36289406e-04]
 [-5.43562310e-05  1.64782349e-02 -1.28716370e-02 -1.33103076e-02
   5.43766946e-04]
 [-1.08461594e-02  1.63021758e-02 -2.60455217e-02 -1.75625551e-02
  -6.77163154e-03]
 [-1.07794870e-02  1.19061833e-02 -4.04418074e-02  7.72092817e-03
   1.41361135e-03]
 [-1.52262859e-02  1.15132378e-02 -2.90059987e-02  9.59117664e-04
  -5.89049980e-03]] 
Episode: 88: [[ 2.5778322e-03 -5.8795153e-03 -1.8998154e-02 -1.0207251e-02
  -3.3385080e-04]
 [-2.6556550e-05  1.6599819e-02 -1.2934451e-02 -1.3516154e-02
   4.1250011e-04]
 [-1.0854111e-02  1.6434927e-02 -2.6226576e-02 -1.7830949e-02
  -7.0527522e-03]
 [-1.0860069e-02  1.2082851e-02 -4.0725105e-02  7.6830816e-03
   1.2910722e-03]
 [-1.5414503e-02  1.1634790e-02 -2.9174933e-02  1.0237672e-03
  -6.0006403e-03]] 
Episode: 89: [[ 2.66685500e-03 -5.90273924e-03 -1.89758968e-02 -1.03650298e-02
  -3.37152363e-04]
 [ 8.20520017e-06  1.67433061e-02 -1.29006840e-02 -1.37117626e-02
   2.57644890e-04]
 [-1.08669875e-02  1.66164748e-02 -2.63922401e-02 -1.81116629e-02
  -7.31223542e-03]
 [-1.09376973e-02  1.23342434e-02 -4.10266221e-02  7.64910411e-03
   1.14376948e-03]
 [-1.56063717e-02  1.18410448e-02 -2.93563604e-02  1.01642974e-03
  -6.18836144e-03]] 
Episode: 90: [[ 2.7560031e-03 -5.9218472e-03 -1.8909924e-02 -1.0510000e-02
  -3.1334249e-04]
 [ 2.6662176e-05  1.6895499e-02 -1.2861968e-02 -1.3904264e-02
   1.3983328e-04]
 [-1.0896110e-02  1.6800972e-02 -2.6600339e-02 -1.8418677e-02
  -7.5411117e-03]
 [-1.1060675e-02  1.2586756e-02 -4.1394573e-02  7.5358823e-03
   9.2695211e-04]
 [-1.5789961e-02  1.2053923e-02 -2.9584667e-02  1.0672651e-03
  -6.2950295e-03]] 
Episode: 91: [[ 2.8520199e-03 -5.9938268e-03 -1.8853882e-02 -1.0694191e-02
  -2.9543857e-04]
 [ 6.2630366e-05  1.7045839e-02 -1.2790189e-02 -1.4125008e-02
   6.1785293e-05]
 [-1.0885243e-02  1.7005859e-02 -2.6792232e-02 -1.8721012e-02
  -7.6809386e-03]
 [-1.1132255e-02  1.2871113e-02 -4.1755445e-02  7.4776374e-03
   7.2751660e-04]
 [-1.5902583e-02  1.2281976e-02 -2.9812258e-02  1.0902687e-03
  -6.4334269e-03]] 
Episode: 92: [[ 2.9693092e-03 -6.0789324e-03 -1.8798376e-02 -1.0889321e-02
  -2.8707681e-04]
 [ 1.4140140e-04  1.7195484e-02 -1.2706648e-02 -1.4353284e-02
  -2.7978664e-05]
 [-1.0835899e-02  1.7218186e-02 -2.6981188e-02 -1.8985949e-02
  -7.7517107e-03]
 [-1.1154294e-02  1.3159215e-02 -4.2113684e-02  7.4400464e-03
   5.6461937e-04]
 [-1.5984220e-02  1.2509222e-02 -3.0034835e-02  1.1163441e-03
  -6.5471246e-03]] 
Episode: 93: [[ 0.00310945 -0.0060847  -0.01872871 -0.01108403 -0.00030097]
 [ 0.00022361  0.01733905 -0.01261712 -0.01457052 -0.0001291 ]
 [-0.0108106   0.01738952 -0.02718516 -0.01923231 -0.00784117]
 [-0.01110262  0.01339493 -0.04251187  0.00751902  0.00038572]
 [-0.01604651  0.01264615 -0.0302778   0.00107985 -0.00667642]] 
Episode: 94: [[ 0.00317553 -0.00607222 -0.01867456 -0.01123035 -0.00031751]
 [ 0.00022644  0.01744974 -0.01256886 -0.01471799 -0.00020493]
 [-0.01086343  0.01750184 -0.0273657  -0.01945625 -0.00795135]
 [-0.01110994  0.01354709 -0.04286771  0.00754954  0.00023717]
 [-0.01616415  0.01272744 -0.03048196  0.00110887 -0.00675167]] 
Episode: 95: [[ 0.00313684 -0.00606032 -0.01863453 -0.01133603 -0.00033555]
 [ 0.00012474  0.01752852 -0.01251853 -0.0148124  -0.00027753]
 [-0.01102018  0.01758754 -0.02754974 -0.01968818 -0.0080891 ]
 [-0.01119917  0.01366297 -0.04322749  0.00752017  0.00015639]
 [-0.01638562  0.01280301 -0.03068944  0.00112817 -0.00683934]] 
Episode: 96: [[ 3.0745673e-03 -6.0449596e-03 -1.8586287e-02 -1.1429098e-02
  -3.6161981e-04]
 [ 2.2542772e-06  1.7593345e-02 -1.2453402e-02 -1.4898718e-02
  -3.7975627e-04]
 [-1.1189982e-02  1.7667372e-02 -2.7712993e-02 -1.9898694e-02
  -8.2228603e-03]
 [-1.1301703e-02  1.3774107e-02 -4.3553095e-02  7.4995304e-03
   1.2954301e-04]
 [-1.6608978e-02  1.2877715e-02 -3.0875543e-02  1.1424702e-03
  -6.9067683e-03]] 
Episode: 97: [[ 0.00292963 -0.00600218 -0.01854817 -0.01148441 -0.00039514]
 [-0.00020089  0.01762525 -0.01239974 -0.01492579 -0.00048924]
 [-0.01145002  0.01771139 -0.02788396 -0.02010856 -0.00837977]
 [-0.01146899  0.01383707 -0.04388575  0.00744325  0.00013562]
 [-0.01691447  0.01291817 -0.03106458  0.00117294 -0.00698457]] 
Episode: 98: [[ 0.00273993 -0.00592229 -0.0185198  -0.01149301 -0.00041486]
 [-0.00046106  0.01762351 -0.01235294 -0.01490742 -0.00059149]
 [-0.01177416  0.0177026  -0.02807462 -0.02029552 -0.00854741]
 [-0.01172522  0.01382781 -0.04425064  0.00735965  0.00020514]
 [-0.01726899  0.01290387 -0.03127766  0.00123325 -0.00707766]] 
Episode: 99: [[ 0.00254687 -0.00578636 -0.01854344 -0.01146125 -0.00042441]
 [-0.00076663  0.01757674 -0.01238093 -0.01483946 -0.00066442]
 [-0.01210265  0.01762207 -0.02834133 -0.02036092 -0.00865665]
 [-0.01205819  0.01372887 -0.04469573  0.00737403  0.00030066]
 [-0.01764488  0.01281212 -0.03157755  0.00125392 -0.0072068 ]] 
Episode: 100: [[ 0.00238855 -0.00565846 -0.01858352 -0.01144654 -0.00042811]
 [-0.00102884  0.01754379 -0.01244352 -0.01478834 -0.00073705]
 [-0.01238701  0.01755244 -0.02863242 -0.02033814 -0.00873813]
 [-0.01236594  0.01363036 -0.04514324  0.00748256  0.00037963]
 [-0.01799568  0.0126697  -0.0318982   0.00134261 -0.00728615]] 
Episode: 101: [[ 0.00229961 -0.0055352  -0.01859638 -0.01148276 -0.00043756]
 [-0.00121211  0.01751865 -0.01250059 -0.0148011  -0.00080368]
 [-0.01258176  0.01750046 -0.02888297 -0.02031663 -0.00878947]
 [-0.01261141  0.01354999 -0.04553514  0.00763201  0.00041862]
 [-0.01825006  0.01253954 -0.03217736  0.00144633 -0.00734818]] 
Episode: 102: [[ 0.00220828 -0.00542966 -0.01861777 -0.01149988 -0.0004396 ]
 [-0.00137958  0.01749329 -0.01256895 -0.01480816 -0.00087737]
 [-0.01277188  0.01744059 -0.02916898 -0.02029927 -0.00885189]
 [-0.01286253  0.01344276 -0.04597758  0.00780643  0.0005021 ]
 [-0.01849839  0.01240767 -0.03249312  0.00146068 -0.00744837]] 
Episode: 103: [[ 0.00215632 -0.00533293 -0.01863595 -0.01153734 -0.00043169]
 [-0.0015022   0.01748235 -0.01260606 -0.01485066 -0.00094501]
 [-0.01291327  0.01740356 -0.02945166 -0.0202667  -0.00888255]
 [-0.01306869  0.01336323 -0.04641995  0.00802738  0.00061248]
 [-0.01868245  0.01228897 -0.0328173   0.00151286 -0.00757288]] 
Episode: 104: [[ 0.00209503 -0.00520487 -0.01860004 -0.01159301 -0.00053108]
 [-0.0016164   0.01746842 -0.01258691 -0.01487472 -0.00111034]
 [-0.01306966  0.01734211 -0.02980754 -0.02020309 -0.00881144]
 [-0.01332058  0.01327534 -0.04696504  0.00808663  0.00074666]
 [-0.01874631  0.0121926  -0.03323524  0.00155844 -0.00766291]] 
Episode: 105: [[ 0.00203174 -0.00506264 -0.01859152 -0.01161142 -0.00062463]
 [-0.00172354  0.01745956 -0.01250849 -0.01485726 -0.00128123]
 [-0.01323426  0.01729161 -0.03016998 -0.02017738 -0.0087666 ]
 [-0.01357779  0.01321963 -0.04753201  0.00809504  0.00092502]
 [-0.01879926  0.01214966 -0.03366647  0.00155346 -0.00775991]] 
Episode: 106: [[ 0.00201964 -0.00500538 -0.01855052 -0.01169542 -0.00069805]
 [-0.00174178  0.01753169 -0.01249894 -0.01487991 -0.00139252]
 [-0.0133201   0.01731677 -0.03052603 -0.02022936 -0.00872912]
 [-0.01376581  0.01322384 -0.0480526   0.00813841  0.00106066]
 [-0.01880581  0.01215009 -0.03407611  0.00160933 -0.00781188]] 
Episode: 107: [[ 0.00205232 -0.00502863 -0.01849259 -0.01183641 -0.0007624 ]
 [-0.00171959  0.0176293  -0.01250133 -0.01498195 -0.00148887]
 [-0.01334403  0.01737068 -0.03084331 -0.02028754 -0.00866555]
 [-0.01390723  0.01325227 -0.04852388  0.00820541  0.00108005]
 [-0.01876264  0.01217697 -0.03444603  0.00164194 -0.0078683 ]] 
Episode: 108: [[ 0.00218602 -0.00522188 -0.01845082 -0.01205243 -0.00081823]
 [-0.00162114  0.01774758 -0.01248625 -0.01523174 -0.00161735]
 [-0.01322389  0.01752972 -0.03108436 -0.02035428 -0.00855519]
 [-0.0139128   0.01341164 -0.04892773  0.00840399  0.00100234]
 [-0.01862055  0.0122787  -0.03475446  0.00166307 -0.00792972]] 
Episode: 109: [[ 0.00228375 -0.00541718 -0.01841279 -0.01223423 -0.00092115]
 [-0.00154968  0.01785252 -0.01246431 -0.01547391 -0.00185619]
 [-0.01314165  0.01766508 -0.03134277 -0.02040921 -0.00855966]
 [-0.01394993  0.01353629 -0.04934821  0.00862661  0.00095305]
 [-0.01848456  0.01234523 -0.03508236  0.00160367 -0.00802186]] 
Episode: 110: [[ 0.00242479 -0.00556385 -0.01834425 -0.01243223 -0.00103631]
 [-0.00142656  0.01796889 -0.01238338 -0.01569669 -0.00205907]
 [-0.01303062  0.01782023 -0.03166373 -0.02047519 -0.00856268]
 [-0.01396498  0.0136923  -0.04983744  0.00885412  0.00096991]
 [-0.01830486  0.01244337 -0.03548158  0.00148365 -0.00821055]] 
Episode: 111: [[ 0.00255439 -0.00574962 -0.01835279 -0.01262687 -0.00112358]
 [-0.00130342  0.0180675  -0.01228617 -0.01590266 -0.00228719]
 [-0.01289719  0.01799454 -0.03203491 -0.02055842 -0.00860514]
 [-0.01399815  0.01389684 -0.05040517  0.00895912  0.00088223]
 [-0.018146    0.01258629 -0.03594197  0.00135191 -0.00848179]] 
Episode: 112: [[ 0.00258624 -0.00587746 -0.01833959 -0.01273698 -0.00118197]
 [-0.001288    0.0180993  -0.0121098  -0.01603893 -0.00235424]
 [-0.01286876  0.01810187 -0.03239487 -0.02060188 -0.00867151]
 [-0.01414213  0.01401313 -0.05099131  0.00889982  0.00062782]
 [-0.01808823  0.01265613 -0.03640287  0.00129716 -0.00854615]] 
Episode: 113: [[ 0.00266199 -0.00600083 -0.0182702  -0.01286093 -0.00123689]
 [-0.00123122  0.01812797 -0.01189888 -0.01618937 -0.00236949]
 [-0.01280789  0.01823673 -0.03271726 -0.02069896 -0.00871917]
 [-0.01422503  0.01417656 -0.0515328   0.00879174  0.00035018]
 [-0.01798347  0.01279895 -0.03682525  0.00117105 -0.00859617]] 
Episode: 114: [[ 2.6751866e-03 -6.1068381e-03 -1.8293412e-02 -1.2992641e-02
  -1.3092015e-03]
 [-1.2184859e-03  1.8171720e-02 -1.1716755e-02 -1.6325343e-02
  -2.4102724e-03]
 [-1.2786462e-02  1.8350832e-02 -3.3010818e-02 -2.0842245e-02
  -8.8044209e-03]
 [-1.4320849e-02  1.4305441e-02 -5.2041102e-02  8.5868984e-03
   3.8087906e-05]
 [-1.7941952e-02  1.2930261e-02 -3.7224211e-02  9.9553505e-04
  -8.7003047e-03]] 
Episode: 115: [[ 0.00271617 -0.00621185 -0.01832023 -0.01313005 -0.00138505]
 [-0.00117094  0.01819192 -0.01152773 -0.01648654 -0.00252451]
 [-0.01274096  0.0184609  -0.0333025  -0.02101562 -0.0089578 ]
 [-0.01440409  0.01445784 -0.05254739  0.00831968 -0.00027952]
 [-0.01788985  0.01307946 -0.03761641  0.00082859 -0.00878383]] 
Episode: 116: [[ 0.00272389 -0.00633081 -0.01834274 -0.01323798 -0.00144738]
 [-0.00115924  0.01822197 -0.01135802 -0.01661736 -0.00263981]
 [-0.01273797  0.01855118 -0.03358505 -0.02117806 -0.00912457]
 [-0.01449312  0.01456988 -0.05303283  0.00804211 -0.00057029]
 [-0.017861    0.01318789 -0.03798548  0.00071303 -0.00884678]] 
Episode: 117: [[ 0.00271087 -0.00642544 -0.01836642 -0.01331409 -0.00151493]
 [-0.00116142  0.01827986 -0.01122128 -0.01675774 -0.00281019]
 [-0.01276998  0.01861085 -0.0338906  -0.02135831 -0.00930282]
 [-0.01461703  0.01463682 -0.0535445   0.00771145 -0.00089173]
 [-0.01784292  0.01328188 -0.03838396  0.00061343 -0.00886074]] 
Episode: 118: [[ 0.00267588 -0.00650025 -0.01840658 -0.01338025 -0.00157973]
 [-0.00119603  0.01831504 -0.01107262 -0.01687922 -0.00297549]
 [-0.01283697  0.01863774 -0.03418429 -0.02152723 -0.00950177]
 [-0.01475695  0.01466887 -0.05404599  0.00741589 -0.00116865]
 [-0.01784858  0.01335306 -0.03877222  0.00053083 -0.00886661]] 
Episode: 119: [[ 0.0027344  -0.00658267 -0.0184646  -0.01348477 -0.00165511]
 [-0.00116102  0.01834041 -0.01089467 -0.01704369 -0.00313606]
 [-0.01281804  0.01871883 -0.03442721 -0.02171183 -0.00963722]
 [-0.01481538  0.01480566 -0.05449248  0.00714049 -0.00139521]
 [-0.01775772  0.01354661 -0.0391129   0.00041441 -0.00892652]] 
Episode: 120: [[ 0.00275642 -0.00670356 -0.01852641 -0.01360024 -0.00172534]
 [-0.0011353   0.01839233 -0.0107032  -0.01720741 -0.00330446]
 [-0.01278537  0.01878904 -0.03467245 -0.02188588 -0.00977328]
 [-0.01485554  0.01491068 -0.05494095  0.00685344 -0.00165326]
 [-0.01763591  0.01370802 -0.03945966  0.00038207 -0.00894886]] 
Episode: 121: [[ 0.00280915 -0.00676806 -0.0186067  -0.01377038 -0.00172745]
 [-0.001059    0.01845877 -0.01050961 -0.01741607 -0.00338307]
 [-0.01269733  0.01890086 -0.03487865 -0.02214305 -0.00982414]
 [-0.01487278  0.01509342 -0.05535237  0.00648046 -0.00186311]
 [-0.01747083  0.01395355 -0.03976688  0.00036288 -0.00900476]] 
Episode: 122: [[ 0.00292509 -0.00681917 -0.01868319 -0.01396595 -0.00172253]
 [-0.00091286  0.01854939 -0.01035508 -0.01765699 -0.00344326]
 [-0.01252782  0.01903559 -0.03506714 -0.02236185 -0.00981446]
 [-0.01485907  0.01529037 -0.05572081  0.00618204 -0.00210719]
 [-0.01727011  0.01419344 -0.04004156  0.00029256 -0.00912995]] 
Episode: 123: [[ 0.00301245 -0.00684945 -0.01878163 -0.01414594 -0.0017232 ]
 [-0.00078649  0.01865517 -0.01024348 -0.01786025 -0.00348781]
 [-0.01239686  0.01915638 -0.03525769 -0.0225595  -0.00979993]
 [-0.01485979  0.01546187 -0.05608523  0.00589651 -0.00238861]
 [-0.01709952  0.01440707 -0.04030514  0.00030371 -0.00918788]] 
Episode: 124: [[ 0.00306693 -0.00687192 -0.01886183 -0.01430137 -0.00169691]
 [-0.00068681  0.01873663 -0.0101511  -0.01799892 -0.00344989]
 [-0.01229485  0.01921773 -0.03544725 -0.02274521 -0.00983029]
 [-0.01490308  0.01555906 -0.05644983  0.00563407 -0.00254267]
 [-0.0169484   0.01454059 -0.04057034  0.00035505 -0.00927619]] 
Episode: 125: [[ 0.00309784 -0.00688017 -0.01894197 -0.01443321 -0.00167643]
 [-0.00061612  0.01880678 -0.01007272 -0.01812031 -0.00343433]
 [-0.01222861  0.01926938 -0.03563231 -0.02290562 -0.00986852]
 [-0.01497279  0.01564161 -0.05680044  0.00539249 -0.00267624]
 [-0.01684803  0.01466111 -0.04082221  0.00039448 -0.00938148]] 
Episode: 126: [[ 0.00320891 -0.00696586 -0.01907615 -0.01462282 -0.00160711]
 [-0.00045761  0.01891037 -0.01004275 -0.01832234 -0.00334441]
 [-0.0120656   0.01937441 -0.03576186 -0.02308115 -0.00982364]
 [-0.0149496   0.01579687 -0.05709027  0.00519668 -0.002884  ]
 [-0.01670508  0.01485004 -0.04101608  0.00038068 -0.00944883]] 
Episode: 127: [[ 0.0034409  -0.00698531 -0.019314   -0.01473824 -0.00155325]
 [-0.00021284  0.01900217 -0.01014055 -0.01842102 -0.00326766]
 [-0.01190681  0.01948025 -0.03591131 -0.02312739 -0.00980409]
 [-0.01495894  0.0159471  -0.05738875  0.00506783 -0.00297096]
 [-0.01661027  0.015032   -0.0412138   0.00045739 -0.00951456]] 
Episode: 128: [[ 0.00382914 -0.00700766 -0.01947122 -0.01495075 -0.0015227 ]
 [ 0.00017951  0.01912261 -0.01021268 -0.01861523 -0.00318995]
 [-0.01158526  0.01965047 -0.03603521 -0.02320912 -0.00960554]
 [-0.01489068  0.01619825 -0.05764602  0.00496314 -0.00311178]
 [-0.01643305  0.01529732 -0.0414073   0.00042432 -0.00964978]] 
Episode: 129: [[ 0.00415243 -0.00701133 -0.01958381 -0.01517653 -0.00150923]
 [ 0.00050338  0.01922495 -0.01025899 -0.01881688 -0.00309734]
 [-0.01132502  0.01978795 -0.03617278 -0.0233     -0.00940325]
 [-0.01486304  0.01640415 -0.05791302  0.00484619 -0.00320011]
 [-0.01631797  0.01552774 -0.04160625  0.00038395 -0.00978807]] 
Episode: 130: [[ 0.00439376 -0.00693715 -0.01970267 -0.01535214 -0.00149384]
 [ 0.00074804  0.0192983  -0.01034392 -0.01895334 -0.00302088]
 [-0.0111555   0.01986434 -0.03637525 -0.02332208 -0.00918496]
 [-0.0149565   0.01651984 -0.05824998  0.00487216 -0.00322381]
 [-0.01628697  0.01567131 -0.04187015  0.00035726 -0.00994092]] 
Episode: 131: [[ 0.0045811  -0.00677717 -0.01984164 -0.0154385  -0.00145456]
 [ 0.00093909  0.01934556 -0.01041212 -0.01899876 -0.00284569]
 [-0.01104057  0.0198802  -0.03658349 -0.02327807 -0.00890074]
 [-0.01506483  0.01657431 -0.0585965   0.00486011 -0.00322893]
 [-0.0162888   0.01575189 -0.04212349  0.00041874 -0.00999191]] 
