Episode: 1: [[0. 0. 0. 0. 0. 0. 0. 0. 0. 0. 0. 0. 0. 0. 0.]
 [0. 0. 0. 0. 0. 0. 0. 0. 0. 0. 0. 0. 0. 0. 0.]
 [0. 0. 0. 0. 0. 0. 0. 0. 0. 0. 0. 0. 0. 0. 0.]
 [0. 0. 0. 0. 0. 0. 0. 0. 0. 0. 0. 0. 0. 0. 0.]
 [0. 0. 0. 0. 0. 0. 0. 0. 0. 0. 0. 0. 0. 0. 0.]] 
Episode: 2: [[ 0.0005     -0.0005     -0.0005     -0.00049997  0.00049999  0.0005
  -0.00049999 -0.0005      0.00049994  0.0005      0.          0.0005
   0.          0.         -0.0005    ]
 [ 0.00049999 -0.0005      0.00049972 -0.0005     -0.00049999 -0.0005
  -0.0005      0.0005      0.00049999 -0.0005      0.         -0.0005
   0.          0.         -0.0005    ]
 [-0.0005      0.00049782 -0.0005     -0.0005     -0.0005      0.0005
  -0.0005     -0.0005      0.0005     -0.00049999  0.         -0.0005
   0.          0.         -0.0005    ]
 [-0.0005     -0.0005     -0.0005     -0.0005     -0.00049999  0.0005
  -0.0005     -0.0005      0.0005      0.0005      0.          0.0005
   0.          0.          0.0005    ]
 [-0.0005      0.0005     -0.0005     -0.0005     -0.0005      0.0005
   0.0005     -0.0005      0.0005      0.0005      0.         -0.0005
   0.          0.         -0.0005    ]] 
Episode: 3: [[ 0.00093558 -0.00099968 -0.00099422 -0.00090214  0.00099225  0.00099046
  -0.0009227  -0.00099883  0.00088809  0.00036412  0.          0.00099239
   0.          0.         -0.00093418]
 [ 0.00097329 -0.00020175  0.00087288 -0.00021723 -0.00026864 -0.00099647
  -0.00062489  0.00097096  0.00020063 -0.00046387  0.         -0.00091461
   0.          0.         -0.00098666]
 [-0.00092587  0.00012593 -0.00090054 -0.00091879 -0.00097183  0.00098886
  -0.00087846 -0.00098344  0.00092522 -0.00088861  0.         -0.00020396
   0.          0.         -0.00097177]
 [-0.00068666 -0.00090596 -0.00082433 -0.00077122 -0.00088115  0.00099948
  -0.00085782 -0.00100057  0.00078183  0.00017905  0.          0.00100066
   0.          0.          0.00038978]
 [-0.00087788  0.00068694 -0.0007286  -0.0003034  -0.00033783  0.00095516
   0.00079446 -0.00097346  0.00033619  0.00059916  0.         -0.00027922
   0.          0.         -0.0009942 ]] 
Episode: 4: [[ 1.3892283e-03 -1.4998132e-03 -1.4765273e-03 -1.3394473e-03
   1.0268724e-03  1.4817136e-03 -8.4207748e-04 -1.4995210e-03
   1.3183402e-03  4.9465219e-04  0.0000000e+00  9.7558118e-04
   0.0000000e+00  0.0000000e+00 -8.6797104e-04]
 [ 8.1689568e-04  5.4112475e-05  1.2440179e-03 -1.5062864e-04
   9.4050432e-05 -1.4047383e-03 -8.0993411e-04  1.3761857e-03
   2.8420127e-05 -7.5689342e-04  0.0000000e+00 -7.8996381e-04
   0.0000000e+00  0.0000000e+00 -9.3794148e-04]
 [-7.7956944e-04  9.6843643e-05 -8.0157549e-04 -1.1133988e-03
  -7.0438551e-04  1.4615848e-03 -1.0830687e-03 -1.4675150e-03
   1.0099845e-03 -1.1599696e-03  0.0000000e+00 -1.4176365e-04
   0.0000000e+00  0.0000000e+00 -1.3434116e-03]
 [-9.2449767e-04 -9.5442700e-04 -1.0711960e-03 -1.1087672e-03
  -6.3292868e-04  1.4693312e-03 -1.1938961e-03 -1.4892835e-03
   1.1036280e-03  3.2586785e-04  0.0000000e+00  8.3349569e-04
   0.0000000e+00  0.0000000e+00  8.1848455e-05]
 [-1.2992284e-03  6.6476746e-04 -1.0892310e-03 -4.6400301e-04
  -4.6510997e-04  1.4283234e-03  1.1848236e-03 -1.4504949e-03
   5.2940968e-04  3.9864844e-04  0.0000000e+00  7.6668031e-05
   0.0000000e+00  0.0000000e+00 -1.4563970e-03]] 
Episode: 5: [[ 1.8517309e-03 -2.0017885e-03 -1.9584531e-03 -1.1014057e-03
   7.8567676e-04  1.9775815e-03 -6.1324978e-04 -2.0021314e-03
   1.1065045e-03  4.1622363e-04  0.0000000e+00  9.3917939e-04
   0.0000000e+00  0.0000000e+00 -7.9926720e-04]
 [ 5.7315925e-04  2.1359843e-04  1.5796635e-03 -1.9295358e-04
   4.4166239e-04 -1.7998015e-03 -1.1323260e-03  1.7457099e-03
  -3.8051687e-05 -1.1058544e-03  0.0000000e+00 -6.1792065e-04
   0.0000000e+00  0.0000000e+00 -1.2013344e-03]
 [-8.6910633e-04 -1.6303155e-04 -9.2074514e-04 -1.4444508e-03
  -4.0020279e-04  1.9440141e-03 -1.3493273e-03 -1.9533134e-03
   1.2837974e-03 -1.4996619e-03  0.0000000e+00 -1.6621771e-04
   0.0000000e+00  0.0000000e+00 -1.4939965e-03]
 [-1.2572675e-03 -1.2083952e-03 -1.4033729e-03 -1.4772644e-03
  -2.9702025e-04  1.9513770e-03 -1.5930410e-03 -1.9806006e-03
   1.4656137e-03  5.6287373e-04  0.0000000e+00  5.6341628e-04
   0.0000000e+00  0.0000000e+00  1.7776010e-04]
 [-1.7478474e-03  8.0721738e-04 -1.4913294e-03 -7.7960838e-04
  -6.7414599e-04  1.9124640e-03  1.6156969e-03 -1.9364315e-03
   8.5824903e-04  2.7881336e-04  0.0000000e+00  2.9424721e-04
   0.0000000e+00  0.0000000e+00 -1.9318166e-03]] 
Episode: 6: [[ 2.2921164e-03 -2.5055669e-03 -2.4467346e-03 -1.0969081e-03
   5.6189316e-04  2.4763206e-03 -3.8329305e-04 -2.5058859e-03
   1.1417025e-03  1.4928207e-04  0.0000000e+00  1.0388592e-03
   0.0000000e+00  0.0000000e+00 -5.6976482e-04]
 [ 7.4577850e-04  3.8339806e-04  1.9364279e-03 -8.8093555e-05
   8.4074814e-04 -1.9972501e-03 -1.5045821e-03  1.9686010e-03
  -2.4309629e-04 -1.3071774e-03  0.0000000e+00 -5.9974246e-04
   0.0000000e+00  0.0000000e+00 -1.5517240e-03]
 [-7.1864360e-04 -5.0660508e-04 -9.6943550e-04 -1.7740006e-03
  -2.5670481e-05  2.4324623e-03 -1.6965470e-03 -2.4442340e-03
   1.5249402e-03 -1.8363838e-03  0.0000000e+00 -1.1759879e-04
   0.0000000e+00  0.0000000e+00 -1.4538943e-03]
 [-1.5374662e-03 -1.5042617e-03 -1.6980917e-03 -1.8482169e-03
   9.6659889e-05  2.4403962e-03 -2.0243688e-03 -2.4757900e-03
   1.8219727e-03  8.8908925e-04  0.0000000e+00  2.1939684e-04
   0.0000000e+00  0.0000000e+00  4.2975205e-04]
 [-2.2098164e-03  7.7375607e-04 -1.9179288e-03 -1.1578266e-03
  -9.9582993e-04  2.3986402e-03  2.0564490e-03 -2.4179707e-03
   1.2469580e-03 -1.2385542e-06  0.0000000e+00  6.1901170e-04
   0.0000000e+00  0.0000000e+00 -2.4055301e-03]] 
Episode: 7: [[ 2.7455206e-03 -2.9849769e-03 -2.9186127e-03 -1.0838785e-03
   5.8744365e-04  2.9749323e-03 -6.9317764e-05 -3.0026149e-03
   1.1514248e-03  1.9677280e-05  0.0000000e+00  9.9543983e-04
   0.0000000e+00  0.0000000e+00 -4.9498171e-04]
 [ 8.5884216e-04  4.8213097e-04  1.9984557e-03 -1.9400338e-04
   1.0199994e-03 -2.1438319e-03 -1.7213196e-03  2.1391409e-03
  -2.0989022e-04 -1.5588120e-03  0.0000000e+00 -4.3782234e-04
   0.0000000e+00  0.0000000e+00 -1.7181865e-03]
 [-5.9756619e-04 -8.8984141e-04 -1.1339060e-03 -2.1521694e-03
   3.2296751e-04  2.9228884e-03 -1.9824104e-03 -2.9320295e-03
   1.8361682e-03 -2.1796713e-03  0.0000000e+00  8.9796915e-05
   0.0000000e+00  0.0000000e+00 -1.5820924e-03]
 [-1.8101236e-03 -1.7525901e-03 -1.9923451e-03 -2.2163584e-03
   4.8343325e-04  2.9343858e-03 -2.4390682e-03 -2.9695001e-03
   2.1759395e-03  1.2146980e-03  0.0000000e+00 -1.2940576e-04
   0.0000000e+00  0.0000000e+00  5.1767903e-04]
 [-2.6606985e-03  6.4734218e-04 -2.2970510e-03 -1.4588822e-03
  -1.2420805e-03  2.8839610e-03  2.5146853e-03 -2.8995029e-03
   1.5679031e-03 -3.0596193e-04  0.0000000e+00  9.7942061e-04
   0.0000000e+00  0.0000000e+00 -2.7425988e-03]] 
Episode: 8: [[ 0.00320385 -0.0034319  -0.00324707 -0.00099966  0.00082644  0.00346633
   0.00030331 -0.00349046  0.0010541  -0.00021468  0.          0.00095237
   0.          0.         -0.00024218]
 [ 0.00080418  0.00065866  0.00216528 -0.0003459   0.00127256 -0.00238799
  -0.00202718  0.00240601 -0.00016437 -0.00188557  0.         -0.00024782
   0.          0.         -0.00198473]
 [-0.00050837 -0.00129319 -0.00142176 -0.00255671  0.00051113  0.00334228
  -0.00228148 -0.00332321  0.00220213 -0.00256929  0.          0.00031252
   0.          0.         -0.0017779 ]
 [-0.00207846 -0.00207122 -0.00233975 -0.00261967  0.00086258  0.00332581
  -0.00288072 -0.00332342  0.00256821  0.00156747  0.         -0.00051964
   0.          0.          0.000591  ]
 [-0.00312834  0.00066766 -0.00246669 -0.00167504 -0.00122857  0.00337106
   0.00298387 -0.00338081  0.0017947  -0.00064349  0.          0.00137071
   0.          0.         -0.00312875]] 
Episode: 9: [[ 3.6615042e-03 -3.8882419e-03 -3.5766591e-03 -9.6129387e-04
   1.0172662e-03  3.9317007e-03  5.8385928e-04 -3.9467569e-03
   1.0041491e-03 -4.0508539e-04  0.0000000e+00  8.6624379e-04
   0.0000000e+00  0.0000000e+00  5.6863239e-05]
 [ 6.5533875e-04  6.4491323e-04  2.0858510e-03 -6.2761898e-04
   1.4070275e-03 -2.4968102e-03 -2.3928864e-03  2.5638901e-03
   6.9915463e-05 -2.2591071e-03  0.0000000e+00  5.0500763e-05
   0.0000000e+00  0.0000000e+00 -2.3242994e-03]
 [-5.0442229e-04 -1.7187686e-03 -1.7709275e-03 -2.9679460e-03
   5.8961927e-04  3.7850642e-03 -2.5153309e-03 -3.7458432e-03
   2.5884130e-03 -2.8140419e-03  0.0000000e+00  2.5541140e-04
   0.0000000e+00  0.0000000e+00 -1.7364542e-03]
 [-2.3116672e-03 -2.3136726e-03 -2.6658231e-03 -2.9811093e-03
   1.1621108e-03  3.7504914e-03 -3.2293876e-03 -3.7216067e-03
   2.9217724e-03  1.9651155e-03  0.0000000e+00 -9.4049930e-04
   0.0000000e+00  0.0000000e+00  8.1133848e-04]
 [-3.5573088e-03  5.7384884e-04 -2.6832835e-03 -1.9067300e-03
  -1.2983475e-03  3.8112781e-03  3.3887185e-03 -3.8165564e-03
   2.0418721e-03 -9.9885894e-04  0.0000000e+00  1.7537299e-03
   0.0000000e+00  0.0000000e+00 -3.5245412e-03]] 
Episode: 10: [[ 0.00411198 -0.00436121 -0.00395787 -0.0010532   0.00107647  0.00441115
   0.00087459 -0.00441299  0.00110106 -0.00064446  0.          0.00068986
   0.          0.          0.00035448]
 [ 0.00045354  0.00059488  0.00196816 -0.0009553   0.00158587 -0.00274116
  -0.00278983  0.00282571  0.00035158 -0.00264736  0.          0.00040626
   0.          0.         -0.00254525]
 [-0.00053924 -0.00212736 -0.00209904 -0.00336148  0.0007406   0.00417651
  -0.00266595 -0.00411673  0.00295194 -0.00312778  0.          0.00043711
   0.          0.         -0.00186553]
 [-0.00255531 -0.00246209 -0.00297229 -0.00332792  0.00150913  0.00410904
  -0.00356067 -0.00405523  0.00325661  0.00229024  0.         -0.00127894
   0.          0.          0.00082648]
 [-0.00399161  0.00046367 -0.00297735 -0.0022015  -0.00151428  0.00427181
   0.00381577 -0.00427375  0.00235391 -0.00129549  0.          0.0020454
   0.          0.         -0.00388529]] 
Episode: 11: [[ 0.00446712 -0.00483744 -0.0043711  -0.00130596  0.00111956  0.00488989
   0.0010259  -0.00485978  0.00135538 -0.00096697  0.          0.00075621
   0.          0.          0.00070828]
 [ 0.00016085  0.00078686  0.00181897 -0.00111496  0.00148732 -0.00295899
  -0.00315655  0.00306324  0.00051189 -0.00286153  0.          0.00039537
   0.          0.         -0.00271678]
 [-0.00041029 -0.0025651  -0.00224393 -0.00370571  0.00099405  0.00453786
  -0.00291167 -0.00444326  0.00323963 -0.00348047  0.          0.00072852
   0.          0.         -0.00213003]
 [-0.00264136 -0.00270666 -0.00311887 -0.00363436  0.00189767  0.00438812
  -0.00394154 -0.00429932  0.00352864  0.00265178  0.         -0.00164784
   0.          0.          0.00070105]
 [-0.00441715  0.00049731 -0.00332546 -0.00255156 -0.0018224   0.00474876
   0.0042314  -0.00474623  0.00271261 -0.00165423  0.          0.00240081
   0.          0.         -0.00423609]] 
Episode: 12: [[ 4.7798641e-03 -5.2889795e-03 -4.7692899e-03 -1.5512824e-03
   1.1484220e-03  5.3271879e-03  1.1086803e-03 -5.2661523e-03
   1.6039474e-03 -1.2459618e-03  0.0000000e+00  8.2042511e-04
   0.0000000e+00  0.0000000e+00  9.7956287e-04]
 [-3.9007489e-05  9.8022458e-04  1.7125146e-03 -1.2076302e-03
   1.4102446e-03 -3.1526510e-03 -3.5055813e-03  3.2767220e-03
   6.0264260e-04 -3.0405882e-03  0.0000000e+00  3.6835909e-04
   0.0000000e+00  0.0000000e+00 -2.8000944e-03]
 [-2.4771554e-04 -2.9568747e-03 -2.3575579e-03 -3.9811153e-03
   1.2236180e-03  4.8799431e-03 -3.1691433e-03 -4.7496073e-03
   3.4658976e-03 -3.8021258e-03  0.0000000e+00  9.7827660e-04
   0.0000000e+00  0.0000000e+00 -2.3778214e-03]
 [-2.6871506e-03 -2.9159803e-03 -3.2206941e-03 -3.8848820e-03
   2.2453445e-03  4.6523083e-03 -4.2938231e-03 -4.5284629e-03
   3.7468963e-03  2.9711863e-03  0.0000000e+00 -1.9825045e-03
   0.0000000e+00  0.0000000e+00  5.7014375e-04]
 [-4.8041856e-03  5.2915968e-04 -3.6420452e-03 -2.8681026e-03
  -2.1031443e-03  5.1923702e-03  4.6036914e-03 -5.1848199e-03
   3.0374406e-03 -1.9773757e-03  0.0000000e+00  2.7317321e-03
   0.0000000e+00  0.0000000e+00 -4.5315917e-03]] 
Episode: 13: [[ 0.00514133 -0.00574706 -0.00514399 -0.00177046  0.00130757  0.00578463
   0.00119911 -0.00569571  0.00181619 -0.00153149  0.          0.00086619
   0.          0.          0.00124132]
 [-0.00024962  0.00115881  0.00155152 -0.00130025  0.00123442 -0.00333994
  -0.00380432  0.00348331  0.00071375 -0.00315734  0.          0.00027812
   0.          0.         -0.00288711]
 [-0.00012906 -0.00338217 -0.00255172 -0.0043225   0.00143111  0.00525407
  -0.00349117 -0.00508465  0.00376929 -0.00415144  0.          0.00124132
   0.          0.         -0.00263873]
 [-0.00280499 -0.00317278 -0.00341829 -0.00420054  0.00258901  0.00495505
  -0.00467998 -0.00478576  0.00403773  0.00332208  0.         -0.00235121
   0.          0.          0.00042929]
 [-0.00520642  0.00065702 -0.00391958 -0.00312688 -0.00234242  0.00565731
   0.00500609 -0.00564646  0.00331199 -0.0022935   0.          0.00306429
   0.          0.         -0.00483199]] 
Episode: 14: [[ 5.5262386e-03 -6.2086429e-03 -5.5430550e-03 -1.9845446e-03
   1.4080260e-03  6.2504909e-03  1.3273782e-03 -6.1333147e-03
   2.0281514e-03 -1.8096905e-03  0.0000000e+00  8.8494824e-04
   0.0000000e+00  0.0000000e+00  1.5559189e-03]
 [-4.7380556e-04  1.3557178e-03  1.4875418e-03 -1.3353471e-03
   1.0841682e-03 -3.5673727e-03 -4.0604486e-03  3.7252100e-03
   7.6123298e-04 -3.2517822e-03  0.0000000e+00  1.8922391e-04
   0.0000000e+00  0.0000000e+00 -2.9658866e-03]
 [-5.2176125e-05 -3.8126889e-03 -2.7569076e-03 -4.6956292e-03
   1.6561738e-03  5.6209355e-03 -3.8341719e-03 -5.4030437e-03
   4.1052955e-03 -4.5469222e-03  0.0000000e+00  1.5339098e-03
   0.0000000e+00  0.0000000e+00 -2.9395982e-03]
 [-2.9932675e-03 -3.4633663e-03 -3.6804734e-03 -4.5543434e-03
   2.9235205e-03  5.2575837e-03 -5.0555817e-03 -5.0317631e-03
   4.3717981e-03  3.6250202e-03  0.0000000e+00 -2.6940866e-03
   0.0000000e+00  0.0000000e+00  2.2677823e-04]
 [-5.6061223e-03  7.6104846e-04 -4.1491273e-03 -3.3755179e-03
  -2.5353478e-03  6.1292225e-03  5.3698500e-03 -6.1122770e-03
   3.5720232e-03 -2.6553983e-03  0.0000000e+00  3.4461117e-03
   0.0000000e+00  0.0000000e+00 -5.1315743e-03]] 
Episode: 15: [[ 5.9194756e-03 -6.6672754e-03 -5.9278239e-03 -2.1894160e-03
   1.5759420e-03  6.7168023e-03  1.4476931e-03 -6.5621026e-03
   2.2262263e-03 -2.1156005e-03  0.0000000e+00  8.9078583e-04
   0.0000000e+00  0.0000000e+00  1.8025256e-03]
 [-6.5664394e-04  1.5407975e-03  1.4559512e-03 -1.3369108e-03
   9.2617265e-04 -3.7761633e-03 -4.3384149e-03  3.9448510e-03
   7.7664602e-04 -3.3457954e-03  0.0000000e+00  1.1228100e-04
   0.0000000e+00  0.0000000e+00 -3.0508921e-03]
 [-4.3131447e-05 -4.2672036e-03 -3.0449179e-03 -5.1067332e-03
   1.7434933e-03  5.9917043e-03 -4.1809082e-03 -5.7178158e-03
   4.4893972e-03 -4.9439543e-03  0.0000000e+00  1.8128479e-03
   0.0000000e+00  0.0000000e+00 -3.2019059e-03]
 [-3.1943605e-03 -3.7979777e-03 -3.9923489e-03 -4.9265558e-03
   3.1865782e-03  5.5696392e-03 -5.4280004e-03 -5.2754064e-03
   4.7299587e-03  3.9221216e-03  0.0000000e+00 -3.0441359e-03
   0.0000000e+00  0.0000000e+00  5.4958604e-05]
 [-5.9797163e-03  8.6135411e-04 -4.3007541e-03 -3.5520834e-03
  -2.6403912e-03  6.5838047e-03  5.7126456e-03 -6.5569337e-03
   3.7598389e-03 -3.0219241e-03  0.0000000e+00  3.8340972e-03
   0.0000000e+00  0.0000000e+00 -5.3922096e-03]] 
Episode: 16: [[ 6.3050641e-03 -7.1295514e-03 -6.3237436e-03 -2.4022614e-03
   1.6908825e-03  7.1837143e-03  1.6155670e-03 -6.9934879e-03
   2.4366155e-03 -2.4079536e-03  0.0000000e+00  8.7583007e-04
   0.0000000e+00  0.0000000e+00  2.0376593e-03]
 [-7.7690883e-04  1.7085299e-03  1.4771821e-03 -1.2963488e-03
   8.2494144e-04 -3.9488077e-03 -4.6620122e-03  4.1197781e-03
   7.4255513e-04 -3.4296457e-03  0.0000000e+00  4.9429455e-05
   0.0000000e+00  0.0000000e+00 -3.1527746e-03]
 [ 1.4585203e-05 -4.7050677e-03 -3.3104660e-03 -5.4835295e-03
   1.8554793e-03  6.3836733e-03 -4.5323535e-03 -6.0635032e-03
   4.8380834e-03 -5.3116390e-03  0.0000000e+00  2.0856822e-03
   0.0000000e+00  0.0000000e+00 -3.4619982e-03]
 [-3.3758956e-03 -4.1289856e-03 -4.2888983e-03 -5.2822120e-03
   3.4678250e-03  5.9077656e-03 -5.7953876e-03 -5.5571403e-03
   5.0698854e-03  4.2114202e-03  0.0000000e+00 -3.3854097e-03
   0.0000000e+00  0.0000000e+00 -1.2168202e-04]
 [-6.3626100e-03  9.3461329e-04 -4.4818674e-03 -3.7758804e-03
  -2.7535488e-03  7.0340652e-03  6.0274033e-03 -6.9955043e-03
   3.9890865e-03 -3.4088965e-03  0.0000000e+00  4.2394912e-03
   0.0000000e+00  0.0000000e+00 -5.6645647e-03]] 
Episode: 17: [[ 6.7040557e-03 -7.6085352e-03 -6.7261537e-03 -2.6179908e-03
   1.7986688e-03  7.6630469e-03  1.6708343e-03 -7.4307639e-03
   2.6518181e-03 -2.7080530e-03  0.0000000e+00  9.1748644e-04
   0.0000000e+00  0.0000000e+00  2.3104427e-03]
 [-8.9322322e-04  1.8807591e-03  1.5148624e-03 -1.2552170e-03
   7.5891399e-04 -4.0934980e-03 -5.0078840e-03  4.2683384e-03
   7.0156279e-04 -3.5169574e-03  0.0000000e+00 -1.9514369e-05
   0.0000000e+00  0.0000000e+00 -3.3112571e-03]
 [ 7.1530012e-05 -5.1474152e-03 -3.5821721e-03 -5.8681509e-03
   2.0116009e-03  6.8066861e-03 -4.9003679e-03 -6.4369706e-03
   5.1919427e-03 -5.6487354e-03  0.0000000e+00  2.4150216e-03
   0.0000000e+00  0.0000000e+00 -3.7205408e-03]
 [-3.5846082e-03 -4.5148572e-03 -4.6259486e-03 -5.6633358e-03
   3.7911404e-03  6.2831510e-03 -6.1897938e-03 -5.8691949e-03
   5.4356954e-03  4.4634682e-03  0.0000000e+00 -3.6569431e-03
   0.0000000e+00  0.0000000e+00 -2.9869052e-04]
 [-6.7670099e-03  1.0221616e-03 -4.6949326e-03 -4.0583643e-03
  -2.8529423e-03  7.5054066e-03  6.3085812e-03 -7.4457033e-03
   4.2696879e-03 -3.7937169e-03  0.0000000e+00  4.6477802e-03
   0.0000000e+00  0.0000000e+00 -5.9674345e-03]] 
Episode: 18: [[ 7.1289740e-03 -8.0949031e-03 -7.1015605e-03 -2.8061173e-03
   2.0181467e-03  8.1539918e-03  1.8018048e-03 -7.8823138e-03
   2.8291447e-03 -3.0119889e-03  0.0000000e+00  9.4901043e-04
   0.0000000e+00  0.0000000e+00  2.6295288e-03]
 [-1.0528375e-03  2.0369010e-03  1.6231907e-03 -1.2162559e-03
   7.7542418e-04 -4.2559304e-03 -5.3833183e-03  4.4331169e-03
   6.4863317e-04 -3.6313508e-03  0.0000000e+00 -4.0923482e-05
   0.0000000e+00  0.0000000e+00 -3.4814202e-03]
 [ 5.2813462e-05 -5.6166733e-03 -3.9187111e-03 -6.2926612e-03
   2.0660255e-03  7.2349575e-03 -5.3007589e-03 -6.8163155e-03
   5.5932454e-03 -6.0236347e-03  0.0000000e+00  2.7783874e-03
   0.0000000e+00  0.0000000e+00 -3.9869905e-03]
 [-3.7796162e-03 -4.9323393e-03 -4.9910923e-03 -6.0599535e-03
   4.0463950e-03  6.6681118e-03 -6.6056210e-03 -6.1877081e-03
   5.8211386e-03  4.7040670e-03  0.0000000e+00 -3.9102877e-03
   0.0000000e+00  0.0000000e+00 -4.8898731e-04]
 [-7.1626338e-03  1.0870551e-03 -4.8631532e-03 -4.2848317e-03
  -2.8434494e-03  7.9799984e-03  6.6245534e-03 -7.9048863e-03
   4.4923672e-03 -4.1753380e-03  0.0000000e+00  5.0717937e-03
   0.0000000e+00  0.0000000e+00 -6.2741656e-03]] 
Episode: 19: [[ 7.5119087e-03 -8.5640363e-03 -7.5055263e-03 -3.0100115e-03
   2.1502634e-03  8.6191604e-03  1.9030338e-03 -8.3077801e-03
   3.0310275e-03 -3.3369081e-03  0.0000000e+00  1.0446531e-03
   0.0000000e+00  0.0000000e+00  2.9558956e-03]
 [-1.0561493e-03  2.2191962e-03  1.8049771e-03 -1.0484301e-03
   7.6822343e-04 -4.3860292e-03 -5.7021882e-03  4.5751440e-03
   4.7320512e-04 -3.6465928e-03  0.0000000e+00 -1.2083185e-04
   0.0000000e+00  0.0000000e+00 -3.6625706e-03]
 [ 8.4673040e-05 -6.0551194e-03 -4.2062541e-03 -6.6783894e-03
   2.1498348e-03  7.6509751e-03 -5.7057333e-03 -7.1824207e-03
   5.9528095e-03 -6.3816695e-03  0.0000000e+00  3.1546173e-03
   0.0000000e+00  0.0000000e+00 -4.2279237e-03]
 [-4.0037609e-03 -5.3756502e-03 -5.3416481e-03 -6.4633028e-03
   4.3246974e-03  7.0307828e-03 -7.0492974e-03 -6.4774929e-03
   6.2126983e-03  4.8716799e-03  0.0000000e+00 -4.0774937e-03
   0.0000000e+00  0.0000000e+00 -6.4946548e-04]
 [-7.5629847e-03  1.1163062e-03 -5.0696339e-03 -4.5522559e-03
  -2.8674542e-03  8.4369909e-03  6.9209766e-03 -8.3459048e-03
   4.7543673e-03 -4.5522079e-03  0.0000000e+00  5.4880898e-03
   0.0000000e+00  0.0000000e+00 -6.5713855e-03]] 
Episode: 20: [[ 0.00788889 -0.00900134 -0.00791075 -0.00321656  0.00223989  0.00908324
   0.00202237 -0.008725    0.00323696 -0.00356101  0.          0.00102836
   0.          0.          0.00328458]
 [-0.00112554  0.00247894  0.00196208 -0.00084689  0.00065813 -0.00450857
  -0.00605418  0.00469456  0.00027648 -0.00373876  0.         -0.00025171
   0.          0.         -0.00390872]
 [ 0.00011192 -0.00651296 -0.00448472 -0.00707252  0.00227622  0.00805703
  -0.00610146 -0.00753462  0.00631816 -0.00677309  0.          0.00351214
   0.          0.         -0.00449903]
 [-0.00424585 -0.00585015 -0.0056948  -0.00687991  0.00463188  0.00737456
  -0.00750495 -0.00674466  0.00661713  0.0050107   0.         -0.00421473
   0.          0.         -0.00082511]
 [-0.00797686  0.00120455 -0.00530729 -0.00484172 -0.00294386  0.00889215
   0.00722443 -0.00878394  0.00504084 -0.00492291  0.          0.00586842
   0.          0.         -0.00692542]] 
Episode: 21: [[ 8.2790488e-03 -9.4380984e-03 -8.3254818e-03 -3.4299872e-03
   2.3564189e-03  9.5506208e-03  2.0455751e-03 -9.1425134e-03
   3.4474232e-03 -3.7950880e-03  0.0000000e+00  1.0253085e-03
   0.0000000e+00  0.0000000e+00  3.6412692e-03]
 [-1.1296729e-03  2.7348734e-03  2.1316127e-03 -6.0946477e-04
   5.3854618e-04 -4.5777131e-03 -6.3444665e-03  4.7726072e-03
   4.5436875e-05 -3.7396960e-03  0.0000000e+00 -4.4599333e-04
   0.0000000e+00  0.0000000e+00 -4.1793799e-03]
 [ 2.0235075e-04 -6.9543673e-03 -4.7225743e-03 -7.4002543e-03
   2.4026507e-03  8.4836585e-03 -6.5387534e-03 -7.9095634e-03
   6.6211144e-03 -7.1383682e-03  0.0000000e+00  3.8525753e-03
   0.0000000e+00  0.0000000e+00 -4.7260164e-03]
 [-4.4128653e-03 -6.3009928e-03 -5.9662536e-03 -7.2250632e-03
   4.9135126e-03  7.7467570e-03 -7.9684919e-03 -7.0427768e-03
   6.9489358e-03  5.1236246e-03  0.0000000e+00 -4.3318225e-03
   0.0000000e+00  0.0000000e+00 -9.7176863e-04]
 [-8.3658854e-03  1.3511112e-03 -5.5216984e-03 -5.1049357e-03
  -3.0231166e-03  9.3376972e-03  7.5117922e-03 -9.2131160e-03
   5.3022280e-03 -5.2490183e-03  0.0000000e+00  6.1708768e-03
   0.0000000e+00  0.0000000e+00 -7.2904397e-03]] 
Episode: 22: [[ 0.00866014 -0.00989478 -0.00877792 -0.00368814  0.00240603  0.01001876
   0.00204996 -0.00956671  0.00370861 -0.00407553  0.          0.00111464
   0.          0.          0.00400146]
 [-0.00113243  0.00298479  0.00231821 -0.00041603  0.00044935 -0.0047069
  -0.00665932  0.00491438 -0.00015209 -0.00372951  0.         -0.00065268
   0.          0.         -0.00443647]
 [ 0.00025667 -0.00733121 -0.00490142 -0.00766082  0.00258603  0.00891357
  -0.00692908 -0.00829418  0.00685369 -0.00749927  0.          0.00415356
   0.          0.         -0.00497267]
 [-0.00456778 -0.0065877  -0.00617098 -0.00751048  0.00520861  0.00812759
  -0.00840015 -0.00735908  0.00721747  0.00523441  0.         -0.00447968
   0.          0.         -0.00118311]
 [-0.00873496  0.00133536 -0.0057852  -0.00540214 -0.00316606  0.00977529
   0.00776187 -0.00963627  0.00559918 -0.0055933   0.          0.00650663
   0.          0.         -0.0076608 ]] 
Episode: 23: [[ 0.00905953 -0.01033823 -0.00920953 -0.0039257   0.00250392  0.01049881
   0.00205886 -0.01000755  0.00394398 -0.00434131  0.          0.0011479
   0.          0.          0.00435307]
 [-0.0012354   0.00322924  0.00244758 -0.00028121  0.00032401 -0.00491303
  -0.00694142  0.00513864 -0.00028213 -0.00372064  0.         -0.00084829
   0.          0.         -0.00462648]
 [ 0.00028515 -0.0077267  -0.00510625 -0.00793515  0.002722    0.00932074
  -0.00718285 -0.00864371  0.00710556 -0.00787722  0.          0.00442855
   0.          0.         -0.00528191]
 [-0.00468211 -0.00685265 -0.00635883 -0.00777112  0.00546256  0.00849317
  -0.00874505 -0.00764519  0.00746301  0.00538625  0.         -0.0046933
   0.          0.         -0.00146163]
 [-0.00907103  0.00133355 -0.0060221  -0.00565808 -0.00329722  0.01019925
   0.00801753 -0.01004492  0.00585745 -0.00590537  0.          0.00682
   0.          0.         -0.00802981]] 
Episode: 24: [[ 9.4965249e-03 -1.0803466e-02 -9.6548917e-03 -4.1137063e-03
   2.5682840e-03  1.0993496e-02  2.0446682e-03 -1.0466865e-02
   4.1382955e-03 -4.5888289e-03  0.0000000e+00  1.1723497e-03
   0.0000000e+00  0.0000000e+00  4.7267671e-03]
 [-1.2699398e-03  3.4885199e-03  2.5934812e-03 -9.1274582e-05
   1.3532951e-04 -5.1114545e-03 -7.1897432e-03  5.3594015e-03
  -4.5998386e-04 -3.6736364e-03  0.0000000e+00 -1.0862688e-03
   0.0000000e+00  0.0000000e+00 -4.7784769e-03]
 [ 3.7102119e-04 -8.1096813e-03 -5.2963765e-03 -8.1909820e-03
   2.8700577e-03  9.7620357e-03 -7.3848981e-03 -9.0275081e-03
   7.3376098e-03 -8.1958380e-03  0.0000000e+00  4.6769776e-03
   0.0000000e+00  0.0000000e+00 -5.6116162e-03]
 [-4.8541501e-03 -7.1068197e-03 -6.5788245e-03 -8.0586253e-03
   5.7250834e-03  8.8980319e-03 -9.0617994e-03 -7.9717450e-03
   7.7369707e-03  5.5452045e-03  0.0000000e+00 -4.9020769e-03
   0.0000000e+00  0.0000000e+00 -1.7647743e-03]
 [-9.4376300e-03  1.3153452e-03 -6.3011539e-03 -5.9577073e-03
  -3.4546964e-03  1.0659154e-02  8.2746698e-03 -1.0489963e-02
   6.1582411e-03 -6.2365318e-03  0.0000000e+00  7.1769119e-03
   0.0000000e+00  0.0000000e+00 -8.3858147e-03]] 
Episode: 25: [[ 0.00991424 -0.01129821 -0.01013453 -0.00435222  0.00264201  0.0114865
   0.00199912 -0.01093071  0.00438668 -0.00490715  0.          0.00131309
   0.          0.          0.00506161]
 [-0.00137242  0.00380032  0.00282418  0.0001586  -0.0001269  -0.00538988
  -0.00744527  0.00565956 -0.00069329 -0.0035032   0.         -0.00140397
   0.          0.         -0.00493695]
 [ 0.00029878 -0.00848468 -0.00552589 -0.0084675   0.00292128  0.0101743
  -0.00755267 -0.00938309  0.00760073 -0.00849479  0.          0.00486953
   0.          0.         -0.00591371]
 [-0.00504966 -0.00732477 -0.00680282 -0.00833053  0.00592043  0.00927245
  -0.00931937 -0.00827031  0.00800082  0.00570792  0.         -0.00513663
   0.          0.         -0.00203369]
 [-0.00977037  0.00124659 -0.00658117 -0.00625995 -0.00359538  0.01110195
   0.00844795 -0.01091902  0.00645821 -0.0066164   0.          0.00757438
   0.          0.         -0.0087406 ]] 
Episode: 26: [[ 0.01026082 -0.01177433 -0.01059744 -0.00465221  0.00273248  0.01195946
   0.00186532 -0.01137148  0.00469049 -0.00524183  0.          0.00145164
   0.          0.          0.00544118]
 [-0.00145774  0.00404782  0.00300421  0.00033067 -0.0003456  -0.00563455
  -0.00764733  0.00594394 -0.00085356 -0.00340174  0.         -0.00167319
   0.          0.         -0.00510592]
 [ 0.00040592 -0.00885499 -0.00566776 -0.00866207  0.0030355   0.01058193
  -0.00778856 -0.00972285  0.00777474 -0.00878205  0.          0.00507068
   0.          0.         -0.00621879]
 [-0.00502001 -0.00747942 -0.00686392 -0.00845418  0.00617409  0.00963466
  -0.00962557 -0.00854471  0.00810296  0.00588806  0.         -0.00539786
   0.          0.         -0.00231299]
 [-0.01014755  0.00106939 -0.00693755 -0.00663793 -0.00382878  0.01155235
   0.00865873 -0.01135317  0.00683381 -0.00704795  0.          0.00802357
   0.          0.         -0.00912977]] 
Episode: 27: [[ 0.0105706  -0.01224489 -0.01107418 -0.00497536  0.0027322   0.01242518
   0.0017063  -0.01180917  0.00502256 -0.00556803  0.          0.00160031
   0.          0.          0.00586188]
 [-0.00161653  0.00424579  0.00317305  0.00041315 -0.00050493 -0.005882
  -0.00791946  0.00622691 -0.00093178 -0.00341567  0.         -0.00183717
   0.          0.         -0.00533599]
 [ 0.00046529 -0.00924597 -0.0058127  -0.0088765   0.00318149  0.01099249
  -0.00804342 -0.01007309  0.00796574 -0.00912736  0.          0.00535495
   0.          0.         -0.00655277]
 [-0.00500776 -0.00765909 -0.00692732 -0.00858982  0.00646696  0.01000468
  -0.00996438 -0.00883355  0.00821438  0.00600962  0.         -0.00557281
   0.          0.         -0.00262249]
 [-0.01054578  0.00088227 -0.00730928 -0.00704408 -0.00407789  0.01200167
   0.00886361 -0.0117883   0.00723599 -0.00747848  0.          0.00847066
   0.          0.         -0.00954323]] 
Episode: 28: [[ 0.01088886 -0.01267874 -0.01152901 -0.00526294  0.00278579  0.01286189
   0.00160299 -0.01222524  0.0053151  -0.00588104  0.          0.00176388
   0.          0.          0.00619447]
 [-0.00163208  0.0044493   0.00335562  0.00060267 -0.00070408 -0.00603008
  -0.00815662  0.00640536 -0.00111182 -0.00332387  0.         -0.00207154
   0.          0.         -0.00548143]
 [ 0.00055961 -0.00961122 -0.00590092 -0.00901666  0.00330722  0.01140766
  -0.00830922 -0.01044718  0.00808947 -0.00938822  0.          0.00555635
   0.          0.         -0.00685495]
 [-0.00500809 -0.00779874 -0.00693251 -0.00869324  0.00670226  0.010382
  -0.01028452 -0.0091485   0.00829701  0.00611031  0.         -0.00569475
   0.          0.         -0.00290075]
 [-0.01089335  0.0008025  -0.00762751 -0.00738448 -0.00428804  0.0124168
   0.00905799 -0.01220141  0.00757343 -0.00781289  0.          0.00880596
   0.          0.         -0.00987541]] 
Episode: 29: [[ 0.01120468 -0.01304913 -0.0119234  -0.00545803  0.00281008  0.01326992
   0.00155763 -0.01261466  0.00551944 -0.00615522  0.          0.00187552
   0.          0.          0.00651109]
 [-0.00163625  0.00462486  0.0034968   0.00076921 -0.00090848 -0.00616236
  -0.00840703  0.00656789 -0.00126545 -0.00325177  0.         -0.00229747
   0.          0.         -0.0056272 ]
 [ 0.00065342 -0.009973   -0.00597419 -0.00915672  0.00345279  0.01179807
  -0.00856919 -0.01079484  0.0082102  -0.00962864  0.          0.00573613
   0.          0.         -0.00716853]
 [-0.00505109 -0.00797949 -0.00696911 -0.00883644  0.0069557   0.01072747
  -0.0106089  -0.0094334   0.00841935  0.00622555  0.         -0.00583483
   0.          0.         -0.00318375]
 [-0.01125217  0.00072273 -0.00796623 -0.0077424  -0.00451579  0.01282572
   0.00926855 -0.01260643  0.00792835 -0.0081372   0.          0.0091337
   0.          0.         -0.01020996]] 
Episode: 30: [[ 0.01149845 -0.01339292 -0.01229983 -0.00565657  0.00281576  0.01366472
   0.00155794 -0.01298901  0.00572634 -0.00637693  0.          0.0019795
   0.          0.          0.00677957]
 [-0.00171438  0.00477433  0.003581    0.00083204 -0.00107555 -0.0063161
  -0.00861755  0.00674619 -0.00131842 -0.00322451  0.         -0.00248111
   0.          0.         -0.00564798]
 [ 0.00074483 -0.01030045 -0.00605039 -0.00928149  0.00359105  0.01216838
  -0.00879588 -0.0111262   0.0083176  -0.00986274  0.          0.00592141
   0.          0.         -0.00747563]
 [-0.0050445  -0.00814874 -0.0069771  -0.00893586  0.00719677  0.01105822
  -0.01090612 -0.00970741  0.00849828  0.00630321  0.         -0.00594156
   0.          0.         -0.00347923]
 [-0.01158633  0.0006562  -0.0082753  -0.00806742 -0.00473582  0.01322195
   0.00946823 -0.01299944  0.00825222 -0.00844128  0.          0.0094432
   0.          0.         -0.0104861 ]] 
Episode: 31: [[ 0.0117036  -0.01376622 -0.0127056  -0.00596079  0.00286076  0.01404468
   0.00134695 -0.01334462  0.00603362 -0.00663916  0.          0.00222775
   0.          0.          0.007144  ]
 [-0.00191573  0.00497114  0.00372869  0.00088399 -0.00123977 -0.0065716
  -0.00864467  0.00700853 -0.00136319 -0.00328431  0.         -0.00259666
   0.          0.         -0.0057522 ]
 [ 0.00084212 -0.01067473 -0.00609602 -0.00944735  0.00382748  0.01241827
  -0.00904731 -0.01136188  0.00845027 -0.01021481  0.          0.00624633
   0.          0.         -0.00783681]
 [-0.0049428  -0.00826992 -0.00690777 -0.00894384  0.00750196  0.01128244
  -0.01123815 -0.00989472  0.00847942  0.00614104  0.         -0.005943
   0.          0.         -0.00383672]
 [-0.01197512  0.00059661 -0.00864044 -0.00845621 -0.00501042  0.0136527
   0.00973483 -0.01343431  0.0086387  -0.00876634  0.          0.00978309
   0.          0.         -0.01085425]] 
Episode: 32: [[ 0.01195102 -0.01413737 -0.0131031  -0.00624686  0.00291743  0.0144446
   0.00121642 -0.01372115  0.00632072 -0.00688498  0.          0.00239504
   0.          0.          0.00746541]
 [-0.00213184  0.00516492  0.0038535   0.00090453 -0.00136742 -0.00679634
  -0.00870644  0.0072534  -0.00138001 -0.00336665  0.         -0.00269495
   0.          0.         -0.00583167]
 [ 0.00098741 -0.01104838 -0.00615419 -0.00961905  0.00405414  0.01270181
  -0.00925014 -0.01162182  0.00858857 -0.01051046  0.          0.00651394
   0.          0.         -0.00818516]
 [-0.004832   -0.00838875 -0.00685482 -0.00896977  0.00780068  0.01154532
  -0.01152486 -0.01011357  0.00847806  0.00610759  0.         -0.00603172
   0.          0.         -0.00415947]
 [-0.01237801  0.00052242 -0.00899147 -0.00882041 -0.00524952  0.01407825
   0.01000596 -0.01385784  0.00900297 -0.00915421  0.          0.01017495
   0.          0.         -0.01119663]] 
Episode: 33: [[ 0.01220154 -0.01450109 -0.01349015 -0.00653421  0.00306684  0.01484234
   0.00108783 -0.014095    0.00660256 -0.00716697  0.          0.00257491
   0.          0.          0.00779624]
 [-0.00235157  0.00539498  0.00401405  0.0009678  -0.00148652 -0.00705318
  -0.00875262  0.00752492 -0.00144232 -0.00338888  0.         -0.00284798
   0.          0.         -0.00589927]
 [ 0.00108518 -0.01142309 -0.00627111 -0.00983854  0.00421566  0.01296431
  -0.00944691 -0.0118644   0.00878056 -0.01076004  0.          0.00672976
   0.          0.         -0.00854474]
 [-0.00475677 -0.0084516  -0.00683734 -0.00902999  0.00804934  0.0117829
  -0.01180349 -0.01031099  0.00851443  0.00611044  0.         -0.00617157
   0.          0.         -0.00450133]
 [-0.012762    0.00045653 -0.00928058 -0.00910867 -0.00541591  0.01451244
   0.01030554 -0.01429394  0.00929466 -0.00954691  0.          0.0105704
   0.          0.         -0.01152108]] 
Episode: 34: [[ 0.01239263 -0.01491721 -0.01391309 -0.00687733  0.003146    0.0152315
   0.00099789 -0.01445239  0.00694539 -0.00749248  0.          0.00286581
   0.          0.          0.00812582]
 [-0.00245547  0.00566318  0.00423594  0.0011465  -0.00158523 -0.00735372
  -0.00879853  0.00780359 -0.00162386 -0.00332602  0.         -0.00305828
   0.          0.         -0.00583779]
 [ 0.00111706 -0.01178466 -0.0063071  -0.01004551  0.00443667  0.01316432
  -0.00973989 -0.01205775  0.00895092 -0.01100676  0.          0.00703328
   0.          0.         -0.00895906]
 [-0.00474376 -0.00854572 -0.00682893 -0.00913202  0.00830572  0.01194032
  -0.01213448 -0.01044512  0.00859242  0.00607547  0.         -0.0062097
   0.          0.         -0.00489653]
 [-0.01313818  0.00031122 -0.00960188 -0.0094087  -0.00562742  0.01494126
   0.0106388  -0.01472782  0.00960142 -0.00992926  0.          0.01099665
   0.          0.         -0.01187157]] 
Episode: 35: [[ 0.01258095 -0.01531448 -0.01430753 -0.00721282  0.00324143  0.01561815
   0.0009163  -0.01481317  0.00727771 -0.00778237  0.          0.00311705
   0.          0.          0.00844427]
 [-0.00254321  0.00581735  0.00444832  0.00128038 -0.00164265 -0.00766074
  -0.00882343  0.00807766 -0.00176173 -0.00328675  0.         -0.00319364
   0.          0.         -0.00575085]
 [ 0.00115374 -0.012114   -0.00635904 -0.01022483  0.00463016  0.01337712
  -0.01000891 -0.01227423  0.00910004 -0.01124559  0.          0.00730684
   0.          0.         -0.00934796]
 [-0.00469655 -0.00861092 -0.00680875 -0.00918744  0.00852883  0.01212278
  -0.01240977 -0.01062185  0.00862728  0.00599518  0.         -0.00616137
   0.          0.         -0.00526852]
 [-0.01347937  0.0002289  -0.00990648 -0.00968414 -0.00584834  0.01536913
   0.01097175 -0.01516188  0.00988477 -0.01026257  0.          0.01137856
   0.          0.         -0.01218769]] 
Episode: 36: [[ 0.01280535 -0.01570697 -0.01467679 -0.00753293  0.00336646  0.01600694
   0.00088963 -0.01516909  0.00759049 -0.00802498  0.          0.00328128
   0.          0.          0.00875418]
 [-0.0027082   0.0059717   0.00458717  0.00136584 -0.00177739 -0.00799368
  -0.00885851  0.00836144 -0.00183784 -0.00329114  0.         -0.00329677
   0.          0.         -0.00568907]
 [ 0.00117429 -0.01246793 -0.00641359 -0.01044588  0.00484534  0.01353916
  -0.0102733  -0.01243528  0.00928597 -0.01150834  0.          0.00760471
   0.          0.         -0.00975154]
 [-0.00465405 -0.00866538 -0.00679783 -0.00926988  0.00879245  0.01223672
  -0.01271737 -0.01072204  0.00868497  0.00595526  0.         -0.00614395
   0.          0.         -0.00564538]
 [-0.01382256  0.00018932 -0.0101977  -0.00993801 -0.00612659  0.01579935
   0.01136882 -0.01560814  0.01015425 -0.01054661  0.          0.01171326
   0.          0.         -0.01250372]] 
Episode: 37: [[ 1.30488705e-02 -1.61401723e-02 -1.50747066e-02 -7.84670375e-03
   3.51470336e-03  1.64135229e-02  8.48780444e-04 -1.55485552e-02
   7.90103432e-03 -8.28516297e-03  0.00000000e+00  3.43738915e-03
   0.00000000e+00  0.00000000e+00  9.03035421e-03]
 [-2.88787554e-03  6.20967057e-03  4.75397799e-03  1.47411483e-03
  -1.97719457e-03 -8.39830749e-03 -8.78746435e-03  8.73252563e-03
  -1.93561043e-03 -3.23413196e-03  0.00000000e+00 -3.43431276e-03
   0.00000000e+00  0.00000000e+00 -5.58684394e-03]
 [ 1.14693667e-03 -1.27590252e-02 -6.45316998e-03 -1.06433136e-02
   5.08661848e-03  1.36852879e-02 -1.05066150e-02 -1.25854928e-02
   9.44637321e-03 -1.17773600e-02  0.00000000e+00  7.89923314e-03
   0.00000000e+00  0.00000000e+00 -1.01417853e-02]
 [-4.63614380e-03 -8.67139455e-03 -6.77539874e-03 -9.34131909e-03
   9.06123966e-03  1.23309558e-02 -1.29978554e-02 -1.08033493e-02
   8.73193052e-03  5.89202484e-03  0.00000000e+00 -6.09535305e-03
   0.00000000e+00  0.00000000e+00 -6.01820787e-03]
 [-1.41571583e-02  6.78549477e-05 -1.04961945e-02 -1.01775425e-02
  -6.37044804e-03  1.62439253e-02  1.17400708e-02 -1.60722360e-02
   1.04103126e-02 -1.08632538e-02  0.00000000e+00  1.20574096e-02
   0.00000000e+00  0.00000000e+00 -1.27862422e-02]] 
Episode: 38: [[ 1.33374240e-02 -1.65699553e-02 -1.54514061e-02 -8.13570246e-03
   3.72799975e-03  1.68178100e-02  6.80827594e-04 -1.59343835e-02
   8.18067417e-03 -8.55549704e-03  0.00000000e+00  3.61707713e-03
   0.00000000e+00  0.00000000e+00  9.33446642e-03]
 [-3.09401751e-03  6.43911539e-03  4.86648502e-03  1.54955033e-03
  -2.16304208e-03 -8.71727802e-03 -8.61062668e-03  9.04205721e-03
  -1.99885899e-03 -3.18852416e-03  0.00000000e+00 -3.55463824e-03
   0.00000000e+00  0.00000000e+00 -5.45593258e-03]
 [ 1.12844096e-03 -1.30756125e-02 -6.47257362e-03 -1.08443853e-02
   5.33981668e-03  1.38860308e-02 -1.07810926e-02 -1.27896853e-02
   9.60818119e-03 -1.20705264e-02  0.00000000e+00  8.20992514e-03
   0.00000000e+00  0.00000000e+00 -1.04894433e-02]
 [-4.62849671e-03 -8.72787833e-03 -6.73210854e-03 -9.40851867e-03
   9.31894407e-03  1.24856783e-02 -1.33172283e-02 -1.09388866e-02
   8.77564307e-03  5.82277728e-03  0.00000000e+00 -6.03360543e-03
   0.00000000e+00  0.00000000e+00 -6.34754309e-03]
 [-1.44765591e-02 -1.41502424e-05 -1.07743414e-02 -1.04191564e-02
  -6.57217670e-03  1.66696552e-02  1.20984865e-02 -1.65174846e-02
   1.06624095e-02 -1.11257443e-02  0.00000000e+00  1.23639079e-02
   0.00000000e+00  0.00000000e+00 -1.30381249e-02]] 
Episode: 39: [[ 0.01363761 -0.01699151 -0.01582485 -0.0084077   0.00393784  0.01721517
   0.00052647 -0.01631666  0.00844415 -0.00881859  0.          0.00378485
   0.          0.          0.00961019]
 [-0.00330952  0.00662968  0.00495987  0.00160207 -0.00236254 -0.00901274
  -0.0084515   0.00932852 -0.00203536 -0.00315155  0.         -0.00366236
   0.          0.         -0.00534332]
 [ 0.0010978  -0.01338396 -0.00655088 -0.0110579   0.00553085  0.01410565
  -0.01103108 -0.01301886  0.00979132 -0.01230887  0.          0.0084806
   0.          0.         -0.0107871 ]
 [-0.00462567 -0.00876751 -0.00671113 -0.00947912  0.00954041  0.01266731
  -0.01359912 -0.01111002  0.00882593  0.00580054  0.         -0.00601991
   0.          0.         -0.00661967]
 [-0.01478196 -0.00010271 -0.01101804 -0.01064201 -0.00673699  0.01707753
   0.0123973  -0.01693868  0.01089346 -0.01142084  0.          0.01268998
   0.          0.         -0.01326143]] 
Episode: 40: [[ 1.39623443e-02 -1.73860993e-02 -1.61619950e-02 -8.62962846e-03
   4.17234749e-03  1.76118203e-02  3.62299848e-04 -1.66953374e-02
   8.65523797e-03 -9.11866035e-03  0.00000000e+00  3.93527886e-03
   0.00000000e+00  0.00000000e+00  9.83392075e-03]
 [-3.54367332e-03  6.86472468e-03  5.05323429e-03  1.65647932e-03
  -2.54413928e-03 -9.32948571e-03 -8.50341655e-03  9.62313637e-03
  -2.07759347e-03 -3.18078394e-03  0.00000000e+00 -3.75959789e-03
   0.00000000e+00  0.00000000e+00 -5.31982165e-03]
 [ 1.05696509e-03 -1.37479985e-02 -6.70129713e-03 -1.13406098e-02
   5.65860886e-03  1.43197943e-02 -1.11495778e-02 -1.32411178e-02
   1.00490004e-02 -1.25226034e-02  0.00000000e+00  8.71843752e-03
   0.00000000e+00  0.00000000e+00 -1.11261271e-02]
 [-4.67930920e-03 -8.90885573e-03 -6.78266678e-03 -9.63278022e-03
   9.73757450e-03  1.28334751e-02 -1.38384299e-02 -1.12646259e-02
   8.96278676e-03  5.83936786e-03  0.00000000e+00 -6.05735742e-03
   0.00000000e+00  0.00000000e+00 -6.90877857e-03]
 [-1.51077202e-02 -3.64195475e-05 -1.12177543e-02 -1.08232312e-02
  -6.92626555e-03  1.75026041e-02  1.27108833e-02 -1.73666794e-02
   1.10892924e-02 -1.17095187e-02  0.00000000e+00  1.29739055e-02
   0.00000000e+00  0.00000000e+00 -1.35163683e-02]] 
Episode: 41: [[ 1.42762875e-02 -1.76561773e-02 -1.64425522e-02 -8.71639512e-03
   4.33765817e-03  1.79425981e-02  1.12690796e-04 -1.70217957e-02
   8.74050241e-03 -9.47075151e-03  0.00000000e+00  4.13243100e-03
   0.00000000e+00  0.00000000e+00  1.01188011e-02]
 [-3.73364356e-03  7.05481740e-03  5.23286592e-03  1.74060522e-03
  -2.70770397e-03 -9.59647354e-03 -8.51674750e-03  9.89377219e-03
  -2.15482432e-03 -3.14568914e-03  0.00000000e+00 -3.90516547e-03
   0.00000000e+00  0.00000000e+00 -5.46675455e-03]
 [ 1.02943601e-03 -1.40713062e-02 -6.78219879e-03 -1.15910396e-02
   5.83015149e-03  1.45129189e-02 -1.13762990e-02 -1.34284375e-02
   1.02669923e-02 -1.27095403e-02  0.00000000e+00  8.87618773e-03
   0.00000000e+00  0.00000000e+00 -1.14364233e-02]
 [-4.85188235e-03 -9.18091834e-03 -6.91768853e-03 -9.87592805e-03
   9.94990673e-03  1.29468404e-02 -1.41510488e-02 -1.13647887e-02
   9.19135194e-03  5.84603753e-03  0.00000000e+00 -6.02039602e-03
   0.00000000e+00  0.00000000e+00 -7.12934742e-03]
 [-1.54480720e-02  3.17495578e-05 -1.14777796e-02 -1.10610668e-02
  -7.13212602e-03  1.79073345e-02  1.30283516e-02 -1.77666266e-02
   1.13374833e-02 -1.19854659e-02  0.00000000e+00  1.32430783e-02
   0.00000000e+00  0.00000000e+00 -1.38478437e-02]] 
Episode: 42: [[ 1.45789012e-02 -1.79274976e-02 -1.67164821e-02 -8.80681071e-03
   4.47971001e-03  1.82665214e-02 -1.20470759e-04 -1.73448883e-02
   8.83063022e-03 -9.80744883e-03  0.00000000e+00  4.32558823e-03
   0.00000000e+00  0.00000000e+00  1.03874337e-02]
 [-3.90568213e-03  7.19186943e-03  5.34463860e-03  1.79388421e-03
  -2.86844070e-03 -9.81709175e-03 -8.54998361e-03  1.01297721e-02
  -2.19657551e-03 -3.12830391e-03  0.00000000e+00 -4.04162100e-03
   0.00000000e+00  0.00000000e+00 -5.65051893e-03]
 [ 9.46322398e-04 -1.43617261e-02 -6.91076228e-03 -1.18589988e-02
   5.93782729e-03  1.47553822e-02 -1.15851685e-02 -1.36695914e-02
   1.05101625e-02 -1.28512373e-02  0.00000000e+00  8.99198186e-03
   0.00000000e+00  0.00000000e+00 -1.17007298e-02]
 [-5.02157258e-03 -9.33585223e-03 -7.04301987e-03 -1.01057598e-02
   1.01235574e-02  1.31336702e-02 -1.44399274e-02 -1.15427235e-02
   9.40822158e-03  5.91043616e-03  0.00000000e+00 -6.06376678e-03
   0.00000000e+00  0.00000000e+00 -7.30009004e-03]
 [-1.57646183e-02  7.67041638e-05 -1.17129916e-02 -1.12744682e-02
  -7.31983827e-03  1.82860550e-02  1.33214286e-02 -1.81446783e-02
   1.15614422e-02 -1.22617669e-02  0.00000000e+00  1.35055417e-02
   0.00000000e+00  0.00000000e+00 -1.41642904e-02]] 
Episode: 43: [[ 0.01488226 -0.01825449 -0.0170425  -0.00893157  0.00458342  0.01858743
  -0.00035394 -0.0176749   0.00896155 -0.01016241  0.          0.00455638
   0.          0.          0.01062808]
 [-0.00415906  0.00732419  0.0053724   0.00177893 -0.00307112 -0.01007437
  -0.00861317  0.0103969  -0.0021611  -0.00317615  0.         -0.00410696
   0.          0.         -0.0058485 ]
 [ 0.0008653  -0.01467467 -0.00705317 -0.01210686  0.00607191  0.01497409
  -0.01178835 -0.01391292  0.0107348  -0.01305568  0.          0.00916146
   0.          0.         -0.01196503]
 [-0.005158   -0.00950637 -0.00714415 -0.01030027  0.01032848  0.01328906
  -0.01471231 -0.01172132  0.00958795  0.00595977  0.         -0.00605417
   0.          0.         -0.00747607]
 [-0.01606546  0.00011342 -0.01196802 -0.01149852 -0.00755196  0.01865269
   0.0135788  -0.01851921  0.01179793 -0.01251206  0.          0.01373869
   0.          0.         -0.01447514]] 
Episode: 44: [[ 0.01522291 -0.0185973  -0.0174085  -0.00901731  0.0045727   0.01893789
  -0.00065286 -0.01803778  0.00906674 -0.01053392  0.          0.00476418
   0.          0.          0.01086929]
 [-0.00448484  0.00754446  0.00539428  0.00174573 -0.00329899 -0.01035048
  -0.00866577  0.01068632 -0.00210803 -0.00330631  0.         -0.00414555
   0.          0.         -0.00608967]
 [ 0.00069368 -0.01508186 -0.00721214 -0.01243634  0.00626742  0.01518442
  -0.01210869 -0.01413795  0.01103608 -0.01340785  0.          0.00942711
   0.          0.         -0.0122835 ]
 [-0.00539846 -0.00981589 -0.00731616 -0.0105871   0.01058667  0.01341774
  -0.01507795 -0.0118743   0.00986037  0.00593322  0.         -0.00597967
   0.          0.         -0.0077033 ]
 [-0.01643032  0.00029472 -0.01229631 -0.0117897  -0.00785185  0.01905037
   0.01387933 -0.01893028  0.01210133 -0.01279372  0.          0.01397476
   0.          0.         -0.0148659 ]] 
Episode: 45: [[ 0.01564485 -0.01898158 -0.01779416 -0.00914415  0.00462021  0.01931505
  -0.00094011 -0.01843673  0.00920283 -0.01088341  0.          0.00493397
   0.          0.          0.01113036]
 [-0.00478443  0.00781225  0.00540411  0.00176868 -0.00356475 -0.0105188
  -0.00863684  0.01090243 -0.00210582 -0.00334899  0.         -0.00427598
   0.          0.         -0.00637299]
 [ 0.00055508 -0.0155437  -0.00736846 -0.01279704  0.00648424  0.01548338
  -0.01250812 -0.01445443  0.01136582 -0.01379308  0.          0.00967706
   0.          0.         -0.01248024]
 [-0.00571629 -0.01022345 -0.00754371 -0.01096418  0.01082774  0.01361704
  -0.015534   -0.01210034  0.01022525  0.00588614  0.         -0.00588585
   0.          0.         -0.00779514]
 [-0.01681833  0.00061051 -0.0126198  -0.01204351 -0.0081124   0.01948447
   0.01424569 -0.01938405  0.01236974 -0.01293776  0.          0.01408099
   0.          0.         -0.01528651]] 
Episode: 46: [[ 0.01604156 -0.01934255 -0.01816277 -0.00926442  0.00467353  0.01969182
  -0.00118345 -0.01882124  0.00933171 -0.0112761   0.          0.00508321
   0.          0.          0.01138135]
 [-0.00499836  0.00809951  0.00551554  0.00187681 -0.00381274 -0.01068759
  -0.00860318  0.01110938 -0.00219648 -0.00327726  0.         -0.00448931
   0.          0.         -0.00661004]
 [ 0.00043106 -0.01593209 -0.0075312  -0.01313008  0.00663582  0.01578964
  -0.01285901 -0.01478749  0.01167462 -0.01408347  0.          0.00986005
   0.          0.         -0.0126673 ]
 [-0.00600099 -0.01056011 -0.00775208 -0.01131046  0.0110295   0.01383293
  -0.0159469  -0.01235469  0.01056065  0.00588577  0.         -0.00583426
   0.          0.         -0.00788457]
 [-0.01717581  0.00083424 -0.01292307 -0.01227981 -0.00833876  0.01989936
   0.01458402 -0.01980463  0.01261945 -0.01310383  0.          0.01418657
   0.          0.         -0.01564964]] 
Episode: 47: [[ 0.01636537 -0.01980156 -0.01863774 -0.00955077  0.00459912  0.02013514
  -0.00123805 -0.01927627  0.00963236 -0.0116208   0.          0.0052211
   0.          0.          0.01132798]
 [-0.00511422  0.00852431  0.00584816  0.0022013  -0.00391743 -0.01098975
  -0.00873862  0.01143108 -0.00251615 -0.00306623  0.         -0.00483796
   0.          0.         -0.00649839]
 [ 0.00047193 -0.01621343 -0.00764518 -0.01332593  0.00679409  0.01616019
  -0.01311781 -0.01517454  0.01184917 -0.01425143  0.          0.00997791
   0.          0.         -0.01295384]
 [-0.00609537 -0.01082986 -0.00781365 -0.01152663  0.01127342  0.01411319
  -0.01632488 -0.0126675   0.01075827  0.00587437  0.         -0.0057306
   0.          0.         -0.00806375]
 [-0.01760664  0.00098093 -0.01331752 -0.01262596 -0.00859934  0.02039876
   0.01485771 -0.02030712  0.01297354 -0.01329473  0.          0.01435139
   0.          0.         -0.0158071 ]] 
Episode: 48: [[ 0.01668959 -0.02023923 -0.01907129 -0.00981102  0.00460599  0.02054833
  -0.00135264 -0.01970023  0.00990153 -0.01193302  0.          0.00533954
   0.          0.          0.01126675]
 [-0.0053228   0.00887705  0.00613611  0.00242057 -0.00397216 -0.01126435
  -0.00898553  0.01172353 -0.00273744 -0.00300951  0.         -0.00508614
   0.          0.         -0.00644908]
 [ 0.0004543  -0.01645486 -0.00774866 -0.01351361  0.00692889  0.01653101
  -0.01336901 -0.01556705  0.01201835 -0.01447114  0.          0.01011789
   0.          0.         -0.01322724]
 [-0.00615733 -0.01103534 -0.00783422 -0.01169053  0.01145323  0.01441704
  -0.01665689 -0.01300877  0.01090716  0.00580234  0.         -0.00556127
   0.          0.         -0.00823993]
 [-0.01795562  0.00118672 -0.01366526 -0.01288478 -0.00883261  0.0208511
   0.0151152  -0.02077164  0.01324416 -0.01338688  0.          0.01439263
   0.          0.         -0.01601365]] 
Episode: 49: [[ 0.01697262 -0.0206654  -0.01949357 -0.01008504  0.00461837  0.02093438
  -0.00149861 -0.02009314  0.01018295 -0.01225005  0.          0.00548494
   0.          0.          0.01123773]
 [-0.00547472  0.00922057  0.0064432   0.0026688  -0.00401331 -0.01153234
  -0.00922098  0.01199939 -0.00298717 -0.00292068  0.         -0.00532541
   0.          0.         -0.00647135]
 [ 0.00048381 -0.01667734 -0.00782032 -0.01366897  0.00707035  0.01686384
  -0.01363943 -0.01591569  0.01215404 -0.01466563  0.          0.01025252
   0.          0.         -0.0134479 ]
 [-0.00620626 -0.01123759 -0.00785907 -0.01184126  0.01162312  0.0146809
  -0.01696821 -0.01330422  0.01104391  0.00572972  0.         -0.00540052
   0.          0.         -0.00835353]
 [-0.01830333  0.00138766 -0.01400301 -0.01314173 -0.00906512  0.0212985
   0.01537107 -0.02122539  0.01351258 -0.01349982  0.          0.01445796
   0.          0.         -0.01624744]] 
Episode: 50: [[ 0.01725862 -0.02105532 -0.01986378 -0.01031359  0.00471232  0.02129905
  -0.00162424 -0.02045879  0.01041381 -0.0125363   0.          0.0056064
   0.          0.          0.01120983]
 [-0.00563229  0.00945747  0.00664638  0.00285173 -0.00412531 -0.01170467
  -0.00944724  0.01217103 -0.00316177 -0.00286159  0.         -0.00553185
   0.          0.         -0.0065454 ]
 [ 0.00046788 -0.0169281  -0.00800127 -0.01387673  0.00710382  0.01724728
  -0.01390594 -0.0163307   0.0123549  -0.01478027  0.          0.01030723
   0.          0.         -0.01354299]
 [-0.00624552 -0.01138885 -0.00789206 -0.0119941   0.01171415  0.01502044
  -0.01725508 -0.01369012  0.01118601  0.00579817  0.         -0.00533746
   0.          0.         -0.00835308]
 [-0.01862436  0.00152525 -0.01429698 -0.01335857 -0.00925123  0.02171584
   0.01563846 -0.02164999  0.01374117 -0.01362087  0.          0.01451723
   0.          0.         -0.01643388]] 
Episode: 51: [[ 0.01755709 -0.0214304  -0.02022876 -0.0105184   0.00479586  0.02166935
  -0.00171324 -0.02082636  0.01062274 -0.0128073   0.          0.00568481
   0.          0.          0.0111822 ]
 [-0.00575044  0.00966755  0.00683627  0.00303502 -0.00426562 -0.01182447
  -0.00963254  0.0123023  -0.0033337  -0.0028082   0.         -0.00575919
   0.          0.         -0.00668344]
 [ 0.00049289 -0.01718811 -0.00819608 -0.01406664  0.00711064  0.01765766
  -0.01419805 -0.01676384  0.01254283 -0.01488022  0.          0.01031353
   0.          0.         -0.01358877]
 [-0.00623124 -0.01153853 -0.00789468 -0.01210973  0.01177497  0.01539831
  -0.01753141 -0.01410731  0.01129196  0.00588517  0.         -0.00532015
   0.          0.         -0.00829437]
 [-0.01895326  0.00155079 -0.01461826 -0.0135855  -0.00937624  0.02209993
   0.01585966 -0.0220291   0.01397813 -0.01384054  0.          0.01466709
   0.          0.         -0.01665139]] 
Episode: 52: [[ 0.01785096 -0.02182999 -0.02061443 -0.01074653  0.00486803  0.02207068
  -0.00183151 -0.02123121  0.01085622 -0.01310981  0.          0.00575735
   0.          0.          0.0111976 ]
 [-0.00587582  0.00988619  0.00702345  0.00322109 -0.00439052 -0.01200389
  -0.00980105  0.0124969  -0.00350901 -0.00275065  0.         -0.00595619
   0.          0.         -0.0067629 ]
 [ 0.00057986 -0.01751048 -0.00838699 -0.01427796  0.00714923  0.01805064
  -0.01448969 -0.01717355  0.0127473  -0.01505264  0.          0.01037287
   0.          0.         -0.01367249]
 [-0.00620293 -0.01168907 -0.00789993 -0.01223057  0.01185215  0.01575324
  -0.01781039 -0.0144964   0.01140149  0.00597028  0.         -0.00535199
   0.          0.         -0.00828225]
 [-0.01929145  0.00159648 -0.01488687 -0.01377089 -0.00941438  0.02248898
   0.01606551 -0.02240685  0.01417165 -0.0141095   0.          0.01486847
   0.          0.         -0.01682035]] 
Episode: 53: [[ 0.01821312 -0.02220948 -0.02094671 -0.01093016  0.00503137  0.02250358
  -0.00191363 -0.02165949  0.01103553 -0.0133327   0.          0.00576544
   0.          0.          0.01119188]
 [-0.00609132  0.01005255  0.00712042  0.00332906 -0.00455196 -0.01223929
  -0.00994431  0.01273897 -0.00360135 -0.00273532  0.         -0.00610552
   0.          0.         -0.00681204]
 [ 0.00059147 -0.01784962 -0.00865586 -0.01455374  0.00715496  0.01843851
  -0.0146845  -0.01757282  0.01301913 -0.01521039  0.          0.01044633
   0.          0.         -0.01381255]
 [-0.00620997 -0.0118329  -0.00796374 -0.01237708  0.01189808  0.01610131
  -0.01802986 -0.01486826  0.01153988  0.00606665  0.         -0.00539266
   0.          0.         -0.00833981]
 [-0.01961703  0.00164086 -0.01510188 -0.01389943 -0.00939539  0.02290455
   0.01628788 -0.02281375  0.01430975 -0.01438814  0.          0.01510071
   0.          0.         -0.0169626 ]] 
Episode: 54: [[ 0.01847642 -0.02257583 -0.02129456 -0.01117353  0.00511765  0.02291027
  -0.00200767 -0.02206127  0.01127582 -0.013554    0.          0.00581177
   0.          0.          0.01120642]
 [-0.00625445  0.01021304  0.00723184  0.00345858 -0.00471694 -0.01245527
  -0.01005079  0.01296308 -0.00371459 -0.00269651  0.         -0.00628548
   0.          0.         -0.00690849]
 [ 0.00064933 -0.0181617  -0.00888801 -0.01478181  0.00717367  0.01880601
  -0.01487663 -0.01794957  0.01324293 -0.01536489  0.          0.01054527
   0.          0.         -0.01391726]
 [-0.00615805 -0.01196649 -0.00798019 -0.01247175  0.01198412  0.0164293
  -0.01825407 -0.01521236  0.01162369  0.00614419  0.         -0.00539333
   0.          0.         -0.00834817]
 [-0.0199499   0.00166337 -0.01532344 -0.01406109 -0.00940088  0.02329799
   0.016492   -0.02319791  0.01447839 -0.01465059  0.          0.01533393
   0.          0.         -0.01712677]] 
Episode: 55: [[ 0.01869002 -0.02288513 -0.02162453 -0.01141956  0.00516045  0.02328653
  -0.00208418 -0.02243578  0.0115188  -0.01371801  0.          0.00587528
   0.          0.          0.01122733]
 [-0.0063209   0.01032114  0.00736682  0.00360925 -0.00484681 -0.01266382
  -0.01017516  0.01316454 -0.00385017 -0.00263496  0.         -0.00641306
   0.          0.         -0.00700746]
 [ 0.00081574 -0.01840679 -0.00902173 -0.01488722  0.00721505  0.0191302
  -0.01509026 -0.01829457  0.0133442  -0.01549841  0.          0.01063387
   0.          0.         -0.01400396]
 [-0.00602249 -0.01203001 -0.0078776  -0.01247104  0.01213319  0.01669955
  -0.01850296 -0.0155079   0.01160712  0.00620325  0.         -0.00537385
   0.          0.         -0.00835127]
 [-0.02028946  0.00164146 -0.01557961 -0.01427925 -0.00947294  0.02366709
   0.01668639 -0.02356749  0.01470176 -0.01488404  0.          0.0155728
   0.          0.         -0.01727911]] 
Episode: 56: [[ 0.01887259 -0.02317587 -0.02195978 -0.01167714  0.00517979  0.02363808
  -0.00215356 -0.02278836  0.0117741  -0.01389452  0.          0.0059858
   0.          0.          0.01121587]
 [-0.00627705  0.01044492  0.00754061  0.00382634 -0.00497558 -0.01282696
  -0.01024135  0.01331039 -0.00405077 -0.00249199  0.         -0.00660693
   0.          0.         -0.00714809]
 [ 0.00100206 -0.01861974 -0.00911769 -0.01496227  0.00728341  0.01944982
  -0.01531713 -0.01865371  0.013412   -0.0155742   0.          0.01071899
   0.          0.         -0.0140041 ]
 [-0.00591438 -0.01207041 -0.00779036 -0.01247891  0.0122823   0.01696436
  -0.01875121 -0.01581485  0.01159981  0.00627189  0.         -0.00534444
   0.          0.         -0.00826761]
 [-0.02061097  0.00155809 -0.01578417 -0.01446876 -0.00952057  0.02400823
   0.01682774 -0.02390045  0.01489645 -0.01513528  0.          0.01583441
   0.          0.         -0.01741033]] 
Episode: 57: [[ 0.01897317 -0.0234959  -0.02232898 -0.0120203   0.00520953  0.02399156
  -0.00227442 -0.02314579  0.01211159 -0.01406751  0.          0.00612023
   0.          0.          0.01121686]
 [-0.00623984  0.01060231  0.00768172  0.00405046 -0.00519519 -0.01297072
  -0.01021837  0.01342271 -0.00425113 -0.0023301   0.         -0.00681695
   0.          0.         -0.00726271]
 [ 0.00117777 -0.01881531 -0.00917958 -0.01499437  0.00738489  0.01977988
  -0.01555976 -0.01902699  0.01343649 -0.01570695  0.          0.01089343
   0.          0.         -0.0139919 ]
 [-0.00569071 -0.01201986 -0.00759401 -0.01236668  0.01246035  0.01726231
  -0.01898357 -0.01614911  0.01147104  0.00628084  0.         -0.00523772
   0.          0.         -0.00817523]
 [-0.02092698  0.00151061 -0.0159895  -0.01467149 -0.00958479  0.02433627
   0.01699841 -0.02423316  0.01510245 -0.0153179   0.          0.01601604
   0.          0.         -0.01753134]] 
Episode: 58: [[ 0.01904379 -0.02382527 -0.02270579 -0.01238341  0.00526009  0.02432403
  -0.00236688 -0.0234841   0.0124681  -0.01428377  0.          0.00631771
   0.          0.          0.01122394]
 [-0.00614947  0.01076355  0.00786836  0.00431098 -0.00538061 -0.01313232
  -0.01020542  0.01356548 -0.00449048 -0.00213899  0.         -0.00706267
   0.          0.         -0.00729285]
 [ 0.0013519  -0.01895699 -0.00919517 -0.01500788  0.00749285  0.02007979
  -0.01577496 -0.01935533  0.01343917 -0.01581224  0.          0.01101516
   0.          0.         -0.01404725]
 [-0.00552057 -0.0119679  -0.00740768 -0.01228332  0.01262715  0.01752323
  -0.0192062  -0.01643315  0.01137187  0.0062836   0.         -0.00515338
   0.          0.         -0.00816855]
 [-0.02126784  0.00142977 -0.0162375  -0.01491702 -0.00965873  0.02467811
   0.01714659 -0.02457229  0.01534947 -0.01554313  0.          0.01626772
   0.          0.         -0.01763551]] 
Episode: 59: [[ 0.01918818 -0.02420807 -0.02310178 -0.01274519  0.00529784  0.02471373
  -0.00246306 -0.02387852  0.01282512 -0.01455588  0.          0.00652163
   0.          0.          0.01122914]
 [-0.00603165  0.01089785  0.00807413  0.00454139 -0.00552013 -0.01341217
  -0.0102448   0.01384225 -0.00470786 -0.00195623  0.         -0.00730625
   0.          0.         -0.00716525]
 [ 0.00148797 -0.01913089 -0.00922136 -0.01502848  0.00764436  0.020365
  -0.01600005 -0.01965335  0.01344697 -0.01596638  0.          0.01118189
   0.          0.         -0.01418934]
 [-0.00538032 -0.01195123 -0.00725459 -0.01220323  0.01280949  0.01774701
  -0.01942292 -0.01666168  0.01127762  0.00623867  0.         -0.00503112
   0.          0.         -0.00825754]
 [-0.02156011  0.00128219 -0.01650463 -0.01518556 -0.00980232  0.02504742
   0.01727442 -0.02494206  0.01561982 -0.01575151  0.          0.01650669
   0.          0.         -0.01766741]] 
Episode: 60: [[ 0.01933805 -0.0245729  -0.02345385 -0.01306571  0.00533265  0.02508077
  -0.00253753 -0.02425041  0.01314168 -0.0147634   0.          0.00669599
   0.          0.          0.01124995]
 [-0.0059251   0.0110434   0.00824585  0.00474848 -0.00565912 -0.01363899
  -0.01026967  0.01407398 -0.00490289 -0.00178798  0.         -0.00754992
   0.          0.         -0.00710921]
 [ 0.00164992 -0.0193042  -0.00924571 -0.01504483  0.00779493  0.02066534
  -0.01622915 -0.01995668  0.01345015 -0.01609111  0.          0.01132378
   0.          0.         -0.01427832]
 [-0.00525482 -0.01196559 -0.00713112 -0.01214387  0.01299064  0.01799018
  -0.01963622 -0.01689998  0.01120456  0.00620049  0.         -0.0049274
   0.          0.         -0.00827841]
 [-0.02184645  0.0011242  -0.01676097 -0.01545044 -0.00993769  0.02540524
   0.01739522 -0.02529744  0.01588571 -0.01595053  0.          0.016756
   0.          0.         -0.0177197 ]] 
Episode: 61: [[ 0.0195176  -0.02491559 -0.02377992 -0.01335079  0.00541406  0.02546172
  -0.00257304 -0.02463406  0.01342016 -0.01495551  0.          0.0068495
   0.          0.          0.01127904]
 [-0.00587303  0.01114252  0.0083682   0.00489014 -0.00576025 -0.01391917
  -0.01032226  0.01437339 -0.00503556 -0.00168184  0.         -0.00775786
   0.          0.         -0.0070415 ]
 [ 0.00173221 -0.01951016 -0.00934442 -0.01513451  0.0079093   0.02093746
  -0.01641622 -0.02020945  0.01352957 -0.0162422   0.          0.01147796
   0.          0.         -0.01443536]
 [-0.00514721 -0.01195823 -0.00704738 -0.01211043  0.0131626   0.01820629
  -0.01982286 -0.01708408  0.01115781  0.00619363  0.         -0.00488321
   0.          0.         -0.00837245]
 [-0.02213255  0.00104667 -0.01695226 -0.01564886 -0.01005341  0.02578467
   0.0175806  -0.02568427  0.01608966 -0.01615331  0.          0.01701136
   0.          0.         -0.01778716]] 
Episode: 62: [[ 0.01970858 -0.02525279 -0.02406817 -0.01359774  0.00553008  0.02582897
  -0.00259636 -0.02499483  0.01365977 -0.01520501  0.          0.0069992
   0.          0.          0.01131362]
 [-0.00579592  0.01122589  0.00849523  0.00503525 -0.00586333 -0.01416628
  -0.01037697  0.01462959 -0.00517149 -0.00150583  0.         -0.00798527
   0.          0.         -0.00697262]
 [ 0.00180119 -0.01970663 -0.00945385 -0.0152307   0.00799778  0.02121353
  -0.01658152 -0.02047161  0.01361782 -0.0163538   0.          0.011613
   0.          0.         -0.01460211]
 [-0.00502912 -0.01189039 -0.00695714 -0.01207116  0.01331568  0.01843597
  -0.0199948  -0.01728284  0.01110532  0.00625235  0.         -0.00490878
   0.          0.         -0.00848674]
 [-0.02240845  0.00089966 -0.01715995 -0.01585039 -0.01015671  0.02612934
   0.0177782  -0.02603296  0.01629688 -0.01638551  0.          0.01729711
   0.          0.         -0.01785457]] 
Episode: 63: [[ 0.01994057 -0.0255976  -0.02433377 -0.01380856  0.00572943  0.02621369
  -0.00262536 -0.02537705  0.01385972 -0.01549166  0.          0.00715807
   0.          0.          0.01134254]
 [-0.00578015  0.01128922  0.00856737  0.00512089 -0.00602792 -0.01444553
  -0.01047967  0.0149257  -0.00524481 -0.00137799  0.         -0.00818852
   0.          0.         -0.00690373]
 [ 0.00178292 -0.01996263 -0.00970018 -0.01541398  0.00795392  0.02150032
  -0.01670068 -0.02073544  0.01380717 -0.01645905  0.          0.01172935
   0.          0.         -0.01478386]
 [-0.00492936 -0.01188665 -0.00694766 -0.01206462  0.0134106   0.01867082
  -0.02014118 -0.01746633  0.01109038  0.00632712  0.         -0.00496208
   0.          0.         -0.00861268]
 [-0.02267633  0.00078177 -0.01730607 -0.01600477 -0.01018643  0.02648505
   0.01796032 -0.02639838  0.01645488 -0.01666213  0.          0.01760184
   0.          0.         -0.01791647]] 
Episode: 64: [[ 0.02016561 -0.02594031 -0.02461877 -0.01402135  0.00584423  0.02660119
  -0.00263848 -0.02575851  0.01406754 -0.01578185  0.          0.00729547
   0.          0.          0.01135157]
 [-0.00574131  0.01132029  0.00864397  0.00521223 -0.0061915  -0.01469748
  -0.01060797  0.01519137 -0.00532245 -0.00126148  0.         -0.00837284
   0.          0.         -0.0068778 ]
 [ 0.00178634 -0.0202149  -0.00993013 -0.01559336  0.00795309  0.02180296
  -0.01683624 -0.02100977  0.01398728 -0.01655409  0.          0.01183825
   0.          0.         -0.0149511 ]
 [-0.00485507 -0.01189082 -0.00695546 -0.01208427  0.01356129  0.01891838
  -0.02030647 -0.01765875  0.01109841  0.00644548  0.         -0.00508238
   0.          0.         -0.00870996]
 [-0.02300704  0.0005989  -0.01752994 -0.01624007 -0.01032133  0.02684798
   0.01815429 -0.02676312  0.01669674 -0.01702122  0.          0.01797736
   0.          0.         -0.01801147]] 
Episode: 65: [[ 0.02040591 -0.0262859  -0.02491969 -0.01422593  0.00597202  0.02699477
  -0.00267772 -0.02615888  0.0142683  -0.01603661  0.          0.00742983
   0.          0.          0.01134859]
 [-0.00579942  0.01133234  0.00870165  0.0052753  -0.00638813 -0.01502847
  -0.01070112  0.01554521 -0.00536749 -0.00120706  0.         -0.00850441
   0.          0.         -0.00687153]
 [ 0.00167088 -0.0204843  -0.01017108 -0.01578404  0.00798864  0.02206276
  -0.01693706 -0.0212454   0.0141789  -0.01676713  0.          0.01201376
   0.          0.         -0.01513063]
 [-0.00481454 -0.01190834 -0.00696569 -0.01210217  0.01370663  0.01911902
  -0.02044336 -0.01780598  0.01110659  0.00645828  0.         -0.00510904
   0.          0.         -0.00882608]
 [-0.02330481  0.00041902 -0.01775943 -0.01647686 -0.01048835  0.02720093
   0.01833266 -0.0271235   0.01694043 -0.01732047  0.          0.01829531
   0.          0.         -0.01813217]] 
Episode: 66: [[ 0.020603   -0.02662291 -0.02522469 -0.0144471   0.0060659   0.0273611
  -0.00272218 -0.0265298   0.01448735 -0.01628622  0.          0.00756987
   0.          0.          0.0113337 ]
 [-0.00579898  0.01137237  0.00880419  0.00538857 -0.00654595 -0.0153316
  -0.01079009  0.01586872 -0.00546519 -0.00112533  0.         -0.00864844
   0.          0.         -0.00687043]
 [ 0.00158303 -0.02074374 -0.01038088 -0.01595543  0.00803861  0.0223043
  -0.01704068 -0.02146368  0.01434913 -0.01695463  0.          0.01218475
   0.          0.         -0.01529573]
 [-0.00476958 -0.01193427 -0.00697134 -0.01211744  0.01386257  0.01930101
  -0.02058176 -0.01793856  0.01111154  0.00647413  0.         -0.0051338
   0.          0.         -0.00892841]
 [-0.02360322  0.00028012 -0.01798699 -0.01671558 -0.01065411  0.02753558
   0.01850911 -0.02746425  0.01718487 -0.01759405  0.          0.01858429
   0.          0.         -0.01825384]] 
Episode: 67: [[ 2.08006166e-02 -2.69467626e-02 -2.55148020e-02 -1.46477977e-02
   6.15199376e-03  2.77144276e-02 -2.74896924e-03 -2.68840026e-02
   1.46871377e-02 -1.65070649e-02  0.00000000e+00  7.67885707e-03
   0.00000000e+00  0.00000000e+00  1.12983137e-02]
 [-5.78225963e-03  1.13962349e-02  8.92452989e-03  5.50878467e-03
  -6.71038171e-03 -1.56183355e-02 -1.08849425e-02  1.61718186e-02
  -5.56957582e-03 -1.03605096e-03  0.00000000e+00 -8.77611525e-03
   0.00000000e+00  0.00000000e+00 -6.86099939e-03]
 [ 1.54192734e-03 -2.09957920e-02 -1.05816843e-02 -1.61099546e-02
   8.06414615e-03  2.25418452e-02 -1.71510763e-02 -2.16766894e-02
   1.45047111e-02 -1.70909297e-02  0.00000000e+00  1.23303654e-02
   0.00000000e+00  0.00000000e+00 -1.54499402e-02]
 [-4.71991487e-03 -1.19852917e-02 -6.98257424e-03 -1.21403309e-02
   1.40115945e-02  1.94759965e-02 -2.07279939e-02 -1.80662554e-02
   1.11242021e-02  6.51115412e-03  0.00000000e+00 -5.17608458e-03
   0.00000000e+00  0.00000000e+00 -9.01530031e-03]
 [-2.39138510e-02  8.41017099e-05 -1.82484314e-02 -1.69881750e-02
  -1.08303828e-02  2.78569777e-02  1.86714549e-02 -2.77895592e-02
   1.74618699e-02 -1.79020055e-02  0.00000000e+00  1.89197715e-02
   0.00000000e+00  0.00000000e+00 -1.83643140e-02]] 
Episode: 68: [[ 0.02096896 -0.02726236 -0.02580427 -0.01486534  0.00620641  0.02804323
  -0.00276688 -0.02721442  0.01490421 -0.0167246   0.          0.00780567
   0.          0.          0.01127063]
 [-0.00579333  0.01141638  0.00902323  0.00560776 -0.00689953 -0.01587484
  -0.0109857   0.01644346 -0.0056513  -0.00095091  0.         -0.008905
   0.          0.         -0.00686303]
 [ 0.00152912 -0.02124616 -0.01075952 -0.01626074  0.0081102   0.02275813
  -0.01725835 -0.02186786  0.01465266 -0.01720317  0.          0.01245076
   0.          0.         -0.01559998]
 [-0.00466714 -0.01204471 -0.00698829 -0.01217172  0.01419752  0.01962412
  -0.02088981 -0.01816863  0.01114253  0.00659005  0.         -0.00528378
   0.          0.         -0.00909381]
 [-0.02424113 -0.00012297 -0.0185194  -0.01726212 -0.01106215  0.02816945
   0.01887072 -0.02810558  0.0177457  -0.01823078  0.          0.01927364
   0.          0.         -0.01848649]] 
Episode: 69: [[ 0.02119099 -0.02758214 -0.02606579 -0.01504378  0.00633832  0.02840207
  -0.00273538 -0.02757665  0.01507801 -0.01696444  0.          0.00791774
   0.          0.          0.01124716]
 [-0.00583063  0.01140514  0.00907157  0.00566472 -0.00717014 -0.01613343
  -0.01110941  0.01671535 -0.00568496 -0.00088056  0.         -0.0090282
   0.          0.         -0.00688405]
 [ 0.00144534 -0.02157204 -0.01108575 -0.01653184  0.00798398  0.02301791
  -0.01739692 -0.02209851  0.01493297 -0.01729136  0.          0.01251438
   0.          0.         -0.01574041]
 [-0.0046399  -0.01210299 -0.00707261 -0.01226823  0.01430979  0.0198123
  -0.02110071 -0.01830178  0.01122873  0.00674671  0.         -0.00545932
   0.          0.         -0.00915897]
 [-0.02461805 -0.00040468 -0.0187869  -0.01751399 -0.01123187  0.02851633
   0.01912521 -0.02845972  0.0180114  -0.0186724   0.          0.01972207
   0.          0.         -0.01860845]] 
Episode: 70: [[ 0.02144392 -0.02786925 -0.0263042  -0.01518265  0.00644873  0.02875631
  -0.00270157 -0.02793756  0.01521325 -0.01715337  0.          0.00798387
   0.          0.          0.0112136 ]
 [-0.00597719  0.01134039  0.00905381  0.00562365 -0.00746443 -0.01640402
  -0.01126801  0.01700641 -0.00562148 -0.00091895  0.         -0.00906443
   0.          0.         -0.00691008]
 [ 0.00132164 -0.02188577 -0.01141181 -0.01680783  0.00788209  0.02327741
  -0.01752632 -0.02233133  0.01521594 -0.0173892   0.          0.01257156
   0.          0.         -0.01587556]
 [-0.00462424 -0.01213466 -0.00715859 -0.01235666  0.01443734  0.02001235
  -0.02127725 -0.01845425  0.01130687  0.00690859  0.         -0.00566424
   0.          0.         -0.00922321]
 [-0.02499334 -0.00078272 -0.0190813  -0.01779546 -0.01146331  0.02885395
   0.01932899 -0.02879926  0.01830933 -0.01915737  0.          0.02021653
   0.          0.         -0.01871879]] 
Episode: 71: [[ 0.02168559 -0.0281696  -0.0265467  -0.01533267  0.00650398  0.02910237
  -0.00269556 -0.0282853   0.01536276 -0.01736948  0.          0.00808396
   0.          0.          0.0111678 ]
 [-0.0060647   0.01128351  0.00907741  0.00561261 -0.00769021 -0.01664063
  -0.01145181  0.01726138 -0.00559364 -0.00094185  0.         -0.0091057
   0.          0.         -0.00694737]
 [ 0.00123393 -0.02218942 -0.01169208 -0.01705755  0.0078269   0.0235473
  -0.01770028 -0.02256768  0.01546744 -0.01748265  0.          0.01264547
   0.          0.         -0.01601127]
 [-0.00462093 -0.01214998 -0.00724445 -0.01245906  0.01460101  0.02022245
  -0.02148231 -0.01861022  0.01139631  0.00709881  0.         -0.00590244
   0.          0.         -0.009297  ]
 [-0.02540581 -0.00120204 -0.01942753 -0.01811693 -0.01173699  0.02919595
   0.0195576  -0.0291374   0.01864926 -0.01967951  0.          0.02075156
   0.          0.         -0.01883288]] 
Episode: 72: [[ 0.02191249 -0.02848952 -0.02682189 -0.01551441  0.0065391   0.02945404
  -0.0026513  -0.02863483  0.01554544 -0.01763336  0.          0.00819333
   0.          0.          0.01113006]
 [-0.00614533  0.01128049  0.00912892  0.00563303 -0.00789098 -0.01686728
  -0.01164734  0.01749802 -0.00559957 -0.00092147  0.         -0.00916802
   0.          0.         -0.00698646]
 [ 0.0011168  -0.02248171 -0.01199009 -0.01732785  0.00775435  0.02381993
  -0.0178374  -0.02281697  0.01573979 -0.01756429  0.          0.01271162
   0.          0.         -0.01617454]
 [-0.00463748 -0.01213657 -0.00735265 -0.01258254  0.01476309  0.02044095
  -0.02166257 -0.0187882   0.01150661  0.00732888  0.         -0.00617047
   0.          0.         -0.00940057]
 [-0.02582944 -0.00161123 -0.01975285 -0.01840253 -0.01199941  0.02954365
   0.01981902 -0.02947998  0.01895813 -0.02023186  0.          0.02129969
   0.          0.         -0.01896127]] 
Episode: 73: [[ 0.02215998 -0.02880389 -0.0270964  -0.01568296  0.00658593  0.02980836
  -0.00261554 -0.0289983   0.0157146  -0.01787721  0.          0.00830067
   0.          0.          0.01108267]
 [-0.00628449  0.01125809  0.00922571  0.00564996 -0.00802301 -0.01714833
  -0.0118886   0.01780586 -0.00560662 -0.00097157  0.         -0.00919597
   0.          0.         -0.00705421]
 [ 0.00100271 -0.02275596 -0.01224026 -0.01757043  0.00771901  0.0240762
  -0.01797849 -0.02304618  0.01598095 -0.0176515   0.          0.01277279
   0.          0.         -0.01630727]
 [-0.00466042 -0.01210083 -0.00743593 -0.01268778  0.01491577  0.0206542
  -0.02180111 -0.01895484  0.0115996   0.00757611  0.         -0.00646452
   0.          0.         -0.00945711]
 [-0.02624716 -0.00205222 -0.02010387 -0.01870507 -0.01224799  0.02989185
   0.02002077 -0.02982627  0.01928177 -0.02082142  0.          0.02187596
   0.          0.         -0.01910186]] 
Episode: 74: [[ 0.02241796 -0.02907641 -0.0273377  -0.01579961  0.00663013  0.03014227
  -0.00261881 -0.02933829  0.01583336 -0.01811131  0.          0.00838341
   0.          0.          0.01102453]
 [-0.00640532  0.01122336  0.00933648  0.00567281 -0.00811841 -0.01740642
  -0.01208686  0.01808713 -0.00562205 -0.00100183  0.         -0.00921243
   0.          0.         -0.00714102]
 [ 0.00087924 -0.02302834 -0.01247427 -0.01780008  0.00768847  0.02432736
  -0.01809946 -0.0232649   0.0162097  -0.01772067  0.          0.01279125
   0.          0.         -0.01641999]
 [-0.00472979 -0.01213261 -0.00756208 -0.01282849  0.01505341  0.02085509
  -0.0219359  -0.01911085  0.01173026  0.00780598  0.         -0.006757
   0.          0.         -0.00950034]
 [-0.0266594  -0.00244476 -0.02046265 -0.01902087 -0.01249118  0.0302337
   0.02021411 -0.03015969  0.01961521 -0.0213497   0.          0.02241017
   0.          0.         -0.01925163]] 
Episode: 75: [[ 0.02264117 -0.02935134 -0.02758795 -0.0159237   0.00658274  0.03046885
  -0.00262179 -0.02967139  0.01596621 -0.01836551  0.          0.00848295
   0.          0.          0.01095684]
 [-0.00649953  0.01117177  0.00945751  0.00570436 -0.00818791 -0.01764947
  -0.01231324  0.01834652 -0.0056474  -0.00103078  0.         -0.00921385
   0.          0.         -0.00724345]
 [ 0.000809   -0.02329264 -0.01267243 -0.01799908  0.00769386  0.0245775
  -0.01824933 -0.0234856   0.01640444 -0.0177787   0.          0.01281894
   0.          0.         -0.01650663]
 [-0.00479221 -0.01217904 -0.00766772 -0.01297444  0.01525247  0.02104403
  -0.02211515 -0.01925719  0.01186165  0.00806443  0.         -0.00707974
   0.          0.         -0.00950069]
 [-0.02711709 -0.00288728 -0.02086196 -0.01940274 -0.0127972   0.03056742
   0.02040884 -0.03048469  0.02001326 -0.0219088   0.          0.02297152
   0.          0.         -0.01939026]] 
Episode: 76: [[ 0.02288049 -0.02963701 -0.02784697 -0.01605567  0.00655563  0.03082131
  -0.00259811 -0.03003536  0.01610525 -0.01862493  0.          0.00855061
   0.          0.          0.01090313]
 [-0.00662858  0.01110891  0.00948701  0.00566837 -0.0083304  -0.01792382
  -0.01256219  0.01863464 -0.00560175 -0.00109339  0.         -0.00919352
   0.          0.         -0.00733704]
 [ 0.00068399 -0.02362301 -0.01297557 -0.01827783  0.00759483  0.0248425
  -0.01838505 -0.02372249  0.01668727 -0.01783439  0.          0.01284004
   0.          0.         -0.0166016 ]
 [-0.00486159 -0.01222423 -0.00782451 -0.01314588  0.01540936  0.02125376
  -0.02228232 -0.01942361  0.01202098  0.00838492  0.         -0.00744602
   0.          0.         -0.00951396]
 [-0.0275868  -0.00334184 -0.02122551 -0.0197615  -0.0130723   0.03092186
   0.02057333 -0.03083462  0.02038904 -0.02251672  0.          0.02356793
   0.          0.         -0.01952646]] 
Episode: 77: [[ 0.02309632 -0.02996602 -0.02812325 -0.01621572  0.00652185  0.03117025
  -0.0025881  -0.03039704  0.01627412 -0.01893402  0.          0.00867235
   0.          0.          0.01086692]
 [-0.00671859  0.01103029  0.00953884  0.00565634 -0.00843888 -0.0181619
  -0.01281082  0.01888845 -0.00558096 -0.0011102   0.         -0.00918679
   0.          0.         -0.00743479]
 [ 0.00060594 -0.02394658 -0.01323094 -0.01851898  0.00754229  0.02513391
  -0.01854615 -0.02398844  0.01692875 -0.01786307  0.          0.0128586
   0.          0.         -0.01666613]
 [-0.00490925 -0.01223209 -0.00794492 -0.0132934   0.01558301  0.0214933
  -0.02244437 -0.01962313  0.01215471  0.00874741  0.         -0.00784768
   0.          0.         -0.00948755]
 [-0.02806758 -0.0038423  -0.02161168 -0.02013799 -0.01336384  0.03127834
   0.02075262 -0.03119176  0.02078343 -0.02315684  0.          0.02419495
   0.          0.         -0.01966371]] 
Episode: 78: [[ 0.02332321 -0.03030418 -0.02838458 -0.01636333  0.00651939  0.03154165
  -0.00256899 -0.03076843  0.01642926 -0.01927238  0.          0.00877728
   0.          0.          0.01082569]
 [-0.00681799  0.01095241  0.00961502  0.00564545 -0.00855011 -0.01845615
  -0.01303431  0.01916958 -0.00556257 -0.00108391  0.         -0.00917041
   0.          0.         -0.0074542 ]
 [ 0.00045931 -0.02427488 -0.01353253 -0.01878381  0.0074595   0.0254022
  -0.01866963 -0.02424978  0.0171985  -0.0179022   0.          0.01291719
   0.          0.         -0.01675831]
 [-0.00497031 -0.01226182 -0.00808896 -0.01344084  0.0157131   0.02170353
  -0.02258151 -0.01981783  0.01229224  0.00906535  0.         -0.00816284
   0.          0.         -0.00951414]
 [-0.0284992  -0.00429255 -0.02195043 -0.02047647 -0.01362691  0.03164327
   0.02091712 -0.03155516  0.02113756 -0.02374614  0.          0.02477136
   0.          0.         -0.01975536]] 
Episode: 79: [[ 0.0235699  -0.03057639 -0.02861635 -0.01646574  0.00651946  0.03187982
  -0.00248339 -0.0311017   0.016538   -0.01955031  0.          0.00881365
   0.          0.          0.01076211]
 [-0.00690714  0.01084328  0.00969046  0.00563282 -0.00863624 -0.01868837
  -0.01319594  0.01938175 -0.0055428  -0.00100086  0.         -0.00915196
   0.          0.         -0.00744488]
 [ 0.00036478 -0.02453419 -0.01377998 -0.01898333  0.00741659  0.02565847
  -0.01882295 -0.02450656  0.01740115 -0.01791532  0.          0.01292973
   0.          0.         -0.01686226]
 [-0.00500749 -0.01229645 -0.00820189 -0.01354632  0.01581477  0.02191083
  -0.02268628 -0.02001882  0.01239048  0.00934011  0.         -0.00844032
   0.          0.         -0.00957673]
 [-0.0289079  -0.00479026 -0.02228903 -0.02082476 -0.01387756  0.03194776
   0.02102253 -0.03183587  0.02149857 -0.02430414  0.          0.02533672
   0.          0.         -0.01982024]] 
Episode: 80: [[ 0.02382984 -0.03085903 -0.02885353 -0.0165621   0.00646771  0.03222129
  -0.00242529 -0.03143756  0.01664465 -0.0198448   0.          0.0088614
   0.          0.          0.01069091]
 [-0.00699089  0.01073258  0.00977538  0.00562498 -0.00871648 -0.01891566
  -0.01337382  0.01958809 -0.00552833 -0.00093173  0.         -0.00911925
   0.          0.         -0.00742876]
 [ 0.00028051 -0.0247971  -0.01400875 -0.01917803  0.00741049  0.02591772
  -0.01901365 -0.0247609   0.01759477 -0.01794339  0.          0.01295543
   0.          0.         -0.0169603 ]
 [-0.00506404 -0.01234358 -0.00832363 -0.01367071  0.01596239  0.02211794
  -0.02281855 -0.02021647  0.012505    0.00963028  0.         -0.00874277
   0.          0.         -0.00963059]
 [-0.02936618 -0.00530685 -0.02267443 -0.02122252 -0.0141998   0.03226553
   0.02114724 -0.0321274   0.02191112 -0.02489653  0.          0.02593536
   0.          0.         -0.01989696]] 
Episode: 81: [[ 0.02407023 -0.03113723 -0.02908945 -0.0166742   0.00638317  0.03255709
  -0.00226814 -0.03176733  0.0167674  -0.02014106  0.          0.00890755
   0.          0.          0.01063171]
 [-0.00706467  0.01058019  0.00988492  0.00562538 -0.00868644 -0.01912499
  -0.01352978  0.0197717  -0.00552761 -0.00085266  0.         -0.00906151
   0.          0.         -0.00732081]
 [ 0.00022794 -0.02501967 -0.01422569 -0.01938427  0.00742905  0.02615921
  -0.01918936 -0.02498952  0.01779284 -0.01793228  0.          0.01293352
   0.          0.         -0.01710313]
 [-0.00515752 -0.01236559 -0.00847118 -0.01385123  0.01616601  0.02228942
  -0.02300146 -0.02036553  0.01267087  0.0099994   0.         -0.00909035
   0.          0.         -0.00974634]
 [-0.02985214 -0.00577178 -0.02302361 -0.02156386 -0.01452907  0.03260782
   0.02139718 -0.03245844  0.02227676 -0.02550039  0.          0.02653439
   0.          0.         -0.01991348]] 
Episode: 82: [[ 2.43169907e-02 -3.14171389e-02 -2.92991344e-02 -1.67706348e-02
   6.41987799e-03  3.28909047e-02 -2.09959736e-03 -3.20971757e-02
   1.68675613e-02 -2.05097646e-02  0.00000000e+00  9.04169492e-03
   0.00000000e+00  0.00000000e+00  1.05331577e-02]
 [-7.17476057e-03  1.04821539e-02  1.00180982e-02  5.64613845e-03
  -8.65015108e-03 -1.93698574e-02 -1.36771603e-02  1.99854486e-02
  -5.54806413e-03 -7.73646287e-04  0.00000000e+00 -9.04746447e-03
   0.00000000e+00  0.00000000e+00 -7.22228922e-03]
 [ 9.10142699e-05 -2.53085662e-02 -1.45404041e-02 -1.96818076e-02
   7.31185125e-03  2.63735373e-02 -1.94337294e-02 -2.51857452e-02
   1.80912353e-02 -1.79241747e-02  0.00000000e+00  1.28901014e-02
   0.00000000e+00  0.00000000e+00 -1.72126796e-02]
 [-5.26954560e-03 -1.24392500e-02 -8.67156032e-03 -1.40870605e-02
   1.62774902e-02  2.24209130e-02 -2.32643913e-02 -2.04636995e-02
   1.28958290e-02  1.03793321e-02  0.00000000e+00 -9.44670662e-03
   0.00000000e+00  0.00000000e+00 -9.82603896e-03]
 [-3.03547718e-02 -6.16840273e-03 -2.32748892e-02 -2.17941627e-02
  -1.46865165e-02  3.29857059e-02  2.17092577e-02 -3.28346863e-02
   2.25325730e-02 -2.61340626e-02  0.00000000e+00  2.71625128e-02
   0.00000000e+00  0.00000000e+00 -1.99401192e-02]] 
Episode: 83: [[ 2.44751815e-02 -3.17119285e-02 -2.95287333e-02 -1.69446636e-02
   6.39254553e-03  3.32113095e-02 -1.98119855e-03 -3.24120112e-02
   1.70452315e-02 -2.08735447e-02  0.00000000e+00  9.18907672e-03
   0.00000000e+00  0.00000000e+00  1.04782302e-02]
 [-7.29550794e-03  1.03824083e-02  1.01493225e-02  5.66119282e-03
  -8.61096475e-03 -1.95946507e-02 -1.38751827e-02  2.01861989e-02
  -5.56317996e-03 -7.47524085e-04  0.00000000e+00 -9.02673230e-03
   0.00000000e+00  0.00000000e+00 -7.16071110e-03]
 [-1.14355225e-05 -2.56239902e-02 -1.48178339e-02 -1.99512132e-02
   7.23218499e-03  2.65854578e-02 -1.97170172e-02 -2.53725983e-02
   1.83596890e-02 -1.79745443e-02  0.00000000e+00  1.29122818e-02
   0.00000000e+00  0.00000000e+00 -1.73150375e-02]
 [-5.29954117e-03 -1.25284987e-02 -8.81327502e-03 -1.42665114e-02
   1.64454821e-02  2.25523468e-02 -2.35453397e-02 -2.05577631e-02
   1.30604040e-02  1.07194530e-02  0.00000000e+00 -9.77121945e-03
   0.00000000e+00  0.00000000e+00 -9.87727381e-03]
 [-3.08715943e-02 -6.55224500e-03 -2.35582422e-02 -2.20721383e-02
  -1.48933297e-02  3.33424583e-02  2.20332947e-02 -3.31972130e-02
   2.28337701e-02 -2.67300513e-02  0.00000000e+00  2.77588107e-02
   0.00000000e+00  0.00000000e+00 -2.00288855e-02]] 
Episode: 84: [[ 2.4449846e-02 -3.2043353e-02 -2.9810470e-02 -1.7303174e-02
   6.3509140e-03  3.3495035e-02 -1.9328716e-03 -3.2693073e-02
   1.7398952e-02 -2.1201832e-02  0.0000000e+00  9.3304189e-03
   0.0000000e+00  0.0000000e+00  1.0434375e-02]
 [-7.1781985e-03  1.0392893e-02  1.0401688e-02  5.8825146e-03
  -8.5440045e-03 -1.9817974e-02 -1.4060893e-02  2.0380171e-02
  -5.7800789e-03 -6.5601425e-04  0.0000000e+00 -9.1383429e-03
   0.0000000e+00  0.0000000e+00 -7.1847816e-03]
 [ 4.4387350e-05 -2.5866406e-02 -1.5033053e-02 -2.0098690e-02
   7.1468316e-03  2.6793219e-02 -2.0003650e-02 -2.5566030e-02
   1.8514089e-02 -1.8006308e-02  0.0000000e+00  1.2953142e-02
   0.0000000e+00  0.0000000e+00 -1.7256068e-02]
 [-5.1382063e-03 -1.2412775e-02 -8.7991524e-03 -1.4269756e-02
   1.6589191e-02  2.2718156e-02 -2.3695214e-02 -2.0714395e-02
   1.3005685e-02  1.1005694e-02  0.0000000e+00 -9.9827573e-03
   0.0000000e+00  0.0000000e+00 -9.8204026e-03]
 [-3.1321935e-02 -6.9436235e-03 -2.3821760e-02 -2.2332720e-02
  -1.5011075e-02  3.3653248e-02  2.2238806e-02 -3.3522293e-02
   2.3109104e-02 -2.7290562e-02  0.0000000e+00  2.8324747e-02
   0.0000000e+00  0.0000000e+00 -2.0099202e-02]] 
Episode: 85: [[ 0.02437236 -0.03240297 -0.03019367 -0.01773067  0.00616707  0.03379256
  -0.00187355 -0.0329886   0.01782927 -0.02152     0.          0.00955749
   0.          0.          0.01032815]
 [-0.00702783  0.01056723  0.01065257  0.00618218 -0.00872132 -0.02003352
  -0.01418271  0.02056561 -0.00606089 -0.0005141   0.         -0.00935399
   0.          0.         -0.00730044]
 [ 0.00014048 -0.02618563 -0.01519662 -0.02021876  0.00713922  0.02702032
  -0.0203497  -0.0257871   0.01863608 -0.01811589  0.          0.01308673
   0.          0.         -0.01709283]
 [-0.00496346 -0.01238831 -0.00868401 -0.01425075  0.01683263  0.02288642
  -0.02400504 -0.02086441  0.01292699  0.01118311  0.         -0.01009429
   0.          0.         -0.0096701 ]
 [-0.03184845 -0.00730148 -0.02415608 -0.02270341 -0.01521832  0.03399321
   0.02241054 -0.03386607  0.02348994 -0.02783078  0.          0.02889333
   0.          0.         -0.02030957]] 
Episode: 86: [[ 0.02432596 -0.03273947 -0.03055678 -0.01812326  0.00602225  0.03408127
  -0.00183563 -0.0332745   0.01822317 -0.02179795  0.          0.00975829
   0.          0.          0.01022375]
 [-0.00688003  0.0106777   0.01084478  0.0064278  -0.00888618 -0.02020806
  -0.01430208  0.02071486 -0.00628805 -0.00044604  0.         -0.00951065
   0.          0.         -0.0074085 ]
 [ 0.00022687 -0.02647306 -0.01533581 -0.02031869  0.00716979  0.02730541
  -0.02067436 -0.02609069  0.01873487 -0.01822409  0.          0.01321387
   0.          0.         -0.0169305 ]
 [-0.00480732 -0.01231812 -0.00855465 -0.01422779  0.01706297  0.02313393
  -0.02429228 -0.02111734  0.01284875  0.01137661  0.         -0.01022647
   0.          0.         -0.0095193 ]
 [-0.03233644 -0.00764825 -0.02447706 -0.0230428  -0.01541419  0.03431632
   0.02256474 -0.03419196  0.02384059 -0.02834094  0.          0.02941724
   0.          0.         -0.02050359]] 
Episode: 87: [[ 0.0242864  -0.03302895 -0.03088405 -0.01847679  0.00587397  0.03436549
  -0.00174771 -0.03355242  0.01857807 -0.02204923  0.          0.00989535
   0.          0.          0.01012178]
 [-0.00680142  0.01072965  0.0109745   0.00658751 -0.00904803 -0.02037231
  -0.01444691  0.02085485 -0.00643088 -0.00043774  0.         -0.00960302
   0.          0.         -0.00747095]
 [ 0.00034281 -0.0267438  -0.01545679 -0.02041344  0.00720413  0.02756491
  -0.02096839 -0.02635542  0.01882618 -0.01833213  0.          0.01331259
   0.          0.         -0.01677066]
 [-0.0046261  -0.01229495 -0.00841486 -0.01420745  0.01728561  0.02334774
  -0.02457631 -0.0213278   0.01277577  0.01161151  0.         -0.01042125
   0.          0.         -0.00934728]
 [-0.03287164 -0.00801128 -0.02486903 -0.02343002 -0.0156513   0.0346247
   0.02276131 -0.03449094  0.0242409  -0.02889544  0.          0.02997478
   0.          0.         -0.02068297]] 
Episode: 88: [[ 0.02424119 -0.03328949 -0.03119618 -0.01879297  0.00575492  0.03460065
  -0.00176889 -0.03378317  0.01889678 -0.02229326  0.          0.01008843
   0.          0.          0.01006356]
 [-0.00672517  0.01078605  0.01113587  0.00677237 -0.00923258 -0.0205282
  -0.01454864  0.02098988 -0.00659651 -0.00039955  0.         -0.0097435
   0.          0.         -0.0075035 ]
 [ 0.00044675 -0.02699916 -0.01553078 -0.02048799  0.0072452   0.02774828
  -0.02126828 -0.02654715  0.01889631 -0.0184349   0.          0.013434
   0.          0.         -0.01669132]
 [-0.00447541 -0.01233045 -0.00824566 -0.01419287  0.01745669  0.02348353
  -0.02487622 -0.02146688  0.01271411  0.01177362  0.         -0.01051894
   0.          0.         -0.00924948]
 [-0.03336158 -0.00842732 -0.02525209 -0.023786   -0.0159173   0.03489295
   0.02295992 -0.03475435  0.02461519 -0.0294564   0.          0.03056247
   0.          0.         -0.02089289]] 
Episode: 89: [[ 0.02420049 -0.03351149 -0.03146992 -0.01907649  0.00571956  0.03482268
  -0.00182396 -0.03400344  0.01917801 -0.02255653  0.          0.01032447
   0.          0.          0.01000583]
 [-0.0066674   0.01080738  0.01130554  0.00690568 -0.00931609 -0.02064609
  -0.01471316  0.02109845 -0.00672208 -0.00043732  0.         -0.00982782
   0.          0.         -0.00757874]
 [ 0.00054745 -0.02728363 -0.01563868 -0.02060591  0.00726064  0.02796246
  -0.02154503 -0.02676523  0.01900912 -0.01855928  0.          0.0135424
   0.          0.         -0.01661654]
 [-0.00432082 -0.01240298 -0.00811921 -0.01419592  0.01760928  0.02365147
  -0.02516678 -0.02163311  0.01267366  0.01195561  0.         -0.0106567
   0.          0.         -0.00913723]
 [-0.03384056 -0.00887169 -0.0255857  -0.02412424 -0.01615152  0.03512055
   0.02313771 -0.03497042  0.02496969 -0.0300324   0.          0.0311626
   0.          0.         -0.02112203]] 
Episode: 90: [[ 0.02417106 -0.03370061 -0.03171007 -0.01931526  0.00569118  0.03501691
  -0.0018229  -0.03420027  0.01941533 -0.02278268  0.          0.01053906
   0.          0.          0.00993995]
 [-0.00660049  0.01083715  0.01145625  0.00703205 -0.00938524 -0.02074797
  -0.01485058  0.02119402 -0.00684201 -0.0004645   0.         -0.00990571
   0.          0.         -0.00764531]
 [ 0.00064358 -0.02754424 -0.0157374  -0.02071322  0.00727707  0.02814575
  -0.02182999 -0.02695382  0.01911153 -0.01867715  0.          0.01362164
   0.          0.         -0.01655094]
 [-0.00419617 -0.01249607 -0.00802301 -0.01421799  0.01774597  0.02378572
  -0.02544068 -0.02177241  0.01265584  0.01212684  0.         -0.01080161
   0.          0.         -0.00904075]
 [-0.03428638 -0.00925341 -0.0259054  -0.02444332 -0.0163683   0.03532477
   0.02331224 -0.0351636   0.02530303 -0.03055048  0.          0.03169698
   0.          0.         -0.02134303]] 
Episode: 91: [[ 0.02413254 -0.03386628 -0.03193837 -0.01954026  0.00559911  0.03519413
  -0.0017869  -0.03437682  0.01964238 -0.02298247  0.          0.01070995
   0.          0.          0.00988869]
 [-0.00653951  0.01085765  0.01160259  0.00715001 -0.00944921 -0.0208345
  -0.01500568  0.02127369 -0.00695396 -0.00049255  0.         -0.00996921
   0.          0.         -0.0077056 ]
 [ 0.00074595 -0.02778689 -0.01582253 -0.02080605  0.00730942  0.02830741
  -0.02209073 -0.02711613  0.0191984  -0.01876957  0.          0.01370694
   0.          0.         -0.0165036 ]
 [-0.00408926 -0.01260583 -0.00794595 -0.01425257  0.0179213   0.02389221
  -0.0257078  -0.02188324  0.01265096  0.0122996   0.         -0.0109431
   0.          0.         -0.00895702]
 [-0.03474856 -0.00964918 -0.02624941 -0.02480397 -0.01663313  0.0355178
   0.02348519 -0.0353388   0.02567668 -0.03105096  0.          0.03222202
   0.          0.         -0.02155119]] 
Episode: 92: [[ 0.02407928 -0.03410174 -0.03222831 -0.01980327  0.00544335  0.03537289
  -0.00179375 -0.03455754  0.01991398 -0.02321466  0.          0.01092428
   0.          0.          0.00981801]
 [-0.00654611  0.01091469  0.0118818   0.00731431 -0.00941367 -0.02100994
  -0.01527996  0.02142099 -0.00712184 -0.0005635   0.         -0.01002002
   0.          0.         -0.00772618]
 [ 0.00079917 -0.02801596 -0.01593809 -0.02095107  0.00727671  0.02839888
  -0.02235465 -0.02722461  0.01933865 -0.01890221  0.          0.01382599
   0.          0.         -0.01645683]
 [-0.00403037 -0.01279041 -0.00791109 -0.01435046  0.01804085  0.02392167
  -0.02602646 -0.02193307  0.01271167  0.01235257  0.         -0.01099304
   0.          0.         -0.00885031]
 [-0.03520441 -0.00984537 -0.02651033 -0.02509316 -0.01681262  0.03575602
   0.02369884 -0.03556374  0.02597636 -0.03144993  0.          0.03261631
   0.          0.         -0.02166979]] 
Episode: 93: [[ 0.02399615 -0.03433467 -0.03255215 -0.02009397  0.00518077  0.03551982
  -0.00185006 -0.03470909  0.02021882 -0.02342946  0.          0.01117487
   0.          0.          0.00974329]
 [-0.00652962  0.01100179  0.01215825  0.00749282 -0.00937354 -0.02111344
  -0.01559485  0.02150872 -0.00730454 -0.00060529  0.         -0.01008252
   0.          0.         -0.00775759]
 [ 0.00092785 -0.02814234 -0.0159448  -0.02097135  0.00732253  0.02851789
  -0.02264252 -0.02736607  0.01935246 -0.01899194  0.          0.0139255
   0.          0.         -0.01640396]
 [-0.00394249 -0.0128849  -0.00778489 -0.0143855   0.01824715  0.02397507
  -0.0263601  -0.02201385  0.01270846  0.01241602  0.         -0.01103914
   0.          0.         -0.00875011]
 [-0.0357138  -0.01022969 -0.02689447 -0.02549998 -0.01713737  0.03596411
   0.02388042 -0.03572836  0.02639603 -0.03190128  0.          0.03308755
   0.          0.         -0.02175907]] 
Episode: 94: [[ 0.02395775 -0.03460124 -0.0328547  -0.02037307  0.00505097  0.03568375
  -0.00196823 -0.03487223  0.02050477 -0.02369337  0.          0.0114563
   0.          0.          0.00971094]
 [-0.00647018  0.0111187   0.01242387  0.00766718 -0.0093528  -0.02117839
  -0.01580967  0.02155832 -0.00748486 -0.00058645  0.         -0.01020797
   0.          0.         -0.00781705]
 [ 0.00103975 -0.02830028 -0.01599543 -0.02103608  0.00731838  0.02871075
  -0.02299322 -0.02760378  0.01941318 -0.01902591  0.          0.01399691
   0.          0.         -0.01629073]
 [-0.00385458 -0.01294894 -0.00766343 -0.01443164  0.01839677  0.0241188
  -0.02672671 -0.02220218  0.01271943  0.01253811  0.         -0.01114193
   0.          0.         -0.0085837 ]
 [-0.03619456 -0.01062813 -0.0272543  -0.02585385 -0.01737707  0.03617852
   0.0240947  -0.03589809  0.02676314 -0.03235239  0.          0.03354608
   0.          0.         -0.02184553]] 
Episode: 95: [[ 0.0239518  -0.03487221 -0.03314564 -0.0206495   0.00494532  0.03587532
  -0.00208103 -0.03506435  0.02078496 -0.0239502   0.          0.01169876
   0.          0.          0.00968024]
 [-0.00644007  0.01120473  0.01265693  0.00780007 -0.0093316  -0.0212549
  -0.01606656  0.02161491 -0.00762418 -0.00059949  0.         -0.01029
   0.          0.         -0.00791259]
 [ 0.00115885 -0.02848966 -0.01607107 -0.02112871  0.00731133  0.0289202
  -0.02330974 -0.02785045  0.01950041 -0.0190504   0.          0.01405451
   0.          0.         -0.01617373]
 [-0.00377018 -0.01301062 -0.00757266 -0.01448879  0.01855855  0.02428421
  -0.02705268 -0.02240315  0.01274229  0.01272431  0.         -0.01130981
   0.          0.         -0.00838927]
 [-0.0366657  -0.01101497 -0.02755669 -0.02617538 -0.01762196  0.03640784
   0.024289   -0.03608553  0.02710001 -0.03282066  0.          0.03401093
   0.          0.         -0.02194558]] 
Episode: 96: [[ 0.02394183 -0.0351106  -0.03339655 -0.02089131  0.00486354  0.0360495
  -0.00227234 -0.03523338  0.02102951 -0.02424951  0.          0.0119579
   0.          0.          0.00960315]
 [-0.00645086  0.01127762  0.01288088  0.00791118 -0.00931381 -0.02131635
  -0.01630469  0.02164987 -0.00774153 -0.00062158  0.         -0.01035047
   0.          0.         -0.00804684]
 [ 0.00123126 -0.0287373  -0.01611966 -0.02123361  0.00733829  0.02908623
  -0.02368495 -0.0280476   0.01959649 -0.01914043  0.          0.01415501
   0.          0.         -0.01608719]
 [-0.00372107 -0.01311955 -0.00751619 -0.01456684  0.01872172  0.02440447
  -0.02739579 -0.02255725  0.01278812  0.01285992  0.         -0.01140345
   0.          0.         -0.00824343]
 [-0.03712039 -0.01133069 -0.02784284 -0.02647507 -0.01796434  0.03665256
   0.02455882 -0.03627358  0.02742342 -0.03321669  0.          0.03439947
   0.          0.         -0.02211364]] 
Episode: 97: [[ 0.0239126  -0.03531564 -0.03364096 -0.02113033  0.00479105  0.03622793
  -0.00245444 -0.03541955  0.02127006 -0.02449438  0.          0.01216756
   0.          0.          0.00954495]
 [-0.00639486  0.0113557   0.01314131  0.00805262 -0.00921843 -0.02138059
  -0.01649611  0.02170061 -0.00789564 -0.00064625  0.         -0.01041378
   0.          0.         -0.00816284]
 [ 0.00138021 -0.02897114 -0.01609778 -0.0212929   0.00744955  0.02926048
  -0.0241233  -0.028264    0.01963823 -0.01925471  0.          0.01427295
   0.          0.         -0.01596064]
 [-0.00362407 -0.01325703 -0.00741724 -0.01460409  0.01892645  0.02452841
  -0.02775942 -0.02273785  0.01279377  0.01297232  0.         -0.0114523
   0.          0.         -0.00805074]
 [-0.03761112 -0.01171298 -0.02817588 -0.02683416 -0.01830191  0.03688119
   0.02478134 -0.03642567  0.02780149 -0.03366525  0.          0.03482851
   0.          0.         -0.0222644 ]] 
Episode: 98: [[ 0.02392372 -0.03560083 -0.0339288  -0.02137948  0.00477923  0.0364316
  -0.00264055 -0.03563655  0.02152149 -0.02480319  0.          0.01241786
   0.          0.          0.00947276]
 [-0.00639174  0.01153187  0.01347462  0.00823559 -0.00915406 -0.02150802
  -0.01667027  0.0218192  -0.00809267 -0.00061559  0.         -0.01052946
   0.          0.         -0.00827667]
 [ 0.0014749  -0.02917971 -0.01609106 -0.02136559  0.00754509  0.02944302
  -0.02452816 -0.02849191  0.01969453 -0.01934175  0.          0.01436922
   0.          0.         -0.01582991]
 [-0.00354507 -0.01335033 -0.00732788 -0.01464408  0.01909249  0.02466883
  -0.02807612 -0.02293712  0.01280541  0.01312508  0.         -0.01153389
   0.          0.         -0.0078447 ]
 [-0.03805986 -0.01211008 -0.02848228 -0.02715353 -0.01857158  0.03710228
   0.02496583 -0.03657504  0.02813805 -0.03411909  0.          0.03525189
   0.          0.         -0.02240283]] 
Episode: 99: [[ 0.02390241 -0.03589958 -0.03424107 -0.02166603  0.00468002  0.03665916
  -0.00276276 -0.03588154  0.02181379 -0.0250563   0.          0.01267695
   0.          0.          0.00937119]
 [-0.00635916  0.01170595  0.01381575  0.00844128 -0.0091137  -0.02167276
  -0.01681154  0.02198855 -0.00830941 -0.00060975  0.         -0.01068726
   0.          0.         -0.00846624]
 [ 0.00158938 -0.02936825 -0.01607842 -0.02143912  0.00767225  0.02962339
  -0.0249292  -0.0287041   0.0197468  -0.0194056   0.          0.01448151
   0.          0.         -0.01565345]
 [-0.0034405  -0.01342967 -0.00721816 -0.01466154  0.01929708  0.02480442
  -0.02839026 -0.02311896  0.01279416  0.01328494  0.         -0.01160947
   0.          0.         -0.00756106]
 [-0.03851232 -0.01245669 -0.02880253 -0.02748486 -0.01892742  0.03735461
   0.02520968 -0.03677187  0.02849116 -0.03452287  0.          0.03563734
   0.          0.         -0.02258665]] 
Episode: 100: [[ 0.02382453 -0.03622756 -0.03455084 -0.02198649  0.00451879  0.03686599
  -0.00305256 -0.03609668  0.02214242 -0.02533507  0.          0.0129388
   0.          0.          0.00929787]
 [-0.00628766  0.01184073  0.01420882  0.00867741 -0.00907948 -0.02184411
  -0.01710535  0.02216085 -0.00855563 -0.0006437   0.         -0.01081172
   0.          0.         -0.00872077]
 [ 0.00167856 -0.02954722 -0.01605064 -0.02151223  0.00779759  0.02979511
  -0.02532471 -0.02889526  0.01979828 -0.01946673  0.          0.0146549
   0.          0.         -0.01548287]
 [-0.00335559 -0.01348077 -0.00713385 -0.01467916  0.01952172  0.02493764
  -0.028681   -0.02328566  0.01278419  0.01342744  0.         -0.01165786
   0.          0.         -0.00726078]
