Episode: 1: [[0. 0. 0. 0. 0. 0. 0. 0. 0. 0.]
 [0. 0. 0. 0. 0. 0. 0. 0. 0. 0.]
 [0. 0. 0. 0. 0. 0. 0. 0. 0. 0.]
 [0. 0. 0. 0. 0. 0. 0. 0. 0. 0.]
 [0. 0. 0. 0. 0. 0. 0. 0. 0. 0.]] 
Episode: 2: [[ 0.0005     -0.00049999 -0.00049999  0.0005     -0.0005      0.
  -0.0005      0.          0.         -0.0005    ]
 [ 0.0005     -0.0005      0.00049988  0.0005     -0.0005      0.
  -0.0005      0.          0.          0.0005    ]
 [ 0.0005     -0.0005     -0.0005      0.0005      0.0005      0.
   0.0005      0.          0.          0.0005    ]
 [ 0.0005      0.0005     -0.0005      0.0005      0.0005      0.
   0.0005      0.          0.         -0.0005    ]
 [ 0.0005     -0.0005     -0.00049999  0.0005      0.0005      0.
  -0.0005      0.          0.          0.0005    ]] 
Episode: 3: [[ 0.00092706 -0.00025645 -0.00099318  0.00068132 -0.00025747  0.
  -0.00026988  0.          0.         -0.00089175]
 [ 0.00098873 -0.00017054  0.00013222  0.00063221 -0.00015611  0.
  -0.0003059   0.          0.          0.00013593]
 [ 0.00099171 -0.00060938 -0.00100062  0.00070502  0.00097049  0.
   0.00096092  0.          0.          0.00099759]
 [ 0.00099551  0.00020074 -0.00099367  0.00070215  0.00095609  0.
   0.00023733  0.          0.         -0.00088419]
 [ 0.00099448 -0.00038636 -0.0009237   0.00076858  0.00097784  0.
  -0.00062194  0.          0.          0.00055339]] 
Episode: 4: [[ 1.3853949e-03 -4.2476054e-04 -1.3435313e-03  8.1578997e-04
  -2.8590803e-04  0.0000000e+00  2.0209678e-05  0.0000000e+00
   0.0000000e+00 -1.2529868e-03]
 [ 1.4571686e-03  1.9058028e-04 -5.4661123e-05  7.0793269e-04
   2.4352592e-04  0.0000000e+00 -1.5299015e-04  0.0000000e+00
   0.0000000e+00 -1.0319516e-04]
 [ 1.4386679e-03 -4.3546228e-04 -1.4974214e-03  8.8688277e-04
   1.4480029e-03  0.0000000e+00  7.9765532e-04  0.0000000e+00
   0.0000000e+00  1.4783829e-03]
 [ 1.4399374e-03  4.1894568e-04 -1.4787127e-03  9.3738857e-04
   1.3744647e-03  0.0000000e+00 -3.7247442e-05  0.0000000e+00
   0.0000000e+00 -1.2256583e-03]
 [ 1.4351823e-03 -1.8785569e-04 -1.1206762e-03  9.2556037e-04
   1.2332816e-03  0.0000000e+00 -8.3617138e-04  0.0000000e+00
   0.0000000e+00  8.6402422e-04]] 
Episode: 5: [[ 0.00161937 -0.00046959 -0.00173311  0.0005948  -0.00025802  0.
   0.00021606  0.          0.         -0.00165996]
 [ 0.00144515  0.00053428 -0.00036899  0.00044189  0.0002994   0.
  -0.00032862  0.          0.         -0.00044524]
 [ 0.00140258 -0.00056315 -0.00136756  0.00064828  0.00122711  0.
   0.00048678  0.          0.          0.00124048]
 [ 0.00155665  0.00018074 -0.00133092  0.00075208  0.00115069  0.
  -0.00037885  0.          0.         -0.00116927]
 [ 0.00145745 -0.0004135  -0.00087454  0.00071907  0.0009906   0.
  -0.00082333  0.          0.          0.00065344]] 
Episode: 6: [[ 0.00194209 -0.00029824 -0.00209427  0.00032423 -0.00011507  0.
   0.00051575  0.          0.         -0.00157892]
 [ 0.00152931  0.00064431 -0.00073155  0.00020062  0.00022364  0.
  -0.00037238  0.          0.         -0.00047092]
 [ 0.00144691 -0.00084533 -0.00117347  0.00048576  0.00092664  0.
   0.00047354  0.          0.          0.00118922]
 [ 0.00174931 -0.0001469  -0.0012027   0.00068616  0.00085848  0.
  -0.00068251  0.          0.         -0.00094913]
 [ 0.00157544 -0.00074055 -0.00056015  0.00072     0.00066576  0.
  -0.00065673  0.          0.          0.00070255]] 
Episode: 7: [[ 2.2996145e-03  4.5875305e-07 -2.4349622e-03  2.3798920e-04
   1.6376140e-04  0.0000000e+00  7.6406059e-04  0.0000000e+00
   0.0000000e+00 -1.5379074e-03]
 [ 1.6751973e-03  6.4871041e-04 -1.1383708e-03  5.1807368e-05
   1.5459253e-04  0.0000000e+00 -3.9903022e-04  0.0000000e+00
   0.0000000e+00 -5.4933166e-04]
 [ 1.4885804e-03 -1.1636408e-03 -9.1414299e-04  3.9076328e-04
   6.3208101e-04  0.0000000e+00  4.8297353e-04  0.0000000e+00
   0.0000000e+00  1.1054864e-03]
 [ 2.0141518e-03 -4.6744829e-04 -9.8481588e-04  7.7181676e-04
   5.5639545e-04  0.0000000e+00 -7.3736539e-04  0.0000000e+00
   0.0000000e+00 -7.5754250e-04]
 [ 1.7262124e-03 -1.0714156e-03 -1.8412714e-04  7.6013670e-04
   3.1730384e-04  0.0000000e+00 -5.2003603e-04  0.0000000e+00
   0.0000000e+00  7.0036144e-04]] 
Episode: 8: [[ 2.6313339e-03  2.7643962e-04 -2.7175595e-03  1.6435469e-04
   3.7433527e-04  0.0000000e+00  9.8509784e-04  0.0000000e+00
   0.0000000e+00 -1.5553612e-03]
 [ 1.8349974e-03  6.0265051e-04 -1.4431803e-03 -7.2614886e-05
   5.0775052e-05  0.0000000e+00 -4.3457575e-04  0.0000000e+00
   0.0000000e+00 -6.7495258e-04]
 [ 1.4787286e-03 -1.4863481e-03 -6.2251755e-04  3.2145838e-04
   3.6534516e-04  0.0000000e+00  4.9971620e-04  0.0000000e+00
   0.0000000e+00  1.0018498e-03]
 [ 2.1905601e-03 -7.6447771e-04 -7.7972573e-04  8.5439830e-04
   2.9681023e-04  0.0000000e+00 -8.0707512e-04  0.0000000e+00
   0.0000000e+00 -5.5018190e-04]
 [ 1.8074128e-03 -1.3744888e-03  1.9358587e-04  7.9224375e-04
   1.3504367e-05  0.0000000e+00 -3.5951030e-04  0.0000000e+00
   0.0000000e+00  6.6878594e-04]] 
Episode: 9: [[ 2.4305684e-03  5.6801044e-04 -3.0671875e-03  2.1952066e-04
   2.8274432e-04  0.0000000e+00  8.6246314e-04  0.0000000e+00
   0.0000000e+00 -1.7974605e-03]
 [ 1.6251369e-03  7.7498576e-04 -1.3838388e-03 -2.0928586e-04
   2.0560129e-04  0.0000000e+00 -6.7448651e-04  0.0000000e+00
   0.0000000e+00 -9.0266910e-04]
 [ 1.4897046e-03 -1.5389906e-03 -2.8390359e-04  3.4741720e-04
   2.0893985e-04  0.0000000e+00  6.9649384e-04  0.0000000e+00
   0.0000000e+00  1.0911464e-03]
 [ 2.3745724e-03 -9.0767018e-04 -5.4903037e-04  1.0553750e-03
   5.8743342e-05  0.0000000e+00 -6.6070800e-04  0.0000000e+00
   0.0000000e+00 -2.5450770e-04]
 [ 1.8849870e-03 -1.4418783e-03  6.0788920e-04  9.9182315e-04
  -3.3739125e-04  0.0000000e+00 -8.5072337e-05  0.0000000e+00
   0.0000000e+00  5.9841905e-04]] 
Episode: 10: [[ 2.2634387e-03  8.5823762e-04 -3.4075687e-03  2.4582559e-04
   3.1082673e-04  0.0000000e+00  9.1094308e-04  0.0000000e+00
   0.0000000e+00 -1.9572526e-03]
 [ 1.4520024e-03  9.0733968e-04 -1.3543019e-03 -3.8395962e-04
   2.5987820e-04  0.0000000e+00 -7.7284651e-04  0.0000000e+00
   0.0000000e+00 -1.1448500e-03]
 [ 1.6128937e-03 -1.7144729e-03 -5.6021887e-05  2.9202786e-04
   6.8302018e-07  0.0000000e+00  8.9051499e-04  0.0000000e+00
   0.0000000e+00  1.0743923e-03]
 [ 2.6284561e-03 -1.1686441e-03 -5.3899520e-04  1.1786233e-03
  -1.6941212e-04  0.0000000e+00 -6.8355288e-04  0.0000000e+00
   0.0000000e+00  1.0300959e-04]
 [ 2.0801343e-03 -1.5719209e-03  6.0535851e-04  1.0729627e-03
  -5.4044963e-04  0.0000000e+00  1.0646461e-04  0.0000000e+00
   0.0000000e+00  4.3032991e-04]] 
Episode: 11: [[ 0.00210872  0.0010688  -0.00367682  0.00026666  0.00029936  0.
   0.00099165  0.          0.         -0.00209424]
 [ 0.00129204  0.00108566 -0.00133103 -0.00052961  0.00036606  0.
  -0.00083376  0.          0.         -0.00134431]
 [ 0.00162345 -0.00173217  0.00014073  0.00025859 -0.00012017  0.
   0.00111596  0.          0.          0.00109397]
 [ 0.00275092 -0.001228   -0.00054418  0.00127105 -0.00028924  0.
  -0.0006596   0.          0.          0.00032289]
 [ 0.00214114 -0.00160487  0.00059594  0.00114797 -0.00070084  0.
   0.0002492   0.          0.          0.00032243]] 
Episode: 12: [[ 0.0019696   0.00125741 -0.00391759  0.00030594  0.00029407  0.
   0.0010728   0.          0.         -0.00222023]
 [ 0.00114635  0.00124051 -0.00130738 -0.00064321  0.00046266  0.
  -0.00088322  0.          0.         -0.00153342]
 [ 0.00162767 -0.00175548  0.0003202   0.0002435  -0.00022979  0.
   0.0013215   0.          0.          0.00110674]
 [ 0.00286113 -0.00128321 -0.00054668  0.00136788 -0.00039715  0.
  -0.00062603  0.          0.          0.00053706]
 [ 0.00219536 -0.0016312   0.00058852  0.00123505 -0.00084461  0.
   0.00037785  0.          0.          0.00022111]] 
Episode: 13: [[ 0.00184452  0.00140006 -0.00418848  0.00030122  0.00025363  0.
   0.00113414  0.          0.         -0.00228746]
 [ 0.0010091   0.00139604 -0.00132714 -0.00076893  0.00058904  0.
  -0.00094459  0.          0.         -0.00171729]
 [ 0.00164119 -0.001812    0.00044292  0.00022023 -0.00035375  0.
   0.0015066   0.          0.          0.00109846]
 [ 0.00300949 -0.00136853 -0.00054955  0.00145753 -0.00052979  0.
  -0.00060864  0.          0.          0.00075391]
 [ 0.00228118 -0.0016841   0.00057853  0.00131885 -0.00098899  0.
   0.00051933  0.          0.          0.00011108]] 
Episode: 14: [[ 1.7441654e-03  1.5252752e-03 -4.4344142e-03  3.3011756e-04
   2.0912665e-04  0.0000000e+00  1.1979588e-03  0.0000000e+00
   0.0000000e+00 -2.3544650e-03]
 [ 9.2269917e-04  1.5169448e-03 -1.2902300e-03 -8.4325916e-04
   6.9319922e-04  0.0000000e+00 -9.8032854e-04  0.0000000e+00
   0.0000000e+00 -1.9205718e-03]
 [ 1.6572245e-03 -1.8707354e-03  5.5794686e-04  2.3844531e-04
  -4.5098175e-04  0.0000000e+00  1.7146716e-03  0.0000000e+00
   0.0000000e+00  1.1099500e-03]
 [ 3.1340288e-03 -1.4271539e-03 -6.0007430e-04  1.5853822e-03
  -6.2388758e-04  0.0000000e+00 -5.2968378e-04  0.0000000e+00
   0.0000000e+00  9.4931165e-04]
 [ 2.3508547e-03 -1.7025165e-03  5.4734421e-04  1.4424965e-03
  -1.0790392e-03  0.0000000e+00  6.5460068e-04  0.0000000e+00
   0.0000000e+00  2.8747985e-05]] 
Episode: 15: [[ 1.6680558e-03  1.6196516e-03 -4.6585081e-03  4.4265631e-04
   1.3361864e-04  0.0000000e+00  1.2515130e-03  0.0000000e+00
   0.0000000e+00 -2.4616194e-03]
 [ 8.4272306e-04  1.5968059e-03 -1.2731650e-03 -8.3239173e-04
   8.0987456e-04  0.0000000e+00 -1.0255951e-03  0.0000000e+00
   0.0000000e+00 -2.1699618e-03]
 [ 1.7674807e-03 -1.9651060e-03  6.2214909e-04  3.3504539e-04
  -5.3937605e-04  0.0000000e+00  1.9119623e-03  0.0000000e+00
   0.0000000e+00  1.0808790e-03]
 [ 3.3281271e-03 -1.5246010e-03 -6.8069203e-04  1.7883645e-03
  -7.3061173e-04  0.0000000e+00 -4.5376207e-04  0.0000000e+00
   0.0000000e+00  1.1598603e-03]
 [ 2.5211896e-03 -1.7821683e-03  5.1980029e-04  1.6120402e-03
  -1.2056526e-03  0.0000000e+00  8.1782794e-04  0.0000000e+00
   0.0000000e+00 -6.0433857e-05]] 
Episode: 16: [[ 0.00159241  0.00175702 -0.00491451  0.00055775  0.00015119  0.
   0.00131146  0.          0.         -0.00256068]
 [ 0.00073433  0.00152906 -0.00136044 -0.00083207  0.00078026  0.
  -0.00107128  0.          0.         -0.00244913]
 [ 0.00181831 -0.00218184  0.00068866  0.00042055 -0.00074837  0.
   0.00213319  0.          0.          0.00099258]
 [ 0.00344236 -0.00171196 -0.0006467   0.00199279 -0.00095204  0.
  -0.00026964  0.          0.          0.00122092]
 [ 0.0026339  -0.00198724  0.00054682  0.0017936  -0.00144907  0.
   0.00100813  0.          0.         -0.00017857]] 
Episode: 17: [[ 1.5105297e-03  1.8680681e-03 -5.2168197e-03  6.6983094e-04
   1.3404585e-04  0.0000000e+00  1.3992526e-03  0.0000000e+00
   0.0000000e+00 -2.6368860e-03]
 [ 6.1794213e-04  1.4336141e-03 -1.4573302e-03 -8.3865982e-04
   7.3481025e-04  0.0000000e+00 -1.1001118e-03  0.0000000e+00
   0.0000000e+00 -2.7364977e-03]
 [ 1.9561884e-03 -2.4282185e-03  7.5287983e-04  5.0011661e-04
  -9.4799488e-04  0.0000000e+00  2.3757410e-03  0.0000000e+00
   0.0000000e+00  8.8740193e-04]
 [ 3.6227349e-03 -1.9210180e-03 -6.1378028e-04  2.1875531e-03
  -1.1508005e-03  0.0000000e+00 -7.5536045e-05  0.0000000e+00
   0.0000000e+00  1.3142976e-03]
 [ 2.8182736e-03 -2.1896081e-03  5.6612882e-04  1.9589886e-03
  -1.6620425e-03  0.0000000e+00  1.1891462e-03  0.0000000e+00
   0.0000000e+00 -2.9523138e-04]] 
Episode: 18: [[ 1.4541444e-03  1.9204068e-03 -5.5741044e-03  5.7240500e-04
   1.1825562e-04  0.0000000e+00  1.6537318e-03  0.0000000e+00
   0.0000000e+00 -2.5226276e-03]
 [ 5.2074721e-04  1.2679120e-03 -1.4851638e-03 -1.0203451e-03
   5.7319325e-04  0.0000000e+00 -9.6243765e-04  0.0000000e+00
   0.0000000e+00 -2.8648621e-03]
 [ 2.2101167e-03 -2.7181527e-03  8.2429271e-04  3.6609205e-04
  -1.1991592e-03  0.0000000e+00  2.5368151e-03  0.0000000e+00
   0.0000000e+00  8.0568547e-04]
 [ 3.8569209e-03 -2.2027248e-03 -7.3394302e-04  2.2942326e-03
  -1.4027392e-03  0.0000000e+00 -3.1179963e-05  0.0000000e+00
   0.0000000e+00  1.5015798e-03]
 [ 3.1160973e-03 -2.4551069e-03  5.2290206e-04  1.9355218e-03
  -1.8199274e-03  0.0000000e+00  1.2228201e-03  0.0000000e+00
   0.0000000e+00 -4.3234142e-04]] 
Episode: 19: [[ 1.3909653e-03  1.9852167e-03 -5.9258305e-03  4.9342227e-04
   1.1542269e-04  0.0000000e+00  1.8967495e-03  0.0000000e+00
   0.0000000e+00 -2.3915302e-03]
 [ 4.0909252e-04  1.0889670e-03 -1.4963811e-03 -1.1895462e-03
   3.7802538e-04  0.0000000e+00 -8.3008246e-04  0.0000000e+00
   0.0000000e+00 -2.9315716e-03]
 [ 2.4941666e-03 -3.0127184e-03  8.8262180e-04  2.4612181e-04
  -1.4491751e-03  0.0000000e+00  2.7135205e-03  0.0000000e+00
   0.0000000e+00  7.5264339e-04]
 [ 4.1324003e-03 -2.4853889e-03 -8.5091800e-04  2.4074954e-03
  -1.6344568e-03  0.0000000e+00  2.5977535e-05  0.0000000e+00
   0.0000000e+00  1.6514104e-03]
 [ 3.4231418e-03 -2.7208517e-03  4.7716094e-04  1.9226192e-03
  -1.9548705e-03  0.0000000e+00  1.2529721e-03  0.0000000e+00
   0.0000000e+00 -5.4397440e-04]] 
Episode: 20: [[ 1.2937717e-03  2.0314788e-03 -6.1364318e-03  2.3970452e-04
   8.1384620e-05  0.0000000e+00  2.1841521e-03  0.0000000e+00
   0.0000000e+00 -2.3620443e-03]
 [ 2.5065336e-04  9.4235188e-04 -1.4708060e-03 -1.4837020e-03
   1.5595253e-04  0.0000000e+00 -6.0521421e-04  0.0000000e+00
   0.0000000e+00 -3.0855327e-03]
 [ 2.6891467e-03 -3.3525419e-03  1.0447375e-03 -2.3743307e-05
  -1.7801884e-03  0.0000000e+00  2.9471745e-03  0.0000000e+00
   0.0000000e+00  5.8613892e-04]
 [ 4.3192641e-03 -2.8425967e-03 -9.2213094e-04  2.2315977e-03
  -1.9589548e-03  0.0000000e+00  8.7671644e-05  0.0000000e+00
   0.0000000e+00  1.8789079e-03]
 [ 3.6707916e-03 -3.0008084e-03  5.3472997e-04  1.7219278e-03
  -2.1480287e-03  0.0000000e+00  1.1455677e-03  0.0000000e+00
   0.0000000e+00 -8.0782111e-04]] 
Episode: 21: [[ 1.2041378e-03  2.0626083e-03 -6.3520195e-03  2.0432606e-05
   3.1865762e-05  0.0000000e+00  2.4601489e-03  0.0000000e+00
   0.0000000e+00 -2.3416721e-03]
 [ 9.1589027e-05  8.0353592e-04 -1.4680934e-03 -1.7458174e-03
  -3.8663638e-05  0.0000000e+00 -3.8537549e-04  0.0000000e+00
   0.0000000e+00 -3.2310977e-03]
 [ 2.8917405e-03 -3.6724745e-03  1.1953753e-03 -2.6218593e-04
  -2.0865563e-03  0.0000000e+00  3.1959361e-03  0.0000000e+00
   0.0000000e+00  4.2417401e-04]
 [ 4.5335572e-03 -3.1757262e-03 -9.8639075e-04  2.0827677e-03
  -2.2637099e-03  0.0000000e+00  1.9215875e-04  0.0000000e+00
   0.0000000e+00  2.1087455e-03]
 [ 3.9178245e-03 -3.2625217e-03  5.9557025e-04  1.5503097e-03
  -2.3315561e-03  0.0000000e+00  1.0700744e-03  0.0000000e+00
   0.0000000e+00 -1.0521499e-03]] 
Episode: 22: [[ 1.0817697e-03  2.1936977e-03 -6.6740783e-03 -2.2612658e-04
  -6.1291685e-05  0.0000000e+00  2.6600258e-03  0.0000000e+00
   0.0000000e+00 -2.3855956e-03]
 [-1.5209094e-04  7.0986059e-04 -1.5113743e-03 -2.0277817e-03
  -2.5047062e-04  0.0000000e+00 -1.5100793e-04  0.0000000e+00
   0.0000000e+00 -3.3077481e-03]
 [ 3.1818298e-03 -4.0282388e-03  1.3847196e-03 -4.9790385e-04
  -2.4229330e-03  0.0000000e+00  3.4620315e-03  0.0000000e+00
   0.0000000e+00  3.5077104e-04]
 [ 4.7930013e-03 -3.5221751e-03 -9.9054654e-04  1.9845713e-03
  -2.5809356e-03  0.0000000e+00  3.8278973e-04  0.0000000e+00
   0.0000000e+00  2.3456856e-03]
 [ 4.2268117e-03 -3.4980415e-03  5.6847464e-04  1.3761875e-03
  -2.5348209e-03  0.0000000e+00  9.0407475e-04  0.0000000e+00
   0.0000000e+00 -1.3303135e-03]] 
Episode: 23: [[ 9.6181611e-04  2.3262124e-03 -7.0087006e-03 -4.6675091e-04
  -1.9786102e-04  0.0000000e+00  2.8381925e-03  0.0000000e+00
   0.0000000e+00 -2.4306912e-03]
 [-3.6039142e-04  6.1055855e-04 -1.5567539e-03 -2.3034059e-03
  -4.6528364e-04  0.0000000e+00  4.7517704e-05  0.0000000e+00
   0.0000000e+00 -3.4182919e-03]
 [ 3.5211714e-03 -4.3876613e-03  1.5742246e-03 -7.3265960e-04
  -2.7447499e-03  0.0000000e+00  3.6539328e-03  0.0000000e+00
   0.0000000e+00  2.4937381e-04]
 [ 5.0907121e-03 -3.8724965e-03 -9.6821180e-04  1.9036660e-03
  -2.8754452e-03  0.0000000e+00  4.4551984e-04  0.0000000e+00
   0.0000000e+00  2.6431940e-03]
 [ 4.5618652e-03 -3.6703593e-03  5.5128807e-04  1.2499323e-03
  -2.6539252e-03  0.0000000e+00  7.0427055e-04  0.0000000e+00
   0.0000000e+00 -1.6474064e-03]] 
Episode: 24: [[ 0.00085046  0.00244884 -0.00731979 -0.00070236 -0.00028817  0.
   0.00300609  0.          0.         -0.0024688 ]
 [-0.00054685  0.00052002 -0.00159025 -0.00256838 -0.00067923  0.
   0.00024331  0.          0.         -0.00351693]
 [ 0.00384013 -0.0047282   0.00176748 -0.00095755 -0.00305946  0.
   0.00382904  0.          0.          0.00015369]
 [ 0.00538761 -0.00419864 -0.00092952  0.00182772 -0.00315145  0.
   0.0005017   0.          0.          0.00292438]
 [ 0.00487686 -0.00382073  0.00055641  0.00112498 -0.00276586  0.
   0.00051491  0.          0.         -0.00193799]] 
Episode: 25: [[ 7.1281014e-04  2.6272808e-03 -7.6465835e-03 -9.7128050e-04
  -3.0281185e-04  0.0000000e+00  3.2231985e-03  0.0000000e+00
   0.0000000e+00 -2.4358674e-03]
 [-7.6556165e-04  3.4309566e-04 -1.6294492e-03 -2.8639005e-03
  -9.8679704e-04  0.0000000e+00  4.5680790e-04  0.0000000e+00
   0.0000000e+00 -3.6946700e-03]
 [ 4.2079971e-03 -5.1354682e-03  1.8601828e-03 -1.1772097e-03
  -3.4386946e-03  0.0000000e+00  4.0680263e-03  0.0000000e+00
   0.0000000e+00 -3.8601087e-05]
 [ 5.7178461e-03 -4.5857555e-03 -9.6797117e-04  1.6825686e-03
  -3.4663540e-03  0.0000000e+00  4.7825879e-04  0.0000000e+00
   0.0000000e+00  3.2269841e-03]
 [ 5.2288151e-03 -4.0944251e-03  5.4621918e-04  9.5732097e-04
  -2.9154946e-03  0.0000000e+00  2.9919221e-04  0.0000000e+00
   0.0000000e+00 -2.2794416e-03]] 
Episode: 26: [[ 0.00058499  0.00278888 -0.00794802 -0.0012142  -0.00033814  0.
   0.0034242   0.          0.         -0.00242063]
 [-0.00097177  0.0001836  -0.00165805 -0.00313081 -0.0012626   0.
   0.00065498  0.          0.         -0.00388503]
 [ 0.00455127 -0.00550568  0.00194585 -0.00137329 -0.00377982  0.
   0.00429871  0.          0.         -0.00022389]
 [ 0.00604683 -0.00493746 -0.00100908  0.00156084 -0.00374862  0.
   0.0004559   0.          0.          0.00351816]
 [ 0.00556007 -0.00434516  0.00051985  0.00080327 -0.0030458   0.
   0.00010472  0.          0.         -0.00259952]] 
Episode: 27: [[ 4.7294551e-04  2.9327678e-03 -8.2156239e-03 -1.4237961e-03
  -3.9456505e-04  0.0000000e+00  3.6084936e-03  0.0000000e+00
   0.0000000e+00 -2.4123618e-03]
 [-1.1532586e-03  4.1903691e-05 -1.6594275e-03 -3.3627867e-03
  -1.5153817e-03  0.0000000e+00  8.3745108e-04  0.0000000e+00
   0.0000000e+00 -4.0674191e-03]
 [ 4.8691141e-03 -5.8268202e-03  2.0300420e-03 -1.5371018e-03
  -4.0776357e-03  0.0000000e+00  4.5236996e-03  0.0000000e+00
   0.0000000e+00 -3.9152286e-04]
 [ 6.3621951e-03 -5.2364781e-03 -1.0491274e-03  1.4705519e-03
  -3.9879722e-03  0.0000000e+00  4.4040009e-04  0.0000000e+00
   0.0000000e+00  3.7842975e-03]
 [ 5.8675930e-03 -4.5602852e-03  5.0189020e-04  6.7245454e-04
  -3.1551842e-03  0.0000000e+00 -7.6149117e-05  0.0000000e+00
   0.0000000e+00 -2.8883261e-03]] 
Episode: 28: [[ 3.7027517e-04  3.0641183e-03 -8.4405104e-03 -1.5228811e-03
  -4.9074978e-04  0.0000000e+00  3.7645984e-03  0.0000000e+00
   0.0000000e+00 -2.4438221e-03]
 [-1.3149440e-03 -8.1169826e-05 -1.6467440e-03 -3.4904706e-03
  -1.7192832e-03  0.0000000e+00  9.8017941e-04  0.0000000e+00
   0.0000000e+00 -4.2998125e-03]
 [ 5.1600826e-03 -6.1187553e-03  2.1393197e-03 -1.6011263e-03
  -4.3312754e-03  0.0000000e+00  4.7743809e-03  0.0000000e+00
   0.0000000e+00 -5.6154554e-04]
 [ 6.6581508e-03 -5.5077537e-03 -1.0705710e-03  1.4661583e-03
  -4.1912152e-03  0.0000000e+00  5.1206298e-04  0.0000000e+00
   0.0000000e+00  4.0519978e-03]
 [ 6.1481595e-03 -4.7524795e-03  4.9598858e-04  6.5177697e-04
  -3.2503905e-03  0.0000000e+00 -2.2874125e-04  0.0000000e+00
   0.0000000e+00 -3.1608080e-03]] 
Episode: 29: [[ 0.00027491  0.00318721 -0.00864678 -0.00158511 -0.00057859  0.
   0.00390025  0.          0.         -0.00247383]
 [-0.00146541 -0.00019737 -0.00163296 -0.00358102 -0.00190094  0.
   0.00109759  0.          0.         -0.00452073]
 [ 0.00542873 -0.0063922   0.00223894 -0.00163355 -0.00456064  0.
   0.00501393  0.          0.         -0.00072497]
 [ 0.00693533 -0.00576021 -0.00109185  0.0014859  -0.00437527  0.
   0.00058571  0.          0.          0.00430784]
 [ 0.00640644 -0.00493     0.00048977  0.00066562 -0.00333503  0.
  -0.00036339  0.          0.         -0.00341601]] 
Episode: 30: [[ 0.00018756  0.0033059  -0.00884056 -0.00160472 -0.0006688   0.
   0.00402743  0.          0.         -0.00251681]
 [-0.00161135 -0.00028669 -0.00160509 -0.00362743 -0.00203542  0.
   0.0012073   0.          0.         -0.00474765]
 [ 0.0057122  -0.00664562  0.00235846 -0.00162735 -0.0047577   0.
   0.00528251  0.          0.         -0.00087445]
 [ 0.00724168 -0.0060095  -0.00111623  0.00153975 -0.00454134  0.
   0.00069727  0.          0.          0.00457362]
 [ 0.0066733  -0.00509241  0.00049213  0.00072282 -0.00340868  0.
  -0.00045964  0.          0.         -0.00366384]] 
Episode: 31: [[ 7.7036479e-05  3.3873811e-03 -9.0294611e-03 -1.6288902e-03
  -8.5316913e-04  0.0000000e+00  4.1526337e-03  0.0000000e+00
   0.0000000e+00 -2.6149258e-03]
 [-1.7804092e-03 -4.1063962e-04 -1.4997547e-03 -3.6784734e-03
  -2.2022717e-03  0.0000000e+00  1.2939471e-03  0.0000000e+00
   0.0000000e+00 -5.0345589e-03]
 [ 5.9506143e-03 -6.8867742e-03  2.5165507e-03 -1.6182746e-03
  -4.9467590e-03  0.0000000e+00  5.6134150e-03  0.0000000e+00
   0.0000000e+00 -1.0572558e-03]
 [ 7.4906703e-03 -6.2331427e-03 -1.1187432e-03  1.5850784e-03
  -4.6931864e-03  0.0000000e+00  8.7404257e-04  0.0000000e+00
   0.0000000e+00  4.7983020e-03]
 [ 6.8984460e-03 -5.2703884e-03  5.0163345e-04  7.8387978e-04
  -3.4861923e-03  0.0000000e+00 -4.9058796e-04  0.0000000e+00
   0.0000000e+00 -3.9137690e-03]] 
Episode: 32: [[-2.3218690e-05  3.4759634e-03 -9.2238002e-03 -1.6373449e-03
  -1.0110521e-03  0.0000000e+00  4.2728451e-03  0.0000000e+00
   0.0000000e+00 -2.6918012e-03]
 [-1.9540961e-03 -5.4945651e-04 -1.4080253e-03 -3.7156316e-03
  -2.3716737e-03  0.0000000e+00  1.3790060e-03  0.0000000e+00
   0.0000000e+00 -5.2915900e-03]
 [ 6.2132291e-03 -7.1453429e-03  2.6661041e-03 -1.5995250e-03
  -5.1434976e-03  0.0000000e+00  5.9406939e-03  0.0000000e+00
   0.0000000e+00 -1.2488584e-03]
 [ 7.7810581e-03 -6.4724577e-03 -1.1293927e-03  1.6461007e-03
  -4.8525468e-03  0.0000000e+00  1.0381743e-03  0.0000000e+00
   0.0000000e+00  5.0439769e-03]
 [ 7.1552265e-03 -5.4759495e-03  5.0964521e-04  8.4658607e-04
  -3.5894613e-03  0.0000000e+00 -4.7820914e-04  0.0000000e+00
   0.0000000e+00 -4.1521788e-03]] 
Episode: 33: [[-0.00010935  0.00356413 -0.00939809 -0.00164342 -0.00116924  0.
   0.0043691   0.          0.         -0.00278049]
 [-0.00209632 -0.0006629  -0.00131804 -0.00374422 -0.00251369  0.
   0.00143202  0.          0.         -0.00554637]
 [ 0.00647184 -0.00737207  0.00277117 -0.00157011 -0.00529463  0.
   0.00617696  0.          0.         -0.0014224 ]
 [ 0.00807722 -0.00668259 -0.00118253  0.00173515 -0.00496814  0.
   0.00115399  0.          0.          0.00526962]
 [ 0.00740469 -0.00564706  0.00046115  0.00092871 -0.00364685  0.
  -0.0004714   0.          0.         -0.00435298]] 
Episode: 34: [[-0.00019352  0.00362829 -0.00956972 -0.00165254 -0.0013515   0.
   0.00445688  0.          0.         -0.00286261]
 [-0.00222196 -0.0007691  -0.00122068 -0.00377675 -0.00264101  0.
   0.00146746  0.          0.         -0.0057893 ]
 [ 0.00674013 -0.0075803   0.00289836 -0.00154598 -0.00542536  0.
   0.00638562  0.          0.         -0.00159146]
 [ 0.00839789 -0.00686786 -0.00121035  0.00180756 -0.00506103  0.
   0.0012447   0.          0.          0.00547771]
 [ 0.00765778 -0.00578523  0.00046841  0.00100096 -0.00369101  0.
  -0.0004843   0.          0.         -0.00454942]] 
Episode: 35: [[-0.0002691   0.00369648 -0.00973383 -0.00163145 -0.00153676  0.
   0.00454045  0.          0.         -0.00294748]
 [-0.00233894 -0.00087179 -0.00112756 -0.00378288 -0.0027513   0.
   0.00149059  0.          0.         -0.00602113]
 [ 0.00701397 -0.0077798   0.00301825 -0.00149746 -0.00553428  0.
   0.00659099  0.          0.         -0.00174673]
 [ 0.00874617 -0.00704275 -0.00123513  0.00190385 -0.00513466  0.
   0.001338    0.          0.          0.00566992]
 [ 0.00791571 -0.00591659  0.00047597  0.0010945  -0.00372395  0.
  -0.00050223  0.          0.         -0.00472895]] 
Episode: 36: [[-0.00033847  0.00377462 -0.00999488 -0.00168234 -0.00184038  0.
   0.00461241  0.          0.         -0.00301629]
 [-0.00245531 -0.00089834 -0.00100716 -0.00385576 -0.00285886  0.
   0.00150567  0.          0.         -0.00625951]
 [ 0.0073452  -0.00800264  0.00303903 -0.00150527 -0.00566192  0.
   0.00683209  0.          0.         -0.001922  ]
 [ 0.00912365 -0.00727213 -0.00137441  0.00199398 -0.00524141  0.
   0.00142787  0.          0.          0.00593705]
 [ 0.00822051 -0.0060845   0.00042534  0.00118422 -0.0037523   0.
  -0.00047707  0.          0.         -0.00492372]] 
Episode: 37: [[-0.00040805  0.00386164 -0.01019299 -0.00176726 -0.00206529  0.
   0.00474861  0.          0.         -0.00300933]
 [-0.00253828 -0.00094602 -0.00076693 -0.00397501 -0.0029965   0.
   0.00156939  0.          0.         -0.00643594]
 [ 0.00761228 -0.00831728  0.00303709 -0.00152631 -0.00587254  0.
   0.00705656  0.          0.         -0.00208523]
 [ 0.00951922 -0.00757427 -0.00154267  0.0020832  -0.00541473  0.
   0.0014626   0.          0.          0.00625332]
 [ 0.00849607 -0.00629776  0.00034013  0.00129123 -0.00379946  0.
  -0.00037923  0.          0.         -0.00515168]] 
Episode: 38: [[-0.00047425  0.00395624 -0.01039801 -0.00186532 -0.00225105  0.
   0.00488723  0.          0.         -0.0030116 ]
 [-0.00264506 -0.00100782 -0.00059054 -0.00410451 -0.00314735  0.
   0.00164798  0.          0.         -0.00661421]
 [ 0.0078841  -0.00859801  0.00303094 -0.00156194 -0.00609696  0.
   0.00729253  0.          0.         -0.00224483]
 [ 0.00993579 -0.00783413 -0.00166571  0.00215702 -0.00560861  0.
   0.0015345   0.          0.          0.00653841]
 [ 0.00877527 -0.00648218  0.00027846  0.00137593 -0.00390072  0.
  -0.00027666  0.          0.         -0.00536384]] 
Episode: 39: [[-0.00054214  0.00405669 -0.01056211 -0.00200382 -0.00242144  0.
   0.00503618  0.          0.         -0.00303001]
 [-0.00274062 -0.00105662 -0.00040687 -0.00425809 -0.00330011  0.
   0.0017289   0.          0.         -0.00681291]
 [ 0.00814604 -0.00887432  0.00308435 -0.00159678 -0.00634027  0.
   0.00753755  0.          0.         -0.00238   ]
 [ 0.01037288 -0.00809558 -0.00171165  0.00217123 -0.00581304  0.
   0.00154002  0.          0.          0.00681558]
 [ 0.00904725 -0.00664023  0.00033805  0.00139993 -0.00399711  0.
  -0.00017598  0.          0.         -0.00560325]] 
Episode: 40: [[-6.0410320e-04  4.1693388e-03 -1.0722336e-02 -2.0354714e-03
  -2.6302368e-03  0.0000000e+00  5.1544318e-03  0.0000000e+00
   0.0000000e+00 -3.1014236e-03]
 [-2.8260374e-03 -1.0797211e-03 -1.9414839e-04 -4.3174680e-03
  -3.3566542e-03  0.0000000e+00  1.7559669e-03  0.0000000e+00
   0.0000000e+00 -7.0797047e-03]
 [ 8.4309597e-03 -9.1142887e-03  3.1288201e-03 -1.5483164e-03
  -6.4635435e-03  0.0000000e+00  7.7851620e-03  0.0000000e+00
   0.0000000e+00 -2.5180120e-03]
 [ 1.0827838e-02 -8.3220918e-03 -1.8320043e-03  2.2795838e-03
  -5.9067137e-03  0.0000000e+00  1.5844124e-03  0.0000000e+00
   0.0000000e+00  7.1252948e-03]
 [ 9.3224589e-03 -6.7718755e-03  3.9485810e-04  1.5080471e-03
  -4.0042493e-03  0.0000000e+00 -8.3590283e-05  0.0000000e+00
   0.0000000e+00 -5.8468538e-03]] 
Episode: 41: [[-6.6139246e-04  4.2764400e-03 -1.0876080e-02 -2.0546459e-03
  -2.8308325e-03  0.0000000e+00  5.2689202e-03  0.0000000e+00
   0.0000000e+00 -3.1721892e-03]
 [-2.9048333e-03 -1.1246996e-03  1.4946485e-05 -4.3635406e-03
  -3.4312122e-03  0.0000000e+00  1.7877513e-03  0.0000000e+00
   0.0000000e+00 -7.3528388e-03]
 [ 8.6998744e-03 -9.3505885e-03  3.1900678e-03 -1.4959296e-03
  -6.5837931e-03  0.0000000e+00  8.0229500e-03  0.0000000e+00
   0.0000000e+00 -2.6713677e-03]
 [ 1.1257969e-02 -8.5429875e-03 -1.9413101e-03  2.3892154e-03
  -5.9941956e-03  0.0000000e+00  1.6335985e-03  0.0000000e+00
   0.0000000e+00  7.4179261e-03]
 [ 9.5818117e-03 -6.9066249e-03  4.5679367e-04  1.6215382e-03
  -4.0103621e-03  0.0000000e+00  8.4044195e-06  0.0000000e+00
   0.0000000e+00 -6.0830545e-03]] 
Episode: 42: [[-7.05983839e-04  4.40598559e-03 -1.09747145e-02 -2.09515542e-03
  -2.94726738e-03  0.00000000e+00  5.38193202e-03  0.00000000e+00
   0.00000000e+00 -3.19915102e-03]
 [-2.94587971e-03 -1.12819625e-03  1.34255184e-04 -4.40689502e-03
  -3.43524734e-03  0.00000000e+00  1.83215004e-03  0.00000000e+00
   0.00000000e+00 -7.57343043e-03]
 [ 8.96452647e-03 -9.57288221e-03  3.21092526e-03 -1.44822325e-03
  -6.68407837e-03  0.00000000e+00  8.19027238e-03  0.00000000e+00
   0.00000000e+00 -2.84171035e-03]
 [ 1.17018046e-02 -8.74899793e-03 -2.07235594e-03  2.48783967e-03
  -6.05712272e-03  0.00000000e+00  1.63369882e-03  0.00000000e+00
   0.00000000e+00  7.68368784e-03]
 [ 9.85038374e-03 -7.02035381e-03  5.02477575e-04  1.71280559e-03
  -3.99155309e-03  0.00000000e+00  5.42993366e-05  0.00000000e+00
   0.00000000e+00 -6.32773712e-03]] 
Episode: 43: [[-7.2999054e-04  4.5212116e-03 -1.1080310e-02 -2.1417127e-03
  -3.0377221e-03  0.0000000e+00  5.5354657e-03  0.0000000e+00
   0.0000000e+00 -3.1113368e-03]
 [-2.9766439e-03 -1.1695373e-03  1.9397774e-04 -4.4707176e-03
  -3.4811352e-03  0.0000000e+00  1.8704471e-03  0.0000000e+00
   0.0000000e+00 -7.6749306e-03]
 [ 9.2780478e-03 -9.8033259e-03  3.0571185e-03 -1.4049544e-03
  -6.7748036e-03  0.0000000e+00  8.3197346e-03  0.0000000e+00
   0.0000000e+00 -3.0064455e-03]
 [ 1.2162857e-02 -8.9484919e-03 -2.2574402e-03  2.5881680e-03
  -6.1003724e-03  0.0000000e+00  1.5608260e-03  0.0000000e+00
   0.0000000e+00  7.9617817e-03]
 [ 1.0150309e-02 -7.1167652e-03  5.0352031e-04  1.8089847e-03
  -3.9448584e-03  0.0000000e+00  7.6528682e-05  0.0000000e+00
   0.0000000e+00 -6.5601668e-03]] 
Episode: 44: [[-7.53265282e-04  4.63187182e-03 -1.11741973e-02 -2.16968614e-03
  -3.13227507e-03  0.00000000e+00  5.67082362e-03  0.00000000e+00
   0.00000000e+00 -3.04871309e-03]
 [-3.00893676e-03 -1.18965108e-03  2.59681401e-04 -4.51587001e-03
  -3.50641925e-03  0.00000000e+00  1.89212430e-03  0.00000000e+00
   0.00000000e+00 -7.79675599e-03]
 [ 9.57197044e-03 -1.00079617e-02  2.93322140e-03 -1.34917721e-03
  -6.84190216e-03  0.00000000e+00  8.44610669e-03  0.00000000e+00
   0.00000000e+00 -3.17559717e-03]
 [ 1.26029765e-02 -9.13220271e-03 -2.42301263e-03  2.69610016e-03
  -6.12744549e-03  0.00000000e+00  1.50046428e-03  0.00000000e+00
   0.00000000e+00  8.26177374e-03]
 [ 1.04317581e-02 -7.19930930e-03  5.11810300e-04  1.90853910e-03
  -3.88776930e-03  0.00000000e+00  8.70857766e-05  0.00000000e+00
   0.00000000e+00 -6.79281866e-03]] 
Episode: 45: [[-7.8160828e-04  4.7626761e-03 -1.1227701e-02 -2.1498182e-03
  -3.1121038e-03  0.0000000e+00  5.8207586e-03  0.0000000e+00
   0.0000000e+00 -2.9895098e-03]
 [-3.0639241e-03 -1.2107517e-03  2.6658841e-04 -4.5187757e-03
  -3.5030632e-03  0.0000000e+00  1.9302913e-03  0.0000000e+00
   0.0000000e+00 -7.9171285e-03]
 [ 9.8734153e-03 -1.0169763e-02  2.8307573e-03 -1.2643161e-03
  -6.8793530e-03  0.0000000e+00  8.5928282e-03  0.0000000e+00
   0.0000000e+00 -3.3082238e-03]
 [ 1.3052956e-02 -9.2607290e-03 -2.5503288e-03  2.8341035e-03
  -6.1260173e-03  0.0000000e+00  1.4909897e-03  0.0000000e+00
   0.0000000e+00  8.5165938e-03]
 [ 1.0715688e-02 -7.2527020e-03  5.4045318e-04  2.0302010e-03
  -3.8332476e-03  0.0000000e+00  9.0485111e-05  0.0000000e+00
   0.0000000e+00 -6.9821333e-03]] 
Episode: 46: [[-8.0338336e-04  4.9138800e-03 -1.1288133e-02 -2.1533142e-03
  -3.0232288e-03  0.0000000e+00  5.9662201e-03  0.0000000e+00
   0.0000000e+00 -2.8917762e-03]
 [-3.0971898e-03 -1.2360703e-03  1.6355430e-04 -4.5239073e-03
  -3.4701133e-03  0.0000000e+00  1.9636012e-03  0.0000000e+00
   0.0000000e+00 -7.9307826e-03]
 [ 1.0211293e-02 -1.0291561e-02  2.6514689e-03 -1.1802898e-03
  -6.8695825e-03  0.0000000e+00  8.6119352e-03  0.0000000e+00
   0.0000000e+00 -3.3711186e-03]
 [ 1.3519627e-02 -9.3506947e-03 -2.6880968e-03  2.9621841e-03
  -6.0875472e-03  0.0000000e+00  1.3866610e-03  0.0000000e+00
   0.0000000e+00  8.7293219e-03]
 [ 1.1021160e-02 -7.2621666e-03  4.8654716e-04  2.1733693e-03
  -3.7479140e-03  0.0000000e+00  9.5651572e-05  0.0000000e+00
   0.0000000e+00 -7.1083489e-03]] 
Episode: 47: [[-8.1712368e-04  5.0584129e-03 -1.1340189e-02 -2.1328193e-03
  -2.9392561e-03  0.0000000e+00  6.1123911e-03  0.0000000e+00
   0.0000000e+00 -2.8065043e-03]
 [-3.1392192e-03 -1.3145645e-03  7.7229051e-05 -4.5094420e-03
  -3.4939924e-03  0.0000000e+00  2.0254040e-03  0.0000000e+00
   0.0000000e+00 -7.9770368e-03]
 [ 1.0532653e-02 -1.0443343e-02  2.5202106e-03 -1.0858414e-03
  -6.9010518e-03  0.0000000e+00  8.6678891e-03  0.0000000e+00
   0.0000000e+00 -3.4699896e-03]
 [ 1.3991755e-02 -9.4537018e-03 -2.7916671e-03  3.0996953e-03
  -6.0758046e-03  0.0000000e+00  1.3565816e-03  0.0000000e+00
   0.0000000e+00  8.9220824e-03]
 [ 1.1320939e-02 -7.3300907e-03  4.4821104e-04  2.3317153e-03
  -3.7095656e-03  0.0000000e+00  1.0097700e-04  0.0000000e+00
   0.0000000e+00 -7.2380337e-03]] 
Episode: 48: [[-8.33940692e-04  5.19666029e-03 -1.14022940e-02 -2.10663234e-03
  -2.85505131e-03  0.00000000e+00  6.24203403e-03  0.00000000e+00
   0.00000000e+00 -2.72218836e-03]
 [-3.19620408e-03 -1.39255857e-03 -3.34984361e-05 -4.48787538e-03
  -3.50753474e-03  0.00000000e+00  2.08251178e-03  0.00000000e+00
   0.00000000e+00 -8.02283362e-03]
 [ 1.08430106e-02 -1.05818575e-02  2.40213983e-03 -9.91776818e-04
  -6.93777902e-03  0.00000000e+00  8.70522764e-03  0.00000000e+00
   0.00000000e+00 -3.58983246e-03]
 [ 1.44636631e-02 -9.54587199e-03 -2.85693211e-03  3.23584792e-03
  -6.08456600e-03  0.00000000e+00  1.33075495e-03  0.00000000e+00
   0.00000000e+00  9.09532048e-03]
 [ 1.16143534e-02 -7.39864912e-03  4.27952444e-04  2.49437685e-03
  -3.71369137e-03  0.00000000e+00  1.09637796e-04  0.00000000e+00
   0.00000000e+00 -7.37538980e-03]] 
Episode: 49: [[-0.00084987  0.00529277 -0.01147922 -0.00209976 -0.00283656  0.
   0.00636029  0.          0.         -0.00265199]
 [-0.00325532 -0.00142923 -0.000129   -0.0044908  -0.0035036   0.
   0.00213116  0.          0.         -0.0081028 ]
 [ 0.01112565 -0.01068873  0.00228864 -0.00092219 -0.00697354  0.
   0.008757    0.          0.         -0.00373175]
 [ 0.01489289 -0.00962068 -0.00292171  0.0033494  -0.00610221  0.
   0.00132321  0.          0.          0.00927575]
 [ 0.01188417 -0.00746492  0.00042187  0.00262526 -0.00372848  0.
   0.00013041  0.          0.         -0.00751966]] 
Episode: 50: [[-0.00079989  0.00532297 -0.01148749 -0.00211188 -0.0027255   0.
   0.00654667  0.          0.         -0.00260405]
 [-0.00329512 -0.00138694 -0.0002173  -0.00452073 -0.00345496  0.
   0.00226464  0.          0.         -0.0081889 ]
 [ 0.01145161 -0.01077254  0.00216548 -0.00085781 -0.00701657  0.
   0.00877731  0.          0.         -0.00390027]
 [ 0.01534142 -0.00968381 -0.00300441  0.00343862 -0.00612172  0.
   0.00129379  0.          0.          0.00943797]
 [ 0.01218896 -0.00753714  0.00037941  0.00272705 -0.00377518  0.
   0.00012408  0.          0.         -0.00766005]] 
Episode: 51: [[-0.00066606  0.005208   -0.0113337  -0.00229598 -0.00284814  0.
   0.00653107  0.          0.         -0.00272479]
 [-0.00315939 -0.00136369 -0.00012171 -0.00464897 -0.00339622  0.
   0.00230371  0.          0.         -0.00835632]
 [ 0.01160803 -0.01093833  0.00194036 -0.00091983 -0.00714522  0.
   0.00892242  0.          0.         -0.00417292]
 [ 0.01567723 -0.00990128 -0.00322354  0.00332908 -0.00625749  0.
   0.00134353  0.          0.          0.00968427]
 [ 0.01238944 -0.00777474  0.00016121  0.00267626 -0.00383856  0.
   0.00029116  0.          0.         -0.00793042]] 
Episode: 52: [[-5.43749775e-04  5.12617500e-03 -1.11834258e-02 -2.46135425e-03
  -2.92974222e-03  0.00000000e+00  6.53270259e-03  0.00000000e+00
   0.00000000e+00 -2.84082652e-03]
 [-3.02941981e-03 -1.35322055e-03 -1.96019919e-05 -4.76412894e-03
  -3.36910179e-03  0.00000000e+00  2.37063295e-03  0.00000000e+00
   0.00000000e+00 -8.50607082e-03]
 [ 1.17582977e-02 -1.11003984e-02  1.73773593e-03 -9.76259587e-04
  -7.27883913e-03  0.00000000e+00  9.05866828e-03  0.00000000e+00
   0.00000000e+00 -4.41573607e-03]
 [ 1.60128940e-02 -1.01065887e-02 -3.42671480e-03  3.23605957e-03
  -6.38880022e-03  0.00000000e+00  1.38896285e-03  0.00000000e+00
   0.00000000e+00  9.94238351e-03]
 [ 1.25883045e-02 -7.99997803e-03 -5.67432799e-05  2.62072333e-03
  -3.89839569e-03  0.00000000e+00  4.23412945e-04  0.00000000e+00
   0.00000000e+00 -8.16383399e-03]] 
Episode: 53: [[-0.00040698  0.00512586 -0.01100438 -0.00268201 -0.00291948  0.
   0.00659682  0.          0.         -0.00300485]
 [-0.00286046 -0.00146165  0.00010099 -0.00495115 -0.00350715  0.
   0.0024979   0.          0.         -0.00872829]
 [ 0.01187745 -0.01134752  0.00152865 -0.00111883 -0.00753106  0.
   0.00924041  0.          0.         -0.00473019]
 [ 0.01635011 -0.0103892  -0.00364093  0.00305889 -0.0066154   0.
   0.00134479  0.          0.          0.01026971]
 [ 0.01276777 -0.00831112 -0.00031834  0.00248936 -0.00404587  0.
   0.00050439  0.          0.         -0.00843953]] 
Episode: 54: [[-0.00028663  0.00511522 -0.01087275 -0.0028703  -0.00290954  0.
   0.00662993  0.          0.         -0.00317178]
 [-0.00271966 -0.00152679  0.00018952 -0.00510908 -0.00360037  0.
   0.00257457  0.          0.         -0.00900461]
 [ 0.01199352 -0.0115469   0.00136774 -0.00123846 -0.00775341  0.
   0.00942447  0.          0.         -0.00505389]
 [ 0.0166667  -0.01063773 -0.00380177  0.00290714 -0.00683648  0.
   0.00134106  0.          0.          0.01057795]
 [ 0.01293924 -0.00858116 -0.00053923  0.0023731  -0.00420354  0.
   0.00058658  0.          0.         -0.00871852]] 
Episode: 55: [[-0.0001774   0.00510958 -0.01076649 -0.00304126 -0.00290264  0.
   0.00665884  0.          0.         -0.00334255]
 [-0.0025972  -0.00158327  0.00030858 -0.0052573  -0.00370409  0.
   0.00264329  0.          0.         -0.00929199]
 [ 0.01210848 -0.01171371  0.00125283 -0.00134848 -0.00795498  0.
   0.00960849  0.          0.         -0.00535782]
 [ 0.01696863 -0.01085283 -0.00394268  0.00276935 -0.00703547  0.
   0.00136018  0.          0.          0.01085264]
 [ 0.01310191 -0.00881938 -0.00073598  0.00226772 -0.00434949  0.
   0.00067174  0.          0.         -0.00897888]] 
Episode: 56: [[-8.2751198e-05  5.0973650e-03 -1.0678847e-02 -3.1980712e-03
  -2.9039851e-03  0.0000000e+00  6.6831699e-03  0.0000000e+00
   0.0000000e+00 -3.4967833e-03]
 [-2.4896858e-03 -1.6275930e-03  4.1497929e-04 -5.3919144e-03
  -3.7872982e-03  0.0000000e+00  2.6993009e-03  0.0000000e+00
   0.0000000e+00 -9.5621329e-03]
 [ 1.2218542e-02 -1.1877727e-02  1.1383704e-03 -1.4476144e-03
  -8.1359567e-03  0.0000000e+00  9.7762216e-03  0.0000000e+00
   0.0000000e+00 -5.6453031e-03]
 [ 1.7260887e-02 -1.1060167e-02 -4.0927432e-03  2.6509692e-03
  -7.2101108e-03  0.0000000e+00  1.3518339e-03  0.0000000e+00
   0.0000000e+00  1.1115024e-02]
 [ 1.3258325e-02 -9.0380032e-03 -9.2707039e-04  2.1712806e-03
  -4.4599799e-03  0.0000000e+00  7.5438590e-04  0.0000000e+00
   0.0000000e+00 -9.2268409e-03]] 
Episode: 57: [[ 1.5878441e-06  5.0854133e-03 -1.0602660e-02 -3.3240886e-03
  -2.9053544e-03  0.0000000e+00  6.7117922e-03  0.0000000e+00
   0.0000000e+00 -3.6316414e-03]
 [-2.3972143e-03 -1.6687965e-03  5.1282399e-04 -5.4969019e-03
  -3.8634506e-03  0.0000000e+00  2.7618578e-03  0.0000000e+00
   0.0000000e+00 -9.7764758e-03]
 [ 1.2328702e-02 -1.2027399e-02  1.0384261e-03 -1.5197360e-03
  -8.2987286e-03  0.0000000e+00  9.9239442e-03  0.0000000e+00
   0.0000000e+00 -5.8870818e-03]
 [ 1.7550491e-02 -1.1247318e-02 -4.2289020e-03  2.5640542e-03
  -7.3635210e-03  0.0000000e+00  1.3497949e-03  0.0000000e+00
   0.0000000e+00  1.1348719e-02]
 [ 1.3412585e-02 -9.2361635e-03 -1.0978382e-03  2.1113777e-03
  -4.5538796e-03  0.0000000e+00  8.2408736e-04  0.0000000e+00
   0.0000000e+00 -9.4380789e-03]] 
Episode: 58: [[ 0.0001157   0.00512476 -0.01047917 -0.00351109 -0.00284095  0.
   0.00674141  0.          0.         -0.0036939 ]
 [-0.00223051 -0.00171662  0.00056214 -0.00563928 -0.00392746  0.
   0.00288633  0.          0.         -0.00987647]
 [ 0.01235903 -0.01215457  0.00092185 -0.00164668 -0.00845716  0.
   0.00997385  0.          0.         -0.00605572]
 [ 0.01774203 -0.01138748 -0.0043468   0.00242653 -0.00749954  0.
   0.00125214  0.          0.          0.01155982]
 [ 0.01348192 -0.0093773  -0.00124805  0.00197662 -0.00464695  0.
   0.00083471  0.          0.         -0.00959142]] 
Episode: 59: [[ 0.00021881  0.00520411 -0.01038153 -0.00371333 -0.00272054  0.
   0.00676421  0.          0.         -0.00388879]
 [-0.00209085 -0.00177772  0.00064138 -0.00577183 -0.00400852  0.
   0.00305398  0.          0.         -0.0100521 ]
 [ 0.0124083  -0.01229693  0.00084781 -0.00174634 -0.00863846  0.
   0.01012088  0.          0.         -0.00627225]
 [ 0.01797839 -0.0115474  -0.00449045  0.00228126 -0.0076491   0.
   0.00116702  0.          0.          0.01179515]
 [ 0.01357901 -0.00948165 -0.00139635  0.00185921 -0.00469462  0.
   0.00082433  0.          0.         -0.00983873]] 
Episode: 60: [[ 0.00030725  0.00528188 -0.01030597 -0.00391253 -0.00259487  0.
   0.0068035   0.          0.         -0.00405704]
 [-0.00198181 -0.00182925  0.00068366 -0.00590789 -0.00407749  0.
   0.00323928  0.          0.         -0.01018918]
 [ 0.01247114 -0.01241991  0.00077905 -0.00185371 -0.00880921  0.
   0.01025918  0.          0.         -0.00645938]
 [ 0.0182291  -0.01168911 -0.00461613  0.00214061 -0.00779509  0.
   0.00107597  0.          0.          0.01200464]
 [ 0.01368837 -0.00957636 -0.00151887  0.00173761 -0.00474733  0.
   0.00082051  0.          0.         -0.01005684]] 
Episode: 61: [[ 0.00033066  0.00523778 -0.01029065 -0.00409804 -0.00257921  0.
   0.00685914  0.          0.         -0.00415863]
 [-0.00190802 -0.00181592  0.00068195 -0.0060494  -0.00416079  0.
   0.00344697  0.          0.         -0.01033014]
 [ 0.01259728 -0.01254641  0.00073108 -0.00196547 -0.00898941  0.
   0.01035693  0.          0.         -0.00671854]
 [ 0.01851968 -0.01185008 -0.00476189  0.00197985 -0.00795019  0.
   0.00090074  0.          0.          0.01222152]
 [ 0.01386739 -0.00969351 -0.00159933  0.00161648 -0.00477013  0.
   0.00080176  0.          0.         -0.01033865]] 
Episode: 62: [[ 0.00036412  0.00519175 -0.01028113 -0.00425766 -0.0025831   0.
   0.00689966  0.          0.         -0.00425263]
 [-0.00178591 -0.00181998  0.00072459 -0.00618622 -0.0042525   0.
   0.00361301  0.          0.         -0.01051414]
 [ 0.01275746 -0.01267716  0.00068417 -0.00206601 -0.00915228  0.
   0.01038088  0.          0.         -0.00698518]
 [ 0.01884553 -0.01199023 -0.00492178  0.00184719 -0.00807383  0.
   0.00065328  0.          0.          0.01240593]
 [ 0.01407949 -0.00979332 -0.00168475  0.00148537 -0.00476681  0.
   0.00076877  0.          0.         -0.0106262 ]] 
Episode: 63: [[ 0.00048678  0.00514541 -0.01031176 -0.00442445 -0.00259708  0.
   0.00689317  0.          0.         -0.00432636]
 [-0.00158431 -0.00185602  0.00074794 -0.00630222 -0.00432499  0.
   0.00375586  0.          0.         -0.01067992]
 [ 0.01301786 -0.01279926  0.00047692 -0.00214981 -0.00924018  0.
   0.01026409  0.          0.         -0.00724824]
 [ 0.01920261 -0.01212812 -0.00516189  0.00178542 -0.00813649  0.
   0.00035205  0.          0.          0.01262017]
 [ 0.01438253 -0.00989205 -0.00188326  0.00140155 -0.00464323  0.
   0.00058577  0.          0.         -0.01092555]] 
Episode: 64: [[ 5.99000661e-04  5.10490965e-03 -1.03400378e-02 -4.56189737e-03
  -2.59682070e-03  0.00000000e+00  6.88594393e-03  0.00000000e+00
   0.00000000e+00 -4.39453311e-03]
 [-1.39913231e-03 -1.88041129e-03  7.57593720e-04 -6.39278861e-03
  -4.38575167e-03  0.00000000e+00  3.89004336e-03  0.00000000e+00
   0.00000000e+00 -1.08229443e-02]
 [ 1.32607417e-02 -1.28986407e-02  2.80228647e-04 -2.21731933e-03
  -9.30702873e-03  0.00000000e+00  1.01536913e-02  0.00000000e+00
   0.00000000e+00 -7.47090299e-03]
 [ 1.95405092e-02 -1.22316526e-02 -5.39272511e-03  1.73652428e-03
  -8.16749688e-03  0.00000000e+00  6.46465196e-05  0.00000000e+00
   0.00000000e+00  1.27889886e-02]
 [ 1.46620665e-02 -9.96246841e-03 -2.08914862e-03  1.33749482e-03
  -4.51244693e-03  0.00000000e+00  4.24749043e-04  0.00000000e+00
   0.00000000e+00 -1.11876912e-02]] 
Episode: 65: [[ 0.00063949  0.00507074 -0.01031853 -0.00471756 -0.00267087  0.
   0.00690359  0.          0.         -0.00448023]
 [-0.00125733 -0.00200137  0.00087305 -0.00650682 -0.00455063  0.
   0.00397631  0.          0.         -0.01103761]
 [ 0.01355371 -0.01308472  0.00018093 -0.00228127 -0.00943222  0.
   0.01014243  0.          0.         -0.00771695]
 [ 0.0199085  -0.01237487 -0.00554933  0.00170707 -0.00823504  0.
  -0.00016829  0.          0.          0.01296264]
 [ 0.01498403 -0.01007443 -0.00228588  0.00130946 -0.00441457  0.
   0.00025819  0.          0.         -0.01143306]] 
Episode: 66: [[ 0.00067859  0.00505357 -0.01030366 -0.00483163 -0.00274739  0.
   0.00691449  0.          0.         -0.00457371]
 [-0.00114063 -0.00212531  0.00100923 -0.0065831  -0.00470771  0.
   0.00404237  0.          0.         -0.01126818]
 [ 0.01383206 -0.01328097  0.00011163 -0.00230931 -0.00956     0.
   0.01016905  0.          0.         -0.00796592]
 [ 0.02027762 -0.01253249 -0.00569443  0.00171209 -0.00831122  0.
  -0.00029929  0.          0.          0.01314571]
 [ 0.01529344 -0.01018869 -0.00246814  0.00131578 -0.00433438  0.
   0.00013016  0.          0.         -0.0116769 ]] 
Episode: 67: [[ 7.09190674e-04  5.06232632e-03 -1.03039928e-02 -4.90745530e-03
  -2.81714112e-03  0.00000000e+00  6.91767782e-03  0.00000000e+00
   0.00000000e+00 -4.65637119e-03]
 [-1.05033419e-03 -2.28399201e-03  1.14474155e-03 -6.62693428e-03
  -4.85547818e-03  0.00000000e+00  4.09052335e-03  0.00000000e+00
   0.00000000e+00 -1.14724915e-02]
 [ 1.41207865e-02 -1.34961503e-02  4.28816820e-05 -2.30372278e-03
  -9.67040565e-03  0.00000000e+00  1.02111353e-02  0.00000000e+00
   0.00000000e+00 -8.20448529e-03]
 [ 2.06734687e-02 -1.26965344e-02 -5.85579406e-03  1.74914824e-03
  -8.37063417e-03  0.00000000e+00 -4.03760903e-04  0.00000000e+00
   0.00000000e+00  1.33196376e-02]
 [ 1.56198675e-02 -1.03128878e-02 -2.64930399e-03  1.33790390e-03
  -4.24545584e-03  0.00000000e+00  2.36458891e-05  0.00000000e+00
   0.00000000e+00 -1.19005796e-02]] 
Episode: 68: [[ 6.7713927e-04  4.9992395e-03 -1.0360884e-02 -5.0498177e-03
  -3.0317993e-03  0.0000000e+00  6.9188694e-03  0.0000000e+00
   0.0000000e+00 -4.7536548e-03]
 [-1.0187896e-03 -2.4483313e-03  1.3937791e-03 -6.7530237e-03
  -5.0422698e-03  0.0000000e+00  4.0841294e-03  0.0000000e+00
   0.0000000e+00 -1.1741080e-02]
 [ 1.4380164e-02 -1.3803190e-02  1.4157548e-04 -2.3300871e-03
  -9.9057341e-03  0.0000000e+00  1.0335772e-02  0.0000000e+00
   0.0000000e+00 -8.5361823e-03]
 [ 2.1092961e-02 -1.3013562e-02 -5.8286032e-03  1.7589076e-03
  -8.6099096e-03  0.0000000e+00 -5.2161940e-04  0.0000000e+00
   0.0000000e+00  1.3580900e-02]
 [ 1.5944799e-02 -1.0557029e-02 -2.6667900e-03  1.3413549e-03
  -4.3538078e-03  0.0000000e+00  1.3935873e-05  0.0000000e+00
   0.0000000e+00 -1.2227212e-02]] 
Episode: 69: [[ 6.44626038e-04  4.93904296e-03 -1.04158288e-02 -5.14868228e-03
  -3.23007884e-03  0.00000000e+00  6.90803025e-03  0.00000000e+00
   0.00000000e+00 -4.84203408e-03]
 [-9.84548242e-04 -2.59710685e-03  1.62700540e-03 -6.83206879e-03
  -5.19636739e-03  0.00000000e+00  4.05722158e-03  0.00000000e+00
   0.00000000e+00 -1.19852489e-02]
 [ 1.46309230e-02 -1.40733421e-02  2.39511646e-04 -2.31998716e-03
  -1.00895222e-02  0.00000000e+00  1.04359780e-02  0.00000000e+00
   0.00000000e+00 -8.83734412e-03]
 [ 2.15033945e-02 -1.32775484e-02 -5.80816017e-03  1.79662590e-03
  -8.78457166e-03  0.00000000e+00 -6.39612554e-04  0.00000000e+00
   0.00000000e+00  1.38137955e-02]
 [ 1.62527524e-02 -1.07469400e-02 -2.67634424e-03  1.37722143e-03
  -4.41127317e-03  0.00000000e+00  2.55411396e-06  0.00000000e+00
   0.00000000e+00 -1.25093460e-02]] 
Episode: 70: [[ 6.1682594e-04  4.8770816e-03 -1.0483403e-02 -5.2151056e-03
  -3.4136996e-03  0.0000000e+00  6.8947189e-03  0.0000000e+00
   0.0000000e+00 -4.9248436e-03]
 [-9.7466301e-04 -2.7163562e-03  1.8503064e-03 -6.8890019e-03
  -5.3191856e-03  0.0000000e+00  4.0160920e-03  0.0000000e+00
   0.0000000e+00 -1.2222769e-02]
 [ 1.4886271e-02 -1.4308152e-02  3.4484194e-04 -2.2975337e-03
  -1.0246884e-02  0.0000000e+00  1.0517012e-02  0.0000000e+00
   0.0000000e+00 -9.1217672e-03]
 [ 2.1922933e-02 -1.3508361e-02 -5.7878704e-03  1.8534807e-03
  -8.9386664e-03  0.0000000e+00 -7.6087395e-04  0.0000000e+00
   0.0000000e+00  1.4047617e-02]
 [ 1.6562222e-02 -1.0904113e-02 -2.6874756e-03  1.4270499e-03
  -4.4634975e-03  0.0000000e+00 -1.8881134e-05  0.0000000e+00
   0.0000000e+00 -1.2778856e-02]] 
Episode: 71: [[ 5.95212681e-04  4.82116127e-03 -1.05424570e-02 -5.25608286e-03
  -3.58400424e-03  0.00000000e+00  6.88202493e-03  0.00000000e+00
   0.00000000e+00 -5.00051631e-03]
 [-9.69763962e-04 -2.82362103e-03  2.05337070e-03 -6.92278193e-03
  -5.41966828e-03  0.00000000e+00  3.97834601e-03  0.00000000e+00
   0.00000000e+00 -1.24374349e-02]
 [ 1.51223792e-02 -1.45233255e-02  4.48630453e-04 -2.25549657e-03
  -1.03896046e-02  0.00000000e+00  1.06107276e-02  0.00000000e+00
   0.00000000e+00 -9.37184040e-03]
 [ 2.23183744e-02 -1.37202144e-02 -5.76041359e-03  1.92396471e-03
  -9.08259023e-03  0.00000000e+00 -8.53646023e-04  0.00000000e+00
   0.00000000e+00  1.42475758e-02]
 [ 1.68496221e-02 -1.10536003e-02 -2.67858477e-03  1.49258168e-03
  -4.52474225e-03  0.00000000e+00 -5.19733658e-05  0.00000000e+00
   0.00000000e+00 -1.30204707e-02]] 
Episode: 72: [[ 5.4818764e-04  4.8160194e-03 -1.0621199e-02 -5.3347936e-03
  -3.7194421e-03  0.0000000e+00  6.8843979e-03  0.0000000e+00
   0.0000000e+00 -5.1265145e-03]
 [-9.9315122e-04 -2.9420145e-03  2.2246763e-03 -6.9860816e-03
  -5.5264356e-03  0.0000000e+00  4.0241494e-03  0.0000000e+00
   0.0000000e+00 -1.2715823e-02]
 [ 1.5377654e-02 -1.4808754e-02  6.0270668e-04 -2.2561105e-03
  -1.0602392e-02  0.0000000e+00  1.0761783e-02  0.0000000e+00
   0.0000000e+00 -9.6423086e-03]
 [ 2.2737941e-02 -1.4002038e-02 -5.6973193e-03  1.9559255e-03
  -9.2925308e-03  0.0000000e+00 -9.4743370e-04  0.0000000e+00
   0.0000000e+00  1.4481899e-02]
 [ 1.7172763e-02 -1.1282561e-02 -2.6564822e-03  1.5003155e-03
  -4.6511739e-03  0.0000000e+00 -9.7322227e-05  0.0000000e+00
   0.0000000e+00 -1.3278911e-02]] 
Episode: 73: [[ 0.00052833  0.00481753 -0.01071018 -0.00538362 -0.00387627  0.
   0.00685394  0.          0.         -0.00525584]
 [-0.00096337 -0.00311802  0.00237994 -0.00702758 -0.00562734  0.
   0.00399615  0.          0.         -0.01301576]
 [ 0.01566094 -0.01504446  0.00068212 -0.00222874 -0.01071611  0.
   0.01079438  0.          0.         -0.00992699]
 [ 0.02317884 -0.01421572 -0.00570234  0.00205755 -0.00941031  0.
  -0.00107316  0.          0.          0.01468169]
 [ 0.01752406 -0.01146852 -0.00269318  0.00153539 -0.00468101  0.
  -0.00016123  0.          0.         -0.01348645]] 
Episode: 74: [[ 0.00051162  0.00482114 -0.01080138 -0.00541889 -0.00403914  0.
   0.00682405  0.          0.         -0.00537941]
 [-0.00094558 -0.00329021  0.00251669 -0.0070598  -0.00571701  0.
   0.00396296  0.          0.         -0.0132944 ]
 [ 0.01593102 -0.01524869  0.00075633 -0.00218788 -0.01081424  0.
   0.01083375  0.          0.         -0.0101709 ]
 [ 0.02361212 -0.01439621 -0.00569073  0.0021692  -0.00951447  0.
  -0.00117087  0.          0.          0.01484149]
 [ 0.01786226 -0.0116419  -0.00270508  0.00158699 -0.00472288  0.
  -0.00023106  0.          0.         -0.01366627]] 
Episode: 75: [[ 0.00049676  0.0048382  -0.01089266 -0.00543887 -0.0041969   0.
   0.00679769  0.          0.         -0.00549571]
 [-0.0009368  -0.00345677  0.00267115 -0.00708418 -0.00582048  0.
   0.00393078  0.          0.         -0.0135696 ]
 [ 0.01618792 -0.01543565  0.00084639 -0.00214269 -0.01090404  0.
   0.01088164  0.          0.         -0.01040213]
 [ 0.02402705 -0.01456513 -0.00567298  0.00228265 -0.00961258  0.
  -0.00124083  0.          0.          0.01500501]
 [ 0.01818056 -0.01180076 -0.00271035  0.00164745 -0.00476596  0.
  -0.00028721  0.          0.         -0.01383761]] 
Episode: 76: [[ 0.00048453  0.00484059 -0.01098992 -0.00543496 -0.00434341  0.
   0.00677321  0.          0.         -0.0056216 ]
 [-0.00092847 -0.00355442  0.00282477 -0.00709113 -0.00585142  0.
   0.00388961  0.          0.         -0.01383323]
 [ 0.0164409  -0.01555429  0.00090738 -0.00208358 -0.01093518  0.
   0.01092944  0.          0.         -0.01057622]
 [ 0.02445746 -0.01467456 -0.00569513  0.00240641 -0.00965223  0.
  -0.00132233  0.          0.          0.01512638]
 [ 0.01849983 -0.01188771 -0.0027448   0.00172006 -0.00474819  0.
  -0.00038962  0.          0.         -0.01399048]] 
Episode: 77: [[ 0.0004723   0.00479474 -0.01109632 -0.00539247 -0.00451065  0.
   0.00671796  0.          0.         -0.00573281]
 [-0.00091658 -0.00359148  0.0029329  -0.00704809 -0.00579001  0.
   0.00378501  0.          0.         -0.01408538]
 [ 0.01669382 -0.01559731  0.00090351 -0.00197939 -0.01087405  0.
   0.01095483  0.          0.         -0.01071521]
 [ 0.02489144 -0.01470503 -0.00578532  0.00259272 -0.00959217  0.
  -0.00137771  0.          0.          0.01519155]
 [ 0.01881376 -0.0119014  -0.00284726  0.00183629 -0.00463998  0.
  -0.00051964  0.          0.         -0.01410135]] 
Episode: 78: [[ 0.0005017   0.00477262 -0.01123347 -0.00542223 -0.00467082  0.
   0.00666131  0.          0.         -0.0058133 ]
 [-0.00089006 -0.00364615  0.00304006 -0.00705041 -0.00573409  0.
   0.00368387  0.          0.         -0.01437224]
 [ 0.01699845 -0.01571362  0.00079608 -0.00189753 -0.01084792  0.
   0.01090891  0.          0.         -0.01091843]
 [ 0.02534553 -0.01479771 -0.00595411  0.00274105 -0.00954043  0.
  -0.00152317  0.          0.          0.0153156 ]
 [ 0.0191748  -0.01198002 -0.00305163  0.00193149 -0.00449775  0.
  -0.0007308   0.          0.         -0.0143091 ]] 
Episode: 79: [[ 0.00050458  0.00473883 -0.01136641 -0.00541192 -0.00485748  0.
   0.00659384  0.          0.         -0.00588722]
 [-0.00092708 -0.00365328  0.00319732 -0.00705371 -0.00563546  0.
   0.00352715  0.          0.         -0.01462474]
 [ 0.0172527  -0.01580915  0.00071617 -0.0018069  -0.01083853  0.
   0.01090917  0.          0.         -0.01105078]
 [ 0.02576808 -0.0148691  -0.00607076  0.00290274 -0.00952426  0.
  -0.00162341  0.          0.          0.01537276]
 [ 0.01949226 -0.01205851 -0.00321623  0.00202606 -0.00445087  0.
  -0.00087121  0.          0.         -0.01446858]] 
Episode: 80: [[ 0.00050046  0.004675   -0.01150986 -0.0053948  -0.00505052  0.
   0.00654716  0.          0.         -0.00594458]
 [-0.00100512 -0.0036175   0.00333422 -0.00705033 -0.00551088  0.
   0.00339226  0.          0.         -0.01487205]
 [ 0.01751715 -0.01589033  0.0006878  -0.00173275 -0.01083725  0.
   0.01091425  0.          0.         -0.011189  ]
 [ 0.02621206 -0.01494151 -0.00613014  0.00305363 -0.00953321  0.
  -0.00168215  0.          0.          0.01541616]
 [ 0.01981975 -0.01214701 -0.00336141  0.00210337 -0.00443561  0.
  -0.00099128  0.          0.         -0.01462521]] 
Episode: 81: [[ 0.00047753  0.00458394 -0.01168279 -0.0054185  -0.00524054  0.
   0.00654711  0.          0.         -0.0060234 ]
 [-0.00110901 -0.0035781   0.00346017 -0.00709742 -0.00543896  0.
   0.00332926  0.          0.         -0.01518129]
 [ 0.01777314 -0.0160152   0.00069994 -0.00172675 -0.01090395  0.
   0.01091035  0.          0.         -0.01143632]
 [ 0.02663019 -0.01509352 -0.00617484  0.0031477  -0.009625    0.
  -0.00175021  0.          0.          0.015553  ]
 [ 0.02013194 -0.01231751 -0.00354301  0.00209949 -0.00446853  0.
  -0.00105386  0.          0.         -0.01487669]] 
Episode: 82: [[ 0.00046094  0.00449218 -0.01191837 -0.00549725 -0.00537906  0.
   0.00661203  0.          0.         -0.00605553]
 [-0.00125647 -0.00354294  0.00352026 -0.0071733  -0.0053996   0.
   0.00341414  0.          0.         -0.01536699]
 [ 0.01807298 -0.01617061  0.00063493 -0.00178243 -0.01100742  0.
   0.01091022  0.          0.         -0.01153977]
 [ 0.02707033 -0.01529337 -0.00629004  0.00315799 -0.00973748  0.
  -0.00190657  0.          0.          0.01568851]
 [ 0.02048339 -0.01253145 -0.00378058  0.00202345 -0.00450759  0.
  -0.00106681  0.          0.         -0.01499982]] 
Episode: 83: [[ 0.00043838  0.00444738 -0.01211987 -0.00558488 -0.00547481  0.
   0.00669584  0.          0.         -0.00608869]
 [-0.00141935 -0.00359273  0.00361429 -0.00727259 -0.00543558  0.
   0.00350937  0.          0.         -0.01557516]
 [ 0.01834986 -0.01637649  0.00058682 -0.00185977 -0.01117233  0.
   0.01095997  0.          0.         -0.01169082]
 [ 0.02750339 -0.01551487 -0.00636331  0.00315468 -0.00990722  0.
  -0.0020185   0.          0.          0.01584349]
 [ 0.02081504 -0.01279922 -0.00398384  0.00191998 -0.00463547  0.
  -0.00105386  0.          0.         -0.0151242 ]] 
Episode: 84: [[ 0.00040865  0.0043857  -0.01232014 -0.00562969 -0.00559538  0.
   0.00675714  0.          0.         -0.00609569]
 [-0.0015739  -0.00364879  0.00372849 -0.00733082 -0.00547924  0.
   0.00356716  0.          0.         -0.01575097]
 [ 0.01860724 -0.01656668  0.00054801 -0.00189488 -0.01132151  0.
   0.0110212   0.          0.         -0.01182445]
 [ 0.02790541 -0.01572183 -0.00643852  0.00318137 -0.01006136  0.
  -0.00210088  0.          0.          0.01596524]
 [ 0.02112202 -0.01305584 -0.00417105  0.00185341 -0.00475615  0.
  -0.00103911  0.          0.         -0.01521603]] 
Episode: 85: [[ 0.00038467  0.00433488 -0.01249516 -0.00567643 -0.00569073  0.
   0.00683099  0.          0.         -0.00609732]
 [-0.00172179 -0.00370677  0.0038378  -0.00739013 -0.00553153  0.
   0.00365615  0.          0.         -0.0158809 ]
 [ 0.01884531 -0.01675143  0.00051547 -0.00193385 -0.01147648  0.
   0.01108118  0.          0.         -0.01194375]
 [ 0.02828477 -0.01592397 -0.00650337  0.00320301 -0.01022295  0.
  -0.00217875  0.          0.          0.01608272]
 [ 0.021408   -0.01330374 -0.00433819  0.00179089 -0.00488458  0.
  -0.00102058  0.          0.         -0.01530256]] 
Episode: 86: [[ 0.00038168  0.00422256 -0.01267962 -0.00575561 -0.00584815  0.
   0.00690835  0.          0.         -0.00609776]
 [-0.00185505 -0.00374685  0.00387544 -0.00747299 -0.00555979  0.
   0.00371898  0.          0.         -0.01596772]
 [ 0.01917959 -0.0168855   0.00038508 -0.00197052 -0.01156871  0.
   0.01106563  0.          0.         -0.01204209]
 [ 0.02869086 -0.01608417 -0.00664784  0.00325668 -0.01033542  0.
  -0.00234371  0.          0.          0.01619619]
 [ 0.02177414 -0.01346383 -0.00454062  0.00175234 -0.00490905  0.
  -0.00105282  0.          0.         -0.01533344]] 
Episode: 87: [[ 0.00037742  0.00410574 -0.01286885 -0.00583094 -0.00603009  0.
   0.00698623  0.          0.         -0.00611116]
 [-0.00198759 -0.00376873  0.00394389 -0.00756263 -0.00558534  0.
   0.00376647  0.          0.         -0.01608885]
 [ 0.01949165 -0.01699807  0.00031369 -0.00201285 -0.01166336  0.
   0.01106388  0.          0.         -0.01215605]
 [ 0.02907731 -0.01623518 -0.00674404  0.00330315 -0.01046746  0.
  -0.00249115  0.          0.          0.01634803]
 [ 0.02211719 -0.0136154  -0.00470718  0.00171827 -0.00497568  0.
  -0.00107237  0.          0.         -0.01539661]] 
Episode: 88: [[ 0.00039047  0.00397014 -0.01302334 -0.00597642 -0.00601383  0.
   0.00722197  0.          0.         -0.00611127]
 [-0.00209036 -0.00372781  0.00403359 -0.00774196 -0.00564221  0.
   0.00398036  0.          0.         -0.01628548]
 [ 0.01975913 -0.01725502  0.00016226 -0.00218596 -0.01189648  0.
   0.01114393  0.          0.         -0.01237815]
 [ 0.02938658 -0.01656614 -0.00697746  0.00323199 -0.01072504  0.
  -0.00256391  0.          0.          0.01659372]
 [ 0.02240683 -0.01389183 -0.0049456   0.00153078 -0.00506108  0.
  -0.00100784  0.          0.         -0.01563853]] 
Episode: 89: [[ 3.7364825e-04  3.8315395e-03 -1.3194554e-02 -6.1138291e-03
  -6.0414546e-03  0.0000000e+00  7.4402271e-03  0.0000000e+00
   0.0000000e+00 -6.1654095e-03]
 [-2.2166367e-03 -3.7167619e-03  4.1285488e-03 -7.9259248e-03
  -5.7416060e-03  0.0000000e+00  4.1717188e-03  0.0000000e+00
   0.0000000e+00 -1.6513860e-02]
 [ 2.0026527e-02 -1.7479980e-02  3.7424597e-05 -2.3501501e-03
  -1.2119585e-02  0.0000000e+00  1.1195391e-02  0.0000000e+00
   0.0000000e+00 -1.2594759e-02]
 [ 2.9716931e-02 -1.6863547e-02 -7.1390639e-03  3.1673356e-03
  -1.0975298e-02  0.0000000e+00 -2.6889741e-03  0.0000000e+00
   0.0000000e+00  1.6786577e-02]
 [ 2.2701351e-02 -1.4158200e-02 -5.1693399e-03  1.3864337e-03
  -5.1624854e-03  0.0000000e+00 -9.0628618e-04  0.0000000e+00
   0.0000000e+00 -1.5850551e-02]] 
Episode: 90: [[ 3.4971681e-04  3.7131824e-03 -1.3367189e-02 -6.2797493e-03
  -6.0102795e-03  0.0000000e+00  7.7073169e-03  0.0000000e+00
   0.0000000e+00 -6.1830436e-03]
 [-2.3546531e-03 -3.7438925e-03  4.2116097e-03 -8.1422739e-03
  -5.8758445e-03  0.0000000e+00  4.4521294e-03  0.0000000e+00
   0.0000000e+00 -1.6668141e-02]
 [ 2.0264799e-02 -1.7778741e-02 -6.1015959e-05 -2.5627932e-03
  -1.2384545e-02  0.0000000e+00  1.1281080e-02  0.0000000e+00
   0.0000000e+00 -1.2823035e-02]
 [ 3.0002560e-02 -1.7193794e-02 -7.2944290e-03  3.0494530e-03
  -1.1244165e-02  0.0000000e+00 -2.8382370e-03  0.0000000e+00
   0.0000000e+00  1.7038444e-02]
 [ 2.2964712e-02 -1.4463198e-02 -5.3651310e-03  1.1895226e-03
  -5.2753119e-03  0.0000000e+00 -7.7640649e-04  0.0000000e+00
   0.0000000e+00 -1.6065773e-02]] 
Episode: 91: [[ 0.00032053  0.00360196 -0.01352358 -0.00638961 -0.00597605  0.
   0.0079314   0.          0.         -0.00619394]
 [-0.00249852 -0.0037657   0.00428621 -0.00829797 -0.00599363  0.
   0.00468354  0.          0.         -0.01679922]
 [ 0.02049769 -0.01803549 -0.00014556 -0.00271431 -0.01261503  0.
   0.01136175  0.          0.         -0.01301876]
 [ 0.03029773 -0.01747955 -0.00743253  0.0029834  -0.01147728  0.
  -0.00294679  0.          0.          0.01725665]
 [ 0.02322303 -0.01472949 -0.00553576  0.00105486 -0.0053704   0.
  -0.0006576   0.          0.         -0.01624698]] 
Episode: 92: [[ 0.00029005  0.00353179 -0.01366303 -0.0065001  -0.00593339  0.
   0.00816222  0.          0.         -0.00621596]
 [-0.00264857 -0.00379462  0.00437841 -0.00845814 -0.00614768  0.
   0.00491689  0.          0.         -0.01697381]
 [ 0.0207193  -0.01826516 -0.00019995 -0.0028683  -0.01285164  0.
   0.01145369  0.          0.         -0.01321653]
 [ 0.03060072 -0.01774136 -0.00755917  0.00291242 -0.01170957  0.
  -0.00303532  0.          0.          0.01751959]
 [ 0.02347012 -0.01495714 -0.00570141  0.00092129 -0.00546315  0.
  -0.00052068  0.          0.         -0.01643337]] 
Episode: 93: [[ 0.00025544  0.0034592  -0.01378663 -0.00660699 -0.00589595  0.
   0.00840818  0.          0.         -0.00623822]
 [-0.0027907  -0.00381304  0.00448102 -0.00862069 -0.00630219  0.
   0.00515792  0.          0.         -0.01713302]
 [ 0.02093307 -0.01845774 -0.00023599 -0.00301958 -0.01307468  0.
   0.01155134  0.          0.         -0.01338297]
 [ 0.03090101 -0.0179619  -0.00766295  0.00283609 -0.01192038  0.
  -0.00314354  0.          0.          0.01772921]
 [ 0.02370894 -0.01516238 -0.00582478  0.00080784 -0.00554638  0.
  -0.00039277  0.          0.         -0.016585  ]] 
Episode: 94: [[ 0.00020862  0.00341656 -0.01391485 -0.00673021 -0.00582092  0.
   0.00863007  0.          0.         -0.00624607]
 [-0.0029516  -0.0038251   0.00453775 -0.00878318 -0.00643312  0.
   0.00535756  0.          0.         -0.01724037]
 [ 0.02116226 -0.0186041  -0.00031202 -0.00315426 -0.01324514  0.
   0.01158598  0.          0.         -0.01350093]
 [ 0.03123596 -0.01813979 -0.00777475  0.00279504 -0.01208547  0.
  -0.00329111  0.          0.          0.01790571]
 [ 0.02396424 -0.01532051 -0.00598438  0.00071938 -0.0055787   0.
  -0.0002913   0.          0.         -0.01669495]] 
Episode: 95: [[ 0.00016087  0.00334556 -0.01406367 -0.00681912 -0.00578869  0.
   0.00880305  0.          0.         -0.00624339]
 [-0.00311288 -0.0038056   0.00458715 -0.00890932 -0.00652284  0.
   0.00550864  0.          0.         -0.01731735]
 [ 0.02139492 -0.01871274 -0.00036873 -0.00325529 -0.01337862  0.
   0.01160477  0.          0.         -0.01359123]
 [ 0.03159606 -0.0182802  -0.00787763  0.00279154 -0.01221448  0.
  -0.00345022  0.          0.          0.01804846]
 [ 0.02422617 -0.01544048 -0.00613889  0.00066113 -0.00558945  0.
  -0.00019873  0.          0.         -0.01676529]] 
Episode: 96: [[ 0.00010394  0.00329293 -0.01418978 -0.00686513 -0.00577867  0.
   0.00894728  0.          0.         -0.00625572]
 [-0.0032742  -0.00380017  0.00463247 -0.00898918 -0.00658585  0.
   0.0056305   0.          0.         -0.01740232]
 [ 0.02161424 -0.01881178 -0.0003899  -0.00330785 -0.01348654  0.
   0.01165723  0.          0.         -0.01366459]
 [ 0.03194727 -0.01839022 -0.00794312  0.00282456 -0.01231531  0.
  -0.00356476  0.          0.          0.01814804]
 [ 0.02447093 -0.01553502 -0.00624992  0.00063607 -0.00559639  0.
  -0.00010139  0.          0.         -0.01682941]] 
Episode: 97: [[ 6.0022991e-05  3.2538914e-03 -1.4303599e-02 -6.8745608e-03
  -5.7563442e-03  0.0000000e+00  9.0596937e-03  0.0000000e+00
   0.0000000e+00 -6.2611895e-03]
 [-3.4119512e-03 -3.7953495e-03  4.6630697e-03 -9.0264408e-03
  -6.6305459e-03  0.0000000e+00  5.7256212e-03  0.0000000e+00
   0.0000000e+00 -1.7468711e-02]
 [ 2.1820176e-02 -1.8891703e-02 -4.1156815e-04 -3.3248442e-03
  -1.3566435e-02  0.0000000e+00  1.1687922e-02  0.0000000e+00
   0.0000000e+00 -1.3729468e-02]
 [ 3.2287132e-02 -1.8474724e-02 -8.0116326e-03  2.8904837e-03
  -1.2384249e-02  0.0000000e+00 -3.6538108e-03  0.0000000e+00
   0.0000000e+00  1.8231614e-02]
 [ 2.4704702e-02 -1.5609373e-02 -6.3662347e-03  6.3984800e-04
  -5.5818446e-03  0.0000000e+00 -5.6661665e-05  0.0000000e+00
   0.0000000e+00 -1.6890882e-02]] 
Episode: 98: [[ 1.0884492e-04  3.2643159e-03 -1.4350219e-02 -6.8804030e-03
  -5.6352676e-03  0.0000000e+00  9.2387572e-03  0.0000000e+00
   0.0000000e+00 -6.2295380e-03]
 [-3.4830794e-03 -3.8120225e-03  4.6616178e-03 -9.0753352e-03
  -6.6695758e-03  0.0000000e+00  5.8928584e-03  0.0000000e+00
   0.0000000e+00 -1.7502148e-02]
 [ 2.2042517e-02 -1.8984627e-02 -4.5683666e-04 -3.3485843e-03
  -1.3664195e-02  0.0000000e+00  1.1624646e-02  0.0000000e+00
   0.0000000e+00 -1.3819041e-02]
 [ 3.2635964e-02 -1.8570960e-02 -8.0597140e-03  2.9158860e-03
  -1.2468459e-02  0.0000000e+00 -3.7796467e-03  0.0000000e+00
   0.0000000e+00  1.8335303e-02]
 [ 2.4954241e-02 -1.5698850e-02 -6.4376909e-03  6.0608197e-04
  -5.6075281e-03  0.0000000e+00 -7.9632366e-05  0.0000000e+00
   0.0000000e+00 -1.6990714e-02]] 
Episode: 99: [[ 0.00017788  0.00328384 -0.01437892 -0.00685824 -0.0055224   0.
   0.00938733  0.          0.         -0.0062102 ]
 [-0.00351971 -0.00382679  0.00466979 -0.00908772 -0.00667857  0.
   0.00602527  0.          0.         -0.01755607]
 [ 0.02223925 -0.0190507  -0.00051457 -0.00334072 -0.01371106  0.
   0.01155995  0.          0.         -0.01389346]
 [ 0.03296848 -0.01862895 -0.00813062  0.0029682  -0.01249096  0.
  -0.00388563  0.          0.          0.01842637]
 [ 0.02518169 -0.0157407  -0.00649132  0.00061792 -0.00558538  0.
  -0.00012414  0.          0.         -0.01708395]] 
Episode: 100: [[ 0.00024484  0.00329594 -0.01440163 -0.00677449 -0.00543542  0.
   0.00949654  0.          0.         -0.00619473]
 [-0.00355089 -0.00383727  0.00467737 -0.00903128 -0.00665553  0.
   0.00612048  0.          0.         -0.01760133]
 [ 0.02242514 -0.01910471 -0.00056487 -0.00326421 -0.01373076  0.
   0.01151879  0.          0.         -0.01394956]
 [ 0.03328268 -0.01866879 -0.00819794  0.00307114 -0.01248561  0.
  -0.00396137  0.          0.          0.01847925]
 [ 0.0253943  -0.0157693  -0.00654214  0.00071341 -0.00554632  0.
  -0.00018138  0.          0.         -0.0171564 ]] 
Episode: 101: [[ 0.00031421  0.00328338 -0.01443832 -0.00666863 -0.00539321  0.
   0.00959398  0.          0.         -0.00618277]
 [-0.0035651  -0.00381389  0.00466027 -0.0089443  -0.00659237  0.
   0.00619842  0.          0.         -0.01764956]
 [ 0.02261592 -0.01912754 -0.00063029 -0.00316381 -0.01371229  0.
   0.01146366  0.          0.         -0.01398872]
 [ 0.03361937 -0.0186785  -0.00828287  0.00321387 -0.01244069  0.
  -0.00405684  0.          0.          0.01851972]
 [ 0.02561613 -0.01576183 -0.00659321  0.00083057 -0.00547442  0.
  -0.00024707  0.          0.         -0.01721573]] 
Episode: 102: [[ 0.00043833  0.00335253 -0.01439635 -0.00654228 -0.00529897  0.
   0.00969817  0.          0.         -0.00619111]
 [-0.0035344  -0.00389971  0.00464323 -0.00882769 -0.00657222  0.
   0.0062865   0.          0.         -0.01774405]
 [ 0.02279911 -0.01915498 -0.00065855 -0.00304693 -0.01368751  0.
   0.01139305  0.          0.         -0.01401643]
 [ 0.03397767 -0.01865155 -0.00831154  0.00337675 -0.0123788   0.
  -0.00414398  0.          0.          0.01847616]
 [ 0.02583531 -0.0157489  -0.00660771  0.0009685  -0.00540164  0.
  -0.00029484  0.          0.         -0.01722818]] 
Episode: 103: [[ 0.00054412  0.00341143 -0.01437097 -0.0064311  -0.00522177  0.
   0.00979404  0.          0.         -0.00621461]
 [-0.00351968 -0.00395992  0.00462576 -0.00872316 -0.00653747  0.
   0.00635988  0.          0.         -0.01785644]
 [ 0.02297478 -0.01916827 -0.00067987 -0.00293666 -0.0136614   0.
   0.01135156  0.          0.         -0.01404363]
 [ 0.03432099 -0.01862316 -0.00833982  0.00353015 -0.01232419  0.
  -0.00417803  0.          0.          0.01846263]
 [ 0.02604541 -0.01572411 -0.00661421  0.00109503 -0.00533485  0.
  -0.00033152  0.          0.         -0.01725177]] 
Episode: 104: [[ 0.00062645  0.00348023 -0.01434823 -0.00632571 -0.00513166  0.
   0.00989365  0.          0.         -0.00626574]
 [-0.0035039  -0.00404831  0.00461722 -0.00861348 -0.00652083  0.
   0.00644183  0.          0.         -0.01802268]
 [ 0.02311817 -0.01921498 -0.00071565 -0.00281929 -0.01363696  0.
   0.01136375  0.          0.         -0.01409255]
 [ 0.03462797 -0.01860712 -0.00838541  0.00369188 -0.01226073  0.
  -0.00416225  0.          0.          0.01848018]
 [ 0.02622969 -0.01572077 -0.00663292  0.00124049 -0.00524404  0.
  -0.00034243  0.          0.         -0.01729015]] 
Episode: 105: [[ 0.00068115  0.00352838 -0.01438778 -0.00637184 -0.00513642  0.
   0.01006785  0.          0.         -0.00636296]
 [-0.0035045  -0.00418491  0.00467803 -0.0086762  -0.00662762  0.
   0.00659522  0.          0.         -0.01826249]
 [ 0.02324987 -0.01930909 -0.00071767 -0.00284835 -0.01369683  0.
   0.01145088  0.          0.         -0.01420571]
 [ 0.03491147 -0.0186435  -0.0083806   0.00373538 -0.01228814  0.
  -0.00412346  0.          0.          0.01860957]
 [ 0.0264009  -0.01577634 -0.00662642  0.00125678 -0.00525956  0.
  -0.00031379  0.          0.         -0.01742099]] 
Episode: 106: [[ 0.00073284  0.00357565 -0.01442426 -0.00641804 -0.00512901  0.
   0.01022953  0.          0.         -0.00645342]
 [-0.0035046  -0.00431061  0.00473129 -0.00873905 -0.00673096  0.
   0.00674049  0.          0.         -0.01848641]
 [ 0.02337069 -0.01939073 -0.00072363 -0.00288102 -0.01375275  0.
   0.01152561  0.          0.         -0.01431216]
 [ 0.03517053 -0.01867337 -0.00837655  0.00377053 -0.01231366  0.
  -0.00409761  0.          0.          0.01872993]
 [ 0.02655747 -0.01582429 -0.0066212   0.00126674 -0.00527566  0.
  -0.00028437  0.          0.         -0.01754196]] 
Episode: 107: [[ 0.00077587  0.00360622 -0.01447512 -0.00644024 -0.00513542  0.
   0.01036787  0.          0.         -0.00653599]
 [-0.00351346 -0.00440023  0.00477342 -0.00877513 -0.00680485  0.
   0.00686003  0.          0.         -0.01867319]
 [ 0.02349126 -0.01944734 -0.00071973 -0.00288928 -0.01378974  0.
   0.0115941   0.          0.         -0.01439114]
 [ 0.03542675 -0.01868871 -0.00836802  0.00382223 -0.01232651  0.
  -0.00405802  0.          0.          0.01883131]
 [ 0.02671153 -0.01585057 -0.00660507  0.00130088 -0.00527843  0.
  -0.00026444  0.          0.         -0.01764041]] 
Episode: 108: [[ 0.00081265  0.00364974 -0.01451295 -0.00644834 -0.00513578  0.
   0.01049854  0.          0.         -0.00660336]
 [-0.00352312 -0.00449007  0.00481962 -0.00879814 -0.00688353  0.
   0.00697484  0.          0.         -0.01882074]
 [ 0.02360209 -0.01950268 -0.00071616 -0.00288514 -0.01382518  0.
   0.01165465  0.          0.         -0.01444386]
 [ 0.03566624 -0.01869717 -0.00836825  0.00388654 -0.01232964  0.
  -0.00402419  0.          0.          0.01888175]
 [ 0.02685455 -0.01587758 -0.00659102  0.00134822 -0.0052753   0.
  -0.00024806  0.          0.         -0.01771012]] 
Episode: 109: [[ 0.00082636  0.00367489 -0.0145456  -0.00647628 -0.00514692  0.
   0.01063776  0.          0.         -0.00668306]
 [-0.00355069 -0.00456066  0.00489245 -0.00884059 -0.0069512   0.
   0.00710097  0.          0.         -0.01904413]
 [ 0.02370459 -0.0196017  -0.00066233 -0.00290721 -0.01390151  0.
   0.01172553  0.          0.         -0.0145633 ]
 [ 0.03589003 -0.01876083 -0.00832905  0.00393046 -0.01239129  0.
  -0.00397486  0.          0.          0.01903914]
 [ 0.02698849 -0.01593434 -0.00653864  0.00137672 -0.0053165   0.
  -0.00022499  0.          0.         -0.01784944]] 
Episode: 110: [[ 0.00084897  0.00371518 -0.01455885 -0.00650839 -0.0051295   0.
   0.01076015  0.          0.         -0.00675263]
 [-0.00356915 -0.00462028  0.0049288  -0.0088865  -0.0070037   0.
   0.00720833  0.          0.         -0.01924925]
 [ 0.02379515 -0.01969107 -0.00063031 -0.00293865 -0.01397285  0.
   0.01177793  0.          0.         -0.01468098]
 [ 0.03609039 -0.01881946 -0.00829408  0.0039568  -0.01245513  0.
  -0.00393474  0.          0.          0.01918151]
 [ 0.02710783 -0.01598666 -0.00648864  0.00138777 -0.00536234  0.
  -0.00020818  0.          0.         -0.01798016]] 
Episode: 111: [[ 0.00086275  0.00368074 -0.01461842 -0.00656453 -0.00516408  0.
   0.01088469  0.          0.         -0.0068206 ]
 [-0.00365721 -0.00458469  0.00490846 -0.00896336 -0.00701236  0.
   0.00731799  0.          0.         -0.01951801]
 [ 0.02389477 -0.01977195 -0.00054253 -0.00300168 -0.01406617  0.
   0.0118674   0.          0.         -0.01482331]
 [ 0.03629925 -0.01889587 -0.00818777  0.00394949 -0.01255774  0.
  -0.00385494  0.          0.          0.01941844]
 [ 0.02723562 -0.01601537 -0.0063373   0.00135947 -0.00545878  0.
  -0.00020487  0.          0.         -0.01820216]] 
Episode: 112: [[ 0.00089839  0.00360574 -0.01468062 -0.00667772 -0.0052437   0.
   0.01105987  0.          0.         -0.00695137]
 [-0.00373099 -0.00454517  0.00489837 -0.00910816 -0.00698834  0.
   0.00744544  0.          0.         -0.01984793]
 [ 0.02397722 -0.01988993 -0.00034229 -0.00313273 -0.0142162   0.
   0.01195148  0.          0.         -0.0150779 ]
 [ 0.03648187 -0.01904633 -0.00799114  0.0038865  -0.01276809  0.
  -0.00384682  0.          0.          0.01973701]
 [ 0.02733997 -0.01611093 -0.00604442  0.00128363 -0.00567519  0.
  -0.00013127  0.          0.         -0.01857626]] 
Episode: 113: [[ 9.4000972e-04  3.5184871e-03 -1.4718317e-02 -6.7146146e-03
  -5.3516082e-03  0.0000000e+00  1.1175725e-02  0.0000000e+00
   0.0000000e+00 -7.0859985e-03]
 [-3.7767671e-03 -4.4848686e-03  4.9010422e-03 -9.1759358e-03
  -6.9216574e-03  0.0000000e+00  7.4876351e-03  0.0000000e+00
   0.0000000e+00 -2.0224728e-02]
 [ 2.4043161e-02 -1.9948067e-02 -1.3713996e-04 -3.1808713e-03
  -1.4304279e-02  0.0000000e+00  1.2039589e-02  0.0000000e+00
   0.0000000e+00 -1.5278587e-02]
 [ 3.6637899e-02 -1.9135576e-02 -7.7890600e-03  3.8947402e-03
  -1.2923457e-02  0.0000000e+00 -3.7998967e-03  0.0000000e+00
   0.0000000e+00  1.9911412e-02]
 [ 2.7425427e-02 -1.6155299e-02 -5.7626641e-03  1.2804993e-03
  -5.8518266e-03  0.0000000e+00 -7.4158495e-05  0.0000000e+00
   0.0000000e+00 -1.8853281e-02]] 
Episode: 114: [[ 9.8305708e-04  3.4587136e-03 -1.4761752e-02 -6.7483382e-03
  -5.4325429e-03  0.0000000e+00  1.1277843e-02  0.0000000e+00
   0.0000000e+00 -7.2124284e-03]
 [-3.8037493e-03 -4.4555548e-03  4.8962170e-03 -9.2358496e-03
  -6.8819406e-03  0.0000000e+00  7.5246012e-03  0.0000000e+00
   0.0000000e+00 -2.0595113e-02]
 [ 2.4105567e-02 -1.9995479e-02  3.5292207e-05 -3.2210092e-03
  -1.4382612e-02  0.0000000e+00  1.2115766e-02  0.0000000e+00
   0.0000000e+00 -1.5473477e-02]
 [ 3.6786418e-02 -1.9199634e-02 -7.6175164e-03  3.9046232e-03
  -1.3054650e-02  0.0000000e+00 -3.7407351e-03  0.0000000e+00
   0.0000000e+00  2.0056311e-02]
 [ 2.7504362e-02 -1.6180551e-02 -5.5194660e-03  1.2854981e-03
  -5.9976000e-03  0.0000000e+00 -4.4756642e-05  0.0000000e+00
   0.0000000e+00 -1.9102648e-02]] 
Episode: 115: [[ 9.8614290e-04  3.4160872e-03 -1.4862658e-02 -6.7628413e-03
  -5.5630743e-03  0.0000000e+00  1.1361008e-02  0.0000000e+00
   0.0000000e+00 -7.3431963e-03]
 [-3.8406774e-03 -4.5997710e-03  5.0384728e-03 -9.3060834e-03
  -6.9994656e-03  0.0000000e+00  7.5235250e-03  0.0000000e+00
   0.0000000e+00 -2.0997547e-02]
 [ 2.4140066e-02 -2.0072162e-02  2.3523696e-04 -3.2533994e-03
  -1.4497888e-02  0.0000000e+00  1.2274808e-02  0.0000000e+00
   0.0000000e+00 -1.5680091e-02]
 [ 3.6911014e-02 -1.9260652e-02 -7.4498062e-03  3.9039403e-03
  -1.3200004e-02  0.0000000e+00 -3.6398568e-03  0.0000000e+00
   0.0000000e+00  2.0229390e-02]
 [ 2.7563443e-02 -1.6258029e-02 -5.2970694e-03  1.2814876e-03
  -6.1914483e-03  0.0000000e+00  1.9935498e-05  0.0000000e+00
   0.0000000e+00 -1.9333780e-02]] 
Episode: 116: [[ 9.82497120e-04  3.36332200e-03 -1.49855521e-02 -6.77869841e-03
  -5.67385135e-03  0.00000000e+00  1.14417784e-02  0.00000000e+00
   0.00000000e+00 -7.44748209e-03]
 [-3.92469577e-03 -4.71115904e-03  5.10852272e-03 -9.38123744e-03
  -7.10112508e-03  0.00000000e+00  7.53233256e-03  0.00000000e+00
   0.00000000e+00 -2.13060938e-02]
 [ 2.42085010e-02 -2.01644190e-02  4.36293485e-04 -3.28033092e-03
  -1.46431355e-02  0.00000000e+00  1.24248974e-02  0.00000000e+00
   0.00000000e+00 -1.58638582e-02]
 [ 3.70948985e-02 -1.93492640e-02 -7.23206857e-03  3.88667872e-03
  -1.33882081e-02  0.00000000e+00 -3.53134726e-03  0.00000000e+00
   0.00000000e+00  2.03780513e-02]
 [ 2.76751220e-02 -1.63977221e-02 -5.08780731e-03  1.26270961e-03
  -6.44495990e-03  0.00000000e+00  8.52545782e-05  0.00000000e+00
   0.00000000e+00 -1.95240974e-02]] 
Episode: 117: [[ 0.00097614  0.0033258  -0.01512398 -0.00688015 -0.00572721  0.
   0.011564    0.          0.         -0.00755681]
 [-0.00402068 -0.0047974   0.00506306 -0.00952825 -0.0071948   0.
   0.00762628  0.          0.         -0.02166988]
 [ 0.02427714 -0.02025675  0.00064037 -0.00339503 -0.01484207  0.
   0.01256384  0.          0.         -0.01609816]
 [ 0.03728635 -0.01943943 -0.00692669  0.00378513 -0.01364789  0.
  -0.00349088  0.          0.          0.02061285]
 [ 0.02778372 -0.01651355 -0.00484816  0.00117429 -0.00678193  0.
   0.00018874  0.          0.         -0.01975258]] 
Episode: 118: [[ 0.00115677  0.00324601 -0.01503982 -0.00703906 -0.00553551  0.
   0.01170885  0.          0.         -0.00765746]
 [-0.0039344  -0.00495584  0.0051444  -0.0096753  -0.00731252  0.
   0.00785044  0.          0.         -0.02193033]
 [ 0.02423576 -0.02046723  0.0007663  -0.00354232 -0.01516061  0.
   0.0126949   0.          0.         -0.01643171]
 [ 0.0374243  -0.01961271 -0.00668013  0.00357864 -0.01398573  0.
  -0.00338409  0.          0.          0.02090369]
 [ 0.02783008 -0.01677871 -0.00465762  0.00102532 -0.00719822  0.
   0.00023751  0.          0.         -0.02004594]] 
Episode: 119: [[ 0.00138749  0.00328747 -0.01485356 -0.00714138 -0.00524479  0.
   0.0118624   0.          0.         -0.00781251]
 [-0.00374315 -0.00523173  0.00529096 -0.00979171 -0.00749331  0.
   0.00810292  0.          0.         -0.02214873]
 [ 0.02411675 -0.02071412  0.00075807 -0.0036895  -0.01549407  0.
   0.01289512  0.          0.         -0.01674174]
 [ 0.03757312 -0.01977069 -0.00650348  0.00336853 -0.01430343  0.
  -0.00327897  0.          0.          0.0211252 ]
 [ 0.02784297 -0.01706725 -0.00445256  0.00089685 -0.00760791  0.
   0.00032871  0.          0.         -0.02028264]] 
Episode: 120: [[ 0.00163376  0.00330942 -0.01468777 -0.00721274 -0.00499923  0.
   0.01192976  0.          0.         -0.00796373]
 [-0.00350648 -0.00548528  0.0054009  -0.0098716  -0.00761101  0.
   0.00825481  0.          0.         -0.02237347]
 [ 0.02403116 -0.02087833  0.00064612 -0.00379975 -0.01570033  0.
   0.01292035  0.          0.         -0.01703062]
 [ 0.03777633 -0.01986096 -0.00647545  0.00325488 -0.01449643  0.
  -0.00320797  0.          0.          0.02128404]
 [ 0.02789148 -0.01726341 -0.00446042  0.00080527 -0.00785159  0.
   0.00034625  0.          0.         -0.02047266]] 
Episode: 121: [[ 0.00186237  0.00334392 -0.01452978 -0.00717588 -0.00478808  0.
   0.01195867  0.          0.         -0.00810593]
 [-0.00328798 -0.00572306  0.00550642 -0.00983875 -0.00766792  0.
   0.00834055  0.          0.         -0.02258146]
 [ 0.02395795 -0.02101687  0.00054585 -0.00379346 -0.01583953  0.
   0.0129918   0.          0.         -0.01728842]
 [ 0.0379781  -0.01992123 -0.00645195  0.00322491 -0.01462743  0.
  -0.00309425  0.          0.          0.02141037]
 [ 0.02794261 -0.01743014 -0.00446432  0.00083286 -0.00804618  0.
   0.00033652  0.          0.         -0.0206385 ]] 
Episode: 122: [[ 0.0020692   0.00336799 -0.01437903 -0.00711254 -0.00460605  0.
   0.01197841  0.          0.         -0.00822996]
 [-0.00307762 -0.00594167  0.00561715 -0.00978083 -0.00771946  0.
   0.00840749  0.          0.         -0.02274102]
 [ 0.023888   -0.02112487  0.00045521 -0.0037628  -0.01594472  0.
   0.01303788  0.          0.         -0.01750718]
 [ 0.03817442 -0.01994122 -0.00644589  0.00322578 -0.01470944  0.
  -0.00300125  0.          0.          0.02150235]
 [ 0.0279907  -0.01755327 -0.00447774  0.00088529 -0.00820008  0.
   0.00029556  0.          0.         -0.02076678]] 
Episode: 123: [[ 0.0022595   0.00338873 -0.01423742 -0.00700308 -0.00444415  0.
   0.01197264  0.          0.         -0.00834988]
 [-0.00288144 -0.00614501  0.00571331 -0.00967262 -0.00774612  0.
   0.00843755  0.          0.         -0.02289423]
 [ 0.02382279 -0.02121148  0.00038605 -0.00367782 -0.0160182   0.
   0.01307358  0.          0.         -0.01769404]
 [ 0.03837032 -0.01992108 -0.00642192  0.00329509 -0.01474538  0.
  -0.00287828  0.          0.          0.02152256]
 [ 0.02803545 -0.017633   -0.00446364  0.00099399 -0.00833029  0.
   0.00023382  0.          0.         -0.02086149]] 
Episode: 124: [[ 0.0024458   0.00342581 -0.01410817 -0.00684878 -0.00431469  0.
   0.01195101  0.          0.         -0.00847368]
 [-0.00268018 -0.00633886  0.00581598 -0.00950883 -0.00771992  0.
   0.00844726  0.          0.         -0.02306835]
 [ 0.02375935 -0.02128336  0.00032666 -0.00353672 -0.01603664  0.
   0.01310646  0.          0.         -0.01786065]
 [ 0.03854553 -0.01986761 -0.00639608  0.00341249 -0.01472972  0.
  -0.00270534  0.          0.          0.02150577]
 [ 0.02807306 -0.01768692 -0.00443672  0.0011515  -0.00843003  0.
   0.00012223  0.          0.         -0.02094653]] 
Episode: 125: [[ 2.6120204e-03  3.4608727e-03 -1.3990071e-02 -6.6506625e-03
  -4.1930098e-03  0.0000000e+00  1.1908488e-02  0.0000000e+00
   0.0000000e+00 -8.5864905e-03]
 [-2.4977990e-03 -6.5060523e-03  5.8939504e-03 -9.2974231e-03
  -7.6532108e-03  0.0000000e+00  8.4292814e-03  0.0000000e+00
   0.0000000e+00 -2.3226416e-02]
 [ 2.3697799e-02 -2.1337075e-02  2.6278524e-04 -3.3423512e-03
  -1.6029516e-02  0.0000000e+00  1.3173161e-02  0.0000000e+00
   0.0000000e+00 -1.7993970e-02]
 [ 3.8698826e-02 -1.9803828e-02 -6.3750283e-03  3.5694253e-03
  -1.4696595e-02  0.0000000e+00 -2.5292467e-03  0.0000000e+00
   0.0000000e+00  2.1438189e-02]
 [ 2.8102791e-02 -1.7726993e-02 -4.4138175e-03  1.3679994e-03
  -8.5106343e-03  0.0000000e+00  1.9218214e-06  0.0000000e+00
   0.0000000e+00 -2.1008313e-02]] 
Episode: 126: [[ 0.00276175  0.00349107 -0.01388399 -0.00645643 -0.00407656  0.
   0.01187611  0.          0.         -0.0086785 ]
 [-0.00233473 -0.00665827  0.00596541 -0.00909513 -0.00759656  0.
   0.0084219   0.          0.         -0.023336  ]
 [ 0.02364968 -0.02137935  0.00019589 -0.00315396 -0.01602044  0.
   0.01324895  0.          0.         -0.01809136]
 [ 0.03885091 -0.01973637 -0.00637018  0.0037231  -0.01466202  0.
  -0.00236071  0.          0.          0.02130348]
 [ 0.02813561 -0.01777374 -0.00440152  0.00157104 -0.00858273  0.
  -0.00013246  0.          0.         -0.02102684]] 
Episode: 127: [[ 0.0028844   0.00350256 -0.01380528 -0.00626159 -0.00398461  0.
   0.01183423  0.          0.         -0.00876219]
 [-0.00219083 -0.00677616  0.00604391 -0.00889239 -0.00753622  0.
   0.00840507  0.          0.         -0.02342768]
 [ 0.02361028 -0.02141064  0.00014886 -0.00296087 -0.01600521  0.
   0.01332625  0.          0.         -0.01817107]
 [ 0.03899238 -0.01967666 -0.00636329  0.00388196 -0.01462821  0.
  -0.00219898  0.          0.          0.0211832 ]
 [ 0.02816814 -0.0178043  -0.0043859   0.00178178 -0.00863713  0.
  -0.00025981  0.          0.         -0.02104625]] 
Episode: 128: [[ 0.0029947   0.00352186 -0.01373296 -0.00612645 -0.00389076  0.
   0.01183241  0.          0.         -0.00883749]
 [-0.00206678 -0.00689051  0.00612097 -0.00875258 -0.00751253  0.
   0.00843133  0.          0.         -0.02352164]
 [ 0.0235772  -0.0214584   0.00011212 -0.00283347 -0.01602405  0.
   0.01339165  0.          0.         -0.0182619 ]
 [ 0.03912425 -0.01964624 -0.00635296  0.00399419 -0.01462847  0.
  -0.0020717   0.          0.          0.0211206 ]
 [ 0.02819983 -0.01785071 -0.00437002  0.00192686 -0.00870848  0.
  -0.0003707   0.          0.         -0.02109146]] 
Episode: 129: [[ 3.0903805e-03  3.5235977e-03 -1.3695187e-02 -6.0363882e-03
  -3.8181592e-03  0.0000000e+00  1.1844313e-02  0.0000000e+00
   0.0000000e+00 -8.8939304e-03]
 [-1.9607341e-03 -6.9798133e-03  6.1783115e-03 -8.6578550e-03
  -7.4930158e-03  0.0000000e+00  8.4738741e-03  0.0000000e+00
   0.0000000e+00 -2.3581000e-02]
 [ 2.3551129e-02 -2.1498416e-02  6.2254963e-05 -2.7500510e-03
  -1.6055238e-02  0.0000000e+00  1.3443928e-02  0.0000000e+00
   0.0000000e+00 -1.8336182e-02]
 [ 3.9260648e-02 -1.9622022e-02 -6.3448963e-03  4.0683369e-03
  -1.4645905e-02  0.0000000e+00 -1.9775061e-03  0.0000000e+00
   0.0000000e+00  2.1056458e-02]
 [ 2.8235801e-02 -1.7894814e-02 -4.3449672e-03  2.0359440e-03
  -8.7865731e-03  0.0000000e+00 -4.6851230e-04  0.0000000e+00
   0.0000000e+00 -2.1123108e-02]] 
Episode: 130: [[ 0.00313161  0.00354185 -0.01374346 -0.00597882 -0.00375171  0.
   0.01181746  0.          0.         -0.00912431]
 [-0.00192242 -0.0070838   0.00625899 -0.00860511 -0.00751129  0.
   0.00846792  0.          0.         -0.02372508]
 [ 0.02356904 -0.02146015  0.00015133 -0.00267795 -0.01607222  0.
   0.01361952  0.          0.         -0.01841784]
 [ 0.03945773 -0.01953259 -0.00623643  0.00414102 -0.01466419  0.
  -0.00178813  0.          0.          0.02110547]
 [ 0.02831572 -0.01786412 -0.00423468  0.00212192 -0.00889284  0.
  -0.0005018   0.          0.         -0.02119405]] 
Episode: 131: [[ 0.00291799  0.00329304 -0.01375062 -0.00585888 -0.00369471  0.
   0.01201769  0.          0.         -0.00912754]
 [-0.00220977 -0.00751631  0.00650333 -0.00856628 -0.00788387  0.
   0.00863629  0.          0.         -0.02376321]
 [ 0.02356336 -0.02156708  0.00039591 -0.00255984 -0.01628205  0.
   0.01391749  0.          0.         -0.01862069]
 [ 0.03969239 -0.0195227  -0.00607578  0.00408232 -0.0147744   0.
  -0.00152745  0.          0.          0.02125338]
 [ 0.02841141 -0.01801465 -0.00407436  0.00214346 -0.00914889  0.
  -0.00052251  0.          0.         -0.02136946]] 
Episode: 132: [[ 0.00272631  0.00305982 -0.0137935  -0.00579119 -0.00364233  0.
   0.01221623  0.          0.         -0.00913961]
 [-0.00248036 -0.0078841   0.00667014 -0.00857955 -0.00821221  0.
   0.00881877  0.          0.         -0.02380539]
 [ 0.02356382 -0.02162895  0.00060201 -0.00249986 -0.0164725   0.
   0.01420607  0.          0.         -0.01880568]
 [ 0.03991397 -0.01949813 -0.00591752  0.00398724 -0.01488928  0.
  -0.00131174  0.          0.          0.02138823]
 [ 0.02850487 -0.0181293  -0.00392162  0.00211687 -0.00939214  0.
  -0.0005304   0.          0.         -0.02153378]] 
Episode: 133: [[ 0.00257521  0.00284301 -0.01386052 -0.0057166  -0.00364671  0.
   0.01240438  0.          0.         -0.00917504]
 [-0.00270215 -0.00822692  0.00685877 -0.0085758  -0.00852752  0.
   0.00898574  0.          0.         -0.02380631]
 [ 0.02361792 -0.02168787  0.00074145 -0.00243107 -0.01661533  0.
   0.0144529   0.          0.         -0.01892812]
 [ 0.04018717 -0.01946365 -0.00586402  0.00393129 -0.01494222  0.
  -0.00117992  0.          0.          0.02145049]
 [ 0.02864935 -0.01821676 -0.00388497  0.00210377 -0.00954551  0.
  -0.00060063  0.          0.         -0.02164775]] 
Episode: 134: [[ 0.00241557  0.00265294 -0.01392031 -0.00560356 -0.00361096  0.
   0.01259053  0.          0.         -0.00920477]
 [-0.00291124 -0.00851398  0.00701935 -0.00851109 -0.00881031  0.
   0.0091814   0.          0.         -0.02374904]
 [ 0.02369848 -0.02168803  0.00089687 -0.00231214 -0.01670699  0.
   0.01471805  0.          0.         -0.01896706]
 [ 0.04049816 -0.01936533 -0.00579439  0.00390932 -0.01493037  0.
  -0.00107807  0.          0.          0.02146917]
 [ 0.02881224 -0.01820475 -0.00386062  0.0021334  -0.00963621  0.
  -0.00068373  0.          0.         -0.02169041]] 
Episode: 135: [[ 0.00228251  0.00251971 -0.01393308 -0.0054912  -0.0035459   0.
   0.01274297  0.          0.         -0.00927857]
 [-0.00302735 -0.00873802  0.00718693 -0.00844619 -0.00904901  0.
   0.0093461   0.          0.         -0.02372674]
 [ 0.02375246 -0.02158592  0.00098246 -0.00218736 -0.01671002  0.
   0.01498295  0.          0.         -0.01891595]
 [ 0.04077164 -0.01915827 -0.00580328  0.0038913  -0.01481357  0.
  -0.00095565  0.          0.          0.02142675]
 [ 0.02894491 -0.01810588 -0.00389179  0.00217436 -0.00959618  0.
  -0.00071737  0.          0.         -0.02166426]] 
Episode: 136: [[ 0.00214082  0.00245788 -0.01393408 -0.00544747 -0.00348913  0.
   0.01292987  0.          0.         -0.0093195 ]
 [-0.00322808 -0.00896447  0.00741309 -0.00845618 -0.00929722  0.
   0.00955108  0.          0.         -0.02362468]
 [ 0.02387728 -0.02152507  0.00105513 -0.00210134 -0.01678689  0.
   0.01528008  0.          0.         -0.01886024]
 [ 0.04109105 -0.01902349 -0.00580349  0.00383192 -0.01480386  0.
  -0.00085391  0.          0.          0.02133339]
 [ 0.02916188 -0.01807916 -0.00399232  0.00218261 -0.00962596  0.
  -0.00078149  0.          0.         -0.02161971]] 
Episode: 137: [[ 0.00202373  0.00241805 -0.0139324  -0.00539429 -0.00342527  0.
   0.01311227  0.          0.         -0.0093612 ]
 [-0.00339734 -0.00918348  0.00764231 -0.0084578  -0.00954229  0.
   0.00974834  0.          0.         -0.02355274]
 [ 0.0240189  -0.02145893  0.00111938 -0.00201333 -0.01685193  0.
   0.01555738  0.          0.         -0.01880857]
 [ 0.0414513  -0.01887673 -0.00582314  0.00379953 -0.01477429  0.
  -0.00077136  0.          0.          0.02121614]
 [ 0.02939929 -0.01803872 -0.00409813  0.00220701 -0.009637    0.
  -0.00084027  0.          0.         -0.02157317]] 
Episode: 138: [[ 0.00192168  0.00235373 -0.01396182 -0.00533952 -0.00340624  0.
   0.01327066  0.          0.         -0.00941016]
 [-0.00354545 -0.00934756  0.00787383 -0.00845203 -0.00973983  0.
   0.00991178  0.          0.         -0.02345859]
 [ 0.024157   -0.02138282  0.00119397 -0.00192167 -0.01690612  0.
   0.01580302  0.          0.         -0.01872017]
 [ 0.04179836 -0.01873831 -0.00582953  0.00378411 -0.01474981  0.
  -0.0007045   0.          0.          0.02109558]
 [ 0.02962421 -0.01798461 -0.00418338  0.00223239 -0.00964863  0.
  -0.00090521  0.          0.         -0.02150765]] 
Episode: 139: [[ 0.00183546  0.00229104 -0.01398706 -0.00528575 -0.0033787   0.
   0.01341897  0.          0.         -0.00944044]
 [-0.0036743  -0.00949561  0.00807406 -0.00844129 -0.00991106  0.
   0.01007148  0.          0.         -0.02337066]
 [ 0.02428802 -0.02131747  0.00126135 -0.00183947 -0.01695395  0.
   0.01601322  0.          0.         -0.01864058]
 [ 0.04211965 -0.01861625 -0.00582941  0.00377134 -0.01472939  0.
  -0.00066566  0.          0.          0.02099255]
 [ 0.02983255 -0.01793078 -0.00426258  0.00226104 -0.00965366  0.
  -0.00095824  0.          0.         -0.02144673]] 
Episode: 140: [[ 0.00178358  0.00225226 -0.01400905 -0.00525575 -0.00333305  0.
   0.01356649  0.          0.         -0.00946396]
 [-0.00374856 -0.00971225  0.00829243 -0.00843977 -0.0101284   0.
   0.01025489  0.          0.         -0.02333371]
 [ 0.02442203 -0.02131101  0.00132511 -0.00177232 -0.01703075  0.
   0.01619755  0.          0.         -0.01863255]
 [ 0.04244643 -0.01853376 -0.00584106  0.00375368 -0.01472538  0.
  -0.00062758  0.          0.          0.02093694]
 [ 0.03003948 -0.01792508 -0.00434448  0.00227515 -0.00966421  0.
  -0.00100394  0.          0.         -0.02143587]] 
Episode: 141: [[ 0.00173103  0.00216675 -0.01404713 -0.00518952 -0.00339036  0.
   0.01365079  0.          0.         -0.00950884]
 [-0.00381329 -0.00988039  0.00852429 -0.00840156 -0.01029249  0.
   0.01036237  0.          0.         -0.02332989]
 [ 0.02454193 -0.02127692  0.00139448 -0.00166174 -0.01706647  0.
   0.01638715  0.          0.         -0.01861546]
 [ 0.04273633 -0.01843897 -0.00585366  0.00377992 -0.01469706  0.
  -0.00054873  0.          0.          0.02085086]
 [ 0.03022354 -0.01789968 -0.00442129  0.00234328 -0.00965674  0.
  -0.00103419  0.          0.         -0.02141362]] 
Episode: 142: [[ 0.0016844   0.00211063 -0.01410041 -0.00514726 -0.0034292   0.
   0.01373015  0.          0.         -0.00955294]
 [-0.00387152 -0.01004813  0.00871722 -0.00838393 -0.0104572   0.
   0.01045403  0.          0.         -0.0233253 ]
 [ 0.02466366 -0.02125755  0.00146931 -0.0015663  -0.01711384  0.
   0.01655089  0.          0.         -0.01859331]
 [ 0.04303849 -0.01836334 -0.00586341  0.00380318 -0.01468209  0.
  -0.00049961  0.          0.          0.02080442]
 [ 0.03041176 -0.01787357 -0.00450089  0.00239521 -0.00966323  0.
  -0.00110718  0.          0.         -0.02139761]] 
Episode: 143: [[ 0.00163923  0.00204484 -0.01418101 -0.00513474 -0.00349458  0.
   0.01380765  0.          0.         -0.0096449 ]
 [-0.00392876 -0.01020539  0.00890815 -0.00839579 -0.01062954  0.
   0.01054402  0.          0.         -0.02337618]
 [ 0.02478597 -0.02126069  0.00154285 -0.00150473 -0.01717956  0.
   0.0167213   0.          0.         -0.0185964 ]
 [ 0.04333765 -0.01832057 -0.00586733  0.0038013  -0.01469472  0.
  -0.00046416  0.          0.          0.02084143]
 [ 0.03059597 -0.0178759  -0.00456104  0.00240903 -0.00968697  0.
  -0.00115599  0.          0.         -0.02142337]] 
Episode: 144: [[ 0.00162435  0.00205209 -0.01420532 -0.00513387 -0.00348192  0.
   0.01392888  0.          0.         -0.00975589]
 [-0.00398224 -0.01038154  0.00916934 -0.00838233 -0.01083205  0.
   0.0106736   0.          0.         -0.02348577]
 [ 0.02488744 -0.02132122  0.001666   -0.00144694 -0.01730168  0.
   0.01692667  0.          0.         -0.01863431]
 [ 0.04364136 -0.01830853 -0.0058605   0.00377392 -0.01473748  0.
  -0.00041954  0.          0.          0.02089603]
 [ 0.030766   -0.01791013 -0.00460733  0.00240004 -0.00975447  0.
  -0.00118349  0.          0.         -0.02146578]] 
Episode: 145: [[ 0.0016198   0.00207508 -0.01420431 -0.00509223 -0.00343791  0.
   0.01405893  0.          0.         -0.00988763]
 [-0.00403335 -0.01054799  0.00935888 -0.00832347 -0.01097209  0.
   0.01081998  0.          0.         -0.02361694]
 [ 0.02498283 -0.02128282  0.00175959 -0.00135402 -0.01735832  0.
   0.01712218  0.          0.         -0.01862325]
 [ 0.04396281 -0.01818979 -0.00584849  0.0037829  -0.01472874  0.
  -0.00035828  0.          0.          0.0209422 ]
 [ 0.03094086 -0.01785601 -0.00463592  0.00243543 -0.00980378  0.
  -0.00120063  0.          0.         -0.02145655]] 
Episode: 146: [[ 0.00161268  0.00209226 -0.01422279 -0.00507087 -0.00341671  0.
   0.01420124  0.          0.         -0.01001979]
 [-0.00408607 -0.01071152  0.00953444 -0.00828841 -0.01111673  0.
   0.01097442  0.          0.         -0.0237546 ]
 [ 0.02508198 -0.02126498  0.00185647 -0.00128337 -0.01742593  0.
   0.0173105   0.          0.         -0.01862036]
 [ 0.04428631 -0.01809125 -0.00582503  0.00379104 -0.01473582  0.
  -0.00030007  0.          0.          0.02099105]
 [ 0.03111589 -0.0178148  -0.00465467  0.00245494 -0.00985797  0.
  -0.00121574  0.          0.         -0.02144924]] 
Episode: 147: [[ 0.00167166  0.00213942 -0.01431404 -0.00511144 -0.00343204  0.
   0.01435004  0.          0.         -0.01011909]
 [-0.00417713 -0.01094712  0.00965185 -0.00832292 -0.01136942  0.
   0.01120693  0.          0.         -0.02389413]
 [ 0.02517564 -0.02141784  0.00201976 -0.00131806 -0.01766568  0.
   0.01748095  0.          0.         -0.01868913]
 [ 0.04464366 -0.01813663 -0.00562412  0.00372586 -0.01494882  0.
  -0.00026563  0.          0.          0.02109537]
 [ 0.03128719 -0.01789739 -0.00462635  0.00238012 -0.01011904  0.
  -0.00119306  0.          0.         -0.02148957]] 
Episode: 148: [[ 0.00170424  0.00221752 -0.01438642 -0.0051637  -0.00342831  0.
   0.01450959  0.          0.         -0.01021216]
 [-0.00427393 -0.01118441  0.00978939 -0.00837076 -0.01162683  0.
   0.01141226  0.          0.         -0.02402084]
 [ 0.02524046 -0.02156537  0.0022144  -0.00135452 -0.01790054  0.
   0.01769781  0.          0.         -0.01873684]
 [ 0.04495735 -0.01818729 -0.00541231  0.00364653 -0.01516193  0.
  -0.00019618  0.          0.          0.02120384]
 [ 0.03142815 -0.01798807 -0.00454506  0.0023316  -0.0103897   0.
  -0.00112554  0.          0.         -0.02153649]] 
Episode: 149: [[ 0.00172418  0.00229266 -0.01447097 -0.00520875 -0.00343007  0.
   0.0146513   0.          0.         -0.0102896 ]
 [-0.00439109 -0.01139588  0.00990879 -0.00841454 -0.01184808  0.
   0.01159016  0.          0.         -0.02411284]
 [ 0.02533814 -0.02170684  0.0024134  -0.00137658 -0.01812427  0.
   0.01788179  0.          0.         -0.0187858 ]
 [ 0.04531375 -0.01824302 -0.00518803  0.00360593 -0.01538115  0.
  -0.00014167  0.          0.          0.02128211]
 [ 0.03160173 -0.01808007 -0.00446407  0.00230515 -0.01065716  0.
  -0.00107738  0.          0.         -0.02159136]] 
Episode: 150: [[ 1.74020731e-03  2.38456158e-03 -1.45561667e-02 -5.18133491e-03
  -3.43521149e-03  0.00000000e+00  1.47644263e-02  0.00000000e+00
   0.00000000e+00 -1.03582069e-02]
 [-4.50773351e-03 -1.16015477e-02  9.99181159e-03 -8.38299096e-03
  -1.20245395e-02  0.00000000e+00  1.17260925e-02  0.00000000e+00
   0.00000000e+00 -2.41892263e-02]
 [ 2.54551042e-02 -2.18027961e-02  2.61476799e-03 -1.31975266e-03
  -1.82771794e-02  0.00000000e+00  1.80705842e-02  0.00000000e+00
   0.00000000e+00 -1.88023150e-02]
 [ 4.56819534e-02 -1.82364583e-02 -4.96507948e-03  3.64258140e-03
  -1.55271124e-02  0.00000000e+00 -6.09852286e-05  0.00000000e+00
   0.00000000e+00  2.12811213e-02]
 [ 3.17814164e-02 -1.81361157e-02 -4.37302049e-03  2.32832739e-03
  -1.08836154e-02  0.00000000e+00 -1.05582690e-03  0.00000000e+00
   0.00000000e+00 -2.16117706e-02]] 
Episode: 151: [[ 1.7534599e-03  2.4703706e-03 -1.4637825e-02 -5.0970870e-03
