Episode: 1: [[0. 0. 0. 0. 0.]
 [0. 0. 0. 0. 0.]
 [0. 0. 0. 0. 0.]
 [0. 0. 0. 0. 0.]
 [0. 0. 0. 0. 0.]] 
Episode: 2: [[ 0.         -0.0003     -0.0003      0.0003      0.0003    ]
 [ 0.         -0.0003      0.0003      0.0003     -0.0003    ]
 [ 0.         -0.00029998 -0.0003     -0.0003     -0.0003    ]
 [ 0.          0.0003     -0.0003     -0.0003     -0.0003    ]
 [ 0.         -0.0003     -0.0003      0.0003     -0.0003    ]] 
Episode: 3: [[ 0.0000000e+00 -4.3221159e-04 -5.9053436e-04  5.7029037e-04
   5.3772732e-04]
 [ 0.0000000e+00 -9.7018506e-05  5.9414038e-04  1.4915048e-04
  -5.8739801e-04]
 [ 0.0000000e+00 -7.7129996e-05 -5.9966615e-04 -5.8399368e-04
  -5.8977713e-04]
 [ 0.0000000e+00  1.8526569e-04 -5.7485735e-04 -1.5067612e-04
  -2.1145426e-04]
 [ 0.0000000e+00 -5.9996918e-04 -5.2707648e-04  5.7012495e-04
  -5.8049330e-04]] 
Episode: 4: [[ 0.0000000e+00 -2.4619349e-04 -8.8262995e-04  5.6483177e-04
   4.2772607e-04]
 [ 0.0000000e+00  1.3386876e-04  8.5076923e-04 -5.5708766e-05
  -5.7254656e-04]
 [ 0.0000000e+00  1.7900011e-04 -7.7710819e-04 -8.5689186e-04
  -8.8450103e-04]
 [ 0.0000000e+00  3.0787830e-04 -7.4789632e-04 -2.7437138e-04
  -3.4664263e-05]
 [ 0.0000000e+00 -5.4326910e-04 -7.6629251e-04  8.5328479e-04
  -4.3829289e-04]] 
Episode: 5: [[ 0.         -0.00010937 -0.0011342   0.00065568  0.00027761]
 [ 0.          0.00038996  0.00111698 -0.00024264 -0.00058124]
 [ 0.          0.00018897 -0.00098635 -0.00090945 -0.00102203]
 [ 0.          0.00050173 -0.00091623 -0.00043395  0.00016672]
 [ 0.         -0.00057573 -0.00093215  0.00111728 -0.00047697]] 
Episode: 6: [[ 0.0000000e+00  2.7833392e-05 -1.4018584e-03  7.1401492e-04
   1.6662959e-04]
 [ 0.0000000e+00  6.3017441e-04  1.3897336e-03 -4.5811353e-04
  -5.8963709e-04]
 [ 0.0000000e+00  2.6796240e-04 -1.2190127e-03 -1.0367654e-03
  -1.1545628e-03]
 [ 0.0000000e+00  7.2212639e-04 -1.1316440e-03 -5.6609622e-04
   3.7546890e-04]
 [ 0.0000000e+00 -6.7145150e-04 -1.1472636e-03  1.3935548e-03
  -4.8979040e-04]] 
Episode: 7: [[ 0.0000000e+00  1.4760914e-04 -1.6785749e-03  7.0839346e-04
   7.0648355e-05]
 [ 0.0000000e+00  8.2585873e-04  1.6711254e-03 -6.5178517e-04
  -5.7065312e-04]
 [ 0.0000000e+00  3.1002771e-04 -1.4722653e-03 -1.1621906e-03
  -1.2681319e-03]
 [ 0.0000000e+00  9.6693781e-04 -1.3569044e-03 -7.5399567e-04
   4.9327867e-04]
 [ 0.0000000e+00 -7.9721329e-04 -1.3451823e-03  1.6590604e-03
  -5.0867331e-04]] 
Episode: 8: [[ 0.0000000e+00  2.5005723e-04 -1.9596484e-03  6.4659218e-04
  -5.9557748e-05]
 [ 0.0000000e+00  9.6014614e-04  1.9582862e-03 -7.2682631e-04
  -6.0314097e-04]
 [ 0.0000000e+00  4.2713847e-04 -1.7405564e-03 -1.3313197e-03
  -1.4174895e-03]
 [ 0.0000000e+00  1.2285585e-03 -1.6050251e-03 -9.6112886e-04
   5.1091088e-04]
 [ 0.0000000e+00 -9.6292188e-04 -1.5473156e-03  1.9361379e-03
  -5.4496375e-04]] 
Episode: 9: [[ 0.          0.00039601 -0.00223492  0.00057608 -0.00013262]
 [ 0.          0.00110145  0.0021531  -0.00085107 -0.00055365]
 [ 0.          0.00050222 -0.00201729 -0.00140113 -0.00150441]
 [ 0.          0.00142173 -0.00184841 -0.00115976  0.00057625]
 [ 0.         -0.00111924 -0.00177556  0.00222117 -0.00054559]] 
Episode: 10: [[ 0.          0.00054335 -0.00251635  0.00047483 -0.00021329]
 [ 0.          0.00125815  0.00229799 -0.0010184  -0.00055207]
 [ 0.          0.00059029 -0.00229337 -0.00149349 -0.00157011]
 [ 0.          0.00163478 -0.00209971 -0.00135406  0.00065037]
 [ 0.         -0.00125717 -0.00198916  0.002471   -0.00055241]] 
Episode: 11: [[ 0.          0.00068256 -0.00280312  0.00038035 -0.00029072]
 [ 0.          0.00143429  0.00247436 -0.00122488 -0.00062673]
 [ 0.          0.00073576 -0.0025552  -0.0016261  -0.00165674]
 [ 0.          0.00185045 -0.00229818 -0.00157733  0.00070453]
 [ 0.         -0.00143512 -0.00222111  0.0027258  -0.00052401]] 
Episode: 12: [[ 0.          0.00083441 -0.00308314  0.00025346 -0.00039762]
 [ 0.          0.00162232  0.00252879 -0.00145095 -0.00070502]
 [ 0.          0.00087325 -0.00282358 -0.00175902 -0.001751  ]
 [ 0.          0.00203718 -0.00252441 -0.00178362  0.00071594]
 [ 0.         -0.00157324 -0.00242529  0.00293628 -0.00050384]] 
Episode: 13: [[ 0.          0.00097099 -0.00335036  0.00013725 -0.00049578]
 [ 0.          0.0018195   0.00257208 -0.00168314 -0.00078484]
 [ 0.          0.00101038 -0.00308673 -0.0018906  -0.00183945]
 [ 0.          0.00216234 -0.00276151 -0.00192665  0.00074183]
 [ 0.         -0.00165356 -0.00261377  0.00308609 -0.00048978]] 
Episode: 14: [[ 0.0000000e+00  1.1458530e-03 -3.6313008e-03 -3.9511775e-05
  -6.4345542e-04]
 [ 0.0000000e+00  1.9818589e-03  2.6737505e-03 -1.8630041e-03
  -8.9289399e-04]
 [ 0.0000000e+00  1.1990002e-03 -3.3639665e-03 -2.0534496e-03
  -1.9765142e-03]
 [ 0.0000000e+00  2.2850523e-03 -3.0195275e-03 -2.0611188e-03
   7.5066567e-04]
 [ 0.0000000e+00 -1.7710896e-03 -2.8296686e-03  3.2693502e-03
  -4.8485346e-04]] 
Episode: 15: [[ 0.          0.00128556 -0.00389678 -0.00017992 -0.00075756]
 [ 0.          0.00213964  0.00274685 -0.00205983 -0.00104341]
 [ 0.          0.00136715 -0.00363948 -0.0021851  -0.00205107]
 [ 0.          0.00239806 -0.00327334 -0.0021686   0.00074852]
 [ 0.         -0.001871   -0.00304473  0.00344047 -0.00053272]] 
Episode: 16: [[ 0.          0.00141822 -0.00417721 -0.00033504 -0.00088528]
 [ 0.          0.00227044  0.00285995 -0.00224776 -0.00118972]
 [ 0.          0.00155701 -0.00392709 -0.00234655 -0.00217126]
 [ 0.          0.00248983 -0.00354367 -0.00225117  0.00076194]
 [ 0.         -0.00199357 -0.00324231  0.00359985 -0.00059398]] 
Episode: 17: [[ 0.          0.00153788 -0.00445412 -0.0004694  -0.00100469]
 [ 0.          0.00238883  0.00296587 -0.00240729 -0.00132543]
 [ 0.          0.00173915 -0.00420433 -0.00250422 -0.00230634]
 [ 0.          0.00260549 -0.00379945 -0.00233856  0.00073178]
 [ 0.         -0.00209938 -0.00341105  0.0037401  -0.00065394]] 
Episode: 18: [[ 0.          0.00163499 -0.00469859 -0.00057571 -0.00110654]
 [ 0.          0.00251117  0.00299338 -0.00255673 -0.00143634]
 [ 0.          0.00190757 -0.00447294 -0.00265022 -0.00244052]
 [ 0.          0.00267472 -0.00406029 -0.00240723  0.00068971]
 [ 0.         -0.00220321 -0.00356585  0.00387506 -0.00070222]] 
Episode: 19: [[ 0.          0.00176469 -0.00492616 -0.00072523 -0.00121258]
 [ 0.          0.00262793  0.00303731 -0.00265036 -0.00151647]
 [ 0.          0.00203177 -0.00474141 -0.00272812 -0.00249953]
 [ 0.          0.00274583 -0.00430615 -0.00250802  0.00059817]
 [ 0.         -0.00219002 -0.00368049  0.00389216 -0.00077017]] 
Episode: 20: [[ 0.          0.001892   -0.0051459  -0.00087295 -0.00131554]
 [ 0.          0.00273966  0.00307838 -0.00276098 -0.00163085]
 [ 0.          0.0021568  -0.0050039  -0.00281768 -0.00254956]
 [ 0.          0.00281026 -0.00455737 -0.00259725  0.00055673]
 [ 0.         -0.00217621 -0.00376145  0.00390311 -0.00082587]] 
Episode: 21: [[ 0.          0.00203082 -0.0053824  -0.00103642 -0.00140165]
 [ 0.          0.00285724  0.00313947 -0.00286565 -0.00176444]
 [ 0.          0.00229138 -0.0052683  -0.00292538 -0.00261487]
 [ 0.          0.00288088 -0.00480686 -0.00269003  0.00050701]
 [ 0.         -0.00215645 -0.00383147  0.00390787 -0.00087419]] 
Episode: 22: [[ 0.          0.00217854 -0.00561178 -0.00120825 -0.00155385]
 [ 0.          0.00300361  0.00318967 -0.00300331 -0.00181741]
 [ 0.          0.00241522 -0.00553546 -0.00301904 -0.00266272]
 [ 0.          0.00296921 -0.00505464 -0.00280681  0.00048635]
 [ 0.         -0.00213268 -0.00388388  0.00393351 -0.00099081]] 
Episode: 23: [[ 0.          0.00234267 -0.00584741 -0.00140779 -0.00170542]
 [ 0.          0.00314149  0.00324826 -0.00313633 -0.00187977]
 [ 0.          0.00256728 -0.00579397 -0.00314674 -0.00275646]
 [ 0.          0.00305984 -0.00530278 -0.00289789  0.00044995]
 [ 0.         -0.0021044  -0.0039603   0.0039612  -0.00106427]] 
Episode: 24: [[ 0.          0.00250335 -0.00607362 -0.00161109 -0.00183454]
 [ 0.          0.00327804  0.00332228 -0.00327465 -0.00193742]
 [ 0.          0.00272089 -0.00603701 -0.003291   -0.00287223]
 [ 0.          0.00312869 -0.00553912 -0.00297607  0.00041376]
 [ 0.         -0.0020806  -0.0040561   0.00396367 -0.00109008]] 
Episode: 25: [[ 0.          0.00266074 -0.00630157 -0.00179486 -0.00197081]
 [ 0.          0.00336839  0.003419   -0.00335597 -0.00198829]
 [ 0.          0.00287582 -0.00626379 -0.00343407 -0.00299777]
 [ 0.          0.00318554 -0.00577295 -0.0030296   0.00043606]
 [ 0.         -0.00205878 -0.00411298  0.00395585 -0.0011389 ]] 
Episode: 26: [[ 0.          0.00283396 -0.00654749 -0.00198365 -0.00203273]
 [ 0.          0.00347886  0.00351736 -0.00349046 -0.00203806]
 [ 0.          0.00308437 -0.00639393 -0.00360424 -0.00315674]
 [ 0.          0.00330833 -0.00597974 -0.00314016  0.0005065 ]
 [ 0.         -0.00213797 -0.00423522  0.00404444 -0.00110916]] 
Episode: 27: [[ 0.          0.00299657 -0.00679594 -0.00214276 -0.0020913 ]
 [ 0.          0.00357031  0.00363963 -0.00359037 -0.00210586]
 [ 0.          0.00327229 -0.00654776 -0.00375018 -0.00329815]
 [ 0.          0.00340316 -0.00619209 -0.00322105  0.00058183]
 [ 0.         -0.00216662 -0.00434347  0.00409461 -0.0011254 ]] 
Episode: 28: [[ 0.          0.00315102 -0.00706491 -0.00229039 -0.00215123]
 [ 0.          0.0036156   0.0038186  -0.00362721 -0.00217742]
 [ 0.          0.00347706 -0.00673405 -0.00392261 -0.00347032]
 [ 0.          0.00349189 -0.00642685 -0.00331306  0.00062675]
 [ 0.         -0.00221703 -0.00445731  0.00416606 -0.00117051]] 
Episode: 29: [[ 0.          0.00326505 -0.00733932 -0.00233133 -0.00217682]
 [ 0.          0.00366043  0.00396221 -0.00370462 -0.00224083]
 [ 0.          0.0037042  -0.00691853 -0.00411769 -0.00364285]
 [ 0.          0.00365252 -0.00662586 -0.00344848  0.00065286]
 [ 0.         -0.00235253 -0.00460438  0.00430512 -0.00114605]] 
Episode: 30: [[ 0.          0.00338619 -0.00761591 -0.00236813 -0.00217089]
 [ 0.          0.00368041  0.00412254 -0.00375633 -0.00229466]
 [ 0.          0.00393561 -0.0071078  -0.00432279 -0.00381457]
 [ 0.          0.00383778 -0.0068     -0.00361171  0.00062512]
 [ 0.         -0.00250825 -0.00477314  0.00447024 -0.00108609]] 
Episode: 31: [[ 0.          0.0035211  -0.00790496 -0.00244356 -0.00222642]
 [ 0.          0.00367498  0.00426044 -0.00378059 -0.00233967]
 [ 0.          0.00417537 -0.00732158 -0.00454616 -0.00401306]
 [ 0.          0.00403967 -0.00700188 -0.00380158  0.00055197]
 [ 0.         -0.00267474 -0.00491572  0.00463634 -0.00105269]] 
Episode: 32: [[ 0.          0.00370645 -0.00820136 -0.00257739 -0.00227689]
 [ 0.          0.00362948  0.00444994 -0.00373715 -0.0023233 ]
 [ 0.          0.00440997 -0.00755053 -0.00478528 -0.0042028 ]
 [ 0.          0.00417354 -0.00722124 -0.00393307  0.00051839]
 [ 0.         -0.00285039 -0.00509908  0.00480564 -0.00096431]] 
Episode: 33: [[ 0.          0.00388761 -0.00847084 -0.00269407 -0.00231882]
 [ 0.          0.00363922  0.00457879 -0.00373594 -0.0023141 ]
 [ 0.          0.00462179 -0.0077811  -0.00499676 -0.00438013]
 [ 0.          0.00423269 -0.00746384 -0.0040033   0.00050054]
 [ 0.         -0.00300741 -0.00526457  0.00495784 -0.00088636]] 
Episode: 34: [[ 0.          0.00405533 -0.00876482 -0.00280007 -0.00233048]
 [ 0.          0.00364921  0.00470773 -0.00374996 -0.00228357]
 [ 0.          0.00485783 -0.00799485 -0.00522545 -0.0045782 ]
 [ 0.          0.00430751 -0.00769546 -0.00407303  0.00053275]
 [ 0.         -0.00318315 -0.00540887  0.00512421 -0.00079838]] 
Episode: 35: [[ 0.          0.00424602 -0.00907092 -0.00292695 -0.00235824]
 [ 0.          0.00364192  0.00488451 -0.00372662 -0.00228162]
 [ 0.          0.0051099  -0.00821022 -0.00546906 -0.00479974]
 [ 0.          0.00440496 -0.00793862 -0.00416296  0.00058082]
 [ 0.         -0.00338361 -0.00558146  0.00533251 -0.00070387]] 
Episode: 36: [[ 0.          0.00443047 -0.00934881 -0.00306726 -0.00241285]
 [ 0.          0.00362044  0.00504137 -0.00366156 -0.00223543]
 [ 0.          0.00533086 -0.00841629 -0.00571273 -0.00498902]
 [ 0.          0.00447049 -0.00817908 -0.00427289  0.0006235 ]
 [ 0.         -0.00356335 -0.00573222  0.00553553 -0.00060475]] 
Episode: 37: [[ 0.          0.00461475 -0.00964853 -0.00316377 -0.00249376]
 [ 0.          0.00363074  0.00510991 -0.00364211 -0.00214433]
 [ 0.          0.00554159 -0.00865641 -0.00594935 -0.00519931]
 [ 0.          0.00453217 -0.00845213 -0.00436972  0.00061341]
 [ 0.         -0.00369061 -0.00585901  0.00568723 -0.00049906]] 
Episode: 38: [[ 0.          0.00480357 -0.0099611  -0.00327012 -0.00258946]
 [ 0.          0.00364316  0.00518624 -0.00363049 -0.00206272]
 [ 0.          0.00578709 -0.00891864 -0.00620022 -0.00543102]
 [ 0.          0.0046292  -0.00874753 -0.00450742  0.00056119]
 [ 0.         -0.00385292 -0.00601955  0.00586511 -0.00036746]] 
Episode: 39: [[ 0.          0.00498433 -0.01027824 -0.00339226 -0.00268315]
 [ 0.          0.00363857  0.00527311 -0.00359658 -0.00202801]
 [ 0.          0.00602984 -0.00918237 -0.00646236 -0.00564711]
 [ 0.          0.00475814 -0.009033   -0.00467496  0.00048301]
 [ 0.         -0.0040219  -0.00617689  0.00604619 -0.00024011]] 
Episode: 40: [[ 0.          0.00517438 -0.01058644 -0.00354432 -0.00278783]
 [ 0.          0.00359402  0.00535866 -0.00354146 -0.00193981]
 [ 0.          0.00628902 -0.00944971 -0.00673546 -0.00582548]
 [ 0.          0.0048273  -0.00932001 -0.00477278  0.0004598 ]
 [ 0.         -0.00418659 -0.00632489  0.00624019 -0.00018281]] 
Episode: 41: [[ 0.          0.00536676 -0.01087371 -0.00369675 -0.00287799]
 [ 0.          0.00357808  0.00542121 -0.00350474 -0.00185848]
 [ 0.          0.00653046 -0.00969806 -0.00699106 -0.00598485]
 [ 0.          0.0049028  -0.00958503 -0.00486372  0.00045435]
 [ 0.         -0.004333   -0.0064647   0.00641403 -0.00013011]] 
Episode: 42: [[ 0.0000000e+00  5.5420729e-03 -1.1159948e-02 -3.8263800e-03
  -2.9510052e-03]
 [ 0.0000000e+00  3.5970546e-03  5.4624579e-03 -3.4994411e-03
  -1.7906334e-03]
 [ 0.0000000e+00  6.7669759e-03 -9.9472962e-03 -7.2457176e-03
  -6.1432808e-03]
 [ 0.0000000e+00  4.9958215e-03 -9.8576415e-03 -4.9679177e-03
   4.4572877e-04]
 [ 0.0000000e+00 -4.4508185e-03 -6.5917633e-03  6.5598534e-03
  -7.7068311e-05]] 
Episode: 43: [[ 0.0000000e+00  5.7152105e-03 -1.1438426e-02 -3.9720163e-03
  -3.0571758e-03]
 [ 0.0000000e+00  3.6403120e-03  5.5772848e-03 -3.5157292e-03
  -1.7737483e-03]
 [ 0.0000000e+00  7.0334892e-03 -1.0155314e-02 -7.5124921e-03
  -6.3303718e-03]
 [ 0.0000000e+00  5.1255701e-03 -1.0085063e-02 -5.0985971e-03
   4.2738440e-04]
 [ 0.0000000e+00 -4.6069943e-03 -6.7284363e-03  6.7387819e-03
  -3.3329969e-05]] 
Episode: 44: [[ 0.0000000e+00  5.8912868e-03 -1.1720740e-02 -4.1092127e-03
  -3.1581994e-03]
 [ 0.0000000e+00  3.6932908e-03  5.7000425e-03 -3.5241668e-03
  -1.7622475e-03]
 [ 0.0000000e+00  7.2878213e-03 -1.0359051e-02 -7.7748192e-03
  -6.5145767e-03]
 [ 0.0000000e+00  5.2626361e-03 -1.0297863e-02 -5.2194633e-03
   4.0901327e-04]
 [ 0.0000000e+00 -4.7268271e-03 -6.8668141e-03  6.8774726e-03
   9.0294634e-06]] 
Episode: 45: [[ 0.0000000e+00  6.0590375e-03 -1.1978079e-02 -4.2420747e-03
  -3.2575435e-03]
 [ 0.0000000e+00  3.7660007e-03  5.7887007e-03 -3.5505160e-03
  -1.7524702e-03]
 [ 0.0000000e+00  7.5221984e-03 -1.0559049e-02 -8.0173584e-03
  -6.6876453e-03]
 [ 0.0000000e+00  5.3718127e-03 -1.0516611e-02 -5.3118006e-03
   3.9087952e-04]
 [ 0.0000000e+00 -4.8338752e-03 -6.9924239e-03  7.0014661e-03
   4.8347436e-05]] 
Episode: 46: [[ 0.          0.00623079 -0.01226658 -0.00435664 -0.00332883]
 [ 0.          0.00383934  0.00592787 -0.00358828 -0.0017646 ]
 [ 0.          0.0077634  -0.01076107 -0.0082737  -0.00687054]
 [ 0.          0.00549014 -0.0107273  -0.00539842  0.00042215]
 [ 0.         -0.00492021 -0.00713728  0.00710201  0.00011287]] 
Episode: 47: [[ 0.          0.00639026 -0.01255411 -0.00445313 -0.00336262]
 [ 0.          0.00391897  0.00607956 -0.00364845 -0.00179128]
 [ 0.          0.008027   -0.01094957 -0.00854211 -0.00707961]
 [ 0.          0.00562503 -0.01092662 -0.00552078  0.00045192]
 [ 0.         -0.0050331  -0.00729954  0.00721719  0.00022375]] 
Episode: 48: [[ 0.          0.00654668 -0.0128236  -0.00455309 -0.00339674]
 [ 0.          0.00399844  0.00621935 -0.00369822 -0.00176654]
 [ 0.          0.00827538 -0.01113255 -0.00881543 -0.00727548]
 [ 0.          0.0057642  -0.01111725 -0.00566334  0.00047131]
 [ 0.         -0.00513187 -0.00746527  0.0073346   0.00034688]] 
Episode: 49: [[ 0.          0.00670613 -0.0130762  -0.00464092 -0.00344934]
 [ 0.          0.00409382  0.00635391 -0.00377399 -0.0017363 ]
 [ 0.          0.00851712 -0.01129992 -0.0090867  -0.0074959 ]
 [ 0.          0.00589058 -0.01130081 -0.00578493  0.0005359 ]
 [ 0.         -0.00522359 -0.0076224   0.00743998  0.0004448 ]] 
Episode: 50: [[ 0.          0.00686841 -0.01332842 -0.00475821 -0.00352416]
 [ 0.          0.00419582  0.00646831 -0.00385344 -0.00173289]
 [ 0.          0.00874491 -0.01148921 -0.00934799 -0.00769544]
 [ 0.          0.00603071 -0.01150114 -0.00590923  0.00057287]
 [ 0.         -0.00529202 -0.00776701  0.00751663  0.00052909]] 
Episode: 51: [[ 0.          0.00698229 -0.01359743 -0.00483258 -0.00358361]
 [ 0.          0.00429981  0.00657654 -0.0039383  -0.00174052]
 [ 0.          0.00897179 -0.01168678 -0.00961218 -0.00789538]
 [ 0.          0.00614759 -0.01171745 -0.00600144  0.00064617]
 [ 0.         -0.00537512 -0.00790794  0.00760075  0.00061919]] 
Episode: 52: [[ 0.          0.00715286 -0.01387377 -0.00493697 -0.00368419]
 [ 0.          0.00438946  0.00670098 -0.00403423 -0.00173613]
 [ 0.          0.00921925 -0.01187024 -0.00988785 -0.0081196 ]
 [ 0.          0.00626599 -0.01194634 -0.00610746  0.00073607]
 [ 0.         -0.00548336 -0.00806849  0.00773216  0.00072936]] 
Episode: 53: [[ 0.          0.00731116 -0.01414892 -0.00502015 -0.0037596 ]
 [ 0.          0.00447443  0.00683589 -0.00412636 -0.00174833]
 [ 0.          0.00944688 -0.01206418 -0.01013995 -0.00835169]
 [ 0.          0.00638055 -0.01217471 -0.00620936  0.00078861]
 [ 0.         -0.00558054 -0.00824683  0.00783519  0.00084989]] 
Episode: 54: [[ 0.          0.00748136 -0.01440676 -0.00514254 -0.00383638]
 [ 0.          0.00456693  0.00698966 -0.00423277 -0.00180436]
 [ 0.          0.00965328 -0.01227659 -0.01037582 -0.00851641]
 [ 0.          0.00651648 -0.01239735 -0.00633875  0.00078848]
 [ 0.         -0.00567501 -0.00842415  0.00793549  0.00097522]] 
Episode: 55: [[ 0.          0.00761219 -0.01468525 -0.00522497 -0.00389757]
 [ 0.          0.00463356  0.00714331 -0.00431714 -0.00186621]
 [ 0.          0.00985336 -0.0125179  -0.01061316 -0.00868285]
 [ 0.          0.00659625 -0.0126511  -0.00643177  0.00082468]
 [ 0.         -0.0057751  -0.00857171  0.00802854  0.00107741]] 
Episode: 56: [[ 0.          0.00774849 -0.01494572 -0.00530909 -0.00394797]
 [ 0.          0.00468979  0.00728996 -0.00439835 -0.00196228]
 [ 0.          0.01004004 -0.01274242 -0.01085805 -0.00886306]
 [ 0.          0.0066525  -0.01289689 -0.00652077  0.00088261]
 [ 0.         -0.00586699 -0.00870845  0.00811803  0.001165  ]] 
Episode: 57: [[ 0.          0.00787638 -0.01521244 -0.00538116 -0.00398157]
 [ 0.          0.00476051  0.00744147 -0.00448558 -0.00204627]
 [ 0.          0.01023832 -0.01295118 -0.01111705 -0.00906357]
 [ 0.          0.00669499 -0.01313465 -0.00657445  0.0009633 ]
 [ 0.         -0.0059707  -0.00884675  0.00821477  0.00126057]] 
Episode: 58: [[ 0.          0.00798918 -0.01546916 -0.00544032 -0.00400273]
 [ 0.          0.00484642  0.00757212 -0.00457799 -0.00212899]
 [ 0.          0.01042977 -0.01315075 -0.01136424 -0.00925106]
 [ 0.          0.00673314 -0.01337012 -0.00661101  0.0010621 ]
 [ 0.         -0.0060654  -0.00897702  0.00830404  0.00134819]] 
Episode: 59: [[ 0.          0.00811293 -0.01574179 -0.005478   -0.00400471]
 [ 0.          0.00492144  0.00771913 -0.00467587 -0.00222718]
 [ 0.          0.01065324 -0.01333136 -0.01162537 -0.00946391]
 [ 0.          0.00681623 -0.01359028 -0.0066663   0.00117441]
 [ 0.         -0.0062142  -0.00913763  0.00843485  0.00146172]] 
Episode: 60: [[ 0.          0.0082475  -0.0159994  -0.00555178 -0.00396529]
 [ 0.          0.0050022   0.00786043 -0.00475708 -0.00226467]
 [ 0.          0.01086818 -0.01350647 -0.0118745  -0.00967998]
 [ 0.          0.0069097  -0.01379601 -0.00674461  0.00129349]
 [ 0.         -0.00640259 -0.00933225  0.00860419  0.00162522]] 
Episode: 61: [[ 0.          0.00835213 -0.01624334 -0.0056201  -0.00389117]
 [ 0.          0.00513909  0.00801623 -0.00488474 -0.00235707]
 [ 0.          0.0110871  -0.0136711  -0.01213742 -0.00991798]
 [ 0.          0.007021   -0.01398653 -0.00684404  0.00140559]
 [ 0.         -0.00656185 -0.00952283  0.00874024  0.00176195]] 
Episode: 62: [[ 0.          0.00842573 -0.01648959 -0.0056492  -0.00380279]
 [ 0.          0.00530282  0.00817446 -0.00502897 -0.00244613]
 [ 0.          0.01133275 -0.013804   -0.01241245 -0.01017511]
 [ 0.          0.00717912 -0.01414302 -0.00698948  0.00151982]
 [ 0.         -0.00675358 -0.00973281  0.00890205  0.00194054]] 
Episode: 63: [[ 0.          0.00852191 -0.01674398 -0.00567629 -0.0037124 ]
 [ 0.          0.0054762   0.00835229 -0.00516786 -0.00252219]
 [ 0.          0.01158132 -0.01393535 -0.01268813 -0.01041842]
 [ 0.          0.00737587 -0.01428052 -0.00714287  0.00165597]
 [ 0.         -0.00690197 -0.00994091  0.0090204   0.00211665]] 
Episode: 64: [[ 0.          0.00860897 -0.01697907 -0.00569632 -0.00363149]
 [ 0.          0.00565879  0.00848197 -0.00531555 -0.00258707]
 [ 0.          0.01180526 -0.01408014 -0.01294148 -0.01064749]
 [ 0.          0.00751511 -0.01444267 -0.00725904  0.00175539]
 [ 0.         -0.00703716 -0.01013173  0.00913018  0.00227964]] 
Episode: 65: [[ 0.          0.00866723 -0.01721551 -0.00568548 -0.00354844]
 [ 0.          0.00583518  0.00860486 -0.0054659  -0.00264955]
 [ 0.          0.01201365 -0.01423874 -0.01318287 -0.01085305]
 [ 0.          0.00764321 -0.014613   -0.00736912  0.00186202]
 [ 0.         -0.00715715 -0.01031573  0.00922825  0.00242744]] 
Episode: 66: [[ 0.          0.00872505 -0.01743039 -0.00567984 -0.00349672]
 [ 0.          0.00601626  0.00868913 -0.00562461 -0.00266123]
 [ 0.          0.01220121 -0.0143791  -0.01339564 -0.01108189]
 [ 0.          0.0078089  -0.01477608 -0.00752367  0.00192445]
 [ 0.         -0.00729288 -0.01048571  0.00934794  0.00256197]] 
Episode: 67: [[ 0.          0.00877234 -0.01764005 -0.00569147 -0.00344055]
 [ 0.          0.00616148  0.00880687 -0.00575018 -0.00267588]
 [ 0.          0.01237782 -0.01451404 -0.01359709 -0.01129055]
 [ 0.          0.0079602  -0.01491277 -0.00765392  0.0019856 ]
 [ 0.         -0.00742477 -0.01064849  0.00946175  0.00268526]] 
Episode: 68: [[ 0.          0.00881886 -0.01783148 -0.00568464 -0.00339093]
 [ 0.          0.00630402  0.00893139 -0.00586878 -0.00265414]
 [ 0.          0.01255283 -0.01462682 -0.01378448 -0.01152212]
 [ 0.          0.00811972 -0.01503857 -0.00778139  0.00203348]
 [ 0.         -0.00754783 -0.01079655  0.00956639  0.0027952 ]] 
Episode: 69: [[ 0.          0.00889453 -0.0180272  -0.00572925 -0.00340832]
 [ 0.          0.00643815  0.00909654 -0.00596478 -0.00261601]
 [ 0.          0.01268103 -0.01478463 -0.01391067 -0.01173829]
 [ 0.          0.00828543 -0.01517148 -0.007951    0.00202782]
 [ 0.         -0.00769168 -0.01093098  0.00967726  0.00284737]] 
Episode: 70: [[ 0.          0.00899187 -0.01820987 -0.00580471 -0.0034277 ]
 [ 0.          0.0065589   0.00929185 -0.0060386  -0.00259218]
 [ 0.          0.01280612 -0.01493654 -0.01403759 -0.01195041]
 [ 0.          0.00841655 -0.01529037 -0.00808099  0.00205919]
 [ 0.         -0.00779425 -0.01106433  0.00974641  0.00288623]] 
Episode: 71: [[ 0.          0.00908695 -0.01837503 -0.00587287 -0.00344486]
 [ 0.          0.00668913  0.00944476 -0.0061284  -0.00257158]
 [ 0.          0.01292362 -0.01509375 -0.01416409 -0.01214904]
 [ 0.          0.0085583  -0.01542225 -0.00822808  0.00206429]
 [ 0.         -0.00788671 -0.01118582  0.00981     0.00292141]] 
Episode: 72: [[ 0.          0.00923236 -0.01852345 -0.0059985  -0.00350169]
 [ 0.          0.00681977  0.00958202 -0.00619744 -0.00249261]
 [ 0.          0.01304783 -0.01526961 -0.01430144 -0.0122817 ]
 [ 0.          0.00871211 -0.01556791 -0.00835617  0.00211646]
 [ 0.         -0.00798417 -0.01133254  0.00990191  0.00301714]] 
Episode: 73: [[ 0.          0.00940347 -0.0186708  -0.00615526 -0.00355603]
 [ 0.          0.00693215  0.00971184 -0.00624638 -0.00242948]
 [ 0.          0.0131674  -0.01544621 -0.01442982 -0.01240568]
 [ 0.          0.00883842 -0.01572318 -0.00843024  0.00217135]
 [ 0.         -0.00807082 -0.01146489  0.00998026  0.00310456]] 
Episode: 74: [[ 0.          0.00958428 -0.01880518 -0.00632539 -0.0036595 ]
 [ 0.          0.00704866  0.00986782 -0.00627434 -0.00238048]
 [ 0.          0.01330475 -0.0155766  -0.0145865  -0.01256225]
 [ 0.          0.00898651 -0.01583961 -0.00853756  0.00219363]
 [ 0.         -0.00814546 -0.01157035  0.01004958  0.0031365 ]] 
Episode: 75: [[ 0.          0.00977974 -0.01894692 -0.00649347 -0.00377804]
 [ 0.          0.0071749   0.01002428 -0.00631182 -0.00235064]
 [ 0.          0.01345922 -0.01571563 -0.01476822 -0.01274749]
 [ 0.          0.00914053 -0.01597996 -0.00864064  0.00221851]
 [ 0.         -0.00820943 -0.01169996  0.01011304  0.00316274]] 
Episode: 76: [[ 0.          0.00998328 -0.01909268 -0.00663751 -0.00390067]
 [ 0.          0.00728628  0.01018943 -0.00634615 -0.00234336]
 [ 0.          0.01363327 -0.01584871 -0.01497211 -0.01295794]
 [ 0.          0.00929984 -0.01611918 -0.00874717  0.00226269]
 [ 0.         -0.00831306 -0.0118535   0.01021709  0.00320468]] 
Episode: 77: [[ 0.          0.01019564 -0.01927804 -0.00679738 -0.00403183]
 [ 0.          0.00738641  0.0103859  -0.00637097 -0.0023351 ]
 [ 0.          0.01381453 -0.01601491 -0.01519562 -0.01318014]
 [ 0.          0.0094359  -0.01629117 -0.00883617  0.00231498]
 [ 0.         -0.00842462 -0.01205     0.01032765  0.00324482]] 
Episode: 78: [[ 0.          0.01044417 -0.01945239 -0.00700291 -0.00418842]
 [ 0.          0.00748164  0.01054177 -0.00639032 -0.00226654]
 [ 0.          0.01399877 -0.01618041 -0.01543648 -0.01342321]
 [ 0.          0.0096222  -0.01646944 -0.00897197  0.00232053]
 [ 0.         -0.00857596 -0.01228004  0.01048086  0.00334437]] 
Episode: 79: [[ 0.          0.01068228 -0.01962741 -0.00717176 -0.00433572]
 [ 0.          0.0075774   0.01071725 -0.00641124 -0.00223624]
 [ 0.          0.01418701 -0.01632338 -0.01569248 -0.01368463]
 [ 0.          0.00979059 -0.01663026 -0.00909402  0.00235769]
 [ 0.         -0.00875374 -0.01251055  0.01066343  0.00344405]] 
Episode: 80: [[ 0.          0.01092497 -0.0198035  -0.00738845 -0.00447848]
 [ 0.          0.00771201  0.01088732 -0.0064951  -0.00225664]
 [ 0.          0.01436023 -0.01650645 -0.01588117 -0.013874  ]
 [ 0.          0.00999466 -0.01680508 -0.00923344  0.00234287]
 [ 0.         -0.0088376  -0.01277486  0.0107522   0.00359487]] 
Episode: 81: [[ 0.          0.01115377 -0.01999821 -0.00759831 -0.00462964]
 [ 0.          0.00787389  0.01107086 -0.00661246 -0.00231491]
 [ 0.          0.01454293 -0.01672731 -0.01609031 -0.01401512]
 [ 0.          0.01024999 -0.01698595 -0.00941335  0.00231353]
 [ 0.         -0.00887772 -0.01303245  0.01079888  0.00369611]] 
Episode: 82: [[ 0.          0.01137016 -0.02019714 -0.00780506 -0.00478399]
 [ 0.          0.00803845  0.01127475 -0.006723   -0.00241892]
 [ 0.          0.01470908 -0.01696651 -0.01629923 -0.01412352]
 [ 0.          0.01051533 -0.01715819 -0.00959966  0.00225712]
 [ 0.         -0.00893182 -0.01328441  0.01085957  0.00377296]] 
Episode: 83: [[ 0.          0.01157813 -0.02042684 -0.00800916 -0.00494033]
 [ 0.          0.00819424  0.01150181 -0.00681744 -0.00249342]
 [ 0.          0.0148779  -0.01724068 -0.01652356 -0.01425135]
 [ 0.          0.01079216 -0.01736394 -0.00979749  0.00215918]
 [ 0.         -0.00899571 -0.01357251  0.010941    0.00386485]] 
Episode: 84: [[ 0.          0.01177716 -0.02065222 -0.00819192 -0.00509457]
 [ 0.          0.00830404  0.01172255 -0.0068887  -0.00256367]
 [ 0.          0.01505368 -0.01748719 -0.01676344 -0.01440948]
 [ 0.          0.01103104 -0.01756279 -0.0099832   0.00209076]
 [ 0.         -0.0090876  -0.01386763  0.01103958  0.00398365]] 
Episode: 85: [[ 0.          0.01200246 -0.02085921 -0.00841428 -0.00526434]
 [ 0.          0.00843607  0.01193792 -0.00696266 -0.0025942 ]
 [ 0.          0.0152348  -0.01769736 -0.01701816 -0.01459443]
 [ 0.          0.01127239 -0.01773364 -0.01020363  0.0020019 ]
 [ 0.         -0.00913916 -0.01414922  0.01110052  0.0041322 ]] 
Episode: 86: [[ 0.          0.01221598 -0.02107311 -0.00862848 -0.00541934]
 [ 0.          0.00855376  0.01215188 -0.00701043 -0.00262895]
 [ 0.          0.01540687 -0.01792437 -0.01726501 -0.01478174]
 [ 0.          0.01149736 -0.01791823 -0.01042255  0.00188554]
 [ 0.         -0.00920687 -0.01442934  0.01117436  0.00428314]] 
Episode: 87: [[ 0.          0.01241197 -0.02129043 -0.00882328 -0.00557169]
 [ 0.          0.00868235  0.0123619  -0.00707149 -0.00265636]
 [ 0.          0.01555393 -0.01815861 -0.01745602 -0.01498436]
 [ 0.          0.01173042 -0.018108   -0.01064282  0.00174559]
 [ 0.         -0.0092968  -0.01471964  0.0112783   0.00443386]] 
Episode: 88: [[ 0.          0.01259024 -0.02148367 -0.00899777 -0.00570797]
 [ 0.          0.00879044  0.01254744 -0.00712893 -0.00268297]
 [ 0.          0.01568454 -0.01837627 -0.01762883 -0.01516826]
 [ 0.          0.01192515 -0.0182913  -0.01083618  0.00162203]
 [ 0.         -0.0093771  -0.01498275  0.01137192  0.00457001]] 
Episode: 89: [[ 0.          0.01275881 -0.02166343 -0.00914793 -0.00583828]
 [ 0.          0.00889202  0.01272323 -0.00716766 -0.00273017]
 [ 0.          0.01580646 -0.01857748 -0.01779855 -0.01536256]
 [ 0.          0.01212011 -0.01845697 -0.01103615  0.00147523]
 [ 0.         -0.00946171 -0.01521566  0.01147956  0.00467731]] 
Episode: 90: [[ 0.          0.0129901  -0.02182915 -0.00931323 -0.00599294]
 [ 0.          0.00903799  0.01289918 -0.00726711 -0.00281255]
 [ 0.          0.01597566 -0.01873354 -0.01799082 -0.01557994]
 [ 0.          0.01235956 -0.01859432 -0.01126949  0.00136339]
 [ 0.         -0.00953159 -0.0154192   0.01158208  0.00476539]] 
Episode: 91: [[ 0.          0.01322654 -0.02199329 -0.00948163 -0.00612272]
 [ 0.          0.00916227  0.013083   -0.00735286 -0.00290085]
 [ 0.          0.01611684 -0.01889092 -0.01815716 -0.01578233]
 [ 0.          0.01260406 -0.01871231 -0.01150994  0.00122106]
 [ 0.         -0.00959417 -0.01560432  0.01167793  0.00485406]] 
Episode: 92: [[ 0.          0.01341229 -0.02216913 -0.00960091 -0.00626602]
 [ 0.          0.00929563  0.0132416  -0.00745649 -0.00297315]
 [ 0.          0.01625969 -0.01906744 -0.01832541 -0.01597725]
 [ 0.          0.01284431 -0.01885235 -0.01175542  0.00113282]
 [ 0.         -0.0096752  -0.01579597  0.01178199  0.00493797]] 
Episode: 93: [[ 0.          0.01358959 -0.02234362 -0.00973194 -0.00639385]
 [ 0.          0.00942022  0.0133766  -0.00754547 -0.00304814]
 [ 0.          0.01639688 -0.0192522  -0.01848894 -0.0161598 ]
 [ 0.          0.01307101 -0.01901875 -0.0119784   0.00103598]
 [ 0.         -0.00973874 -0.01597005  0.01186133  0.00500977]] 
Episode: 94: [[ 0.          0.01376932 -0.02254099 -0.00985632 -0.00651407]
 [ 0.          0.00957002  0.01352299 -0.00766225 -0.00314598]
 [ 0.          0.01648413 -0.0194896  -0.01860949 -0.01632405]
 [ 0.          0.01332978 -0.01921368 -0.01223187  0.00090232]
 [ 0.         -0.0097121  -0.01614975  0.01186605  0.00507563]] 
Episode: 95: [[ 0.          0.01399027 -0.02272534 -0.01000432 -0.0066539 ]
 [ 0.          0.00972997  0.01367883 -0.0077911  -0.00328582]
 [ 0.          0.01658152 -0.01973325 -0.01875815 -0.01647487]
 [ 0.          0.01360262 -0.01939833 -0.01251182  0.00074598]
 [ 0.         -0.00968869 -0.0163105   0.01188902  0.00506905]] 
Episode: 96: [[ 0.          0.01424861 -0.02288634 -0.01020951 -0.00685619]
 [ 0.          0.00987519  0.01381688 -0.00788847 -0.00341798]
 [ 0.          0.01667115 -0.0199772  -0.01888017 -0.01659611]
 [ 0.          0.01389549 -0.01955997 -0.01281474  0.00055966]
 [ 0.         -0.00961604 -0.01644959  0.01188623  0.00501918]] 
Episode: 97: [[ 0.          0.01447529 -0.02304376 -0.01038721 -0.00703173]
 [ 0.          0.01003553  0.01394418 -0.0079988  -0.00348844]
 [ 0.          0.0167566  -0.0202123  -0.01900671 -0.01674186]
 [ 0.          0.01418098 -0.01971834 -0.0131186   0.00036013]
 [ 0.         -0.00953352 -0.01660523  0.01190161  0.00501745]] 
Episode: 98: [[ 0.          0.01468575 -0.0232245  -0.0105599  -0.00718738]
 [ 0.          0.01018654  0.01407522 -0.00810792 -0.00356251]
 [ 0.          0.01686962 -0.0204466  -0.0191609  -0.01691153]
 [ 0.          0.01447006 -0.01989141 -0.01342776  0.00018505]
 [ 0.         -0.00948133 -0.01677028  0.01193052  0.00501815]] 
Episode: 99: [[ 0.00000000e+00  1.48618352e-02 -2.34169867e-02 -1.07239764e-02
  -7.30957510e-03]
 [ 0.00000000e+00  1.03065092e-02  1.42300995e-02 -8.18628166e-03
  -3.62802390e-03]
 [ 0.00000000e+00  1.70038007e-02 -2.06622295e-02 -1.93314850e-02
  -1.70881003e-02]
 [ 0.00000000e+00  1.47364559e-02 -2.00553257e-02 -1.36919683e-02
   6.71651869e-05]
 [ 0.00000000e+00 -9.44448914e-03 -1.69305131e-02  1.19624725e-02
   5.03116194e-03]] 
Episode: 100: [[ 0.0000000e+00  1.5005570e-02 -2.3621721e-02 -1.0847957e-02
  -7.3966947e-03]
 [ 0.0000000e+00  1.0416269e-02  1.4369966e-02 -8.2531162e-03
  -3.6896609e-03]
 [ 0.0000000e+00  1.7138653e-02 -2.0882240e-02 -1.9499205e-02
  -1.7260665e-02]
 [ 0.0000000e+00  1.4969264e-02 -2.0242190e-02 -1.3920627e-02
  -1.3870711e-05]
 [ 0.0000000e+00 -9.4090607e-03 -1.7081702e-02  1.1988876e-02
   5.0450121e-03]] 
Episode: 101: [[ 0.0000000e+00  1.5143725e-02 -2.3813184e-02 -1.0988003e-02
  -7.4729244e-03]
 [ 0.0000000e+00  1.0530369e-02  1.4489887e-02 -8.3193211e-03
  -3.7518954e-03]
 [ 0.0000000e+00  1.7263113e-02 -2.1093274e-02 -1.9653227e-02
  -1.7427150e-02]
 [ 0.0000000e+00  1.5191462e-02 -2.0435814e-02 -1.4116749e-02
  -4.2765099e-05]
 [ 0.0000000e+00 -9.3786241e-03 -1.7212560e-02  1.2006247e-02
   5.0174608e-03]] 
Episode: 102: [[ 0.00000000e+00  1.52862268e-02 -2.40289960e-02 -1.11172386e-02
  -7.53512746e-03]
 [ 0.00000000e+00  1.06369527e-02  1.46158105e-02 -8.37697554e-03
  -3.81332007e-03]
 [ 0.00000000e+00  1.74031351e-02 -2.13187356e-02 -1.98280159e-02
  -1.76021773e-02]
 [ 0.00000000e+00  1.54061019e-02 -2.06444412e-02 -1.43023431e-02
  -7.92742867e-05]
 [ 0.00000000e+00 -9.35422536e-03 -1.73479021e-02  1.20262261e-02
   4.99563245e-03]] 
Episode: 103: [[ 0.          0.01541806 -0.0242543  -0.0112309  -0.00760271]
 [ 0.          0.0107322   0.01472817 -0.00842824 -0.0038645 ]
 [ 0.          0.01753892 -0.0215505  -0.02000325 -0.0177826 ]
 [ 0.          0.01560793 -0.02086234 -0.01447607 -0.00014778]
 [ 0.         -0.00933286 -0.01748286  0.01204558  0.00497919]] 
Episode: 104: [[ 0.          0.01556849 -0.02446947 -0.01137253 -0.00766236]
 [ 0.          0.01081501  0.01484493 -0.00848235 -0.00396379]
 [ 0.          0.01767523 -0.02176028 -0.02018199 -0.01798905]
 [ 0.          0.01583562 -0.02105354 -0.01464614 -0.0002295 ]
 [ 0.         -0.00933966 -0.01762853  0.01208144  0.00498379]] 
Episode: 105: [[ 0.          0.01570967 -0.02468348 -0.01150724 -0.007727  ]
 [ 0.          0.01089601  0.01495841 -0.00854176 -0.00405965]
 [ 0.          0.01780684 -0.02197662 -0.02036311 -0.01821392]
 [ 0.          0.01604882 -0.02125924 -0.01480806 -0.00031062]
 [ 0.         -0.00935578 -0.01778263  0.01210713  0.00498429]] 
Episode: 106: [[ 0.          0.01584378 -0.02491006 -0.01165602 -0.00774525]
 [ 0.          0.01097643  0.01507712 -0.00858875 -0.00415176]
 [ 0.          0.01792946 -0.02219729 -0.02052427 -0.01845096]
 [ 0.          0.01627985 -0.02144517 -0.01498613 -0.00041138]
 [ 0.         -0.00938681 -0.01796124  0.01214015  0.00500728]] 
Episode: 107: [[ 0.          0.01595961 -0.02512778 -0.01181255 -0.00776587]
 [ 0.          0.01104817  0.01518787 -0.00861977 -0.00423529]
 [ 0.          0.01804644 -0.0224237  -0.02069705 -0.01868269]
 [ 0.          0.01648052 -0.02165183 -0.01514978 -0.00049569]
 [ 0.         -0.00941366 -0.01813801  0.01215459  0.00503868]] 
Episode: 108: [[ 0.          0.01610562 -0.02535051 -0.01199898 -0.00778439]
 [ 0.          0.01108108  0.01530088 -0.00861458 -0.00431633]
 [ 0.          0.0181558  -0.02265535 -0.02085937 -0.01889932]
 [ 0.          0.01666125 -0.02186293 -0.01528959 -0.00058277]
 [ 0.         -0.00943018 -0.01829924  0.01215774  0.00505462]] 
Episode: 109: [[ 0.          0.01621381 -0.02556082 -0.01218134 -0.00783936]
 [ 0.          0.01111889  0.0154091  -0.00862778 -0.00444744]
 [ 0.          0.01825462 -0.02290179 -0.02101713 -0.01904812]
 [ 0.          0.01688603 -0.02207326 -0.01546945 -0.00062759]
 [ 0.         -0.00941036 -0.01843777  0.01212856  0.00504662]] 
Episode: 110: [[ 0.          0.01629037 -0.02576582 -0.01245068 -0.0079257 ]
 [ 0.          0.01113238  0.01554325 -0.00855461 -0.00450209]
 [ 0.          0.01841182 -0.02314032 -0.02120034 -0.01922594]
 [ 0.          0.01710139 -0.02230869 -0.01568436 -0.00071474]
 [ 0.         -0.00949898 -0.01860826  0.01218567  0.00503883]] 
Episode: 111: [[ 0.          0.01644431 -0.02594972 -0.01279091 -0.00810366]
 [ 0.          0.01118133  0.01569617 -0.00852269 -0.00461111]
 [ 0.          0.01857172 -0.02336997 -0.02139809 -0.01942079]
 [ 0.          0.01732679 -0.02253584 -0.01592995 -0.00083941]
 [ 0.         -0.00954866 -0.01876001  0.01219496  0.00496731]] 
Episode: 112: [[ 0.          0.01657608 -0.02612439 -0.01309144 -0.00826917]
 [ 0.          0.01123841  0.01584772 -0.00850727 -0.00471934]
 [ 0.          0.01873113 -0.02358105 -0.02161459 -0.01963466]
 [ 0.          0.0175219  -0.02275149 -0.01613856 -0.00094876]
 [ 0.         -0.00957206 -0.01890063  0.01217955  0.00489194]] 
Episode: 113: [[ 0.          0.01669574 -0.02628898 -0.01337034 -0.00842381]
 [ 0.          0.01130459  0.01599205 -0.00848833 -0.00481922]
 [ 0.          0.01890649 -0.02377007 -0.02185012 -0.01987028]
 [ 0.          0.01773493 -0.02294424 -0.01635337 -0.00109318]
 [ 0.         -0.00962526 -0.01903426  0.012192    0.00480519]] 
Episode: 114: [[ 0.          0.0168168  -0.02645958 -0.01362353 -0.00855616]
 [ 0.          0.01136536  0.01613342 -0.00847269 -0.00490985]
 [ 0.          0.01907449 -0.02398039 -0.02208021 -0.0200749 ]
 [ 0.          0.0179234  -0.02314955 -0.01654769 -0.00122002]
 [ 0.         -0.00967148 -0.01917943  0.01220062  0.0047314 ]] 
Episode: 115: [[ 0.          0.01693963 -0.0266245  -0.01385598 -0.00867465]
 [ 0.          0.01141314  0.01628739 -0.00846129 -0.00500623]
 [ 0.          0.01922226 -0.02420079 -0.02227315 -0.02024732]
 [ 0.          0.01808029 -0.0233471  -0.01670917 -0.00136336]
 [ 0.         -0.00970832 -0.01932988  0.01220093  0.00462267]] 
Episode: 116: [[ 0.          0.01704394 -0.0267874  -0.0140607  -0.00878146]
 [ 0.          0.01145952  0.01642882 -0.00846096 -0.00511208]
 [ 0.          0.01935212 -0.02443379 -0.02243476 -0.02040017]
 [ 0.          0.01823544 -0.02355793 -0.01685829 -0.00151062]
 [ 0.         -0.00974567 -0.01947982  0.01220478  0.00451677]] 
Episode: 117: [[ 0.          0.01711674 -0.02697976 -0.01422686 -0.00888186]
 [ 0.          0.01153435  0.01657883 -0.00848805 -0.0052107 ]
 [ 0.          0.01952918 -0.0246697  -0.02262135 -0.0205815 ]
 [ 0.          0.01845477 -0.02376717 -0.01704574 -0.00165321]
 [ 0.         -0.00979778 -0.01967059  0.01221642  0.00445514]] 
Episode: 118: [[ 0.          0.01722031 -0.02716104 -0.01440693 -0.00897284]
 [ 0.          0.01160107  0.0167384  -0.00851666 -0.00532714]
 [ 0.          0.01968827 -0.024903   -0.02279521 -0.02073451]
 [ 0.          0.01865138 -0.02395781 -0.01722592 -0.0018081 ]
 [ 0.         -0.00987142 -0.01985393  0.01224998  0.00439428]] 
Episode: 119: [[ 0.          0.01743216 -0.0273251  -0.01467991 -0.0092036 ]
 [ 0.          0.01177858  0.01692292 -0.00859088 -0.00547939]
 [ 0.          0.01992724 -0.02504834 -0.0229928  -0.02091594]
 [ 0.          0.01892104 -0.02414864 -0.01744073 -0.00198251]
 [ 0.         -0.00992807 -0.02000999  0.0122512   0.00431495]] 
Episode: 120: [[ 0.          0.01762111 -0.02748988 -0.01492138 -0.00941261]
 [ 0.          0.0119409   0.01710064 -0.00865378 -0.00562565]
 [ 0.          0.0201599  -0.02517385 -0.02320955 -0.0211226 ]
 [ 0.          0.01916021 -0.02432501 -0.0176249  -0.00212091]
 [ 0.         -0.01001198 -0.0201858   0.01229067  0.00427731]] 
Episode: 121: [[ 0.          0.01779946 -0.02765755 -0.01517079 -0.00961229]
 [ 0.          0.01210747  0.01729035 -0.00871412 -0.00576834]
 [ 0.          0.02037051 -0.02531273 -0.02340771 -0.02133435]
 [ 0.          0.01941868 -0.0244877  -0.01783982 -0.00229169]
 [ 0.         -0.01007565 -0.02037854  0.01231409  0.00428281]] 
Episode: 122: [[ 0.          0.01799406 -0.02782182 -0.01540649 -0.00980075]
 [ 0.          0.0122591   0.01748598 -0.00877224 -0.00594453]
 [ 0.          0.02058436 -0.02544485 -0.02362697 -0.02156801]
 [ 0.          0.01965166 -0.02465255 -0.01803325 -0.0024227 ]
 [ 0.         -0.01012284 -0.02055678  0.01232102  0.00424901]] 
Episode: 123: [[ 0.          0.01823425 -0.02795469 -0.01570586 -0.00997521]
 [ 0.          0.01236518  0.01769939 -0.00877208 -0.00612439]
 [ 0.          0.02077019 -0.02558152 -0.02384988 -0.02182109]
 [ 0.          0.019843   -0.0248342  -0.01822005 -0.00258669]
 [ 0.         -0.01021259 -0.02073703  0.01234634  0.00423839]] 
Episode: 124: [[ 0.          0.01844554 -0.02812041 -0.01596391 -0.0101382 ]
 [ 0.          0.01245825  0.01790066 -0.00878002 -0.00629539]
 [ 0.          0.0209477  -0.02575796 -0.02406192 -0.02205804]
 [ 0.          0.0199924  -0.02505393 -0.01836543 -0.00272066]
 [ 0.         -0.01031091 -0.02089671  0.01238014  0.00423148]] 
Episode: 125: [[ 0.          0.01865038 -0.02828257 -0.01619636 -0.01030641]
 [ 0.          0.01254976  0.01809304 -0.00879377 -0.00645296]
 [ 0.          0.02113574 -0.02589772 -0.02429369 -0.02231405]
 [ 0.          0.02011921 -0.0252597  -0.01849124 -0.00284098]
 [ 0.         -0.01042059 -0.02106267  0.01242841  0.00425857]] 
Episode: 126: [[ 0.          0.01885791 -0.02847146 -0.01642855 -0.01045822]
 [ 0.          0.01263926  0.01834399 -0.00879652 -0.00658439]
 [ 0.          0.02137216 -0.02598664 -0.02454299 -0.02258695]
 [ 0.          0.02029905 -0.02538234 -0.01865768 -0.00297073]
 [ 0.         -0.01062218 -0.02131705  0.01255333  0.00434813]] 
Episode: 127: [[ 0.          0.01903157 -0.02864439 -0.01662681 -0.01060337]
 [ 0.          0.0127479   0.01853787 -0.00881569 -0.00669726]
 [ 0.          0.02158714 -0.02608845 -0.02477215 -0.02284019]
 [ 0.          0.02046074 -0.02552614 -0.01881879 -0.00311458]
 [ 0.         -0.01080495 -0.02154724  0.01266881  0.00443082]] 
Episode: 128: [[ 0.          0.01917919 -0.02880238 -0.01679032 -0.01069839]
 [ 0.          0.01284796  0.01869358 -0.00882193 -0.00674437]
 [ 0.          0.02174821 -0.02622713 -0.02493605 -0.02302348]
 [ 0.          0.02062982 -0.0256683  -0.01901641 -0.00329028]
 [ 0.         -0.01095661 -0.02174546  0.01278297  0.00448999]] 
Episode: 129: [[ 0.          0.01934539 -0.02895943 -0.01696807 -0.01079299]
 [ 0.          0.01292986  0.01884946 -0.00880468 -0.00679713]
 [ 0.          0.02190103 -0.02637504 -0.02510707 -0.02321229]
 [ 0.          0.02076915 -0.0258281  -0.01919784 -0.00346513]
 [ 0.         -0.01108714 -0.02193483  0.01289234  0.0045145 ]] 
Episode: 130: [[ 0.          0.01948421 -0.02912108 -0.01714466 -0.01088842]
 [ 0.          0.01301233  0.01900824 -0.00878982 -0.00686558]
 [ 0.          0.02206863 -0.02651989 -0.02530187 -0.02340744]
 [ 0.          0.02092161 -0.02598547 -0.01938096 -0.00362684]
 [ 0.         -0.01123582 -0.02212026  0.01300941  0.00456611]] 
Episode: 131: [[ 0.          0.01960562 -0.02927167 -0.01729788 -0.01095962]
 [ 0.          0.01310514  0.01916447 -0.00879555 -0.00695827]
 [ 0.          0.02222653 -0.02665506 -0.02548352 -0.02358743]
 [ 0.          0.02106173 -0.0261243  -0.01954092 -0.00378647]
 [ 0.         -0.0113782  -0.0223013   0.01312319  0.00461875]] 
Episode: 132: [[ 0.          0.01971627 -0.02944217 -0.017428   -0.01101669]
 [ 0.          0.01319197  0.01932622 -0.00879797 -0.00704315]
 [ 0.          0.02238836 -0.0267971  -0.02567592 -0.02379168]
 [ 0.          0.02118393 -0.02627648 -0.01967524 -0.00393854]
 [ 0.         -0.01150989 -0.02248922  0.01322356  0.00468843]] 
Episode: 133: [[ 0.          0.01982212 -0.02963007 -0.0175314  -0.01105597]
 [ 0.          0.01327171  0.01947378 -0.00880428 -0.00712099]
 [ 0.          0.02255036 -0.02694927 -0.02586131 -0.02399375]
 [ 0.          0.02127936 -0.02645774 -0.01977211 -0.00405062]
 [ 0.         -0.01163087 -0.02266926  0.01331525  0.00475884]] 
Episode: 134: [[ 0.          0.01995454 -0.02981023 -0.01766201 -0.01113196]
 [ 0.          0.01336037  0.01962467 -0.0088482  -0.00722424]
 [ 0.          0.0227448  -0.0270909  -0.02606915 -0.0242184 ]
 [ 0.          0.0213947  -0.02665668 -0.01986348 -0.00411597]
 [ 0.         -0.01174873 -0.02284501  0.01340524  0.00484267]] 
Episode: 135: [[ 0.          0.02009498 -0.03000395 -0.01778761 -0.0111911 ]
 [ 0.          0.01342013  0.01978823 -0.00887438 -0.00732204]
 [ 0.          0.02294833 -0.02725286 -0.02628708 -0.02444489]
 [ 0.          0.02148497 -0.02686629 -0.01992645 -0.00417231]
 [ 0.         -0.01184685 -0.02303136  0.01348308  0.00492647]] 
Episode: 136: [[ 0.          0.0202804  -0.03016551 -0.01790995 -0.01127743]
 [ 0.          0.0135296   0.01990736 -0.00893259 -0.00747134]
 [ 0.          0.02312205 -0.02740591 -0.02646534 -0.02466923]
 [ 0.          0.02161248 -0.02706513 -0.0200224  -0.00424389]
 [ 0.         -0.0118698  -0.02316273  0.01349289  0.00493463]] 
Episode: 137: [[ 0.          0.02048041 -0.03033348 -0.01803647 -0.01137594]
 [ 0.          0.01363136  0.02002823 -0.00898808 -0.00762347]
 [ 0.          0.02330226 -0.02757532 -0.02666675 -0.02491273]
 [ 0.          0.02173674 -0.02727625 -0.02011114 -0.00433425]
 [ 0.         -0.01187693 -0.02329792  0.01348426  0.00492485]] 
Episode: 138: [[ 0.          0.0206551  -0.03049624 -0.01815303 -0.01145594]
 [ 0.          0.01371725  0.02015373 -0.00901492 -0.00775373]
 [ 0.          0.02347551 -0.02773042 -0.02685287 -0.02514326]
 [ 0.          0.02184542 -0.02746565 -0.02017316 -0.00441099]
 [ 0.         -0.01188211 -0.02341818  0.01347044  0.0049115 ]] 
Episode: 139: [[ 0.          0.02084097 -0.0306738  -0.01824586 -0.01154121]
 [ 0.          0.01378854  0.02030255 -0.00903168 -0.00786908]
 [ 0.          0.0236244  -0.02789735 -0.02702477 -0.02536521]
 [ 0.          0.02196527 -0.02763481 -0.02027867 -0.00451058]
 [ 0.         -0.01187204 -0.02354058  0.01344193  0.00488335]] 
Episode: 140: [[ 0.          0.02098365 -0.03086464 -0.01828864 -0.01160919]
 [ 0.          0.01388556  0.02046619 -0.00906877 -0.00796765]
 [ 0.          0.02376249 -0.02805507 -0.02718049 -0.02557494]
 [ 0.          0.02206929 -0.02778041 -0.02034999 -0.00456073]
 [ 0.         -0.01186667 -0.02366893  0.01342046  0.00486603]] 
Episode: 141: [[ 0.          0.02113793 -0.03106416 -0.01834025 -0.01168191]
 [ 0.          0.01397444  0.0206279  -0.00910083 -0.00806245]
 [ 0.          0.02393778 -0.02819558 -0.02736201 -0.02580668]
 [ 0.          0.02220478 -0.02792915 -0.02046662 -0.00465044]
 [ 0.         -0.01189204 -0.02381529  0.0134257   0.00489245]] 
Episode: 142: [[ 0.          0.02128879 -0.03124938 -0.01839433 -0.01175926]
 [ 0.          0.01406529  0.02077674 -0.00914327 -0.00817505]
 [ 0.          0.02412767 -0.02832252 -0.02756653 -0.02605188]
 [ 0.          0.02232798 -0.02808299 -0.02054888 -0.00469735]
 [ 0.         -0.01189518 -0.0239511   0.01340185  0.00491532]] 
Episode: 143: [[ 0.          0.02141809 -0.03142378 -0.0184613  -0.01184365]
 [ 0.          0.01415506  0.02091659 -0.00918202 -0.00829209]
 [ 0.          0.02429752 -0.02846734 -0.02773353 -0.02624176]
 [ 0.          0.02244685 -0.02824049 -0.02062001 -0.00474506]
 [ 0.         -0.01188109 -0.02409002  0.01334211  0.00493094]] 
Episode: 144: [[ 0.          0.02157613 -0.03160391 -0.01851819 -0.01192015]
 [ 0.          0.01425051  0.02105553 -0.00923126 -0.00837605]
 [ 0.          0.02448337 -0.02857803 -0.02792499 -0.02645547]
 [ 0.          0.02257253 -0.02838761 -0.02069996 -0.00474008]
 [ 0.         -0.01188956 -0.02425408  0.01330989  0.00500109]] 
Episode: 145: [[ 0.          0.02172071 -0.0317828  -0.01857298 -0.0119998 ]
 [ 0.          0.01434862  0.02119217 -0.00928512 -0.00846754]
 [ 0.          0.02466422 -0.02869631 -0.02813101 -0.02668242]
 [ 0.          0.02268091 -0.02854782 -0.02076739 -0.00473796]
 [ 0.         -0.01189703 -0.02441873  0.01327515  0.00505331]] 
Episode: 146: [[ 0.          0.02189169 -0.03195064 -0.01865905 -0.01212932]
 [ 0.          0.01447242  0.02132953 -0.00937855 -0.00857219]
 [ 0.          0.02485049 -0.02880012 -0.0283573  -0.02692916]
 [ 0.          0.02280695 -0.02870458 -0.02086114 -0.00468847]
 [ 0.         -0.01190428 -0.02455181  0.01323222  0.00503382]] 
Episode: 147: [[ 0.          0.02203596 -0.0321047  -0.01874667 -0.01223579]
 [ 0.          0.01458244  0.02146724 -0.00944996 -0.00864711]
 [ 0.          0.02501543 -0.02890721 -0.0285694  -0.02715728]
 [ 0.          0.02291059 -0.02885799 -0.0209449  -0.00463225]
 [ 0.         -0.01191197 -0.0246879   0.01319082  0.00503503]] 
Episode: 148: [[ 0.          0.02217108 -0.03225668 -0.01883764 -0.01231039]
 [ 0.          0.01467972  0.02160036 -0.00952172 -0.00876517]
 [ 0.          0.02516765 -0.02903865 -0.02875415 -0.02732232]
 [ 0.          0.02300609 -0.02902405 -0.02100764 -0.00461351]
 [ 0.         -0.0119059  -0.02482446  0.01312974  0.00503025]] 
Episode: 149: [[ 0.          0.02222681 -0.03240807 -0.01889734 -0.01236923]
 [ 0.          0.01476292  0.02174151 -0.00956553 -0.00887545]
 [ 0.          0.02531004 -0.02916841 -0.02891599 -0.02748023]
 [ 0.          0.02307497 -0.02918655 -0.02101711 -0.00457647]
 [ 0.         -0.01188715 -0.02496165  0.01305449  0.00502717]] 
Episode: 150: [[ 0.          0.02226422 -0.03255227 -0.0189471  -0.0124063 ]
 [ 0.          0.01483404  0.02187583 -0.0096047  -0.00898167]
 [ 0.          0.02542797 -0.02930506 -0.02903645 -0.02757847]
 [ 0.          0.02313877 -0.02934694 -0.02102477 -0.00454294]
 [ 0.         -0.01187834 -0.02510073  0.01298896  0.00501952]] 
Episode: 151: [[ 0.          0.0223066  -0.03268953 -0.01899491 -0.01244288]
 [ 0.          0.01489214  0.0219933  -0.00963113 -0.00908039]
 [ 0.          0.02553845 -0.02944097 -0.02915235 -0.0276803 ]
 [ 0.          0.02318682 -0.02951805 -0.02102419 -0.00451469]
 [ 0.         -0.01186773 -0.02523742  0.01292695  0.00501424]] 
Episode: 152: [[ 0.          0.02232895 -0.03281719 -0.01902848 -0.01248215]
 [ 0.          0.01494935  0.02209471 -0.00964472 -0.00913409]
 [ 0.          0.02563841 -0.02956726 -0.02925169 -0.02779959]
 [ 0.          0.02321091 -0.02968389 -0.02100994 -0.00450194]
 [ 0.         -0.01185541 -0.02536512  0.01287147  0.00501231]] 
Episode: 153: [[ 0.          0.02235931 -0.03294613 -0.01904593 -0.01250573]
 [ 0.          0.01499647  0.0221951  -0.00965215 -0.0091826 ]
 [ 0.          0.02571946 -0.02970446 -0.02932776 -0.0279111 ]
 [ 0.          0.02318149 -0.02986786 -0.0209458  -0.0044663 ]
 [ 0.         -0.01183486 -0.02548374  0.01281626  0.00501284]] 
Episode: 154: [[ 0.          0.02244093 -0.03308276 -0.01908064 -0.01252311]
 [ 0.          0.0150098   0.02230658 -0.00962981 -0.00923145]
 [ 0.          0.02578836 -0.02984479 -0.02940604 -0.02802027]
 [ 0.          0.02314921 -0.03004297 -0.02090218 -0.00446169]
 [ 0.         -0.01180267 -0.02559968  0.01275759  0.0050167 ]] 
Episode: 155: [[ 0.          0.02252855 -0.03322254 -0.01913455 -0.01252299]
 [ 0.          0.01504513  0.02242327 -0.00963217 -0.00933898]
 [ 0.          0.02585979 -0.03001537 -0.02948491 -0.02810622]
 [ 0.          0.02310401 -0.03022787 -0.02083882 -0.00446366]
 [ 0.         -0.01174655 -0.02571205  0.01268142  0.0049892 ]] 
Episode: 156: [[ 0.          0.02263316 -0.03337309 -0.01921371 -0.01252627]
 [ 0.          0.01507898  0.02254569 -0.00963456 -0.00944663]
 [ 0.          0.02592075 -0.0302065  -0.0295547  -0.02815401]
 [ 0.          0.02307743 -0.03042166 -0.02080637 -0.004498  ]
 [ 0.         -0.01170133 -0.0258265   0.01263903  0.00495137]] 
Episode: 157: [[ 0.          0.02273127 -0.03354112 -0.01926243 -0.01254615]
 [ 0.          0.01515342  0.02267533 -0.00967513 -0.00955974]
 [ 0.          0.02605446 -0.03036034 -0.02965997 -0.02824058]
 [ 0.          0.02313619 -0.03059939 -0.02083269 -0.00452793]
 [ 0.         -0.01173658 -0.02599468  0.01266781  0.00498466]] 
Episode: 158: [[ 0.          0.02284495 -0.03371378 -0.01931589 -0.01256975]
 [ 0.          0.01521409  0.02279663 -0.00969276 -0.00966656]
 [ 0.          0.02615481 -0.03055387 -0.0297425  -0.02831213]
 [ 0.          0.02316715 -0.03080673 -0.02084097 -0.00457145]
 [ 0.         -0.01172996 -0.02613672  0.01266584  0.0049967 ]] 
Episode: 159: [[ 0.          0.02296224 -0.03387854 -0.01937205 -0.01261517]
 [ 0.          0.01525158  0.02293    -0.0096827  -0.0097655 ]
 [ 0.          0.02625358 -0.03072878 -0.02983515 -0.02841997]
 [ 0.          0.02320571 -0.031001   -0.02086214 -0.00461178]
 [ 0.         -0.011732   -0.02627107  0.01267409  0.00497636]] 
Episode: 160: [[ 0.          0.02306393 -0.03405927 -0.01940876 -0.0126522 ]
 [ 0.          0.01530545  0.02305936 -0.00969225 -0.00985871]
 [ 0.          0.02636168 -0.03090151 -0.02993932 -0.02853011]
 [ 0.          0.02324373 -0.03119371 -0.02087468 -0.00463698]
 [ 0.         -0.01173296 -0.02641018  0.01267684  0.00496259]] 
Episode: 161: [[ 0.          0.02318821 -0.03422478 -0.01949353 -0.01268708]
 [ 0.          0.01535093  0.02320886 -0.00970457 -0.00996801]
 [ 0.          0.02643024 -0.03107664 -0.02999055 -0.02861648]
 [ 0.          0.02328763 -0.03136985 -0.02090933 -0.00467735]
 [ 0.         -0.01171021 -0.02651806  0.01264502  0.00495178]] 
Episode: 162: [[ 0.          0.02329949 -0.03441366 -0.01959416 -0.01269584]
 [ 0.          0.01537428  0.02336286 -0.009702   -0.01007526]
 [ 0.          0.02648783 -0.03126288 -0.03004432 -0.02873768]
 [ 0.          0.02335994 -0.03156118 -0.02098013 -0.00474503]
 [ 0.         -0.01172714 -0.02667097  0.01266228  0.00500139]] 
Episode: 163: [[ 0.          0.02340256 -0.03460423 -0.01965874 -0.01268364]
 [ 0.          0.01539333  0.0235075  -0.00970572 -0.01017526]
 [ 0.          0.02654781 -0.03142055 -0.03009848 -0.02888996]
 [ 0.          0.02340552 -0.03174404 -0.02102604 -0.00477726]
 [ 0.         -0.01174154 -0.02683687  0.01268113  0.00507054]] 
Episode: 164: [[ 0.          0.02352038 -0.03477511 -0.01971505 -0.01269731]
 [ 0.          0.01545113  0.02363816 -0.00973818 -0.01027298]
 [ 0.          0.02661878 -0.03156494 -0.03017352 -0.02904644]
 [ 0.          0.02349014 -0.03190898 -0.02112067 -0.00483102]
 [ 0.         -0.0117706  -0.02699233  0.01274508  0.00514256]] 
Episode: 165: [[ 0.          0.02362628 -0.03492017 -0.01976033 -0.0127363 ]
 [ 0.          0.01550425  0.02378128 -0.00973656 -0.01035072]
 [ 0.          0.02669413 -0.03169359 -0.03022192 -0.02920554]
 [ 0.          0.02358635 -0.03204554 -0.0212271  -0.00492814]
 [ 0.         -0.01179123 -0.02711439  0.01284196  0.00514036]] 
Episode: 166: [[ 0.          0.02373708 -0.03507637 -0.01981006 -0.01274758]
 [ 0.          0.01555377  0.02393187 -0.00974226 -0.0104588 ]
 [ 0.          0.02675953 -0.03185232 -0.03025318 -0.02931506]
 [ 0.          0.02365813 -0.03221431 -0.02130979 -0.00502013]
 [ 0.         -0.0117989  -0.02726525  0.01292225  0.00515949]] 
Episode: 167: [[ 0.          0.02382837 -0.03524239 -0.01985679 -0.01273583]
 [ 0.          0.01557551  0.02409712 -0.00971637 -0.01057464]
 [ 0.          0.02686557 -0.03196142 -0.03032439 -0.02945686]
 [ 0.          0.02374313 -0.0323461  -0.02140806 -0.00512811]
 [ 0.         -0.01187841 -0.02746536  0.01304835  0.00524195]] 
Episode: 168: [[ 0.          0.02390478 -0.03540986 -0.01988111 -0.01272014]
 [ 0.          0.01562072  0.02425996 -0.00969753 -0.01070103]
 [ 0.          0.02696911 -0.03207979 -0.03041122 -0.02962746]
 [ 0.          0.02382122 -0.03249246 -0.02150746 -0.00524921]
 [ 0.         -0.01194277 -0.02768294  0.013185    0.00531774]] 
Episode: 169: [[ 0.          0.02401576 -0.03559854 -0.01991706 -0.01273085]
 [ 0.          0.01566811  0.02441686 -0.00969048 -0.01082471]
 [ 0.          0.02706847 -0.03222695 -0.03050316 -0.02980849]
 [ 0.          0.02386165 -0.03268487 -0.02156464 -0.00535607]
 [ 0.         -0.0119892  -0.02789087  0.01329775  0.00538906]] 
Episode: 170: [[ 0.          0.02411356 -0.03579242 -0.01994049 -0.01274272]
 [ 0.          0.01571517  0.02457546 -0.00969637 -0.01094964]
 [ 0.          0.02715814 -0.03237566 -0.03057973 -0.03000412]
 [ 0.          0.02389677 -0.03288596 -0.0215994  -0.00542482]
 [ 0.         -0.01205459 -0.02811601  0.01342541  0.00548514]] 
Episode: 171: [[ 0.          0.02424832 -0.03599755 -0.01997947 -0.01274785]
 [ 0.          0.01572501  0.02476276 -0.00965997 -0.01106665]
 [ 0.          0.02723002 -0.03252682 -0.03064209 -0.0302034 ]
 [ 0.          0.02390626 -0.03307875 -0.0216046  -0.00550615]
 [ 0.         -0.01207599 -0.02832843  0.01350977  0.00556834]] 
Episode: 172: [[ 0.          0.02439543 -0.0362474  -0.02003644 -0.01278188]
 [ 0.          0.01573081  0.02497415 -0.00961235 -0.01115852]
 [ 0.          0.02730837 -0.03269994 -0.03074147 -0.03042547]
 [ 0.          0.02392782 -0.03330027 -0.02163558 -0.00562063]
 [ 0.         -0.01211066 -0.02858537  0.01359071  0.00565215]] 
Episode: 173: [[ 0.          0.02452186 -0.0364859  -0.02008179 -0.01280321]
 [ 0.          0.01574407  0.02517332 -0.00957609 -0.01124845]
 [ 0.          0.02738485 -0.0328752  -0.03084171 -0.03063616]
 [ 0.          0.02395075 -0.03352688 -0.02166299 -0.00573452]
 [ 0.         -0.01213872 -0.02883379  0.01366187  0.00573411]] 
Episode: 174: [[ 0.          0.02466219 -0.03671905 -0.02014807 -0.01284981]
 [ 0.          0.01575813  0.02534934 -0.00954537 -0.01133567]
 [ 0.          0.02746497 -0.03305416 -0.03095997 -0.03086843]
 [ 0.          0.02401781 -0.03376099 -0.02173245 -0.00588366]
 [ 0.         -0.01216474 -0.02907094  0.01371084  0.00580403]] 
Episode: 175: [[ 0.          0.0248102  -0.03694266 -0.02022184 -0.0128774 ]
 [ 0.          0.01578013  0.02554169 -0.00953713 -0.0114254 ]
 [ 0.          0.02752601 -0.03325428 -0.03106968 -0.03103361]
 [ 0.          0.02410488 -0.03399244 -0.02182958 -0.00606623]
 [ 0.         -0.01215952 -0.02930174  0.01370956  0.00588944]] 
Episode: 176: [[ 0.          0.0249513  -0.03716011 -0.02027862 -0.01288931]
 [ 0.          0.01581037  0.02571743 -0.0095333  -0.01150897]
 [ 0.          0.02757795 -0.03346259 -0.0311681  -0.0311781 ]
 [ 0.          0.02413607 -0.03424046 -0.02187645 -0.00619576]
 [ 0.         -0.01214198 -0.02951482  0.01370236  0.00596783]] 
Episode: 177: [[ 0.          0.02513086 -0.03736577 -0.02035559 -0.0129035 ]
 [ 0.          0.01586952  0.0258952  -0.00955184 -0.0116354 ]
 [ 0.          0.02766357 -0.03365776 -0.03130008 -0.03134159]
 [ 0.          0.02422936 -0.03445608 -0.0219737  -0.00636049]
 [ 0.         -0.01215134 -0.02972745  0.01371414  0.00606669]] 
Episode: 178: [[ 0.          0.02532277 -0.03754976 -0.02047859 -0.01295107]
 [ 0.          0.01589022  0.0260485  -0.00952104 -0.01174158]
 [ 0.          0.02774849 -0.03385767 -0.03144169 -0.03151567]
 [ 0.          0.02431924 -0.0346871  -0.02210962 -0.0065565 ]
 [ 0.         -0.01217292 -0.02989453  0.01373743  0.00613555]] 
Episode: 179: [[ 0.          0.02544658 -0.03774017 -0.02053403 -0.01299319]
 [ 0.          0.01598298  0.02621951 -0.00954801 -0.01183974]
 [ 0.          0.02782328 -0.03406879 -0.03156913 -0.03169189]
 [ 0.          0.02438875 -0.03491068 -0.02222003 -0.00669748]
 [ 0.         -0.01217052 -0.03006352  0.01373789  0.00619941]] 
Episode: 180: [[ 0.          0.02555677 -0.03792905 -0.0205597  -0.01302952]
 [ 0.          0.01606835  0.02638129 -0.00957386 -0.01194166]
 [ 0.          0.02789846 -0.03427703 -0.0316926  -0.03186066]
 [ 0.          0.02446983 -0.03513205 -0.02233157 -0.00682327]
 [ 0.         -0.01217498 -0.03022233  0.01375287  0.00624972]] 
Episode: 181: [[ 0.          0.02568485 -0.03811834 -0.02058827 -0.01307591]
 [ 0.          0.01615655  0.02654456 -0.00960531 -0.01203645]
 [ 0.          0.02796667 -0.03449353 -0.0318066  -0.03201962]
 [ 0.          0.0245553  -0.03534749 -0.02243911 -0.00695535]
 [ 0.         -0.01216993 -0.03037028  0.01376068  0.00629296]] 
Episode: 182: [[ 0.          0.02579139 -0.03831996 -0.02060756 -0.01311371]
 [ 0.          0.0162665   0.02671965 -0.00965743 -0.01214961]
 [ 0.          0.02802857 -0.03473851 -0.0319046  -0.03214037]
 [ 0.          0.02465881 -0.03556677 -0.02254525 -0.00706721]
 [ 0.         -0.01217106 -0.03052638  0.01374988  0.00633213]] 
Episode: 183: [[ 0.          0.02589157 -0.03851249 -0.02062053 -0.01315055]
 [ 0.          0.01636993  0.0268897  -0.00970762 -0.01226677]
 [ 0.          0.02807919 -0.03497895 -0.03197886 -0.03226548]
 [ 0.          0.02473688 -0.03578249 -0.02262128 -0.00719517]
 [ 0.         -0.01214327 -0.03065782  0.01370837  0.00634632]] 
Episode: 184: [[ 0.          0.02599307 -0.03868726 -0.02063945 -0.0131811 ]
 [ 0.          0.01647258  0.02702383 -0.00976256 -0.01237655]
 [ 0.          0.02812385 -0.03522316 -0.03204609 -0.03237795]
 [ 0.          0.02477982 -0.03602739 -0.02266743 -0.00730893]
 [ 0.         -0.01212171 -0.03077813  0.01367611  0.00636298]] 
Episode: 185: [[ 0.          0.02607566 -0.03885204 -0.02065964 -0.01314408]
 [ 0.          0.01656722  0.027155   -0.00979709 -0.01245969]
 [ 0.          0.02816959 -0.03544178 -0.03213953 -0.03247087]
 [ 0.          0.02482338 -0.03624183 -0.02273807 -0.00743383]
 [ 0.         -0.01210077 -0.03091562  0.01361435  0.00642342]] 
Episode: 186: [[ 0.          0.02616144 -0.03900731 -0.02067546 -0.01312694]
 [ 0.          0.01665652  0.0272762  -0.0098352  -0.01255519]
 [ 0.          0.02820985 -0.03565075 -0.03221844 -0.03257642]
 [ 0.          0.02486858 -0.0364547  -0.02280589 -0.00756718]
 [ 0.         -0.0120789  -0.03105274  0.01354876  0.00645847]] 
Episode: 187: [[ 0.          0.02623926 -0.0391656  -0.0206901  -0.01309454]
 [ 0.          0.01672435  0.02739456 -0.00984906 -0.01264454]
 [ 0.          0.0282602  -0.03584056 -0.03229842 -0.03268898]
 [ 0.          0.02489053 -0.03666472 -0.02283535 -0.0076524 ]
 [ 0.         -0.01208701 -0.03119753  0.01351224  0.00651001]] 
Episode: 188: [[ 0.          0.02630376 -0.0393316  -0.02068814 -0.01306184]
 [ 0.          0.01679049  0.02751624 -0.009869   -0.01271808]
 [ 0.          0.02833755 -0.03601655 -0.03241314 -0.0328127 ]
 [ 0.          0.02494474 -0.0368457  -0.02289796 -0.00770595]
 [ 0.         -0.01211211 -0.03136213  0.01348995  0.0065685 ]] 
Episode: 189: [[ 0.          0.026381   -0.03950713 -0.02070837 -0.01306624]
 [ 0.          0.01683738  0.02763331 -0.0098745  -0.01279576]
 [ 0.          0.02843227 -0.03622456 -0.03255034 -0.03294637]
 [ 0.          0.02500343 -0.03707305 -0.02297223 -0.00776605]
 [ 0.         -0.01214984 -0.03153374  0.01347999  0.0066406 ]] 
Episode: 190: [[ 0.          0.02646706 -0.03967867 -0.0207335  -0.01307013]
 [ 0.          0.01687548  0.02773603 -0.00987686 -0.01287198]
 [ 0.          0.02852235 -0.03643646 -0.03267892 -0.03307505]
 [ 0.          0.02503216 -0.03731668 -0.02301379 -0.00782019]
 [ 0.         -0.01218016 -0.03169489  0.01346934  0.00671238]] 
Episode: 191: [[ 0.          0.02655529 -0.03985466 -0.0207694  -0.01305758]
 [ 0.          0.01690205  0.02784446 -0.00985474 -0.01292119]
 [ 0.          0.02859053 -0.03665537 -0.0327694  -0.0331942 ]
 [ 0.          0.02503379 -0.03754559 -0.02304355 -0.00788747]
 [ 0.         -0.01217418 -0.03186002  0.01342954  0.0067784 ]] 
Episode: 192: [[ 0.          0.02663972 -0.04003047 -0.02080076 -0.0130202 ]
 [ 0.          0.0169092   0.02794985 -0.00982161 -0.0129617 ]
 [ 0.          0.02866969 -0.03685487 -0.03287122 -0.03333128]
 [ 0.          0.02503627 -0.03776139 -0.02306437 -0.00793939]
 [ 0.         -0.01221109 -0.0320362   0.01342195  0.00685063]] 
Episode: 193: [[ 0.          0.02674229 -0.0402023  -0.02083964 -0.01298297]
 [ 0.          0.01692057  0.02806187 -0.00979344 -0.0130135 ]
 [ 0.          0.02873414 -0.0370495  -0.03296771 -0.03346133]
 [ 0.          0.02503757 -0.03795494 -0.02308357 -0.00802621]
 [ 0.         -0.01222741 -0.03220318  0.01340002  0.00690489]] 
Episode: 194: [[ 0.          0.02683481 -0.04037957 -0.020866   -0.01293789]
 [ 0.          0.01693721  0.02817692 -0.00977469 -0.01306158]
 [ 0.          0.02880369 -0.03722913 -0.03307372 -0.03361906]
 [ 0.          0.0250298  -0.03814873 -0.02308664 -0.0080897 ]
 [ 0.         -0.01226078 -0.03239305  0.0134011   0.00699507]] 
Episode: 195: [[ 0.          0.02692003 -0.04056526 -0.02088388 -0.01287172]
 [ 0.          0.01692365  0.02829257 -0.00973518 -0.01310236]
 [ 0.          0.02887574 -0.03740023 -0.03318082 -0.03378167]
 [ 0.          0.02501744 -0.03834042 -0.02307929 -0.00815056]
 [ 0.         -0.01229706 -0.0325863   0.01340992  0.00709295]] 
Episode: 196: [[ 0.          0.0270184  -0.04075608 -0.02091944 -0.01284206]
 [ 0.          0.01694117  0.02842443 -0.00973982 -0.01319207]
 [ 0.          0.0289538  -0.03760055 -0.03330642 -0.03390728]
 [ 0.          0.02504744 -0.03855143 -0.02312117 -0.00820665]
 [ 0.         -0.01234133 -0.03277962  0.01342695  0.00714535]] 
Episode: 197: [[ 0.          0.02709387 -0.04092741 -0.02094473 -0.01282081]
 [ 0.          0.01697013  0.02854111 -0.0097737  -0.01331487]
 [ 0.          0.0290424  -0.0377771  -0.03343429 -0.03404327]
 [ 0.          0.02508778 -0.0387453  -0.02316069 -0.00828279]
 [ 0.         -0.01241478 -0.03296024  0.01345793  0.00719013]] 
Episode: 198: [[ 0.          0.02711609 -0.04110584 -0.02093645 -0.01276683]
 [ 0.          0.01698825  0.02867419 -0.0097907  -0.01344793]
 [ 0.          0.02908807 -0.03798568 -0.03351424 -0.03413044]
 [ 0.          0.02511594 -0.03894558 -0.02317508 -0.00834048]
 [ 0.         -0.01246066 -0.03311104  0.01346054  0.00718903]] 
Episode: 199: [[ 0.          0.02715041 -0.04127114 -0.02094799 -0.0127091 ]
 [ 0.          0.01700824  0.0288085  -0.00982247 -0.01362716]
 [ 0.          0.02912306 -0.03818107 -0.03358383 -0.0342094 ]
 [ 0.          0.02514497 -0.03913081 -0.02320318 -0.00840433]
 [ 0.         -0.01247252 -0.03324109  0.01341896  0.00714256]] 
Episode: 200: [[ 0.          0.0271836  -0.04144763 -0.02095793 -0.01263565]
 [ 0.          0.01703084  0.02893892 -0.00987164 -0.01379747]
 [ 0.          0.02912717 -0.03837743 -0.03360109 -0.03427731]
 [ 0.          0.02519939 -0.0392982  -0.02322545 -0.0084837 ]
 [ 0.         -0.01240666 -0.03338734  0.01329318  0.00714425]] 
Episode: 201: [[ 0.          0.0272536  -0.0416389  -0.02100734 -0.01258278]
 [ 0.          0.01705648  0.02906889 -0.0099229  -0.01396794]
 [ 0.          0.02916342 -0.03858571 -0.03366157 -0.0343644 ]
 [ 0.          0.02526472 -0.03949114 -0.02325904 -0.00858536]
 [ 0.         -0.01234821 -0.03358282  0.01316488  0.0072056 ]] 
Episode: 202: [[ 0.          0.02726243 -0.04183746 -0.02102482 -0.0125634 ]
 [ 0.          0.01715093  0.02925583 -0.0100265  -0.0141227 ]
 [ 0.          0.02923058 -0.03877306 -0.03375003 -0.03443668]
 [ 0.          0.02540096 -0.03960206 -0.02334303 -0.00865048]
 [ 0.         -0.01229699 -0.03378882  0.01303583  0.00726309]] 
Episode: 203: [[ 0.          0.02726702 -0.04201347 -0.02103636 -0.01254534]
 [ 0.          0.01724539  0.0294071  -0.01013264 -0.01426653]
 [ 0.          0.02928245 -0.03897567 -0.03382253 -0.03449821]
 [ 0.          0.02548596 -0.03975535 -0.02338916 -0.00870277]
 [ 0.         -0.01224827 -0.03397231  0.01292014  0.00731496]] 
Episode: 204: [[ 0.          0.02724093 -0.04219388 -0.02104259 -0.01255367]
 [ 0.          0.01732477  0.02955117 -0.01023601 -0.01437261]
 [ 0.          0.02936888 -0.03914176 -0.03393246 -0.03459845]
 [ 0.          0.02562562 -0.03988761 -0.02348686 -0.00879976]
 [ 0.         -0.01226023 -0.0342113   0.01285678  0.00742878]] 
Episode: 205: [[ 0.          0.02725085 -0.04237701 -0.02104623 -0.01256484]
 [ 0.          0.01742171  0.02972305 -0.01032865 -0.01447256]
 [ 0.          0.02944487 -0.03930052 -0.03402087 -0.03468344]
 [ 0.          0.02575829 -0.03997171 -0.02354459 -0.00885341]
 [ 0.         -0.01226211 -0.03442899  0.01279423  0.00752674]] 
Episode: 206: [[ 0.          0.02726169 -0.04256358 -0.0210666  -0.01256279]
 [ 0.          0.01748504  0.02988706 -0.01038774 -0.01456402]
 [ 0.          0.02951633 -0.03945261 -0.03413672 -0.03480069]
 [ 0.          0.02589199 -0.04005935 -0.02362996 -0.00893756]
 [ 0.         -0.01228413 -0.03465287  0.0127631   0.00763626]] 
Episode: 207: [[ 0.          0.02727702 -0.0427322  -0.02108793 -0.01258068]
 [ 0.          0.01754836  0.03003319 -0.01044245 -0.01467171]
 [ 0.          0.02958763 -0.03959151 -0.03426208 -0.03494412]
 [ 0.          0.02602659 -0.04013955 -0.02372198 -0.00904249]
 [ 0.         -0.01228967 -0.03484489  0.0127026   0.00768807]] 
Episode: 208: [[ 0.          0.02729094 -0.04288575 -0.02111317 -0.01259604]
 [ 0.          0.01759765  0.03015451 -0.01048424 -0.01477236]
 [ 0.          0.02965119 -0.03973576 -0.03437855 -0.0350775 ]
 [ 0.          0.02614413 -0.04024264 -0.02380195 -0.00915258]
 [ 0.         -0.01229199 -0.03502068  0.01264481  0.00773617]] 
Episode: 209: [[ 0.          0.02729049 -0.04303095 -0.02112755 -0.01258648]
 [ 0.          0.01764506  0.03026624 -0.01050531 -0.01484885]
 [ 0.          0.02971122 -0.03987116 -0.03450964 -0.03523748]
 [ 0.          0.02625345 -0.0403501  -0.02389303 -0.00922245]
 [ 0.         -0.01238057 -0.0352172   0.01268211  0.00781404]] 
Episode: 210: [[ 0.          0.0273314  -0.04319083 -0.02119134 -0.01253623]
 [ 0.          0.01764025  0.0303928  -0.01046861 -0.01490592]
 [ 0.          0.02976688 -0.04002526 -0.03463134 -0.03534771]
 [ 0.          0.02641062 -0.04044055 -0.02403086 -0.00933497]
 [ 0.         -0.01256902 -0.0354269   0.01280153  0.00791206]] 
Episode: 211: [[ 0.          0.02737807 -0.04333865 -0.02126731 -0.0124924 ]
 [ 0.          0.01764095  0.03051121 -0.01042654 -0.01495104]
 [ 0.          0.02983348 -0.04014396 -0.03476186 -0.03549142]
 [ 0.          0.02657426 -0.04051513 -0.02415877 -0.0094347 ]
 [ 0.         -0.01272182 -0.03564646  0.01288496  0.00805651]] 
Episode: 212: [[ 0.          0.02743086 -0.04348761 -0.02132949 -0.0124371 ]
 [ 0.          0.01765488  0.03063502 -0.01040274 -0.01501695]
 [ 0.          0.02990926 -0.04025764 -0.03491347 -0.03566503]
 [ 0.          0.02673417 -0.04059735 -0.02429126 -0.00956843]
 [ 0.         -0.01289372 -0.03587991  0.01298932  0.00823365]] 
Episode: 213: [[ 0.          0.02743871 -0.04362589 -0.02138176 -0.0123693 ]
 [ 0.          0.01765451  0.03077749 -0.01036529 -0.01508875]
 [ 0.          0.02997773 -0.04036672 -0.035031   -0.03583619]
 [ 0.          0.02689805 -0.04067476 -0.02442273 -0.00969207]
 [ 0.         -0.01312814 -0.03611364  0.01315292  0.00841803]] 
Episode: 214: [[ 0.          0.02742968 -0.04375351 -0.02141798 -0.01231974]
 [ 0.          0.01764377  0.03090617 -0.01031996 -0.01513045]
 [ 0.          0.03003296 -0.04048208 -0.03511873 -0.0360283 ]
 [ 0.          0.02703952 -0.04077604 -0.02454106 -0.00983402]
 [ 0.         -0.01337238 -0.03633408  0.01334889  0.00855317]] 
Episode: 215: [[ 0.          0.0274386  -0.04389909 -0.02146309 -0.01228196]
 [ 0.          0.01763158  0.03103551 -0.0102748  -0.01517129]
 [ 0.          0.03010389 -0.04060911 -0.03522163 -0.03622425]
 [ 0.          0.02717659 -0.04089541 -0.02464749 -0.00998818]
 [ 0.         -0.01360146 -0.03655034  0.01353134  0.00868109]] 
Episode: 216: [[ 0.          0.02743541 -0.04406001 -0.02150117 -0.01223136]
 [ 0.          0.01761325  0.03115817 -0.0102275  -0.01520783]
 [ 0.          0.03020115 -0.04073229 -0.0353464  -0.03642078]
 [ 0.          0.02729161 -0.04103335 -0.02471891 -0.01010547]
 [ 0.         -0.01383014 -0.03676985  0.01371036  0.00882062]] 
Episode: 217: [[ 0.          0.02744016 -0.04421847 -0.02152997 -0.01219404]
 [ 0.          0.01759462  0.03127493 -0.01019656 -0.01525445]
 [ 0.          0.03029009 -0.04086353 -0.03546943 -0.03661163]
 [ 0.          0.02739829 -0.04118362 -0.02478566 -0.01022275]
 [ 0.         -0.01401589 -0.03696382  0.0138454   0.00892012]] 
Episode: 218: [[ 0.          0.02745853 -0.04437681 -0.02159315 -0.01217073]
 [ 0.          0.01758388  0.03142283 -0.01016248 -0.01534666]
 [ 0.          0.03037806 -0.04103358 -0.03560529 -0.03676818]
 [ 0.          0.02759191 -0.04131949 -0.02490221 -0.01036156]
 [ 0.         -0.01418693 -0.03714459  0.01396395  0.00900332]] 
Episode: 219: [[ 0.          0.02744138 -0.0445492  -0.02163856 -0.01216737]
 [ 0.          0.01757762  0.03156461 -0.01013447 -0.01543286]
 [ 0.          0.03048223 -0.0412087  -0.03576141 -0.03692677]
 [ 0.          0.02777065 -0.04149142 -0.02499094 -0.01045298]
 [ 0.         -0.01437446 -0.03733933  0.01408847  0.00909321]] 
Episode: 220: [[ 0.          0.02743521 -0.0447165  -0.02168941 -0.01221042]
 [ 0.          0.01758148  0.03169038 -0.01009396 -0.01545003]
 [ 0.          0.03059061 -0.04137591 -0.03593467 -0.03711397]
 [ 0.          0.02799246 -0.04164319 -0.02512689 -0.01058484]
 [ 0.         -0.01458184 -0.03753899  0.01425594  0.00914794]] 
Episode: 221: [[ 0.          0.02745025 -0.04487459 -0.02173992 -0.01226401]
 [ 0.          0.01759368  0.03180792 -0.01004848 -0.01544138]
 [ 0.          0.03070257 -0.0415323  -0.03610601 -0.03728801]
 [ 0.          0.02821587 -0.04178077 -0.02526913 -0.01073504]
 [ 0.         -0.01478889 -0.03772129  0.01444201  0.00916735]] 
Episode: 222: [[ 0.          0.02747126 -0.04501684 -0.02179378 -0.01233817]
 [ 0.          0.01760332  0.03190536 -0.009972   -0.01540441]
 [ 0.          0.03082181 -0.04166305 -0.0363051  -0.03748905]
 [ 0.          0.02841715 -0.04192834 -0.02544043 -0.01090202]
 [ 0.         -0.0149926  -0.03788488  0.01462565  0.00915996]] 
Episode: 223: [[ 0.          0.02749138 -0.0451462  -0.02185719 -0.01243045]
 [ 0.          0.01765944  0.03201338 -0.00993637 -0.01540183]
 [ 0.          0.03095171 -0.04177972 -0.0365285  -0.03770624]
 [ 0.          0.02863509 -0.04205577 -0.02561539 -0.01104864]
 [ 0.         -0.01520598 -0.0380483   0.01480849  0.00917775]] 
Episode: 224: [[ 0.          0.02750365 -0.04527735 -0.02191634 -0.01249631]
 [ 0.          0.01770665  0.03211958 -0.00990024 -0.01541943]
 [ 0.          0.03106729 -0.04190858 -0.0367372  -0.03791879]
 [ 0.          0.02886064 -0.04218949 -0.0258266  -0.01122985]
 [ 0.         -0.01538122 -0.03820812  0.01494152  0.00918407]] 
Episode: 225: [[ 0.          0.02750517 -0.04540949 -0.02195938 -0.01254283]
 [ 0.          0.01776055  0.03221388 -0.00987566 -0.0154307 ]
 [ 0.          0.03118562 -0.04201974 -0.03695995 -0.03815426]
 [ 0.          0.02903754 -0.0423145  -0.02601787 -0.01140238]
 [ 0.         -0.01554305 -0.03838391  0.01507054  0.00923842]] 
Episode: 226: [[ 0.          0.02752313 -0.04554103 -0.02202659 -0.01260882]
 [ 0.          0.01780391  0.03229188 -0.00985549 -0.01541877]
 [ 0.          0.03130096 -0.04214337 -0.03720349 -0.03839401]
 [ 0.          0.02921017 -0.04243656 -0.0262419  -0.01160671]
 [ 0.         -0.01572855 -0.03856785  0.01522836  0.00935389]] 
Episode: 227: [[ 0.          0.02753325 -0.04566288 -0.02208407 -0.01266514]
 [ 0.          0.01785105  0.03234768 -0.00984705 -0.0154025 ]
 [ 0.          0.03141062 -0.04227108 -0.0374289  -0.03861164]
 [ 0.          0.02937708 -0.04257058 -0.02645146 -0.011795  ]
 [ 0.         -0.01589885 -0.03873565  0.01537456  0.00946045]] 
Episode: 228: [[ 0.          0.02757209 -0.04577322 -0.02215527 -0.0127258 ]
 [ 0.          0.01789176  0.03238889 -0.00983942 -0.01539711]
 [ 0.          0.03149207 -0.04239702 -0.03761508 -0.03877014]
 [ 0.          0.02953617 -0.04271005 -0.02664305 -0.01192398]
 [ 0.         -0.01601635 -0.03889333  0.01548628  0.00958532]] 
Episode: 229: [[ 0.          0.02766235 -0.04585889 -0.02232545 -0.01289495]
 [ 0.          0.01796022  0.03244439 -0.00984866 -0.01540422]
 [ 0.          0.03157376 -0.0425369  -0.03781145 -0.03894576]
 [ 0.          0.02978028 -0.04281068 -0.02687047 -0.01208909]
 [ 0.         -0.01608676 -0.03903409  0.01555508  0.00968941]] 
Episode: 230: [[ 0.          0.02777405 -0.04593736 -0.02250409 -0.01304981]
 [ 0.          0.01799615  0.03247868 -0.00983105 -0.01541866]
 [ 0.          0.03165114 -0.04269216 -0.03799452 -0.03910765]
 [ 0.          0.02998577 -0.04295904 -0.02706413 -0.01225324]
 [ 0.         -0.01614616 -0.03916011  0.01561305  0.00978519]] 
Episode: 231: [[ 0.          0.02787376 -0.04601318 -0.02265274 -0.01317093]
 [ 0.          0.01804545  0.03251494 -0.00980488 -0.01540806]
 [ 0.          0.0317307  -0.04283729 -0.03816247 -0.03924834]
 [ 0.          0.03021533 -0.04308292 -0.0272864  -0.01244977]
 [ 0.         -0.01621296 -0.03928557  0.01568266  0.00993744]] 
Episode: 232: [[ 0.          0.02798704 -0.0460765  -0.02278659 -0.01324979]
 [ 0.          0.01811504  0.03253601 -0.00980222 -0.01541349]
 [ 0.          0.03180951 -0.04296362 -0.0383109  -0.03941551]
 [ 0.          0.03046934 -0.04317811 -0.02751592 -0.01267513]
 [ 0.         -0.01626912 -0.03940566  0.01574025  0.01009168]] 
Episode: 233: [[ 0.          0.02808116 -0.04613655 -0.02289383 -0.0133258 ]
 [ 0.          0.01820386  0.0325617  -0.00983149 -0.01543484]
 [ 0.          0.03188193 -0.04308091 -0.03844237 -0.03957962]
 [ 0.          0.0307188  -0.04326062 -0.02773343 -0.01288653]
 [ 0.         -0.01632845 -0.03951795  0.01580161  0.01021656]] 
Episode: 234: [[ 0.          0.0281836  -0.0462293  -0.02301216 -0.0133843 ]
 [ 0.          0.01824803  0.03263517 -0.0098103  -0.01546363]
 [ 0.          0.03194699 -0.04324641 -0.03857036 -0.03968199]
 [ 0.          0.03095345 -0.04335358 -0.02796891 -0.01309581]
 [ 0.         -0.01641806 -0.03962079  0.01593376  0.01027262]] 
Episode: 235: [[ 0.          0.02829735 -0.04631363 -0.02311386 -0.01346324]
 [ 0.          0.01831878  0.03271794 -0.00979657 -0.01553734]
 [ 0.          0.03201223 -0.04338378 -0.03870414 -0.03981861]
 [ 0.          0.03120535 -0.04341788 -0.02823523 -0.01333258]
 [ 0.         -0.01645534 -0.03968616  0.01601635  0.0102866 ]] 
Episode: 236: [[ 0.          0.0284113  -0.04641462 -0.02320938 -0.01351147]
 [ 0.          0.01837054  0.03280779 -0.00977654 -0.01561936]
 [ 0.          0.03209468 -0.043519   -0.03885772 -0.03997254]
 [ 0.          0.03143442 -0.04349843 -0.02847199 -0.01353399]
 [ 0.         -0.01650235 -0.03977389  0.01609604  0.01032128]] 
Episode: 237: [[ 0.          0.02850892 -0.04649253 -0.02330558 -0.0135568 ]
 [ 0.          0.01848969  0.03289029 -0.00982856 -0.01575092]
 [ 0.          0.03216169 -0.04362718 -0.03896486 -0.04011121]
 [ 0.          0.03170319 -0.04353907 -0.02872735 -0.01369584]
 [ 0.         -0.01656531 -0.03983678  0.01619647  0.01036631]] 
Episode: 238: [[ 0.          0.02861301 -0.04656679 -0.02341401 -0.01363258]
 [ 0.          0.01860926  0.03297133 -0.00988665 -0.01591786]
 [ 0.          0.03222002 -0.04372857 -0.03906304 -0.04026447]
 [ 0.          0.03194584 -0.04358905 -0.0289579  -0.01384744]
 [ 0.         -0.01662469 -0.03989085  0.01629542  0.01041354]] 
Episode: 239: [[ 0.          0.02876807 -0.04662946 -0.02355074 -0.01372363]
 [ 0.          0.01871081  0.03303453 -0.00994948 -0.01609143]
 [ 0.          0.03227727 -0.04384008 -0.03918295 -0.04040213]
 [ 0.          0.03219588 -0.04364645 -0.02921547 -0.0140326 ]
 [ 0.         -0.01667122 -0.03993277  0.01640117  0.01045914]] 
Episode: 240: [[ 0.          0.02893741 -0.04670325 -0.02371724 -0.01382414]
 [ 0.          0.01885753  0.03313579 -0.01004075 -0.01631693]
 [ 0.          0.03233024 -0.04398464 -0.03930791 -0.04048081]
 [ 0.          0.03252167 -0.04368002 -0.02950115 -0.01424766]
 [ 0.         -0.01669985 -0.04001226  0.01650145  0.01053252]] 
Episode: 241: [[ 0.          0.02912085 -0.04676168 -0.02388523 -0.01397723]
 [ 0.          0.01901584  0.03322456 -0.01013748 -0.01652961]
 [ 0.          0.03237941 -0.04409709 -0.03944298 -0.04059613]
 [ 0.          0.03284106 -0.04371023 -0.0298016  -0.0144613 ]
 [ 0.         -0.01672965 -0.04006931  0.0165991   0.01056239]] 
Episode: 242: [[ 0.          0.02928536 -0.04681771 -0.02406    -0.01411021]
 [ 0.          0.01915238  0.03330288 -0.01020545 -0.01672293]
 [ 0.          0.03243395 -0.04419423 -0.03958523 -0.04073505]
 [ 0.          0.03315642 -0.04372471 -0.0300972  -0.01469976]
 [ 0.         -0.01680237 -0.0401382   0.0167223   0.01059977]] 
Episode: 243: [[ 0.          0.02943069 -0.04688151 -0.02421252 -0.01421753]
 [ 0.          0.0192755   0.03337537 -0.01025992 -0.01690267]
 [ 0.          0.03248788 -0.04429054 -0.03971501 -0.04087015]
 [ 0.          0.03341684 -0.04375964 -0.03033309 -0.01490628]
 [ 0.         -0.016867   -0.04021168  0.0168349   0.01064016]] 
Episode: 244: [[ 0.          0.02954915 -0.04696098 -0.02434335 -0.01432798]
 [ 0.          0.01942045  0.03345153 -0.01033055 -0.01708245]
 [ 0.          0.03257224 -0.04438234 -0.03987331 -0.04103604]
 [ 0.          0.03370656 -0.04378541 -0.03059414 -0.01514031]
 [ 0.         -0.01697673 -0.04031771  0.01697537  0.01069412]] 
Episode: 245: [[ 0.          0.02966337 -0.04702205 -0.02445875 -0.01449336]
 [ 0.          0.01954929  0.03351795 -0.01039039 -0.01727532]
 [ 0.          0.03265135 -0.04446497 -0.03999216 -0.04120263]
 [ 0.          0.03402608 -0.0437918  -0.03086485 -0.01539885]
 [ 0.         -0.01709475 -0.04039284  0.01716864  0.01072927]] 
Episode: 246: [[ 0.          0.0297874  -0.04707681 -0.02456733 -0.01466855]
 [ 0.          0.0196666   0.0335742  -0.01044518 -0.01746666]
 [ 0.          0.03271926 -0.04455181 -0.04008866 -0.04135016]
 [ 0.          0.03429827 -0.0438202  -0.031099   -0.01565638]
 [ 0.         -0.0171904  -0.04046263  0.01734051  0.01073961]] 
Episode: 247: [[ 0.          0.02993436 -0.04712367 -0.0246843  -0.01487014]
 [ 0.          0.01978351  0.03364146 -0.01049825 -0.01765825]
 [ 0.          0.03282499 -0.04459433 -0.04022159 -0.04152725]
 [ 0.          0.03454046 -0.04383297 -0.03128891 -0.01583872]
 [ 0.         -0.01726852 -0.04049968  0.01748252  0.01069034]] 
Episode: 248: [[ 0.          0.0300377  -0.0471682  -0.02478518 -0.01500053]
 [ 0.          0.01987761  0.03370355 -0.01049955 -0.01779029]
 [ 0.          0.03290432 -0.04463019 -0.04030743 -0.04166511]
 [ 0.          0.03473761 -0.04384038 -0.0314483  -0.01598278]
 [ 0.         -0.01731057 -0.04053325  0.01757145  0.01064728]] 
Episode: 249: [[ 0.          0.03014312 -0.04721292 -0.02492517 -0.01513385]
 [ 0.          0.01990308  0.03379836 -0.01043775 -0.01789769]
 [ 0.          0.03299012 -0.04468532 -0.04039567 -0.04179579]
 [ 0.          0.034933   -0.04386199 -0.03160956 -0.01606352]
 [ 0.         -0.01738844 -0.04058944  0.01769436  0.01061114]] 
Episode: 250: [[ 0.          0.03025091 -0.0472558  -0.02509551 -0.01522299]
 [ 0.          0.01990647  0.03388189 -0.01034422 -0.01797758]
 [ 0.          0.03307023 -0.04473004 -0.04050493 -0.04194693]
 [ 0.          0.03509094 -0.04389223 -0.03172706 -0.01615861]
 [ 0.         -0.01743904 -0.04065822  0.01771915  0.01059502]] 
Episode: 251: [[ 0.          0.03034714 -0.04730381 -0.02526371 -0.01535347]
 [ 0.          0.01992202  0.03394318 -0.01030297 -0.0180302 ]
 [ 0.          0.03319101 -0.04478687 -0.04064923 -0.04212727]
 [ 0.          0.03532035 -0.04393313 -0.03188713 -0.01625667]
 [ 0.         -0.01753352 -0.04074755  0.01776884  0.01055508]] 
Episode: 252: [[ 0.          0.03043556 -0.04735661 -0.02541577 -0.0154758 ]
 [ 0.          0.01994467  0.0340018  -0.01026465 -0.01809772]
 [ 0.          0.03328026 -0.04486632 -0.0407523  -0.0422536 ]
 [ 0.          0.03552426 -0.04398788 -0.03203531 -0.01635168]
 [ 0.         -0.01760639 -0.04082531  0.01780425  0.01049721]] 
Episode: 253: [[ 0.          0.03050391 -0.04741257 -0.02553681 -0.01558316]
 [ 0.          0.01997588  0.03404754 -0.01024124 -0.01816567]
 [ 0.          0.03335232 -0.04496926 -0.04083802 -0.04236092]
 [ 0.          0.0356732  -0.04408781 -0.03213745 -0.01642243]
 [ 0.         -0.01767662 -0.04089769  0.01784365  0.01044719]] 
Episode: 254: [[ 0.          0.03052733 -0.04750358 -0.02563319 -0.01564741]
 [ 0.          0.01999315  0.0341294  -0.01018999 -0.01818693]
 [ 0.          0.03343651 -0.04507657 -0.04093877 -0.04247137]
 [ 0.          0.03580873 -0.04416955 -0.0322623  -0.01647381]
 [ 0.         -0.01779724 -0.04100495  0.01794197  0.0104267 ]] 
Episode: 255: [[ 0.          0.03057713 -0.04758584 -0.02573854 -0.01573036]
 [ 0.          0.02000783  0.03422265 -0.0101233  -0.01822961]
 [ 0.          0.03350876 -0.04517996 -0.04103304 -0.04258059]
 [ 0.          0.03592074 -0.0442341  -0.03236586 -0.01656777]
 [ 0.         -0.01789764 -0.04107801  0.01803058  0.01038853]] 
Episode: 256: [[ 0.          0.03062365 -0.04766797 -0.02582588 -0.01579495]
 [ 0.          0.0200078   0.03430637 -0.01005498 -0.0182448 ]
 [ 0.          0.03357243 -0.04527374 -0.0411108  -0.04270624]
 [ 0.          0.03601355 -0.04429647 -0.0324428  -0.01665448]
 [ 0.         -0.01797447 -0.04115072  0.01809457  0.01033741]] 
Episode: 257: [[ 0.          0.03069218 -0.0477256  -0.02595858 -0.01581646]
 [ 0.          0.01998698  0.03436259 -0.00996399 -0.01829438]
 [ 0.          0.03363391 -0.04536686 -0.04118789 -0.04277422]
 [ 0.          0.03613466 -0.04434921 -0.03255354 -0.01676353]
 [ 0.         -0.01800611 -0.04115061  0.01806841  0.01022431]] 
Episode: 258: [[ 0.          0.03076907 -0.04778938 -0.02608907 -0.01583176]
 [ 0.          0.01994657  0.03442591 -0.00985374 -0.01833525]
 [ 0.          0.03369261 -0.04546585 -0.04129326 -0.04285368]
 [ 0.          0.03622344 -0.0444016  -0.03264506 -0.01686826]
 [ 0.         -0.01801438 -0.04115749  0.01804803  0.01006395]] 
Episode: 259: [[ 0.          0.03084349 -0.04786294 -0.02618364 -0.01583595]
 [ 0.          0.0199098   0.03449643 -0.00976162 -0.01837654]
 [ 0.          0.03372869 -0.04556666 -0.04134718 -0.0429524 ]
 [ 0.          0.0363059  -0.04445658 -0.03273134 -0.01696041]
 [ 0.         -0.01798381 -0.04118261  0.01798884  0.00992985]] 
Episode: 260: [[ 0.          0.03093634 -0.04794854 -0.02628472 -0.01583695]
 [ 0.          0.01985296  0.03457224 -0.00965633 -0.01841735]
 [ 0.          0.03376553 -0.04568285 -0.04140232 -0.04305307]
 [ 0.          0.03636395 -0.04454208 -0.03278912 -0.01703464]
 [ 0.         -0.01796768 -0.04121439  0.01794193  0.0098164 ]] 
Episode: 261: [[ 0.          0.03103292 -0.04803969 -0.02637566 -0.01585091]
 [ 0.          0.01980356  0.03465239 -0.0095409  -0.01844957]
 [ 0.          0.03378373 -0.04580843 -0.04144908 -0.04313352]
 [ 0.          0.03641563 -0.044622   -0.03285357 -0.0171331 ]
 [ 0.         -0.0179258  -0.04123857  0.01787472  0.00969833]] 
Episode: 262: [[ 0.          0.03112794 -0.0481314  -0.02644924 -0.01586715]
 [ 0.          0.01978125  0.03472248 -0.00946122 -0.01847853]
 [ 0.          0.03381607 -0.04592628 -0.04151143 -0.04321526]
 [ 0.          0.03648129 -0.04469217 -0.03293382 -0.01720223]
 [ 0.         -0.01789371 -0.04127625  0.01781775  0.00959849]] 
Episode: 263: [[ 0.          0.03121933 -0.04821783 -0.02650478 -0.01586227]
 [ 0.          0.01976525  0.03479376 -0.00937084 -0.01849824]
 [ 0.          0.03384674 -0.04602804 -0.04155992 -0.04333365]
 [ 0.          0.03654108 -0.04476631 -0.03298664 -0.0172763 ]
 [ 0.         -0.01784423 -0.04134043  0.01776772  0.00956504]] 
Episode: 264: [[ 0.          0.03132211 -0.04829906 -0.02657083 -0.01588211]
 [ 0.          0.01979215  0.03487634 -0.00931154 -0.01854821]
 [ 0.          0.03392689 -0.04614481 -0.04165023 -0.04345205]
 [ 0.          0.03663138 -0.04484911 -0.03306236 -0.01732887]
 [ 0.         -0.01785026 -0.04141396  0.01776252  0.00950524]] 
Episode: 265: [[ 0.          0.03142338 -0.04838309 -0.02662004 -0.01589922]
 [ 0.          0.01980061  0.03496062 -0.00924722 -0.01861017]
 [ 0.          0.03400901 -0.04624128 -0.04175045 -0.0436033 ]
 [ 0.          0.03670651 -0.04492615 -0.03312761 -0.01739752]
 [ 0.         -0.01785715 -0.04147638  0.01776033  0.00943541]] 
Episode: 266: [[ 0.          0.03152447 -0.04847405 -0.02664414 -0.01590499]
 [ 0.          0.01979035  0.03504443 -0.00917797 -0.01866069]
 [ 0.          0.03408737 -0.04633099 -0.04184015 -0.04377166]
 [ 0.          0.03674581 -0.0450119  -0.03315752 -0.01743603]
 [ 0.         -0.01786948 -0.04154857  0.01776727  0.00937944]] 
Episode: 267: [[ 0.          0.03164851 -0.04858096 -0.02667452 -0.01591642]
 [ 0.          0.01977512  0.03513358 -0.00911394 -0.0187024 ]
 [ 0.          0.03416964 -0.04642299 -0.0419229  -0.04394263]
 [ 0.          0.03677718 -0.04510507 -0.03317778 -0.01746488]
 [ 0.         -0.01788281 -0.04163339  0.01777304  0.00934043]] 
Episode: 268: [[ 0.          0.03178344 -0.04867635 -0.02671331 -0.0159534 ]
 [ 0.          0.01979441  0.03522521 -0.00909385 -0.01877829]
 [ 0.          0.03426165 -0.04649681 -0.0420228  -0.04411706]
 [ 0.          0.03685382 -0.0451686  -0.03322812 -0.0175233 ]
 [ 0.         -0.01789082 -0.04171279  0.01777753  0.00931079]] 
Episode: 269: [[ 0.          0.03192803 -0.04877479 -0.02675008 -0.01598776]
 [ 0.          0.01979543  0.03532223 -0.00905683 -0.01884115]
 [ 0.          0.03434977 -0.04658368 -0.04211073 -0.0442781 ]
 [ 0.          0.03689783 -0.04525112 -0.03324166 -0.01756299]
 [ 0.         -0.01789305 -0.04178964  0.01777766  0.00928489]] 
Episode: 270: [[ 0.          0.03203779 -0.04887512 -0.02677761 -0.01601097]
 [ 0.          0.01979918  0.03542908 -0.00901881 -0.01889308]
 [ 0.          0.03450157 -0.04664797 -0.04223665 -0.04446771]
 [ 0.          0.03701501 -0.0453031  -0.0333093  -0.01764799]
 [ 0.         -0.01800992 -0.04191303  0.01786081  0.00926846]] 
Episode: 271: [[ 0.          0.03212318 -0.04897873 -0.02678801 -0.01601986]
 [ 0.          0.0198126   0.03554117 -0.00900257 -0.0189178 ]
 [ 0.          0.0346145  -0.04673282 -0.04230274 -0.04459297]
 [ 0.          0.03714907 -0.04535774 -0.03341141 -0.01775016]
 [ 0.         -0.01814059 -0.04206756  0.01798526  0.00932124]] 
Episode: 272: [[ 0.          0.0321826  -0.04907507 -0.02679012 -0.01598957]
 [ 0.          0.01985026  0.03563892 -0.00901479 -0.01896578]
 [ 0.          0.0347114  -0.04681335 -0.04235243 -0.04469489]
 [ 0.          0.03729111 -0.04540307 -0.03352089 -0.01784683]
 [ 0.         -0.01826478 -0.04223258  0.01809892  0.00941402]] 
Episode: 273: [[ 0.          0.03224018 -0.04917949 -0.0267753  -0.01594546]
 [ 0.          0.01987035  0.0357332  -0.00901738 -0.01901513]
 [ 0.          0.03481696 -0.04688359 -0.04241024 -0.04481847]
 [ 0.          0.03740713 -0.04546362 -0.03359676 -0.01792734]
 [ 0.         -0.01840307 -0.04240185  0.01822023  0.00952135]] 
Episode: 274: [[ 0.          0.03229495 -0.04927992 -0.02676377 -0.01589809]
 [ 0.          0.0198816   0.03581255 -0.0089899  -0.01904153]
 [ 0.          0.03492653 -0.04693049 -0.04248458 -0.04497427]
 [ 0.          0.03751879 -0.0455193  -0.0336921  -0.01802614]
 [ 0.         -0.0185165  -0.04255725  0.01832876  0.00961866]] 
Episode: 275: [[ 0.          0.0323441  -0.04937281 -0.02675126 -0.0158453 ]
 [ 0.          0.01989495  0.0358879  -0.00895921 -0.01905301]
 [ 0.          0.03502275 -0.04697464 -0.0425357  -0.04512709]
 [ 0.          0.0376299  -0.04556335 -0.03377269 -0.01814128]
 [ 0.         -0.01862977 -0.04270538  0.01844204  0.00971458]] 
Episode: 276: [[ 0.          0.0323687  -0.04946032 -0.02672795 -0.01578861]
 [ 0.          0.01991177  0.03595681 -0.00893924 -0.01907859]
 [ 0.          0.03510013 -0.04701798 -0.04256623 -0.04526756]
 [ 0.          0.0377261  -0.04561246 -0.03383372 -0.01824817]
 [ 0.         -0.01871029 -0.04284052  0.01851929  0.00978861]] 
Episode: 277: [[ 0.          0.03237577 -0.04954007 -0.02670592 -0.01572741]
 [ 0.          0.01992763  0.03602425 -0.00890899 -0.01908874]
 [ 0.          0.035173   -0.04705771 -0.04258977 -0.04538746]
 [ 0.          0.0378119  -0.04565696 -0.03389792 -0.0183688 ]
 [ 0.         -0.01878839 -0.04296575  0.01858233  0.00985288]] 
Episode: 278: [[ 0.          0.03237616 -0.04961617 -0.02666626 -0.01567744]
 [ 0.          0.019945    0.03610479 -0.00887904 -0.01911988]
 [ 0.          0.03522575 -0.04708548 -0.04257716 -0.04554012]
 [ 0.          0.03787987 -0.04570713 -0.03394421 -0.0184798 ]
 [ 0.         -0.01887572 -0.04310927  0.01865217  0.0099154 ]] 
Episode: 279: [[ 0.          0.03235733 -0.0496874  -0.02661679 -0.01561937]
 [ 0.          0.01995823  0.03618653 -0.00884196 -0.01913305]
 [ 0.          0.03528329 -0.04710837 -0.04257219 -0.04571447]
 [ 0.          0.03795114 -0.04575057 -0.03398689 -0.01859011]
 [ 0.         -0.0190065  -0.04328568  0.01876576  0.01001222]] 
Episode: 280: [[ 0.          0.03233231 -0.04976141 -0.02654625 -0.01554272]
 [ 0.          0.01999068  0.03626227 -0.00883177 -0.01915583]
 [ 0.          0.03532515 -0.04714508 -0.04253818 -0.04585146]
 [ 0.          0.03801728 -0.04578894 -0.03402798 -0.01872961]
 [ 0.         -0.01911462 -0.04345923  0.01886301  0.01010499]] 
Episode: 281: [[ 0.          0.0323112  -0.04983648 -0.02647672 -0.01547263]
 [ 0.          0.02001728  0.03633471 -0.00880725 -0.01918299]
 [ 0.          0.03530933 -0.0471817  -0.04246975 -0.04601779]
 [ 0.          0.03806933 -0.04582462 -0.034062   -0.0188392 ]
 [ 0.         -0.01915558 -0.0435943   0.01892739  0.0102071 ]] 
Episode: 282: [[ 0.          0.03232056 -0.04992647 -0.0263628  -0.0153798 ]
 [ 0.          0.0200451   0.03644309 -0.00877503 -0.01922931]
 [ 0.          0.03524766 -0.04726687 -0.04236112 -0.04612998]
 [ 0.          0.03811901 -0.04585906 -0.03410717 -0.01896165]
 [ 0.         -0.01913314 -0.04370516  0.01895916  0.01027205]] 
Episode: 283: [[ 0.          0.03234178 -0.05001415 -0.02625804 -0.01528761]
 [ 0.          0.02006204  0.03654378 -0.00873891 -0.01928322]
 [ 0.          0.03521318 -0.04732873 -0.0422909  -0.04627023]
 [ 0.          0.03816754 -0.04588282 -0.03414684 -0.01909104]
 [ 0.         -0.01913663 -0.04382509  0.01900973  0.01035545]] 
Episode: 284: [[ 0.          0.03234734 -0.0500969  -0.0261433  -0.01518368]
 [ 0.          0.02008623  0.03664147 -0.00872606 -0.01936769]
 [ 0.          0.03517659 -0.0474081  -0.04219086 -0.04635143]
 [ 0.          0.03818119 -0.04593042 -0.03412612 -0.01915715]
 [ 0.         -0.0191472  -0.04392958  0.01904864  0.01040013]] 
Episode: 285: [[ 0.          0.03236426 -0.05018002 -0.02604335 -0.01508664]
 [ 0.          0.02008917  0.03673836 -0.00869682 -0.01944839]
 [ 0.          0.03514804 -0.04747198 -0.04212448 -0.04646892]
 [ 0.          0.03819549 -0.04597984 -0.03412957 -0.01924768]
 [ 0.         -0.01916075 -0.04404201  0.01909397  0.0104671 ]] 
Episode: 286: [[ 0.          0.03236965 -0.05025833 -0.0259533  -0.01499926]
 [ 0.          0.02009694  0.03682992 -0.00866767 -0.01951236]
 [ 0.          0.03511648 -0.04752546 -0.04206025 -0.04659182]
 [ 0.          0.03820086 -0.04602484 -0.0341283  -0.01933442]
 [ 0.         -0.01916165 -0.04415367  0.01912225  0.0105326 ]] 
Episode: 287: [[ 0.          0.03237765 -0.0503366  -0.02584936 -0.01492274]
 [ 0.          0.02011979  0.03691491 -0.00864677 -0.01956542]
 [ 0.          0.03509943 -0.04756179 -0.04203744 -0.04674669]
 [ 0.          0.03819026 -0.04607926 -0.03413313 -0.01940554]
 [ 0.         -0.01913931 -0.0442767   0.01912106  0.01061086]] 
Episode: 288: [[ 0.          0.03238343 -0.05042478 -0.02575224 -0.01484627]
 [ 0.          0.02014023  0.03698961 -0.00862651 -0.01961475]
 [ 0.          0.03508741 -0.0476134  -0.04201492 -0.04689084]
 [ 0.          0.03814534 -0.04616982 -0.03408881 -0.01944359]
 [ 0.         -0.01912682 -0.04439893  0.0191262   0.01068756]] 
Episode: 289: [[ 0.          0.03238402 -0.05050613 -0.0256654  -0.0147708 ]
 [ 0.          0.02015648  0.03705441 -0.00859473 -0.01965079]
 [ 0.          0.03506044 -0.04766217 -0.04196947 -0.04702298]
 [ 0.          0.03810668 -0.04625044 -0.03406433 -0.01949897]
 [ 0.         -0.01912086 -0.04452723  0.01913627  0.01078442]] 
Episode: 290: [[ 0.          0.03239085 -0.05057791 -0.02559009 -0.01470209]
 [ 0.          0.02018303  0.0371085  -0.00856293 -0.01966816]
 [ 0.          0.0350438  -0.04768513 -0.04193325 -0.04717598]
 [ 0.          0.03806658 -0.04632103 -0.03402106 -0.01953813]
 [ 0.         -0.01910069 -0.04466654  0.01913065  0.01090833]] 
Episode: 291: [[ 0.          0.03244557 -0.05066136 -0.02556842 -0.01470675]
 [ 0.          0.02022501  0.03714164 -0.00854729 -0.01968389]
 [ 0.          0.03505771 -0.04773474 -0.0419373  -0.04734671]
 [ 0.          0.03805071 -0.04644338 -0.03402842 -0.01962334]
 [ 0.         -0.01908196 -0.04480592  0.01912169  0.01102729]] 
Episode: 292: [[ 0.          0.03247214 -0.0507492  -0.02554475 -0.01468596]
 [ 0.          0.02032005  0.03719442 -0.00857773 -0.01970783]
 [ 0.          0.03508565 -0.0477786  -0.04196525 -0.04754457]
 [ 0.          0.03806051 -0.0465521  -0.03403256 -0.01972688]
 [ 0.         -0.01908407 -0.04497133  0.01913172  0.0111215 ]] 
Episode: 293: [[ 0.          0.03248642 -0.05082683 -0.02550437 -0.01467416]
 [ 0.          0.02040494  0.03724306 -0.00860778 -0.01976007]
 [ 0.          0.03511086 -0.04781815 -0.04197605 -0.04775167]
 [ 0.          0.03806912 -0.04665672 -0.03401481 -0.01985273]
 [ 0.         -0.01910171 -0.04512443  0.01918031  0.0111859 ]] 
Episode: 294: [[ 0.          0.03250176 -0.05089805 -0.02546151 -0.01464511]
 [ 0.          0.0204802   0.03728435 -0.00863019 -0.0198194 ]
 [ 0.          0.03512726 -0.04786066 -0.04197306 -0.0479119 ]
 [ 0.          0.03808233 -0.04674982 -0.03402365 -0.01999676]
 [ 0.         -0.01909765 -0.04526732  0.01918755  0.01127001]] 
Episode: 295: [[ 0.          0.03254267 -0.05095837 -0.02546003 -0.01463342]
 [ 0.          0.0205493   0.03733683 -0.00861136 -0.01986662]
 [ 0.          0.03515247 -0.04789811 -0.04197972 -0.04808942]
 [ 0.          0.03811028 -0.04684288 -0.03406004 -0.02007775]
 [ 0.         -0.01921956 -0.04545946  0.01927755  0.01141331]] 
Episode: 296: [[ 0.          0.03260194 -0.05101639 -0.02549736 -0.0146969 ]
 [ 0.          0.02057944  0.03741108 -0.00855447 -0.01998011]
 [ 0.          0.03516374 -0.04800425 -0.04193813 -0.04820434]
 [ 0.          0.0381418  -0.04697767 -0.03407178 -0.02020015]
 [ 0.         -0.01940501 -0.04564721  0.01943999  0.01148368]] 
Episode: 297: [[ 0.          0.0326557  -0.05106452 -0.02555501 -0.01476466]
 [ 0.          0.02060885  0.03748503 -0.0084752  -0.02005374]
 [ 0.          0.03515811 -0.04809874 -0.04186525 -0.0483044 ]
 [ 0.          0.03820575 -0.04708811 -0.03409965 -0.02035175]
 [ 0.         -0.01954149 -0.04582501  0.01955368  0.01157592]] 
Episode: 298: [[ 0.          0.03270813 -0.05113541 -0.02561158 -0.01481972]
 [ 0.          0.02061665  0.03756288 -0.00838466 -0.02012451]
 [ 0.          0.03519007 -0.04819486 -0.04183464 -0.04843789]
 [ 0.          0.03829754 -0.04720228 -0.03415149 -0.02052564]
 [ 0.         -0.01973367 -0.04602921  0.01970442  0.01169234]] 
Episode: 299: [[ 0.          0.03274845 -0.05120166 -0.0256573  -0.01483133]
 [ 0.          0.02061157  0.03762937 -0.00828459 -0.02015412]
 [ 0.          0.03522511 -0.04828575 -0.04179784 -0.04855671]
 [ 0.          0.03839213 -0.04731338 -0.0342156  -0.02071808]
 [ 0.         -0.01994915 -0.04621716  0.01988635  0.01182597]] 
Episode: 300: [[ 0.          0.03279436 -0.05125166 -0.02570551 -0.01486344]
