Episode: 1: [[0. 0. 0. 0. 0.]
 [0. 0. 0. 0. 0.]
 [0. 0. 0. 0. 0.]
 [0. 0. 0. 0. 0.]
 [0. 0. 0. 0. 0.]] 
Episode: 2: [[-0.0003  0.0003  0.0003 -0.0003 -0.0003]
 [-0.0003  0.0003  0.0003 -0.0003 -0.0003]
 [-0.0003  0.0003  0.0003 -0.0003 -0.0003]
 [-0.0003  0.0003  0.0003 -0.0003 -0.0003]
 [-0.0003  0.0003  0.0003 -0.0003 -0.0003]] 
Episode: 3: [[-0.00032346  0.00054658  0.0006004  -0.00028421 -0.00028421]
 [-0.0005691   0.000483    0.0006004  -0.00028421 -0.0006    ]
 [-0.00057028  0.0006004   0.00047644 -0.0005978  -0.00058491]
 [-0.00053803  0.00016885  0.0002319  -0.00035557 -0.00013795]
 [-0.0005248   0.00059984  0.0003914  -0.00058051 -0.00056278]] 
Episode: 4: [[-4.5682787e-04  7.2868948e-04  8.6565036e-04 -1.6354627e-04
  -3.8160000e-04]
 [-7.0869352e-04  5.3795567e-04  9.0143346e-04 -3.7068914e-04
  -8.0156419e-04]
 [-8.0455700e-04  7.4788841e-04  5.3657970e-04 -7.0866803e-04
  -8.7332103e-04]
 [-7.2354957e-04  1.3893475e-04  4.9643069e-05 -5.3998613e-04
  -5.1945659e-05]
 [-6.3349865e-04  7.7672873e-04  2.2938443e-04 -6.3400203e-04
  -6.2659429e-04]] 
Episode: 5: [[-5.6866102e-04  8.6285610e-04  1.1392835e-03 -1.6520372e-04
  -3.6226638e-04]
 [-7.7332335e-04  6.0485461e-04  1.1519890e-03 -5.0617353e-04
  -1.0190572e-03]
 [-8.8523451e-04  8.5110281e-04  5.6635524e-04 -7.7137526e-04
  -1.1613505e-03]
 [-8.2440872e-04  1.8792997e-04 -1.5487346e-04 -7.5613137e-04
   3.7538484e-05]
 [-6.4550841e-04  9.3194633e-04  4.3140160e-05 -6.5675256e-04
  -6.8574020e-04]] 
Episode: 6: [[-0.00063274  0.00101074  0.00137995 -0.00023971 -0.00040993]
 [-0.00080145  0.00066624  0.00135452 -0.00058877 -0.00126243]
 [-0.000935    0.00094834  0.00057647 -0.00089755 -0.00145217]
 [-0.00086198  0.00019234 -0.00037956 -0.00096298  0.00018025]
 [-0.00064248  0.00107617 -0.00012583 -0.00074347 -0.00072917]] 
Episode: 7: [[-0.00076168  0.0012108   0.0016275  -0.00036235 -0.00051348]
 [-0.00092112  0.00064682  0.00140731 -0.00057576 -0.00152161]
 [-0.00106599  0.00110954  0.00054675 -0.00098526 -0.00174757]
 [-0.00094858  0.00019538 -0.00056541 -0.00098793  0.0002657 ]
 [-0.00073145  0.0010965  -0.00013956 -0.00078962 -0.0008202 ]] 
Episode: 8: [[-0.00093184  0.00144204  0.00186836 -0.00051898 -0.00058965]
 [-0.00109134  0.00060871  0.00153343 -0.00063144 -0.00179139]
 [-0.00122993  0.00121202  0.00051761 -0.00113601 -0.00198343]
 [-0.00107415  0.00027201 -0.00073042 -0.00110242  0.00032736]
 [-0.00084921  0.00112274 -0.00016926 -0.00088161 -0.00095296]] 
Episode: 9: [[-0.0010054   0.00159721  0.00212696 -0.00059544 -0.00070935]
 [-0.00115224  0.00046844  0.00149503 -0.00061725 -0.00195058]
 [-0.00128111  0.00122172  0.00043879 -0.00118819 -0.00209072]
 [-0.0011575   0.00042191 -0.00079656 -0.0012819   0.00044125]
 [-0.00085948  0.00124763 -0.00020371 -0.00104255 -0.00112327]] 
Episode: 10: [[-0.00112245  0.00173215  0.00230748 -0.00061044 -0.00077417]
 [-0.00126216  0.00032526  0.00151764 -0.00065981 -0.00213606]
 [-0.00134401  0.00118503  0.00034605 -0.0012672  -0.00222594]
 [-0.0012369   0.00055873 -0.00085182 -0.00146239  0.00054002]
 [-0.00087798  0.00130102 -0.00025679 -0.00121361 -0.00131029]] 
Episode: 11: [[-0.0012063   0.00183037  0.0025103  -0.00057708 -0.00087948]
 [-0.00141006  0.00022847  0.0014832  -0.0007459  -0.00224097]
 [-0.00145672  0.00109173  0.00025141 -0.0013357  -0.00239706]
 [-0.00131966  0.0006754  -0.00095087 -0.00160426  0.00068537]
 [-0.00089618  0.00136485 -0.00033609 -0.00134736 -0.00142641]] 
Episode: 12: [[-0.00132836  0.00190165  0.00261458 -0.00050486 -0.00101654]
 [-0.00158678  0.00011761  0.00145673 -0.00077131 -0.00236434]
 [-0.00160806  0.00100573  0.00013159 -0.00132498 -0.00257023]
 [-0.00145185  0.00072269 -0.00101463 -0.00167673  0.00077641]
 [-0.00097286  0.00142799 -0.00039823 -0.00144483 -0.00151564]] 
Episode: 13: [[-1.4203280e-03  1.9326730e-03  2.6985614e-03 -4.8450957e-04
  -1.1790382e-03]
 [-1.7451451e-03  3.3011380e-05  1.4085025e-03 -7.9269102e-04
  -2.5005317e-03]
 [-1.7394524e-03  9.2528906e-04 -5.8080213e-06 -1.3512366e-03
  -2.7382607e-03]
 [-1.5614992e-03  7.6296931e-04 -1.1125171e-03 -1.7378721e-03
   8.6645153e-04]
 [-1.0359921e-03  1.4959814e-03 -4.6432798e-04 -1.4940434e-03
  -1.5864016e-03]] 
Episode: 14: [[-1.5417740e-03  1.9662424e-03  2.7993210e-03 -5.0297077e-04
  -1.3622565e-03]
 [-1.8522226e-03 -7.5275304e-05  1.3497091e-03 -7.6587935e-04
  -2.5713956e-03]
 [-1.8570739e-03  8.4019202e-04 -1.4823160e-04 -1.3236173e-03
  -2.8256613e-03]
 [-1.6358927e-03  7.8018673e-04 -1.2162719e-03 -1.7949900e-03
   9.4567833e-04]
 [-1.0718071e-03  1.5748508e-03 -5.4297323e-04 -1.5494378e-03
  -1.6298143e-03]] 
Episode: 15: [[-0.00163051  0.00199672  0.00282816 -0.00047985 -0.00147893]
 [-0.00198903 -0.00021048  0.0012948  -0.00069952 -0.00267613]
 [-0.00201038  0.00076483 -0.00029023 -0.00131198 -0.00290605]
 [-0.00169776  0.0007549  -0.00130124 -0.00181402  0.00099488]
 [-0.00114854  0.00161336 -0.00064578 -0.00162524 -0.00165393]] 
Episode: 16: [[-0.00175332  0.00207078  0.00289205 -0.00049768 -0.00153996]
 [-0.00214115 -0.00033247  0.00124504 -0.00068363 -0.00280894]
 [-0.0021359   0.000695   -0.00047438 -0.00133308 -0.00302692]
 [-0.00174507  0.00067149 -0.00142799 -0.00183018  0.00097601]
 [-0.00119438  0.00161205 -0.00080099 -0.00170808 -0.00170895]] 
Episode: 17: [[-0.00184354  0.0021908   0.0029048  -0.00055037 -0.00155406]
 [-0.00229867 -0.00044315  0.00124338 -0.00069268 -0.00290042]
 [-0.00226526  0.00061304 -0.00068627 -0.00129616 -0.00314774]
 [-0.00180289  0.00056562 -0.00157264 -0.00184903  0.00090723]
 [-0.00124567  0.00158771 -0.00095931 -0.0017695  -0.00176694]] 
Episode: 18: [[-0.00188274  0.00234056  0.00288661 -0.00056051 -0.00158222]
 [-0.00240609 -0.00052902  0.00125268 -0.00066038 -0.00296665]
 [-0.00236318  0.00048687 -0.00091963 -0.00124027 -0.00323423]
 [-0.0018352   0.00044427 -0.0017248  -0.00183661  0.00085064]
 [-0.00128243  0.00151327 -0.00110969 -0.00184136 -0.00181438]] 
Episode: 19: [[-0.00192772  0.00249346  0.00282232 -0.00060494 -0.0015686 ]
 [-0.00252159 -0.00063019  0.00119508 -0.00067121 -0.00298401]
 [-0.00248169  0.00034109 -0.00115911 -0.00114108 -0.00325895]
 [-0.0018747   0.00030592 -0.00187216 -0.00180896  0.0008129 ]
 [-0.00132342  0.0013848  -0.00128433 -0.00188369 -0.0018947 ]] 
Episode: 20: [[-0.00201084  0.00262535  0.00277617 -0.00063643 -0.0015786 ]
 [-0.00262901 -0.00071058  0.00110577 -0.00071896 -0.00295976]
 [-0.00258309  0.00025623 -0.00139091 -0.0011051  -0.00332861]
 [-0.00191066  0.00014958 -0.00202381 -0.00174488  0.00080514]
 [-0.00138249  0.00126419 -0.0014389  -0.00192327 -0.00199102]] 
Episode: 21: [[-2.1261000e-03  2.6719761e-03  2.7061689e-03 -6.8939506e-04
  -1.5499208e-03]
 [-2.7537846e-03 -7.8372651e-04  1.0040678e-03 -7.2360539e-04
  -2.9770152e-03]
 [-2.6916126e-03  1.6658618e-04 -1.6000175e-03 -1.0629533e-03
  -3.3965001e-03]
 [-1.9631782e-03 -5.7775861e-08 -2.1638721e-03 -1.7380764e-03
   7.8248361e-04]
 [-1.4483456e-03  1.1715346e-03 -1.5922491e-03 -1.9416274e-03
  -2.0776752e-03]] 
Episode: 22: [[-0.00226862  0.00261267  0.0025987  -0.0007012  -0.00156139]
 [-0.00290846 -0.0007123   0.00085061 -0.00076446 -0.00295442]
 [-0.00273211  0.00029231 -0.00183862 -0.00097882 -0.00340827]
 [-0.0018952  -0.00016957 -0.00206289 -0.001816    0.00067867]
 [-0.00161194  0.0010133  -0.00147069 -0.00184254 -0.00199884]] 
Episode: 23: [[-0.00240149  0.00257116  0.00255041 -0.00074629 -0.00153534]
 [-0.00308819 -0.00064651  0.00066895 -0.00077307 -0.00297159]
 [-0.00275791  0.0003988  -0.00208666 -0.00085962 -0.00342706]
 [-0.00184711 -0.00032255 -0.00197552 -0.0019129   0.00060256]
 [-0.00176878  0.00086927 -0.00135968 -0.00174126 -0.00194116]] 
Episode: 24: [[-0.0025593   0.0024576   0.00246423 -0.00082055 -0.00154791]
 [-0.00328907 -0.00069298  0.00058123 -0.00074471 -0.00295025]
 [-0.00272958  0.00057754 -0.00217129 -0.00071091 -0.00339746]
 [-0.00172329 -0.00053202 -0.00181    -0.00191685  0.00061907]
 [-0.00197969  0.00066553 -0.00139734 -0.00157472 -0.00199918]] 
Episode: 25: [[-0.00273852  0.00237922  0.00238869 -0.00092043 -0.00159425]
 [-0.00342271 -0.00073094  0.00048108 -0.00075504 -0.00294702]
 [-0.00272687  0.0007436  -0.00224878 -0.00061629 -0.00339005]
 [-0.00159939 -0.00072507 -0.00166684 -0.00190107  0.00065448]
 [-0.00216063  0.00047973 -0.00143576 -0.00143088 -0.00205291]] 
Episode: 26: [[-0.00285737  0.00232316  0.0023658  -0.00104287 -0.00167023]
 [-0.00358192 -0.00078843  0.00033658 -0.00072916 -0.00290789]
 [-0.00277335  0.00089536 -0.0023609  -0.00057611 -0.00333872]
 [-0.00150192 -0.00090041 -0.00153695 -0.0019261   0.0007007 ]
 [-0.00234778  0.0003108  -0.00147179 -0.00129285 -0.00210828]] 
Episode: 27: [[-0.00295184  0.00227694  0.0023496  -0.00118522 -0.00177228]
 [-0.00373949 -0.00084945  0.0001899  -0.00067794 -0.00289738]
 [-0.00282351  0.0010287  -0.00248537 -0.00055148 -0.00324995]
 [-0.00141709 -0.00106262 -0.00142304 -0.0018797   0.00071916]
 [-0.00253288  0.00015635 -0.00150647 -0.00115599 -0.00215135]] 
Episode: 28: [[-2.9963471e-03  2.3141350e-03  2.3647174e-03 -1.3451753e-03
  -1.8973006e-03]
 [-3.8372905e-03 -8.4407243e-04  7.3863798e-06 -6.6691608e-04
  -2.9238670e-03]
 [-2.9150604e-03  1.1097360e-03 -2.6657968e-03 -5.2098866e-04
  -3.1485984e-03]
 [-1.3216871e-03 -1.2037918e-03 -1.3287266e-03 -1.9034613e-03
   8.0278749e-04]
 [-2.7571784e-03  2.0706437e-05 -1.5423375e-03 -1.0994542e-03
  -2.2721672e-03]] 
Episode: 29: [[-0.00299729  0.00234417  0.00233529 -0.00152073 -0.0020385 ]
 [-0.00396417 -0.00083843 -0.00019502 -0.00069137 -0.0029829 ]
 [-0.00304163  0.00118515 -0.00282692 -0.00053695 -0.00307707]
 [-0.00126128 -0.00134022 -0.00126578 -0.00186427  0.00087328]
 [-0.00297595 -0.00010176 -0.00157511 -0.00107288 -0.00231916]] 
Episode: 30: [[-0.00296014  0.00240961  0.00226741 -0.00171011 -0.00213087]
 [-0.00403671 -0.00080028 -0.00035552 -0.00074717 -0.00307061]
 [-0.00319801  0.00121815 -0.00299052 -0.00058989 -0.00305724]
 [-0.00129348 -0.00147298 -0.00124336 -0.00177399  0.00099952]
 [-0.00309515 -0.00022156 -0.00160416 -0.00097914 -0.00242796]] 
Episode: 31: [[-0.0029527   0.00246671  0.00220245 -0.00191178 -0.00224682]
 [-0.00413842 -0.00077115 -0.00051373 -0.00082323 -0.00317131]
 [-0.00333354  0.00124682 -0.00313913 -0.00061504 -0.00304225]
 [-0.00132711 -0.00159511 -0.00123042 -0.00168293  0.00112211]
 [-0.00320707 -0.00033045 -0.0016324  -0.00089715 -0.00252173]] 
Episode: 32: [[-0.00290854  0.00258407  0.00218668 -0.00212437 -0.00238369]
 [-0.00418995 -0.0008306  -0.00059585 -0.00092495 -0.00322622]
 [-0.00349758  0.0012026  -0.00333718 -0.00059572 -0.00298617]
 [-0.00142917 -0.0017663  -0.00129124 -0.00165925  0.00116175]
 [-0.00334703 -0.0004216  -0.00168761 -0.00075457 -0.00252785]] 
Episode: 33: [[-0.00290636  0.00269755  0.00213172 -0.00234668 -0.00253914]
 [-0.00427402 -0.00087586 -0.00069729 -0.00104942 -0.0033099 ]
 [-0.00367031  0.00113909 -0.00353955 -0.0005377  -0.00296733]
 [-0.00154167 -0.00191997 -0.00133388 -0.00167457  0.00117054]
 [-0.00348682 -0.00050565 -0.00174569 -0.00060932 -0.00252902]] 
Episode: 34: [[-0.00292705  0.00280315  0.00205352 -0.00257766 -0.00265672]
 [-0.00436495 -0.00091665 -0.00080394 -0.00114791 -0.00339472]
 [-0.00383713  0.00107855 -0.00372648 -0.00049684 -0.00295466]
 [-0.00164994 -0.00206145 -0.0013728  -0.00168954  0.00118553]
 [-0.00361685 -0.00058175 -0.00179796 -0.000467   -0.00253382]] 
Episode: 35: [[-0.00290858  0.00291963  0.00195509 -0.00281635 -0.00279492]
 [-0.00448404 -0.000929   -0.00094985 -0.00126963 -0.00350529]
 [-0.00402876  0.00101551 -0.00390007 -0.00043389 -0.00295177]
 [-0.00177271 -0.0021959  -0.00142448 -0.00172073  0.00120958]
 [-0.00375599 -0.00065152 -0.00184901 -0.00032186 -0.00252484]] 
Episode: 36: [[-0.00292867  0.00295063  0.00182735 -0.00299887 -0.00288591]
 [-0.00455231 -0.00101671 -0.00112877 -0.00134513 -0.00356957]
 [-0.00415443  0.0010597  -0.00411768 -0.0004188  -0.00299211]
 [-0.00180498 -0.00239673 -0.00155793 -0.00169428  0.00116797]
 [-0.00395136 -0.00080777 -0.00198995 -0.00027245 -0.00244813]] 
Episode: 37: [[-0.00295387  0.00298248  0.00172329 -0.00319403 -0.00297661]
 [-0.00462204 -0.00108834 -0.00132361 -0.001446   -0.00359273]
 [-0.00425504  0.00109829 -0.00432205 -0.0004297  -0.00304736]
 [-0.00183264 -0.00258223 -0.00167981 -0.00167845  0.00109893]
 [-0.00413066 -0.00094978 -0.00212143 -0.0002306  -0.00238446]] 
Episode: 38: [[-0.00301026  0.00303986  0.00164115 -0.00340048 -0.00309087]
 [-0.00471593 -0.00115637 -0.0015206  -0.00156947 -0.00357931]
 [-0.00435691  0.00113148 -0.00452063 -0.00045985 -0.00310324]
 [-0.00183788 -0.00275563 -0.00179569 -0.00164349  0.00104678]
 [-0.00429725 -0.00107947 -0.00224179 -0.00019165 -0.00233307]] 
Episode: 39: [[-0.00308474  0.00309693  0.00153151 -0.00361704 -0.00322613]
 [-0.00483284 -0.00121116 -0.00169944 -0.00171309 -0.003535  ]
 [-0.00445377  0.00116354 -0.00471045 -0.00044776 -0.00313956]
 [-0.0018423  -0.00290999 -0.00190607 -0.00162735  0.00099848]
 [-0.00444744 -0.00119878 -0.00235432 -0.00014347 -0.00229252]] 
Episode: 40: [[-3.1878792e-03  3.2110487e-03  1.3936897e-03 -3.8426290e-03
  -3.3146536e-03]
 [-4.8995432e-03 -1.3062237e-03 -1.8837799e-03 -1.8089849e-03
  -3.5291617e-03]
 [-4.4952221e-03  1.1866344e-03 -4.8000375e-03 -4.7719953e-04
  -3.1283870e-03]
 [-1.8233076e-03 -3.0786043e-03 -1.9944354e-03 -1.5599972e-03
   1.0174845e-03]
 [-4.5987726e-03 -1.3100780e-03 -2.4543155e-03 -3.2967393e-05
  -2.2345739e-03]] 
Episode: 41: [[-3.3030915e-03  3.3139258e-03  1.2567441e-03 -4.0572630e-03
  -3.4266552e-03]
 [-4.9703531e-03 -1.3923345e-03 -2.0561554e-03 -1.9276914e-03
  -3.5002381e-03]
 [-4.5414562e-03  1.2056885e-03 -4.8854914e-03 -4.9562281e-04
  -3.1075804e-03]
 [-1.8127594e-03 -3.2324838e-03 -2.0770158e-03 -1.4878118e-03
   1.0295707e-03]
 [-4.7391295e-03 -1.4114927e-03 -2.5447786e-03  6.8737485e-05
  -2.1802278e-03]] 
Episode: 42: [[-0.00344256  0.00338511  0.00109462 -0.00421857 -0.00349462]
 [-0.00505953 -0.00146571 -0.00225097 -0.00206677 -0.00350814]
 [-0.00458096  0.0012174  -0.00496891 -0.00047186 -0.0031274 ]
 [-0.00181263 -0.00337252 -0.00215719 -0.00147692  0.0010239 ]
 [-0.00487354 -0.00150311 -0.00262592  0.00014866 -0.00212865]] 
Episode: 43: [[-0.00353097  0.00349071  0.00099004 -0.00439477 -0.003588  ]
 [-0.00517688 -0.00159695 -0.00247301 -0.00215904 -0.00354888]
 [-0.00466046  0.00122887 -0.00504988 -0.00045925 -0.00310221]
 [-0.0018496  -0.00350232 -0.0022389  -0.00141629  0.00107843]
 [-0.00502566 -0.00158777 -0.00270157  0.00024065 -0.00203319]] 
Episode: 44: [[-0.00364609  0.00358772  0.00088192 -0.00452176 -0.00363949]
 [-0.00527634 -0.00171608 -0.00268723 -0.00223949 -0.00356958]
 [-0.00475008  0.00124105 -0.00513317 -0.00045112 -0.00304998]
 [-0.00188868 -0.00362042 -0.00231527 -0.00135333  0.00111313]
 [-0.00516518 -0.00166524 -0.00277186  0.00032979 -0.00193622]] 
Episode: 45: [[-0.00372567  0.00368402  0.00075875 -0.00466707 -0.00368658]
 [-0.00535572 -0.00182016 -0.00288128 -0.0023158  -0.00359924]
 [-0.00482413  0.00124848 -0.00520525 -0.00045359 -0.00301976]
 [-0.00191555 -0.00372656 -0.00238713 -0.00129912  0.00114757]
 [-0.00528757 -0.001735   -0.00283837  0.00040798 -0.00184929]] 
Episode: 46: [[-0.00383282  0.0037505   0.00063343 -0.00476645 -0.00375343]
 [-0.0054535  -0.00190692 -0.00306805 -0.00241735 -0.00365992]
 [-0.00489972  0.00125568 -0.00528311 -0.00044437 -0.00297334]
 [-0.00194937 -0.00382229 -0.00245465 -0.00123915  0.00115791]
 [-0.0054003  -0.00179744 -0.00290112  0.0004681  -0.00178026]] 
Episode: 47: [[-0.00394342  0.00386517  0.00055936 -0.00488688 -0.00384609]
 [-0.00557907 -0.0019893  -0.00326666 -0.00254146 -0.00374828]
 [-0.00496679  0.00125733 -0.00536582 -0.00045514 -0.00294495]
 [-0.00199185 -0.00391219 -0.00252077 -0.00120192  0.00110808]
 [-0.00550719 -0.00185514 -0.00295845  0.00052827 -0.00172334]] 
Episode: 48: [[-0.00407845  0.00402718  0.00045338 -0.00502618 -0.00389668]
 [-0.00572924 -0.00198459 -0.00339031 -0.00261994 -0.00386135]
 [-0.00498079  0.00135304 -0.00536459 -0.00050627 -0.00296282]
 [-0.00195538 -0.00388702 -0.00248018 -0.00122092  0.00112168]
 [-0.00551122 -0.00179751 -0.00290202  0.00050895 -0.00174555]] 
Episode: 49: [[-0.00423522  0.00410738  0.00031923 -0.00512035 -0.00397461]
 [-0.00582575 -0.00205126 -0.00344918 -0.00272318 -0.00399648]
 [-0.00494837  0.00151862 -0.00529522 -0.00059295 -0.00293611]
 [-0.00185503 -0.00377771 -0.00236037 -0.00128835  0.00107802]
 [-0.0055935  -0.00170544 -0.00294806  0.00042488 -0.00180318]] 
Episode: 50: [[-0.00439158  0.00417666  0.00018928 -0.00518269 -0.00407701]
 [-0.00592059 -0.0021069  -0.00351067 -0.00282283 -0.00411109]
 [-0.0049226   0.00166868 -0.00523909 -0.00065551 -0.00288963]
 [-0.00176609 -0.00367613 -0.00225343 -0.00136788  0.00103099]
 [-0.00566889 -0.00162168 -0.00299064  0.00034699 -0.00185947]] 
Episode: 51: [[-4.5058914e-03  4.2358688e-03  3.5042052e-05 -5.2698450e-03
  -4.1366168e-03]
 [-6.0096118e-03 -2.1503423e-03 -3.5948802e-03 -2.9223980e-03
  -4.2477991e-03]
 [-4.9023358e-03  1.8100899e-03 -5.1974403e-03 -7.2864536e-04
  -2.8905813e-03]
 [-1.6749008e-03 -3.5816114e-03 -2.1604570e-03 -1.4663723e-03
   9.6878473e-04]
 [-5.7339906e-03 -1.5456644e-03 -3.0297057e-03  2.8531914e-04
  -1.9287948e-03]] 
Episode: 52: [[-4.5722467e-03  4.3473709e-03 -6.3315638e-05 -5.3792736e-03
  -4.2224452e-03]
 [-6.1273738e-03 -2.1907797e-03 -3.7190081e-03 -3.0450763e-03
  -4.3366412e-03]
 [-4.9294550e-03  1.9233697e-03 -5.2282102e-03 -7.5254671e-04
  -2.8495248e-03]
 [-1.6561081e-03 -3.4906219e-03 -2.0942753e-03 -1.5367036e-03
   9.4500923e-04]
 [-5.7958132e-03 -1.4741729e-03 -3.0725109e-03  2.5622177e-04
  -1.9780973e-03]] 
Episode: 53: [[-0.00459583  0.00450306 -0.0001121  -0.0054466  -0.00433177]
 [-0.00619475 -0.00229502 -0.00383847 -0.00318843 -0.00445007]
 [-0.00499811  0.00209147 -0.00531913 -0.00073294 -0.00277142]
 [-0.00170533 -0.00342816 -0.00212125 -0.0016288   0.00097905]
 [-0.00588578 -0.00140341 -0.00310869  0.00029721 -0.00208179]] 
Episode: 54: [[-0.00458127  0.00458289 -0.00019452 -0.00553815 -0.00439782]
 [-0.00621731 -0.00231839 -0.00399345 -0.00328397 -0.00451825]
 [-0.00501514  0.00231301 -0.00533613 -0.00067487 -0.00274289]
 [-0.00181132 -0.00346111 -0.00206642 -0.00165972  0.0009553 ]
 [-0.00588582 -0.00124988 -0.00322681  0.000269   -0.00223825]] 
Episode: 55: [[-0.00460377  0.00464263 -0.00024364 -0.00558948 -0.00448302]
 [-0.00624139 -0.00233571 -0.00412212 -0.00337253 -0.00455225]
 [-0.0050383   0.00251451 -0.00535026 -0.00063923 -0.0027365 ]
 [-0.0019126  -0.00349103 -0.00202386 -0.00169321  0.00091884]
 [-0.00588875 -0.00111025 -0.00333405  0.00023709 -0.0023816 ]] 
Episode: 56: [[-0.00465934  0.00463938 -0.00032621 -0.00560468 -0.00452739]
 [-0.0062251  -0.00228583 -0.00418716 -0.00348541 -0.00461633]
 [-0.00510281  0.00276227 -0.00542341 -0.00064791 -0.00277179]
 [-0.00193912 -0.00343565 -0.00206192 -0.00177284  0.00083373]
 [-0.00581788 -0.0010836  -0.00334115  0.00014701 -0.00257105]] 
Episode: 57: [[-4.7032312e-03  4.6337279e-03 -4.3779946e-04 -5.6492803e-03
  -4.5351083e-03]
 [-6.1982907e-03 -2.2402673e-03 -4.2589749e-03 -3.6046647e-03
  -4.6976120e-03]
 [-5.1561305e-03  2.9864737e-03 -5.4937992e-03 -6.4644596e-04
  -2.8120740e-03]
 [-1.9599758e-03 -3.3865932e-03 -2.1002896e-03 -1.8418048e-03
   7.4255856e-04]
 [-5.7519334e-03 -1.0592373e-03 -3.3485813e-03  6.1186518e-05
  -2.7478929e-03]] 
Episode: 58: [[-4.7781458e-03  4.6331054e-03 -5.7584018e-04 -5.6584785e-03
  -4.5183613e-03]
 [-6.1821877e-03 -2.1979450e-03 -4.3360027e-03 -3.7179978e-03
  -4.7777491e-03]
 [-5.2076178e-03  3.1906294e-03 -5.5707782e-03 -6.5108057e-04
  -2.8529400e-03]
 [-1.9767235e-03 -3.3419202e-03 -2.1369588e-03 -1.8911336e-03
   6.6103507e-04]
 [-5.6928727e-03 -1.0365683e-03 -3.3580349e-03 -2.0217372e-05
  -2.9038601e-03]] 
Episode: 59: [[-4.8807468e-03  4.5878068e-03 -7.3736580e-04 -5.6976364e-03
  -4.4711218e-03]
 [-6.1295787e-03 -2.1588914e-03 -4.3747867e-03 -3.8432933e-03
  -4.8835515e-03]
 [-5.2092560e-03  3.3651667e-03 -5.6140367e-03 -6.1437173e-04
  -2.9307608e-03]
 [-1.9410773e-03 -3.2989169e-03 -2.1848190e-03 -1.9847951e-03
   5.3629925e-04]
 [-5.6294748e-03 -1.0166457e-03 -3.3646659e-03 -8.4494393e-05
  -3.1033792e-03]] 
Episode: 60: [[-0.00500806  0.004493   -0.00091974 -0.00570199 -0.00439653]
 [-0.00612048 -0.00206041 -0.00436031 -0.00398965 -0.00501232]
 [-0.00525447  0.00358924 -0.00559169 -0.00062212 -0.00304127]
 [-0.00184973 -0.00325466 -0.00215311 -0.00211703  0.00037422]
 [-0.00559021 -0.00097817 -0.00333475 -0.00020264 -0.0032996 ]] 
Episode: 61: [[-0.00515743  0.00435552 -0.00112063 -0.00567506 -0.00429739]
 [-0.00615013 -0.00191186 -0.00429929 -0.00408724 -0.00516162]
 [-0.00525143  0.0038538  -0.00551339 -0.0005888  -0.00318069]
 [-0.00171093 -0.00329601 -0.00205571 -0.00228286  0.00017981]
 [-0.00562882 -0.00103188 -0.00338958 -0.00036642 -0.00353351]] 
Episode: 62: [[-5.3067347e-03  4.2448523e-03 -1.3347833e-03 -5.6804656e-03
  -4.2229588e-03]
 [-6.1817626e-03 -1.7809930e-03 -4.2566443e-03 -4.1756816e-03
  -5.3008483e-03]
 [-5.2554933e-03  4.0929867e-03 -5.4572141e-03 -5.5336859e-04
  -3.3024016e-03]
 [-1.5816402e-03 -3.3343867e-03 -1.9704129e-03 -2.4371466e-03
   2.1999924e-06]
 [-5.6612059e-03 -1.0807207e-03 -3.4394602e-03 -5.1379594e-04
  -3.7470267e-03]] 
Episode: 63: [[-0.00547595  0.00414471 -0.00154211 -0.00566745 -0.00418831]
 [-0.00621925 -0.0016617  -0.00422441 -0.00428908 -0.00541577]
 [-0.0052595   0.00430798 -0.00541535 -0.00051042 -0.00340075]
 [-0.00146636 -0.00336904 -0.00189584 -0.00257782 -0.00016578]
 [-0.00569063 -0.00112468 -0.00348543 -0.00064692 -0.00393833]] 
Episode: 64: [[-0.00559591  0.00404573 -0.00176229 -0.00568674 -0.00418594]
 [-0.00623422 -0.00155689 -0.00420163 -0.00439012 -0.00552624]
 [-0.00525221  0.0045056  -0.0053764  -0.00049995 -0.00352643]
 [-0.0013543  -0.00339928 -0.00183278 -0.00272216 -0.00033751]
 [-0.00571516 -0.00116456 -0.003528   -0.00078377 -0.00411396]] 
Episode: 65: [[-0.00569706  0.00396086 -0.00197663 -0.00573505 -0.00421603]
 [-0.00624937 -0.00145404 -0.00418963 -0.00444988 -0.00565677]
 [-0.00525011  0.00468591 -0.00534142 -0.00052165 -0.00362843]
 [-0.00125039 -0.00342728 -0.00177471 -0.00284111 -0.00048928]
 [-0.00573621 -0.00120104 -0.00356956 -0.00090474 -0.00427438]] 
Episode: 66: [[-0.0058232   0.00386958 -0.00220127 -0.00575055 -0.00427525]
 [-0.0063016  -0.00136407 -0.00418892 -0.0045377  -0.00580832]
 [-0.00524286  0.00485087 -0.00532924 -0.00054165 -0.00367932]
 [-0.00118983 -0.00345504 -0.00172416 -0.00293179 -0.00062924]
 [-0.00575683 -0.00123508 -0.00361098 -0.00101931 -0.0044279 ]] 
Episode: 67: [[-0.00592004  0.00379506 -0.00243055 -0.00579547 -0.00436062]
 [-0.00632648 -0.00128166 -0.00420843 -0.00464712 -0.00595236]
 [-0.00523612  0.00500044 -0.00532819 -0.00058876 -0.00373998]
 [-0.00113088 -0.00348098 -0.0016812  -0.00299782 -0.00078416]
 [-0.00577167 -0.0012663  -0.00364942 -0.00112149 -0.0045681 ]] 
Episode: 68: [[-0.0059985   0.00372023 -0.00259822 -0.00584037 -0.00446946]
 [-0.00632192 -0.00120735 -0.00422242 -0.00471763 -0.0061162 ]
 [-0.00524787  0.00513409 -0.00533549 -0.00061806 -0.0037531 ]
 [-0.00106564 -0.00350485 -0.00164828 -0.00305699 -0.00089885]
 [-0.00578627 -0.00129574 -0.00368684 -0.00120648 -0.00469065]] 
Episode: 69: [[-0.00603318  0.00363261 -0.00278601 -0.00584956 -0.00459936]
 [-0.00630212 -0.00114583 -0.0042574  -0.00478275 -0.00628959]
 [-0.00525821  0.00525339 -0.00536433 -0.00063896 -0.00372402]
 [-0.00101914 -0.00352995 -0.00162257 -0.00307599 -0.0009765 ]
 [-0.00579998 -0.00132309 -0.0037229  -0.00128171 -0.00478505]] 
Episode: 70: [[-0.00609989  0.00356463 -0.00293912 -0.005889   -0.00474816]
 [-0.00629342 -0.00110005 -0.00429556 -0.00480811 -0.00647976]
 [-0.00526658  0.00536308 -0.0053918  -0.00065014 -0.00369349]
 [-0.00097614 -0.00355326 -0.00160355 -0.0030937  -0.00104117]
 [-0.00581182 -0.00134792 -0.00375571 -0.00135394 -0.00487721]] 
Episode: 71: [[-0.00615484  0.00349534 -0.00308351 -0.00595562 -0.00488572]
 [-0.00628044 -0.00106632 -0.00434217 -0.00479657 -0.00665665]
 [-0.0052686   0.00546102 -0.00541697 -0.00065762 -0.00367222]
 [-0.00093669 -0.00357563 -0.00159096 -0.00309821 -0.0011079 ]
 [-0.00582226 -0.00137046 -0.00378587 -0.00142115 -0.00496418]] 
Episode: 72: [[-0.00623987  0.00339522 -0.00322851 -0.00598441 -0.00504161]
 [-0.00626359 -0.00104001 -0.00438161 -0.00475198 -0.00685012]
 [-0.00527968  0.0055514  -0.00545218 -0.00067618 -0.00361208]
 [-0.00090811 -0.00359551 -0.00158191 -0.00310856 -0.00114201]
 [-0.0058226  -0.00139166 -0.00381537 -0.00146596 -0.0050224 ]] 
Episode: 73: [[-0.00632687  0.00330793 -0.00336674 -0.00602109 -0.00521393]
 [-0.00625287 -0.00101661 -0.00442321 -0.00474609 -0.00704156]
 [-0.00529243  0.00563229 -0.00548667 -0.00069256 -0.00356941]
 [-0.00088459 -0.00361478 -0.00157541 -0.0031233  -0.00117433]
 [-0.00582316 -0.00141079 -0.00384245 -0.00150803 -0.00507449]] 
Episode: 74: [[-0.00644054  0.00318098 -0.00351542 -0.00602278 -0.00540099]
 [-0.00623325 -0.00099949 -0.00444929 -0.00470672 -0.00724819]
 [-0.0053261   0.00570492 -0.00553997 -0.00068518 -0.00349013]
 [-0.00084711 -0.00363334 -0.00157369 -0.00310478 -0.00118958]
 [-0.00581332 -0.0014279  -0.0038669  -0.0015464  -0.00515758]] 
Episode: 75: [[-0.00657828  0.00307493 -0.00366125 -0.00599301 -0.00553705]
 [-0.00617549 -0.00098211 -0.00445932 -0.00463736 -0.00746839]
 [-0.00537458  0.00576647 -0.00561605 -0.00063584 -0.00337835]
 [-0.00082474 -0.00365139 -0.00158085 -0.00306609 -0.00114933]
 [-0.00581509 -0.00144495 -0.00389688 -0.00156918 -0.00520871]] 
Episode: 76: [[-0.00666624  0.00303758 -0.00383051 -0.00599751 -0.00569145]
 [-0.00608381 -0.00096636 -0.00446316 -0.00460079 -0.0077007 ]
 [-0.00544148  0.00582528 -0.00570151 -0.00063342 -0.00328308]
 [-0.00080908 -0.00366698 -0.00159078 -0.00305341 -0.00113152]
 [-0.00581986 -0.00146166 -0.00392589 -0.00156981 -0.00524032]] 
Episode: 77: [[-0.00670964  0.00303039 -0.00402063 -0.0059703  -0.00586233]
 [-0.00603834 -0.00095447 -0.00446236 -0.00453395 -0.00794382]
 [-0.00549997  0.00587655 -0.00579428 -0.00058907 -0.00316878]
 [-0.00078493 -0.00368005 -0.00160003 -0.00302206 -0.00106255]
 [-0.00582836 -0.00147727 -0.00395209 -0.00157831 -0.0052465 ]] 
Episode: 78: [[-0.00678403  0.00301602 -0.00420036 -0.00592122 -0.00604608]
 [-0.00600533 -0.00094278 -0.00445947 -0.00448199 -0.00819659]
 [-0.00555435  0.00592081 -0.0058828  -0.00054011 -0.00305168]
 [-0.00076313 -0.00369105 -0.00160872 -0.00299596 -0.00101092]
 [-0.0058355  -0.00149113 -0.0039755  -0.00159103 -0.00525408]] 
Episode: 79: [[-0.00688616  0.00298588 -0.0043673  -0.00584577 -0.00624331]
 [-0.0059695  -0.00093095 -0.0044563  -0.00441966 -0.00845797]
 [-0.00560053  0.0059571  -0.00596929 -0.00046678 -0.00290577]
 [-0.00074407 -0.00370027 -0.00162163 -0.00298515 -0.00094704]
 [-0.00584498 -0.00150435 -0.0039976  -0.00159965 -0.00526186]] 
Episode: 80: [[-0.00694259  0.00293781 -0.00455465 -0.00574664 -0.00638867]
 [-0.00590027 -0.00091905 -0.00444012 -0.00436991 -0.00872702]
 [-0.00564528  0.00598611 -0.00605898 -0.00038569 -0.00276077]
 [-0.00071703 -0.00370834 -0.00163975 -0.0029716  -0.00087535]
 [-0.00585289 -0.00151654 -0.00401988 -0.00160642 -0.00526815]] 
Episode: 81: [[-0.00699705  0.00289066 -0.00473592 -0.00568872 -0.00655133]
 [-0.00583778 -0.00091041 -0.00442527 -0.0043013  -0.00896113]
 [-0.00568421  0.00601273 -0.00614373 -0.00032094 -0.00264424]
 [-0.00069    -0.00371457 -0.00165623 -0.00297245 -0.00081194]
 [-0.00586144 -0.00152746 -0.00403941 -0.00161581 -0.00528008]] 
Episode: 82: [[-0.00706415  0.00284137 -0.00492323 -0.00566787 -0.00668636]
 [-0.00578884 -0.0009067  -0.00440696 -0.00421667 -0.00915133]
 [-0.00571215  0.00603712 -0.00623092 -0.00023793 -0.00253348]
 [-0.00066946 -0.00371969 -0.00167509 -0.00297812 -0.00076423]
 [-0.00587018 -0.00153722 -0.00405774 -0.00162511 -0.00529265]] 
Episode: 83: [[-0.0071294   0.00277864 -0.00510854 -0.00565174 -0.00682998]
 [-0.00573147 -0.00090766 -0.00438888 -0.00412902 -0.00930673]
 [-0.00574249  0.00605856 -0.00631697 -0.00017267 -0.00245012]
 [-0.00064198 -0.00372435 -0.00169756 -0.00298249 -0.00072915]
 [-0.0058775  -0.00154603 -0.00407472 -0.00162885 -0.0053069 ]] 
Episode: 84: [[-0.00722374  0.00270702 -0.00530403 -0.00560581 -0.0069913 ]
 [-0.00570712 -0.00090526 -0.00438332 -0.00405569 -0.00944907]
 [-0.00578067  0.00607965 -0.00641898 -0.00011461 -0.00239474]
 [-0.0006292  -0.00372625 -0.00172015 -0.00301135 -0.00072796]
 [-0.00588849 -0.00155369 -0.0040908  -0.00162974 -0.00532256]] 
Episode: 85: [[-7.2727483e-03  2.6331034e-03 -5.5081150e-03 -5.5958987e-03
  -7.1041901e-03]
 [-5.6797788e-03 -9.0248004e-04 -4.3771658e-03 -3.9805314e-03
  -9.5419893e-03]
 [-5.8058989e-03  6.0951617e-03 -6.5181227e-03 -6.1941719e-05
  -2.3840137e-03]
 [-6.1611342e-04 -3.7301474e-03 -1.7482503e-03 -3.0125782e-03
  -7.3259079e-04]
 [-5.8997320e-03 -1.5607062e-03 -4.1049896e-03 -1.6233698e-03
  -5.3322595e-03]] 
Episode: 86: [[-7.2811660e-03  2.5454310e-03 -5.7113683e-03 -5.5556046e-03
  -7.2122910e-03]
 [-5.6459005e-03 -9.0260716e-04 -4.3682018e-03 -3.9315675e-03
  -9.6530607e-03]
 [-5.8346167e-03  6.1021652e-03 -6.6202050e-03  2.8643726e-05
  -2.3563309e-03]
 [-6.0595118e-04 -3.7325679e-03 -1.7782609e-03 -3.0211045e-03
  -7.3644589e-04]
 [-5.9102159e-03 -1.5672677e-03 -4.1184756e-03 -1.6209215e-03
  -5.3400751e-03]] 
Episode: 87: [[-0.00732422  0.00245653 -0.0059057  -0.005488   -0.00734181]
 [-0.00561039 -0.0009034  -0.00436095 -0.00388348 -0.00978768]
 [-0.00587224  0.0061066  -0.00671517  0.00012293 -0.00231265]
 [-0.00059954 -0.00373544 -0.00180497 -0.00302741 -0.00073592]
 [-0.00591899 -0.00157343 -0.00413142 -0.00161802 -0.00534798]] 
Episode: 88: [[-0.00739827  0.00236605 -0.00607879 -0.00545853 -0.00749055]
 [-0.00560723 -0.00091326 -0.00436942 -0.00386148 -0.00993072]
 [-0.00592638  0.00611059 -0.00681576  0.0002495  -0.00227332]
 [-0.00060332 -0.00374075 -0.00183224 -0.00302844 -0.00074448]
 [-0.00593246 -0.00157852 -0.00414273 -0.00161241 -0.00535533]] 
Episode: 89: [[-0.00748348  0.00227499 -0.00624275 -0.0054007  -0.00759203]
 [-0.00561388 -0.0009211  -0.00437916 -0.00384128 -0.01009409]
 [-0.00598804  0.0061133  -0.006913    0.00038353 -0.00219993]
 [-0.0006012  -0.00374611 -0.00186075 -0.00301564 -0.00073798]
 [-0.00594588 -0.00158366 -0.00415433 -0.00159795 -0.00535395]] 
Episode: 90: [[-0.00759543  0.00218878 -0.00640691 -0.00531737 -0.00765105]
 [-0.00565238 -0.00092935 -0.00438835 -0.00382432 -0.01026382]
 [-0.00606412  0.00611421 -0.00700467  0.0005189  -0.00213174]
 [-0.00060119 -0.00375202 -0.0018897  -0.00299118 -0.00071937]
 [-0.00595925 -0.00158876 -0.00416468 -0.00157818 -0.00535383]] 
Episode: 91: [[-0.00766059  0.00209111 -0.00659355 -0.00521113 -0.00767192]
 [-0.00571792 -0.00093537 -0.00439653 -0.00384525 -0.01042583]
 [-0.00615103  0.00611521 -0.00709103  0.00064701 -0.00209149]
 [-0.00060997 -0.00375791 -0.00191869 -0.00295365 -0.00069889]
 [-0.00597039 -0.00159334 -0.00417521 -0.00156598 -0.00534836]] 
Episode: 92: [[-0.00775439  0.00200793 -0.00676973 -0.00514683 -0.0076585 ]
 [-0.00579359 -0.00093961 -0.00440212 -0.0039001  -0.01058653]
 [-0.00624117  0.00611749 -0.00716856  0.00073524 -0.00207394]
 [-0.00062364 -0.00376354 -0.00194778 -0.00291784 -0.0006876 ]
 [-0.00598046 -0.00159759 -0.0041853  -0.0015527  -0.00534198]] 
Episode: 93: [[-0.00787385  0.00193082 -0.00693859 -0.00512025 -0.00767859]
 [-0.00587867 -0.00094157 -0.00441074 -0.00398533 -0.01076204]
 [-0.0063333   0.00611853 -0.00724179  0.0008489  -0.00205772]
 [-0.00064205 -0.00376909 -0.00197462 -0.00287719 -0.00067696]
 [-0.00599106 -0.0016011  -0.00419465 -0.00154624 -0.00533053]] 
Episode: 94: [[-0.00794599  0.00185006 -0.00711958 -0.00506509 -0.00766453]
 [-0.00595142 -0.00094343 -0.00441951 -0.00402595 -0.0109549 ]
 [-0.00643466  0.00612091 -0.00731043  0.00090679 -0.00204825]
 [-0.0006647  -0.00377406 -0.0020013  -0.00282489 -0.00069398]
 [-0.00600275 -0.00160433 -0.00420357 -0.00153787 -0.00531767]] 
Episode: 95: [[-0.00797571  0.00176886 -0.00731806 -0.00498425 -0.00761979]
 [-0.00597789 -0.00094984 -0.00443417 -0.00402662 -0.01109295]
 [-0.00654296  0.00612054 -0.00737646  0.00100205 -0.00199832]
 [-0.00070681 -0.00377776 -0.00202392 -0.00279544 -0.00073123]
 [-0.00601651 -0.0016076  -0.00421142 -0.00152572 -0.0053069 ]] 
Episode: 96: [[-0.00796741  0.0016616  -0.00753621 -0.0048803  -0.0075475 ]
 [-0.00595953 -0.00095769 -0.00445227 -0.00399151 -0.01125202]
 [-0.0066131   0.00611579 -0.00744332  0.00113047 -0.00191071]
 [-0.00077248 -0.00378552 -0.00204942 -0.00274156 -0.00070708]
 [-0.00603363 -0.00161017 -0.00421981 -0.00151802 -0.00529067]] 
Episode: 97: [[-0.00792502  0.00155901 -0.00774616 -0.0047556  -0.00745044]
 [-0.00594453 -0.00096515 -0.00446977 -0.00395625 -0.01138652]
 [-0.00667606  0.00611131 -0.00750544  0.00126013 -0.00182917]
 [-0.0008322  -0.00379273 -0.0020726  -0.00269338 -0.00068418]
 [-0.00605017 -0.00161245 -0.00422744 -0.00151134 -0.00527837]] 
Episode: 98: [[-0.00787725  0.00146727 -0.00796626 -0.0046746  -0.00735894]
 [-0.00593433 -0.00097248 -0.00449859 -0.00389959 -0.01154251]
 [-0.00673641  0.00610691 -0.00756711  0.00139072 -0.00174311]
 [-0.00088692 -0.0037992  -0.00209557 -0.00264622 -0.00066195]
 [-0.00606694 -0.00161436 -0.00423495 -0.00150888 -0.00526865]] 
Episode: 99: [[-0.00786937  0.00138103 -0.00820379 -0.00457055 -0.00724446]
 [-0.00592937 -0.00098036 -0.00453218 -0.00382077 -0.01168864]
 [-0.00679513  0.00610195 -0.00763192  0.00152142 -0.00165349]
 [-0.00094162 -0.00380469 -0.00211652 -0.00259604 -0.00063218]
 [-0.00608285 -0.00161564 -0.00424217 -0.00150892 -0.00525866]] 
Episode: 100: [[-0.00788805  0.00130634 -0.00845252 -0.00450812 -0.00715556]
 [-0.00593426 -0.00098417 -0.00456784 -0.00375109 -0.01185021]
 [-0.00685671  0.0061001  -0.00769338  0.00162466 -0.00159374]
 [-0.00099252 -0.00380974 -0.00213609 -0.00256473 -0.00060038]
 [-0.00610118 -0.00161707 -0.00424934 -0.0015044  -0.00524755]] 
Episode: 101: [[-0.00793984  0.00124941 -0.00864983 -0.00448309 -0.00710791]
 [-0.00595346 -0.00098708 -0.00459402 -0.00369718 -0.01199081]
 [-0.00692163  0.0060983  -0.00774535  0.00171524 -0.00156487]
 [-0.00103764 -0.00381441 -0.00215417 -0.00253669 -0.00057151]
 [-0.00611942 -0.00161843 -0.0042554  -0.00150185 -0.00524065]] 
Episode: 102: [[-0.00799694  0.00120821 -0.00886677 -0.00447914 -0.0070328 ]
 [-0.00596817 -0.00098684 -0.00463301 -0.00368506 -0.01215257]
 [-0.00697685  0.00609352 -0.00780505  0.00181801 -0.00153672]
 [-0.00108592 -0.00382042 -0.00217702 -0.00250179 -0.00054169]
 [-0.00613489 -0.00161885 -0.00426214 -0.00150081 -0.00522381]] 
Episode: 103: [[-0.00804519  0.00117056 -0.00906285 -0.00450681 -0.00699749]
 [-0.00598708 -0.00098608 -0.00467031 -0.00370092 -0.01230122]
 [-0.00702361  0.00608764 -0.00786105  0.00191374 -0.00151757]
 [-0.00112863 -0.00382595 -0.00219882 -0.00246675 -0.00051844]
 [-0.00614773 -0.001619   -0.00426826 -0.0015048  -0.005216  ]] 
Episode: 104: [[-0.00812382  0.00114356 -0.0092684  -0.00450049 -0.00696317]
 [-0.00600478 -0.00098358 -0.0047215  -0.00374014 -0.01244362]
 [-0.00708441  0.00608217 -0.00792505  0.00198095 -0.00152947]
 [-0.0011826  -0.00382969 -0.00221877 -0.00243411 -0.00049116]
 [-0.00616061 -0.00161924 -0.0042749  -0.0015045  -0.00521035]] 
Episode: 105: [[-0.00822967  0.00111819 -0.00946129 -0.00452601 -0.00692076]
 [-0.00603129 -0.00098082 -0.00476798 -0.00377795 -0.01257638]
 [-0.00714291  0.00607703 -0.00798668  0.00204184 -0.00153222]
 [-0.00123019 -0.00383345 -0.00223873 -0.00240451 -0.00046485]
 [-0.00617312 -0.00161957 -0.00428131 -0.00150436 -0.00520555]] 
Episode: 106: [[-0.00835991  0.00109365 -0.00967193 -0.00458016 -0.00685012]
 [-0.00605121 -0.00097609 -0.00482945 -0.00384835 -0.01268702]
 [-0.00720006  0.0060732  -0.0080537   0.00208349 -0.00152993]
 [-0.00127377 -0.00383687 -0.00225915 -0.00236988 -0.00045368]
 [-0.00618459 -0.00162018 -0.00428777 -0.0015034  -0.00520144]] 
Episode: 107: [[-0.00844181  0.00104562 -0.00987551 -0.0045977  -0.0067541 ]
 [-0.00607236 -0.00097157 -0.0048864  -0.0039093  -0.01279049]
 [-0.00725875  0.00606967 -0.00811824  0.00211996 -0.00151108]
 [-0.00130962 -0.00384012 -0.00227946 -0.00233547 -0.00044154]
 [-0.00619511 -0.00162106 -0.00429418 -0.00149902 -0.00519389]] 
Episode: 108: [[-0.00848038  0.00100381 -0.01008381 -0.00464464 -0.00670022]
 [-0.00610318 -0.00096929 -0.00494483 -0.00397747 -0.01291489]
 [-0.00730622  0.00606681 -0.00818446  0.00213732 -0.00151529]
 [-0.00134188 -0.0038438  -0.00230027 -0.00229679 -0.00046129]
 [-0.00620225 -0.00162189 -0.00430227 -0.00149879 -0.00519922]] 
Episode: 109: [[-0.00850646  0.00096474 -0.01027619 -0.00471804 -0.0066842 ]
 [-0.00613499 -0.0009672  -0.00499864 -0.00403299 -0.01303025]
 [-0.00734884  0.00606421 -0.00824551  0.00214896 -0.00151996]
 [-0.00137263 -0.00384729 -0.00231936 -0.00225429 -0.00048353]
 [-0.00620832 -0.00162259 -0.00430993 -0.00149911 -0.00520301]] 
Episode: 110: [[-0.00849479  0.00090776 -0.01048928 -0.00475292 -0.00663739]
 [-0.0061418  -0.00097179 -0.00506409 -0.00408339 -0.01309738]
 [-0.00740049  0.00605643 -0.00831863  0.00219203 -0.0014793 ]
 [-0.00142521 -0.0038512  -0.00233654 -0.0022619  -0.0005256 ]
 [-0.00622303 -0.00162349 -0.0043183  -0.00147177 -0.0051824 ]] 
Episode: 111: [[-0.00844924  0.00080891 -0.01072079 -0.00475317 -0.00656291]
 [-0.00610323 -0.00099295 -0.00513024 -0.00409158 -0.01319402]
 [-0.00750228  0.00604325 -0.00840475  0.00218518 -0.00139833]
 [-0.00154646 -0.0038574  -0.00236267 -0.00232621 -0.00062026]
 [-0.00625215 -0.00162558 -0.00432403 -0.00151348 -0.00517833]] 
Episode: 112: [[-0.00837332  0.00065729 -0.01096868 -0.00472227 -0.00646358]
 [-0.00602431 -0.00099101 -0.00522137 -0.00413589 -0.01331708]
 [-0.00753761  0.00603147 -0.00851468  0.00213397 -0.00128154]
 [-0.00163672 -0.00386414 -0.00240269 -0.00244276 -0.00070363]
 [-0.00631    -0.00162806 -0.00433076 -0.00151586 -0.00514193]] 
Episode: 113: [[-0.00834005  0.00049046 -0.01123112 -0.00466335 -0.00640658]
 [-0.0059603  -0.00098544 -0.00531049 -0.00421255 -0.01340398]
 [-0.00756859  0.00602022 -0.00861905  0.0020554  -0.00113293]
 [-0.00172816 -0.00387142 -0.0024418  -0.0025561  -0.00073476]
 [-0.00637031 -0.00163063 -0.00433713 -0.00152792 -0.00510841]] 
Episode: 114: [[-0.00827528  0.00027962 -0.01150648 -0.00457925 -0.00638762]
 [-0.00585865 -0.00097768 -0.00539846 -0.00424459 -0.01351827]
 [-0.00758704  0.00600222 -0.00873125  0.00194032 -0.00095605]
 [-0.00182588 -0.00387568 -0.00247845 -0.00259777 -0.0008216 ]
 [-0.00642186 -0.00163385 -0.00434335 -0.00146119 -0.00504485]] 
Episode: 115: [[-8.1822621e-03  3.0657429e-05 -1.1713518e-02 -4.4724951e-03
  -6.3382955e-03]
 [-5.8117844e-03 -1.0542864e-03 -5.5398135e-03 -4.2366632e-03
  -1.3657089e-02]
 [-7.6085031e-03  5.9499419e-03 -8.8064419e-03  1.7927886e-03
  -8.4131217e-04]
 [-1.9857956e-03 -3.8612739e-03 -2.5095800e-03 -2.6929700e-03
  -8.4029097e-04]
 [-6.5316912e-03 -1.6351676e-03 -4.3416140e-03 -1.4779929e-03
  -5.0496808e-03]] 
Episode: 116: [[-0.00806392 -0.00020355 -0.01193182 -0.00434537 -0.00632619]
 [-0.00580599 -0.00112682 -0.00567039 -0.00419293 -0.01376116]
 [-0.00762587  0.00590349 -0.00887701  0.00163594 -0.00069518]
 [-0.00214947 -0.00384849 -0.00253878 -0.00278215 -0.00087604]
 [-0.00663208 -0.00163633 -0.00434063 -0.0014873  -0.00502667]] 
Episode: 117: [[-0.00797964 -0.00043178 -0.01213839 -0.00419992 -0.00634754]
 [-0.00581808 -0.00119366 -0.00580112 -0.00412783 -0.01383503]
 [-0.00765028  0.00586062 -0.00895273  0.001506   -0.00052112]
 [-0.00229701 -0.00383769 -0.00256817 -0.00285922 -0.00088861]
 [-0.00672524 -0.0016374  -0.00434089 -0.00148932 -0.00499882]] 
Episode: 118: [[-0.00786914 -0.00063911 -0.01232708 -0.00407637 -0.00639814]
 [-0.00583577 -0.00125211 -0.00591574 -0.00410594 -0.0139087 ]
 [-0.0076706   0.00582113 -0.00902341  0.00140062 -0.00036929]
 [-0.00242882 -0.00382827 -0.00259659 -0.00291776 -0.0008959 ]
 [-0.00680538 -0.00163844 -0.00434155 -0.00149422 -0.00497491]] 
Episode: 119: [[-0.00773511 -0.0008417  -0.01250128 -0.00393402 -0.00641145]
 [-0.00585387 -0.0013049  -0.00602062 -0.00408313 -0.01399506]
 [-0.00769121  0.00578556 -0.00909441  0.00130849 -0.00022367]
 [-0.00254816 -0.00381962 -0.00262438 -0.00296659 -0.0008895 ]
 [-0.00687703 -0.00163937 -0.00434274 -0.00149568 -0.00495629]] 
Episode: 120: [[-0.00764934 -0.00102856 -0.01265321 -0.00383713 -0.00639824]
 [-0.00588048 -0.00135405 -0.00611696 -0.00406611 -0.01404445]
 [-0.00771547  0.0057531  -0.00915909  0.00121452 -0.0001101 ]
 [-0.00265711 -0.00381172 -0.00264952 -0.00301163 -0.00089238]
 [-0.00693941 -0.00164032 -0.00434404 -0.0014991  -0.00494101]] 
Episode: 121: [[-7.5672958e-03 -1.1942874e-03 -1.2792254e-02 -3.7811294e-03
  -6.3572470e-03]
 [-5.9045223e-03 -1.3989179e-03 -6.2047779e-03 -4.0498185e-03
  -1.4093634e-02]
 [-7.7420310e-03  5.7242322e-03 -9.2202350e-03  1.1312480e-03
  -1.3750092e-05]
 [-2.7538161e-03 -3.8045465e-03 -2.6723009e-03 -3.0569411e-03
  -8.9651969e-04]
 [-6.9959336e-03 -1.6411748e-03 -4.3454659e-03 -1.5049191e-03
  -4.9298382e-03]] 
Episode: 122: [[-7.4747982e-03 -1.3535589e-03 -1.2937646e-02 -3.7194253e-03
  -6.2963539e-03]
 [-5.9250146e-03 -1.4430132e-03 -6.2885960e-03 -4.0120091e-03
  -1.4106579e-02]
 [-7.7630384e-03  5.6986636e-03 -9.2771277e-03  1.0446988e-03
   4.4585566e-05]
 [-2.8364225e-03 -3.7971707e-03 -2.6946287e-03 -3.0950718e-03
  -8.9329423e-04]
 [-7.0441570e-03 -1.6420460e-03 -4.3478291e-03 -1.5046527e-03
  -4.9227267e-03]] 
Episode: 123: [[-7.3568132e-03 -1.5038506e-03 -1.3091272e-02 -3.6951867e-03
  -6.2093074e-03]
 [-5.9295041e-03 -1.4849261e-03 -6.3811289e-03 -3.9988575e-03
  -1.4141800e-02]
 [-7.7914833e-03  5.6743259e-03 -9.3419952e-03  9.5272681e-04
   6.4173029e-05]
 [-2.9079225e-03 -3.7890810e-03 -2.7180547e-03 -3.1407198e-03
  -8.9885591e-04]
 [-7.0834272e-03 -1.6427280e-03 -4.3506781e-03 -1.5097009e-03
  -4.9339123e-03]] 
Episode: 124: [[-7.2797737e-03 -1.6388325e-03 -1.3251814e-02 -3.7046422e-03
  -6.1632777e-03]
 [-5.9324699e-03 -1.5236943e-03 -6.4761392e-03 -4.0241810e-03
  -1.4197044e-02]
 [-7.8200623e-03  5.6513590e-03 -9.4068926e-03  8.8424160e-04
   7.7417964e-05]
 [-2.9719607e-03 -3.7809564e-03 -2.7419645e-03 -3.1819486e-03
  -9.0004416e-04]
 [-7.1199816e-03 -1.6431821e-03 -4.3543102e-03 -1.5360981e-03
  -4.9520181e-03]] 
Episode: 125: [[-7.2299019e-03 -1.7573038e-03 -1.3397732e-02 -3.7443994e-03
  -6.1124079e-03]
 [-5.9431307e-03 -1.5585604e-03 -6.5629454e-03 -4.0531689e-03
  -1.4257078e-02]
 [-7.8481352e-03  5.6306357e-03 -9.4677638e-03  8.2390860e-04
   9.0509820e-05]
 [-3.0314338e-03 -3.7736341e-03 -2.7633712e-03 -3.2224602e-03
  -9.0278673e-04]
 [-7.1536889e-03 -1.6436350e-03 -4.3577789e-03 -1.5586240e-03
  -4.9669286e-03]] 
Episode: 126: [[-0.0072079  -0.00186228 -0.01352996 -0.00381141 -0.00609902]
 [-0.00594618 -0.0015908  -0.00664629 -0.00404751 -0.01433322]
 [-0.00787148  0.0056114  -0.00952593  0.00077937  0.00012044]
 [-0.00308469 -0.00376716 -0.00278339 -0.00326364 -0.00089888]
 [-0.0071848  -0.00164405 -0.00436149 -0.00158464 -0.00498008]] 
Episode: 127: [[-0.00721938 -0.00195581 -0.01366261 -0.00389517 -0.00609904]
 [-0.00596363 -0.00162178 -0.00673064 -0.00403059 -0.01440271]
 [-0.00789929  0.00559166 -0.00957869  0.00076667  0.00015765]
 [-0.0031396  -0.00376114 -0.00280289 -0.00330187 -0.00089178]
 [-0.00721618 -0.00164405 -0.00436524 -0.00160993 -0.00499354]] 
Episode: 128: [[-0.00726253 -0.00205273 -0.01378587 -0.00393924 -0.00606661]
 [-0.00597783 -0.00165036 -0.00681158 -0.0039974  -0.01444186]
 [-0.00792534  0.00557364 -0.00963152  0.00075247  0.00018498]
 [-0.00318844 -0.00375577 -0.00282083 -0.00333171 -0.00088835]
 [-0.00724461 -0.00164415 -0.00436861 -0.00163472 -0.00500926]] 
Episode: 129: [[-0.00726638 -0.00214709 -0.01389824 -0.00394763 -0.00606988]
 [-0.00595252 -0.00167827 -0.00688306 -0.00393018 -0.01445996]
 [-0.00793151  0.00555687 -0.00968018  0.00076333  0.00019976]
 [-0.00322696 -0.00375095 -0.00283692 -0.00335779 -0.00088039]
 [-0.00726446 -0.00164401 -0.00437225 -0.0016501  -0.00502019]] 
Episode: 130: [[-0.00730472 -0.00222894 -0.01401403 -0.00398643 -0.00610522]
 [-0.00595566 -0.00170644 -0.00696017 -0.00390715 -0.01451355]
 [-0.00793809  0.00554099 -0.00973448  0.00079245  0.00025763]
 [-0.00326374 -0.00374695 -0.00285357 -0.00337157 -0.0008604 ]
 [-0.0072835  -0.00164365 -0.00437616 -0.00167385 -0.00504143]] 
Episode: 131: [[-0.00737401 -0.00230083 -0.01409443 -0.00405259 -0.00616939]
 [-0.00598458 -0.00173058 -0.007025   -0.00384922 -0.01459894]
 [-0.00792697  0.00553156 -0.00979161  0.00085691  0.00027572]
 [-0.00329509 -0.00374211 -0.00286732 -0.00337527 -0.0008372 ]
 [-0.00729537 -0.0016427  -0.00437951 -0.00170678 -0.00511218]] 
Episode: 132: [[-0.00747105 -0.00237447 -0.01417545 -0.00408087 -0.00619474]
 [-0.00601811 -0.00175362 -0.00708455 -0.0037865  -0.01466265]
 [-0.00792952  0.00552308 -0.00984479  0.00090503  0.00031   ]
 [-0.00332645 -0.00373793 -0.00288093 -0.00337642 -0.00082606]
 [-0.00730627 -0.00164191 -0.00438375 -0.00172927 -0.00517349]] 
Episode: 133: [[-0.00754458 -0.00242859 -0.0142419  -0.00413754 -0.00624989]
 [-0.00603823 -0.0017714  -0.00714531 -0.00376748 -0.01470096]
 [-0.00792977  0.00551597 -0.00989655  0.00093368  0.00032399]
 [-0.00335497 -0.00373252 -0.00289416 -0.00338165 -0.00082663]
 [-0.00731498 -0.00164045 -0.00438857 -0.00176393 -0.00523379]] 
Episode: 134: [[-0.00757583 -0.00241078 -0.01434366 -0.00415731 -0.00626716]
 [-0.00610246 -0.00178408 -0.00720569 -0.00371318 -0.01477276]
 [-0.00798947  0.00554427 -0.00991236  0.00091259  0.00029192]
 [-0.00330201 -0.00371752 -0.002893   -0.0033244  -0.0008056 ]
 [-0.00737326 -0.00163304 -0.00438478 -0.00187338 -0.00537065]] 
Episode: 135: [[-0.0076387  -0.00241695 -0.01446262 -0.0041439  -0.006315  ]
 [-0.0061582  -0.00179624 -0.00726123 -0.00362728 -0.01487454]
 [-0.00804148  0.00556909 -0.00992817  0.00089227  0.00030758]
 [-0.0032608  -0.00370399 -0.00289224 -0.00325735 -0.00076907]
 [-0.00742533 -0.00162655 -0.00438232 -0.00197268 -0.00547561]] 
Episode: 136: [[-0.00766047 -0.00244468 -0.01461133 -0.00410064 -0.00632575]
 [-0.00622396 -0.00181186 -0.00733093 -0.00351307 -0.01492872]
 [-0.00810206  0.00558909 -0.00996247  0.00089166  0.00036578]
 [-0.00323422 -0.00369309 -0.0028964  -0.00319157 -0.00076755]
 [-0.00747949 -0.00162148 -0.00438112 -0.00206064 -0.00558362]] 
Episode: 137: [[-0.00764534 -0.00248885 -0.01478657 -0.0040929  -0.00630316]
 [-0.00623652 -0.00183855 -0.00742125 -0.00337352 -0.01494023]
 [-0.00810426  0.00561084 -0.01002209  0.00093788  0.00037395]
 [-0.00316264 -0.00368196 -0.00291093 -0.00308409 -0.00070408]
 [-0.00750673 -0.00161592 -0.00438126 -0.00206017 -0.00572436]] 
Episode: 138: [[-0.00764281 -0.00254904 -0.01495243 -0.00405476 -0.0062506 ]
 [-0.00625785 -0.00186315 -0.00750268 -0.00321126 -0.01492888]
 [-0.00810949  0.00562969 -0.01007916  0.00099986  0.00040485]
 [-0.00310172 -0.00367207 -0.0029263  -0.00297627 -0.00063994]
 [-0.00753193 -0.00161104 -0.00438183 -0.0020565  -0.00584999]] 
Episode: 139: [[-0.00767531 -0.0026059  -0.01513    -0.00405161 -0.00623554]
 [-0.00630488 -0.00188046 -0.0075903  -0.00310236 -0.01495583]
 [-0.00813307  0.00564593 -0.01014178  0.00110193  0.00045361]
 [-0.00306289 -0.00366333 -0.00294647 -0.00286577 -0.00058008]
 [-0.00756103 -0.00160702 -0.00438567 -0.00203145 -0.0059529 ]] 
Episode: 140: [[-0.0076698  -0.00264979 -0.01531874 -0.00407993 -0.00618979]
 [-0.0063033  -0.00188901 -0.00768413 -0.0030413  -0.01501709]
 [-0.00813334  0.00566045 -0.01021156  0.00120129  0.00045336]
 [-0.0030153  -0.00365279 -0.00296812 -0.00280797 -0.00051384]
 [-0.00757772 -0.00160267 -0.00439043 -0.00200552 -0.00604705]] 
Episode: 141: [[-0.00763017 -0.00269365 -0.01551117 -0.00409055 -0.00611646]
 [-0.00627918 -0.00189378 -0.00779132 -0.0030025  -0.01510911]
 [-0.00810792  0.00567149 -0.0102948   0.00133674  0.00048306]
 [-0.00296915 -0.00364438 -0.00299051 -0.00271944 -0.00040818]
 [-0.00759379 -0.001599   -0.0043968  -0.00200518 -0.00616353]] 
Episode: 142: [[-0.00755992 -0.0027977  -0.01572574 -0.00413135 -0.00601834]
 [-0.00625608 -0.0018913  -0.00790289 -0.00293086 -0.01515484]
 [-0.00806645  0.00567646 -0.01037449  0.00150428  0.00053616]
 [-0.00294572 -0.00363477 -0.00301284 -0.00265821 -0.00027646]
 [-0.00759972 -0.00159719 -0.00440266 -0.0020042  -0.00629449]] 
Episode: 143: [[-7.4621807e-03 -2.9379167e-03 -1.5960004e-02 -4.1368282e-03
  -5.8979294e-03]
 [-6.2816865e-03 -1.8747970e-03 -8.0018379e-03 -2.8468536e-03
  -1.5232769e-02]
 [-8.0889985e-03  5.6809071e-03 -1.0435759e-02  1.6082496e-03
   6.2754063e-04]
 [-2.9839673e-03 -3.6291354e-03 -3.0463755e-03 -2.6651411e-03
  -9.7807351e-05]
 [-7.6434910e-03 -1.5993371e-03 -4.4086431e-03 -1.9260587e-03
  -6.3481373e-03]] 
Episode: 144: [[-7.3397812e-03 -3.0826184e-03 -1.6211811e-02 -4.1105412e-03
  -5.7574916e-03]
 [-6.3086925e-03 -1.8601462e-03 -8.0955522e-03 -2.7345931e-03
  -1.5339545e-02]
 [-8.1184367e-03  5.6836321e-03 -1.0497743e-02  1.6974793e-03
   7.5303117e-04]
 [-3.0261993e-03 -3.6249266e-03 -3.0783892e-03 -2.6564684e-03
   5.7751011e-05]
 [-7.6836292e-03 -1.6012850e-03 -4.4141649e-03 -1.8564059e-03
  -6.4106495e-03]] 
Episode: 145: [[-0.00719525 -0.00319103 -0.0164417  -0.0041181  -0.00566328]
 [-0.0063053  -0.00184245 -0.00817333 -0.00262178 -0.01547217]
 [-0.00813516  0.0056857  -0.01054722  0.00177216  0.00086796]
 [-0.00306265 -0.00362078 -0.00310606 -0.00266969  0.00017583]
 [-0.00771199 -0.00160376 -0.00441983 -0.00176829 -0.00644238]] 
Episode: 146: [[-0.00703087 -0.00328937 -0.01667264 -0.0040937  -0.00561063]
 [-0.00630636 -0.00182918 -0.00824737 -0.0025573  -0.01562544]
 [-0.00815284  0.00568767 -0.01059524  0.00185099  0.00101454]
 [-0.00309271 -0.00361706 -0.00313239 -0.0026673   0.00027737]
 [-0.00774095 -0.00160625 -0.00442562 -0.00166425 -0.00645745]] 
Episode: 147: [[-0.00684867 -0.00337656 -0.01689721 -0.00404056 -0.00553119]
 [-0.00629861 -0.00181752 -0.00831959 -0.00248731 -0.01572653]
 [-0.00816229  0.00568736 -0.0106425   0.00193911  0.00116931]
 [-0.00312142 -0.00361405 -0.003156   -0.00264879  0.00036163]
 [-0.00776453 -0.00160826 -0.00443155 -0.00157444 -0.00646516]] 
Episode: 148: [[-0.00671443 -0.00345522 -0.01706849 -0.00402392 -0.00549179]
 [-0.00629364 -0.00180584 -0.00839251 -0.00243578 -0.01585389]
 [-0.00817525  0.00568742 -0.01069645  0.00204044  0.00133625]
 [-0.00314864 -0.00361188 -0.00318104 -0.00263908  0.0004352 ]
 [-0.0077806  -0.00160993 -0.00443896 -0.00149536 -0.00645081]] 
Episode: 149: [[-0.00655936 -0.00352322 -0.01725689 -0.00404013 -0.00542431]
 [-0.00627096 -0.00179238 -0.00849341 -0.00235248 -0.01595816]
 [-0.00817376  0.00568672 -0.01075693  0.00213605  0.00145362]
 [-0.00316797 -0.00360938 -0.00320295 -0.00263848  0.00052971]
 [-0.00778672 -0.0016106  -0.00444697 -0.00145584 -0.00645048]] 
Episode: 150: [[-0.00638561 -0.00358204 -0.01742912 -0.00402354 -0.00533158]
 [-0.00624251 -0.00178035 -0.00858736 -0.00224924 -0.01602067]
 [-0.0081702   0.00568586 -0.0108133   0.00223271  0.00155945]
 [-0.00318296 -0.00360726 -0.00322328 -0.00264058  0.00061239]
 [-0.00778959 -0.00161132 -0.00445425 -0.00142325 -0.0064541 ]] 
Episode: 151: [[-0.00626372 -0.00361284 -0.01757704 -0.00403978 -0.00528017]
 [-0.00621264 -0.00177016 -0.00867211 -0.00217599 -0.01611341]
 [-0.00816025  0.00568452 -0.01086834  0.00230144  0.00168917]
 [-0.00319526 -0.00360554 -0.00324258 -0.00265225  0.00068364]
 [-0.00779397 -0.00161186 -0.00445983 -0.00140491 -0.00646476]] 
Episode: 152: [[-0.00611986 -0.00365244 -0.01770853 -0.00402324 -0.00520194]
 [-0.00615292 -0.00176368 -0.00875117 -0.00208416 -0.01616022]
 [-0.00814296  0.00568227 -0.01092804  0.00238202  0.00184902]
 [-0.00319784 -0.00360445 -0.00326226 -0.00265077  0.0007612 ]
 [-0.00778401 -0.00161273 -0.00446749 -0.00137149 -0.00645072]] 
Episode: 153: [[-0.00602477 -0.00368896 -0.01784757 -0.00403949 -0.00516354]
 [-0.0061179  -0.00175476 -0.00883664 -0.00200673 -0.01616582]
 [-0.00814098  0.00567905 -0.01098927  0.00246508  0.00202013]
 [-0.0032089  -0.00360448 -0.00328345 -0.00265606  0.00080988]
 [-0.00778132 -0.00161421 -0.00447565 -0.00131712 -0.00643889]] 
Episode: 154: [[-0.00591374 -0.00372544 -0.01798296 -0.00405209 -0.00509703]
 [-0.00608227 -0.00174557 -0.00891579 -0.00194562 -0.01617898]
 [-0.00813475  0.00567641 -0.01104674  0.00253376  0.00216699]
 [-0.00321879 -0.00360496 -0.0033034  -0.00266046  0.00085034]
 [-0.00777694 -0.00161568 -0.00448392 -0.00127026 -0.00643071]] 
Episode: 155: [[-0.00579837 -0.0037784  -0.0181193  -0.00403218 -0.00500525]
 [-0.00605551 -0.00174084 -0.00899168 -0.00185341 -0.01618333]
 [-0.00812736  0.0056736  -0.01110464  0.00260909  0.00232511]
 [-0.00322884 -0.00360533 -0.00332293 -0.00266501  0.00089782]
 [-0.00777605 -0.00161734 -0.00449274 -0.00121822 -0.00641093]] 
Episode: 156: [[-0.00568011 -0.00382945 -0.01824627 -0.00398305 -0.00489075]
 [-0.00603137 -0.00173646 -0.00905788 -0.00177701 -0.01616879]
 [-0.00811921  0.0056713  -0.01115622  0.00267797  0.00246159]
 [-0.00323717 -0.00360548 -0.00334033 -0.00266951  0.00093569]
 [-0.00777435 -0.00161846 -0.00450007 -0.00117437 -0.00640012]] 
Episode: 157: [[-0.0056082  -0.00388449 -0.01836839 -0.00394467 -0.00481967]
 [-0.00601997 -0.00173242 -0.00912149 -0.00170924 -0.01614557]
 [-0.00811374  0.00566906 -0.01120718  0.00273499  0.00260357]
 [-0.00324538 -0.00360575 -0.00335845 -0.00267639  0.0009731 ]
 [-0.00777561 -0.00161922 -0.00450771 -0.00113384 -0.00638997]] 
Episode: 158: [[-0.0055351  -0.0039359  -0.01852033 -0.00392522 -0.00475475]
 [-0.00601111 -0.0017345  -0.00918849 -0.00166511 -0.01611064]
 [-0.00811868  0.00566636 -0.01126195  0.00278649  0.00270484]
 [-0.00325767 -0.00360598 -0.00337896 -0.00270034  0.000999  ]
 [-0.00777442 -0.00162059 -0.00451727 -0.00109331 -0.00638033]] 
Episode: 159: [[-0.0054349  -0.00398263 -0.01866557 -0.00390183 -0.00466433]
 [-0.00599363 -0.00173539 -0.00926563 -0.00164187 -0.01604235]
 [-0.00812471  0.00566304 -0.01131877  0.00281683  0.00275174]
 [-0.00326116 -0.00360613 -0.00340009 -0.00272645  0.00100155]
 [-0.00776544 -0.00162202 -0.00452791 -0.00104983 -0.00639607]] 
Episode: 160: [[-0.00537927 -0.00402365 -0.01883869 -0.00391229 -0.00455099]
 [-0.00599131 -0.00173658 -0.00934461 -0.00158333 -0.01595237]
 [-0.00813828  0.00565768 -0.01138063  0.00284651  0.00279289]
 [-0.00327187 -0.00360705 -0.00342414 -0.00274524  0.00099236]
 [-0.00775948 -0.00162278 -0.00453962 -0.00100796 -0.00641136]] 
Episode: 161: [[-0.00534646 -0.00408138 -0.01900941 -0.0038902  -0.00441704]
 [-0.00599896 -0.00174261 -0.00941378 -0.00151924 -0.01586936]
 [-0.00815227  0.00565248 -0.01144152  0.00287538  0.00284436]
 [-0.00328152 -0.00360844 -0.00344851 -0.00275902  0.00098722]
 [-0.00775127 -0.00162377 -0.00455196 -0.00096741 -0.00642117]] 
Episode: 162: [[-0.00528248 -0.00413051 -0.01917727 -0.00383885 -0.00426458]
 [-0.00600112 -0.00175028 -0.00947757 -0.00147261 -0.01576801]
 [-0.00816752  0.00564456 -0.01150376  0.00290573  0.0028749 ]
 [-0.00329076 -0.00361002 -0.00347196 -0.00276688  0.0009801 ]
 [-0.00774703 -0.00162465 -0.00456428 -0.00093862 -0.00643972]] 
Episode: 163: [[-0.00522552 -0.00418431 -0.01936214 -0.00376118 -0.00410826]
 [-0.00600693 -0.00176003 -0.00954338 -0.00141318 -0.01567465]
 [-0.00818451  0.0056363  -0.01157017  0.00294157  0.00291656]
 [-0.00329884 -0.00361166 -0.00349594 -0.00277493  0.00097701]
 [-0.00774341 -0.00162551 -0.00457757 -0.00090744 -0.00645268]] 
Episode: 164: [[-0.00518144 -0.00423674 -0.01953344 -0.00372276 -0.00399965]
 [-0.00600799 -0.00176964 -0.0096053  -0.00136111 -0.01558536]
 [-0.00819946  0.00562874 -0.01163453  0.00297547  0.00295435]
 [-0.00330763 -0.00361341 -0.00351919 -0.00278207  0.00097462]
 [-0.00774181 -0.00162642 -0.00458975 -0.00088033 -0.00646594]] 
Episode: 165: [[-0.00517647 -0.00428909 -0.01967709 -0.00371964 -0.00393396]
 [-0.00601812 -0.00177976 -0.00966802 -0.00131504 -0.01550884]
 [-0.00821391  0.00562208 -0.01169884  0.0029946   0.00297369]
 [-0.00331585 -0.00361516 -0.00354175 -0.00279337  0.00096704]
 [-0.0077381  -0.0016276  -0.00460173 -0.00085839 -0.00647664]] 
Episode: 166: [[-0.00518985 -0.00433711 -0.01982356 -0.00374828 -0.00384287]
 [-0.00602564 -0.00179063 -0.00972747 -0.00127202 -0.01543199]
 [-0.00822799  0.0056152  -0.01176663  0.0030212   0.00299411]
 [-0.00332289 -0.00361663 -0.00356498 -0.00279878  0.00096384]
 [-0.00773358 -0.00162831 -0.00461361 -0.00084297 -0.00649252]] 
Episode: 167: [[-0.00522094 -0.00437713 -0.01998721 -0.00380547 -0.00379291]
 [-0.00602954 -0.00180216 -0.00979167 -0.00125266 -0.01534147]
 [-0.00824682  0.00560983 -0.01183147  0.00304313  0.00298897]
 [-0.00333227 -0.00361763 -0.0035873  -0.00281023  0.00094767]
 [-0.00773075 -0.00162907 -0.00462539 -0.0008347  -0.0065177 ]] 
Episode: 168: [[-0.0052141  -0.00444309 -0.02013511 -0.00382551 -0.003716  ]
 [-0.00604538 -0.00181923 -0.00985838 -0.00119826 -0.01522261]
 [-0.00826926  0.00560389 -0.0119077   0.00307491  0.00302185]
 [-0.00334225 -0.00362042 -0.00361224 -0.00280339  0.00093363]
 [-0.00773509 -0.00163022 -0.00463883 -0.00080661 -0.00651549]] 
Episode: 169: [[-0.0052427  -0.00450256 -0.02028274 -0.00381213 -0.00361486]
 [-0.00607174 -0.00183757 -0.00993134 -0.00115753 -0.01510607]
 [-0.00830412  0.00559748 -0.01198268  0.00311404  0.00305799]
 [-0.00335814 -0.00362464 -0.00363927 -0.00277674  0.00092476]
 [-0.00774675 -0.00163155 -0.0046516  -0.0007707  -0.0065107 ]] 
Episode: 170: [[-0.00524659 -0.00456422 -0.02042369 -0.00376869 -0.00353717]
 [-0.00610018 -0.00185371 -0.01000081 -0.00109227 -0.01500366]
 [-0.00833589  0.00559105 -0.01205406  0.0031526   0.00308829]
 [-0.00337563 -0.00362891 -0.00366499 -0.00274775  0.00092664]
 [-0.00776135 -0.00163322 -0.00466361 -0.00073216 -0.0064969 ]] 
Episode: 171: [[-0.00527593 -0.00463007 -0.02056037 -0.00369822 -0.0034993 ]
 [-0.00614678 -0.00186768 -0.01007588 -0.00102848 -0.01488429]
 [-0.00836812  0.00558566 -0.01212704  0.00318134  0.00312559]
 [-0.00339835 -0.0036332  -0.00368767 -0.00272377  0.00092126]
 [-0.00777538 -0.00163493 -0.00467475 -0.00069393 -0.0064803 ]] 
Episode: 172: [[-0.00531371 -0.00468889 -0.02068553 -0.00364419 -0.00343322]
 [-0.00619023 -0.00187883 -0.01014416 -0.000975   -0.01477959]
 [-0.00839616  0.00558071 -0.01219339  0.0032069   0.00315122]
 [-0.00341776 -0.00363714 -0.00370733 -0.00270407  0.00091269]
 [-0.00778917 -0.0016364  -0.0046848  -0.00066314 -0.00646835]] 
Episode: 173: [[-0.0053128  -0.00474546 -0.02078856 -0.00356411 -0.00340577]
 [-0.00621992 -0.00188887 -0.01020885 -0.00094638 -0.01467544]
 [-0.00841693  0.00557657 -0.01225566  0.00323235  0.00317703]
 [-0.00343267 -0.00364046 -0.00372517 -0.00268582  0.00089523]
 [-0.00779684 -0.00163763 -0.00469418 -0.00063778 -0.00645473]] 
Episode: 174: [[-0.00527714 -0.00483434 -0.020886   -0.00346061 -0.0033491 ]
 [-0.00621045 -0.00189685 -0.0102757  -0.00088196 -0.01454392]
 [-0.00843101  0.00556931 -0.01232389  0.00328499  0.00324222]
 [-0.00343325 -0.00364306 -0.00374692 -0.0026594   0.00093214]
 [-0.00778645 -0.00163864 -0.00470386 -0.00062114 -0.00643838]] 
Episode: 175: [[-0.00527988 -0.00491653 -0.02096291 -0.00333603 -0.00333008]
 [-0.00622795 -0.00190346 -0.01033746 -0.00081411 -0.01446366]
 [-0.00845271  0.0055631  -0.01239257  0.00332437  0.00334136]
 [-0.00344892 -0.00364515 -0.00376788 -0.00265576  0.0009719 ]
 [-0.00778114 -0.00163984 -0.00471407 -0.00059194 -0.00641362]] 
Episode: 176: [[-0.00527966 -0.00499984 -0.02107518 -0.00324474 -0.00333696]
 [-0.00626104 -0.00190597 -0.01041499 -0.00074267 -0.01441035]
 [-0.00847915  0.005561   -0.01246345  0.00334146  0.00344173]
 [-0.00346638 -0.00364721 -0.003788   -0.00264451  0.000978  ]
 [-0.0077775  -0.00164146 -0.00472591 -0.00056113 -0.00638686]] 
Episode: 177: [[-0.00531162 -0.0050842  -0.02120932 -0.00313112 -0.00331115]
 [-0.00629947 -0.00192375 -0.01051207 -0.00063966 -0.01434561]
 [-0.00850209  0.00555952 -0.01253615  0.00334242  0.0035613 ]
 [-0.00348835 -0.00365205 -0.00380886 -0.00261461  0.00099186]
 [-0.00777442 -0.00164265 -0.00473781 -0.00053163 -0.00634641]] 
Episode: 178: [[-0.00533097 -0.00516397 -0.02133186 -0.00305563 -0.00325597]
 [-0.00632944 -0.00193964 -0.01060132 -0.00055098 -0.01429483]
 [-0.00852315  0.00555746 -0.0126066   0.00334705  0.00366743]
 [-0.00350412 -0.003657   -0.00382901 -0.00258524  0.00100444]
 [-0.00777174 -0.00164357 -0.0047485  -0.00050745 -0.00631245]] 
Episode: 179: [[-0.00531341 -0.00524354 -0.02148598 -0.0030192  -0.00317437]
 [-0.00636408 -0.00195643 -0.01071711 -0.0004439  -0.01423879]
 [-0.00855016  0.0055562  -0.01269214  0.00335212  0.00378212]
 [-0.00351712 -0.00366282 -0.00385187 -0.00254458  0.00100844]
 [-0.00776656 -0.00164445 -0.00475935 -0.00048947 -0.00627599]] 
Episode: 180: [[-0.00526271 -0.00530324 -0.02166424 -0.0029763  -0.00306902]
 [-0.0063698  -0.00197184 -0.01084373 -0.00034974 -0.0141921 ]
 [-0.0085692   0.00555724 -0.01277807  0.00333893  0.00386383]
 [-0.00351784 -0.00366723 -0.00387586 -0.00250443  0.00100829]
 [-0.00775947 -0.0016446  -0.00476917 -0.00047892 -0.0062491 ]] 
Episode: 181: [[-0.00522389 -0.00536371 -0.02186808 -0.00296927 -0.00300617]
 [-0.00638629 -0.00198334 -0.01096711 -0.00026443 -0.01417254]
 [-0.00858943  0.0055536  -0.01285809  0.00333927  0.00395153]
 [-0.00351634 -0.00367002 -0.00390075 -0.00248718  0.00100769]
 [-0.0077539  -0.00164529 -0.00477833 -0.00048001 -0.00622606]] 
Episode: 182: [[-0.00520399 -0.0054181  -0.02205332 -0.00298677 -0.00294139]
 [-0.00640621 -0.00199483 -0.01108223 -0.00019636 -0.014139  ]
 [-0.00861334  0.00555023 -0.01293357  0.00333752  0.00402897]
 [-0.00351451 -0.00367281 -0.00392378 -0.00247486  0.00100516]
 [-0.00774887 -0.00164585 -0.0047871  -0.00048195 -0.00620725]] 
Episode: 183: [[-0.00519317 -0.005474   -0.02223131 -0.00299708 -0.00288209]
 [-0.0064286  -0.0020049  -0.01118752 -0.00013351 -0.01409805]
 [-0.00863411  0.00554702 -0.01300128  0.00332823  0.00410077]
 [-0.00351464 -0.00367575 -0.00394535 -0.00246149  0.0010034 ]
 [-0.00774302 -0.00164659 -0.00479448 -0.0004806  -0.00618788]] 
Episode: 184: [[-5.2185934e-03 -5.5234949e-03 -2.2406651e-02 -3.0380376e-03
  -2.8608404e-03]
 [-6.4577758e-03 -2.0159930e-03 -1.1306305e-02 -6.2773761e-05
  -1.4077848e-02]
 [-8.6546848e-03  5.5430857e-03 -1.3066492e-02  3.2948544e-03
   4.1584526e-03]
 [-3.5168249e-03 -3.6775237e-03 -3.9708880e-03 -2.4182911e-03
   9.8964223e-04]
 [-7.7399011e-03 -1.6475848e-03 -4.8024724e-03 -4.7608436e-04
  -6.1707716e-03]] 
Episode: 185: [[-5.2063349e-03 -5.5989120e-03 -2.2576040e-02 -3.0432094e-03
  -2.8738179e-03]
 [-6.5137921e-03 -2.0289861e-03 -1.1419848e-02  4.0207011e-05
  -1.4098314e-02]
 [-8.6696316e-03  5.5389269e-03 -1.3130801e-02  3.2597557e-03
   4.2560906e-03]
 [-3.5437329e-03 -3.6799272e-03 -3.9970400e-03 -2.3720332e-03
   1.0103193e-03]
 [-7.7423044e-03 -1.6489727e-03 -4.8108688e-03 -4.6395056e-04
  -6.1219581e-03]] 
Episode: 186: [[-0.0052131  -0.0056751  -0.02273232 -0.00301619 -0.00289641]
 [-0.00657634 -0.00204192 -0.01152356  0.00013608 -0.01410718]
 [-0.00867944  0.00553352 -0.01318984  0.00322925  0.0043473 ]
 [-0.00356612 -0.00368264 -0.00402019 -0.00232828  0.00103081]
 [-0.0077452  -0.00164988 -0.00481866 -0.00044977 -0.00607172]] 
Episode: 187: [[-0.00525418 -0.00575658 -0.02290149 -0.00302354 -0.00294889]
 [-0.00664245 -0.0020596  -0.01162968  0.00022275 -0.01412986]
 [-0.00869679  0.0055281  -0.01325484  0.00318972  0.00443208]
 [-0.00358589 -0.00368353 -0.00404614 -0.00230345  0.00105668]
 [-0.0077503  -0.00165139 -0.00482836 -0.00043296 -0.00603394]] 
Episode: 188: [[-0.00531807 -0.00585892 -0.02309763 -0.00306181 -0.00302825]
 [-0.0067146  -0.00208372 -0.01175844  0.00031613 -0.01411946]
 [-0.00871688  0.00551891 -0.01332391  0.00318846  0.004535  ]
 [-0.00360736 -0.00368487 -0.00407494 -0.00227379  0.00106235]
 [-0.00775629 -0.00165166 -0.00484023 -0.00041786 -0.00598873]] 
Episode: 189: [[-0.00536365 -0.00595208 -0.02329594 -0.00310363 -0.00313177]
 [-0.00678292 -0.00210251 -0.01187409  0.00038106 -0.01409541]
 [-0.00873313  0.0055125  -0.01338968  0.00317838  0.00463773]
 [-0.00362461 -0.00368513 -0.00409993 -0.00225411  0.00105961]
 [-0.00776123 -0.00165218 -0.00485168 -0.00039678 -0.00594467]] 
Episode: 190: [[-0.00541353 -0.00604949 -0.02351418 -0.00310953 -0.00319278]
 [-0.00684918 -0.00212057 -0.01198015  0.00045521 -0.01405863]
 [-0.0087512   0.00550669 -0.0134535   0.00316584  0.00472223]
 [-0.00364029 -0.00368456 -0.00412471 -0.00223411  0.00106968]
 [-0.0077655  -0.00165236 -0.00486264 -0.00037829 -0.00590679]] 
Episode: 191: [[-0.00544318 -0.00614207 -0.02372903 -0.00314656 -0.00322715]
 [-0.00691062 -0.00213687 -0.01207624  0.00052711 -0.01402656]
 [-0.00877193  0.00550105 -0.01351028  0.00315669  0.00479326]
 [-0.00365498 -0.00368507 -0.00414661 -0.00221158  0.00107961]
 [-0.00776954 -0.00165242 -0.00487251 -0.00036661 -0.00587588]] 
Episode: 192: [[-0.00545303 -0.00623647 -0.0239418  -0.00314817 -0.00322592]
 [-0.00697297 -0.00214901 -0.01216845  0.00057556 -0.01397596]
 [-0.00879259  0.00549532 -0.01356246  0.00314822  0.00486254]
 [-0.003669   -0.00368642 -0.00416797 -0.00219477  0.00108146]
 [-0.00777539 -0.00165226 -0.00488201 -0.00035975 -0.00584595]] 
Episode: 193: [[-0.00548266 -0.00634674 -0.02417702 -0.00318131 -0.00325695]
 [-0.00703192 -0.0021586  -0.01232219  0.00058229 -0.01393257]
 [-0.00883484  0.00548971 -0.01364955  0.00316034  0.00495128]
 [-0.00367785 -0.00368884 -0.00419035 -0.00215775  0.00107849]
 [-0.0077838  -0.00165227 -0.00489254 -0.00035429 -0.00582459]] 
Episode: 194: [[-0.00547379 -0.00647825 -0.02443225 -0.00317944 -0.00325274]
 [-0.007081   -0.00216554 -0.0124871   0.00059722 -0.01391253]
 [-0.00887616  0.00548564 -0.0137485   0.0031832   0.00505235]
 [-0.00368431 -0.00369246 -0.00421857 -0.00210837  0.00107885]
 [-0.00779115 -0.00165226 -0.00490636 -0.00034822 -0.00579791]] 
Episode: 195: [[-0.00543925 -0.00661317 -0.02470528 -0.00320943 -0.00322803]
 [-0.00712211 -0.00217182 -0.01265252  0.00060981 -0.01386522]
 [-0.0089084   0.00548137 -0.01384156  0.00320934  0.00514149]
 [-0.00368409 -0.00369712 -0.00424894 -0.00206276  0.00109757]
 [-0.00779606 -0.00165197 -0.00492149 -0.00033911 -0.00577885]] 
Episode: 196: [[-0.00537272 -0.0067316  -0.02495418 -0.00326808 -0.00317365]
 [-0.00715083 -0.00217716 -0.01280557  0.00061394 -0.01382277]
 [-0.0089395   0.00547744 -0.01392838  0.0032359   0.00520542]
 [-0.00367717 -0.00370104 -0.0042769  -0.00202566  0.00111133]
 [-0.00779993 -0.00165178 -0.0049355  -0.00033077 -0.00576539]] 
Episode: 197: [[-0.00530777 -0.00683493 -0.02517636 -0.0033525  -0.00315687]
 [-0.00717951 -0.00218276 -0.01294716  0.00062146 -0.01378875]
 [-0.00896639  0.00547349 -0.01400862  0.00326341  0.00525932]
 [-0.00366675 -0.00370475 -0.00430383 -0.0019932   0.00112117]
 [-0.00780407 -0.00165161 -0.00494868 -0.00032328 -0.00575394]] 
Episode: 198: [[-0.00523552 -0.00694156 -0.025383   -0.00339681 -0.00315599]
 [-0.00720507 -0.00218768 -0.01308382  0.00064954 -0.01375749]
 [-0.00898719  0.00546972 -0.01408582  0.00329412  0.00530829]
 [-0.00365667 -0.00370911 -0.00432994 -0.00196709  0.00113467]
 [-0.00780975 -0.00165111 -0.00496171 -0.00032185 -0.00575026]] 
Episode: 199: [[-0.00519394 -0.0070438  -0.02557396 -0.00346831 -0.00312602]
 [-0.00724377 -0.00219033 -0.01320122  0.00068261 -0.01376806]
 [-0.00900015  0.00546426 -0.01415268  0.00332501  0.00532747]
 [-0.00363749 -0.00371218 -0.00435282 -0.00194262  0.00114458]
 [-0.00782031 -0.00165075 -0.004973   -0.00032257 -0.00574798]] 
Episode: 200: [[-0.00516579 -0.00713852 -0.0257089  -0.00356426 -0.00313128]
 [-0.00726583 -0.00219614 -0.01334246  0.00071309 -0.01374405]
 [-0.00900941  0.00545789 -0.01423554  0.00336779  0.00537141]
 [-0.00361563 -0.0037148  -0.00437751 -0.001918    0.00115423]
 [-0.00783072 -0.00164977 -0.00498633 -0.00032895 -0.00573627]] 
Episode: 201: [[-0.00516313 -0.00722972 -0.02584052 -0.00361898 -0.00316819]
 [-0.00729205 -0.00220199 -0.0134723   0.00075645 -0.01368302]
 [-0.00902363  0.00545157 -0.01431112  0.00341084  0.00543651]
 [-0.00359637 -0.00371773 -0.0044007  -0.00188109  0.00116882]
 [-0.00783685 -0.00164883 -0.00499854 -0.00033725 -0.00572177]] 
Episode: 202: [[-0.00514607 -0.00730027 -0.02600307 -0.00369981 -0.00316922]
 [-0.00729732 -0.00221741 -0.013619    0.00079921 -0.01366759]
 [-0.00903385  0.00544594 -0.01438726  0.00344991  0.00549088]
 [-0.00357126 -0.00371973 -0.00442623 -0.00185124  0.00117545]
 [-0.00784002 -0.00164766 -0.00500979 -0.00034206 -0.00570462]] 
Episode: 203: [[-0.0051666  -0.0073667  -0.02616352 -0.00380414 -0.00320232]
 [-0.00731695 -0.00223229 -0.01374921  0.00082179 -0.01363931]
 [-0.0090556   0.00543835 -0.01445632  0.00348746  0.00555107]
 [-0.00355603 -0.003722   -0.00445081 -0.00181331  0.00118513]
 [-0.00784543 -0.00164758 -0.00502106 -0.00032797 -0.00568831]] 
Episode: 204: [[-0.00522087 -0.00742469 -0.02631035 -0.00392958 -0.00326424]
 [-0.00735074 -0.00224614 -0.01386372  0.00080111 -0.01358939]
 [-0.00907891  0.00543087 -0.01451726  0.00351649  0.00561697]
 [-0.00354215 -0.0037243  -0.00447422 -0.00177186  0.00119227]
 [-0.00785006 -0.00164784 -0.00503155 -0.00030447 -0.00567285]] 
Episode: 205: [[-0.00526761 -0.00746467 -0.02644722 -0.00407403 -0.00333826]
 [-0.00739311 -0.00225661 -0.01396307  0.00080706 -0.01353645]
 [-0.00910391  0.00542321 -0.01457423  0.00354057  0.00566737]
 [-0.00353088 -0.0037282  -0.00450272 -0.0017197   0.00119983]
 [-0.00785732 -0.00164895 -0.00504337 -0.00027147 -0.0056568 ]] 
Episode: 206: [[-0.00534551 -0.00750797 -0.02657619 -0.00417242 -0.00343704]
 [-0.00745894 -0.00226817 -0.01406003  0.00078664 -0.01344937]
 [-0.0091443   0.00541608 -0.01462847  0.00353608  0.00575188]
 [-0.00353609 -0.00373207 -0.0045299  -0.00168479  0.00120692]
 [-0.00786589 -0.00165002 -0.00505448 -0.0002375  -0.00563963]] 
Episode: 207: [[-0.0053797  -0.00756385 -0.02666807 -0.00429251 -0.00355809]
 [-0.00746383 -0.0022837  -0.0141725   0.00080924 -0.01333169]
 [-0.00917447  0.00540816 -0.01469072  0.00358627  0.00581409]
 [-0.00352301 -0.0037352  -0.00455788 -0.00158167  0.00128149]
 [-0.00787027 -0.00165113 -0.00506644 -0.00018432 -0.00565352]] 
Episode: 208: [[-0.00539579 -0.00760934 -0.02679531 -0.00443211 -0.00363483]
 [-0.0074694  -0.00229549 -0.01427929  0.00087035 -0.01322301]
 [-0.00920396  0.00539692 -0.01474939  0.00364033  0.0058674 ]
 [-0.00351238 -0.00373844 -0.00458445 -0.00149935  0.00135476]
 [-0.00787279 -0.00165309 -0.00508191 -0.0001261  -0.00566669]] 
Episode: 209: [[-5.4461295e-03 -7.6295286e-03 -2.6903724e-02 -4.5892503e-03
  -3.6717011e-03]
 [-7.4836570e-03 -2.3097033e-03 -1.4399276e-02  9.1203640e-04
  -1.3112929e-02]
 [-9.2328005e-03  5.3857663e-03 -1.4808926e-02  3.6873152e-03
   5.9013814e-03]
 [-3.4999272e-03 -3.7431996e-03 -4.6097483e-03 -1.3867425e-03
   1.4152308e-03]
 [-7.8674592e-03 -1.6552813e-03 -5.0975899e-03 -6.3500585e-05
  -5.6882538e-03]] 
Episode: 210: [[-5.5106143e-03 -7.6510706e-03 -2.7019309e-02 -4.7621685e-03
  -3.7370194e-03]
 [-7.5064753e-03 -2.3218584e-03 -1.4514019e-02  9.3323604e-04
  -1.3015637e-02]
 [-9.2652971e-03  5.3757932e-03 -1.4865814e-02  3.7326314e-03
   5.9335157e-03]
 [-3.4928727e-03 -3.7474693e-03 -4.6335277e-03 -1.2976293e-03
   1.4637491e-03]
 [-7.8631239e-03 -1.6572445e-03 -5.1118536e-03 -8.3504356e-06
  -5.7065431e-03]] 
Episode: 211: [[-5.5921245e-03 -7.6807272e-03 -2.7099676e-02 -4.8862300e-03
  -3.8279134e-03]
 [-7.5349780e-03 -2.3339067e-03 -1.4625994e-02  9.6341915e-04
  -1.2901781e-02]
 [-9.2990352e-03  5.3668576e-03 -1.4921014e-02  3.7695365e-03
   5.9812404e-03]
 [-3.4927400e-03 -3.7518963e-03 -4.6577244e-03 -1.2204907e-03
   1.5269328e-03]
 [-7.8608757e-03 -1.6590041e-03 -5.1256930e-03  4.1828614e-05
  -5.7188137e-03]] 
Episode: 212: [[-5.7013188e-03 -7.7065332e-03 -2.7177323e-02 -4.9663419e-03
  -3.9418046e-03]
 [-7.5845062e-03 -2.3423578e-03 -1.4721347e-02  9.5624739e-04
  -1.2788656e-02]
 [-9.3463184e-03  5.3591090e-03 -1.4969299e-02  3.7991677e-03
   6.0430211e-03]
 [-3.4982841e-03 -3.7556458e-03 -4.6792654e-03 -1.1554772e-03
   1.5779026e-03]
 [-7.8578796e-03 -1.6608094e-03 -5.1381146e-03  8.7720757e-05
  -5.7222676e-03]] 
Episode: 213: [[-0.0057636  -0.0077455  -0.02720195 -0.00500766 -0.00407637]
 [-0.00757455 -0.00235754 -0.01488659  0.00099077 -0.01267828]
 [-0.00937425  0.00534607 -0.01506316  0.0038584   0.00614661]
 [-0.00347503 -0.00376132 -0.00470972 -0.00103309  0.0016336 ]
 [-0.00786307 -0.00166319 -0.00515153  0.0001424  -0.00571308]] 
Episode: 214: [[-0.00584739 -0.00777704 -0.02721611 -0.00501334 -0.00422953]
 [-0.00761958 -0.00237358 -0.01504613  0.00102383 -0.01253925]
 [-0.00945085  0.00533257 -0.01515633  0.0038666   0.00628748]
 [-0.00348853 -0.00376719 -0.00473856 -0.00094167  0.00169586]
 [-0.00786654 -0.0016659  -0.00516555  0.00018255 -0.00567639]] 
Episode: 215: [[-0.00594659 -0.0078022  -0.02725043 -0.00501069 -0.00439941]
 [-0.00767551 -0.00238915 -0.01520567  0.00107072 -0.01242644]
 [-0.00953103  0.00531697 -0.01525064  0.00387855  0.00643597]
 [-0.00350779 -0.00377392 -0.00476575 -0.00083256  0.00174996]
 [-0.00787701 -0.00166831 -0.00517884  0.00022052 -0.00562533]] 
Episode: 216: [[-0.00607165 -0.00783534 -0.02732626 -0.00501623 -0.00458431]
 [-0.00774078 -0.00240444 -0.01537865  0.00114167 -0.01230757]
 [-0.00961856  0.00529738 -0.01534565  0.00393242  0.00658798]
 [-0.00353355 -0.00377929 -0.00479809 -0.00073679  0.00182439]
 [-0.00788762 -0.00167099 -0.00519331  0.00026743 -0.0055704 ]] 
Episode: 217: [[-0.00614823 -0.00786705 -0.02740413 -0.00503326 -0.0047186 ]
 [-0.00777228 -0.00241822 -0.01553479  0.0011909  -0.01222622]
 [-0.00967893  0.00527886 -0.01543341  0.00399224  0.00670866]
 [-0.00355089 -0.00378349 -0.00482792 -0.0006484   0.00189367]
 [-0.00789709 -0.00167347 -0.00520717  0.0003108  -0.00552596]] 
Episode: 218: [[-0.00618493 -0.00790549 -0.0274967  -0.00505455 -0.00480737]
 [-0.00780497 -0.00243651 -0.01569696  0.00126912 -0.01217459]
 [-0.0097254   0.00526257 -0.01552391  0.00406667  0.00683195]
 [-0.00356378 -0.00378804 -0.00485821 -0.00055441  0.00195697]
 [-0.00790775 -0.00167611 -0.00522145  0.00034947 -0.00548842]] 
Episode: 219: [[-0.00618213 -0.00792577 -0.0276045  -0.00509185 -0.0048593 ]
 [-0.00782752 -0.00245005 -0.01585897  0.00130549 -0.01216308]
 [-0.00975617  0.00524991 -0.01561307  0.00412575  0.00692188]
 [-0.00356458 -0.00379144 -0.00488237 -0.00048576  0.00200548]
 [-0.00791523 -0.00167834 -0.00523336  0.00038464 -0.00546573]] 
Episode: 220: [[-0.00614385 -0.00794987 -0.0277098  -0.00512153 -0.00487398]
 [-0.00784014 -0.00246232 -0.01600523  0.00134905 -0.0121593 ]
 [-0.00977636  0.00523877 -0.01569422  0.00416592  0.00700242]
 [-0.00356305 -0.00379483 -0.00490463 -0.00042115  0.00204711]
 [-0.00792255 -0.00168037 -0.00524492  0.00041947 -0.00544636]] 
Episode: 221: [[-0.00607372 -0.0079748  -0.02782341 -0.00513036 -0.00485515]
 [-0.0078277  -0.00247327 -0.01613201  0.00138525 -0.01215643]
 [-0.00976943  0.0052282  -0.01576306  0.00421862  0.00707095]
 [-0.00354589 -0.00379761 -0.00492351 -0.00035319  0.00209253]
 [-0.00792824 -0.00168213 -0.00525497  0.00045366 -0.00543196]] 
Episode: 222: [[-0.00597499 -0.00799964 -0.02790862 -0.00510768 -0.00485034]
 [-0.0078013  -0.00248457 -0.01625481  0.00142876 -0.01213579]
 [-0.00976041  0.00521788 -0.01583097  0.00427044  0.00714615]
 [-0.00353097 -0.00379972 -0.00494277 -0.00029388  0.00213874]
 [-0.00793391 -0.00168391 -0.00526475  0.0004899  -0.00541331]] 
Episode: 223: [[-0.00589711 -0.00803298 -0.02798898 -0.00505532 -0.00481392]
 [-0.00776876 -0.00249559 -0.01637225  0.00147597 -0.01210924]
 [-0.00975182  0.00520826 -0.01589705  0.00432284  0.00720858]
 [-0.00351598 -0.00380136 -0.00496178 -0.00024223  0.00218476]
 [-0.0079398  -0.00168547 -0.00527436  0.00052241 -0.00539999]] 
Episode: 224: [[-0.00586282 -0.00807258 -0.02803609 -0.00497624 -0.00481324]
 [-0.00773399 -0.00250896 -0.01650826  0.00154608 -0.01204504]
 [-0.00975862  0.00519573 -0.01597757  0.00439212  0.0073132 ]
 [-0.00350727 -0.00380373 -0.00498632 -0.00017587  0.00223029]
 [-0.00794231 -0.00168658 -0.00528682  0.0005562  -0.00536787]] 
Episode: 225: [[-0.00580492 -0.00811815 -0.02803974 -0.00487315 -0.00478055]
 [-0.00768302 -0.00252627 -0.01666798  0.00165051 -0.01196928]
 [-0.00975308  0.00518305 -0.0160689   0.0044631   0.00745545]
 [-0.00350099 -0.0038058  -0.00501434 -0.00011875  0.00227788]
 [-0.00794442 -0.0016872  -0.005301    0.00058189 -0.00533436]] 
Episode: 226: [[-5.7605100e-03 -8.1842551e-03 -2.8079232e-02 -4.7484618e-03
  -4.7603203e-03]
 [-7.6450966e-03 -2.5408056e-03 -1.6814552e-02  1.7509002e-03
  -1.1879560e-02]
 [-9.7476933e-03  5.1704999e-03 -1.6152870e-02  4.5401286e-03
   7.6245945e-03]
 [-3.4988793e-03 -3.8083673e-03 -5.0411471e-03 -6.5903543e-05
   2.3013297e-03]
 [-7.9475706e-03 -1.6880139e-03 -5.3144777e-03  6.0495373e-04
  -5.3073107e-03]] 
Episode: 227: [[-5.7385266e-03 -8.2532186e-03 -2.8134177e-02 -4.6682060e-03
  -4.7696014e-03]
 [-7.6109078e-03 -2.5554057e-03 -1.6954340e-02  1.8816567e-03
  -1.1839363e-02]
 [-9.7470013e-03  5.1589445e-03 -1.6225928e-02  4.5962147e-03
   7.7706859e-03]
 [-3.4973074e-03 -3.8118756e-03 -5.0666668e-03 -2.1726164e-05
   2.3075710e-03]
 [-7.9503730e-03 -1.6890208e-03 -5.3284727e-03  6.2698539e-04
  -5.2798479e-03]] 
Episode: 228: [[-5.7546017e-03 -8.3244666e-03 -2.8188307e-02 -4.6102242e-03
  -4.7467812e-03]
 [-7.5815120e-03 -2.5690100e-03 -1.7082371e-02  1.9918333e-03
  -1.1806370e-02]
 [-9.7518628e-03  5.1480667e-03 -1.6294364e-02  4.6542333e-03
   7.9036169e-03]
 [-3.4961819e-03 -3.8145431e-03 -5.0917477e-03  7.0569286e-06
   2.3148223e-03]
 [-7.9522142e-03 -1.6899495e-03 -5.3414372e-03  6.5047183e-04
  -5.2544354e-03]] 
Episode: 229: [[-5.7786037e-03 -8.3962027e-03 -2.8261738e-02 -4.5883716e-03
  -4.7144261e-03]
 [-7.5555551e-03 -2.5830376e-03 -1.7209327e-02  2.0988982e-03
  -1.1761817e-02]
 [-9.7575886e-03  5.1378016e-03 -1.6361536e-02  4.7182930e-03
   8.0256993e-03]
 [-3.4967831e-03 -3.8174775e-03 -5.1157754e-03  3.2175987e-05
   2.3258778e-03]
 [-7.9533802e-03 -1.6906550e-03 -5.3534373e-03  6.7412085e-04
  -5.2359845e-03]] 
Episode: 230: [[-5.8342684e-03 -8.4648300e-03 -2.8330302e-02 -4.6006860e-03
  -4.7175181e-03]
 [-7.5466568e-03 -2.5870441e-03 -1.7296832e-02  2.1534513e-03
  -1.1737372e-02]
 [-9.7679086e-03  5.1280968e-03 -1.6425982e-02  4.7787735e-03
   8.1353830e-03]
 [-3.5032271e-03 -3.8202032e-03 -5.1479046e-03  6.8850597e-05
   2.3285344e-03]
 [-7.9570087e-03 -1.6916621e-03 -5.3661405e-03  7.0242211e-04
  -5.2180090e-03]] 
Episode: 231: [[-0.00584846 -0.00853821 -0.02839307 -0.0045798  -0.00468811]
 [-0.00751845 -0.00259188 -0.01737673  0.00224393 -0.01169088]
 [-0.0097694   0.0051189  -0.01648505  0.00485043  0.0082437 ]
 [-0.00350564 -0.00382308 -0.0051774   0.00010975  0.00233718]
 [-0.00796095 -0.00169258 -0.00537756  0.00073082 -0.00519814]] 
Episode: 232: [[-0.00586477 -0.00861528 -0.02844133 -0.00459296 -0.00462948]
 [-0.00748679 -0.00260026 -0.01747333  0.00232673 -0.0116459 ]
 [-0.00976201  0.00510876 -0.01655078  0.00492152  0.00832997]
 [-0.00350321 -0.00382669 -0.00520664  0.00015833  0.00235088]
 [-0.00796326 -0.00169337 -0.00538982  0.00075737 -0.00518286]] 
Episode: 233: [[-0.00587771 -0.00869637 -0.02853053 -0.00457286 -0.00460889]
 [-0.00750469 -0.00261057 -0.01756589  0.00239977 -0.01156481]
 [-0.0097944   0.00509934 -0.01661672  0.00492893  0.00845615]
 [-0.00352892 -0.00383057 -0.0052347   0.00018788  0.00237605]
 [-0.00797139 -0.00169445 -0.00540167  0.00077863 -0.00515061]] 
Episode: 234: [[-0.00592532 -0.00878118 -0.02861205 -0.00452285 -0.00462253]
 [-0.00753827 -0.00262246 -0.01765725  0.00248308 -0.01146731]
 [-0.00983273  0.00509114 -0.01668031  0.00493113  0.00858894]
 [-0.00355707 -0.00383435 -0.00526149  0.00021672  0.00239691]
 [-0.0079806  -0.00169539 -0.00541287  0.00079795 -0.00511528]] 
Episode: 235: [[-0.00593218 -0.00885758 -0.02869718 -0.00444592 -0.00460265]
 [-0.00753764 -0.00263549 -0.0177415   0.0025835  -0.01133909]
 [-0.00985029  0.00508328 -0.01673981  0.004946    0.00873712]
 [-0.00358085 -0.00383779 -0.00528574  0.00024186  0.00241681]
 [-0.00798673 -0.00169667 -0.00542397  0.00082308 -0.00507231]] 
Episode: 236: [[-0.00597426 -0.00892139 -0.0287758  -0.00440862 -0.0046057 ]
 [-0.00754382 -0.0026453  -0.01781911  0.00265996 -0.0112533 ]
 [-0.0098677   0.00507717 -0.01679485  0.00494243  0.00885655]
 [-0.00360254 -0.00384061 -0.005308    0.00026238  0.00243246]
 [-0.00799268 -0.00169773 -0.00543421  0.00083953 -0.0050386 ]] 
Episode: 237: [[-0.00603434 -0.00898788 -0.02885432 -0.00434316 -0.00457628]
 [-0.00755135 -0.00265543 -0.01789239  0.00274312 -0.01115692]
 [-0.00988331  0.00507158 -0.01684635  0.00494744  0.00897224]
 [-0.00362348 -0.00384325 -0.00532912  0.0002854   0.00244862]
 [-0.00799835 -0.00169869 -0.00544369  0.00085398 -0.00500879]] 
Episode: 238: [[-0.00612427 -0.0090519  -0.02893267 -0.00425237 -0.00451765]
 [-0.00756698 -0.00266519 -0.01796367  0.00282352 -0.01105947]
 [-0.00990636  0.00506693 -0.01689831  0.00495654  0.00908941]
 [-0.00364291 -0.0038463  -0.00534937  0.0003104   0.00246731]
 [-0.00800339 -0.00169942 -0.00545307  0.00086551 -0.00498149]] 
Episode: 239: [[-0.00623203 -0.00912586 -0.02904121 -0.00419242 -0.00448177]
 [-0.00759384 -0.0026777  -0.0180474   0.00289714 -0.0109689 ]
 [-0.00992904  0.00506121 -0.0169526   0.0049794   0.00920864]
 [-0.00365507 -0.00384969 -0.00537154  0.000336    0.00249539]
 [-0.00801171 -0.00169943 -0.00546303  0.00087893 -0.00495845]] 
Episode: 240: [[-0.00632241 -0.00919201 -0.02914882 -0.00410657 -0.0044173 ]
 [-0.00761815 -0.00269132 -0.01813661  0.00297729 -0.01087424]
 [-0.0099557   0.00505376 -0.01701441  0.00502103  0.00933725]
 [-0.00367341 -0.00385331 -0.0053956   0.00036009  0.00251936]
 [-0.0080226  -0.0016996  -0.005475    0.00089672 -0.00493309]] 
Episode: 241: [[-0.00643964 -0.00927542 -0.02925229 -0.00404183 -0.00439148]
 [-0.00764089 -0.00270816 -0.01823638  0.00307232 -0.01077303]
 [-0.00998321  0.00504307 -0.01709732  0.00506438  0.00949151]
 [-0.00368794 -0.00385918 -0.00542299  0.0003961   0.00254436]
 [-0.00803374 -0.00170001 -0.00549233  0.00091557 -0.0048914 ]] 
Episode: 242: [[-0.00652448 -0.00935107 -0.02935572 -0.00401555 -0.00435199]
 [-0.00766377 -0.0027244  -0.01834292  0.00314765 -0.01066899]
 [-0.01000439  0.00503292 -0.01718251  0.00509192  0.00962797]
 [-0.00370037 -0.00386452 -0.00544997  0.00043706  0.00256746]
 [-0.00804618 -0.00170043 -0.00550948  0.00093351 -0.00485546]] 
Episode: 243: [[-0.00661841 -0.0094299  -0.029495   -0.00396079 -0.00429842]
 [-0.00769172 -0.00274067 -0.01845454  0.00322486 -0.01055381]
 [-0.01002954  0.00502355 -0.01726113  0.00512849  0.00975359]
 [-0.00371304 -0.00386868 -0.00547456  0.00046804  0.00258016]
 [-0.00805593 -0.00170085 -0.00552537  0.00095237 -0.00481808]] 
Episode: 244: [[-0.00666682 -0.00951714 -0.0296663  -0.00394287 -0.00428251]
 [-0.00769873 -0.00275866 -0.01858507  0.00328284 -0.01045057]
 [-0.01003995  0.00501264 -0.01735132  0.00516481  0.00986494]
 [-0.0037234  -0.00387324 -0.00550204  0.00050352  0.00259748]
 [-0.00806073 -0.00170188 -0.00554273  0.00097843 -0.00477645]] 
Episode: 245: [[-0.00667967 -0.00959881 -0.02985913 -0.00395062 -0.00423592]
 [-0.00770359 -0.00277555 -0.01870842  0.00332448 -0.01035402]
 [-0.01004245  0.00500275 -0.01743681  0.00519135  0.00995419]
 [-0.00373545 -0.00387744 -0.00552877  0.00053966  0.00261524]
 [-0.00806404 -0.00170273 -0.00555933  0.00099934 -0.00474506]] 
Episode: 246: [[-0.00669135 -0.00968124 -0.0300716  -0.00398957 -0.00416176]
 [-0.00772119 -0.00279562 -0.01884044  0.00334462 -0.01024332]
 [-0.01003498  0.00499428 -0.01753257  0.00520432  0.0100159 ]
 [-0.00375814 -0.00388159 -0.00555894  0.00057812  0.00263191]
 [-0.00806832 -0.00170339 -0.00557871  0.00102475 -0.0047209 ]] 
Episode: 247: [[-0.00668892 -0.00974039 -0.03025925 -0.00405659 -0.00410653]
 [-0.00773277 -0.00281285 -0.01894854  0.00335239 -0.0101282 ]
 [-0.01002417  0.0049875  -0.01761063  0.00520951  0.01006099]
 [-0.00378118 -0.00388528 -0.00558258  0.0006114   0.00264191]
 [-0.00807502 -0.00170388 -0.00559407  0.00104396 -0.0047045 ]] 
Episode: 248: [[-0.00668135 -0.00978959 -0.03042207 -0.00408492 -0.00405068]
 [-0.00775005 -0.0028267  -0.01903964  0.00334721 -0.01003696]
 [-0.01001209  0.00498116 -0.01767639  0.00521627  0.010086  ]
 [-0.00380266 -0.00388843 -0.00560447  0.00064015  0.0026472 ]
 [-0.00808011 -0.00170424 -0.00560777  0.00106484 -0.00469231]] 
Episode: 249: [[-0.00663831 -0.00982674 -0.03059877 -0.00407847 -0.00396805]
 [-0.00775745 -0.00283952 -0.01914679  0.00337053 -0.00991357]
 [-0.00999839  0.00497423 -0.0177515   0.00525028  0.01012507]
 [-0.00382169 -0.00389282 -0.00563211  0.00068575  0.00266999]
 [-0.00809051 -0.00170469 -0.00562337  0.00109839 -0.00466158]] 
Episode: 250: [[-0.00656343 -0.00981173 -0.03079037 -0.0041046  -0.00386135]
 [-0.0077069  -0.00285599 -0.01928332  0.00341357 -0.00981565]
 [-0.00992317  0.00496511 -0.01784992  0.00527307  0.01011021]
 [-0.00382533 -0.00389928 -0.00567026  0.00073275  0.00272758]
 [-0.00809973 -0.00170582 -0.00564431  0.00113798 -0.00464795]] 
Episode: 251: [[-0.00650477 -0.00979649 -0.03096047 -0.00409619 -0.00374146]
 [-0.00766162 -0.00287055 -0.01940194  0.00344382 -0.00974108]
 [-0.00985761  0.00495745 -0.01793604  0.00528831  0.01007602]
 [-0.00382794 -0.00390525 -0.00570317  0.00077617  0.00277449]
 [-0.00810638 -0.0017069  -0.00566274  0.00117088 -0.0046395 ]] 
Episode: 252: [[-0.00646987 -0.00978609 -0.03111328 -0.00412053 -0.00360121]
 [-0.00762389 -0.00288442 -0.01950976  0.00346637 -0.00966473]
 [-0.00979896  0.00495027 -0.01801377  0.00530624  0.01004214]
 [-0.00383078 -0.003911   -0.0057333   0.00082172  0.00281936]
 [-0.0081104  -0.00170801 -0.00567958  0.00120463 -0.00463035]] 
Episode: 253: [[-0.00645657 -0.00977184 -0.0312641  -0.00417434 -0.0035074 ]
 [-0.00760024 -0.00289564 -0.01959894  0.00349822 -0.0096018 ]
 [-0.00975228  0.00494209 -0.01808542  0.00533584  0.01000252]
 [-0.00383575 -0.00391806 -0.00576257  0.00088317  0.0028535 ]
 [-0.00811702 -0.00171004 -0.00569625  0.00124178 -0.00461664]] 
Episode: 254: [[-0.00640828 -0.00976676 -0.0314162  -0.00419086 -0.00340623]
 [-0.00758205 -0.00290948 -0.01968968  0.00353397 -0.00950361]
 [-0.0097182   0.00493394 -0.0181599   0.00535818  0.00998575]
 [-0.00384835 -0.00392577 -0.00578939  0.0009506   0.0028863 ]
 [-0.00812389 -0.00171213 -0.00571211  0.00128241 -0.00459819]] 
Episode: 255: [[-0.00640116 -0.00975443 -0.03156007 -0.00423745 -0.00332362]
 [-0.00757393 -0.00292236 -0.01977259  0.0035688  -0.00940209]
 [-0.00969346  0.00492768 -0.01822497  0.00536303  0.00997382]
 [-0.00386135 -0.00393248 -0.00581429  0.00101106  0.00291485]
 [-0.00813307 -0.00171391 -0.00572629  0.00131573 -0.00458785]] 
Episode: 256: [[-0.00636303 -0.00975042 -0.03169408 -0.00428869 -0.00321684]
 [-0.00755917 -0.00293402 -0.01984987  0.00359062 -0.00932337]
 [-0.00966677  0.00492219 -0.01828487  0.00536119  0.00994991]
 [-0.00386997 -0.00393825 -0.00583731  0.00105879  0.00293449]
 [-0.0081399  -0.0017153  -0.00573951  0.00133982 -0.00457826]] 
Episode: 257: [[-0.006365   -0.0097468  -0.03182617 -0.0043088  -0.00315322]
 [-0.00755935 -0.002945   -0.01992015  0.00360129 -0.00925384]
 [-0.00964832  0.0049171  -0.01833942  0.00535555  0.00992324]
 [-0.00388061 -0.00394329 -0.00585821  0.00110192  0.00294874]
 [-0.00814658 -0.00171655 -0.00575137  0.00136071 -0.00457002]] 
Episode: 258: [[-0.00640298 -0.00975174 -0.03194169 -0.0043337  -0.00306355]
 [-0.00756252 -0.00295531 -0.01999357  0.00360988 -0.00917783]
 [-0.00963047  0.00491167 -0.01839502  0.00536239  0.00990784]
 [-0.00389013 -0.00394765 -0.00587943  0.00114604  0.00296724]
 [-0.00814942 -0.00171801 -0.00576315  0.00139287 -0.00456373]] 
Episode: 259: [[-0.0064733  -0.0097606  -0.03204666 -0.00433819 -0.0030153 ]
 [-0.00757672 -0.00296599 -0.02006058  0.00361839 -0.00911709]
 [-0.00961944  0.00490677 -0.01844557  0.00536357  0.00989523]
 [-0.00390172 -0.00395173 -0.00589915  0.00118599  0.00298191]
 [-0.00815299 -0.00171938 -0.0057737   0.00142379 -0.00455753]] 
Episode: 260: [[-0.00650039 -0.00976656 -0.03218794 -0.00432    -0.00293948]
 [-0.00757215 -0.00298026 -0.02015714  0.00362935 -0.00903295]
 [-0.00960813  0.00490207 -0.01850953  0.00535369  0.00988073]
 [-0.00391344 -0.00395588 -0.00592166  0.001215    0.00299382]
 [-0.00815363 -0.00172083 -0.00578678  0.00145846 -0.00455831]] 
Episode: 261: [[-0.00650864 -0.0097726  -0.0323328  -0.00427902 -0.00283885]
 [-0.00756285 -0.00299361 -0.02024376  0.00363954 -0.00895726]
 [-0.00959643  0.0048982  -0.01856624  0.00534284  0.00985742]
 [-0.00392152 -0.00395962 -0.00594205  0.00124367  0.00300439]
 [-0.00815467 -0.00172209 -0.00579817  0.00148771 -0.0045621 ]] 
Episode: 262: [[-0.00651979 -0.00978648 -0.03249399 -0.00427427 -0.00278071]
 [-0.00756843 -0.00300994 -0.02032476  0.00364185 -0.00886019]
 [-0.00958707  0.00489138 -0.01862437  0.00535483  0.00982325]
 [-0.00392973 -0.00396388 -0.0059632   0.00126966  0.00301711]
 [-0.00815452 -0.00172375 -0.00580888  0.0015199  -0.00456045]] 
Episode: 263: [[-0.00656604 -0.00979394 -0.03265009 -0.00430212 -0.0027608 ]
 [-0.00757911 -0.003023   -0.02040659  0.00362858 -0.00876696]
 [-0.00957773  0.00488536 -0.01868103  0.00536101  0.00979992]
 [-0.0039405  -0.00396803 -0.00598344  0.00128792  0.00303349]
 [-0.00815326 -0.00172523 -0.00581881  0.00154957 -0.0045554 ]] 
Episode: 264: [[-0.00657143 -0.00982194 -0.03280746 -0.00429506 -0.00271051]
 [-0.00759093 -0.00303507 -0.02048444  0.00361202 -0.00867786]
 [-0.00956674  0.00487938 -0.01873372  0.00536869  0.00977882]
 [-0.00394728 -0.00397135 -0.00600289  0.00129866  0.00304607]
 [-0.00814989 -0.00172656 -0.00582912  0.00157563 -0.00454767]] 
Episode: 265: [[-0.00655831 -0.00984412 -0.03294177 -0.0043104  -0.00266384]
 [-0.00759597 -0.00304591 -0.02055514  0.00359151 -0.00860137]
 [-0.0095546   0.00487416 -0.01878269  0.00537247  0.00975723]
 [-0.00395164 -0.00397428 -0.00602034  0.00130814  0.00305702]
 [-0.00814685 -0.00172776 -0.0058385   0.00159935 -0.0045415 ]] 
Episode: 266: [[-0.00651031 -0.00986172 -0.03308795 -0.00435633 -0.00258943]
 [-0.00759365 -0.00305339 -0.02063292  0.00354897 -0.00855043]
 [-0.00954704  0.00486865 -0.01883425  0.00537205  0.00972102]
 [-0.00395803 -0.00397803 -0.00603897  0.00132222  0.00306717]
 [-0.00814384 -0.00172807 -0.00584861  0.00160972 -0.00453525]] 
Episode: 267: [[-0.00646652 -0.00989322 -0.03325199 -0.0044154  -0.0025549 ]
 [-0.00759422 -0.00306367 -0.02072393  0.00350875 -0.00848912]
 [-0.00953702  0.00486307 -0.01889142  0.00536461  0.00968961]
 [-0.00396207 -0.0039821  -0.00605973  0.00131789  0.00307607]
 [-0.00814022 -0.00172842 -0.00585908  0.00161886 -0.00453613]] 
Episode: 268: [[-0.00639089 -0.00992448 -0.03341089 -0.00443637 -0.00249143]
 [-0.00760178 -0.00307224 -0.02080229  0.00350992 -0.00839158]
 [-0.00953695  0.00485862 -0.01894273  0.00535866  0.0096745 ]
 [-0.00397049 -0.00398633 -0.00607836  0.00132535  0.00309954]
 [-0.00813719 -0.00172898 -0.00586854  0.00162577 -0.00453289]] 
Episode: 269: [[-0.00630893 -0.00995248 -0.03359757 -0.0044874  -0.00240192]
 [-0.00760723 -0.00307999 -0.02088737  0.00350554 -0.00831866]
 [-0.009528    0.00485956 -0.01899492  0.00531733  0.00964691]
 [-0.00397206 -0.00398807 -0.00609755  0.00130646  0.00310335]
 [-0.0081327  -0.00172995 -0.00587631  0.00163303 -0.00454495]] 
Episode: 270: [[-0.00621443 -0.00998166 -0.03375815 -0.00456545 -0.00235379]
 [-0.00760678 -0.00308704 -0.02096394  0.00348796 -0.00826397]
 [-0.00951709  0.00486028 -0.0190418   0.00527689  0.00961544]
 [-0.00397105 -0.00398934 -0.00611488  0.00128491  0.00310328]
 [-0.00812907 -0.00173109 -0.00588357  0.00163903 -0.00455818]] 
Episode: 271: [[-0.00616578 -0.01001776 -0.03394955 -0.00460355 -0.0022781 ]
 [-0.00766555 -0.00309756 -0.02104985  0.00342779 -0.00817232]
 [-0.00955642  0.00486697 -0.01909209  0.00518085  0.00963884]
 [-0.00399933 -0.00398968 -0.00613435  0.00118574  0.00309516]
 [-0.00812975 -0.00173139 -0.00589323  0.00157813 -0.00456417]] 
Episode: 272: [[-0.00608576 -0.01004861 -0.03416827 -0.00460569 -0.00217764]
 [-0.00777696 -0.00310902 -0.02113167  0.00332949 -0.00804756]
 [-0.00963099  0.00487342 -0.0191411   0.00503543  0.00965626]
 [-0.00405893 -0.00398959 -0.00615389  0.00101859  0.003107  ]
 [-0.00813894 -0.00173157 -0.00590232  0.00144875 -0.00455588]] 
Episode: 273: [[-0.00605005 -0.01010575 -0.03440662 -0.00463974 -0.00211962]
 [-0.0078996  -0.00312184 -0.02121328  0.00323422 -0.00795894]
 [-0.00970478  0.00488203 -0.01919181  0.00490678  0.00968152]
 [-0.00412483 -0.00398752 -0.00617315  0.00085048  0.00310449]
 [-0.00815129 -0.00173119 -0.0059107   0.00132924 -0.00454673]] 
Episode: 274: [[-0.00605417 -0.01017776 -0.0346565  -0.00463827 -0.00209975]
 [-0.00806786 -0.00313843 -0.02129176  0.00316103 -0.00783695]
 [-0.00980286  0.00488878 -0.01923999  0.00475192  0.00973041]
 [-0.00421301 -0.00398545 -0.0061915   0.00066984  0.003116  ]
 [-0.00816505 -0.00173083 -0.0059186   0.00121522 -0.00452116]] 
Episode: 275: [[-0.00609405 -0.01024575 -0.03487721 -0.00460485 -0.00204955]
 [-0.00826732 -0.00315333 -0.02137317  0.00312676 -0.00768508]
 [-0.00991605  0.00489381 -0.0192911   0.00457919  0.00982586]
 [-0.00431413 -0.00398402 -0.00621034  0.00045445  0.0031372 ]
 [-0.00817794 -0.0017305  -0.00592721  0.00109754 -0.00448405]] 
Episode: 276: [[-0.00616606 -0.01031347 -0.03507341 -0.00454269 -0.0020367 ]
 [-0.00845879 -0.00317037 -0.02146198  0.00309647 -0.00753613]
 [-0.01002245  0.00489791 -0.0193472   0.00442415  0.00991573]
 [-0.00441016 -0.00398257 -0.00623173  0.00024765  0.00316326]
 [-0.00819006 -0.00173021 -0.00593626  0.00099171 -0.00445274]] 
Episode: 277: [[-6.2021390e-03 -1.0381139e-02 -3.5243481e-02 -4.4934871e-03
  -2.0574527e-03]
 [-8.6277286e-03 -3.1879132e-03 -2.1541459e-02  3.0877164e-03
  -7.4202931e-03]
 [-1.0115514e-02  4.9013118e-03 -1.9399475e-02  4.3001133e-03
   9.9721514e-03]
 [-4.4870027e-03 -3.9820834e-03 -6.2525668e-03  7.0642520e-05
   3.1959175e-03]
 [-8.2023367e-03 -1.7297311e-03 -5.9450562e-03  9.0087997e-04
  -4.4251136e-03]] 
Episode: 278: [[-6.1984560e-03 -1.0436049e-02 -3.5385814e-02 -4.4813557e-03
  -2.0623079e-03]
 [-8.7644234e-03 -3.2072349e-03 -2.1625860e-02  3.0919600e-03
  -7.3245345e-03]
 [-1.0193053e-02  4.9034907e-03 -1.9455258e-02  4.1970247e-03
   1.0022985e-02]
 [-4.5509664e-03 -3.9820061e-03 -6.2765530e-03 -8.3554522e-05
   3.2301091e-03]
 [-8.2138916e-03 -1.7292860e-03 -5.9550572e-03  8.1689918e-04
  -4.4035097e-03]] 
Episode: 279: [[-0.00619076 -0.01048347 -0.0355173  -0.00448776 -0.00203432]
 [-0.00888791 -0.00322455 -0.02170407  0.00309392 -0.00723555]
 [-0.01026253  0.00490544 -0.01950657  0.00410123  0.0100709 ]
 [-0.00460785 -0.00398219 -0.0062983  -0.00021962  0.00325606]
 [-0.00822396 -0.00172897 -0.00596411  0.00074391 -0.00438381]] 
Episode: 280: [[-0.00614768 -0.01056231 -0.03568266 -0.00446135 -0.00197681]
 [-0.00894841 -0.00324618 -0.0217658   0.00314032 -0.00711311]
 [-0.01032188  0.00490755 -0.01954692  0.00405895  0.01016073]
 [-0.00467152 -0.00398418 -0.00631488 -0.00033539  0.00336154]
 [-0.00823508 -0.00172786 -0.00597276  0.00069027 -0.00433242]] 
Episode: 281: [[-0.00607282 -0.01063169 -0.03584008 -0.00446975 -0.00190214]
 [-0.00899287 -0.00326813 -0.0218342   0.00318897 -0.00699666]
 [-0.01036788  0.0049084  -0.01959056  0.00402451  0.01025726]
 [-0.0047228  -0.00398614 -0.00633352 -0.00043326  0.00346772]
 [-0.0082465  -0.001727   -0.00598189  0.00064832 -0.00428717]] 
Episode: 282: [[-0.00600907 -0.01069964 -0.03598827 -0.00448627 -0.00181007]
 [-0.00903419 -0.00328821 -0.02189565  0.00322821 -0.00688601]
 [-0.01041011  0.00490956 -0.01963062  0.00399373  0.01034362]
 [-0.004768   -0.00398825 -0.00635033 -0.00052615  0.00356138]
 [-0.00825643 -0.00172606 -0.0059904   0.00060864 -0.00424621]] 
Episode: 283: [[-0.00596751 -0.01076478 -0.03614251 -0.00453334 -0.00175962]
 [-0.0090688  -0.00330571 -0.02196487  0.00325106 -0.00679984]
 [-0.01044277  0.00491036 -0.01967249  0.00396558  0.0104182 ]
 [-0.00480622 -0.00398937 -0.00637061 -0.0006184   0.00364261]
 [-0.00826319 -0.00172496 -0.00599883  0.00057155 -0.00421092]] 
Episode: 284: [[-0.00589393 -0.01082041 -0.03628122 -0.00457285 -0.00168186]
 [-0.00908524 -0.00332442 -0.02203964  0.00326874 -0.00671606]
 [-0.01046727  0.00490914 -0.0197213   0.00394009  0.01048985]
 [-0.00483672 -0.00399091 -0.00639205 -0.00070253  0.00372074]
 [-0.00827046 -0.00172404 -0.00600814  0.0005367  -0.00417868]] 
Episode: 285: [[-0.00579158 -0.01082833 -0.03642166 -0.00464066 -0.00157955]
 [-0.0090795  -0.0033404  -0.02213985  0.00325828 -0.00666538]
 [-0.01048431  0.00490568 -0.01977821  0.00393059  0.01053505]
 [-0.00486128 -0.00398968 -0.00641604 -0.0007772   0.00381182]
 [-0.00827915 -0.00172402 -0.00601501  0.00052382 -0.00414765]] 
Episode: 286: [[-0.00570946 -0.01083943 -0.03654817 -0.00466942 -0.0014634 ]
 [-0.00907594 -0.00335413 -0.02223004  0.0032542  -0.00661056]
 [-0.01050006  0.00490273 -0.01982881  0.00392679  0.01057791]
 [-0.004887   -0.00398852 -0.00643667 -0.00084241  0.00389748]
 [-0.00828686 -0.00172411 -0.00602114  0.00051217 -0.00411962]] 
Episode: 287: [[-0.00561202 -0.01084344 -0.03666496 -0.00471433 -0.00132653]
 [-0.00906671 -0.00336584 -0.02231077  0.00323658 -0.00657361]
 [-0.01051106  0.00489974 -0.01987329  0.00391684  0.01060879]
 [-0.0049082  -0.00398745 -0.00645441 -0.00090534  0.00396995]
 [-0.00829376 -0.0017241  -0.00602676  0.00050044 -0.00409581]] 
Episode: 288: [[-0.0055571  -0.01085605 -0.03678061 -0.00478702 -0.00123575]
 [-0.00907922 -0.00337791 -0.02238029  0.00320442 -0.00653385]
 [-0.01052454  0.00489582 -0.0199156   0.00391386  0.01064977]
 [-0.00492956 -0.00398596 -0.00647236 -0.00096334  0.00403159]
 [-0.0083005  -0.00172429 -0.00603293  0.00049172 -0.00406742]] 
Episode: 289: [[-0.00554248 -0.01087533 -0.03690369 -0.00482015 -0.00118642]
 [-0.00912347 -0.00338817 -0.02244664  0.00317978 -0.00645514]
 [-0.01055013  0.00489158 -0.01995616  0.00390353  0.01072714]
 [-0.00496692 -0.00398534 -0.00649023 -0.00101705  0.00410643]
 [-0.00830777 -0.00172438 -0.00603864  0.00047987 -0.00403206]] 
Episode: 290: [[-0.00555322 -0.01089904 -0.03701683 -0.00484787 -0.00114507]
 [-0.00916745 -0.00339655 -0.02250698  0.00315016 -0.00638465]
 [-0.01057653  0.00488817 -0.01999327  0.00389077  0.01079455]
 [-0.00499976 -0.00398501 -0.00650674 -0.00106268  0.00417178]
 [-0.00831433 -0.00172446 -0.00604387  0.00046751 -0.00400064]] 
Episode: 291: [[-0.00556454 -0.01091797 -0.03715353 -0.00490513 -0.00110358]
 [-0.00920229 -0.00339764 -0.02257271  0.00310721 -0.00634691]
 [-0.0106021   0.00488376 -0.02003024  0.00388175  0.01084146]
 [-0.0050301  -0.00398366 -0.00652228 -0.00111699  0.00421874]
 [-0.00831963 -0.00172451 -0.00605011  0.00045341 -0.00396704]] 
Episode: 292: [[-0.00559613 -0.01093733 -0.03728029 -0.00492434 -0.00109872]
 [-0.00924868 -0.00339867 -0.02263096  0.00306742 -0.0063129 ]
 [-0.01063171  0.00487948 -0.02006342  0.00386848  0.01088615]
 [-0.00506767 -0.00398293 -0.00653636 -0.00115306  0.00425906]
 [-0.00832461 -0.00172438 -0.00605554  0.00043531 -0.00393591]] 
Episode: 293: [[-0.00560899 -0.01094897 -0.03739461 -0.00490931 -0.0011268 ]
 [-0.00928674 -0.00339942 -0.02267685  0.00307399 -0.00623925]
 [-0.01066598  0.00487666 -0.02009003  0.00386228  0.01095943]
 [-0.00511619 -0.00398366 -0.00654783 -0.0011477   0.00433326]
 [-0.00832794 -0.00172427 -0.00605939  0.00041951 -0.0038998 ]] 
Episode: 294: [[-0.00565695 -0.01097199 -0.03747409 -0.00486348 -0.0011845 ]
 [-0.00937393 -0.00340647 -0.02273595  0.00309938 -0.00613008]
 [-0.0107221   0.00487253 -0.0201342   0.00383987  0.01107764]
 [-0.00519273 -0.00398667 -0.00656571 -0.00114788  0.00443658]
