Episode: 1: [[0. 0. 0. 0. 0.]
 [0. 0. 0. 0. 0.]
 [0. 0. 0. 0. 0.]
 [0. 0. 0. 0. 0.]
 [0. 0. 0. 0. 0.]] 
Episode: 2: [[ 0.00199999 -0.00199967  0.00199999 -0.002      -0.00199999]
 [ 0.002       0.002       0.002      -0.002       0.002     ]
 [ 0.002       0.002       0.002       0.002       0.002     ]
 [ 0.002       0.002      -0.002       0.002       0.002     ]
 [-0.002       0.002       0.002      -0.002       0.002     ]] 
Episode: 3: [[ 0.00098831 -0.00057987  0.00142442 -0.00384385 -0.00361648]
 [ 0.00087445  0.00291068  0.0012665  -0.0032858   0.00112241]
 [ 0.00076026  0.00222177  0.00070028  0.00056827  0.00261558]
 [ 0.00088971  0.00179997 -0.00357027  0.00131872  0.00378963]
 [-0.00380328  0.00217599  0.00115662 -0.00157976  0.00378564]] 
Episode: 4: [[-5.0847832e-04 -7.5464981e-04  5.1071151e-04 -3.0317137e-03
  -4.1149110e-03]
 [-6.7127438e-04  2.2925944e-03 -1.4162807e-06 -2.7262305e-03
   1.8121483e-03]
 [-8.3454145e-04  1.9082460e-03 -9.0292125e-04 -1.1170886e-03
   3.7874021e-03]
 [-6.4917491e-04  1.3490703e-03 -5.2988855e-03 -5.7885158e-05
   4.4267974e-03]
 [-5.6177247e-03  2.1484750e-03  1.3492882e-04 -1.8892563e-03
   3.2494606e-03]] 
Episode: 5: [[-0.00191846 -0.00126145  0.00061556 -0.00227517 -0.00516765]
 [-0.00211718  0.00132239 -0.00095487 -0.00230019  0.00141639]
 [-0.0023233   0.00139632 -0.00242072 -0.00284371  0.00363464]
 [-0.00194932  0.00067459 -0.00689222 -0.00109925  0.00379943]
 [-0.00709647  0.00185527 -0.00081772 -0.00169456  0.00238855]] 
Episode: 6: [[-0.00290441 -0.0022625   0.00133198 -0.0013149  -0.00501812]
 [-0.00326467  0.00038761 -0.00135235 -0.00144678  0.00219262]
 [-0.00352472  0.00053895 -0.00320843 -0.00431669  0.00406129]
 [-0.00308918 -0.00017702 -0.00783065 -0.00242591  0.004412  ]
 [-0.00826512  0.00173789 -0.0007918  -0.00145087  0.00209729]] 
Episode: 7: [[-0.00337627 -0.0014448   0.00046173 -0.00199669 -0.00595727]
 [-0.00328307  0.00122968 -0.00244576 -0.00191496  0.0027259 ]
 [-0.00392464  0.00118325 -0.00440816 -0.00577731  0.00485235]
 [-0.00313191  0.00036097 -0.0091144  -0.00218075  0.00464798]
 [-0.00909112  0.00240316 -0.00180088 -0.00221089  0.00103499]] 
Episode: 8: [[-0.00446924 -0.00034831 -0.0004369  -0.00194132 -0.00713638]
 [-0.0042478   0.00116102 -0.00330795 -0.00300606  0.00186898]
 [-0.00499357  0.00027376 -0.00471526 -0.00595886  0.00427104]
 [-0.00412052 -0.00047084 -0.0105217  -0.00266621  0.00545918]
 [-0.01029687  0.00156635 -0.00249277 -0.0027411  -0.00032745]] 
Episode: 9: [[-0.00352014 -0.00126051  0.0005284  -0.00102135 -0.00719093]
 [-0.00540487  0.00016771 -0.00435172 -0.00304996  0.0020146 ]
 [-0.00629038 -0.00100003 -0.00399165 -0.00535044  0.00454639]
 [-0.00395933 -0.00168617 -0.01077189 -0.00249081  0.00529452]
 [-0.0114916   0.00052513 -0.00161243 -0.00383584 -0.0018678 ]] 
Episode: 10: [[-0.0027582  -0.00228342  0.00110037  0.00013237 -0.00667159]
 [-0.00639151  0.00011281 -0.00559755 -0.00362833  0.00267871]
 [-0.00723368 -0.00131968 -0.00301882 -0.00433932  0.00529096]
 [-0.00332947 -0.00203085 -0.01080481 -0.00281857  0.00461943]
 [-0.01235589 -0.00036179 -0.00060672 -0.00391804 -0.00238143]] 
Episode: 11: [[-0.00159259 -0.00361323  0.00214061  0.00031202 -0.00675048]
 [-0.00634585  0.0006644  -0.00576727 -0.00455157  0.00271293]
 [-0.00850673 -0.00106621 -0.0029448  -0.00405191  0.00540299]
 [-0.0023341  -0.00181613 -0.01136387 -0.00266654  0.00361712]
 [-0.0122403  -0.0002378  -0.00062675 -0.00451393 -0.00327176]] 
Episode: 12: [[-7.4814761e-04 -4.9255411e-03  2.5060605e-03 -6.9373440e-05
  -7.2428901e-03]
 [-6.8643875e-03  5.8446679e-04 -5.8352328e-03 -5.7180952e-03
   2.3118251e-03]
 [-9.6189724e-03 -4.9394649e-04 -2.3779138e-03 -3.3862984e-03
   5.9138751e-03]
 [-1.0914267e-03 -1.2144273e-03 -1.1336494e-02 -2.1606374e-03
   2.3847008e-03]
 [-1.1605648e-02 -2.9213339e-04 -9.3345086e-05 -4.5153191e-03
  -3.5415697e-03]] 
Episode: 13: [[-0.00067342 -0.00535021  0.00328928 -0.00082686 -0.00803897]
 [-0.00774754  0.00096552 -0.00534922 -0.00706547  0.00159106]
 [-0.00991812  0.00038506 -0.00237828 -0.00323774  0.00594982]
 [ 0.0003308  -0.00032838 -0.01173347 -0.00209134  0.00176168]
 [-0.01063302 -0.00088265 -0.00015249 -0.00493565 -0.00416222]] 
Episode: 14: [[-1.0925705e-03 -6.1592129e-03  4.3615918e-03 -1.8564078e-03
  -9.0670576e-03]
 [-8.8896602e-03  1.6817692e-03 -4.4970219e-03 -8.5520651e-03
   6.2609673e-04]
 [-1.0621324e-02  1.4942266e-03 -1.9696937e-03 -3.4813348e-03
   5.6217983e-03]
 [ 1.1291304e-03  4.7881978e-05 -1.1676662e-02 -2.3653060e-03
   1.6032679e-03]
 [-1.0275398e-02 -8.6615648e-04  2.2711884e-04 -5.6680264e-03
  -5.0488398e-03]] 
Episode: 15: [[-0.00100225 -0.00638597  0.00564722 -0.00233105 -0.01027737]
 [-0.00943859  0.00265274 -0.00338124 -0.00947211  0.00015132]
 [-0.01161499  0.0027819  -0.00200773 -0.00403156  0.00500707]
 [ 0.0021549   0.00070734 -0.01198781 -0.00291485  0.00112905]
 [-0.00958749 -0.00042255  0.00014844 -0.00592359 -0.00544992]] 
Episode: 16: [[-0.00132229 -0.00696747  0.00634269 -0.00308675 -0.01163378]
 [-0.01026523  0.00382315 -0.00284662 -0.01057901 -0.00057723]
 [-0.01205016  0.00421133 -0.00239363 -0.00417421  0.00480169]
 [ 0.00336129  0.00159378 -0.01259003 -0.00308596  0.00040152]
 [-0.00864491 -0.00045104 -0.00028296 -0.00580213 -0.00546345]] 
Episode: 17: [[-1.22275250e-03 -7.08827702e-03  7.28415139e-03 -3.39319999e-03
  -1.24909189e-02]
 [-1.06208166e-02  5.15314471e-03 -2.03242665e-03 -1.12246079e-02
  -8.94744706e-04]
 [-1.20526925e-02  5.11598215e-03 -2.38745031e-03 -4.60829260e-03
   4.31890460e-03]
 [ 4.07602871e-03  2.04668124e-03 -1.27837928e-02 -3.52414418e-03
   8.42032314e-05]
 [-8.19019880e-03 -8.43617017e-04 -3.04490066e-04 -6.01986377e-03
  -5.78810275e-03]] 
Episode: 18: [[-0.00113193 -0.00715066  0.00811556 -0.00397694 -0.01352956]
 [-0.01094821  0.00639072 -0.00128325 -0.01207866 -0.00146642]
 [-0.0120458   0.00598801 -0.00247161 -0.0046843   0.00419527]
 [ 0.0047875   0.00253802 -0.01293294 -0.00362492 -0.00036081]
 [-0.00776028 -0.00119721 -0.00034754 -0.00622416 -0.00618623]] 
Episode: 19: [[-7.04209728e-04 -6.85407966e-03  9.16389097e-03 -4.17318009e-03
  -1.41455634e-02]
 [-1.08973421e-02  7.13483477e-03 -2.98319297e-04 -1.25363059e-02
  -1.67657679e-03]
 [-1.16932895e-02  6.43213699e-03 -2.22296710e-03 -4.46142303e-03
   4.37230943e-03]
 [ 5.09412168e-03  2.66458536e-03 -1.27509134e-02 -3.98504781e-03
  -4.51159547e-04]
 [-7.06143444e-03 -1.14678626e-03 -5.40891378e-05 -6.71120780e-03
  -6.83242222e-03]] 
Episode: 20: [[-0.00035632 -0.00670143  0.0097533  -0.00464048 -0.01440493]
 [-0.01069491  0.00808613  0.00021543 -0.01265914 -0.00158172]
 [-0.01122342  0.00699064 -0.00191613 -0.00398676  0.0048033 ]
 [ 0.0055857   0.0028378  -0.01261185 -0.00456575 -0.00081591]
 [-0.00647744 -0.00106559  0.00040258 -0.00743323 -0.00768589]] 
Episode: 21: [[-3.0807667e-05 -6.6604279e-03  1.0323916e-02 -5.3356467e-03
  -1.4903339e-02]
 [-1.0543113e-02  9.2103612e-03  7.7762973e-04 -1.3036562e-02
  -1.7696203e-03]
 [-1.0897671e-02  7.7734496e-03 -1.3398108e-03 -3.2983564e-03
   4.9120057e-03]
 [ 6.2074130e-03  3.2803281e-03 -1.2390438e-02 -4.8174104e-03
  -8.5694611e-04]
 [-5.7857628e-03 -1.0408136e-03  1.1117200e-03 -8.3524128e-03
  -8.7140538e-03]] 
Episode: 22: [[-9.2216120e-05 -6.2884148e-03  1.0502774e-02 -5.6643118e-03
  -1.5076609e-02]
 [-1.0091563e-02  1.0480133e-02  9.4361213e-04 -1.3104886e-02
  -1.6700904e-03]
 [-1.0949962e-02  8.7452298e-03 -5.3818483e-04 -2.4273694e-03
   5.2705845e-03]
 [ 6.4575099e-03  3.3838935e-03 -1.1893564e-02 -5.2928464e-03
  -1.1639287e-03]
 [-5.5069937e-03 -1.3602773e-03  2.0314492e-03 -8.8745495e-03
  -9.8904846e-03]] 
Episode: 23: [[-0.00015111 -0.00595847  0.01067603 -0.00622583 -0.01536139]
 [-0.00968522  0.01161519  0.00119678 -0.0134232  -0.00184155]
 [-0.01100593  0.00965187  0.00038382 -0.00192062  0.00543343]
 [ 0.0066921   0.0035941  -0.01130549 -0.00596184 -0.00139443]
 [-0.00523915 -0.00163439  0.00286749 -0.00955355 -0.0108299 ]] 
Episode: 24: [[-0.0001905  -0.00569128  0.01102427 -0.0066848  -0.0156656 ]
 [-0.00939161  0.01279493  0.00160403 -0.01395775 -0.00224732]
 [-0.01105721  0.01058837  0.00147994 -0.00172877  0.00531945]
 [ 0.00702252  0.00350089 -0.0104958  -0.00679893 -0.0013296 ]
 [-0.00488933 -0.00193467  0.00389499 -0.00987802 -0.01138594]] 
Episode: 25: [[-0.00023021 -0.00548559  0.01133012 -0.00731695 -0.01619721]
 [-0.00913586  0.01391477  0.00201707 -0.01468006 -0.0028565 ]
 [-0.01110683  0.01158342  0.00227736 -0.00181029  0.00541632]
 [ 0.00735552  0.00367515 -0.01007459 -0.0077825  -0.00153486]
 [-0.00453427 -0.00216802  0.00465527 -0.00989718 -0.01161144]] 
Episode: 26: [[-0.00026499 -0.00529733  0.0116103  -0.00792424 -0.01671249]
 [-0.0088984   0.01493686  0.00239276 -0.01541061 -0.00351046]
 [-0.01113484  0.01249912  0.00298535 -0.00194313  0.00542647]
 [ 0.00766653  0.00385433 -0.00977044 -0.00873079 -0.00190031]
 [-0.00420107 -0.0023803   0.00533424 -0.00992051 -0.011775  ]] 
Episode: 27: [[-0.00029313 -0.00513927  0.01188466 -0.00849931 -0.01722011]
 [-0.00867502  0.0158538   0.00274133 -0.01605475 -0.00384211]
 [-0.0111596   0.01333075  0.00368628 -0.0022225   0.00559619]
 [ 0.00794209  0.00405356 -0.00936503 -0.00978328 -0.00248113]
 [-0.00387182 -0.00257261  0.00596222 -0.00994505 -0.01187308]] 
Episode: 28: [[-0.00031924 -0.00499398  0.01213323 -0.00900603 -0.0176788 ]
 [-0.00847293  0.01668904  0.00306048 -0.01659721 -0.00410573]
 [-0.01119387  0.01409043  0.00426708 -0.00248155  0.00580722]
 [ 0.00817408  0.0042437  -0.0092087  -0.01084703 -0.00294432]
 [-0.00357786 -0.00274655  0.00650669 -0.00998397 -0.01199424]] 
Episode: 29: [[-0.00034455 -0.00486179  0.01235919 -0.00946888 -0.01809321]
 [-0.00829189  0.01745276  0.00334637 -0.01708804 -0.00435475]
 [-0.01123324  0.01478498  0.0047825  -0.00274436  0.00597684]
 [ 0.00836115  0.00441571 -0.00911539 -0.01191739 -0.00348978]
 [-0.00331183 -0.00290486  0.00700117 -0.01000904 -0.01211914]] 
Episode: 30: [[-0.00036496 -0.00474063  0.01256293 -0.00990099 -0.01845869]
 [-0.00811826  0.01814875  0.00361039 -0.01757216 -0.0045486 ]
 [-0.01124585  0.0154285   0.00523252 -0.00299646  0.00617071]
 [ 0.0085498   0.00461241 -0.00912693 -0.01274221 -0.00395282]
 [-0.00306322 -0.00304471  0.00744064 -0.01004532 -0.0121995 ]] 
Episode: 31: [[-0.00038494 -0.00463067  0.01274929 -0.01028294 -0.01878925]
 [-0.00796445  0.01878273  0.00384842 -0.0179865  -0.0047252 ]
 [-0.01126624  0.01601148  0.00562864 -0.00320648  0.00637097]
 [ 0.00870707  0.00478351 -0.0091938  -0.01344591 -0.00428765]
 [-0.00284242 -0.00317241  0.00783569 -0.01007892 -0.01225353]] 
Episode: 32: [[-0.00040656 -0.00453052  0.01291875 -0.01060271 -0.01909361]
 [-0.00783691  0.01935946  0.00406476 -0.01832293 -0.00491315]
 [-0.01131887  0.01653779  0.0059757  -0.00341491  0.00654826]
 [ 0.00881814  0.00492856 -0.00930173 -0.01414447 -0.00455562]
 [-0.00265727 -0.0032898   0.00818978 -0.01009827 -0.0123136 ]] 
Episode: 33: [[-0.00043124 -0.00444495  0.01308432 -0.01098461 -0.01934228]
 [-0.00772445  0.01992724  0.00431689 -0.01884864 -0.00505457]
 [-0.01138795  0.01711112  0.00635941 -0.0038659   0.00673783]
 [ 0.00897452  0.00514473 -0.00946285 -0.01501583 -0.00485719]
 [-0.0024802  -0.00338843  0.00852143 -0.01012764 -0.01225612]] 
Episode: 34: [[-0.00045406 -0.00436917  0.01323647 -0.01134374 -0.01956686]
 [-0.00762359  0.02044673  0.00454498 -0.01936891 -0.00518741]
 [-0.01145733  0.01763916  0.00667929 -0.00426857  0.00693356]
 [ 0.00911454  0.00534399 -0.00971417 -0.0157402  -0.00503962]
 [-0.00231585 -0.00347773  0.00880998 -0.01018583 -0.01225433]] 
Episode: 35: [[-0.00047939 -0.00429923  0.01337428 -0.01165108 -0.01976911]
 [-0.00754537  0.02092033  0.00474722 -0.01980698 -0.00528584]
 [-0.01155878  0.01812046  0.00691027 -0.00463723  0.00713078]
 [ 0.00919769  0.00551933 -0.01015304 -0.01646409 -0.00526406]
 [-0.00218501 -0.0035594   0.00904854 -0.01025552 -0.01229803]] 
Episode: 36: [[-0.00050727 -0.0042326   0.01349992 -0.0118904  -0.01995141]
 [-0.0074931   0.02134603  0.00492767 -0.02015744 -0.00538557]
 [-0.01170398  0.01853959  0.0070882  -0.00506013  0.00725885]
 [ 0.00923218  0.00564551 -0.01062989 -0.01717741 -0.00543933]
 [-0.00208773 -0.00363681  0.0092573  -0.01031424 -0.01234353]] 
Episode: 37: [[-0.00053242 -0.00417091  0.01361316 -0.01211657 -0.02013236]
 [-0.00744362  0.02173475  0.00508702 -0.02048316 -0.00550892]
 [-0.0118283   0.01892578  0.00717085 -0.00547785  0.00732963]
 [ 0.00926553  0.00576091 -0.01127459 -0.01771451 -0.00558843]
 [-0.00199819 -0.00370772  0.00941422 -0.01039232 -0.0123871 ]] 
Episode: 38: [[-0.00055625 -0.00411556  0.0137151  -0.01231583 -0.0202862 ]
 [-0.00740171  0.02209046  0.00523332 -0.02077689 -0.005625  ]
 [-0.01195083  0.01928114  0.00720241 -0.00585646  0.00737544]
 [ 0.00928424  0.00586739 -0.01201074 -0.01822026 -0.00576319]
 [-0.00191938 -0.00377277  0.00953648 -0.01043717 -0.01242587]] 
Episode: 39: [[-0.00057989 -0.00406104  0.01380307 -0.01247169 -0.02039297]
 [-0.00736735  0.02241071  0.00533919 -0.02095338 -0.00567605]
 [-0.01208145  0.01957503  0.00712632 -0.00610453  0.00747649]
 [ 0.00923283  0.00590792 -0.01288149 -0.01852422 -0.00578796]
 [-0.00186504 -0.00383694  0.0096172  -0.01042171 -0.01244475]] 
Episode: 40: [[-0.00059771 -0.0040146   0.01388312 -0.01264644 -0.0204972 ]
 [-0.00732489  0.02270584  0.00543421 -0.02119744 -0.00574897]
 [-0.0121683   0.01984629  0.00709245 -0.00635324  0.00749217]
 [ 0.00922107  0.00593772 -0.01360853 -0.01875366 -0.00578178]
 [-0.00180142 -0.00389542  0.00970458 -0.01038542 -0.01245988]] 
Episode: 41: [[-0.00061304 -0.00397709  0.01395695 -0.01286164 -0.02058902]
 [-0.00728253  0.02298934  0.00552377 -0.02160684 -0.00577576]
 [-0.01226157  0.02013992  0.00706976 -0.00675572  0.00751372]
 [ 0.0092592   0.00601653 -0.01432961 -0.01886199 -0.00573665]
 [-0.00172914 -0.00394531  0.0097803  -0.01031481 -0.01244449]] 
Episode: 42: [[-0.0006273  -0.00394308  0.01402043 -0.01303902 -0.02066377]
 [-0.00724713  0.02324904  0.00559775 -0.02191729 -0.00579619]
 [-0.01236357  0.02039899  0.00694132 -0.00704386  0.00755428]
 [ 0.00925406  0.00606666 -0.0152287  -0.01877231 -0.00559189]
 [-0.00167282 -0.00399214  0.00981146 -0.01031989 -0.01250852]] 
Episode: 43: [[-0.00064073 -0.00391261  0.01407675 -0.01322505 -0.02074588]
 [-0.00721415  0.02348671  0.00566164 -0.02222069 -0.00584946]
 [-0.0124557   0.02063234  0.00678312 -0.0073029   0.0075593 ]
 [ 0.00924153  0.00609836 -0.01616212 -0.01860261 -0.00545738]
 [-0.00162107 -0.00403662  0.00982393 -0.01033999 -0.01260915]] 
Episode: 44: [[-0.00065377 -0.00388359  0.01412393 -0.0134628  -0.02089269]
 [-0.0071806   0.02370531  0.0057136  -0.02257083 -0.0060343 ]
 [-0.01253818  0.0208529   0.00658192 -0.00755388  0.00755303]
 [ 0.00922866  0.00613912 -0.01717777 -0.01828117 -0.00519312]
 [-0.00157004 -0.00407774  0.00981289 -0.01032788 -0.01268397]] 
Episode: 45: [[-0.00066434 -0.00386461  0.01416058 -0.01374366 -0.02104597]
 [-0.00714572  0.02390905  0.00576449 -0.02293685 -0.00622849]
 [-0.01261399  0.02107828  0.00635718 -0.00779177  0.0075338 ]
 [ 0.00923382  0.00620128 -0.01819216 -0.01793584 -0.00492958]
 [-0.00152016 -0.00411105  0.00978339 -0.01025191 -0.0127467 ]] 
Episode: 46: [[-0.00067409 -0.00384777  0.01419168 -0.01398017 -0.02118278]
 [-0.00711745  0.0240934   0.00579414 -0.02325526 -0.00637883]
 [-0.01268427  0.02126143  0.00608927 -0.00787078  0.00757317]
 [ 0.0092159   0.00621558 -0.01925643 -0.01740754 -0.00467061]
 [-0.00147907 -0.00414634  0.00973362 -0.01011314 -0.0127724 ]] 
Episode: 47: [[-0.0006862  -0.00383244  0.01421629 -0.01411628 -0.02128445]
 [-0.00710922  0.02425713  0.00581146 -0.02347068 -0.00654706]
 [-0.01279572  0.02139689  0.00582063 -0.00795773  0.00759831]
 [ 0.00914615  0.00615445 -0.02029009 -0.0171039  -0.00439327]
 [-0.00145624 -0.00418271  0.00968206 -0.00990797 -0.01273099]] 
Episode: 48: [[-0.000701   -0.00381847  0.01423941 -0.01420244 -0.02139002]
 [-0.00711562  0.02440498  0.00582591 -0.0236026  -0.00674565]
 [-0.01293509  0.02151313  0.00553327 -0.00802278  0.00758624]
 [ 0.00904669  0.00608048 -0.02134869 -0.01692606 -0.00414138]
 [-0.00145156 -0.00421747  0.00962042 -0.00973635 -0.01271599]] 
Episode: 49: [[-0.00071721 -0.00380681  0.01426319 -0.014266   -0.02151454]
 [-0.00713272  0.02453661  0.00584419 -0.02368878 -0.00702839]
 [-0.01309706  0.02161236  0.00520885 -0.00802231  0.00753929]
 [ 0.00890638  0.00599923 -0.02251667 -0.01685126 -0.00383015]
 [-0.00146229 -0.00424938  0.00953683 -0.00953039 -0.01275358]] 
Episode: 50: [[-0.00073132 -0.00379737  0.0142841  -0.01436787 -0.021607  ]
 [-0.00714815  0.02466207  0.0058528  -0.02379984 -0.00720597]
 [-0.0132448   0.02171332  0.0048577  -0.00809739  0.00760262]
 [ 0.00877762  0.00592585 -0.02368491 -0.01655781 -0.00351471]
 [-0.00146877 -0.00427857  0.00944116 -0.00940046 -0.01287254]] 
Episode: 51: [[-0.0007399  -0.00378397  0.01430644 -0.01448807 -0.02172706]
 [-0.00715077  0.02476747  0.00587008 -0.02396647 -0.00743589]
 [-0.01334304  0.0218171   0.00446632 -0.00812015  0.00764851]
 [ 0.00868085  0.00589485 -0.02490364 -0.01609096 -0.00324519]
 [-0.00147026 -0.00430609  0.00931947 -0.00917043 -0.01297761]] 
Episode: 52: [[-0.00074766 -0.00377275  0.01432597 -0.01461078 -0.02182686]
 [-0.00715385  0.02486348  0.00588195 -0.02414813 -0.00764224]
 [-0.01343667  0.02190625  0.00409447 -0.00813399  0.00768963]
 [ 0.00859474  0.00585485 -0.02605893 -0.01564054 -0.00295455]
 [-0.00147271 -0.0043321   0.00920377 -0.00897577 -0.01309804]] 
Episode: 53: [[-0.00075411 -0.00376082  0.01434513 -0.01473718 -0.02191451]
 [-0.0071577   0.02494975  0.00590146 -0.02434985 -0.00778571]
 [-0.01352425  0.02199129  0.00369712 -0.00819092  0.00772016]
 [ 0.00850795  0.00583033 -0.02728493 -0.01527581 -0.00278505]
 [-0.00147804 -0.00435608  0.00906934 -0.00878903 -0.01322188]] 
Episode: 54: [[-0.00075941 -0.00374788  0.01436227 -0.01485984 -0.02197805]
 [-0.00716171  0.02502424  0.00592452 -0.02456448 -0.00789569]
 [-0.0136038   0.02206798  0.00333787 -0.00822767  0.00777974]
 [ 0.00841811  0.00581928 -0.02842555 -0.01489396 -0.00265623]
 [-0.00148418 -0.0043767   0.00894431 -0.00863232 -0.0133322 ]] 
Episode: 55: [[-0.0007649  -0.00373872  0.01438905 -0.01499232 -0.02205301]
 [-0.00716662  0.02509146  0.00596339 -0.02476043 -0.00794029]
 [-0.01367891  0.02214238  0.00301266 -0.00836036  0.00784113]
 [ 0.00832951  0.00581177 -0.02954447 -0.0146566  -0.00254261]
 [-0.00148498 -0.00439291  0.00882529 -0.0085224  -0.01337213]] 
Episode: 56: [[-0.00077167 -0.00373078  0.01441259 -0.01510298 -0.02211991]
 [-0.00717638  0.02515174  0.00599919 -0.02492458 -0.00799294]
 [-0.01375704  0.0222084   0.00269689 -0.00846596  0.00790871]
 [ 0.00824095  0.00580384 -0.0306316  -0.01445643 -0.00237233]
 [-0.00149033 -0.00440669  0.00870975 -0.00848033 -0.01342449]] 
Episode: 57: [[-0.00077883 -0.00372014  0.01443032 -0.01516407 -0.02216813]
 [-0.00719116  0.02520088  0.00601407 -0.02500001 -0.00800749]
 [-0.01384681  0.02222971  0.00235559 -0.0084564   0.00799962]
 [ 0.00811758  0.00573574 -0.0317365  -0.0142384  -0.00219257]
 [-0.0015051  -0.00442688  0.00858986 -0.00833025 -0.01345466]] 
Episode: 58: [[-0.00078421 -0.00370873  0.01443989 -0.01516972 -0.02218895]
 [-0.00719999  0.02525252  0.00600405 -0.02493829 -0.00790385]
 [-0.01392914  0.0222561   0.00194068 -0.0085528   0.0079727 ]
 [ 0.00796463  0.00567049 -0.03295732 -0.0141195  -0.00208997]
 [-0.00152565 -0.00444429  0.00844042 -0.00821808 -0.01343463]] 
Episode: 59: [[-0.00079443 -0.00369702  0.01444597 -0.01512187 -0.02219839]
 [-0.00722566  0.02529493  0.00598264 -0.02479673 -0.00777968]
 [-0.01405367  0.02226133  0.00153263 -0.00869754  0.00796978]
 [ 0.0077755   0.00557657 -0.03412509 -0.01420597 -0.00186776]
 [-0.00156031 -0.00446192  0.00830037 -0.00812651 -0.01342427]] 
Episode: 60: [[-0.00080938 -0.00368614  0.01445141 -0.01502279 -0.02220287]
 [-0.00726764  0.0253291   0.00595949 -0.0246254  -0.00768669]
 [-0.01422057  0.022255    0.00114164 -0.00886764  0.00798519]
 [ 0.00756056  0.00546902 -0.03524902 -0.01448443 -0.00159386]
 [-0.0016096  -0.00447897  0.00817064 -0.00803687 -0.01347951]] 
Episode: 61: [[-0.00082694 -0.00367563  0.0144564  -0.01488653 -0.02221252]
 [-0.00731838  0.02535882  0.00593625 -0.02439393 -0.00761936]
 [-0.01440697  0.02224462  0.0007825  -0.00904486  0.00798616]
 [ 0.00733658  0.00536451 -0.03628108 -0.014895   -0.00129521]
 [-0.0016673  -0.00449471  0.00805239 -0.00796637 -0.01351959]] 
Episode: 62: [[-0.0008451  -0.00366777  0.01445891 -0.01479656 -0.02223431]
 [-0.00736918  0.02539322  0.00591192 -0.0242504  -0.00758674]
 [-0.01458983  0.02224568  0.00040466 -0.00928738  0.00791551]
 [ 0.00713681  0.00525995 -0.03740523 -0.01517831 -0.00096275]
 [-0.0017159  -0.00451059  0.00792269 -0.00791941 -0.01365798]] 
Episode: 63: [[-8.5832784e-04 -3.6640447e-03  1.4458887e-02 -1.4768937e-02
  -2.2151249e-02]
 [-7.3968624e-03  2.5444059e-02  5.8862912e-03 -2.4056403e-02
  -7.3143244e-03]
 [-1.4752392e-02  2.2299718e-02  2.9427731e-05 -9.6679050e-03
   7.8631826e-03]
 [ 6.9399849e-03  5.2328059e-03 -3.8504232e-02 -1.5474796e-02
  -8.7632553e-04]
 [-1.7780175e-03 -4.5179958e-03  7.7990661e-03 -8.0319187e-03
  -1.3747894e-02]] 
Episode: 64: [[-0.00085986 -0.00365397  0.01449181 -0.01468817 -0.02206905]
 [-0.00740382  0.02548862  0.00588884 -0.0235802  -0.00700068]
 [-0.01491071  0.02236148 -0.0003377  -0.01030172  0.00776333]
 [ 0.0067645   0.00522761 -0.03955394 -0.01589548 -0.00076597]
 [-0.00184014 -0.00452238  0.00769104 -0.00826651 -0.01380472]] 
Episode: 65: [[-0.00086264 -0.00366124  0.01451343 -0.01478557 -0.02209668]
 [-0.00740988  0.02554749  0.00588811 -0.02334425 -0.0068125 ]
 [-0.01506774  0.02252191 -0.00061193 -0.01120079  0.00743298]
 [ 0.00670019  0.00532587 -0.04045602 -0.01635586 -0.0008247 ]
 [-0.00188055 -0.00451922  0.00760541 -0.00844549 -0.01364598]] 
Episode: 66: [[-0.00086658 -0.00366527  0.01453017 -0.01487419 -0.02214343]
 [-0.0074169   0.02560655  0.0058885  -0.02314918 -0.00670097]
 [-0.01521922  0.02267618 -0.00091    -0.01197612  0.00724625]
 [ 0.00662071  0.00542947 -0.04138584 -0.01679283 -0.00086858]
 [-0.00192311 -0.00451506  0.00751081 -0.00858409 -0.01352864]] 
Episode: 67: [[-0.00086425 -0.00366774  0.01453896 -0.01488083 -0.02211206]
 [-0.00741133  0.02566738  0.00585665 -0.02284054 -0.00640043]
 [-0.01534908  0.02281759 -0.00129638 -0.01257235  0.00708679]
 [ 0.00650829  0.0055082  -0.04241899 -0.01688005 -0.00055219]
 [-0.00196734 -0.00451846  0.00739203 -0.00864319 -0.01350374]] 
Episode: 68: [[-0.00086179 -0.00367067  0.01454589 -0.01494595 -0.02207407]
 [-0.00740214  0.02572199  0.00583977 -0.02264229 -0.00610436]
 [-0.01545373  0.02295764 -0.00163251 -0.01316866  0.00692201]
 [ 0.00641416  0.00560744 -0.04335804 -0.01694886 -0.00043632]
 [-0.00200554 -0.00451787  0.00728386 -0.0086793  -0.01346925]] 
Episode: 69: [[-0.00086161 -0.00367349  0.01455083 -0.01498674 -0.0220289 ]
 [-0.00740067  0.02577132  0.00582182 -0.02242862 -0.00582228]
 [-0.01556663  0.02308331 -0.00194658 -0.01370439  0.0067638 ]
 [ 0.00631324  0.00569244 -0.04425001 -0.0170731  -0.00029922]
 [-0.00204661 -0.00451702  0.00718497 -0.00873071 -0.01345784]] 
Episode: 70: [[-0.00086177 -0.00367523  0.0145553  -0.01504305 -0.02193379]
 [-0.00739793  0.02581715  0.00581673 -0.02224662 -0.00548195]
 [-0.01567528  0.02321008 -0.00227716 -0.0145212   0.00659487]
 [ 0.00619513  0.00578921 -0.04518405 -0.01738351 -0.00031516]
 [-0.00209017 -0.00451457  0.00707308 -0.00877141 -0.013343  ]] 
Episode: 71: [[-0.00085126 -0.00367393  0.01456144 -0.01514556 -0.02190696]
 [-0.00739154  0.02585252  0.00581657 -0.02213135 -0.00522122]
 [-0.01577184  0.02332056 -0.00268683 -0.01520878  0.00653608]
 [ 0.00611077  0.00586347 -0.0461768  -0.01735672 -0.00040597]
 [-0.00213535 -0.00451602  0.0069335  -0.00869373 -0.01322835]] 
Episode: 72: [[-0.00084756 -0.00367058  0.01456696 -0.01517996 -0.0218818 ]
 [-0.00740525  0.02587943  0.00581122 -0.02193904 -0.00499108]
 [-0.01591097  0.02339517 -0.00308674 -0.01583579  0.00654598]
 [ 0.00600392  0.00589331 -0.04713431 -0.01754167 -0.00033369]
 [-0.00218996 -0.00452005  0.00680215 -0.00860986 -0.0131193 ]] 
Episode: 73: [[-0.00084615 -0.00367076  0.01457053 -0.01522722 -0.02184276]
 [-0.00742361  0.02589948  0.00581089 -0.02181407 -0.00474381]
 [-0.01604305  0.02345694 -0.00349346 -0.01644932  0.00655907]
 [ 0.00590782  0.00590768 -0.04812636 -0.01765084 -0.00028855]
 [-0.00224367 -0.00452472  0.00666024 -0.00856614 -0.01304693]] 
Episode: 74: [[-0.0008542  -0.00366368  0.01456955 -0.01510592 -0.02180302]
 [-0.00747541  0.02590402  0.00579909 -0.02146249 -0.00453366]
 [-0.0162594   0.02347645 -0.00390551 -0.01698898  0.00654119]
 [ 0.00574369  0.00586858 -0.04910983 -0.01805051 -0.00016049]
 [-0.00231709 -0.00453321  0.00652354 -0.00857503 -0.01296783]] 
Episode: 75: [[-8.6338969e-04 -3.6563107e-03  1.4566022e-02 -1.4950436e-02
  -2.1762481e-02]
 [-7.5284350e-03  2.5904844e-02  5.7805246e-03 -2.1074485e-02
  -4.3414761e-03]
 [-1.6472274e-02  2.3477564e-02 -4.3015578e-03 -1.7462187e-02
   6.5190867e-03]
 [ 5.5779745e-03  5.8107078e-03 -5.0049748e-02 -1.8519400e-02
  -2.3723926e-05]
 [-2.3884827e-03 -4.5420113e-03  6.3974690e-03 -8.5977744e-03
  -1.2902035e-02]] 
Episode: 76: [[-0.00087005 -0.00365317  0.0145624  -0.01487574 -0.02171438]
 [-0.00756969  0.02591217  0.00579457 -0.02083888 -0.0040869 ]
 [-0.01666112  0.02355793 -0.00472051 -0.01808761  0.00664373]
 [ 0.00544451  0.00591592 -0.05113488 -0.01896509  0.00012946]
 [-0.00244762 -0.00453673  0.00625319 -0.00864887 -0.01285215]] 
Episode: 77: [[-0.00088028 -0.0036493   0.01456413 -0.01471345 -0.02166752]
 [-0.00762793  0.02591142  0.00580055 -0.02052534 -0.00392922]
 [-0.01688524  0.02359888 -0.0051118  -0.01866509  0.00670022]
 [ 0.0053039   0.00595984 -0.05210492 -0.01958825  0.00031338]
 [-0.00250754 -0.00453525  0.006129   -0.00867297 -0.0128321 ]] 
Episode: 78: [[-0.00089035 -0.00364332  0.01456533 -0.01455661 -0.02160554]
 [-0.00768538  0.02590972  0.00580381 -0.02020437 -0.00371501]
 [-0.01710077  0.02363024 -0.0055811  -0.0191837   0.00674405]
 [ 0.00513743  0.00600425 -0.05323114 -0.02016717  0.00032426]
 [-0.00256974 -0.0045339   0.0059919  -0.00868206 -0.01279203]] 
Episode: 79: [[-0.00089722 -0.00363786  0.01457052 -0.01447195 -0.02161874]
 [-0.00773515  0.02590179  0.00582176 -0.02006989 -0.0036698 ]
 [-0.01728434  0.02366589 -0.00608691 -0.01976193  0.00673521]
 [ 0.00499648  0.00605834 -0.0544556  -0.02068021  0.00023536]
 [-0.00261757 -0.00453579  0.00583611 -0.00868761 -0.01284416]] 
Episode: 80: [[-0.00090418 -0.00363571  0.01457233 -0.01444365 -0.02160702]
 [-0.00778266  0.02590011  0.00584156 -0.0200769  -0.0037055 ]
 [-0.01743995  0.02370562 -0.00657196 -0.0202196   0.00668581]
 [ 0.00488977  0.00611125 -0.05562799 -0.02097043  0.00013365]
 [-0.00265717 -0.0045393   0.00568751 -0.00857989 -0.01285902]] 
Episode: 81: [[-0.00090925 -0.00363163  0.01457036 -0.0143734  -0.02149615]
 [-0.00782003  0.02590627  0.00586008 -0.01997772 -0.00351129]
 [-0.01756842  0.02377049 -0.00703761 -0.0206335   0.00670983]
 [ 0.00478152  0.0062249  -0.05676878 -0.02123836 -0.00015326]
 [-0.00269603 -0.00453409  0.00555166 -0.00846658 -0.01280281]] 
Episode: 82: [[-0.00091307 -0.00362933  0.0145706  -0.0143311  -0.02138759]
 [-0.00785441  0.02590637  0.00588643 -0.01992694 -0.0032375 ]
 [-0.01767945  0.02382274 -0.00750608 -0.02107161  0.00678619]
 [ 0.00467087  0.00633488 -0.05788884 -0.02146015 -0.00045078]
 [-0.00274012 -0.00453087  0.00541221 -0.00838907 -0.01273359]] 
Episode: 83: [[-0.00091711 -0.00362809  0.01457111 -0.01429348 -0.0212912 ]
 [-0.00788804  0.02590622  0.00591009 -0.01988459 -0.00300567]
 [-0.01778835  0.02386697 -0.00794198 -0.02146457  0.00685034]
 [ 0.00456712  0.00642605 -0.0589208  -0.02165872 -0.00071765]
 [-0.00278143 -0.00452858  0.00528545 -0.00831189 -0.01268159]] 
Episode: 84: [[-0.00091335 -0.00362378  0.0145806  -0.01438613 -0.02113645]
 [-0.007896    0.02593714  0.00596636 -0.02018675 -0.00294852]
 [-0.01785723  0.02399988 -0.00819748 -0.02217695  0.00649691]
 [ 0.00449165  0.00665307 -0.05966235 -0.02152262 -0.00126214]
 [-0.00283386 -0.00451399  0.00520829 -0.00825149 -0.01266168]] 
Episode: 85: [[-0.00090984 -0.00361929  0.01458214 -0.01444223 -0.0209801 ]
 [-0.00790593  0.02596789  0.00599676 -0.0204684  -0.00288387]
 [-0.01793055  0.02412266 -0.00839608 -0.0227994   0.00616107]
 [ 0.0044071   0.0068651  -0.06024737 -0.02152978 -0.00180495]
 [-0.00288222 -0.00449916  0.00515052 -0.00820472 -0.01264691]] 
Episode: 86: [[-0.00090724 -0.00361273  0.01458397 -0.01451141 -0.02083589]
 [-0.00791455  0.02599413  0.00601912 -0.02074363 -0.00283646]
 [-0.01799443  0.02422878 -0.0085961  -0.02338204  0.00583619]
 [ 0.00430943  0.00704918 -0.06080147 -0.02151277 -0.00230922]
 [-0.00292689 -0.00448752  0.00509555 -0.00813507 -0.01261575]] 
Episode: 87: [[-0.00090775 -0.00360511  0.01458569 -0.01452692 -0.02072096]
 [-0.00793365  0.02601399  0.00603782 -0.02091955 -0.00282277]
 [-0.0180822   0.0243117  -0.00880641 -0.02392901  0.00547882]
 [ 0.00420305  0.0072015  -0.06137746 -0.02159131 -0.00271666]
 [-0.00297478 -0.00447678  0.00504255 -0.00811075 -0.01260213]] 
Episode: 88: [[-0.00090067 -0.00359877  0.01458701 -0.01450828 -0.02063408]
 [-0.0079371   0.02601766  0.00605541 -0.02101094 -0.00284862]
 [-0.01816988  0.02436552 -0.00909774 -0.02432038  0.00520465]
 [ 0.00409039  0.00732027 -0.06204343 -0.02145254 -0.00307513]
 [-0.00302257 -0.00446688  0.00496683 -0.00807438 -0.01260473]] 
Episode: 89: [[-0.0008968  -0.00359009  0.01458681 -0.01445336 -0.02057529]
 [-0.0079476   0.02602266  0.00608189 -0.02103293 -0.00291079]
 [-0.01827321  0.02443043 -0.00934881 -0.02474946  0.00494914]
 [ 0.00397017  0.0074552  -0.06269662 -0.02153565 -0.00335807]
 [-0.00307099 -0.00445335  0.00490047 -0.00811543 -0.01264937]] 
Episode: 90: [[-0.00089301 -0.00358032  0.01459035 -0.01440977 -0.02052007]
 [-0.00795789  0.0260244   0.00611277 -0.02107964 -0.00297092]
 [-0.01837621  0.02449003 -0.00965491 -0.02518654  0.00469873]
 [ 0.00384468  0.00759056 -0.06347563 -0.02165326 -0.00367111]
 [-0.00311751 -0.00443981  0.00481879 -0.00816967 -0.01269505]] 
Episode: 91: [[-0.00089053 -0.00357111  0.01459242 -0.01436216 -0.02046967]
 [-0.00797008  0.02602454  0.00614374 -0.02108642 -0.00300282]
 [-0.01848046  0.02454231 -0.0099876  -0.0255347   0.00453369]
 [ 0.00371081  0.00770606 -0.06432513 -0.02170912 -0.00390164]
 [-0.00316382 -0.00442822  0.00472662 -0.00822069 -0.0127621 ]] 
Episode: 92: [[-0.00088886 -0.00356212  0.01459358 -0.01431063 -0.02043119]
 [-0.00798159  0.02602426  0.00617349 -0.021064   -0.00303538]
 [-0.01857745  0.02458801 -0.01033733 -0.02577951  0.00445462]
 [ 0.00358867  0.00780331 -0.06520323 -0.02168482 -0.00400418]
 [-0.00320624 -0.00441795  0.00463352 -0.00827674 -0.01280395]] 
Episode: 93: [[-0.00088761 -0.00355189  0.01459271 -0.01423736 -0.02038534]
 [-0.00799203  0.02601847  0.006194   -0.02099155 -0.0030248 ]
 [-0.01867633  0.02459102 -0.01074116 -0.02587338  0.00448106]
 [ 0.00347367  0.00783472 -0.06618968 -0.02143111 -0.00408204]
 [-0.0032403  -0.00441553  0.0045282  -0.00833368 -0.01286056]] 
Episode: 94: [[-0.00088531 -0.0035434   0.01459181 -0.014199   -0.02035934]
 [-0.0079989   0.02601563  0.00621864 -0.02095694 -0.0030255 ]
 [-0.01875449  0.02459654 -0.01112035 -0.02592806  0.00446572]
 [ 0.00337933  0.00787227 -0.06714805 -0.02114848 -0.00422049]
 [-0.00327024 -0.00441203  0.00442716 -0.00837025 -0.01290584]] 
Episode: 95: [[-0.0008828  -0.00353351  0.014588   -0.01414238 -0.02030675]
 [-0.00800528  0.02601128  0.00625461 -0.02089673 -0.00304727]
 [-0.01882978  0.02460506 -0.01148823 -0.02599544  0.00437849]
 [ 0.00328836  0.0079281  -0.06812675 -0.02090193 -0.00449925]
 [-0.00329958 -0.00440629  0.00432635 -0.00841615 -0.01294933]] 
Episode: 96: [[-0.00088156 -0.00352545  0.01458445 -0.01411139 -0.02026891]
 [-0.00801727  0.02600689  0.00628815 -0.02088546 -0.00306988]
 [-0.01889409  0.02462131 -0.01182884 -0.02604152  0.0044058 ]
 [ 0.00320679  0.008002   -0.06902749 -0.02077898 -0.00472626]
 [-0.00332309 -0.004398    0.00423221 -0.00843188 -0.01297194]] 
Episode: 97: [[-0.00088097 -0.00352042  0.01457929 -0.01409101 -0.02025517]
 [-0.0080292   0.02600197  0.00633821 -0.02091534 -0.00315376]
 [-0.01895227  0.02465471 -0.01214897 -0.02608529  0.00440862]
 [ 0.00313364  0.00811348 -0.06993955 -0.02061319 -0.00492599]
 [-0.00334321 -0.00438805  0.00413755 -0.00846206 -0.01299931]] 
Episode: 98: [[-0.00087909 -0.0035136   0.01457353 -0.01409094 -0.02022788]
 [-0.00803682  0.02599877  0.00637588 -0.0209781  -0.00320702]
 [-0.018998    0.02469367 -0.01241409 -0.02619141  0.00438349]
 [ 0.00306978  0.00821836 -0.07072999 -0.02034107 -0.00511101]
 [-0.00336342 -0.00437777  0.00406175 -0.00852754 -0.01305911]] 
Episode: 99: [[-0.00087647 -0.00350274  0.0145678  -0.01408851 -0.02023998]
 [-0.00804845  0.02599409  0.00640372 -0.02097742 -0.00325389]
 [-0.01903753  0.02471366 -0.01280706 -0.02614461  0.00440537]
 [ 0.00298505  0.00827458 -0.07172181 -0.01998528 -0.0052314 ]
 [-0.00338475 -0.00437113  0.00395108 -0.00867748 -0.01316154]] 
Episode: 100: [[-0.00087431 -0.00349196  0.01456692 -0.0141956  -0.02030935]
 [-0.00805245  0.02599508  0.00642217 -0.02112405 -0.00333451]
 [-0.0190518   0.02478295 -0.01318874 -0.02600406  0.0042619 ]
 [ 0.00295924  0.00837132 -0.07266895 -0.01940438 -0.00548803]
 [-0.003406   -0.00437161  0.00384119 -0.0088479  -0.01327922]] 
Episode: 101: [[-0.00086647 -0.00348554  0.01456871 -0.01455018 -0.02054434]
 [-0.0080332   0.02600533  0.00644943 -0.02156151 -0.00356187]
 [-0.01900071  0.02488017 -0.01349946 -0.02593738  0.00405743]
 [ 0.00297168  0.00849797 -0.07352074 -0.01861589 -0.00582111]
 [-0.00341284 -0.00437081  0.00374435 -0.00898963 -0.01338516]] 
Episode: 102: [[-0.00085826 -0.00347796  0.0145723  -0.01487542 -0.02077725]
 [-0.00800958  0.02601714  0.00646824 -0.021953   -0.00380983]
 [-0.01895044  0.0249669  -0.01386928 -0.02592945  0.0038268 ]
 [ 0.00297075  0.00859759 -0.07449821 -0.01779384 -0.00604391]
 [-0.0034173  -0.00437273  0.0036309  -0.00920751 -0.01357108]] 
Episode: 103: [[-0.00085095 -0.00347049  0.01457462 -0.01518849 -0.02102559]
 [-0.00798728  0.0260276   0.00649042 -0.02228411 -0.00403421]
 [-0.01890009  0.02504565 -0.01426054 -0.02583942  0.0036889 ]
 [ 0.00294884  0.00868344 -0.0755249  -0.01700733 -0.00622847]
 [-0.00342044 -0.00437575  0.00350547 -0.00935737 -0.01377339]] 
Episode: 104: [[-0.00084313 -0.0034618   0.01457631 -0.01547707 -0.02125136]
 [-0.00795946  0.02604029  0.00652081 -0.02255168 -0.00420126]
 [-0.01884659  0.02512729 -0.0146205  -0.02588446  0.00358701]
 [ 0.00291845  0.00878397 -0.07653604 -0.01648222 -0.00637781]
 [-0.00341744 -0.00437619  0.00338753 -0.00948935 -0.01392604]] 
Episode: 105: [[-0.00083679 -0.00345536  0.0145756  -0.01574157 -0.02145616]
 [-0.00793686  0.02605292  0.00655742 -0.02279589 -0.00437733]
 [-0.01880926  0.02520662 -0.01496082 -0.02595821  0.00348233]
 [ 0.00287572  0.00888889 -0.07752496 -0.01604089 -0.00648499]
 [-0.00341907 -0.00437438  0.00326792 -0.00959363 -0.01404321]] 
Episode: 106: [[-0.00083955 -0.00344342  0.01458041 -0.01585249 -0.02164117]
 [-0.00794711  0.02603903  0.00656785 -0.02274343 -0.00447576]
 [-0.01885272  0.02518362 -0.01547652 -0.02593624  0.00360021]
 [ 0.00272396  0.00883275 -0.0787927  -0.01597707 -0.00646744]
 [-0.00344499 -0.00438126  0.0031087  -0.00977675 -0.01418918]] 
Episode: 107: [[-0.00084365 -0.00343194  0.01458572 -0.01594879 -0.02181973]
 [-0.00796253  0.02602648  0.0065799  -0.02266903 -0.00459013]
 [-0.01890941  0.02515825 -0.0159729  -0.02592825  0.00368242]
 [ 0.00258523  0.00877209 -0.08002052 -0.01603071 -0.00649186]
 [-0.00347378 -0.00438786  0.00295727 -0.00995105 -0.0143511 ]] 
Episode: 108: [[-0.00085015 -0.0034147   0.01459181 -0.01599086 -0.02197494]
 [-0.00798552  0.02601094  0.00659051 -0.02249514 -0.00468282]
 [-0.01898491  0.02510784 -0.01653275 -0.02589723  0.00376358]
 [ 0.0024137   0.00867846 -0.08135979 -0.01618637 -0.00648685]
 [-0.0035072  -0.0043978   0.00278347 -0.01011783 -0.0145209 ]] 
Episode: 109: [[-0.00085523 -0.00339925  0.01459837 -0.01599742 -0.02210638]
 [-0.00800609  0.02599798  0.00659777 -0.02229543 -0.00477916]
 [-0.01905427  0.02505548 -0.01705922 -0.02583026  0.00380825]
 [ 0.00225343  0.00857355 -0.08260865 -0.01631762 -0.00648188]
 [-0.00353952 -0.00440988  0.00262321 -0.01025819 -0.01468828]] 
Episode: 110: [[-0.00085734 -0.003388    0.01460625 -0.01594716 -0.022173  ]
 [-0.00801575  0.02600559  0.00663912 -0.02196552 -0.00469325]
 [-0.01912188  0.02504437 -0.01771676 -0.02587063  0.00380613]
 [ 0.00206621  0.00852992 -0.08409894 -0.01670895 -0.00658859]
 [-0.00357785 -0.00440982  0.00241679 -0.01048408 -0.01478958]] 
Episode: 111: [[-0.00085692 -0.00338315  0.01460059 -0.01610904 -0.02222927]
 [-0.00800386  0.02604701  0.00667525 -0.02191296 -0.00455595]
 [-0.01912967  0.02518968 -0.01835006 -0.02618467  0.00373432]
 [ 0.0018863   0.00868101 -0.08553419 -0.01709831 -0.00710937]
 [-0.00361665 -0.0044026   0.00220963 -0.01069515 -0.01492501]] 
Episode: 112: [[-0.00085449 -0.00338026  0.01459966 -0.01623241 -0.02233011]
 [-0.00798898  0.0260856   0.0067423  -0.02185554 -0.00422268]
 [-0.01913176  0.02533879 -0.01895324 -0.02630209  0.00386125]
 [ 0.00171001  0.00885836 -0.0869722  -0.01750537 -0.00790173]
 [-0.00365332 -0.00439077  0.00199618 -0.01088601 -0.01489481]] 
Episode: 113: [[-0.00084737 -0.00337806  0.01462151 -0.01635978 -0.0224335 ]
 [-0.00797515  0.02610046  0.00682476 -0.02190964 -0.0040921 ]
 [-0.01915291  0.02547731 -0.01953253 -0.02651317  0.00363734]
 [ 0.00156799  0.00906142 -0.08831709 -0.01782324 -0.00897691]
 [-0.00369216 -0.00437989  0.00178655 -0.01100774 -0.01484205]] 
Episode: 114: [[-0.00084824 -0.00338603  0.01461374 -0.01666963 -0.02269127]
 [-0.00798278  0.02610371  0.00681674 -0.02198434 -0.00398577]
 [-0.01917609  0.02562078 -0.02012128 -0.02633204  0.00359464]
 [ 0.00143645  0.00924612 -0.08965966 -0.01812837 -0.01034127]
 [-0.00372411 -0.00437618  0.00158151 -0.01079247 -0.01453235]] 
Episode: 115: [[-0.00085315 -0.0033989   0.01460269 -0.01709641 -0.02291459]
 [-0.00799177  0.02610222  0.0068339  -0.02233037 -0.00412075]
 [-0.01920579  0.02577128 -0.02076643 -0.02652246  0.00320068]
 [ 0.00129099  0.00946248 -0.09115312 -0.01845454 -0.01190897]
 [-0.00375095 -0.00437151  0.00134532 -0.0106657  -0.01439776]] 
Episode: 116: [[-0.00085738 -0.00341294  0.0145872  -0.01760134 -0.02318116]
 [-0.00799956  0.02610295  0.00685474 -0.02289533 -0.00440915]
 [-0.01922196  0.02591949 -0.02140074 -0.02673557  0.00282907]
 [ 0.00116672  0.00967617 -0.09262903 -0.01856004 -0.01333883]
 [-0.00377051 -0.00436518  0.00111439 -0.01056427 -0.01436379]] 
Episode: 117: [[-0.00086281 -0.00342166  0.01456585 -0.01813455 -0.02353811]
 [-0.00800362  0.02608982  0.00686944 -0.02343836 -0.00483061]
 [-0.01923981  0.02603985 -0.02207406 -0.02691062  0.00262618]
 [ 0.00101873  0.00986811 -0.09414881 -0.01861834 -0.01456504]
 [-0.0037967  -0.00435467  0.00087558 -0.01055712 -0.01444254]] 
Episode: 118: [[-0.00086638 -0.00343036  0.01454617 -0.01867036 -0.02383646]
 [-0.00800118  0.02607799  0.00688904 -0.0239554  -0.00514877]
 [-0.01924964  0.02615591 -0.02272939 -0.02713848  0.00241192]
 [ 0.00088958  0.01004876 -0.09563442 -0.01858629 -0.01575893]
 [-0.00382498 -0.00434526  0.00063552 -0.01051987 -0.01451858]] 
Episode: 119: [[-0.00086966 -0.00344404  0.01452963 -0.01927647 -0.02413501]
 [-0.00799303  0.02608525  0.00691283 -0.02456115 -0.00540705]
 [-0.0192337   0.02633759 -0.02333548 -0.02733845  0.00255655]
 [ 0.00078745  0.01032682 -0.09699861 -0.01852525 -0.0170034 ]
 [-0.00385066 -0.00432233  0.00041476 -0.01048612 -0.01453594]] 
Episode: 120: [[-0.00087264 -0.00345653  0.01451349 -0.01987997 -0.02438768]
 [-0.00798552  0.02609574  0.00694432 -0.02517574 -0.00564097]
 [-0.01920014  0.02651397 -0.02388823 -0.02765403  0.00268926]
 [ 0.00070033  0.0105863  -0.09826517 -0.01842264 -0.01815082]
 [-0.00386573 -0.0042996   0.00020737 -0.01046804 -0.01463552]] 
Episode: 121: [[-8.7550399e-04 -3.4622690e-03  1.4500623e-02 -2.0499978e-02
  -2.4612488e-02]
 [-7.9790009e-03  2.6097938e-02  6.9915964e-03 -2.5837218e-02
  -5.8421032e-03]
 [-1.9157024e-02  2.6692152e-02 -2.4372131e-02 -2.8115468e-02
   2.8155793e-03]
 [ 6.0492702e-04  1.0882385e-02 -9.9445365e-02 -1.8520473e-02
  -1.9288339e-02]
 [-3.8694497e-03 -4.2693838e-03  1.8535855e-05 -1.0395270e-02
  -1.4740012e-02]] 
Episode: 122: [[-0.00087874 -0.00346591  0.01448889 -0.0210628  -0.02480781]
 [-0.00797376  0.02609991  0.00703628 -0.0264889  -0.00609791]
 [-0.01911452  0.02685491 -0.02481988 -0.02856641  0.0028437 ]
 [ 0.00050694  0.01114562 -0.10052164 -0.01863719 -0.02037041]
 [-0.00387568 -0.00424209 -0.00015112 -0.01036457 -0.01493295]] 
Episode: 123: [[-0.0008848  -0.00346687  0.01447712 -0.02154732 -0.02498251]
 [-0.00797835  0.02609807  0.0070692  -0.02701277 -0.0063157 ]
 [-0.01910502  0.02698466 -0.02525181 -0.0289875   0.00284481]
 [ 0.00039079  0.01135728 -0.10155138 -0.0188239  -0.02132742]
 [-0.0038888  -0.00421945 -0.00031087 -0.01034592 -0.01512516]] 
Episode: 124: [[-0.000897   -0.00346587  0.01446278 -0.02195747 -0.02512469]
 [-0.00800063  0.02608727  0.00707812 -0.02742212 -0.006468  ]
 [-0.01913839  0.02703088 -0.02579848 -0.02928437  0.00291271]
 [ 0.00022648  0.01141012 -0.10277005 -0.01900494 -0.02212527]
 [-0.00390774 -0.0042143  -0.00050771 -0.01025233 -0.01522262]] 
Episode: 125: [[-9.1326359e-04 -3.4644369e-03  1.4449271e-02 -2.2287086e-02
  -2.5252629e-02]
 [-8.0392770e-03  2.6074102e-02  7.0883818e-03 -2.7736653e-02
  -6.6142655e-03]
 [-1.9214915e-02  2.7064772e-02 -2.6319426e-02 -2.9609764e-02
   2.9572516e-03]
 [ 4.6693876e-05  1.1453511e-02 -1.0392784e-01 -1.9396249e-02
  -2.2946842e-02]
 [-3.9405613e-03 -4.2092451e-03 -6.9451134e-04 -1.0175504e-02
  -1.5358036e-02]] 
Episode: 126: [[-0.0009338  -0.00346533  0.01443186 -0.02254173 -0.02536433]
 [-0.00809183  0.02605694  0.00709223 -0.02793814 -0.00674504]
 [-0.01933101  0.02707493 -0.02689111 -0.0298794   0.00310283]
 [-0.00016365  0.01146663 -0.10520305 -0.01999454 -0.02370394]
 [-0.00398318 -0.00420626 -0.00090199 -0.01012302 -0.0155516 ]] 
Episode: 127: [[-0.00094894 -0.00346683  0.0144201  -0.02275038 -0.02546545]
 [-0.00813276  0.02604093  0.00711078 -0.02807339 -0.00686673]
 [-0.01943659  0.02708481 -0.02749465 -0.03011001  0.00323808]
 [-0.00035781  0.01147658 -0.10649645 -0.02039011 -0.02441276]
 [-0.00402634 -0.00420466 -0.00112938 -0.01003347 -0.01574895]] 
Episode: 128: [[-0.00096954 -0.00346521  0.01441221 -0.02287002 -0.0255443 ]
 [-0.00819511  0.02601535  0.0071142  -0.02805202 -0.00693507]
 [-0.01959774  0.02705743 -0.02808733 -0.03026447  0.00342865]
 [-0.00057378  0.01143081 -0.10772119 -0.0209003  -0.02496187]
 [-0.00408948 -0.00420826 -0.00134203 -0.00999798 -0.01590531]] 
Episode: 129: [[-0.00099308 -0.0034626   0.01440588 -0.02293865 -0.02561439]
 [-0.0082706   0.02598239  0.00710645 -0.02795968 -0.00699731]
 [-0.01978868  0.02699632 -0.02870337 -0.03030363  0.00371114]
 [-0.0007854   0.01133901 -0.10894571 -0.02145021 -0.0252798 ]
 [-0.00416594 -0.00421589 -0.00155272 -0.01001654 -0.01607385]] 
Episode: 130: [[-0.00101983 -0.00345637  0.01439267 -0.02294749 -0.02566896]
 [-0.0083553   0.02593683  0.00707299 -0.02772106 -0.00699347]
 [-0.02000725  0.02687716 -0.02934518 -0.0300637   0.00409061]
 [-0.00106489  0.01115045 -0.11019713 -0.02196697 -0.02549289]
 [-0.00424466 -0.00423016 -0.00176722 -0.00996287 -0.01620075]] 
Episode: 131: [[-0.00104349 -0.0034481   0.01438054 -0.02298227 -0.02572492]
 [-0.00843108  0.02589832  0.00704465 -0.02752722 -0.00694383]
 [-0.02020118  0.02678069 -0.02993778 -0.02992514  0.00446512]
 [-0.00132409  0.01099129 -0.11137959 -0.02245907 -0.02570421]
 [-0.00431407 -0.00424029 -0.00196202 -0.00995284 -0.01631966]] 
Episode: 132: [[-0.001066   -0.00343989  0.0143702  -0.02303592 -0.02579079]
 [-0.00850226  0.02586796  0.00701614 -0.02736518 -0.006907  ]
 [-0.02038213  0.02670134 -0.03049794 -0.02978828  0.00480169]
 [-0.00157515  0.01084831 -0.11251614 -0.02292536 -0.02595908]
 [-0.00438768 -0.00424889 -0.00214889 -0.00991309 -0.01642119]] 
Episode: 133: [[-0.00108484 -0.0034309   0.01435144 -0.02300703 -0.02579004]
 [-0.00856634  0.02583032  0.00694192 -0.02711228 -0.00673057]
 [-0.02055253  0.02656879 -0.03115408 -0.02934341  0.00534179]
 [-0.00183955  0.01063245 -0.11375305 -0.02305268 -0.02617611]
 [-0.00447241 -0.00426665 -0.00235193 -0.00978773 -0.01653668]] 
Episode: 134: [[-0.00110163 -0.0034279   0.01433163 -0.02298193 -0.02579248]
 [-0.00862797  0.02579116  0.00690011 -0.02691689 -0.00663236]
 [-0.02070645  0.02645541 -0.03178879 -0.02897265  0.00580997]
 [-0.00209434  0.01047364 -0.1150144  -0.02319491 -0.02630079]
 [-0.00455219 -0.00427806 -0.00256406 -0.00969348 -0.01666469]] 
Episode: 135: [[-0.00111719 -0.00342469  0.01431166 -0.02299033 -0.02579731]
 [-0.00868797  0.02575892  0.00686059 -0.02681554 -0.00660973]
 [-0.02084822  0.02636224 -0.03235818 -0.02871127  0.00614833]
 [-0.00231788  0.0103439  -0.11616957 -0.02328183 -0.02645737]
 [-0.00461983 -0.00428864 -0.00275798 -0.0096147  -0.01679515]] 
Episode: 136: [[-0.00113201 -0.00342184  0.01428553 -0.02297272 -0.02576381]
 [-0.00874854  0.02572123  0.00685755 -0.02672899 -0.00653597]
 [-0.02099054  0.02628876 -0.03288817 -0.02853711  0.0064396 ]
 [-0.00251451  0.01028861 -0.11739924 -0.02355799 -0.02674423]
 [-0.00467208 -0.00428964 -0.00296155 -0.00955091 -0.01688554]] 
Episode: 137: [[-0.00115059 -0.00344025  0.0142427  -0.02314739 -0.02608588]
 [-0.0088238   0.02568059  0.00691503 -0.02695358 -0.00695113]
 [-0.02112864  0.02623749 -0.03338208 -0.02854168  0.00654207]
 [-0.00274151  0.0103387  -0.1186806  -0.02386753 -0.02656616]
 [-0.00474732 -0.0042621  -0.00316814 -0.00946551 -0.0172666 ]] 
Episode: 138: [[-0.00116683 -0.00346182  0.01420099 -0.02327744 -0.02637856]
 [-0.00889448  0.02563644  0.00698014 -0.02709591 -0.00721457]
 [-0.02125525  0.02620543 -0.03382322 -0.02838385  0.00683535]
 [-0.00293448  0.0104349  -0.11990638 -0.02405669 -0.02629122]
 [-0.00482009 -0.00422452 -0.00335969 -0.00934312 -0.01750878]] 
Episode: 139: [[-0.00117997 -0.00347804  0.01416405 -0.02346611 -0.02668541]
 [-0.00895007  0.02561501  0.00700808 -0.02746953 -0.00763076]
 [-0.02137216  0.02624362 -0.03428625 -0.02822541  0.00720795]
 [-0.00308383  0.01058458 -0.12110312 -0.02386903 -0.0259886 ]
 [-0.00490403 -0.00419203 -0.00354798 -0.00908058 -0.01774861]] 
Episode: 140: [[-0.00118239 -0.00348533  0.01411641 -0.02359486 -0.02686779]
 [-0.0089713   0.02559301  0.00703434 -0.02767508 -0.00777204]
 [-0.02148924  0.02629013 -0.03489005 -0.02804619  0.00779558]
 [-0.00323403  0.010719   -0.12243187 -0.02369302 -0.02597724]
 [-0.00500513 -0.0041779  -0.00377256 -0.00871486 -0.01776568]] 
Episode: 141: [[-0.00120023 -0.003474    0.01408636 -0.02415849 -0.02698495]
 [-0.00895753  0.02560896  0.00718406 -0.02793198 -0.00742422]
 [-0.02157798  0.02659291 -0.03511501 -0.02831481  0.00815825]
 [-0.00332486  0.01117286 -0.12330306 -0.02389078 -0.02639513]
 [-0.00508843 -0.00410599 -0.00389409 -0.00863813 -0.01724259]] 
Episode: 142: [[-0.00122102 -0.0034524   0.01405614 -0.02466815 -0.02696881]
 [-0.0089312   0.02561692  0.00739278 -0.02815587 -0.00689873]
 [-0.02165878  0.02701408 -0.03525059 -0.02854537  0.00846197]
 [-0.00341702  0.01185947 -0.12412222 -0.02399218 -0.02713093]
 [-0.0051703  -0.00400536 -0.0039836  -0.00860989 -0.01670092]] 
Episode: 143: [[-0.00123808 -0.00343955  0.01403159 -0.02524621 -0.02706166]
 [-0.00890949  0.02564657  0.00758526 -0.02856071 -0.00654303]
 [-0.02171943  0.02741018 -0.03548137 -0.02885953  0.00873283]
 [-0.00349163  0.01245703 -0.12501712 -0.02402928 -0.02786868]
 [-0.00523612 -0.00391834 -0.00410006 -0.00857366 -0.0161627 ]] 
Episode: 144: [[-0.0012519  -0.00342583  0.01400555 -0.02579323 -0.02714585]
 [-0.0088814   0.02567559  0.00774628 -0.0289717  -0.00630316]
 [-0.02175787  0.02775235 -0.03576315 -0.02908688  0.00894184]
 [-0.00355509  0.01296986 -0.1259057  -0.02387273 -0.02851022]
 [-0.00529488 -0.00384455 -0.00422304 -0.00849459 -0.01569861]] 
Episode: 145: [[-0.00126385 -0.00342958  0.01397461 -0.02618528 -0.0272928 ]
 [-0.0088836   0.02563158  0.00798045 -0.02939353 -0.00631202]
 [-0.02180406  0.02800849 -0.03589724 -0.02896798  0.00922317]
 [-0.00363816  0.01346827 -0.12677948 -0.02403409 -0.02865848]
 [-0.00537163 -0.00376897 -0.00433729 -0.00851742 -0.01533446]] 
Episode: 146: [[-0.00127509 -0.00343239  0.01394373 -0.026552   -0.02742997]
 [-0.00888392  0.02559122  0.00818612 -0.0297806  -0.00633664]
 [-0.02184784  0.02823753 -0.03608343 -0.02884492  0.00947636]
 [-0.00372674  0.01391175 -0.12768464 -0.02410246 -0.02879019]
 [-0.00544546 -0.00370298 -0.00445931 -0.00852879 -0.01504021]] 
Episode: 147: [[-0.00128433 -0.00342819  0.01392151 -0.02691847 -0.02752566]
 [-0.00887508  0.02556026  0.00837243 -0.03018152 -0.00632476]
 [-0.02186509  0.02846435 -0.03631845 -0.02880209  0.00964778]
 [-0.00381387  0.01432922 -0.12862584 -0.02406814 -0.0290203 ]
 [-0.00550993 -0.0036446  -0.00459569 -0.00853402 -0.01477922]] 
Episode: 148: [[-0.00129431 -0.00341753  0.01389927 -0.027192   -0.02761105]
 [-0.00886864  0.02551951  0.00859294 -0.0303387  -0.00631644]
 [-0.02188936  0.02865771 -0.03652596 -0.02880979  0.00968925]
 [-0.00390197  0.0147588  -0.12960859 -0.0243865  -0.02926161]
 [-0.0055841  -0.00358494 -0.0047429  -0.00862182 -0.0145589 ]] 
Episode: 149: [[-0.00130501 -0.0034065   0.01386359 -0.02739074 -0.02767901]
 [-0.00885437  0.02549123  0.00872095 -0.0303111  -0.00625272]
 [-0.02193176  0.02880514 -0.03692202 -0.02855163  0.0097736 ]
 [-0.00403723  0.01506721 -0.1307305  -0.02431844 -0.02947045]
 [-0.0056717  -0.00354351 -0.00492572 -0.0085542  -0.01438133]] 
Episode: 150: [[-0.00131454 -0.00339786  0.01383223 -0.02759166 -0.02773925]
 [-0.00884001  0.02547049  0.00884097 -0.03036221 -0.00622922]
 [-0.02196802  0.0289488  -0.03727486 -0.0283577   0.00983233]
 [-0.00416807  0.01534843 -0.1317519  -0.02423732 -0.02973058]
 [-0.00575155 -0.00350496 -0.00509207 -0.00845153 -0.01421989]] 
Episode: 151: [[-0.00132313 -0.00339216  0.01379973 -0.02778121 -0.02778207]
 [-0.00882978  0.02544896  0.00896096 -0.03047102 -0.00623572]
 [-0.0220023   0.02909252 -0.03760812 -0.02831406  0.00974524]
 [-0.00429693  0.0156212  -0.13274929 -0.02422203 -0.03008094]
 [-0.00582394 -0.00347117 -0.00525609 -0.00840563 -0.01411631]] 
Episode: 152: [[-0.00133697 -0.00338653  0.0137687  -0.02790984 -0.02783541]
 [-0.00883859  0.02542455  0.00907244 -0.03036279 -0.00626411]
 [-0.0220888   0.0292051  -0.03796574 -0.0282279   0.00960377]
 [-0.00445531  0.01584731 -0.13377976 -0.02456049 -0.03046128]
 [-0.0059041  -0.00344271 -0.00542337 -0.00839319 -0.01404449]] 
Episode: 153: [[-0.00134589 -0.00338152  0.01372296 -0.02795291 -0.02787215]
 [-0.0088426   0.02538064  0.00913876 -0.0300119  -0.0061909 ]
 [-0.02216866  0.02922012 -0.03845512 -0.0278255   0.00951562]
 [-0.00468887  0.01595112 -0.13494587 -0.02465585 -0.03057149]
 [-0.0059965  -0.00342892 -0.00562451 -0.00830072 -0.01393436]] 
Episode: 154: [[-0.00135327 -0.00337549  0.01367436 -0.0279414  -0.02788404]
 [-0.00884913  0.02533354  0.00916868 -0.02955951 -0.00602284]
 [-0.02223949  0.02919041 -0.03901979 -0.02727169  0.00959152]
 [-0.00495991  0.0159847  -0.13617265 -0.02463507 -0.03047205]
 [-0.00609118 -0.00342516 -0.00584151 -0.00813562 -0.01381291]] 
Episode: 155: [[-0.00135997 -0.00337081  0.01362712 -0.02794417 -0.02790569]
 [-0.00885004  0.0252978   0.00918982 -0.02919818 -0.00588767]
 [-0.02230394  0.02916423 -0.03957292 -0.02684707  0.00975226]
 [-0.00521465  0.01600329 -0.13735192 -0.02464327 -0.03035364]
 [-0.00617143 -0.0034205  -0.00605461 -0.00803271 -0.01376058]] 
Episode: 156: [[-0.00136568 -0.00336671  0.01358339 -0.02794846 -0.02792593]
 [-0.00885302  0.02526657  0.00921073 -0.02887337 -0.00576228]
 [-0.0223671   0.02914104 -0.04010863 -0.02646706  0.00991442]
 [-0.00545255  0.01601578 -0.13849862 -0.02461788 -0.03025054]
 [-0.00624578 -0.00341671 -0.00625965 -0.00792928 -0.01371395]] 
Episode: 157: [[-0.00137379 -0.0033628   0.01354158 -0.02793685 -0.02794748]
 [-0.00886585  0.02523305  0.00922969 -0.02851716 -0.00564985]
 [-0.02245856  0.02909668 -0.04064934 -0.02607826  0.01012732]
 [-0.00569221  0.01599508 -0.13967834 -0.02477247 -0.03018325]
 [-0.00632107 -0.00341594 -0.00646252 -0.00779014 -0.01369399]] 
Episode: 158: [[-0.00138085 -0.00336023  0.01349551 -0.02790259 -0.02794943]
 [-0.00887811  0.02519916  0.00923028 -0.02819337 -0.0055685 ]
 [-0.02254293  0.029039   -0.04121448 -0.02568069  0.01032321]
 [-0.00591278  0.01593683 -0.14087419 -0.0247684  -0.03012435]
 [-0.00638219 -0.00342063 -0.00666968 -0.00760983 -0.01366673]] 
Episode: 159: [[-0.00138555 -0.00335954  0.01345523 -0.02793516 -0.02795329]
 [-0.00888149  0.02518219  0.00921983 -0.02797187 -0.00549931]
 [-0.02259836  0.02903477 -0.04168038 -0.02540895  0.01058018]
 [-0.00610386  0.01596391 -0.14187951 -0.02470733 -0.03002883]
 [-0.00642612 -0.00341752 -0.00683848 -0.00733451 -0.01364411]] 
Episode: 160: [[-0.00138819 -0.00335789  0.01341468 -0.02796057 -0.02794842]
 [-0.00887612  0.02516622  0.00921518 -0.02771761 -0.0054218 ]
 [-0.02265333  0.02902987 -0.04217529 -0.02515183  0.01084212]
 [-0.00629032  0.01598479 -0.14294517 -0.02449919 -0.0298839 ]
 [-0.00647453 -0.00341665 -0.00701341 -0.00706501 -0.01364073]] 
Episode: 161: [[-0.00139243 -0.00335637  0.0133771  -0.02798488 -0.02793393]
 [-0.00887564  0.02515166  0.00920875 -0.02746038 -0.00530949]
 [-0.02271193  0.02901664 -0.04266668 -0.02489153  0.01111847]
 [-0.00646102  0.01598399 -0.14402479 -0.02425899 -0.02981938]
 [-0.00651594 -0.00341724 -0.00718443 -0.00682381 -0.01363018]] 
Episode: 162: [[-0.00139857 -0.00335425  0.01333678 -0.02801018 -0.02793574]
 [-0.00888115  0.0251336   0.00922909 -0.027234   -0.00515508]
 [-0.0227819   0.02900393 -0.0431544  -0.02464375  0.01144528]
 [-0.00662926  0.01600108 -0.14514565 -0.0240723  -0.02985394]
 [-0.00655457 -0.00341648 -0.00736669 -0.00658179 -0.01362432]] 
Episode: 163: [[-0.00140616 -0.00335158  0.01329765 -0.02800398 -0.02792205]
 [-0.00889202  0.02511096  0.00923708 -0.02699159 -0.00501331]
 [-0.02286237  0.02896118 -0.04362026 -0.02435024  0.01177891]
 [-0.00678206  0.01597053 -0.14618695 -0.02389387 -0.02987244]
 [-0.00659075 -0.00341849 -0.00753583 -0.00630413 -0.01359124]] 
Episode: 164: [[-0.00141258 -0.00334432  0.01325839 -0.02802832 -0.02790262]
 [-0.0088965   0.02508662  0.00927026 -0.02678487 -0.00481005]
 [-0.02294001  0.02896909 -0.04403498 -0.02427938  0.01198797]
 [-0.00692325  0.01605774 -0.14715686 -0.02401228 -0.03006652]
 [-0.00662368 -0.00341089 -0.00769506 -0.00605827 -0.0134823 ]] 
Episode: 165: [[-0.00141892 -0.00332951  0.0132231  -0.02817894 -0.02788815]
 [-0.008887    0.02507916  0.00930734 -0.02678151 -0.00461022]
 [-0.02300995  0.02901391 -0.04443363 -0.02465145  0.01210467]
 [-0.00708137  0.01617755 -0.14810327 -0.02407984 -0.03035076]
 [-0.00664975 -0.0034     -0.00785219 -0.00593074 -0.0134546 ]] 
Episode: 166: [[-0.00142777 -0.00332541  0.01318637 -0.02839111 -0.0279425 ]
 [-0.00888943  0.02510357  0.00936333 -0.02711189 -0.00474685]
 [-0.02308496  0.02911485 -0.04486104 -0.02516913  0.01220717]
 [-0.00726394  0.01633192 -0.1490776  -0.02395628 -0.03025758]
 [-0.00667309 -0.0033822  -0.00802873 -0.00591707 -0.01361602]] 
Episode: 167: [[-0.00143445 -0.00333282  0.01314379 -0.02846043 -0.02800343]
 [-0.00887183  0.0251217   0.0093948  -0.02723875 -0.00478422]
 [-0.02317521  0.02923749 -0.04514277 -0.02534329  0.01237039]
 [-0.00740799  0.01655565 -0.14966267 -0.02397129 -0.03061099]
 [-0.00669433 -0.00336291 -0.00817301 -0.00610966 -0.01382796]] 
Episode: 168: [[-0.00144193 -0.0033326   0.01311042 -0.02864436 -0.02797259]
 [-0.00884398  0.02514291  0.00944753 -0.02763673 -0.00496052]
 [-0.0232486   0.02944954 -0.04529917 -0.02593213  0.0123299 ]
 [-0.00757938  0.01690651 -0.1500775  -0.02433712 -0.03135625]
 [-0.00671082 -0.00333278 -0.0082911  -0.00638801 -0.01411512]] 
Episode: 169: [[-0.00144665 -0.00333079  0.01308069 -0.02884419 -0.02791164]
 [-0.00880907  0.02517114  0.009486   -0.02802324 -0.00518986]
 [-0.02331402  0.0296709  -0.04550144 -0.02650944  0.01217549]
 [-0.00774238  0.01722111 -0.15059099 -0.02455137 -0.03212779]
 [-0.00673215 -0.00331212 -0.00841719 -0.00664175 -0.01441361]] 
Episode: 170: [[-0.00145684 -0.00332196  0.01305748 -0.0290613  -0.02786205]
 [-0.00878073  0.02520034  0.00952443 -0.02832736 -0.00523495]
 [-0.02339713  0.02985175 -0.04572083 -0.02720431  0.01210331]
 [-0.00793986  0.01747951 -0.1511898  -0.02484883 -0.03265427]
 [-0.00675825 -0.00329166 -0.00854003 -0.00703821 -0.01473966]] 
Episode: 171: [[-0.00146383 -0.00331484  0.01304487 -0.02929345 -0.02781248]
 [-0.00875534  0.02523267  0.00954058 -0.02873929 -0.00529377]
 [-0.02346201  0.0300501  -0.04589378 -0.02799546  0.01200581]
 [-0.00813393  0.01773861 -0.15174682 -0.02520655 -0.03312076]
 [-0.0067919  -0.00327176 -0.00864463 -0.0073946  -0.01503718]] 
Episode: 172: [[-0.00146908 -0.00330925  0.01303114 -0.02950901 -0.02776035]
 [-0.00872901  0.02526447  0.00955294 -0.02916074 -0.00536354]
 [-0.02351557  0.03023208 -0.046062   -0.02871157  0.01191775]
 [-0.00831291  0.01796222 -0.1522892  -0.02546514 -0.03357271]
 [-0.00682492 -0.00325521 -0.00874336 -0.00769991 -0.0153283 ]] 
Episode: 173: [[-0.00147164 -0.00330252  0.01301801 -0.02974276 -0.02771277]
 [-0.00869256  0.02529208  0.00959704 -0.02961642 -0.00541297]
 [-0.02354486  0.03042328 -0.0461982  -0.02943245  0.01180467]
 [-0.00847848  0.01823479 -0.15280691 -0.02563679 -0.03394228]
 [-0.00685149 -0.00323514 -0.00883466 -0.00797308 -0.01557138]] 
Episode: 174: [[-0.00146672 -0.00328223  0.01301595 -0.03028801 -0.02771715]
 [-0.00857852  0.02534012  0.0098457  -0.03039343 -0.00536611]
 [-0.02343843  0.03085897 -0.0461388  -0.0305077   0.01180637]
 [-0.0086309   0.01898795 -0.1533885  -0.02591721 -0.03450868]
 [-0.00682172 -0.00316634 -0.00894624 -0.0084371  -0.01587738]] 
Episode: 175: [[-0.00146746 -0.00326533  0.01301471 -0.03075495 -0.02773331]
 [-0.00849534  0.0253662   0.01006877 -0.03098639 -0.00535561]
 [-0.02339855  0.03122511 -0.04610363 -0.03156378  0.01174043]
 [-0.00880337  0.01965945 -0.15394108 -0.02640658 -0.0349872 ]
 [-0.00681072 -0.0031056  -0.00904902 -0.00884747 -0.01616513]] 
Episode: 176: [[-0.00146915 -0.00324852  0.01300437 -0.03113817 -0.02773786]
 [-0.00842397  0.02537748  0.0102615  -0.03138019 -0.00526882]
 [-0.0233715   0.03148656 -0.04620227 -0.03230044  0.01178332]
 [-0.00901971  0.02016968 -0.15466875 -0.02682985 -0.03542714]
 [-0.00681328 -0.00305891 -0.00918349 -0.00916855 -0.01638704]] 
Episode: 177: [[-0.0014726  -0.00323418  0.0129796  -0.0313954  -0.02772832]
 [-0.0083714   0.02536715  0.01041016 -0.03164274 -0.00516363]
 [-0.02337896  0.03163958 -0.04644144 -0.03273874  0.01197919]
 [-0.00934944  0.02051491 -0.15555868 -0.0271795  -0.03570751]
 [-0.00682691 -0.00302946 -0.00934397 -0.00931748 -0.01657585]] 
Episode: 178: [[-0.00148438 -0.00322004  0.01295307 -0.03156983 -0.02771488]
 [-0.00835673  0.02534123  0.0105541  -0.03174354 -0.00507831]
 [-0.02346021  0.03173244 -0.04675422 -0.03311951  0.01225722]
 [-0.00969737  0.02076852 -0.1565356  -0.02768011 -0.03580025]
 [-0.00686652 -0.00300923 -0.00951528 -0.0094184  -0.01673994]] 
Episode: 179: [[-0.00149629 -0.00320394  0.01293246 -0.03171492 -0.02768719]
 [-0.00833274  0.02531086  0.01067405 -0.03173965 -0.00495465]
 [-0.02355604  0.03180908 -0.04706398 -0.03350315  0.01245549]
 [-0.01001584  0.02100533 -0.15752771 -0.02801345 -0.0358342 ]
 [-0.0069004  -0.00298282 -0.00967399 -0.00954926 -0.01699442]] 
Episode: 180: [[-0.00151061 -0.0031876   0.01290925 -0.03183829 -0.02766621]
 [-0.00832149  0.02527585  0.01079492 -0.03165054 -0.00484805]
 [-0.02367494  0.03185959 -0.04740902 -0.0337903   0.01264343]
 [-0.01034266  0.02118966 -0.15860014 -0.02834979 -0.03591726]
 [-0.00693616 -0.00295996 -0.00984713 -0.009618   -0.01723991]] 
Episode: 181: [[-0.00151537 -0.00317217  0.0128805  -0.03193465 -0.02765299]
 [-0.00829212  0.02524143  0.01092434 -0.03147973 -0.00467159]
 [-0.02378915  0.03188509 -0.04784052 -0.03401067  0.01282973]
 [-0.01068526  0.02133428 -0.15979579 -0.02846441 -0.03591028]
 [-0.00698043 -0.00294403 -0.01005891 -0.00963461 -0.01751024]] 
Episode: 182: [[-0.00151991 -0.00316093  0.01285288 -0.03205716 -0.02765155]
 [-0.00826776  0.02521449  0.01104554 -0.03145743 -0.00455055]
 [-0.02388028  0.03192944 -0.04825557 -0.03419765  0.01304061]
 [-0.01100426  0.02148198 -0.16096999 -0.02843646 -0.0359301 ]
 [-0.00701476 -0.00293017 -0.01026138 -0.00957755 -0.01776401]] 
Episode: 183: [[-0.00152299 -0.00315123  0.01282991 -0.03218791 -0.0276506 ]
 [-0.00824096  0.02518998  0.01116886 -0.03148063 -0.0044657 ]
 [-0.02395594  0.03197173 -0.04864198 -0.03445129  0.01314363]
 [-0.0112848   0.02161804 -0.16208266 -0.02840061 -0.03593271]
 [-0.00705005 -0.00291928 -0.01045395 -0.0095703  -0.01800556]] 
Episode: 184: [[-0.00150584 -0.00313721  0.01281502 -0.03240005 -0.02797583]
 [-0.00814025  0.02514778  0.01130701 -0.03120502 -0.00472684]
 [-0.0239811   0.03203192 -0.04927893 -0.03431727  0.01327042]
 [-0.01162213  0.02176372 -0.1634435  -0.02800055 -0.03574736]
 [-0.00709988 -0.00291585 -0.01071672 -0.00916762 -0.01816456]] 
Episode: 185: [[-0.00148912 -0.00312564  0.01280018 -0.03266408 -0.02827451]
 [-0.00804466  0.02511963  0.01142575 -0.03113713 -0.0050011 ]
 [-0.02399524  0.03210073 -0.04987546 -0.03427378  0.01336358]
 [-0.01192794  0.02189091 -0.16470534 -0.0273958  -0.03556866]
 [-0.00714303 -0.00291454 -0.01095823 -0.00880652 -0.01835797]] 
Episode: 186: [[-0.00147209 -0.00311487  0.0127882  -0.03292623 -0.02848333]
 [-0.00794809  0.02508988  0.01154014 -0.03114858 -0.00517729]
 [-0.02398642  0.03220085 -0.05033211 -0.0343472   0.01343883]
 [-0.01218618  0.02209551 -0.16571727 -0.02687793 -0.03551574]
 [-0.00717789 -0.00290449 -0.01115127 -0.00852844 -0.01850379]] 
Episode: 187: [[-0.0014504  -0.00310646  0.01278067 -0.03318497 -0.02867186]
 [-0.00784707  0.02507529  0.01163502 -0.0311949  -0.0052848 ]
 [-0.02396172  0.03231689 -0.05077967 -0.03441819  0.01371535]
 [-0.01241634  0.02229829 -0.16670235 -0.02612312 -0.03524496]
 [-0.00719666 -0.00289449 -0.01133954 -0.00817113 -0.0185964 ]] 
Episode: 188: [[-0.00142954 -0.00310004  0.01276042 -0.03333644 -0.02878725]
 [-0.00774592  0.02505259  0.01169022 -0.0310677  -0.00517684]
 [-0.02395899  0.03236526 -0.05136334 -0.03416606  0.01435213]
 [-0.01275023  0.02240611 -0.16790102 -0.02516935 -0.03491415]
 [-0.00724412 -0.00289735 -0.01156163 -0.00770129 -0.01864877]] 
Episode: 189: [[-0.00140795 -0.0030913   0.01273984 -0.03349568 -0.02892234]
 [-0.00764988  0.02503659  0.01173656 -0.03100366 -0.00510705]
 [-0.02395576  0.03240838 -0.0519878  -0.03384449  0.01497736]
 [-0.0130519   0.02248319 -0.16911525 -0.0239724  -0.03446446]
 [-0.00728553 -0.00290045 -0.01178603 -0.00730362 -0.01871986]] 
Episode: 190: [[-0.00138233 -0.00308353  0.01270675 -0.03359026 -0.029017  ]
 [-0.00754624  0.02501391  0.01177017 -0.03082016 -0.00495377]
 [-0.02394146  0.03240832 -0.05275534 -0.0332539   0.01579331]
 [-0.01336036  0.02249908 -0.17048748 -0.02254503 -0.03398469]
 [-0.00732859 -0.00291495 -0.01204889 -0.00685452 -0.01878145]] 
Episode: 191: [[-0.0013588  -0.00307779  0.01267533 -0.03372105 -0.02911837]
 [-0.00744573  0.02500212  0.01179599 -0.03077249 -0.00493704]
 [-0.02392101  0.03243458 -0.05345103 -0.03278541  0.01656408]
 [-0.01361916  0.02252789 -0.17173883 -0.02121707 -0.03341354]
 [-0.00735371 -0.00292813 -0.01227699 -0.00633737 -0.01888045]] 
Episode: 192: [[-0.00134037 -0.00307356  0.01264071 -0.03380229 -0.02920729]
 [-0.00737284  0.02498775  0.0118002  -0.03074234 -0.00491796]
 [-0.02392549  0.03241812 -0.05413626 -0.03223167  0.01734296]
 [-0.0139036   0.02248746 -0.1730182  -0.019882   -0.03279595]
 [-0.00738974 -0.00294652 -0.01249763 -0.00577894 -0.01897588]] 
Episode: 193: [[-0.00132296 -0.00307105  0.01260079 -0.03377761 -0.02924279]
 [-0.0073219   0.02495779  0.01178512 -0.030601   -0.00480824]
 [-0.02395583  0.03230811 -0.05491412 -0.03145882  0.0182131 ]
 [-0.01426208  0.0223051  -0.17441075 -0.01837802 -0.03204789]
 [-0.0074377  -0.00297337 -0.01272859 -0.00525653 -0.01912563]] 
Episode: 194: [[-0.00131511 -0.00306575  0.01255821 -0.03367018 -0.02928496]
 [-0.00731567  0.02489004  0.01181058 -0.03031174 -0.00476936]
 [-0.0240843   0.03207577 -0.05581415 -0.03075451  0.0190279 ]
 [-0.01469821  0.02199827 -0.17607976 -0.01739286 -0.03128764]
 [-0.00751259 -0.0030011  -0.01299867 -0.00455568 -0.01927127]] 
Episode: 195: [[-0.00130691 -0.00305603  0.01252125 -0.0335381  -0.02929525]
 [-0.00730846  0.02481763  0.01182303 -0.02992629 -0.00472064]
 [-0.02422292  0.03180405 -0.05674752 -0.0300386   0.01974438]
 [-0.01516358  0.02163673 -0.1777412  -0.0163515  -0.03035414]
 [-0.00759737 -0.00302832 -0.01326003 -0.00391909 -0.01949836]] 
Episode: 196: [[-0.00129443 -0.00304872  0.01248818 -0.03352702 -0.02928507]
 [-0.00727759  0.02476744  0.01182986 -0.02972437 -0.00452662]
 [-0.0242932   0.0316229  -0.05756681 -0.02952598  0.02042726]
 [-0.01556455  0.02138658 -0.17919378 -0.0151891  -0.02962765]
 [-0.00765983 -0.00304755 -0.01349351 -0.00334746 -0.01964328]] 
Episode: 197: [[-0.00125489 -0.00310356  0.01245034 -0.03408479 -0.02933519]
 [-0.00713163  0.0249303   0.0117697  -0.03003712 -0.00488607]
 [-0.02411475  0.03218348 -0.05821587 -0.02950852  0.02082997]
 [-0.01552227  0.02182623 -0.18031378 -0.01379182 -0.02929801]
 [-0.0076557  -0.00302613 -0.01368126 -0.00308779 -0.01946961]] 
Episode: 198: [[-0.00116933 -0.0031924   0.01236572 -0.03479943 -0.02977958]
 [-0.00691636  0.02521424  0.01168944 -0.03058264 -0.00524511]
 [-0.02375321  0.03292581 -0.05890662 -0.02921558  0.02067494]
 [-0.01544219  0.02240006 -0.18136738 -0.01289738 -0.02945177]
 [-0.00766331 -0.00301003 -0.01392624 -0.00222387 -0.01868837]] 
Episode: 199: [[-0.00096796 -0.00339928  0.01239078 -0.03605944 -0.03082861]
 [-0.00639913  0.02606806  0.01137005 -0.03155101 -0.0050392 ]
 [-0.02256792  0.03428993 -0.06018181 -0.02938789  0.01999592]
 [-0.0149072   0.02354438 -0.18275549 -0.01174384 -0.03003083]
 [-0.00750643 -0.00290176 -0.01419003 -0.00084463 -0.01738813]] 
Episode: 200: [[-0.00078473 -0.0035879   0.01240866 -0.03723234 -0.03175148]
 [-0.00592242  0.02686301  0.01108497 -0.0325046  -0.00474071]
 [-0.02147641  0.03558571 -0.0614389  -0.02957428  0.0196065 ]
 [-0.01439002  0.02461447 -0.18411756 -0.0105334  -0.03040987]
 [-0.00736112 -0.0027982  -0.01445809  0.00041109 -0.0163297 ]] 
Episode: 201: [[-0.00062986 -0.00375831  0.01242058 -0.03818705 -0.03253527]
 [-0.00553258  0.02757176  0.01081583 -0.03311672 -0.00441944]
 [-0.02059071  0.03672398 -0.06261153 -0.02969016  0.01947811]
 [-0.01400875  0.02553009 -0.18543994 -0.00980188 -0.03039443]
 [-0.0072621  -0.00270778 -0.01470158  0.0015384  -0.01548828]] 
Episode: 202: [[-0.00048074 -0.00391806  0.01240087 -0.0389706  -0.03316365]
 [-0.00515337  0.02822864  0.01055367 -0.03363239 -0.00397972]
 [-0.01979923  0.03781192 -0.06394076 -0.02970717  0.01939739]
 [-0.01367182  0.02640651 -0.18694256 -0.00879771 -0.03050369]
 [-0.00716192 -0.00262242 -0.0150124   0.00255325 -0.01459746]] 
Episode: 203: [[-0.00034378 -0.00405898  0.01237354 -0.03962982 -0.0337291 ]
 [-0.00479826  0.02881313  0.01040389 -0.03399201 -0.00368786]
 [-0.01910351  0.03876146 -0.06534699 -0.02963412  0.0191234 ]
 [-0.01342472  0.0271651  -0.18858853 -0.00767315 -0.03045866]
 [-0.00707227 -0.00255386 -0.01537514  0.00349456 -0.013812  ]] 
Episode: 204: [[-0.00022586 -0.0041839   0.01234609 -0.0401719  -0.03421574]
 [-0.00450311  0.02932551  0.01026149 -0.03425802 -0.00340558]
 [-0.01853444  0.03956839 -0.06667311 -0.02958222  0.01896735]
 [-0.01325961  0.02778651 -0.19017716 -0.00692443 -0.03021735]
 [-0.0070015  -0.00249401 -0.01571666  0.0044711  -0.01308641]] 
Episode: 205: [[-1.0842160e-04 -4.3168692e-03  1.2291959e-02 -4.0634293e-02
  -3.4648005e-02]
 [-4.2397287e-03  2.9804710e-02  1.0029039e-02 -3.4797262e-02
  -3.2856213e-03]
 [-1.8045440e-02  4.0367369e-02 -6.7893729e-02 -2.9710034e-02
   1.8659674e-02]
 [-1.3062368e-02  2.8379742e-02 -1.9169021e-01 -6.1860648e-03
  -2.9927811e-02]
 [-6.9330703e-03 -2.4446025e-03 -1.6020296e-02  5.6529059e-03
  -1.2314520e-02]] 
Episode: 206: [[-1.2611426e-05 -4.4390270e-03  1.2242999e-02 -4.1004956e-02
  -3.5048861e-02]
 [-4.0320889e-03  3.0229943e-02  9.7888606e-03 -3.5218734e-02
  -3.1898122e-03]
 [-1.7678736e-02  4.1073680e-02 -6.8995140e-02 -2.9868480e-02
   1.8463433e-02]
 [-1.2984465e-02  2.8884815e-02 -1.9304307e-01 -5.8602118e-03
  -2.9632704e-02]
 [-6.8848352e-03 -2.3997545e-03 -1.6288934e-02  6.7548025e-03
  -1.1701983e-02]] 
Episode: 207: [[ 6.00890271e-05 -4.54916991e-03  1.21946828e-02 -4.12691459e-02
  -3.53842378e-02]
 [-3.89105384e-03  3.06063853e-02  9.55173466e-03 -3.54663208e-02
  -2.98395799e-03]
 [-1.74544547e-02  4.16770801e-02 -7.00782463e-02 -3.00060622e-02
   1.84191354e-02]
 [-1.29765365e-02  2.92744003e-02 -1.94390401e-01 -5.85690234e-03
  -2.94046570e-02]
 [-6.88184611e-03 -2.36599799e-03 -1.65566001e-02  7.55929900e-03
  -1.11672943e-02]] 
Episode: 208: [[ 1.4538594e-04 -4.6434174e-03  1.2168509e-02 -4.1483883e-02
  -3.5648264e-02]
 [-3.7201387e-03  3.0939939e-02  9.3405060e-03 -3.5393938e-02
  -2.7728379e-03]
 [-1.7278079e-02  4.2200204e-02 -7.1098804e-02 -3.0297000e-02
   1.8417457e-02]
 [-1.2983598e-02  2.9612221e-02 -1.9571085e-01 -5.8720643e-03
  -2.9128004e-02]
 [-6.8944884e-03 -2.3420469e-03 -1.6831210e-02  8.3208736e-03
  -1.0955212e-02]] 
Episode: 209: [[ 0.00021738 -0.00473196  0.01215075 -0.04166751 -0.0358572 ]
 [-0.00358226  0.03124561  0.00912259 -0.0353534  -0.00250634]
 [-0.01715799  0.04273192 -0.07194202 -0.03068388  0.01864473]
 [-0.01299042  0.02999517 -0.19676436 -0.00585975 -0.02863627]
 [-0.00692403 -0.00231999 -0.01703899  0.00881265 -0.01087282]] 
Episode: 210: [[ 0.00027195 -0.0048112   0.01212832 -0.04176216 -0.03603039]
 [-0.00349108  0.03150901  0.00889933 -0.03515382 -0.002212  ]
 [-0.01713208  0.04317227 -0.07275549 -0.03098944  0.01892789]
 [-0.0130545   0.03029524 -0.19778645 -0.00613277 -0.02808749]
 [-0.00697122 -0.00230391 -0.01723234  0.00923897 -0.01082358]] 
Episode: 211: [[ 0.00031269 -0.00487798  0.0121041  -0.04176519 -0.03617225]
 [-0.00343797  0.03172981  0.00870062 -0.03480543 -0.00191474]
 [-0.01717925  0.04352071 -0.07356902 -0.03127656  0.01921274]
 [-0.01316492  0.03051306 -0.19883375 -0.00661875 -0.02756086]
 [-0.00703504 -0.00229774 -0.01743251  0.00970123 -0.01083895]] 
Episode: 212: [[ 0.00035503 -0.0049396   0.01207568 -0.04171677 -0.03630878]
 [-0.00340312  0.03192262  0.00852416 -0.03449389 -0.00159854]
 [-0.01721729  0.04385233 -0.07433656 -0.0315293   0.01971647]
 [-0.01331646  0.03075833 -0.1999492  -0.00725016 -0.02708459]
 [-0.00708772 -0.00229198 -0.01763466  0.01019582 -0.01108343]] 
Episode: 213: [[ 0.00039401 -0.00499477  0.01205142 -0.04178201 -0.03638699]
 [-0.00333669  0.03212555  0.00839731 -0.03424868 -0.00102042]
 [-0.01720393  0.04434369 -0.07488136 -0.03189703  0.02007052]
 [-0.01345245  0.03129074 -0.20082228 -0.00757594 -0.02692225]
 [-0.00713533 -0.00223733 -0.01778208  0.01044262 -0.01123096]] 
Episode: 214: [[ 0.00042854 -0.0050421   0.0120302  -0.04184956 -0.03645081]
 [-0.00327694  0.03230878  0.0082866  -0.03404419 -0.00049266]
 [-0.01720013  0.04479072 -0.07537858 -0.0322913   0.02037369]
 [-0.01357927  0.03178013 -0.20164274 -0.00786483 -0.02682118]
 [-0.00718234 -0.00218666 -0.01791792  0.01061622 -0.01139227]] 
Episode: 215: [[ 4.6342931e-04 -5.0889757e-03  1.1994809e-02 -4.1866630e-02
  -3.6504768e-02]
 [-3.2200750e-03  3.2469679e-02  8.1698811e-03 -3.3856649e-02
  -2.7141687e-05]
 [-1.7189646e-02  4.5172215e-02 -7.5955868e-02 -3.2471344e-02
   2.0688141e-02]
 [-1.3712351e-02  3.2192424e-02 -2.0251501e-01 -7.9169152e-03
  -2.6747921e-02]
 [-7.2391769e-03 -2.1489870e-03 -1.8087815e-02  1.0802648e-02
  -1.1533160e-02]] 
Episode: 216: [[ 0.00049742 -0.00512485  0.01197811 -0.04196178 -0.03645426]
 [-0.00312121  0.03263193  0.00803033 -0.03323127  0.00084536]
 [-0.01717643  0.04554726 -0.07659388 -0.03266929  0.02098039]
 [-0.01388506  0.03258473 -0.20340356 -0.00798445 -0.02696324]
 [-0.00729021 -0.00212958 -0.01826845  0.01099192 -0.01160187]] 
Episode: 217: [[ 0.00053037 -0.00516524  0.01198618 -0.04210559 -0.03644824]
 [-0.0030327   0.03275983  0.00791896 -0.03278331  0.00145599]
 [-0.01717045  0.04586631 -0.07719713 -0.03291959  0.02114071]
 [-0.01405268  0.03293603 -0.20425224 -0.00805229 -0.02732145]
 [-0.00732951 -0.00211198 -0.0184427   0.01123751 -0.01166235]] 
Episode: 218: [[ 0.00056047 -0.0052041   0.01200012 -0.04240524 -0.03643822]
 [-0.00294988  0.03292106  0.00782493 -0.03272899  0.00204066]
 [-0.0171117   0.04629283 -0.07765392 -0.0334437   0.02123494]
 [-0.01413377  0.03339651 -0.20495692 -0.00808959 -0.02808509]
 [-0.00736173 -0.00208689 -0.01860143  0.01156034 -0.01144162]] 
Episode: 219: [[ 0.00059399 -0.00524268  0.01200631 -0.04266505 -0.03647636]
 [-0.00286343  0.03306778  0.0077181  -0.03271246  0.00249366]
 [-0.01704245  0.0466704  -0.07809786 -0.03394156  0.02132354]
 [-0.01419818  0.03379259 -0.2056382  -0.00795304 -0.0283503 ]
 [-0.00738444 -0.00206913 -0.01875203  0.0118926  -0.01129413]] 
Episode: 220: [[ 0.00062177 -0.00527299  0.01200758 -0.04294638 -0.03646842]
 [-0.00276929  0.03320222  0.00762335 -0.03264925  0.00310518]
 [-0.01698408  0.04705789 -0.07844532 -0.0344269   0.02160378]
 [-0.01429362  0.03424595 -0.20623021 -0.00780591 -0.02883646]
 [-0.00739158 -0.00203574 -0.01887976  0.01225801 -0.01110049]] 
Episode: 221: [[ 0.00065096 -0.00529555  0.01200486 -0.04330191 -0.03646876]
 [-0.00267035  0.03331751  0.00755667 -0.03266499  0.00380369]
 [-0.01689722  0.04744843 -0.07873312 -0.03509823  0.02184517]
 [-0.01436204  0.03472735 -0.2067714  -0.00749532 -0.02905153]
 [-0.00738528 -0.00199417 -0.01900266  0.01250784 -0.01091008]] 
Episode: 222: [[ 0.00067656 -0.00531199  0.01200361 -0.04366062 -0.036468  ]
 [-0.00257973  0.03342494  0.00749641 -0.03270316  0.00443821]
 [-0.01681966  0.04781594 -0.07898366 -0.03573292  0.0220059 ]
 [-0.01442818  0.03519478 -0.20726435 -0.00721241 -0.02929203]
 [-0.0073812  -0.00195107 -0.01911696  0.01276549 -0.01070734]] 
Episode: 223: [[ 0.0006928  -0.00532871  0.01200133 -0.04390235 -0.03645347]
 [-0.00251669  0.03350995  0.00742621 -0.03257912  0.00500899]
 [-0.01679814  0.04811996 -0.07921557 -0.03639385  0.02215584]
 [-0.01449955  0.03557729 -0.20770237 -0.00722383 -0.0293688 ]
 [-0.00739141 -0.00191832 -0.01921485  0.01305    -0.01049725]] 
Episode: 224: [[ 0.0006998  -0.00533803  0.01199806 -0.04406126 -0.03643435]
 [-0.00247217  0.03357153  0.00740878 -0.03224833  0.00558851]
 [-0.01684751  0.04836132 -0.07962442 -0.03717475  0.02250227]
 [-0.01464875  0.03590254 -0.20851237 -0.00758412 -0.02930069]
 [-0.00741708 -0.001892   -0.01940046  0.01326838 -0.01054073]] 
Episode: 225: [[ 0.00069595 -0.00534895  0.0119863  -0.04416661 -0.0364014 ]
 [-0.0024623   0.03361337  0.00739158 -0.03181975  0.00611043]
 [-0.01696303  0.04854862 -0.08012784 -0.03801775  0.02297751]
 [-0.0148034   0.03616147 -0.2094649  -0.00823268 -0.02901191]
 [-0.00745817 -0.00187247 -0.01961236  0.01346639 -0.01072824]] 
Episode: 226: [[ 0.00068839 -0.00535932  0.01196157 -0.0441291  -0.03633203]
 [-0.00247266  0.03362661  0.0073589  -0.03127407  0.00661773]
 [-0.01710137  0.04862907 -0.08070259 -0.03860388  0.02352715]
 [-0.01498572  0.03627834 -0.21050543 -0.00885743 -0.02875594]
 [-0.00749433 -0.00187019 -0.01983895  0.01379742 -0.01079327]] 
Episode: 227: [[ 0.00068487 -0.00537019  0.01194079 -0.04415821 -0.03625519]
 [-0.00249877  0.03365188  0.00731365 -0.03093153  0.00705098]
 [-0.0172465   0.04874236 -0.0812159  -0.03930715  0.02400097]
 [-0.01509455  0.03640649 -0.21146484 -0.00919846 -0.02844287]
 [-0.00751062 -0.00187133 -0.02003967  0.01413973 -0.01080507]] 
Episode: 228: [[ 0.00067642 -0.00538392  0.01191265 -0.04411134 -0.03616472]
 [-0.00254092  0.03366402  0.00724241 -0.03050262  0.00748421]
 [-0.01742732  0.04877828 -0.08180204 -0.03980515  0.02455797]
 [-0.01523946  0.03640281 -0.2125066  -0.00967308 -0.02807807]
 [-0.00754039 -0.00188669 -0.02025803  0.01460993 -0.01075056]] 
Episode: 229: [[ 0.00066648 -0.00539789  0.01188222 -0.0440172  -0.0360701 ]
 [-0.0025905   0.03366225  0.00718404 -0.03004101  0.00788391]
 [-0.01761496  0.04876425 -0.08245378 -0.04016177  0.02515937]
 [-0.01540768  0.03633835 -0.21365339 -0.01011853 -0.02764977]
 [-0.00757838 -0.00190809 -0.02049874  0.01506167 -0.01071547]] 
Episode: 230: [[ 0.00068955 -0.00541275  0.01178966 -0.04370794 -0.03597677]
 [-0.00260108  0.03364391  0.00714949 -0.02970768  0.00822121]
 [-0.01773046  0.04874508 -0.08326578 -0.04005771  0.02599217]
 [-0.01563969  0.03624645 -0.21501191 -0.01016881 -0.0274462 ]
 [-0.00764666 -0.00194327 -0.02082832  0.01568304 -0.01065174]] 
Episode: 231: [[ 0.00071017 -0.0054286   0.01169964 -0.04345608 -0.03588461]
 [-0.00261106  0.03362827  0.00710406 -0.0294669   0.0085152 ]
 [-0.01782777  0.04873477 -0.08393369 -0.04000672  0.0267622 ]
 [-0.015853    0.03616686 -0.21613958 -0.0100994  -0.02722233]
 [-0.00770457 -0.00197496 -0.02111043  0.01621275 -0.01057683]] 
Episode: 232: [[ 0.0007315  -0.00544106  0.01161424 -0.04335416 -0.03577891]
 [-0.00260379  0.03363115  0.00708835 -0.02939482  0.00884912]
 [-0.01788366  0.04880229 -0.08451377 -0.04011335  0.02741625]
 [-0.016062    0.03620377 -0.21718626 -0.00996102 -0.02713268]
 [-0.00774404 -0.00198996 -0.0213763   0.0166432  -0.01050162]] 
Episode: 233: [[ 0.00075255 -0.00544988  0.01153462 -0.04330901 -0.03568457]
 [-0.00258804  0.03364508  0.00704942 -0.02938978  0.00912923]
 [-0.01790803  0.0488879  -0.08500654 -0.04024002  0.0279623 ]
 [-0.01625082  0.03625964 -0.21806188 -0.00975456 -0.0270771 ]
 [-0.00777169 -0.00200251 -0.02159849  0.0170288  -0.01045941]] 
Episode: 234: [[ 0.00077302 -0.00545586  0.0114534  -0.04336799 -0.03557312]
 [-0.00256155  0.03367349  0.0070116  -0.02951314  0.00942024]
 [-0.01791329  0.04899671 -0.08542258 -0.0404405   0.0284046 ]
 [-0.01643447  0.03633386 -0.21884687 -0.00941883 -0.02704931]
 [-0.0077861  -0.00201461 -0.02180892  0.01746901 -0.01041384]] 
Episode: 235: [[ 0.00078925 -0.00546301  0.01137485 -0.04338894 -0.03546812]
 [-0.00254883  0.03369265  0.0069694  -0.02960908  0.00966911]
 [-0.01793936  0.04907892 -0.08581454 -0.04064709  0.02876849]
 [-0.01660972  0.03638849 -0.21958786 -0.00922171 -0.02701734]
 [-0.0078035  -0.00202751 -0.02200691  0.01790777 -0.01037213]] 
Episode: 236: [[ 0.0008042  -0.00547114  0.01129238 -0.04333526 -0.03533734]
 [-0.00254368  0.0336988   0.006892   -0.02956018  0.00995587]
 [-0.01798737  0.04907627 -0.08631659 -0.04062263  0.02918501]
 [-0.0168069   0.03632176 -0.22042933 -0.00897577 -0.02698979]
 [-0.00782396 -0.00205452 -0.02222625  0.01838407 -0.0103674 ]] 
Episode: 237: [[ 0.0008148  -0.00547788  0.01121495 -0.04321807 -0.03521604]
 [-0.00254852  0.03369619  0.00683174 -0.02942632  0.01020095]
 [-0.01805257  0.04905442 -0.08680468 -0.04054583  0.0296418 ]
 [-0.01699034  0.03625212 -0.22125405 -0.00885207 -0.02689427]
 [-0.00785195 -0.00207945 -0.02244342  0.01877102 -0.0104087 ]] 
Episode: 238: [[ 0.00082158 -0.00548472  0.01114481 -0.0430964  -0.03513345]
 [-0.00256285  0.03368717  0.00676467 -0.02929613  0.01036748]
 [-0.01813105  0.04902339 -0.08725046 -0.0405644   0.03017974]
 [-0.01715745  0.03618453 -0.22199774 -0.0088087  -0.0266147 ]
 [-0.00788083 -0.00210143 -0.02264164  0.01907755 -0.01053227]] 
Episode: 239: [[ 0.00083499 -0.00549369  0.01105151 -0.0429059  -0.03504024]
 [-0.00258593  0.03366605  0.00668398 -0.0291136   0.01060301]
 [-0.01817378  0.04892461 -0.08782741 -0.04019308  0.03088686]
 [-0.01733307  0.03604111 -0.22287183 -0.00854962 -0.02644147]
 [-0.00789051 -0.00213268 -0.02286585  0.01947924 -0.01064666]] 
Episode: 240: [[ 0.00083905 -0.00549379  0.01096393 -0.04259009 -0.03479524]
 [-0.00261469  0.03364287  0.00669939 -0.02859897  0.01109467]
 [-0.01825787  0.04890345 -0.08830439 -0.04002086  0.03165964]
 [-0.01758709  0.03611378 -0.22385311 -0.0083031  -0.02583774]
 [-0.00790881 -0.00211505 -0.0231049   0.01948733 -0.01105099]] 
Episode: 241: [[ 0.00084398 -0.00549852  0.01088601 -0.04225707 -0.03456241]
 [-0.00264168  0.03363613  0.00670832 -0.02798054  0.01156877]
 [-0.01833674  0.048909   -0.08873839 -0.0399876   0.03203411]
 [-0.01788424  0.03619253 -0.22480598 -0.00843496 -0.02554283]
 [-0.00793655 -0.00209681 -0.02332763  0.01949164 -0.01137775]] 
Episode: 242: [[ 0.00084826 -0.0055055   0.01082059 -0.04199344 -0.03437663]
 [-0.00266504  0.03362422  0.00674749 -0.02744009  0.0119419 ]
 [-0.01841349  0.04893823 -0.08911087 -0.04004128  0.03234835]
 [-0.01815763  0.03631061 -0.22572824 -0.00864812 -0.02525023]
 [-0.00797072 -0.0020718  -0.02353579  0.01943193 -0.01168162]] 
Episode: 243: [[ 0.00084678 -0.00551061  0.01073669 -0.04178988 -0.03422255]
 [-0.00269556  0.03362684  0.00675664 -0.02697668  0.01217286]
 [-0.01847726  0.04891447 -0.08956957 -0.03984411  0.03272262]
 [-0.0184036   0.03633239 -0.22672462 -0.00848749 -0.02491803]
 [-0.00800592 -0.00205581 -0.02376449  0.01933576 -0.01208891]] 
Episode: 244: [[ 0.00085322 -0.0054926   0.01066204 -0.04181526 -0.03415901]
 [-0.00268845  0.03364086  0.00679286 -0.02650202  0.01293154]
 [-0.0185068   0.04902446 -0.08982829 -0.04007594  0.03248767]
 [-0.01865613  0.03656048 -0.22748931 -0.0085714  -0.02506835]
 [-0.00804917 -0.00203413 -0.02392964  0.01934233 -0.01195705]] 
Episode: 245: [[ 0.00085047 -0.00548062  0.01051317 -0.04171987 -0.03387442]
 [-0.00278263  0.03364931  0.00676015 -0.02653882  0.01414978]
 [-0.01852629  0.04893498 -0.09060918 -0.03993006  0.03206439]
 [-0.01886228  0.03651907 -0.22863908 -0.00849081 -0.02532527]
 [-0.0080775  -0.00206725 -0.0243359   0.01958942 -0.01119901]] 
Episode: 246: [[ 0.0007632  -0.00546446  0.01036204 -0.04231584 -0.03434137]
 [-0.00304449  0.03405387  0.00705993 -0.02706664  0.0146925 ]
 [-0.01840845  0.04962899 -0.09164426 -0.04024603  0.0322466 ]
 [-0.01903841  0.03716844 -0.23012735 -0.0080687  -0.02511129]
 [-0.00810798 -0.00210125 -0.02467677  0.02046257 -0.01115956]] 
Episode: 247: [[ 0.00068371 -0.00546466  0.0102274  -0.04218054 -0.03405333]
 [-0.00328292  0.03443882  0.00724285 -0.02704682  0.0157044 ]
 [-0.01827439  0.05026249 -0.09244012 -0.0400858   0.03287568]
 [-0.01919079  0.03775552 -0.2312628  -0.00780457 -0.02476693]
 [-0.00815375 -0.00210669 -0.02484933  0.02123568 -0.01130674]] 
Episode: 248: [[ 0.00058588 -0.00560953  0.01010648 -0.04271084 -0.0344807 ]
 [-0.00365572  0.03535008  0.00727047 -0.02751307  0.01607969]
 [-0.01776565  0.05156542 -0.09243996 -0.03950468  0.03289019]
 [-0.01906446  0.03894224 -0.23181525 -0.00721915 -0.02489936]
 [-0.00814166 -0.00202925 -0.02483893  0.02255951 -0.01082008]] 
Episode: 249: [[ 0.00055067 -0.00557812  0.01000879 -0.04254236 -0.03419195]
 [-0.00403175  0.03605286  0.00751706 -0.02744951  0.01692936]
 [-0.01743589  0.05197589 -0.09312056 -0.0385517   0.03343866]
 [-0.01931491  0.03933042 -0.23276266 -0.00704191 -0.02458168]
 [-0.0083486  -0.00196728 -0.02490511  0.02309656 -0.01099524]] 
Episode: 250: [[-0.00051451 -0.00452965  0.00897445 -0.04177077 -0.03328798]
 [-0.00338785  0.03749498  0.00866464 -0.02691932  0.01819424]
 [-0.01808473  0.05162615 -0.09438386 -0.03727034  0.03445376]
 [-0.01869171  0.04031405 -0.23405811 -0.00722875 -0.02473035]
 [-0.00755844 -0.00088172 -0.0258333   0.02418791 -0.01055601]] 
Episode: 251: [[-0.00240162 -0.00460381  0.00899349 -0.04170069 -0.03312765]
 [-0.00375501  0.03955183  0.00875672 -0.02691577  0.01881516]
 [-0.01775257  0.05201074 -0.0948455  -0.03569917  0.03587652]
 [-0.01734078  0.04180999 -0.23476678 -0.00774025 -0.02443442]
 [-0.00780195  0.00102105 -0.02579892  0.0245458  -0.01075132]] 
Episode: 252: [[-0.00308559 -0.00374451  0.00987994 -0.04103884 -0.03236268]
 [-0.00319093  0.04212108  0.00969532 -0.02644855  0.01986503]
 [-0.01832064  0.05167365 -0.09588907 -0.03472026  0.03662603]
 [-0.01694833  0.04251371 -0.23584162 -0.00854116 -0.02374498]
 [-0.00889375  0.00358262 -0.02657728  0.02426707 -0.01149835]] 
Episode: 253: [[-0.00372118 -0.00301865  0.01068461 -0.04094937 -0.03179468]
 [-0.00270136  0.04450278  0.01057412 -0.02649169  0.02064064]
 [-0.01889649  0.0516211  -0.09711778 -0.03426671  0.03678402]
 [-0.016534    0.04331115 -0.2371113  -0.0093559  -0.02355124]
 [-0.00986725  0.00586032 -0.02736827  0.0243508  -0.01159496]] 
Episode: 254: [[-0.00337419 -0.00327864  0.01054245 -0.04028745 -0.03068063]
 [-0.00312602  0.0458251   0.01050668 -0.02607492  0.02182297]
 [-0.01965855  0.05091583 -0.09882444 -0.03344414  0.03742664]
 [-0.01693335  0.04341003 -0.23868184 -0.01042771 -0.02295951]
 [-0.01155866  0.00692859 -0.02884003  0.02384227 -0.01223702]] 
Episode: 255: [[-0.00393283 -0.00435431  0.01122845 -0.03912814 -0.02909475]
 [-0.00267677  0.04771619  0.01124876 -0.02525223  0.02238847]
 [-0.02114404  0.04964957 -0.09972063 -0.03229493  0.03849459]
 [-0.01802137  0.04290266 -0.23964961 -0.01172849 -0.02201536]
 [-0.01220729  0.00870912 -0.02936495  0.0228189  -0.01335465]] 
Episode: 256: [[-0.00524432 -0.00446739  0.01104263 -0.0386654  -0.02828326]
 [-0.00307649  0.04865764  0.01112016 -0.02496544  0.02241037]
 [-0.02163904  0.04916497 -0.09991276 -0.0316795   0.0389542 ]
 [-0.01825518  0.04303848 -0.24094394 -0.01255547 -0.02075928]
 [-0.01356333  0.00942719 -0.03056154  0.0213481  -0.01488677]] 
Episode: 257: [[-0.00718384 -0.0037728   0.0116399  -0.03881101 -0.02814624]
 [-0.00419134  0.04878645  0.0117601  -0.02515269  0.02195334]
 [-0.0228424   0.049357   -0.10067227 -0.03153799  0.03887798]
 [-0.01775951  0.04373389 -0.24252658 -0.01295925 -0.02004646]
 [-0.0139788   0.00925357 -0.03232754  0.02059998 -0.01571373]] 
Episode: 258: [[-0.00810053 -0.00239862  0.01290013 -0.03839241 -0.02745307]
 [-0.00442165  0.04821895  0.0130514  -0.02488045  0.02201788]
 [-0.02314447  0.04891832 -0.10076471 -0.03181717  0.03929032]
 [-0.01800806  0.0437838  -0.24351622 -0.01365726 -0.01981614]
 [-0.01508688  0.00832917 -0.03317706  0.01938881 -0.01697424]] 
Episode: 259: [[-0.00815006 -0.00045147  0.01472242 -0.03748086 -0.02627583]
 [-0.00389936  0.0470543   0.01489543 -0.02420178  0.02254244]
 [-0.02268023  0.04793289 -0.10141719 -0.03166383  0.04013284]
 [-0.0188951   0.0432704  -0.24482062 -0.01394823 -0.01920629]
 [-0.01678183  0.00827198 -0.0332403   0.01777402 -0.0186136 ]] 
Episode: 260: [[-0.00892398  0.00052747  0.01562108 -0.03720433 -0.02578668]
 [-0.00414678  0.04537731  0.01581948 -0.02402808  0.02254745]
 [-0.02298302  0.04764849 -0.10255733 -0.03112651  0.041354  ]
 [-0.01902221  0.04336459 -0.24640325 -0.01387565 -0.01825983]
 [-0.01756207  0.00895171 -0.03262824  0.01580765 -0.02058375]] 
Episode: 261: [[-0.00889082  0.00209336  0.01709436 -0.03643286 -0.02480601]
 [-0.00367559  0.04453664  0.01731022 -0.02344425  0.02301014]
 [-0.02394138  0.04681875 -0.10301474 -0.03104369  0.04197642]
 [-0.01977486  0.04290633 -0.24740295 -0.01414272 -0.01781223]
 [-0.01893652  0.01025858 -0.03143582  0.01458673 -0.02182887]] 
Episode: 262: [[-0.00955595  0.00415893  0.01772222 -0.03626651 -0.02447477]
 [-0.00393399  0.04442028  0.01795874 -0.02334829  0.02296873]
 [-0.02410748  0.04665256 -0.10396634 -0.03057454  0.04299276]
 [-0.01981093  0.04303399 -0.24870771 -0.0140513  -0.01701587]
 [-0.01947183  0.01071249 -0.03102458  0.01402086 -0.02343743]] 
Episode: 263: [[-0.01081892  0.00530095  0.01762121 -0.03560575 -0.02364861]
 [-0.00350328  0.0437035   0.01788059 -0.02284037  0.02338179]
 [-0.023592    0.04594488 -0.10534934 -0.03054756  0.0434418 ]
 [-0.02045913  0.04261984 -0.2502824  -0.01429896 -0.01669726]
 [-0.02060198  0.01043401 -0.03128926  0.01300504 -0.02536417]] 
Episode: 264: [[-0.01126734  0.00696635  0.01817289 -0.03451132 -0.0223895 ]
 [-0.00247895  0.04367294  0.01717512 -0.02196753  0.02419643]
 [-0.02248981  0.04476496 -0.1060464  -0.03091366  0.0433892 ]
 [-0.02163741  0.04173094 -0.25128424 -0.01484944 -0.01680346]
 [-0.02224337  0.01085159 -0.03090712  0.01260832 -0.0265894 ]] 
Episode: 265: [[-0.01101302  0.00908053  0.01803144 -0.03303666 -0.0207518 ]
 [-0.00094312  0.04305304  0.01592793 -0.02077159  0.02536575]
 [-0.02088247  0.04317334 -0.10719011 -0.03085328  0.04289318]
 [-0.02327466  0.04042619 -0.25258297 -0.0156703  -0.01650963]
 [-0.02432411  0.01057066 -0.02996434  0.01175447 -0.02816514]] 
Episode: 266: [[-0.01015214  0.01157942  0.0172898  -0.03122885 -0.0187833 ]
 [ 0.00103338  0.04308743  0.01421299 -0.01928974  0.02684814]
 [-0.0200863   0.04122303 -0.10872459 -0.03118487  0.04200532]
 [-0.02530914  0.03875741 -0.25414467 -0.01673247 -0.01663328]
 [-0.02678226  0.0109589  -0.02853564  0.01148988 -0.02908898]] 
Episode: 267: [[-0.00876758  0.0144078   0.01723992 -0.02912937 -0.01753874]
 [ 0.00338936  0.04369194  0.01329879 -0.01755503  0.02860669]
 [-0.01877099  0.03896046 -0.1095774  -0.03186497  0.04077139]
 [-0.02768719  0.03677019 -0.25514334 -0.01800996 -0.0171282 ]
 [-0.02956434  0.01192568 -0.02668594  0.01174427 -0.02943718]] 
Episode: 268: [[nan nan nan nan nan]
 [nan nan nan nan nan]
 [nan nan nan nan nan]
 [nan nan nan nan nan]
 [nan nan nan nan nan]] 
