Episode: 1: [[0. 0. 0. 0. 0.]
 [0. 0. 0. 0. 0.]
 [0. 0. 0. 0. 0.]
 [0. 0. 0. 0. 0.]
 [0. 0. 0. 0. 0.]] 
Episode: 2: [[ 0.0007     -0.00069988  0.0007     -0.0007     -0.0007    ]
 [ 0.0007      0.0007      0.0007     -0.0007      0.0007    ]
 [ 0.0007      0.0007      0.0007      0.0007      0.0007    ]
 [ 0.0007      0.0007     -0.0007      0.0007      0.0007    ]
 [-0.0007      0.0007      0.0007     -0.0007      0.0007    ]] 
Episode: 3: [[ 0.00053361 -0.00124436  0.00093249 -0.001209   -0.00127349]
 [ 0.0004381   0.00140028  0.00056452 -0.0009418   0.00029528]
 [ 0.00034273  0.00111787  0.00023724  0.00027064  0.00087832]
 [ 0.0004817   0.00084688 -0.00124212  0.00138281  0.00139927]
 [-0.00137873  0.00095552  0.00031832 -0.00084084  0.00140093]] 
Episode: 4: [[ 1.3218164e-04 -1.7850327e-03  1.0984858e-03 -1.0628474e-03
  -1.9024127e-03]
 [-2.0773570e-05  1.8165071e-03  2.4959320e-04 -8.8021095e-04
  -2.3867423e-04]
 [-1.6514338e-04  1.2945916e-03 -3.0027647e-04 -2.6633334e-04
   7.1854249e-04]
 [ 8.7676628e-05  8.0686802e-04 -1.8173670e-03  2.0623028e-03
   1.8047615e-03]
 [-2.0680388e-03  1.0183725e-03 -1.4039973e-04 -7.8010390e-04
   1.1493183e-03]] 
Episode: 5: [[-0.00036047 -0.00238479  0.0015239  -0.00089078 -0.00242194]
 [-0.00055618  0.00185719  0.00012615 -0.00091402 -0.0007287 ]
 [-0.00073538  0.00133856 -0.00089832 -0.00084622  0.00031352]
 [-0.00042043  0.00060805 -0.00243977  0.00239248  0.00193851]
 [-0.00274096  0.0010503  -0.00067556 -0.0007398   0.0006937 ]] 
Episode: 6: [[-6.4368657e-04 -3.0184612e-03  2.0380178e-03 -5.2832655e-04
  -2.5540136e-03]
 [-1.0241346e-03  1.6860605e-03  2.6519864e-04 -6.9633435e-04
  -7.0332782e-04]
 [-1.2599166e-03  1.1592339e-03 -1.1909242e-03 -1.4178872e-03
   2.2864886e-05]
 [-9.2978415e-04  3.3457461e-04 -2.8169302e-03  2.1625680e-03
   2.3284769e-03]
 [-3.3203880e-03  1.1018639e-03 -9.0896914e-04 -6.1860302e-04
   4.6056713e-04]] 
Episode: 7: [[-9.9290581e-04 -2.8641908e-03  1.8759650e-03 -4.5303552e-04
  -2.8584504e-03]
 [-1.4004569e-03  1.7417400e-03  2.5170486e-05 -3.9527114e-04
  -5.3515087e-04]
 [-1.7190782e-03  8.8687032e-04 -1.6327952e-03 -1.8971126e-03
  -1.9950695e-04]
 [-1.4635227e-03 -1.8839241e-05 -3.3045304e-03  2.2685593e-03
   2.7347018e-03]
 [-3.8483148e-03  9.0575783e-04 -1.3235089e-03 -3.4594597e-04
   3.3483142e-04]] 
Episode: 8: [[-9.5800165e-04 -2.8631077e-03  2.0671545e-03 -7.9137541e-04
  -3.2562208e-03]
 [-1.3173312e-03  2.0891055e-03  7.4783020e-05 -6.8501919e-04
  -5.3752813e-04]
 [-1.6561848e-03  1.1233641e-03 -2.0945468e-03 -2.4014460e-03
  -4.8551137e-05]
 [-1.4382934e-03  1.5302665e-04 -3.8331929e-03  2.5598265e-03
   3.1615500e-03]
 [-4.4081435e-03  1.0125904e-03 -1.7829682e-03 -5.5413286e-04
  -3.2300624e-05]] 
Episode: 9: [[-9.4792095e-04 -2.8416419e-03  2.2285564e-03 -1.1321366e-03
  -3.6412084e-03]
 [-1.2417537e-03  2.4667941e-03  9.2445400e-05 -9.9585066e-04
  -7.4661063e-04]
 [-1.6397323e-03  1.3733315e-03 -2.5032461e-03 -2.9573296e-03
   1.5490538e-06]
 [-1.4768757e-03  3.5440890e-04 -4.3302635e-03  2.7086663e-03
   3.4849683e-03]
 [-4.9770079e-03  1.2120251e-03 -2.2218970e-03 -7.9509709e-04
  -4.6342015e-04]] 
Episode: 10: [[-6.6276820e-04 -3.1389419e-03  2.0653883e-03 -1.4164788e-03
  -4.0769065e-03]
 [-9.6690474e-04  2.7252685e-03 -2.1106293e-04 -1.1757396e-03
  -1.0561085e-03]
 [-1.4672719e-03  1.5867894e-03 -2.9983451e-03 -2.8832201e-03
  -3.2799755e-05]
 [-1.5234017e-03  5.6043157e-04 -4.8880833e-03  3.0579581e-03
   3.8771017e-03]
 [-5.1847952e-03  1.1688559e-03 -2.7386136e-03 -8.3709485e-04
  -7.0041238e-04]] 
Episode: 11: [[-4.1725318e-04 -3.1161676e-03  1.7399946e-03 -1.7958377e-03
  -4.0475666e-03]
 [-7.5102691e-04  3.1352164e-03 -4.8860005e-04 -1.5241752e-03
  -8.2815235e-04]
 [-1.4303562e-03  1.9280893e-03 -3.5552934e-03 -3.0586380e-03
  -3.2397198e-05]
 [-1.6050145e-03  8.2635309e-04 -5.4892516e-03  3.0954997e-03
   3.8697182e-03]
 [-5.3206384e-03  1.3393525e-03 -3.3028207e-03 -9.9882670e-04
  -6.7996548e-04]] 
Episode: 12: [[-0.00018787 -0.00311211  0.00138707 -0.00218637 -0.00398221]
 [-0.00047387  0.00340882 -0.00081291 -0.00187271 -0.00069734]
 [-0.00149242  0.0022671  -0.00413797 -0.00329801 -0.00017156]
 [-0.00164584  0.00107868 -0.00612492  0.00330092  0.00375064]
 [-0.00542372  0.00141214 -0.00388439 -0.00110097 -0.00070555]] 
Episode: 13: [[ 1.9396577e-04 -3.0087251e-03  1.0018860e-03 -2.5482965e-03
  -3.7395288e-03]
 [-5.8530433e-05  3.7766637e-03 -1.1539748e-03 -2.1621461e-03
  -3.7363861e-04]
 [-1.5044681e-03  2.6476271e-03 -4.6408484e-03 -3.6611003e-03
  -2.9677528e-04]
 [-1.4498822e-03  1.3143884e-03 -6.7245266e-03  3.6209477e-03
   3.8533071e-03]
 [-5.4447078e-03  1.5989578e-03 -4.3878285e-03 -1.4306533e-03
  -1.0006775e-03]] 
Episode: 14: [[ 5.5389648e-04 -2.9084932e-03  6.4947258e-04 -2.8956512e-03
  -3.5107241e-03]
 [ 3.3535957e-04  4.1282624e-03 -1.4683951e-03 -2.4547111e-03
  -7.2906674e-05]
 [-1.4753976e-03  3.0254861e-03 -5.1097069e-03 -3.9792275e-03
  -3.5195818e-04]
 [-1.2678844e-03  1.5638650e-03 -7.2954856e-03  3.9116899e-03
   3.8950632e-03]
 [-5.4457542e-03  1.7911162e-03 -4.8585800e-03 -1.7560557e-03
  -1.2741197e-03]] 
Episode: 15: [[ 0.00100498 -0.00287876  0.00026873 -0.00329894 -0.00326245]
 [ 0.00082244  0.00457685 -0.00168457 -0.00284066  0.00026993]
 [-0.00122495  0.00350618 -0.00528053 -0.00434429 -0.00040788]
 [-0.00092594  0.00196634 -0.00758872  0.00417134  0.00376238]
 [-0.00517088  0.00212952 -0.00508588 -0.00202475 -0.0014985 ]] 
Episode: 16: [[ 1.4183802e-03 -2.8394675e-03 -8.6850967e-05 -3.6489645e-03
  -3.0137899e-03]
 [ 1.2727410e-03  5.0130473e-03 -1.8987375e-03 -3.1885158e-03
   5.8721268e-04]
 [-9.9068554e-04  3.9957496e-03 -5.4553663e-03 -4.6877088e-03
  -4.7375305e-04]
 [-5.6633295e-04  2.3942143e-03 -7.8933556e-03  4.4468674e-03
   3.6556071e-03]
 [-4.8449719e-03  2.5278404e-03 -5.3118002e-03 -2.3810391e-03
  -1.8034731e-03]] 
Episode: 17: [[ 0.00174828 -0.00279273 -0.00043586 -0.00394375 -0.00277524]
 [ 0.00164559  0.00538445 -0.00215522 -0.0034927   0.0008823 ]
 [-0.0008252   0.00441162 -0.00568897 -0.00496489 -0.00048743]
 [-0.00035332  0.00274385 -0.00825368  0.00479153  0.00358099]
 [-0.00461804  0.00279657 -0.00559834 -0.00266456 -0.00208505]] 
Episode: 18: [[ 0.00216423 -0.00268799 -0.00081049 -0.00412348 -0.00251066]
 [ 0.00207977  0.00565053 -0.00249847 -0.00360887  0.00120879]
 [-0.00068894  0.00472914 -0.00601852 -0.00510031 -0.00041624]
 [-0.00035927  0.00302246 -0.00865157  0.00512201  0.00345378]
 [-0.00449399  0.00302087 -0.00595854 -0.00292762 -0.002339  ]] 
Episode: 19: [[ 0.002515   -0.0025905  -0.0011882  -0.00429026 -0.00226894]
 [ 0.0024399   0.00592337 -0.0028491  -0.00371216  0.00152065]
 [-0.00062874  0.00506113 -0.0063567  -0.00525512 -0.00032458]
 [-0.00043928  0.00330476 -0.00907671  0.00542046  0.00335355]
 [-0.00441572  0.00325786 -0.0063283  -0.00317862 -0.00259582]] 
Episode: 20: [[ 0.00271603 -0.0025264  -0.00154538 -0.00440853 -0.00205292]
 [ 0.00263131  0.00615828 -0.00319471 -0.00378878  0.00180012]
 [-0.00071712  0.0053041  -0.00669756 -0.00540136 -0.00022275]
 [-0.00067682  0.00345983 -0.00951784  0.0056996   0.00331782]
 [-0.00446119  0.00342049 -0.00670098 -0.00339026 -0.0028412 ]] 
Episode: 21: [[ 0.00285454 -0.00247257 -0.00186794 -0.00452097 -0.00187039]
 [ 0.00277094  0.00636165 -0.00352218 -0.00385285  0.00203191]
 [-0.00084767  0.0055181  -0.00707069 -0.00555385 -0.00015214]
 [-0.00096236  0.0035764  -0.01000295  0.00597552  0.00333586]
 [-0.00455482  0.00357401 -0.0071182  -0.00358619 -0.00305639]] 
Episode: 22: [[ 0.00284284 -0.00240698 -0.00218964 -0.00458216 -0.00171302]
 [ 0.00274373  0.00652181 -0.00387394 -0.00388637  0.00222657]
 [-0.00112373  0.00566528 -0.00743394 -0.00577919 -0.00015594]
 [-0.00131521  0.00360353 -0.0104685   0.00613433  0.00327013]
 [-0.00476356  0.0036517  -0.0074972  -0.00365376 -0.00322202]] 
Episode: 23: [[ 0.00276541 -0.00233976 -0.00249586 -0.0046146  -0.001573  ]
 [ 0.00265263  0.00665954 -0.00421921 -0.00389517  0.00239309]
 [-0.00144812  0.00577565 -0.00780378 -0.00599365 -0.00021297]
 [-0.00170223  0.00357569 -0.01093934  0.00626513  0.00318579]
 [-0.00502698  0.00369267 -0.00788273 -0.00369621 -0.00335556]] 
Episode: 24: [[ 0.00260077 -0.0022656  -0.00275736 -0.00461706 -0.00146355]
 [ 0.00247453  0.00674428 -0.00455332 -0.0038688   0.00252693]
 [-0.00184783  0.00581678 -0.00816348 -0.00624646 -0.00026269]
 [-0.0021198   0.0034921  -0.01138914  0.00637078  0.00318407]
 [-0.00537277  0.00369063 -0.00824159 -0.00372916 -0.00349439]] 
Episode: 25: [[ 0.00241389 -0.00219573 -0.00301113 -0.00461346 -0.00137387]
 [ 0.00227427  0.00682713 -0.00487522 -0.00383963  0.0026347 ]
 [-0.00224479  0.00584828 -0.00850663 -0.00648957 -0.00029351]
 [-0.00254536  0.00338776 -0.01182319  0.00643155  0.00319945]
 [-0.00572413  0.00365453 -0.00858206 -0.003743   -0.0036159 ]] 
Episode: 26: [[ 0.00214234 -0.00211087 -0.00328142 -0.00461129 -0.00132331]
 [ 0.00199507  0.00690461 -0.00522158 -0.00378711  0.00268821]
 [-0.0027122   0.00581787 -0.00882263 -0.00675215 -0.00045565]
 [-0.00303739  0.00320278 -0.01224139  0.00640158  0.00321878]
 [-0.00611434  0.00359081 -0.00887856 -0.00372389 -0.00369   ]] 
Episode: 27: [[ 0.00190987 -0.00210203 -0.0034994  -0.00462725 -0.00129692]
 [ 0.00177871  0.00697253 -0.00551173 -0.00373798  0.00273651]
 [-0.00311104  0.00582873 -0.00913177 -0.00701676 -0.00062146]
 [-0.00344011  0.00308695 -0.01265722  0.00638978  0.00320741]
 [-0.00642183  0.00357995 -0.00918132 -0.00375494 -0.0038398 ]] 
Episode: 28: [[ 0.00168645 -0.00206685 -0.00369171 -0.00462501 -0.00126589]
 [ 0.00156339  0.0070474  -0.00577526 -0.00367208  0.00281543]
 [-0.00350579  0.00585392 -0.00945903 -0.00726184 -0.00069281]
 [-0.00385484  0.00300201 -0.0131028   0.00633151  0.00324281]
 [-0.00673934  0.00358605 -0.00951112 -0.00380317 -0.00400443]] 
Episode: 29: [[ 0.00147788 -0.00203673 -0.00388845 -0.00466899 -0.00123692]
 [ 0.00137485  0.00715885 -0.00605391 -0.0036571   0.00284747]
 [-0.00384486  0.00590691 -0.00975473 -0.00749525 -0.0007796 ]
 [-0.00425449  0.00293712 -0.01350934  0.00627288  0.00318973]
 [-0.0070191   0.00361398 -0.00979201 -0.003862   -0.00418559]] 
Episode: 30: [[ 0.00130217 -0.00172859 -0.00416356 -0.004647   -0.00122848]
 [ 0.00117584  0.00716823 -0.00632288 -0.00365216  0.00277811]
 [-0.0041715   0.00595963 -0.01015794 -0.007706   -0.00103955]
 [-0.00467524  0.00300747 -0.01399785  0.00619608  0.00303685]
 [-0.0073011   0.00376007 -0.01018785 -0.00385773 -0.00439761]] 
Episode: 31: [[ 0.00118    -0.00139339 -0.00441911 -0.00472266 -0.0012999 ]
 [ 0.00102093  0.00716121 -0.0065477  -0.00372847  0.00265217]
 [-0.00443053  0.00603367 -0.0105543  -0.00795201 -0.00130679]
 [-0.00502391  0.00311123 -0.01448207  0.00615064  0.002829  ]
 [-0.00751604  0.003887   -0.01059101 -0.00383528 -0.00458478]] 
Episode: 32: [[ 0.00108147 -0.00109999 -0.00464671 -0.00482508 -0.0013532 ]
 [ 0.00090533  0.00715974 -0.00675038 -0.00382034  0.00256043]
 [-0.00463861  0.00612666 -0.01095712 -0.00816874 -0.00150724]
 [-0.00534498  0.00323563 -0.01497017  0.0061562   0.00264984]
 [-0.00770337  0.00401515 -0.01100038 -0.00378509 -0.0047657 ]] 
Episode: 33: [[ 0.00093117 -0.00083568 -0.00501061 -0.00461388 -0.00107026]
 [ 0.0008275   0.00740696 -0.00671601 -0.00392366  0.00264543]
 [-0.00489203  0.00646722 -0.01116542 -0.00851906 -0.00168726]
 [-0.00557188  0.00351685 -0.01542581  0.00600774  0.00240577]
 [-0.00797785  0.00430133 -0.01127373 -0.00376687 -0.00477237]] 
Episode: 34: [[ 0.00086634 -0.00061625 -0.00542811 -0.00438561 -0.00077238]
 [ 0.00077998  0.00765482 -0.00684281 -0.00402695  0.00269088]
 [-0.00512043  0.00677011 -0.01143058 -0.00880888 -0.00184456]
 [-0.00583736  0.00375609 -0.01591512  0.00602625  0.00225555]
 [-0.00822811  0.00445146 -0.01158319 -0.00374835 -0.00487974]] 
Episode: 35: [[ 0.00099368 -0.00060968 -0.00590987 -0.00418514 -0.00034098]
 [ 0.00090679  0.00800596 -0.00700704 -0.00429389  0.00293856]
 [-0.00507697  0.00724185 -0.01164532 -0.00895523 -0.00169097]
 [-0.00585135  0.00419431 -0.01630774  0.00608276  0.00197458]
 [-0.00821321  0.00478997 -0.01180609 -0.00363666 -0.00499587]] 
Episode: 36: [[ 1.0858721e-03 -5.6227262e-04 -6.4188642e-03 -3.9847884e-03
   4.6739409e-05]
 [ 9.7390084e-04  8.2927793e-03 -7.1602575e-03 -4.5666751e-03
   3.1332371e-03]
 [-5.0773867e-03  7.6508862e-03 -1.1842187e-02 -9.0758838e-03
  -1.6011776e-03]
 [-5.9206681e-03  4.5843022e-03 -1.6682431e-02  6.1047333e-03
   1.6687822e-03]
 [-8.2459738e-03  5.0803628e-03 -1.2029169e-02 -3.5433765e-03
  -5.1082047e-03]] 
Episode: 37: [[ 0.00117204 -0.00062923 -0.00688427 -0.00389475  0.00025308]
 [ 0.00105428  0.00860647 -0.00721866 -0.00489029  0.00309822]
 [-0.00499639  0.00812102 -0.01212565 -0.00922075 -0.00157699]
 [-0.00590938  0.00506466 -0.01714573  0.00611864  0.00135525]
 [-0.008232    0.00548272 -0.01237039 -0.00344033 -0.00526071]] 
Episode: 38: [[ 0.00124759 -0.00072266 -0.00734961 -0.00381209  0.00048482]
 [ 0.00111251  0.0089381  -0.00725102 -0.00521245  0.00312642]
 [-0.00495701  0.00857507 -0.01244705 -0.00941439 -0.00157471]
 [-0.00595948  0.0055269  -0.01766072  0.00602007  0.00105555]
 [-0.00822515  0.00588077 -0.01276302 -0.00333012 -0.00539128]] 
Episode: 39: [[ 0.00134035 -0.00074488 -0.00780857 -0.00374444  0.00070976]
 [ 0.00116698  0.00929579 -0.00735096 -0.00551564  0.00315866]
 [-0.00493065  0.00898169 -0.01280609 -0.00967421 -0.00161066]
 [-0.00604638  0.00592693 -0.01819406  0.0059698   0.00076712]
 [-0.0082695   0.00623252 -0.01317784 -0.00325143 -0.00552096]] 
Episode: 40: [[ 0.00138882 -0.00077688 -0.00821089 -0.00358122  0.00093488]
 [ 0.00114366  0.00954065 -0.00744381 -0.00565792  0.00321311]
 [-0.00497905  0.00925272 -0.01313782 -0.00990048 -0.0017111 ]
 [-0.00620843  0.00618138 -0.01871579  0.00578556  0.00056334]
 [-0.00837835  0.00647461 -0.0135578  -0.00308878 -0.00561746]] 
Episode: 41: [[ 0.00156439 -0.00110582 -0.00856867 -0.00363046  0.00111933]
 [ 0.00117575  0.00998225 -0.00737528 -0.00597293  0.00330048]
 [-0.00502905  0.00974094 -0.01328129 -0.01025484 -0.00188196]
 [-0.00604257  0.00662069 -0.01917073  0.0055256   0.00037437]
 [-0.00827546  0.00689864 -0.01380832 -0.00292464 -0.00553855]] 
Episode: 42: [[ 0.00174561 -0.00146728 -0.00896784 -0.00365562  0.00130393]
 [ 0.00122673  0.01044202 -0.00737918 -0.00625201  0.00338172]
 [-0.00508611  0.01021322 -0.01347028 -0.01054692 -0.00199241]
 [-0.00592751  0.00703395 -0.01965259  0.00535683  0.00021114]
 [-0.00819465  0.00730214 -0.01409645 -0.00284433 -0.00550338]] 
Episode: 43: [[ 1.9140603e-03 -1.8118321e-03 -9.3455529e-03 -3.7110031e-03
   1.4549661e-03]
 [ 1.2773633e-03  1.0863500e-02 -7.3845275e-03 -6.5479618e-03
   3.4099566e-03]
 [-5.1342221e-03  1.0639351e-02 -1.3697689e-02 -1.0808846e-02
  -2.1373273e-03]
 [-5.8331848e-03  7.3927860e-03 -2.0164337e-02  5.2157398e-03
   4.2192889e-05]
 [-8.1136487e-03  7.6353601e-03 -1.4422623e-02 -2.7741105e-03
  -5.5124527e-03]] 
Episode: 44: [[ 2.0873311e-03 -2.1182734e-03 -9.7224172e-03 -3.9217505e-03
   1.4232100e-03]
 [ 1.3989703e-03  1.1292463e-02 -7.3608840e-03 -6.9740470e-03
   3.2464701e-03]
 [-5.1689264e-03  1.1085449e-02 -1.3969800e-02 -1.1190224e-02
  -2.4439243e-03]
 [-5.6861620e-03  7.7947429e-03 -2.0719595e-02  5.1141442e-03
  -4.0649634e-06]
 [-7.9746498e-03  7.9790270e-03 -1.4802239e-02 -2.8022844e-03
  -5.5412734e-03]] 
Episode: 45: [[ 2.2847843e-03 -2.5572483e-03 -1.0232195e-02 -4.1721351e-03
   1.3658856e-03]
 [ 1.5649021e-03  1.1713065e-02 -7.4557648e-03 -7.3624747e-03
   3.0985493e-03]
 [-5.1983315e-03  1.1498966e-02 -1.4298958e-02 -1.1461145e-02
  -2.6892980e-03]
 [-5.5504558e-03  8.1586149e-03 -2.1282583e-02  5.1522092e-03
   6.2062418e-06]
 [-7.8289062e-03  8.2795294e-03 -1.5225584e-02 -2.6932086e-03
  -5.5770129e-03]] 
Episode: 46: [[ 2.5265482e-03 -2.9789209e-03 -1.0741727e-02 -4.4306759e-03
   1.3279765e-03]
 [ 1.7624367e-03  1.2134841e-02 -7.6098018e-03 -7.7787070e-03
   2.9837096e-03]
 [-5.1751630e-03  1.1891903e-02 -1.4625279e-02 -1.1706100e-02
  -2.8791609e-03]
 [-5.3742775e-03  8.5094711e-03 -2.1834165e-02  5.3190384e-03
  -3.5227849e-06]
 [-7.7190651e-03  8.5592801e-03 -1.5651198e-02 -2.6185464e-03
  -5.6554973e-03]] 
Episode: 47: [[ 2.6820095e-03 -3.3504283e-03 -1.1258240e-02 -4.5950119e-03
   1.3313215e-03]
 [ 1.8290939e-03  1.2492168e-02 -7.8136809e-03 -8.1051998e-03
   2.8867479e-03]
 [-5.2821892e-03  1.2194203e-02 -1.4923920e-02 -1.1915477e-02
  -2.9854423e-03]
 [-5.3302590e-03  8.7359855e-03 -2.2331938e-02  5.3830375e-03
   3.9025370e-05]
 [-7.7136285e-03  8.7785628e-03 -1.6024182e-02 -2.4755362e-03
  -5.6495415e-03]] 
Episode: 48: [[ 2.7341701e-03 -3.6910272e-03 -1.1721320e-02 -4.7155940e-03
   1.3206574e-03]
 [ 1.7932098e-03  1.2809452e-02 -8.0101686e-03 -8.3616935e-03
   2.7708537e-03]
 [-5.4762228e-03  1.2457303e-02 -1.5229274e-02 -1.2117474e-02
  -3.1317156e-03]
 [-5.3610490e-03  8.9159943e-03 -2.2830594e-02  5.4088896e-03
   6.6188128e-05]
 [-7.8002014e-03  8.9556528e-03 -1.6394664e-02 -2.3523155e-03
  -5.6715449e-03]] 
Episode: 49: [[ 2.7798307e-03 -3.9959345e-03 -1.2108127e-02 -4.8348722e-03
   1.3087360e-03]
 [ 1.7520988e-03  1.3090607e-02 -8.1556197e-03 -8.6063072e-03
   2.6347521e-03]
 [-5.6754122e-03  1.2704143e-02 -1.5528207e-02 -1.2268257e-02
  -3.2667434e-03]
 [-5.4282127e-03  9.0875160e-03 -2.3336660e-02  5.4186494e-03
   9.5270450e-05]
 [-7.8881988e-03  9.1335373e-03 -1.6770827e-02 -2.1955455e-03
  -5.6774016e-03]] 
Episode: 50: [[ 0.00275978 -0.00426119 -0.01248353 -0.00494296  0.0013087 ]
 [ 0.00165628  0.01333062 -0.00835743 -0.00880837  0.00253796]
 [-0.00592234  0.01290275 -0.01582964 -0.01240898 -0.00336647]
 [-0.00557412  0.00919812 -0.02382865  0.0055022   0.00018207]
 [-0.00800858  0.00928116 -0.0171358  -0.00209262 -0.0057419 ]] 
Episode: 51: [[ 0.00275037 -0.00442405 -0.0128256  -0.00503736  0.00129918]
 [ 0.00155978  0.01349592 -0.00853811 -0.00899601  0.00242409]
 [-0.00614134  0.0130661  -0.01613456 -0.01251651 -0.00346428]
 [-0.00572069  0.00929611 -0.02431276  0.00558583  0.00024282]
 [-0.00812716  0.00939176 -0.01751115 -0.00188114 -0.00576432]] 
Episode: 52: [[ 0.0026886  -0.00457024 -0.01315373 -0.00511713  0.00128706]
 [ 0.00140939  0.01364973 -0.00874628 -0.00914563  0.00231541]
 [-0.00641157  0.01318172 -0.01643719 -0.01261462 -0.00359256]
 [-0.00590455  0.0093218  -0.0247876   0.0056541   0.00030375]
 [-0.00831237  0.00943909 -0.01787007 -0.0016629  -0.00581056]] 
Episode: 53: [[ 0.00256997 -0.0046907  -0.01343648 -0.00518377  0.00126924]
 [ 0.00120149  0.01378202 -0.00896248 -0.00926916  0.00220458]
 [-0.00672847  0.01326363 -0.01676437 -0.01271289 -0.00373024]
 [-0.00611755  0.00930217 -0.02528981  0.0057106   0.00042229]
 [-0.00855905  0.0094599  -0.01824611 -0.00143792 -0.00587216]] 
Episode: 54: [[ 0.0024366  -0.00476154 -0.01369084 -0.00522896  0.00126128]
 [ 0.00097242  0.0138785  -0.00916152 -0.00937531  0.00210461]
 [-0.00705816  0.01332534 -0.01707862 -0.01280714 -0.00386014]
 [-0.00633853  0.00927462 -0.02577082  0.00577311  0.00052116]
 [-0.00882237  0.00946867 -0.01860007 -0.00122726 -0.00591888]] 
Episode: 55: [[ 0.0023239  -0.00486421 -0.01380064 -0.00530501  0.00124455]
 [ 0.00077868  0.01397319 -0.00925219 -0.0094829   0.00207691]
 [-0.00734749  0.0133988  -0.01734848 -0.01295984 -0.00391369]
 [-0.00653439  0.00926118 -0.02623581  0.00576802  0.00062164]
 [-0.00902342  0.0094998  -0.01892352 -0.0010034  -0.005857  ]] 
Episode: 56: [[ 0.00220861 -0.0049769  -0.01382534 -0.00539616  0.00123428]
 [ 0.0005981   0.01402196 -0.00926655 -0.00959161  0.00204276]
 [-0.00762359  0.01345869 -0.01761764 -0.01311488 -0.00404594]
 [-0.00676207  0.00927579 -0.0267073   0.00573321  0.00081851]
 [-0.00925897  0.00957438 -0.01925768 -0.00087137 -0.00575938]] 
Episode: 57: [[ 0.00216578 -0.00500701 -0.01389633 -0.00548965  0.00120539]
 [ 0.00048989  0.01410568 -0.0093765  -0.00969432  0.00199319]
 [-0.00784423  0.01351963 -0.01796317 -0.0132414  -0.00412663]
 [-0.00695079  0.0092822  -0.02723209  0.00577464  0.00095975]
 [-0.00948692  0.00956658 -0.01965899 -0.00065788 -0.00568886]] 
Episode: 58: [[ 0.00213865 -0.00510063 -0.01410086 -0.00549627  0.0012354 ]
 [ 0.00039692  0.01425366 -0.00962792 -0.00967455  0.00206927]
 [-0.00807094  0.0135512  -0.01838456 -0.01330995 -0.00412454]
 [-0.00722384  0.00923844 -0.02782407  0.00587687  0.0011779 ]
 [-0.00974597  0.00948164 -0.02012512 -0.0004711  -0.00562578]] 
Episode: 59: [[ 0.00210297 -0.00511614 -0.01433462 -0.00550901  0.00126012]
 [ 0.00033257  0.01436823 -0.00989094 -0.00965075  0.00215693]
 [-0.00827244  0.01357955 -0.01880092 -0.01336774 -0.00407696]
 [-0.00747123  0.00920494 -0.02841294  0.00598257  0.00146378]
 [-0.00999191  0.00943567 -0.02058012 -0.00044181 -0.0056107 ]] 
Episode: 60: [[ 0.00201637 -0.00515301 -0.01456584 -0.00553655  0.00121879]
 [ 0.00025339  0.01443143 -0.010076   -0.00962881  0.00216101]
 [-0.00849107  0.01360333 -0.01918315 -0.01344133 -0.00408239]
 [-0.00771616  0.00921309 -0.02896992  0.00606483  0.0016379 ]
 [-0.01022773  0.00944839 -0.02101773 -0.00048065 -0.00568063]] 
Episode: 61: [[ 0.00194509 -0.00517458 -0.0147846  -0.00557109  0.00117618]
 [ 0.00019573  0.01449355 -0.01025335 -0.00961235  0.00216894]
 [-0.00867249  0.01363155 -0.01953526 -0.01349376 -0.00406288]
 [-0.00792838  0.00923472 -0.02948574  0.00613179  0.00175334]
 [-0.01042009  0.00948666 -0.02141657 -0.00051747 -0.00574809]] 
Episode: 62: [[ 0.00190265 -0.00515787 -0.01504114 -0.0056202   0.00112159]
 [ 0.00013955  0.01455027 -0.01042512 -0.00964151  0.00212297]
 [-0.008842    0.01366356 -0.0198625  -0.01357103 -0.00413449]
 [-0.00811775  0.00925876 -0.02999534  0.00621197  0.00189622]
 [-0.01057237  0.00951044 -0.02179469 -0.00057692 -0.00584984]] 
Episode: 63: [[ 0.00187317 -0.00522412 -0.01533908 -0.00573494  0.00105632]
 [ 0.00016213  0.01465295 -0.01062884 -0.00969267  0.00208845]
 [-0.00897248  0.01372035 -0.02022432 -0.01363767 -0.0041882 ]
 [-0.00829994  0.0093004  -0.03053872  0.00639448  0.0020161 ]
 [-0.01075198  0.00953371 -0.02220628 -0.00069605 -0.00597293]] 
Episode: 64: [[ 0.00195284 -0.00518001 -0.01550828 -0.00574017  0.00099948]
 [ 0.00026406  0.01470186 -0.01076753 -0.009624    0.00205461]
 [-0.0090826   0.01372493 -0.02060745 -0.0136528  -0.00419458]
 [-0.00849422  0.00929712 -0.03107114  0.00662221  0.00217128]
 [-0.01095712  0.0094922  -0.02259837 -0.00079437 -0.00610747]] 
Episode: 65: [[ 0.00202843 -0.00521923 -0.01583179 -0.00592701  0.00085589]
 [ 0.00035286  0.01478941 -0.01094104 -0.00976509  0.00190115]
 [-0.00909081  0.01386104 -0.02079662 -0.01377608 -0.00428383]
 [-0.00848816  0.00940174 -0.03148663  0.00674211  0.0022182 ]
 [-0.01111807  0.00953026 -0.02283687 -0.00087638 -0.00598504]] 
Episode: 66: [[ 0.00210327 -0.005248   -0.01620464 -0.00617879  0.00067618]
 [ 0.00046274  0.01490289 -0.01117332 -0.01000289  0.0016528 ]
 [-0.00907741  0.01401362 -0.02097446 -0.01388355 -0.00443178]
 [-0.00847988  0.00952273 -0.03188333  0.00686377  0.00209098]
 [-0.01127533  0.0095524  -0.02306666 -0.00084573 -0.00581847]] 
Episode: 67: [[ 0.00223287 -0.0052347  -0.01659802 -0.00637626  0.00053453]
 [ 0.00060377  0.01502289 -0.01151618 -0.01016917  0.00148661]
 [-0.00904983  0.01414695 -0.02116361 -0.01396043 -0.00462873]
 [-0.0084908   0.00961105 -0.03228676  0.0071119   0.00212979]
 [-0.01141413  0.00951582 -0.02330244 -0.00076249 -0.00573791]] 
Episode: 68: [[ 0.00237529 -0.00521348 -0.01695051 -0.00658154  0.00042468]
 [ 0.00076769  0.01513471 -0.01182855 -0.01034213  0.00138181]
 [-0.00897444  0.01428232 -0.02134209 -0.01404453 -0.00473551]
 [-0.00849358  0.00970828 -0.03266118  0.00735546  0.00216371]
 [-0.01151391  0.00951771 -0.02351728 -0.00070608 -0.00567527]] 
Episode: 69: [[ 0.00250305 -0.00517995 -0.01727661 -0.00676715  0.00032739]
 [ 0.00091724  0.0152357  -0.01211728 -0.01049475  0.00129126]
 [-0.00891687  0.01440144 -0.02152023 -0.01411791 -0.00483953]
 [-0.00851367  0.00979105 -0.03302626  0.00758784  0.00220714]
 [-0.01161489  0.00950929 -0.02373019 -0.00065928 -0.00562297]] 
Episode: 70: [[ 0.00261414 -0.00514444 -0.0175403  -0.00692387  0.00028371]
 [ 0.0010772   0.01534582 -0.01235141 -0.01059803  0.00131456]
 [-0.00888787  0.01452564 -0.02173889 -0.01429474 -0.00487661]
 [-0.00858031  0.00987841 -0.03341471  0.00774369  0.00221013]
 [-0.01175705  0.0095348  -0.0239738  -0.00065757 -0.00554167]] 
Episode: 71: [[ 0.00284276 -0.00516509 -0.01777361 -0.00717575  0.00023034]
 [ 0.00121214  0.01539564 -0.01250255 -0.010772    0.00133508]
 [-0.00886052  0.01464693 -0.02197849 -0.01446458 -0.00481568]
 [-0.00858424  0.00995867 -0.033805    0.00789699  0.00213329]
 [-0.01183565  0.00954093 -0.02426412 -0.00049415 -0.00541429]] 
Episode: 72: [[ 0.0029675  -0.00517336 -0.0179586  -0.00738877  0.00018141]
 [ 0.00124599  0.01542752 -0.0125875  -0.01091638  0.00132069]
 [-0.00893065  0.01473612 -0.02227022 -0.01463069 -0.00481709]
 [-0.00864321  0.01001023 -0.03427491  0.0080114   0.00208841]
 [-0.01198387  0.00955228 -0.02461435 -0.00033101 -0.00529217]] 
Episode: 73: [[ 0.00304889 -0.00529146 -0.01815125 -0.00761783  0.00011548]
 [ 0.00121397  0.0154492  -0.01264674 -0.01109715  0.0012933 ]
 [-0.00901141  0.01480366 -0.02261418 -0.01474395 -0.00485536]
 [-0.00871246  0.01003212 -0.0347851   0.00817901  0.00205027]
 [-0.01212731  0.00954731 -0.02502776 -0.00013767 -0.00519291]] 
Episode: 74: [[ 3.1098134e-03 -5.3462950e-03 -1.8309232e-02 -7.8339819e-03
   5.9694357e-05]
 [ 1.1741696e-03  1.5449775e-02 -1.2703180e-02 -1.1273572e-02
   1.2546298e-03]
 [-9.1003347e-03  1.4845261e-02 -2.2947367e-02 -1.4865851e-02
  -4.9346401e-03]
 [-8.8007385e-03  1.0024192e-02 -3.5275098e-02  8.3219036e-03
   2.0084123e-03]
 [-1.2300337e-02  9.5069204e-03 -2.5422130e-02  6.0220209e-05
  -5.1121470e-03]] 
Episode: 75: [[ 3.16487206e-03 -5.38446708e-03 -1.84543096e-02 -8.04155506e-03
  -1.54733789e-05]
 [ 1.13289303e-03  1.54516166e-02 -1.27272941e-02 -1.14496760e-02
   1.19558431e-03]
 [-9.17940401e-03  1.48957055e-02 -2.32647303e-02 -1.49812540e-02
  -4.99325246e-03]
 [-8.87569785e-03  1.00475559e-02 -3.57496031e-02  8.46904144e-03
   1.94413541e-03]
 [-1.24309994e-02  9.49834287e-03 -2.58011334e-02  2.16670189e-04
  -5.05192997e-03]] 
Episode: 76: [[ 3.21870879e-03 -5.41836815e-03 -1.86055172e-02 -8.26256443e-03
  -7.74263463e-05]
 [ 1.12598343e-03  1.54676605e-02 -1.26983486e-02 -1.16427029e-02
   1.17579091e-03]
 [-9.25919320e-03  1.50237549e-02 -2.35664118e-02 -1.51502742e-02
  -4.97374823e-03]
 [-8.97275470e-03  1.02306847e-02 -3.62340249e-02  8.52745958e-03
   1.89016899e-03]
 [-1.25586707e-02  9.68637131e-03 -2.61911321e-02  2.46061827e-04
  -5.08599030e-03]] 
Episode: 77: [[ 0.00313331 -0.00542134 -0.01867454 -0.00838683 -0.00013033]
 [ 0.00095153  0.0154274  -0.01266078 -0.01175339  0.00112181]
 [-0.0095092   0.01509209 -0.02386825 -0.01538058 -0.00510798]
 [-0.00915181  0.01033396 -0.0366919   0.00852378  0.00182258]
 [-0.01280225  0.00982011 -0.02655315  0.00031341 -0.00516175]] 
Episode: 78: [[ 0.00301508 -0.00543308 -0.01872805 -0.00848569 -0.00017582]
 [ 0.00075423  0.01537869 -0.01265119 -0.01183561  0.00107244]
 [-0.00978143  0.01513654 -0.02421157 -0.01557171 -0.00521313]
 [-0.00937347  0.01041053 -0.03720905  0.00851493  0.00178936]
 [-0.0130797   0.00995023 -0.02694633  0.00040274 -0.00524125]] 
Episode: 79: [[ 0.00291618 -0.00540274 -0.01870862 -0.00858932 -0.00022216]
 [ 0.00059363  0.01531673 -0.01259001 -0.01192185  0.00101666]
 [-0.01000585  0.01517909 -0.02456465 -0.01574937 -0.00530403]
 [-0.00956783  0.01048653 -0.03774252  0.00848174  0.00173132]
 [-0.0133064   0.01006705 -0.0273557   0.00045406 -0.00535185]] 
Episode: 80: [[ 0.00275944 -0.00535157 -0.01872233 -0.00867701 -0.00027502]
 [ 0.00039203  0.01524164 -0.01256082 -0.01199352  0.0009301 ]
 [-0.01026304  0.01520224 -0.02490439 -0.0158924  -0.00538248]
 [-0.00979398  0.01053908 -0.03824582  0.00843472  0.00178114]
 [-0.01356244  0.01014979 -0.02773585  0.00053631 -0.00540297]] 
Episode: 81: [[ 0.00262806 -0.00528518 -0.01879191 -0.00878802 -0.0003114 ]
 [ 0.00022561  0.01519497 -0.0125662  -0.01208592  0.00086845]
 [-0.01047053  0.01524985 -0.02518249 -0.01602701 -0.00542724]
 [-0.00999788  0.01063424 -0.03868885  0.00837537  0.00179978]
 [-0.01377127  0.01027055 -0.02804603  0.00064658 -0.00541189]] 
Episode: 82: [[ 2.4350844e-03 -5.2805156e-03 -1.8895149e-02 -8.9319181e-03
  -3.3328842e-04]
 [ 2.2703438e-05  1.5237500e-02 -1.2661489e-02 -1.2203494e-02
   8.3980098e-04]
 [-1.0696536e-02  1.5337761e-02 -2.5437439e-02 -1.6150093e-02
  -5.4830904e-03]
 [-1.0248621e-02  1.0744132e-02 -3.9098088e-02  8.3454959e-03
   1.8723221e-03]
 [-1.4069203e-02  1.0405421e-02 -2.8322045e-02  7.2014314e-04
  -5.4850709e-03]] 
Episode: 83: [[ 0.002213   -0.00527338 -0.01897991 -0.00905427 -0.00035745]
 [-0.00021426  0.01527756 -0.01274637 -0.01229766  0.0008089 ]
 [-0.01095412  0.01541586 -0.02566683 -0.01629329 -0.00556754]
 [-0.0105126   0.01083434 -0.03947094  0.0082868   0.00192134]
 [-0.01438845  0.01053127 -0.02856104  0.00077799 -0.00557612]] 
Episode: 84: [[ 0.00233078 -0.00544961 -0.01897227 -0.00935814 -0.00036967]
 [-0.00011948  0.01562461 -0.01274357 -0.01258244  0.00075462]
 [-0.01088591  0.0156673  -0.02573196 -0.0166062  -0.00589944]
 [-0.01054537  0.01114016 -0.03970133  0.00818566  0.00179387]
 [-0.01460299  0.01082118 -0.02866203  0.000866   -0.00559627]] 
Episode: 85: [[ 2.3879975e-03 -5.6031556e-03 -1.8999930e-02 -9.6144574e-03
  -3.7191913e-04]
 [-9.3585964e-05  1.5960256e-02 -1.2804780e-02 -1.2851275e-02
   6.8513321e-04]
 [-1.0870307e-02  1.5912017e-02 -2.5822245e-02 -1.6931139e-02
  -6.1781080e-03]
 [-1.0605439e-02  1.1430196e-02 -3.9935511e-02  8.0702780e-03
   1.7116888e-03]
 [-1.4834642e-02  1.1095067e-02 -2.8762599e-02  8.5226115e-04
  -5.7078460e-03]] 
Episode: 86: [[ 2.44736834e-03 -5.72252879e-03 -1.89955775e-02 -9.84139182e-03
  -3.51469411e-04]
 [-5.80663218e-05  1.62378512e-02 -1.28334267e-02 -1.30998865e-02
   6.14795426e-04]
 [-1.08415531e-02  1.61279850e-02 -2.59250440e-02 -1.72504764e-02
  -6.45331526e-03]
 [-1.06847305e-02  1.16957659e-02 -4.01833765e-02  7.89351016e-03
   1.56122458e-03]
 [-1.50225330e-02  1.13305477e-02 -2.88785547e-02  8.95995705e-04
  -5.79983974e-03]] 
Episode: 87: [[ 2.47904239e-03 -5.80896297e-03 -1.89906713e-02 -1.00344615e-02
  -3.36289406e-04]
 [-5.43562310e-05  1.64782349e-02 -1.28716370e-02 -1.33103076e-02
   5.43766946e-04]
 [-1.08461594e-02  1.63021758e-02 -2.60455217e-02 -1.75625551e-02
  -6.77163154e-03]
 [-1.07794870e-02  1.19061833e-02 -4.04418074e-02  7.72092817e-03
   1.41361135e-03]
 [-1.52262859e-02  1.15132378e-02 -2.90059987e-02  9.59117664e-04
  -5.89049980e-03]] 
Episode: 88: [[ 2.5778322e-03 -5.8795153e-03 -1.8998154e-02 -1.0207251e-02
  -3.3385080e-04]
 [-2.6556550e-05  1.6599819e-02 -1.2934451e-02 -1.3516154e-02
   4.1250011e-04]
 [-1.0854111e-02  1.6434927e-02 -2.6226576e-02 -1.7830949e-02
  -7.0527522e-03]
 [-1.0860069e-02  1.2082851e-02 -4.0725105e-02  7.6830816e-03
   1.2910722e-03]
 [-1.5414503e-02  1.1634790e-02 -2.9174933e-02  1.0237672e-03
  -6.0006403e-03]] 
Episode: 89: [[ 2.66685500e-03 -5.90273924e-03 -1.89758968e-02 -1.03650298e-02
  -3.37152363e-04]
 [ 8.20520017e-06  1.67433061e-02 -1.29006840e-02 -1.37117626e-02
   2.57644890e-04]
 [-1.08669875e-02  1.66164748e-02 -2.63922401e-02 -1.81116629e-02
  -7.31223542e-03]
 [-1.09376973e-02  1.23342434e-02 -4.10266221e-02  7.64910411e-03
   1.14376948e-03]
 [-1.56063717e-02  1.18410448e-02 -2.93563604e-02  1.01642974e-03
  -6.18836144e-03]] 
Episode: 90: [[ 2.7560031e-03 -5.9218472e-03 -1.8909924e-02 -1.0510000e-02
  -3.1334249e-04]
 [ 2.6662176e-05  1.6895499e-02 -1.2861968e-02 -1.3904264e-02
   1.3983328e-04]
 [-1.0896110e-02  1.6800972e-02 -2.6600339e-02 -1.8418677e-02
  -7.5411117e-03]
 [-1.1060675e-02  1.2586756e-02 -4.1394573e-02  7.5358823e-03
   9.2695211e-04]
 [-1.5789961e-02  1.2053923e-02 -2.9584667e-02  1.0672651e-03
  -6.2950295e-03]] 
Episode: 91: [[ 2.8520199e-03 -5.9938268e-03 -1.8853882e-02 -1.0694191e-02
  -2.9543857e-04]
 [ 6.2630366e-05  1.7045839e-02 -1.2790189e-02 -1.4125008e-02
   6.1785293e-05]
 [-1.0885243e-02  1.7005859e-02 -2.6792232e-02 -1.8721012e-02
  -7.6809386e-03]
 [-1.1132255e-02  1.2871113e-02 -4.1755445e-02  7.4776374e-03
   7.2751660e-04]
 [-1.5902583e-02  1.2281976e-02 -2.9812258e-02  1.0902687e-03
  -6.4334269e-03]] 
Episode: 92: [[ 2.9693092e-03 -6.0789324e-03 -1.8798376e-02 -1.0889321e-02
  -2.8707681e-04]
 [ 1.4140140e-04  1.7195484e-02 -1.2706648e-02 -1.4353284e-02
  -2.7978664e-05]
 [-1.0835899e-02  1.7218186e-02 -2.6981188e-02 -1.8985949e-02
  -7.7517107e-03]
 [-1.1154294e-02  1.3159215e-02 -4.2113684e-02  7.4400464e-03
   5.6461937e-04]
 [-1.5984220e-02  1.2509222e-02 -3.0034835e-02  1.1163441e-03
  -6.5471246e-03]] 
Episode: 93: [[ 0.00310945 -0.0060847  -0.01872871 -0.01108403 -0.00030097]
 [ 0.00022361  0.01733905 -0.01261712 -0.01457052 -0.0001291 ]
 [-0.0108106   0.01738952 -0.02718516 -0.01923231 -0.00784117]
 [-0.01110262  0.01339493 -0.04251187  0.00751902  0.00038572]
 [-0.01604651  0.01264615 -0.0302778   0.00107985 -0.00667642]] 
Episode: 94: [[ 0.00317553 -0.00607222 -0.01867456 -0.01123035 -0.00031751]
 [ 0.00022644  0.01744974 -0.01256886 -0.01471799 -0.00020493]
 [-0.01086343  0.01750184 -0.0273657  -0.01945625 -0.00795135]
 [-0.01110994  0.01354709 -0.04286771  0.00754954  0.00023717]
 [-0.01616415  0.01272744 -0.03048196  0.00110887 -0.00675167]] 
Episode: 95: [[ 0.00313684 -0.00606032 -0.01863453 -0.01133603 -0.00033555]
 [ 0.00012474  0.01752852 -0.01251853 -0.0148124  -0.00027753]
 [-0.01102018  0.01758754 -0.02754974 -0.01968818 -0.0080891 ]
 [-0.01119917  0.01366297 -0.04322749  0.00752017  0.00015639]
 [-0.01638562  0.01280301 -0.03068944  0.00112817 -0.00683934]] 
Episode: 96: [[ 3.0745673e-03 -6.0449596e-03 -1.8586287e-02 -1.1429098e-02
  -3.6161981e-04]
 [ 2.2542772e-06  1.7593345e-02 -1.2453402e-02 -1.4898718e-02
  -3.7975627e-04]
 [-1.1189982e-02  1.7667372e-02 -2.7712993e-02 -1.9898694e-02
  -8.2228603e-03]
 [-1.1301703e-02  1.3774107e-02 -4.3553095e-02  7.4995304e-03
   1.2954301e-04]
 [-1.6608978e-02  1.2877715e-02 -3.0875543e-02  1.1424702e-03
  -6.9067683e-03]] 
Episode: 97: [[ 0.00292963 -0.00600218 -0.01854817 -0.01148441 -0.00039514]
 [-0.00020089  0.01762525 -0.01239974 -0.01492579 -0.00048924]
 [-0.01145002  0.01771139 -0.02788396 -0.02010856 -0.00837977]
 [-0.01146899  0.01383707 -0.04388575  0.00744325  0.00013562]
 [-0.01691447  0.01291817 -0.03106458  0.00117294 -0.00698457]] 
Episode: 98: [[ 0.00273993 -0.00592229 -0.0185198  -0.01149301 -0.00041486]
 [-0.00046106  0.01762351 -0.01235294 -0.01490742 -0.00059149]
 [-0.01177416  0.0177026  -0.02807462 -0.02029552 -0.00854741]
 [-0.01172522  0.01382781 -0.04425064  0.00735965  0.00020514]
 [-0.01726899  0.01290387 -0.03127766  0.00123325 -0.00707766]] 
Episode: 99: [[ 0.00254687 -0.00578636 -0.01854344 -0.01146125 -0.00042441]
 [-0.00076663  0.01757674 -0.01238093 -0.01483946 -0.00066442]
 [-0.01210265  0.01762207 -0.02834133 -0.02036092 -0.00865665]
 [-0.01205819  0.01372887 -0.04469573  0.00737403  0.00030066]
 [-0.01764488  0.01281212 -0.03157755  0.00125392 -0.0072068 ]] 
Episode: 100: [[ 0.00238855 -0.00565846 -0.01858352 -0.01144654 -0.00042811]
 [-0.00102884  0.01754379 -0.01244352 -0.01478834 -0.00073705]
 [-0.01238701  0.01755244 -0.02863242 -0.02033814 -0.00873813]
 [-0.01236594  0.01363036 -0.04514324  0.00748256  0.00037963]
 [-0.01799568  0.0126697  -0.0318982   0.00134261 -0.00728615]] 
Episode: 101: [[ 0.00229961 -0.0055352  -0.01859638 -0.01148276 -0.00043756]
 [-0.00121211  0.01751865 -0.01250059 -0.0148011  -0.00080368]
 [-0.01258176  0.01750046 -0.02888297 -0.02031663 -0.00878947]
 [-0.01261141  0.01354999 -0.04553514  0.00763201  0.00041862]
 [-0.01825006  0.01253954 -0.03217736  0.00144633 -0.00734818]] 
Episode: 102: [[ 0.00220828 -0.00542966 -0.01861777 -0.01149988 -0.0004396 ]
 [-0.00137958  0.01749329 -0.01256895 -0.01480816 -0.00087737]
 [-0.01277188  0.01744059 -0.02916898 -0.02029927 -0.00885189]
 [-0.01286253  0.01344276 -0.04597758  0.00780643  0.0005021 ]
 [-0.01849839  0.01240767 -0.03249312  0.00146068 -0.00744837]] 
Episode: 103: [[ 0.00215632 -0.00533293 -0.01863595 -0.01153734 -0.00043169]
 [-0.0015022   0.01748235 -0.01260606 -0.01485066 -0.00094501]
 [-0.01291327  0.01740356 -0.02945166 -0.0202667  -0.00888255]
 [-0.01306869  0.01336323 -0.04641995  0.00802738  0.00061248]
 [-0.01868245  0.01228897 -0.0328173   0.00151286 -0.00757288]] 
Episode: 104: [[ 0.00209503 -0.00520487 -0.01860004 -0.01159301 -0.00053108]
 [-0.0016164   0.01746842 -0.01258691 -0.01487472 -0.00111034]
 [-0.01306966  0.01734211 -0.02980754 -0.02020309 -0.00881144]
 [-0.01332058  0.01327534 -0.04696504  0.00808663  0.00074666]
 [-0.01874631  0.0121926  -0.03323524  0.00155844 -0.00766291]] 
Episode: 105: [[ 0.00203174 -0.00506264 -0.01859152 -0.01161142 -0.00062463]
 [-0.00172354  0.01745956 -0.01250849 -0.01485726 -0.00128123]
 [-0.01323426  0.01729161 -0.03016998 -0.02017738 -0.0087666 ]
 [-0.01357779  0.01321963 -0.04753201  0.00809504  0.00092502]
 [-0.01879926  0.01214966 -0.03366647  0.00155346 -0.00775991]] 
Episode: 106: [[ 0.00201964 -0.00500538 -0.01855052 -0.01169542 -0.00069805]
 [-0.00174178  0.01753169 -0.01249894 -0.01487991 -0.00139252]
 [-0.0133201   0.01731677 -0.03052603 -0.02022936 -0.00872912]
 [-0.01376581  0.01322384 -0.0480526   0.00813841  0.00106066]
 [-0.01880581  0.01215009 -0.03407611  0.00160933 -0.00781188]] 
Episode: 107: [[ 0.00205232 -0.00502863 -0.01849259 -0.01183641 -0.0007624 ]
 [-0.00171959  0.0176293  -0.01250133 -0.01498195 -0.00148887]
 [-0.01334403  0.01737068 -0.03084331 -0.02028754 -0.00866555]
 [-0.01390723  0.01325227 -0.04852388  0.00820541  0.00108005]
 [-0.01876264  0.01217697 -0.03444603  0.00164194 -0.0078683 ]] 
Episode: 108: [[ 0.00218602 -0.00522188 -0.01845082 -0.01205243 -0.00081823]
 [-0.00162114  0.01774758 -0.01248625 -0.01523174 -0.00161735]
 [-0.01322389  0.01752972 -0.03108436 -0.02035428 -0.00855519]
 [-0.0139128   0.01341164 -0.04892773  0.00840399  0.00100234]
 [-0.01862055  0.0122787  -0.03475446  0.00166307 -0.00792972]] 
Episode: 109: [[ 0.00228375 -0.00541718 -0.01841279 -0.01223423 -0.00092115]
 [-0.00154968  0.01785252 -0.01246431 -0.01547391 -0.00185619]
 [-0.01314165  0.01766508 -0.03134277 -0.02040921 -0.00855966]
 [-0.01394993  0.01353629 -0.04934821  0.00862661  0.00095305]
 [-0.01848456  0.01234523 -0.03508236  0.00160367 -0.00802186]] 
Episode: 110: [[ 0.00242479 -0.00556385 -0.01834425 -0.01243223 -0.00103631]
 [-0.00142656  0.01796889 -0.01238338 -0.01569669 -0.00205907]
 [-0.01303062  0.01782023 -0.03166373 -0.02047519 -0.00856268]
 [-0.01396498  0.0136923  -0.04983744  0.00885412  0.00096991]
 [-0.01830486  0.01244337 -0.03548158  0.00148365 -0.00821055]] 
Episode: 111: [[ 0.00255439 -0.00574962 -0.01835279 -0.01262687 -0.00112358]
 [-0.00130342  0.0180675  -0.01228617 -0.01590266 -0.00228719]
 [-0.01289719  0.01799454 -0.03203491 -0.02055842 -0.00860514]
 [-0.01399815  0.01389684 -0.05040517  0.00895912  0.00088223]
 [-0.018146    0.01258629 -0.03594197  0.00135191 -0.00848179]] 
Episode: 112: [[ 0.00258624 -0.00587746 -0.01833959 -0.01273698 -0.00118197]
 [-0.001288    0.0180993  -0.0121098  -0.01603893 -0.00235424]
 [-0.01286876  0.01810187 -0.03239487 -0.02060188 -0.00867151]
 [-0.01414213  0.01401313 -0.05099131  0.00889982  0.00062782]
 [-0.01808823  0.01265613 -0.03640287  0.00129716 -0.00854615]] 
Episode: 113: [[ 0.00266199 -0.00600083 -0.0182702  -0.01286093 -0.00123689]
 [-0.00123122  0.01812797 -0.01189888 -0.01618937 -0.00236949]
 [-0.01280789  0.01823673 -0.03271726 -0.02069896 -0.00871917]
 [-0.01422503  0.01417656 -0.0515328   0.00879174  0.00035018]
 [-0.01798347  0.01279895 -0.03682525  0.00117105 -0.00859617]] 
Episode: 114: [[ 2.6751866e-03 -6.1068381e-03 -1.8293412e-02 -1.2992641e-02
  -1.3092015e-03]
 [-1.2184859e-03  1.8171720e-02 -1.1716755e-02 -1.6325343e-02
  -2.4102724e-03]
 [-1.2786462e-02  1.8350832e-02 -3.3010818e-02 -2.0842245e-02
  -8.8044209e-03]
 [-1.4320849e-02  1.4305441e-02 -5.2041102e-02  8.5868984e-03
   3.8087906e-05]
 [-1.7941952e-02  1.2930261e-02 -3.7224211e-02  9.9553505e-04
  -8.7003047e-03]] 
Episode: 115: [[ 0.00271617 -0.00621185 -0.01832023 -0.01313005 -0.00138505]
 [-0.00117094  0.01819192 -0.01152773 -0.01648654 -0.00252451]
 [-0.01274096  0.0184609  -0.0333025  -0.02101562 -0.0089578 ]
 [-0.01440409  0.01445784 -0.05254739  0.00831968 -0.00027952]
 [-0.01788985  0.01307946 -0.03761641  0.00082859 -0.00878383]] 
Episode: 116: [[ 0.00272389 -0.00633081 -0.01834274 -0.01323798 -0.00144738]
 [-0.00115924  0.01822197 -0.01135802 -0.01661736 -0.00263981]
 [-0.01273797  0.01855118 -0.03358505 -0.02117806 -0.00912457]
 [-0.01449312  0.01456988 -0.05303283  0.00804211 -0.00057029]
 [-0.017861    0.01318789 -0.03798548  0.00071303 -0.00884678]] 
Episode: 117: [[ 0.00271087 -0.00642544 -0.01836642 -0.01331409 -0.00151493]
 [-0.00116142  0.01827986 -0.01122128 -0.01675774 -0.00281019]
 [-0.01276998  0.01861085 -0.0338906  -0.02135831 -0.00930282]
 [-0.01461703  0.01463682 -0.0535445   0.00771145 -0.00089173]
 [-0.01784292  0.01328188 -0.03838396  0.00061343 -0.00886074]] 
Episode: 118: [[ 0.00267588 -0.00650025 -0.01840658 -0.01338025 -0.00157973]
 [-0.00119603  0.01831504 -0.01107262 -0.01687922 -0.00297549]
 [-0.01283697  0.01863774 -0.03418429 -0.02152723 -0.00950177]
 [-0.01475695  0.01466887 -0.05404599  0.00741589 -0.00116865]
 [-0.01784858  0.01335306 -0.03877222  0.00053083 -0.00886661]] 
Episode: 119: [[ 0.0027344  -0.00658267 -0.0184646  -0.01348477 -0.00165511]
 [-0.00116102  0.01834041 -0.01089467 -0.01704369 -0.00313606]
 [-0.01281804  0.01871883 -0.03442721 -0.02171183 -0.00963722]
 [-0.01481538  0.01480566 -0.05449248  0.00714049 -0.00139521]
 [-0.01775772  0.01354661 -0.0391129   0.00041441 -0.00892652]] 
Episode: 120: [[ 0.00275642 -0.00670356 -0.01852641 -0.01360024 -0.00172534]
 [-0.0011353   0.01839233 -0.0107032  -0.01720741 -0.00330446]
 [-0.01278537  0.01878904 -0.03467245 -0.02188588 -0.00977328]
 [-0.01485554  0.01491068 -0.05494095  0.00685344 -0.00165326]
 [-0.01763591  0.01370802 -0.03945966  0.00038207 -0.00894886]] 
Episode: 121: [[ 0.00280915 -0.00676806 -0.0186067  -0.01377038 -0.00172745]
 [-0.001059    0.01845877 -0.01050961 -0.01741607 -0.00338307]
 [-0.01269733  0.01890086 -0.03487865 -0.02214305 -0.00982414]
 [-0.01487278  0.01509342 -0.05535237  0.00648046 -0.00186311]
 [-0.01747083  0.01395355 -0.03976688  0.00036288 -0.00900476]] 
Episode: 122: [[ 0.00292509 -0.00681917 -0.01868319 -0.01396595 -0.00172253]
 [-0.00091286  0.01854939 -0.01035508 -0.01765699 -0.00344326]
 [-0.01252782  0.01903559 -0.03506714 -0.02236185 -0.00981446]
 [-0.01485907  0.01529037 -0.05572081  0.00618204 -0.00210719]
 [-0.01727011  0.01419344 -0.04004156  0.00029256 -0.00912995]] 
Episode: 123: [[ 0.00301245 -0.00684945 -0.01878163 -0.01414594 -0.0017232 ]
 [-0.00078649  0.01865517 -0.01024348 -0.01786025 -0.00348781]
 [-0.01239686  0.01915638 -0.03525769 -0.0225595  -0.00979993]
 [-0.01485979  0.01546187 -0.05608523  0.00589651 -0.00238861]
 [-0.01709952  0.01440707 -0.04030514  0.00030371 -0.00918788]] 
Episode: 124: [[ 0.00306693 -0.00687192 -0.01886183 -0.01430137 -0.00169691]
 [-0.00068681  0.01873663 -0.0101511  -0.01799892 -0.00344989]
 [-0.01229485  0.01921773 -0.03544725 -0.02274521 -0.00983029]
 [-0.01490308  0.01555906 -0.05644983  0.00563407 -0.00254267]
 [-0.0169484   0.01454059 -0.04057034  0.00035505 -0.00927619]] 
Episode: 125: [[ 0.00309784 -0.00688017 -0.01894197 -0.01443321 -0.00167643]
 [-0.00061612  0.01880678 -0.01007272 -0.01812031 -0.00343433]
 [-0.01222861  0.01926938 -0.03563231 -0.02290562 -0.00986852]
 [-0.01497279  0.01564161 -0.05680044  0.00539249 -0.00267624]
 [-0.01684803  0.01466111 -0.04082221  0.00039448 -0.00938148]] 
Episode: 126: [[ 0.00320891 -0.00696586 -0.01907615 -0.01462282 -0.00160711]
 [-0.00045761  0.01891037 -0.01004275 -0.01832234 -0.00334441]
 [-0.0120656   0.01937441 -0.03576186 -0.02308115 -0.00982364]
 [-0.0149496   0.01579687 -0.05709027  0.00519668 -0.002884  ]
 [-0.01670508  0.01485004 -0.04101608  0.00038068 -0.00944883]] 
Episode: 127: [[ 0.0034409  -0.00698531 -0.019314   -0.01473824 -0.00155325]
 [-0.00021284  0.01900217 -0.01014055 -0.01842102 -0.00326766]
 [-0.01190681  0.01948025 -0.03591131 -0.02312739 -0.00980409]
 [-0.01495894  0.0159471  -0.05738875  0.00506783 -0.00297096]
 [-0.01661027  0.015032   -0.0412138   0.00045739 -0.00951456]] 
Episode: 128: [[ 0.00382914 -0.00700766 -0.01947122 -0.01495075 -0.0015227 ]
 [ 0.00017951  0.01912261 -0.01021268 -0.01861523 -0.00318995]
 [-0.01158526  0.01965047 -0.03603521 -0.02320912 -0.00960554]
 [-0.01489068  0.01619825 -0.05764602  0.00496314 -0.00311178]
 [-0.01643305  0.01529732 -0.0414073   0.00042432 -0.00964978]] 
Episode: 129: [[ 0.00415243 -0.00701133 -0.01958381 -0.01517653 -0.00150923]
 [ 0.00050338  0.01922495 -0.01025899 -0.01881688 -0.00309734]
 [-0.01132502  0.01978795 -0.03617278 -0.0233     -0.00940325]
 [-0.01486304  0.01640415 -0.05791302  0.00484619 -0.00320011]
 [-0.01631797  0.01552774 -0.04160625  0.00038395 -0.00978807]] 
Episode: 130: [[ 0.00439376 -0.00693715 -0.01970267 -0.01535214 -0.00149384]
 [ 0.00074804  0.0192983  -0.01034392 -0.01895334 -0.00302088]
 [-0.0111555   0.01986434 -0.03637525 -0.02332208 -0.00918496]
 [-0.0149565   0.01651984 -0.05824998  0.00487216 -0.00322381]
 [-0.01628697  0.01567131 -0.04187015  0.00035726 -0.00994092]] 
Episode: 131: [[ 0.0045811  -0.00677717 -0.01984164 -0.0154385  -0.00145456]
 [ 0.00093909  0.01934556 -0.01041212 -0.01899876 -0.00284569]
 [-0.01104057  0.0198802  -0.03658349 -0.02327807 -0.00890074]
 [-0.01506483  0.01657431 -0.0585965   0.00486011 -0.00322893]
 [-0.0162888   0.01575189 -0.04212349  0.00041874 -0.00999191]] 
Episode: 132: [[ 0.00480403 -0.00667517 -0.02000357 -0.01564128 -0.00148215]
 [ 0.00117705  0.01946905 -0.01039297 -0.0191599  -0.00266676]
 [-0.01086357  0.02002265 -0.0367987  -0.02327098 -0.00853682]
 [-0.01512565  0.0167619  -0.05894456  0.00483438 -0.00325827]
 [-0.01626342  0.01591429 -0.04240524  0.00055743 -0.00996375]] 
Episode: 133: [[ 0.00518445 -0.00698906 -0.02023586 -0.01599735 -0.00142881]
 [ 0.00152898  0.01970584 -0.01081895 -0.01952152 -0.00236149]
 [-0.01053912  0.02045366 -0.03680095 -0.02335281 -0.00799354]
 [-0.01483227  0.0171664  -0.05909165  0.00496519 -0.00323602]
 [-0.01616701  0.01602983 -0.04241643  0.00086259 -0.01000351]] 
Episode: 134: [[ 0.0054835  -0.00735032 -0.02049764 -0.01632271 -0.00136859]
 [ 0.00178938  0.01990081 -0.01111109 -0.01987691 -0.00210868]
 [-0.0102751   0.02087572 -0.03684599 -0.02338908 -0.00747462]
 [-0.01463616  0.01759689 -0.0593165   0.00506016 -0.00320445]
 [-0.01611788  0.01622201 -0.04250564  0.00116981 -0.01000281]] 
Episode: 135: [[ 0.00598249 -0.00756774 -0.02076825 -0.01688738 -0.0012624 ]
 [ 0.00223491  0.02011923 -0.01140224 -0.02040083 -0.00190418]
 [-0.009773    0.02137662 -0.03676855 -0.02359047 -0.00705929]
 [-0.01424067  0.01814091 -0.05938894  0.00527864 -0.00335758]
 [-0.01579513  0.01644978 -0.04249016  0.00145605 -0.00995197]] 
Episode: 136: [[ 0.00642671 -0.00779814 -0.02112659 -0.01741197 -0.00112622]
 [ 0.00263151  0.02028091 -0.01166171 -0.02090604 -0.00167925]
 [-0.00932272  0.0218333  -0.03672841 -0.02378524 -0.00667345]
 [-0.01388781  0.0186672  -0.05955199  0.00544098 -0.00355511]
 [-0.0154813   0.01670516 -0.04254024  0.00168936 -0.00988914]] 
Episode: 137: [[ 0.00711557 -0.00823984 -0.02161049 -0.01814819 -0.00111297]
 [ 0.00328252  0.02048333 -0.01206481 -0.02153389 -0.00137835]
 [-0.00863374  0.02238759 -0.03644703 -0.02416623 -0.0061486 ]
 [-0.01333407  0.01940182 -0.05954086  0.00552106 -0.00355188]
 [-0.01494752  0.01726456 -0.04226256  0.00153549 -0.0100593 ]] 
Episode: 138: [[ 0.0077479  -0.0087193  -0.02210979 -0.01884971 -0.00113568]
 [ 0.00387607  0.02060319 -0.01236915 -0.0221006  -0.00102394]
 [-0.00798876  0.02291432 -0.0361621  -0.02446846 -0.00551453]
 [-0.01280963  0.02014028 -0.05954244  0.00561293 -0.00347273]
 [-0.01443884  0.01788783 -0.04200389  0.00132227 -0.01017997]] 
Episode: 139: [[ 0.00834714 -0.00917724 -0.02259806 -0.01953373 -0.00114958]
 [ 0.00444831  0.02075017 -0.01269922 -0.02270921 -0.0007623 ]
 [-0.00737791  0.02345144 -0.03594743 -0.02474475 -0.00492191]
 [-0.01227136  0.02085709 -0.05960624  0.00584577 -0.00335274]
 [-0.01394869  0.01845503 -0.04182814  0.00122892 -0.01032025]] 
Episode: 140: [[ 0.00891098 -0.00953826 -0.02309467 -0.02012337 -0.00113875]
 [ 0.0049868   0.020853   -0.01306162 -0.02321407 -0.00046528]
 [-0.00684852  0.02389642 -0.03584098 -0.02498012 -0.00434592]
 [-0.01185343  0.02146356 -0.05975854  0.00611998 -0.00322686]
 [-0.01356922  0.01886197 -0.04176753  0.0012383  -0.01041454]] 
Episode: 141: [[ 0.00944247 -0.0097313  -0.02363041 -0.02067916 -0.00112416]
 [ 0.00553072  0.02098864 -0.01340945 -0.02363896 -0.00010816]
 [-0.00634266  0.02434792 -0.03570854 -0.02527029 -0.00382146]
 [-0.01144077  0.02208016 -0.05988112  0.00626217 -0.0031266 ]
 [-0.01320309  0.01932848 -0.04168333  0.00122886 -0.01051907]] 
Episode: 142: [[ 0.0098233  -0.0098713  -0.02414688 -0.02113943 -0.00110297]
 [ 0.00592463  0.02108508 -0.01373111 -0.02396133  0.00021217]
 [-0.00598662  0.02472043 -0.03560667 -0.02553204 -0.00335471]
 [-0.01111695  0.02260163 -0.06003081  0.0063131  -0.00294869]
 [-0.01297553  0.01972934 -0.04163208  0.00127262 -0.01049766]] 
Episode: 143: [[ 0.01009712 -0.00999101 -0.0246003  -0.02153256 -0.00108607]
 [ 0.00620404  0.02114957 -0.0140218  -0.02423259  0.00047753]
 [-0.00574774  0.02501656 -0.03554215 -0.02582026 -0.0029809 ]
 [-0.01086818  0.02302251 -0.060189    0.00633372 -0.00280441]
 [-0.01285182  0.02005326 -0.04159902  0.00134277 -0.01051962]] 
Episode: 144: [[ 0.01029642 -0.01010907 -0.02500735 -0.0218829  -0.00106902]
 [ 0.0064069   0.02120445 -0.01428202 -0.02446464  0.00070227]
 [-0.00558659  0.02528085 -0.03551064 -0.02610222 -0.00265124]
 [-0.01069468  0.02339245 -0.06037726  0.006311   -0.00261708]
 [-0.0127946   0.02034111 -0.04159632  0.00139924 -0.01054317]] 
Episode: 145: [[ 0.01056719 -0.01018674 -0.02534844 -0.02225392 -0.00104887]
 [ 0.00667344  0.02126322 -0.01436519 -0.02474722  0.0009235 ]
 [-0.00534089  0.02557333 -0.03543175 -0.02629067 -0.00232244]
 [-0.01048623  0.02381925 -0.06056083  0.00624077 -0.00245704]
 [-0.01273951  0.0206831  -0.0415916   0.00132507 -0.01057017]] 
Episode: 146: [[ 0.01077388 -0.01021514 -0.02566556 -0.0225657  -0.00104061]
 [ 0.00686482  0.02129747 -0.01446407 -0.02497873  0.00109813]
 [-0.00517882  0.02581303 -0.03537742 -0.02649785 -0.00205409]
 [-0.0103345   0.02417347 -0.06074917  0.00615317 -0.00232021]
 [-0.01275771  0.02097178 -0.04159806  0.00124859 -0.0106275 ]] 
Episode: 147: [[ 0.01096662 -0.01020439 -0.02594726 -0.02282447 -0.0010113 ]
 [ 0.00703766  0.02132056 -0.01457537 -0.02517011  0.00125794]
 [-0.0050419   0.02601113 -0.03537101 -0.02667014 -0.00182599]
 [-0.01019314  0.02447558 -0.06097036  0.00609928 -0.00219429]
 [-0.012791    0.02122486 -0.04164182  0.00121928 -0.01066887]] 
Episode: 148: [[ 0.01121358 -0.01022651 -0.02623769 -0.02310978 -0.00095481]
 [ 0.00728253  0.02138339 -0.01471529 -0.025394    0.00145607]
 [-0.00483208  0.02622114 -0.03533012 -0.02679531 -0.00156538]
 [-0.01002651  0.02478404 -0.06110911  0.00601807 -0.00217091]
 [-0.01276707  0.02147564 -0.04164501  0.0011574  -0.01066745]] 
Episode: 149: [[ 0.01144402 -0.01017283 -0.02664409 -0.02333587 -0.00091543]
 [ 0.00750472  0.02141674 -0.01494917 -0.02552832  0.001631  ]
 [-0.00467059  0.02633894 -0.03546211 -0.02674423 -0.00128998]
 [-0.00995418  0.02497714 -0.06137476  0.00609711 -0.00217643]
 [-0.01281648  0.0215807  -0.04179518  0.00114749 -0.01071023]] 
Episode: 150: [[ 0.01165296 -0.01013217 -0.02700984 -0.0235435  -0.00087129]
 [ 0.00770919  0.02145322 -0.01514207 -0.02565755  0.00178999]
 [-0.00451797  0.02645005 -0.03559676 -0.02670291 -0.00103547]
 [-0.00989978  0.02515217 -0.06165422  0.0061486  -0.00220549]
 [-0.01287326  0.02168041 -0.04195302  0.00119837 -0.01075294]] 
Episode: 151: [[ 0.01181505 -0.0101208  -0.02736284 -0.02373992 -0.00081884]
 [ 0.00787211  0.02151912 -0.0153193  -0.02576516  0.00194013]
 [-0.00440616  0.02656869 -0.03574791 -0.02667761 -0.00083917]
 [-0.00990021  0.02532033 -0.06195334  0.00615304 -0.0022125 ]
 [-0.01294483  0.02177556 -0.04213506  0.00122419 -0.01081484]] 
Episode: 152: [[ 0.01190182 -0.01010469 -0.02769638 -0.02389744 -0.00078428]
 [ 0.00795737  0.02157806 -0.01549018 -0.02582439  0.00205716]
 [-0.00437363  0.02666826 -0.03589821 -0.02665554 -0.00070588]
 [-0.00997136  0.02546572 -0.06224314  0.00611294 -0.00220539]
 [-0.01309706  0.02185388 -0.04231444  0.001268   -0.01086804]] 
Episode: 153: [[ 0.0119844  -0.01007055 -0.02800346 -0.02404466 -0.00075075]
 [ 0.00801874  0.02163635 -0.01571936 -0.02585118  0.00219138]
 [-0.0043478   0.02673121 -0.03612636 -0.02658715 -0.00057379]
 [-0.01007276  0.02554125 -0.06262016  0.00622766 -0.00204238]
 [-0.01329898  0.02184656 -0.04257172  0.00130027 -0.01090883]] 
Episode: 154: [[ 0.01210306 -0.0100325  -0.02827212 -0.02424624 -0.0007697 ]
 [ 0.00810117  0.02170393 -0.01594746 -0.02593868  0.00232652]
 [-0.00427208  0.02679504 -0.0363517  -0.02647871 -0.00033612]
 [-0.01014386  0.02561864 -0.0629816   0.00640819 -0.00185277]
 [-0.01345232  0.02179371 -0.04283413  0.00138754 -0.01096714]] 
Episode: 155: [[ 0.01221754 -0.0099941  -0.02850486 -0.02444096 -0.0008123 ]
 [ 0.00819727  0.0217903  -0.01614871 -0.0260373   0.00242409]
 [-0.00417908  0.02686146 -0.03655267 -0.02642754 -0.00014026]
 [-0.01020436  0.0256831  -0.0633065   0.00653729 -0.00167039]
 [-0.01353905  0.02178399 -0.04307432  0.00142384 -0.01104096]] 
Episode: 156: [[ 1.23075433e-02 -9.96239856e-03 -2.87064258e-02 -2.46281177e-02
  -8.39875080e-04]
 [ 8.27459060e-03  2.18966939e-02 -1.63001604e-02 -2.61335876e-02
   2.52763438e-03]
 [-4.11091652e-03  2.69391015e-02 -3.67464200e-02 -2.63312925e-02
   3.78530567e-05]
 [-1.02894772e-02  2.57689673e-02 -6.36319891e-02  6.70186384e-03
  -1.48715335e-03]
 [-1.36833135e-02  2.18172744e-02 -4.33139093e-02  1.39065576e-03
  -1.11596603e-02]] 
Episode: 157: [[ 0.01232733 -0.00989947 -0.02889921 -0.02478731 -0.00087555]
 [ 0.00827579  0.02196963 -0.01645561 -0.02620099  0.00259204]
 [-0.00412781  0.02697402 -0.03693792 -0.02627502  0.00015433]
 [-0.01044273  0.0258127  -0.0639725   0.00675725 -0.00133675]
 [-0.01388023  0.02184904 -0.0435475   0.00138753 -0.0112585 ]] 
Episode: 158: [[ 0.01234899 -0.00984022 -0.0290705  -0.02493442 -0.00088227]
 [ 0.00827199  0.02201889 -0.01661796 -0.02627076  0.0026428 ]
 [-0.0041413   0.02699372 -0.03714067 -0.02623073  0.00020447]
 [-0.01057662  0.02583298 -0.06431901  0.00680176 -0.00128233]
 [-0.01403883  0.02182949 -0.04379293  0.00144736 -0.01127933]] 
Episode: 159: [[ 0.01253537 -0.00988385 -0.029326   -0.02513295 -0.00084763]
 [ 0.00846225  0.02212404 -0.01680997 -0.02639147  0.00274018]
 [-0.00395024  0.02709404 -0.03726201 -0.02611562  0.00046588]
 [-0.01058784  0.02595215 -0.06454529  0.00684018 -0.00122122]
 [-0.01394073  0.02188358 -0.04393597  0.00166023 -0.01120401]] 
Episode: 160: [[ 0.01270294 -0.00988346 -0.0296225  -0.02533358 -0.00084503]
 [ 0.00862825  0.02218937 -0.01700914 -0.02652145  0.00275778]
 [-0.00379079  0.02716756 -0.03743283 -0.02597657  0.00068259]
 [-0.01065034  0.02604072 -0.06483721  0.0069895  -0.00115493]
 [-0.01389054  0.02190281 -0.04414463  0.001892   -0.01116186]] 
Episode: 161: [[ 0.01282696 -0.00994659 -0.02995695 -0.02553335 -0.00088283]
 [ 0.00876823  0.02230976 -0.01713477 -0.02665482  0.00272277]
 [-0.00366282  0.02725171 -0.03758639 -0.0258324   0.00086217]
 [-0.01072233  0.026129   -0.06516583  0.00714329 -0.00105205]
 [-0.01383967  0.0219559  -0.04435402  0.00205536 -0.01117464]] 
Episode: 162: [[ 0.0128879  -0.00993438 -0.0302476  -0.0257082  -0.00092172]
 [ 0.00882381  0.02237056 -0.01718805 -0.02678785  0.00269708]
 [-0.00360334  0.027297   -0.03775854 -0.02571582  0.00100456]
 [-0.01083098  0.02618922 -0.06552848  0.00727925 -0.00092933]
 [-0.0138364   0.02198769 -0.04459454  0.00222422 -0.01117294]] 
Episode: 163: [[ 0.01292127 -0.00991602 -0.03051696 -0.02585281 -0.00095024]
 [ 0.00884187  0.02241256 -0.01726069 -0.02690523  0.00265174]
 [-0.00358541  0.02729822 -0.03794231 -0.02559165  0.00112036]
 [-0.01094577  0.02617527 -0.06589434  0.00743233 -0.00081722]
 [-0.01385139  0.02196281 -0.04483557  0.00244522 -0.01109447]] 
Episode: 164: [[ 0.01298869 -0.00990746 -0.03077302 -0.02602893 -0.00098209]
 [ 0.00891169  0.02247154 -0.01732812 -0.02705932  0.00258952]
 [-0.00352575  0.02732558 -0.03810029 -0.0255431   0.00120628]
 [-0.0110134   0.0262088  -0.06621157  0.00751826 -0.0008401 ]
 [-0.01384985  0.0219807  -0.04504652  0.00259187 -0.01106167]] 
Episode: 165: [[ 0.01299815 -0.00982238 -0.03099782 -0.02618981 -0.00101802]
 [ 0.00892851  0.022521   -0.01735281 -0.02718565  0.00252837]
 [-0.0035307   0.02735346 -0.03826695 -0.02549801  0.00125897]
 [-0.01117081  0.02625351 -0.06657156  0.00757172 -0.00091226]
 [-0.01391902  0.02201839 -0.04526989  0.00268152 -0.01103152]] 
Episode: 166: [[ 0.01303954 -0.0098123  -0.03119654 -0.02637974 -0.00104024]
 [ 0.0089862   0.02259169 -0.01734365 -0.0273359   0.00249653]
 [-0.00350653  0.02742673 -0.03844745 -0.02548956  0.00129208]
 [-0.01130406  0.02636108 -0.06693499  0.0076435  -0.00109944]
 [-0.01398283  0.02210206 -0.04550738  0.00267524 -0.01109206]] 
Episode: 167: [[ 0.01309284 -0.00985594 -0.03134878 -0.0265678  -0.00104668]
 [ 0.00905491  0.02266971 -0.01732128 -0.02751304  0.00245039]
 [-0.00345208  0.0275232  -0.03867222 -0.0254603   0.00130265]
 [-0.01144711  0.02651181 -0.06734149  0.00779905 -0.00132806]
 [-0.01405319  0.02217305 -0.04579069  0.0026966  -0.0111661 ]] 
Episode: 168: [[ 0.01309667 -0.00993384 -0.03144225 -0.02676805 -0.00101589]
 [ 0.00909007  0.02274979 -0.01720929 -0.02771202  0.00241499]
 [-0.00342367  0.02762155 -0.038881   -0.02553382  0.00124608]
 [-0.01162506  0.02669813 -0.06773944  0.00783373 -0.00170973]
 [-0.01413723  0.02227025 -0.04607651  0.00266291 -0.01127175]] 
Episode: 169: [[ 0.01312199 -0.00999792 -0.0315713  -0.02697145 -0.00103938]
 [ 0.00914638  0.02284893 -0.01715085 -0.02789191  0.00230486]
 [-0.00339276  0.02772565 -0.03911711 -0.02556213  0.00110004]
 [-0.01178069  0.02686857 -0.06816857  0.00793555 -0.00208377]
 [-0.01420074  0.02232881 -0.04640047  0.00272166 -0.01141729]] 
Episode: 170: [[ 0.0131276  -0.01000166 -0.03171891 -0.02714241 -0.00102167]
 [ 0.00918442  0.02294867 -0.01710872 -0.02803971  0.0022458 ]
 [-0.00338586  0.02780697 -0.03930972 -0.02560361  0.00099444]
 [-0.01196986  0.02701604 -0.06853615  0.00802105 -0.00235396]
 [-0.01431459  0.02240507 -0.04666073  0.00271119 -0.01150948]] 
Episode: 171: [[ 0.01316519 -0.01002358 -0.03182961 -0.02731802 -0.00099534]
 [ 0.00923161  0.02303816 -0.01709979 -0.02823787  0.00216758]
 [-0.00334905  0.02791526 -0.03946396 -0.02569366  0.0008923 ]
 [-0.01211658  0.02718283 -0.06887949  0.00806732 -0.0025932 ]
 [-0.01442808  0.02248552 -0.04688549  0.00270337 -0.01159285]] 
Episode: 172: [[ 0.01315718 -0.01005789 -0.03192647 -0.02744833 -0.00097152]
 [ 0.00923026  0.02312518 -0.01709221 -0.02839628  0.0020704 ]
 [-0.00337011  0.02800982 -0.03961225 -0.02579911  0.00077522]
 [-0.01229719  0.02731506 -0.06920721  0.00809382 -0.00273925]
 [-0.01458767  0.0225563  -0.04709055  0.00271646 -0.01166643]] 
Episode: 173: [[ 0.01313464 -0.01008519 -0.03203338 -0.02757392 -0.00094872]
 [ 0.00921026  0.02321353 -0.01710123 -0.02854771  0.00197528]
 [-0.00340817  0.02809277 -0.03972588 -0.02586303  0.00066959]
 [-0.01250232  0.02743241 -0.06946708  0.00814197 -0.0028443 ]
 [-0.01476103  0.02261983 -0.04726168  0.00272936 -0.01169514]] 
Episode: 174: [[ 0.01322292 -0.0100646  -0.03209302 -0.02774224 -0.00089915]
 [ 0.00936078  0.02333337 -0.01698116 -0.02867498  0.00192535]
 [-0.00331408  0.02829557 -0.03987262 -0.02600163  0.00070493]
 [-0.01261043  0.02771971 -0.06982893  0.00808743 -0.0029831 ]
 [-0.01474764  0.02282009 -0.04751926  0.00263663 -0.011774  ]] 
Episode: 175: [[ 0.01321196 -0.01001654 -0.03211823 -0.02784914 -0.00087794]
 [ 0.00939099  0.02337694 -0.01688697 -0.02875282  0.00184525]
 [-0.00333732  0.0284409  -0.03998446 -0.02623434  0.00067092]
 [-0.01280401  0.02796406 -0.07010754  0.00795998 -0.00308091]
 [-0.01485072  0.02301507 -0.04770389  0.00254212 -0.01189509]] 
Episode: 176: [[ 0.01318805 -0.00984847 -0.03213169 -0.02791094 -0.00083528]
 [ 0.00939147  0.02336665 -0.01679276 -0.02877229  0.0018349 ]
 [-0.00337239  0.02850715 -0.04018194 -0.02636536  0.00070094]
 [-0.01303986  0.02811793 -0.07046846  0.00788419 -0.00315328]
 [-0.01501662  0.02309985 -0.04797711  0.0024784  -0.0119999 ]] 
Episode: 177: [[ 0.01316097 -0.0097074  -0.03210199 -0.02811404 -0.00102882]
 [ 0.00941999  0.02337401 -0.01665686 -0.0289668   0.00156275]
 [-0.00332402  0.02863252 -0.04045609 -0.02638995  0.00074454]
 [-0.0131815   0.02831895 -0.0709333   0.00794892 -0.00327322]
 [-0.01511761  0.02316702 -0.048359    0.0024332  -0.01218718]] 
Episode: 178: [[ 0.0130381  -0.0095573  -0.03207007 -0.02825869 -0.00119873]
 [ 0.00933286  0.0233411  -0.01652619 -0.02911091  0.00131111]
 [-0.00339024  0.02871739 -0.04071346 -0.02643814  0.00077382]
 [-0.01340318  0.02847272 -0.07136068  0.00796405 -0.00329992]
 [-0.01533097  0.02321436 -0.04870227  0.0024077  -0.01233801]] 
Episode: 179: [[ 0.01290731 -0.00931251 -0.03208611 -0.0283466  -0.00132695]
 [ 0.00928937  0.02330047 -0.01648573 -0.02914314  0.00111818]
 [-0.00349503  0.02877761 -0.04095653 -0.0264906   0.0007441 ]
 [-0.0136385   0.02860298 -0.07177573  0.0080616  -0.00335725]
 [-0.01547746  0.02329633 -0.0490222   0.00236902 -0.0125307 ]] 
Episode: 180: [[ 0.01272243 -0.00906209 -0.03212774 -0.02841911 -0.00143182]
 [ 0.0091894   0.02325136 -0.01645559 -0.02915006  0.00095104]
 [-0.00365209  0.02881375 -0.04121989 -0.02653605  0.00072883]
 [-0.01394165  0.02868728 -0.07223383  0.00812742 -0.00339853]
 [-0.01567379  0.02335087 -0.04937372  0.00235929 -0.01271098]] 
Episode: 181: [[ 0.01259773 -0.00881148 -0.03222051 -0.02849352 -0.00152871]
 [ 0.00912936  0.02319217 -0.0164627  -0.02914719  0.00084321]
 [-0.0038105   0.02882601 -0.04153237 -0.02659755  0.0007008 ]
 [-0.01426684  0.02874219 -0.07272995  0.00830509 -0.00336041]
 [-0.01591191  0.02332742 -0.0497738   0.00239806 -0.01291512]] 
Episode: 182: [[ 0.01245659 -0.00860916 -0.03228615 -0.02855607 -0.00161579]
 [ 0.00904255  0.02313553 -0.0164499  -0.0291568   0.0007263 ]
 [-0.00397864  0.02883704 -0.04182878 -0.02665226  0.00067004]
 [-0.01459178  0.02878616 -0.07322434  0.00847832 -0.00329542]
 [-0.01614961  0.02330299 -0.05016251  0.00245591 -0.01309269]] 
Episode: 183: [[ 0.01234938 -0.00846368 -0.03227434 -0.02862108 -0.00167246]
 [ 0.00898767  0.02309456 -0.01640798 -0.02917805  0.00063253]
 [-0.00410911  0.0288548  -0.04209055 -0.02674315  0.00057581]
 [-0.01486294  0.0288419  -0.07368665  0.00863622 -0.00329159]
 [-0.01634215  0.02329942 -0.05051891  0.00249207 -0.01325409]] 
Episode: 184: [[ 0.01248318 -0.00820276 -0.03250252 -0.02873877 -0.00206982]
 [ 0.00913526  0.02308643 -0.01647331 -0.02914313  0.00028867]
 [-0.00417586  0.02893611 -0.04247314 -0.02667545  0.0004817 ]
 [-0.01513106  0.02893969 -0.07421325  0.00892809 -0.0032504 ]
 [-0.01650832  0.02332582 -0.05098026  0.00282764 -0.01337602]] 
Episode: 185: [[ 1.23998746e-02 -7.93894567e-03 -3.27247530e-02 -2.87212282e-02
  -2.43957830e-03]
 [ 9.05059185e-03  2.30211187e-02 -1.65229514e-02 -2.89905295e-02
  -5.95780839e-05]
 [-4.46780678e-03  2.89708283e-02 -4.28482853e-02 -2.67156661e-02
   3.03755660e-04]
 [-1.55185591e-02  2.89980415e-02 -7.47337267e-02  9.10150260e-03
  -3.07897688e-03]
 [-1.68748051e-02  2.33544074e-02 -5.14236726e-02  3.10493540e-03
  -1.35398675e-02]] 
Episode: 186: [[ 1.2234132e-02 -7.6728021e-03 -3.2908972e-02 -2.8659780e-02
  -2.7549013e-03]
 [ 8.8831745e-03  2.2910584e-02 -1.6532244e-02 -2.8795281e-02
  -3.4578861e-04]
 [-4.8232120e-03  2.8948607e-02 -4.3206532e-02 -2.6779236e-02
   9.1304355e-05]
 [-1.5920542e-02  2.8997773e-02 -7.5237378e-02  9.1570131e-03
  -2.9967299e-03]
 [-1.7278288e-02  2.3331504e-02 -5.1846087e-02  3.3786243e-03
  -1.3670245e-02]] 
Episode: 187: [[ 1.2172046e-02 -7.5006532e-03 -3.2992050e-02 -2.8681764e-02
  -3.0349684e-03]
 [ 8.8403113e-03  2.2945041e-02 -1.6538942e-02 -2.8653434e-02
  -5.3252158e-04]
 [-5.0802594e-03  2.9019965e-02 -4.3561660e-02 -2.6854051e-02
   7.7104574e-05]
 [-1.6212502e-02  2.9091783e-02 -7.5738274e-02  9.3357004e-03
  -2.8255705e-03]
 [-1.7533183e-02  2.3420265e-02 -5.2277252e-02  3.6751875e-03
  -1.3763634e-02]] 
Episode: 188: [[ 0.01211026 -0.00732361 -0.03314715 -0.02869783 -0.00326732]
 [ 0.00880546  0.02295719 -0.01672603 -0.0284975  -0.00061405]
 [-0.00533972  0.02906454 -0.04396367 -0.02685092  0.00016447]
 [-0.01655437  0.02914015 -0.076271    0.00964213 -0.00264404]
 [-0.0178391   0.02338125 -0.05273271  0.00411019 -0.01375805]] 
Episode: 189: [[ 0.01208921 -0.00720018 -0.03319851 -0.02880195 -0.00356533]
 [ 0.00880303  0.02297655 -0.01685158 -0.02845843 -0.0007802 ]
 [-0.00554661  0.02916574 -0.04435552 -0.02682166  0.00027632]
 [-0.01681722  0.02923756 -0.0767972   0.01002896 -0.00244161]
 [-0.01803716  0.02338457 -0.05316332  0.00437685 -0.01371374]] 
Episode: 190: [[ 0.01212989 -0.00704998 -0.03335251 -0.02894668 -0.00382809]
 [ 0.0088854   0.02299925 -0.01706518 -0.02844204 -0.00092114]
 [-0.00569508  0.02928963 -0.04485821 -0.02668534  0.00050749]
 [-0.01699508  0.0293364  -0.07738885  0.01051956 -0.00219437]
 [-0.01816165  0.02327874 -0.0536713   0.00480148 -0.01357815]] 
Episode: 191: [[ 0.01204102 -0.00683802 -0.03341069 -0.02900444 -0.00402048]
 [ 0.008848    0.02293339 -0.01725871 -0.0283258  -0.00091162]
 [-0.00591686  0.02935972 -0.04534268 -0.02662488  0.00075566]
 [-0.01726335  0.02938288 -0.07793027  0.01090312 -0.00190506]
 [-0.01829517  0.02320445 -0.05414441  0.0051971  -0.01339142]] 
Episode: 192: [[ 0.01199005 -0.00664476 -0.03348486 -0.02913994 -0.00424789]
 [ 0.00883648  0.02292068 -0.01743792 -0.02829962 -0.00088393]
 [-0.00605889  0.02951495 -0.0457983  -0.02659908  0.00104115]
 [-0.01750411  0.0295174  -0.07844833  0.0112101  -0.00178389]
 [-0.0184862   0.02319948 -0.0545794   0.00536911 -0.01330936]] 
Episode: 193: [[ 0.01195175 -0.00643428 -0.03353061 -0.02924514 -0.00443292]
 [ 0.00880528  0.02287325 -0.01759971 -0.02828253 -0.00087849]
 [-0.00619237  0.02961613 -0.04627281 -0.02649458  0.00128597]
 [-0.01777725  0.02957031 -0.07898594  0.01162866 -0.00157569]
 [-0.01867511  0.02312129 -0.0550295   0.00555744 -0.01324882]] 
Episode: 194: [[ 0.01187234 -0.00642829 -0.03334309 -0.02942182 -0.00469756]
 [ 0.00870165  0.02268976 -0.01753619 -0.02844441 -0.00100358]
 [-0.00633256  0.02972676 -0.04679256 -0.02659992  0.00148056]
 [-0.01803675  0.02961191 -0.07960749  0.01188279 -0.00152769]
 [-0.0187744   0.02300802 -0.05555092  0.00588119 -0.01313803]] 
Episode: 195: [[ 0.01180587 -0.00630166 -0.0330508  -0.02949335 -0.00479339]
 [ 0.0085719   0.02247183 -0.01743235 -0.02853351 -0.00107254]
 [-0.00648919  0.02975601 -0.04727219 -0.0267542   0.00149578]
 [-0.01829993  0.02955134 -0.08021747  0.01211794 -0.00144236]
 [-0.01888183  0.02286498 -0.05602934  0.00625186 -0.01297762]] 
Episode: 196: [[ 0.0117758  -0.00621365 -0.03279055 -0.02960102 -0.00485437]
 [ 0.00849564  0.02229796 -0.01734259 -0.02865514 -0.00109253]
 [-0.00659081  0.02980982 -0.04771382 -0.02689039  0.00156481]
 [-0.01852022  0.02952928 -0.08078042  0.01234104 -0.0014275 ]
 [-0.01894997  0.02274901 -0.05647226  0.00659254 -0.01284338]] 
Episode: 197: [[ 0.01179279 -0.00629811 -0.03262863 -0.02979827 -0.00492078]
 [ 0.00853065  0.02225866 -0.01729472 -0.02886135 -0.001204  ]
 [-0.00659853  0.02995658 -0.0481339  -0.02710092  0.00159906]
 [-0.01863825  0.02956896 -0.08133484  0.01249128 -0.00142593]
 [-0.01897615  0.02266692 -0.05691     0.0067106  -0.01279579]] 
Episode: 198: [[ 0.01187085 -0.00635068 -0.03249261 -0.02998044 -0.00501194]
 [ 0.00858305  0.02220202 -0.01719694 -0.02907915 -0.00136197]
 [-0.00656824  0.03007614 -0.04858271 -0.02725936  0.00157152]
 [-0.01869205  0.02959638 -0.08190877  0.01263755 -0.00135525]
 [-0.0189988   0.02255268 -0.05738619  0.00679272 -0.01284485]] 
Episode: 199: [[ 0.01199327 -0.00646493 -0.03236687 -0.03017353 -0.0050975 ]
 [ 0.00868353  0.02219376 -0.01710823 -0.02933508 -0.00154174]
 [-0.00648816  0.03023293 -0.04896749 -0.0273866   0.00154497]
 [-0.01868456  0.02967655 -0.08242156  0.01286915 -0.00123566]
 [-0.01898389  0.02246715 -0.05779134  0.00682871 -0.01294935]] 
Episode: 200: [[ 0.01204547 -0.00652554 -0.03227499 -0.03031    -0.00516055]
 [ 0.00871375  0.02218354 -0.017053   -0.02952729 -0.00169551]
 [-0.0064831   0.03034809 -0.0493501  -0.02750991  0.00150344]
 [-0.01875219  0.02971042 -0.0829346   0.01306218 -0.00108731]
 [-0.01905246  0.02236599 -0.05819211  0.00684389 -0.01310991]] 
Episode: 201: [[ 0.01203876 -0.0065732  -0.03218363 -0.0304037  -0.00521336]
 [ 0.00867953  0.02215984 -0.01698986 -0.02966871 -0.00185434]
 [-0.00654009  0.0304356  -0.04972951 -0.02762077  0.00143108]
 [-0.0188753   0.02971721 -0.08345306  0.01322906 -0.00092994]
 [-0.01917505  0.02226198 -0.05858556  0.00687088 -0.01328352]] 
Episode: 202: [[ 0.01204207 -0.00648692 -0.03234182 -0.03044518 -0.00523239]
 [ 0.00866746  0.02208752 -0.01712563 -0.02968328 -0.00189501]
 [-0.00660272  0.03041758 -0.05025939 -0.02753168  0.00144006]
 [-0.01909589  0.02965017 -0.08407304  0.01352242 -0.00073655]
 [-0.01933146  0.02206256 -0.05911724  0.00692929 -0.01352249]] 
Episode: 203: [[ 0.0120684  -0.00641173 -0.03250164 -0.03053226 -0.0053568 ]
 [ 0.00865528  0.02196908 -0.01719109 -0.02981606 -0.00210762]
 [-0.006656    0.03036518 -0.05083119 -0.02734867  0.00139254]
 [-0.01933046  0.02956111 -0.08473132  0.01392346 -0.00053654]
 [-0.01946676  0.02180867 -0.05971933  0.00705022 -0.0137708 ]] 
Episode: 204: [[ 0.01209905 -0.00636653 -0.03269617 -0.03063935 -0.00546559]
 [ 0.00863238  0.02186348 -0.01728683 -0.02999835 -0.00234116]
 [-0.00670373  0.03033558 -0.05133952 -0.02718305  0.00137271]
 [-0.01952951  0.02947979 -0.08535738  0.01436317 -0.00025521]
 [-0.01961611  0.02155725 -0.06026556  0.00714039 -0.01407121]] 
Episode: 205: [[ 1.2216883e-02 -6.2069930e-03 -3.3074800e-02 -3.0680330e-02
  -5.4771341e-03]
 [ 8.6773625e-03  2.1535868e-02 -1.7437156e-02 -3.0146804e-02
  -2.5199719e-03]
 [-6.7977970e-03  3.0287744e-02 -5.1845521e-02 -2.7131250e-02
   1.1589114e-03]
 [-1.9751787e-02  2.9408477e-02 -8.5986100e-02  1.4739331e-02
   4.3986315e-06]
 [-1.9756982e-02  2.1246089e-02 -6.0825564e-02  7.2266078e-03
  -1.4328125e-02]] 
Episode: 206: [[ 0.01226338 -0.00605068 -0.0334368  -0.03067564 -0.00548127]
 [ 0.00865089  0.02121069 -0.01761878 -0.03024031 -0.00265851]
 [-0.00695778  0.03019166 -0.05230127 -0.02711184  0.00092365]
 [-0.02000077  0.02927266 -0.08654763  0.01499865  0.00028701]
 [-0.01993209  0.02093056 -0.06131068  0.00733802 -0.01452146]] 
Episode: 207: [[ 0.01226688 -0.00591098 -0.03374774 -0.03064882 -0.00547997]
 [ 0.00857623  0.02087261 -0.01776053 -0.03032746 -0.00280963]
 [-0.00714387  0.03007481 -0.05270837 -0.02713972  0.00064002]
 [-0.02022916  0.02912094 -0.08704192  0.01525139  0.00050797]
 [-0.02012415  0.02063699 -0.06173702  0.00742565 -0.01471594]] 
Episode: 208: [[ 0.01240022 -0.00579954 -0.03411523 -0.03063731 -0.00548709]
 [ 0.00858895  0.02059088 -0.01785244 -0.03041697 -0.00298521]
 [-0.00734773  0.02999442 -0.05317936 -0.02709333  0.00036731]
 [-0.02039597  0.02898317 -0.08756176  0.01561954  0.0007256 ]
 [-0.0202485   0.02031722 -0.06222736  0.00763391 -0.01498663]] 
Episode: 209: [[ 1.2486844e-02 -5.6496994e-03 -3.4485441e-02 -3.0599453e-02
  -5.4701390e-03]
 [ 8.5547604e-03  2.0325907e-02 -1.7952370e-02 -3.0470742e-02
  -3.1330830e-03]
 [-7.5840019e-03  2.9912675e-02 -5.3616997e-02 -2.7075134e-02
   9.2514267e-05]
 [-2.0591408e-02  2.8845694e-02 -8.8066250e-02  1.5891617e-02
   9.1926515e-04]
 [-2.0403560e-02  2.0018330e-02 -6.2688470e-02  7.8390632e-03
  -1.5204673e-02]] 
Episode: 210: [[ 0.01257811 -0.00552143 -0.03483304 -0.03058609 -0.00547443]
 [ 0.00853989  0.0200968  -0.0180541  -0.03054871 -0.00329354]
 [-0.00776989  0.02984396 -0.05403559 -0.0270627  -0.00019027]
 [-0.02074113  0.02872675 -0.08855273  0.01614827  0.00111741]
 [-0.02049244  0.01974544 -0.06312681  0.00805759 -0.01535862]] 
Episode: 211: [[ 0.01264751 -0.00533284 -0.03518406 -0.0305851  -0.00547426]
 [ 0.0085187   0.01988386 -0.01817338 -0.03062918 -0.00342037]
 [-0.00794677  0.02976876 -0.05442322 -0.02708039 -0.00044913]
 [-0.02088966  0.02861397 -0.0890108   0.01635246  0.00126531]
 [-0.02059339  0.0195115  -0.06353258  0.00826251 -0.0154699 ]] 
Episode: 212: [[ 0.01271675 -0.00507367 -0.03549497 -0.03057886 -0.0055187 ]
 [ 0.00844929  0.01968151 -0.01831539 -0.03073339 -0.00356898]
 [-0.00811442  0.02967795 -0.05478518 -0.02699711 -0.00057582]
 [-0.02105519  0.02849299 -0.08945864  0.01653497  0.00142229]
 [-0.02068958  0.0192652  -0.06391308  0.00849741 -0.0156042 ]] 
Episode: 213: [[ 0.01275234 -0.00475567 -0.03584597 -0.03054703 -0.00551386]
 [ 0.00838573  0.01945305 -0.01844224 -0.03077664 -0.00364276]
 [-0.00829665  0.0295743  -0.05515254 -0.0269294  -0.00076027]
 [-0.02124698  0.0283956  -0.08993711  0.01667817  0.00155589]
 [-0.02084088  0.01913085 -0.06430233  0.00867081 -0.01572753]] 
Episode: 214: [[ 0.01275215 -0.00446342 -0.03616405 -0.03050998 -0.00553037]
 [ 0.00828971  0.01923876 -0.01857347 -0.03080914 -0.00374838]
 [-0.00850468  0.02947715 -0.05549018 -0.02693325 -0.00100658]
 [-0.021444    0.02830524 -0.09037654  0.01682218  0.00170156]
 [-0.02100401  0.01901174 -0.06464965  0.00880942 -0.01590748]] 
Episode: 215: [[ 0.01274485 -0.00429046 -0.03650108 -0.03048779 -0.00557347]
 [ 0.00819817  0.01906616 -0.01872835 -0.03086741 -0.00387477]
 [-0.00867972  0.02939257 -0.05586754 -0.02690644 -0.00121592]
 [-0.02162063  0.02821534 -0.09083977  0.01701877  0.00186431]
 [-0.02117712  0.0188503  -0.06503535  0.00901102 -0.01603801]] 
Episode: 216: [[ 0.01275939 -0.00402393 -0.03705362 -0.03036046 -0.00553619]
 [ 0.00806743  0.01882396 -0.01899068 -0.03086833 -0.0039399 ]
 [-0.00881651  0.02917366 -0.05636021 -0.0267016  -0.00141818]
 [-0.02191259  0.02798796 -0.09140585  0.01733755  0.00211119]
 [-0.02137148  0.01857071 -0.06552346  0.00935407 -0.01613859]] 
Episode: 217: [[ 0.01273739 -0.00386247 -0.03746416 -0.03024512 -0.00548675]
 [ 0.0079216   0.01858067 -0.01920375 -0.03087336 -0.00400636]
 [-0.00895848  0.02896906 -0.056805   -0.02652117 -0.00163357]
 [-0.02219466  0.02778494 -0.09192459  0.01761681  0.00225049]
 [-0.02157543  0.01833255 -0.0659598   0.00964211 -0.01624324]] 
Episode: 218: [[ 0.01270627 -0.00373309 -0.03788843 -0.03015038 -0.00543647]
 [ 0.00777435  0.01839131 -0.01943345 -0.03089909 -0.00405018]
 [-0.00909242  0.02878366 -0.05722527 -0.02635147 -0.00180199]
 [-0.02246437  0.02758827 -0.0924238   0.01789416  0.00235349]
 [-0.0217644   0.01809623 -0.06637751  0.00990167 -0.01634654]] 
Episode: 219: [[ 0.01276909 -0.0035973  -0.03832528 -0.03010449 -0.00546711]
 [ 0.0077133   0.01816108 -0.01972808 -0.03097282 -0.00409616]
 [-0.00916948  0.02860108 -0.0576185  -0.02620725 -0.00190281]
 [-0.02266992  0.02738608 -0.09288498  0.01827559  0.00262835]
 [-0.02191917  0.01782847 -0.06675651  0.01021967 -0.01644888]] 
Episode: 220: [[ 0.01278591 -0.00344724 -0.03881281 -0.03004379 -0.0054862 ]
 [ 0.00763989  0.01796481 -0.01999822 -0.03099926 -0.00409898]
 [-0.00928004  0.02844698 -0.05800051 -0.02606333 -0.00195623]
 [-0.0228867   0.02725192 -0.09336173  0.01864371  0.00281277]
 [-0.0220644   0.01764811 -0.06713169  0.01036054 -0.01669613]] 
Episode: 221: [[ 0.01285328 -0.00327933 -0.03921722 -0.03010019 -0.00554296]
 [ 0.00764927  0.0177271  -0.02020853 -0.03107129 -0.00406705]
 [-0.00930153  0.02833319 -0.05833802 -0.02602798 -0.00194179]
 [-0.02302815  0.02718361 -0.09380349  0.01893685  0.00297866]
 [-0.02215199  0.01750552 -0.06747863  0.01034867 -0.01702798]] 
Episode: 222: [[ 0.01294873 -0.00313627 -0.03960522 -0.03017523 -0.0055622 ]
 [ 0.00770905  0.01757048 -0.02040084 -0.03113828 -0.00398399]
 [-0.00927868  0.02827196 -0.05867617 -0.02599592 -0.00192063]
 [-0.02312672  0.02717512 -0.09424712  0.0192253   0.0030234 ]
 [-0.02221735  0.01740957 -0.06781581  0.01033815 -0.01730794]] 
Episode: 223: [[ 0.0131085  -0.00315397 -0.03980689 -0.03037922 -0.00562864]
 [ 0.00784056  0.01746746 -0.02052459 -0.03133503 -0.00395106]
 [-0.00914967  0.02827906 -0.05898776 -0.02598389 -0.00184447]
 [-0.02318005  0.02723593 -0.0946629   0.01951192  0.00305437]
 [-0.02220866  0.01734407 -0.06814322  0.01027896 -0.01762355]] 
Episode: 224: [[ 0.01327293 -0.00284714 -0.03988634 -0.03083975 -0.00594444]
 [ 0.00805498  0.01737496 -0.02084488 -0.03157207 -0.00367906]
 [-0.00901128  0.02832222 -0.05919139 -0.02619028 -0.00200439]
 [-0.02310918  0.02729092 -0.09487303  0.01979665  0.00315126]
 [-0.02218937  0.01711089 -0.06835037  0.01017377 -0.01797457]] 
Episode: 225: [[ 0.01341487 -0.00247895 -0.04014798 -0.03126775 -0.00615309]
 [ 0.00831425  0.01735206 -0.02121891 -0.0317749  -0.00330611]
 [-0.00886159  0.02840367 -0.05938731 -0.02645459 -0.00210156]
 [-0.02304075  0.02739155 -0.09506378  0.0200914   0.00321135]
 [-0.02211677  0.01696672 -0.06853516  0.00992945 -0.01839193]] 
Episode: 226: [[ 0.01360472 -0.0021557  -0.0403805  -0.03170438 -0.00634763]
 [ 0.00859684  0.01735233 -0.02156815 -0.03200946 -0.00297577]
 [-0.00868241  0.02850072 -0.05954541 -0.02668472 -0.00218003]
 [-0.02292978  0.02750561 -0.09523314  0.02040998  0.00327005]
 [-0.02205034  0.01684384 -0.06868026  0.00965458 -0.01879357]] 
Episode: 227: [[ 0.01387273 -0.00180061 -0.04063035 -0.0320719  -0.00647517]
 [ 0.00889713  0.01734129 -0.02191084 -0.0322     -0.00260651]
 [-0.00853451  0.02861007 -0.05967927 -0.0268855  -0.00220436]
 [-0.02280717  0.0276199  -0.09539209  0.02078669  0.00336887]
 [-0.02197735  0.01670508 -0.06880324  0.00940318 -0.01915735]] 
Episode: 228: [[ 0.01408616 -0.0014744  -0.04086946 -0.03240206 -0.00657186]
 [ 0.00913239  0.0173273  -0.02223528 -0.03238316 -0.00225469]
 [-0.00844787  0.02867715 -0.05981692 -0.02703992 -0.00219722]
 [-0.0227411   0.02767675 -0.09557973  0.02112011  0.00351394]
 [-0.02196778  0.01656953 -0.06892742  0.00917199 -0.01950631]] 
Episode: 229: [[ 0.01427581 -0.00115131 -0.04109084 -0.03269552 -0.00664636]
 [ 0.00935155  0.01728523 -0.0225057  -0.03253682 -0.0019229 ]
 [-0.00837058  0.02872626 -0.05998351 -0.02715532 -0.00218021]
 [-0.02268861  0.02772542 -0.09580564  0.02146521  0.00362627]
 [-0.02197301  0.01643783 -0.06908847  0.00897882 -0.01981898]] 
Episode: 230: [[ 0.01445857 -0.00084881 -0.04136615 -0.03293431 -0.00670052]
 [ 0.00954898  0.01736045 -0.02281382 -0.03275514 -0.00164093]
 [-0.00827469  0.0288481  -0.06017647 -0.02718913 -0.00199902]
 [-0.02259293  0.02782011 -0.09604049  0.02182416  0.00371097]
 [-0.02191186  0.01632923 -0.06927529  0.00877253 -0.02003681]] 
Episode: 231: [[ 0.01459463 -0.00058254 -0.04163311 -0.03314775 -0.00674731]
 [ 0.0096959   0.01743951 -0.02310672 -0.03294759 -0.00139476]
 [-0.00821864  0.02896307 -0.06036579 -0.0272233  -0.00182007]
 [-0.02255671  0.02790232 -0.09627193  0.02214597  0.00382701]
 [-0.0218968   0.01622196 -0.06946387  0.0085737  -0.02023703]] 
Episode: 232: [[ 0.01472258 -0.00032796 -0.04192558 -0.03337042 -0.00679023]
 [ 0.00985603  0.01751019 -0.02337584 -0.03313401 -0.00117729]
 [-0.00814374  0.0290829  -0.06057469 -0.02726682 -0.00168521]
 [-0.02253032  0.02800701 -0.09654778  0.02241997  0.00393386]
 [-0.02185703  0.01615331 -0.06967487  0.0083975  -0.02043878]] 
Episode: 233: [[ 1.47396205e-02 -4.15987415e-05 -4.22089435e-02 -3.35203633e-02
  -6.83733216e-03]
 [ 9.89984255e-03  1.75325423e-02 -2.36050803e-02 -3.32488678e-02
  -1.00765703e-03]
 [-8.18167347e-03  2.91476306e-02 -6.08245470e-02 -2.73138452e-02
  -1.62908819e-03]
 [-2.25765686e-02  2.80553922e-02 -9.68993679e-02  2.26227269e-02
   4.08442412e-03]
 [-2.19313931e-02  1.60660055e-02 -6.99262246e-02  8.22261907e-03
  -2.06562486e-02]] 
Episode: 234: [[ 0.01463723  0.00020965 -0.04254698 -0.03360299 -0.00689065]
 [ 0.00982065  0.01753563 -0.02387212 -0.03329781 -0.00086102]
 [-0.00834138  0.02917548 -0.06105607 -0.02736526 -0.00162457]
 [-0.02271613  0.02805332 -0.09721765  0.02270873  0.00423043]
 [-0.02212051  0.01594097 -0.070156    0.00814984 -0.02083837]] 
Episode: 235: [[ 0.0144931   0.00043006 -0.04286698 -0.03366135 -0.00693368]
 [ 0.0096856   0.01752546 -0.02414161 -0.03334404 -0.00074184]
 [-0.00854588  0.02918952 -0.06126766 -0.0274591  -0.00164813]
 [-0.02287259  0.0280364  -0.09750217  0.02276438  0.00434132]
 [-0.02235104  0.01582262 -0.07035606  0.00808089 -0.02104107]] 
Episode: 236: [[ 0.01432593  0.00065389 -0.04317075 -0.03368384 -0.00695391]
 [ 0.00951333  0.01748287 -0.02443635 -0.03334938 -0.00063634]
 [-0.00878157  0.02912647 -0.06151109 -0.02748558 -0.00167093]
 [-0.02307336  0.02791916 -0.09781682  0.02285767  0.00449949]
 [-0.02260574  0.0155962  -0.07057383  0.00804164 -0.02124628]] 
Episode: 237: [[ 0.01413904  0.00085853 -0.04345054 -0.03368245 -0.00697292]
 [ 0.00932272  0.01744168 -0.02470317 -0.03333588 -0.00056036]
 [-0.00903322  0.02905736 -0.06174808 -0.02749842 -0.00168299]
 [-0.02328792  0.02779798 -0.0981268   0.02293132  0.0046902 ]
 [-0.02289144  0.01538052 -0.07079085  0.00800105 -0.02145464]] 
Episode: 238: [[ 0.01392279  0.00107674 -0.04370798 -0.03364847 -0.00700931]
 [ 0.00908545  0.01734679 -0.02497162 -0.03332415 -0.00055621]
 [-0.00933714  0.02896076 -0.06197662 -0.02758784 -0.00168572]
 [-0.0234992   0.02767155 -0.09840935  0.02295946  0.0049914 ]
 [-0.02324314  0.01519507 -0.0709879   0.00794926 -0.02167992]] 
Episode: 239: [[ 0.0137321   0.00128426 -0.04406952 -0.03355252 -0.00703651]
 [ 0.00882657  0.01723306 -0.02528906 -0.03325509 -0.00053638]
 [-0.00960609  0.02876988 -0.06228701 -0.02748656 -0.00160352]
 [-0.02375134  0.0274535  -0.09875591  0.02312942  0.00529469]
 [-0.02354009  0.01490134 -0.07123911  0.00791565 -0.02189781]] 
Episode: 240: [[ 0.01346399  0.00144482 -0.04458223 -0.03350359 -0.00710215]
 [ 0.00855898  0.01724872 -0.02544935 -0.03324505 -0.00058795]
 [-0.00990365  0.02874211 -0.0627159  -0.02751669 -0.00148436]
 [-0.02420463  0.0275483  -0.09922613  0.02313629  0.0053789 ]
 [-0.02390635  0.01496951 -0.0717354   0.00783856 -0.02217934]] 
Episode: 241: [[ 0.01331342  0.00159063 -0.04514167 -0.03349085 -0.00715545]
 [ 0.00839828  0.01731564 -0.02563631 -0.03325437 -0.00065287]
 [-0.01009867  0.02878041 -0.06309447 -0.02756404 -0.00139139]
 [-0.02462539  0.02769928 -0.09963555  0.02308523  0.00531723]
 [-0.02419092  0.01507706 -0.07217771  0.00774184 -0.02249583]] 
Episode: 242: [[ 0.01316913  0.0017079  -0.04565884 -0.03350228 -0.00722549]
 [ 0.00824425  0.01735301 -0.02576065 -0.03326057 -0.00073122]
 [-0.01028515  0.02878214 -0.06345642 -0.02762552 -0.00135475]
 [-0.02501453  0.02781677 -0.10006523  0.02299515  0.00525391]
 [-0.02445178  0.01518819 -0.07261918  0.0076921  -0.02273749]] 
Episode: 243: [[ 0.01304688  0.00177968 -0.04620677 -0.0335093  -0.00726089]
 [ 0.00810612  0.01742674 -0.02593034 -0.03327528 -0.00082451]
 [-0.01043682  0.0287493  -0.06384099 -0.0275883  -0.00130742]
 [-0.02537491  0.0278657  -0.10051697  0.02305879  0.00521479]
 [-0.02473635  0.01523415 -0.0730671   0.00770896 -0.02291142]] 
Episode: 244: [[ 0.01300893  0.00194133 -0.04673843 -0.03355286 -0.0072644 ]
 [ 0.00806139  0.01751906 -0.02615351 -0.03328766 -0.00077646]
 [-0.01049959  0.02877745 -0.06417376 -0.02757321 -0.00114807]
 [-0.02564128  0.02798844 -0.10092073  0.02310849  0.00512085]
 [-0.02499188  0.01533569 -0.07345239  0.00764816 -0.02309619]] 
Episode: 245: [[ 0.01293243  0.00206071 -0.04713443 -0.03369256 -0.0073712 ]
 [ 0.0079732   0.01757327 -0.02620165 -0.03339965 -0.00091249]
 [-0.01058271  0.0288812  -0.06455223 -0.02764531 -0.00111888]
 [-0.02589451  0.02824148 -0.10141947  0.02307798  0.00516093]
 [-0.02523709  0.01555144 -0.0739296   0.00756736 -0.02335471]] 
Episode: 246: [[ 0.01297865  0.00206432 -0.04743424 -0.03401032 -0.00742973]
 [ 0.00804295  0.01781271 -0.02631564 -0.03366077 -0.00098781]
 [-0.01053384  0.02911599 -0.0648941  -0.02769241 -0.00091776]
 [-0.02605744  0.02856329 -0.10183429  0.02314179  0.00501529]
 [-0.02539879  0.015748   -0.07433946  0.00746804 -0.02355296]] 
Episode: 247: [[ 0.01306556  0.00207822 -0.04749927 -0.03436911 -0.00739449]
 [ 0.00816821  0.01808607 -0.02638213 -0.03399174 -0.00096542]
 [-0.01043926  0.0293823  -0.06521842 -0.02788056 -0.0006687 ]
 [-0.02622933  0.02889573 -0.10223775  0.02305753  0.004713  ]
 [-0.02553019  0.0158733  -0.07475284  0.00725141 -0.02383588]] 
Episode: 248: [[ 0.01319219  0.0020219  -0.04757205 -0.03479688 -0.0073925 ]
 [ 0.00829483  0.01838798 -0.02643923 -0.03443272 -0.00097658]
 [-0.01031824  0.02968836 -0.0654275  -0.02802572 -0.00045343]
 [-0.02632189  0.02923271 -0.10252948  0.02294805  0.00426744]
 [-0.02559932  0.01606713 -0.0750587   0.00705226 -0.0239893 ]] 
Episode: 249: [[ 0.0133246   0.00185332 -0.04767236 -0.03536575 -0.00764109]
 [ 0.00841123  0.01853799 -0.02608844 -0.03490504 -0.00114946]
 [-0.01023782  0.03005138 -0.06557124 -0.02822287 -0.0002442 ]
 [-0.02652504  0.02977406 -0.10282888  0.02270788  0.00390089]
 [-0.0257536   0.01662056 -0.07540654  0.00653433 -0.02449316]] 
Episode: 250: [[ 0.01394733  0.00110308 -0.04758152 -0.03596792 -0.00750007]
 [ 0.00903051  0.01932916 -0.02568982 -0.03527445 -0.00104594]
 [-0.00965472  0.03090795 -0.06541913 -0.02819539  0.0002101 ]
 [-0.02645445  0.0306462  -0.10293513  0.02262066  0.00339992]
 [-0.02542292  0.01762526 -0.07549981  0.00611613 -0.02456731]] 
Episode: 251: [[ 0.01457613  0.00049667 -0.04752736 -0.03664307 -0.00738728]
 [ 0.00966348  0.02003226 -0.02530361 -0.03570105 -0.00094716]
 [-0.00905306  0.03168345 -0.06523131 -0.02824286  0.00057771]
 [-0.02632829  0.03147032 -0.10296787  0.02256381  0.0029664 ]
 [-0.02506386  0.01856295 -0.07551584  0.00561403 -0.02462241]] 
Episode: 252: [[ 1.5126845e-02 -5.6690358e-05 -4.7492776e-02 -3.7240073e-02
  -7.2823702e-03]
 [ 1.0212785e-02  2.0659102e-02 -2.4943411e-02 -3.6088929e-02
  -8.5625355e-04]
 [-8.5355127e-03  3.2376498e-02 -6.5017976e-02 -2.8377486e-02
   8.4835285e-04]
 [-2.6214279e-02  3.2201286e-02 -1.0296210e-01  2.2500865e-02
   2.6088061e-03]
 [-2.4799518e-02  1.9406712e-02 -7.5508848e-02  5.1152464e-03
  -2.4676429e-02]] 
Episode: 253: [[ 0.0156808  -0.00048982 -0.04751248 -0.03777946 -0.00722177]
 [ 0.01071833  0.02120388 -0.02456573 -0.03641003 -0.00079727]
 [-0.00805695  0.03296699 -0.06494623 -0.02842607  0.00108473]
 [-0.02612519  0.03283637 -0.10304636  0.02254083  0.00228339]
 [-0.02457214  0.02012629 -0.07561619  0.00469197 -0.02476483]] 
Episode: 254: [[ 0.01619468 -0.00093658 -0.04754955 -0.03826123 -0.00717791]
 [ 0.01115728  0.02170617 -0.02418257 -0.03671658 -0.00078293]
 [-0.00763152  0.03350564 -0.06483681 -0.02848746  0.00127932]
 [-0.02606887  0.03342234 -0.10309751  0.02253962  0.00202655]
 [-0.02438497  0.02080278 -0.07569335  0.00437657 -0.02482438]] 
Episode: 255: [[ 0.01669425 -0.00134935 -0.04755    -0.03865784 -0.00711692]
 [ 0.01154595  0.02210915 -0.02371927 -0.03703833 -0.00080359]
 [-0.00723801  0.03395645 -0.0647759  -0.02851918  0.00144028]
 [-0.02601944  0.0339445  -0.10321572  0.02256923  0.00187382]
 [-0.02421732  0.02141704 -0.07582279  0.00401908 -0.02490642]] 
Episode: 256: [[ 0.01717243 -0.00170065 -0.04759834 -0.03906632 -0.00705845]
 [ 0.01191798  0.02247105 -0.02331657 -0.03739142 -0.00083085]
 [-0.00684834  0.03437034 -0.06474234 -0.02848585  0.00161893]
 [-0.02594866  0.03442798 -0.10336218  0.02264714  0.00165385]
 [-0.02403848  0.02196358 -0.07596976  0.00365744 -0.0250464 ]] 
Episode: 257: [[ 0.01755482 -0.00200964 -0.04767124 -0.03941807 -0.00701028]
 [ 0.01220206  0.02277671 -0.0229754  -0.03768217 -0.00087282]
 [-0.0065539   0.03471368 -0.06471875 -0.02847821  0.00174443]
 [-0.02591411  0.03483142 -0.10350926  0.02269365  0.00150245]
 [-0.02394536  0.0224459  -0.07610793  0.00335869 -0.0251615 ]] 
Episode: 258: [[ 0.01780643 -0.00227185 -0.04777706 -0.03971387 -0.00697477]
 [ 0.01236782  0.02302218 -0.02268705 -0.03791793 -0.00092424]
 [-0.00638366  0.03499704 -0.06473702 -0.02849395  0.00185502]
 [-0.02597953  0.03516952 -0.1036964   0.02265844  0.00137597]
 [-0.02395661  0.02288224 -0.07627479  0.0031136  -0.02530005]] 
Episode: 259: [[ 0.01799306 -0.00252555 -0.04784559 -0.03993866 -0.00693886]
 [ 0.01246918  0.02322505 -0.02243475 -0.03811117 -0.00098397]
 [-0.00628305  0.03523439 -0.06474364 -0.02856402  0.00193019]
 [-0.02604133  0.03545072 -0.10383003  0.02260086  0.00132172]
 [-0.02399722  0.02325309 -0.07640307  0.00297431 -0.02538324]] 
Episode: 260: [[ 0.01820623 -0.00263039 -0.04810562 -0.04014636 -0.00693696]
 [ 0.01259598  0.02338414 -0.02231371 -0.03822261 -0.00097953]
 [-0.00618701  0.03540782 -0.0648266  -0.02863826  0.0021176 ]
 [-0.02616154  0.03567866 -0.10404452  0.02264552  0.00129094]
 [-0.02403017  0.02354963 -0.07659353  0.0029285  -0.02545454]] 
Episode: 261: [[ 0.01834833 -0.00274008 -0.04835244 -0.04029592 -0.0069193 ]
 [ 0.01265511  0.02352284 -0.02219579 -0.03828996 -0.00098061]
 [-0.00615886  0.03553824 -0.06491908 -0.02870997  0.00222228]
 [-0.02630277  0.03584412 -0.10427324  0.02266164  0.00124785]
 [-0.02411553  0.02379275 -0.07679052  0.00294536 -0.02546637]] 
Episode: 262: [[ 0.0185626  -0.00300095 -0.04879922 -0.04053031 -0.00694497]
 [ 0.01278748  0.02364742 -0.02225343 -0.03837573 -0.00088154]
 [-0.00607122  0.03564261 -0.06503532 -0.02872252  0.00243123]
 [-0.02640807  0.03593598 -0.10450953  0.02281808  0.00122409]
 [-0.02419776  0.02394046 -0.0769911   0.00308866 -0.02551671]] 
Episode: 263: [[ 0.01874683 -0.00326983 -0.04914679 -0.04076431 -0.00699959]
 [ 0.01290061  0.02375194 -0.02228045 -0.0384987  -0.00081892]
 [-0.00598381  0.03574643 -0.06514128 -0.02877242  0.00261579]
 [-0.02651547  0.03603658 -0.10473019  0.02299527  0.00126489]
 [-0.02426801  0.02409172 -0.07717143  0.0031385  -0.02558421]] 
Episode: 264: [[ 0.01891572 -0.00352132 -0.04946061 -0.04102553 -0.00706904]
 [ 0.01299904  0.02385678 -0.0223187  -0.038649   -0.00076264]
 [-0.00590787  0.03584187 -0.06525851 -0.02881727  0.00280663]
 [-0.02662848  0.03611747 -0.10495927  0.0231916   0.00129741]
 [-0.02432445  0.02421133 -0.07735609  0.00320325 -0.0256494 ]] 
Episode: 265: [[ 0.01903496 -0.00374124 -0.04974062 -0.04123747 -0.00713093]
 [ 0.01305341  0.02394504 -0.02234738 -0.03875344 -0.00071774]
 [-0.00587765  0.03592188 -0.06537391 -0.02884848  0.00297364]
 [-0.02675871  0.03618483 -0.10518773  0.0233441   0.00134749]
 [-0.02440737  0.02431841 -0.07753237  0.00326811 -0.02570412]] 
Episode: 266: [[ 0.01916882 -0.0039338  -0.05005068 -0.0414997  -0.00724049]
 [ 0.01314188  0.02404062 -0.02240276 -0.0388785  -0.00070161]
 [-0.00583779  0.03602095 -0.06548776 -0.02885617  0.00312668]
 [-0.02689327  0.03627766 -0.10544049  0.02355044  0.00136745]
 [-0.02448317  0.02443309 -0.07771908  0.0033151  -0.02577827]] 
Episode: 267: [[ 0.01936806 -0.0041435  -0.05056817 -0.04172222 -0.00733392]
 [ 0.01326917  0.02417818 -0.02259101 -0.03910703 -0.00074535]
 [-0.00576486  0.03619449 -0.06564756 -0.0287874   0.00331556]
 [-0.02698404  0.03643912 -0.10573892  0.02387672  0.00138207]
 [-0.02451927  0.0245482  -0.07795385  0.00340606 -0.02591957]] 
Episode: 268: [[ 0.01959027 -0.00435411 -0.05105206 -0.04197006 -0.00741581]
 [ 0.01342475  0.02430438 -0.02273808 -0.03935418 -0.00078231]
 [-0.00566088  0.03637534 -0.06577802 -0.02868035  0.00353144]
 [-0.02707035  0.03663027 -0.1060186   0.02416229  0.00136746]
 [-0.02450438  0.02468324 -0.07816322  0.00348922 -0.02603174]] 
Episode: 269: [[ 0.0198215  -0.00456477 -0.05156016 -0.04218252 -0.00746612]
 [ 0.01355888  0.0244073  -0.02294615 -0.03959485 -0.00078565]
 [-0.0055813   0.03652901 -0.0659398  -0.02850565  0.00374235]
 [-0.02716712  0.03678905 -0.10632418  0.02450293  0.00132656]
 [-0.02447323  0.02476343 -0.07840785  0.00362951 -0.02608163]] 
Episode: 270: [[ 0.01998977 -0.00474892 -0.05201942 -0.04236117 -0.00752619]
 [ 0.01362766  0.02448181 -0.02310147 -0.03981593 -0.00083167]
 [-0.00556088  0.03665003 -0.06611779 -0.02837066  0.00389672]
 [-0.02730231  0.03692073 -0.10666005  0.02476564  0.00129445]
 [-0.0244852   0.02484697 -0.0786755   0.00380275 -0.02612154]] 
Episode: 271: [[ 0.02011596 -0.00489643 -0.05240572 -0.04256344 -0.00754907]
 [ 0.01370028  0.02464066 -0.02334066 -0.040064   -0.00081654]
 [-0.00555096  0.03680317 -0.06631947 -0.02829883  0.0040775 ]
 [-0.0274516   0.03704567 -0.10699406  0.02492875  0.00114175]
 [-0.02451914  0.02489809 -0.07893748  0.00387347 -0.0262351 ]] 
Episode: 272: [[ 0.02015583 -0.00502075 -0.05275142 -0.04269394 -0.00757358]
 [ 0.01368462  0.02476767 -0.02356558 -0.04025122 -0.00083471]
 [-0.00562708  0.03691182 -0.06652587 -0.02828386  0.00420718]
 [-0.02761139  0.03711031 -0.10733098  0.02507993  0.00109262]
 [-0.02465626  0.02491291 -0.07919582  0.00396995 -0.02632063]] 
Episode: 273: [[ 0.02018576 -0.0050867  -0.0531074  -0.04274999 -0.00757294]
 [ 0.01364877  0.0248522  -0.02381034 -0.0403571  -0.0008157 ]
 [-0.00572788  0.03693892 -0.06679726 -0.02815203  0.00437905]
 [-0.02784587  0.03707667 -0.10772087  0.02529993  0.00105981]
 [-0.02483492  0.02486605 -0.07950245  0.00407116 -0.02635376]] 
Episode: 274: [[ 0.02019037 -0.00514746 -0.05343247 -0.04277673 -0.00757685]
 [ 0.01359018  0.02494096 -0.02407381 -0.04044122 -0.0008133 ]
 [-0.00584625  0.03696346 -0.06707068 -0.0280592   0.0045112 ]
 [-0.0280489   0.03703517 -0.10808909  0.02549874  0.00100682]
 [-0.02502447  0.02481331 -0.07978556  0.00419322 -0.0263859 ]] 
Episode: 275: [[ 0.02012228 -0.00519492 -0.0538097  -0.04275247 -0.00756899]
 [ 0.01346735  0.0249916  -0.02435115 -0.04045508 -0.00082332]
 [-0.00603605  0.03695648 -0.06732722 -0.02796949  0.00462957]
 [-0.02828046  0.03697045 -0.10843508  0.02564724  0.00098982]
 [-0.02527115  0.02475299 -0.08005387  0.00425073 -0.02652829]] 
Episode: 276: [[ 0.02002985 -0.00521625 -0.05416241 -0.04270734 -0.00754602]
 [ 0.01332361  0.02503133 -0.02459994 -0.04043783 -0.00084049]
 [-0.00625307  0.03693609 -0.0675853  -0.02792891  0.00473698]
 [-0.0285296   0.03689468 -0.10878903  0.02570688  0.0010067 ]
 [-0.02553906  0.02469439 -0.08032491  0.00430468 -0.0267115 ]] 
Episode: 277: [[ 0.01994557 -0.00523935 -0.05451144 -0.04265283 -0.00751396]
 [ 0.01318719  0.02507092 -0.02482197 -0.04041826 -0.00084391]
 [-0.00645578  0.03691129 -0.06782182 -0.02788825  0.00483863]
 [-0.02875836  0.03681344 -0.10911977  0.02577017  0.00101875]
 [-0.02579313  0.02462487 -0.0805776   0.00436173 -0.02689043]] 
Episode: 278: [[ 0.01984566 -0.00523781 -0.05483076 -0.04259783 -0.00750241]
 [ 0.01303832  0.02508975 -0.02503037 -0.040385   -0.00087619]
 [-0.00666875  0.03686117 -0.06806316 -0.02784088  0.00489582]
 [-0.0289794   0.03670672 -0.10945881  0.02582025  0.00106777]
 [-0.02605887  0.02453456 -0.08082656  0.00439222 -0.02708625]] 
Episode: 279: [[ 0.01977584 -0.00520989 -0.05515612 -0.04260918 -0.00753565]
 [ 0.01293526  0.02514593 -0.02519594 -0.04040654 -0.00088072]
 [-0.00682081  0.03685892 -0.06831903 -0.02777312  0.00506428]
 [-0.0291687   0.0366612  -0.10981044  0.025914    0.00115249]
 [-0.02629527  0.02449468 -0.08110718  0.00425833 -0.02744838]] 
Episode: 280: [[ 0.01970816 -0.00511817 -0.05586111 -0.04289684 -0.00755809]
 [ 0.01273665  0.02518695 -0.02543138 -0.04066504 -0.00109419]
 [-0.00690232  0.03708931 -0.06818756 -0.02749611  0.00534106]
 [-0.02942191  0.03700793 -0.10995959  0.02614043  0.00140743]
 [-0.02669673  0.02478819 -0.0810487   0.0038072  -0.028103  ]] 
Episode: 281: [[ 0.01961838 -0.00502569 -0.0564848  -0.0431408  -0.00755786]
 [ 0.01255267  0.02529738 -0.02579327 -0.04083642 -0.00124591]
 [-0.00699877  0.03736603 -0.06805314 -0.02732597  0.00564539]
 [-0.0296707   0.03737232 -0.11006196  0.02625164  0.00173993]
 [-0.02704376  0.02508123 -0.08095135  0.00338408 -0.02874605]] 
Episode: 282: [[ 0.01961323 -0.00491405 -0.05727411 -0.04325015 -0.00756216]
 [ 0.01239535  0.02538273 -0.02604216 -0.04121753 -0.00163542]
 [-0.0070573   0.03758116 -0.06801096 -0.02696252  0.00593668]
 [-0.02992076  0.03770011 -0.11022499  0.02649259  0.00205694]
 [-0.02736977  0.02527421 -0.08100281  0.00320336 -0.02948289]] 
Episode: 283: [[ 0.01964805 -0.00480869 -0.05795749 -0.04338079 -0.00758804]
 [ 0.01228126  0.02543978 -0.02615678 -0.04162305 -0.00197716]
 [-0.00706345  0.03783457 -0.0679278  -0.02663205  0.00621193]
 [-0.03007568  0.03809985 -0.1103598   0.02670121  0.00231764]
 [-0.02761437  0.02554524 -0.08103564  0.00294974 -0.03021447]] 
Episode: 284: [[ 0.01972737 -0.00474409 -0.05857811 -0.04355834 -0.00758935]
 [ 0.01223218  0.02552422 -0.02626717 -0.0420367  -0.00224486]
 [-0.00701694  0.03808494 -0.06784887 -0.02629584  0.00654693]
 [-0.03020799  0.03848017 -0.11048232  0.02697738  0.00253558]
 [-0.02779749  0.02578471 -0.08107495  0.00272955 -0.03089624]] 
Episode: 285: [[ 0.01977165 -0.00480333 -0.05872166 -0.04377779 -0.00753336]
 [ 0.01221031  0.02544203 -0.02605641 -0.04263189 -0.00222884]
 [-0.00686819  0.03847798 -0.06751379 -0.02620875  0.00711221]
 [-0.0302678   0.03914253 -0.1104278   0.02708367  0.00255141]
 [-0.02775387  0.02628959 -0.08092295  0.00222069 -0.03175279]] 
Episode: 286: [[ 0.01977329 -0.00486362 -0.05879543 -0.04389758 -0.00747449]
 [ 0.01213696  0.02536571 -0.02590949 -0.04308748 -0.0021413 ]
 [-0.0068102   0.0388103  -0.06726772 -0.02613131  0.0076682 ]
 [-0.03036171  0.03970583 -0.11044462  0.027119    0.00274169]
 [-0.02780317  0.02674662 -0.08080864  0.00189152 -0.03230134]] 
Episode: 287: [[ 0.01984669 -0.00489416 -0.05886547 -0.04404227 -0.00742723]
 [ 0.01212846  0.02529343 -0.02579711 -0.04353875 -0.00203467]
 [-0.0066994   0.03913606 -0.06701972 -0.02602921  0.00820521]
 [-0.03037504  0.0402609  -0.1104143   0.02715799  0.00281878]
 [-0.02780144  0.02719963 -0.08067338  0.00162881 -0.03273444]] 
Episode: 288: [[ 0.01991659 -0.00490275 -0.0588887  -0.04418272 -0.00739018]
 [ 0.01214781  0.02519397 -0.02562592 -0.04394561 -0.0019872 ]
 [-0.00660611  0.03942677 -0.06678219 -0.02591537  0.00863662]
 [-0.03037195  0.04075341 -0.11038427  0.02727102  0.00294354]
 [-0.02777141  0.02762525 -0.08055367  0.00139734 -0.03308734]] 
Episode: 289: [[ 0.01995122 -0.00486153 -0.05893105 -0.04433567 -0.00731135]
 [ 0.01216831  0.02511109 -0.02552942 -0.04431874 -0.0019905 ]
 [-0.00653322  0.03972228 -0.06650649 -0.02586373  0.00889874]
 [-0.03040822  0.04123215 -0.1103031   0.02730022  0.00288045]
 [-0.02773984  0.02806053 -0.08039656  0.00120897 -0.03336843]] 
Episode: 290: [[ 0.02005509 -0.00481845 -0.0590379  -0.04452069 -0.00724376]
 [ 0.01226679  0.02506043 -0.0253807  -0.04471926 -0.00205073]
 [-0.0063765   0.04002079 -0.06631523 -0.02580624  0.00912537]
 [-0.03035732  0.04173717 -0.11030804  0.02746649  0.00299667]
 [-0.02755732  0.02849904 -0.0803192   0.00097992 -0.03382238]] 
Episode: 291: [[ 0.02016629 -0.00472553 -0.0592876  -0.04466953 -0.00716107]
 [ 0.01239696  0.02504175 -0.02531021 -0.04507971 -0.0020715 ]
 [-0.00621943  0.04027174 -0.06622902 -0.02567936  0.00936696]
 [-0.0303482   0.04217016 -0.1103849   0.02772468  0.00315416]
 [-0.02739692  0.02887741 -0.08034595  0.00085582 -0.03420756]] 
Episode: 292: [[ 0.02021112 -0.00464598 -0.05953768 -0.04477005 -0.00707196]
 [ 0.01246332  0.02502997 -0.02526704 -0.04537804 -0.00208424]
 [-0.00613204  0.04049226 -0.0661554  -0.02556862  0.00958317]
 [-0.03038771  0.04255588 -0.11046104  0.02794239  0.00330829]
 [-0.02730751  0.0292219  -0.08037888  0.00074161 -0.03457273]] 
Episode: 293: [[ 0.02026617 -0.00454245 -0.05974161 -0.04489475 -0.00702677]
