Episode: 1: [[0. 0. 0. 0. 0.]
 [0. 0. 0. 0. 0.]
 [0. 0. 0. 0. 0.]
 [0. 0. 0. 0. 0.]
 [0. 0. 0. 0. 0.]] 
Episode: 2: [[ 0.001      -0.00099984  0.001      -0.001      -0.001     ]
 [ 0.001       0.001       0.001      -0.001       0.001     ]
 [ 0.001       0.001       0.001       0.001       0.001     ]
 [ 0.001       0.001      -0.001       0.001       0.001     ]
 [-0.001       0.001       0.001      -0.001       0.001     ]] 
Episode: 3: [[ 0.0005655  -0.00186331  0.00089872 -0.00117653 -0.0018272 ]
 [ 0.00048112  0.00190368  0.00070071 -0.00098623  0.00049104]
 [ 0.00039382  0.00124998  0.00030836  0.00036774  0.0011826 ]
 [ 0.00046342  0.00097173 -0.00176624  0.00158747  0.00192678]
 [-0.00190681  0.0012285   0.00038425 -0.0012804   0.00186789]] 
Episode: 4: [[-0.00013011 -0.00273608  0.00071216 -0.00068773 -0.00272788]
 [-0.00026132  0.00222304  0.00013119 -0.00061503 -0.00025878]
 [-0.00038718  0.00118924 -0.00048189 -0.00038383  0.00085838]
 [-0.00025796  0.00070588 -0.00259494  0.00234615  0.0021801 ]
 [-0.00285451  0.00109275 -0.00034384 -0.00139343  0.00133354]] 
Episode: 5: [[-0.00063597 -0.00356755  0.00108464 -0.00043411 -0.00346968]
 [-0.00082653  0.00218171 -0.00015304 -0.00056381 -0.00088956]
 [-0.00101306  0.00115845 -0.00128857 -0.00121984  0.00025568]
 [-0.00079419  0.0004222  -0.00344849  0.00282325  0.00186904]
 [-0.00349313  0.00098079 -0.00108056 -0.00119131  0.00064965]] 
Episode: 6: [[-9.46445041e-04 -4.44980199e-03  1.65417709e-03  4.66864840e-05
  -3.51871527e-03]
 [-1.32868288e-03  1.83648686e-03 -1.05405736e-04 -2.38210443e-04
  -7.42879463e-04]
 [-1.59253506e-03  8.45564238e-04 -1.75992690e-03 -2.03158706e-03
  -1.33599693e-04]
 [-1.34849444e-03  2.04269836e-05 -4.01481148e-03  2.46225926e-03
   2.21165083e-03]
 [-4.04228503e-03  9.16090154e-04 -1.48809014e-03 -8.72225966e-04
   3.47786059e-04]] 
Episode: 7: [[-1.2891957e-03 -4.1505783e-03  1.3330118e-03  4.7175643e-05
  -3.9108205e-03]
 [-1.6480531e-03  2.0068432e-03 -5.1908224e-04  1.1864830e-04
  -4.4292104e-04]
 [-2.0503975e-03  5.1335455e-04 -2.4206545e-03 -2.7188400e-03
  -3.9972205e-04]
 [-1.8789032e-03 -3.7796787e-04 -4.7277473e-03  2.6401782e-03
   2.5505796e-03]
 [-4.5702709e-03  6.4114667e-04 -2.1158350e-03 -5.4454198e-04
   2.2634938e-05]] 
Episode: 8: [[-8.5014541e-04 -4.3724938e-03  1.7415873e-03 -4.5503324e-04
  -4.4423291e-03]
 [-1.2155420e-03  2.5286900e-03 -5.5096229e-04 -2.9832043e-04
   2.8079436e-05]
 [-1.6308753e-03  9.6969574e-04 -3.0783175e-03 -3.4180153e-03
  -4.1659390e-05]
 [-1.4800003e-03  5.6641089e-05 -5.3771855e-03  3.1089429e-03
   3.1265526e-03]
 [-4.7808113e-03  1.0149869e-03 -2.7372523e-03 -9.8928181e-04
  -5.2659941e-04]] 
Episode: 9: [[-0.00042801 -0.00444425  0.00208796 -0.00094108 -0.00484324]
 [-0.00079149  0.00308276 -0.00052654 -0.00074474  0.00067269]
 [-0.00121737  0.00146    -0.0033043  -0.00417514  0.00027158]
 [-0.00109168  0.0005346  -0.00567353  0.00354835  0.00323404]
 [-0.00471907  0.00154138 -0.00303341 -0.00152968 -0.00116821]] 
Episode: 10: [[ 7.2630741e-05 -4.8456797e-03  2.1848634e-03 -1.3659158e-03
  -5.2670101e-03]
 [-3.1925365e-04  3.5561572e-03 -9.4530353e-04 -1.0340904e-03
   1.0615207e-03]
 [-7.9590385e-04  1.9172539e-03 -3.6946698e-03 -4.3679425e-03
   4.5834514e-04]
 [-7.3588191e-04  9.8818401e-04 -6.1735739e-03  4.1711796e-03
   3.4302946e-03]
 [-4.3978058e-03  1.8753022e-03 -3.5011531e-03 -1.9279792e-03
  -1.6587313e-03]] 
Episode: 11: [[ 0.00032347 -0.00454286  0.00201373 -0.00177296 -0.00525081]
 [-0.00013914  0.00408075 -0.00151162 -0.00141297  0.00164745]
 [-0.00069251  0.00220356 -0.00421438 -0.00477635  0.00050996]
 [-0.00073011  0.0012237  -0.00678936  0.00433145  0.00333554]
 [-0.00465422  0.00211239 -0.00395485 -0.00249146 -0.00200002]] 
Episode: 12: [[ 5.5116793e-04 -4.2922231e-03  1.7975548e-03 -2.2066513e-03
  -5.2158018e-03]
 [ 6.5858134e-05  4.4902349e-03 -2.1237801e-03 -1.8423627e-03
   2.0729713e-03]
 [-6.3532288e-04  2.5003406e-03 -4.8847049e-03 -5.2578300e-03
   4.0498190e-04]
 [-7.0822792e-04  1.4526030e-03 -7.5116409e-03  4.6984400e-03
   3.1271297e-03]
 [-4.8663327e-03  2.2520029e-03 -4.5855353e-03 -2.9651730e-03
  -2.3353617e-03]] 
Episode: 13: [[ 0.00090769 -0.00392449  0.00152292 -0.00249719 -0.00500686]
 [ 0.00039324  0.00487496 -0.00276572 -0.00192234  0.00267885]
 [-0.00057594  0.00269113 -0.005489   -0.005865    0.0004097 ]
 [-0.00065769  0.00159337 -0.00820725  0.00521173  0.00317067]
 [-0.0050796   0.00246656 -0.0051268  -0.0035914  -0.00287953]] 
Episode: 14: [[ 0.00132411 -0.0035785   0.00125683 -0.00283439 -0.00480935]
 [ 0.00078912  0.00526716 -0.00333446 -0.00215473  0.00324389]
 [-0.00042002  0.00292787 -0.00597843 -0.00644633  0.00050885]
 [-0.00049652  0.00178192 -0.00879131  0.00572742  0.00314063]
 [-0.00506737  0.00273122 -0.00556962 -0.00417938 -0.00334236]] 
Episode: 15: [[ 0.00173794 -0.00315515  0.00095771 -0.00313283 -0.00463349]
 [ 0.00116347  0.00567623 -0.00386363 -0.00239555  0.00385905]
 [-0.00027942  0.00321461 -0.00646093 -0.00711343  0.00036543]
 [-0.00032695  0.00203358 -0.00942388  0.00601063  0.00292252]
 [-0.00489332  0.00307907 -0.0060846  -0.00467262 -0.00382408]] 
Episode: 16: [[ 2.1913829e-03 -2.8110866e-03  6.8582851e-04 -3.4332864e-03
  -4.4076093e-03]
 [ 1.6162355e-03  6.1698481e-03 -4.3220171e-03 -2.7067706e-03
   4.5308177e-03]
 [-4.7365127e-05  3.6204271e-03 -6.7919032e-03 -7.7557424e-03
   3.3885444e-04]
 [-7.3632987e-06  2.4045296e-03 -9.9163149e-03  6.3782814e-03
   2.7299235e-03]
 [-4.5223841e-03  3.5828119e-03 -6.4592152e-03 -5.2184309e-03
  -4.3790815e-03]] 
Episode: 17: [[ 0.00261321 -0.00251375  0.00041944 -0.00371813 -0.00419755]
 [ 0.00204814  0.0066453  -0.00477792 -0.00305553  0.0051255 ]
 [ 0.00017071  0.00402677 -0.00719747 -0.00833944  0.00034408]
 [ 0.00030817  0.00276974 -0.01048156  0.00686747  0.00259296]
 [-0.00418091  0.00399699 -0.00692733 -0.00564904 -0.00487587]] 
Episode: 18: [[ 0.00308713 -0.00221026  0.00012281 -0.00390148 -0.00396608]
 [ 0.00250855  0.00700234 -0.00532615 -0.00316233  0.00573914]
 [ 0.00036241  0.00434177 -0.00773073 -0.00872807  0.00043648]
 [ 0.0004986   0.00306892 -0.01109321  0.00736575  0.00241163]
 [-0.00394223  0.00433579 -0.00748793 -0.00603479 -0.00533214]] 
Episode: 19: [[ 0.00350862 -0.00193287 -0.00019858 -0.00407655 -0.00375804]
 [ 0.0029184   0.00738814 -0.00588442 -0.00327221  0.0062998 ]
 [ 0.00051822  0.00467498 -0.00820956 -0.00912916  0.00053747]
 [ 0.00066175  0.00337067 -0.01168682  0.00782528  0.00227427]
 [-0.00373126  0.00470871 -0.0079996  -0.00641267 -0.00581059]] 
Episode: 20: [[ 0.00383863 -0.00171222 -0.00049969 -0.00420871 -0.00356827]
 [ 0.00321509  0.00770872 -0.00641619 -0.0033533   0.00680221]
 [ 0.00059837  0.00492061 -0.00868377 -0.00946508  0.00062947]
 [ 0.00072153  0.00357435 -0.012291    0.00827006  0.00218878]
 [-0.0036308   0.00495129 -0.00851156 -0.00673434 -0.00625283]] 
Episode: 21: [[ 0.00412882 -0.00152851 -0.00075958 -0.00434027 -0.00341162]
 [ 0.00348005  0.00801015 -0.00687265 -0.00344621  0.00721765]
 [ 0.00066431  0.00517564 -0.00919028 -0.00978483  0.00068732]
 [ 0.00075061  0.00378752 -0.01295948  0.00870664  0.00210505]
 [-0.00359158  0.00522075 -0.00909019 -0.00703179 -0.00665439]] 
Episode: 22: [[ 0.00430224 -0.00133387 -0.00103557 -0.00444415 -0.00328412]
 [ 0.00361055  0.00824152 -0.00734393 -0.00354019  0.00750889]
 [ 0.00062642  0.00536816 -0.0097425  -0.01014789  0.00060663]
 [ 0.00067311  0.00393179 -0.01368733  0.00906724  0.00191095]
 [-0.00375212  0.00535612 -0.00971663 -0.00722977 -0.00704009]] 
Episode: 23: [[ 0.00444828 -0.00115354 -0.0012891  -0.00453324 -0.00316285]
 [ 0.00372569  0.00845352 -0.00775529 -0.00361658  0.00777491]
 [ 0.00058332  0.00555458 -0.01027031 -0.01049746  0.00050243]
 [ 0.00060774  0.00407179 -0.01439616  0.00940214  0.00173262]
 [-0.00390282  0.00550397 -0.01033086 -0.00740989 -0.00738014]] 
Episode: 24: [[ 0.00454397 -0.00099983 -0.00151739 -0.00461379 -0.00305543]
 [ 0.00379636  0.00863593 -0.00814479 -0.0036833   0.00799144]
 [ 0.00051206  0.00570425 -0.01075544 -0.01082073  0.00039427]
 [ 0.00051487  0.00417843 -0.01503814  0.00973209  0.00158476]
 [-0.00411488  0.00561059 -0.01088675 -0.0075866  -0.00770889]] 
Episode: 25: [[ 0.00459578 -0.00086178 -0.00172894 -0.00468661 -0.00297299]
 [ 0.00382732  0.00881015 -0.00850778 -0.00373666  0.00815341]
 [ 0.00042698  0.00584486 -0.01125464 -0.01116263  0.00022393]
 [ 0.00040014  0.00426285 -0.01570601  0.0099919   0.0014552 ]
 [-0.00435215  0.00567387 -0.01145765 -0.00774182 -0.00804243]] 
Episode: 26: [[ 4.54372168e-03 -7.24738406e-04 -1.94850145e-03 -4.72273119e-03
  -2.90533877e-03]
 [ 3.75247374e-03  8.96852184e-03 -8.89770687e-03 -3.69539973e-03
   8.28039087e-03]
 [ 2.52713624e-04  5.92584582e-03 -1.17296213e-02 -1.14959739e-02
  -6.19808416e-05]
 [ 1.71798893e-04  4.26490232e-03 -1.63695421e-02  1.01195825e-02
   1.35243591e-03]
 [-4.69858898e-03  5.69551252e-03 -1.19915754e-02 -7.86146522e-03
  -8.30319151e-03]] 
Episode: 27: [[ 4.5323391e-03 -6.5408170e-04 -2.0853323e-03 -4.8384028e-03
  -2.8824690e-03]
 [ 3.7499946e-03  9.1660684e-03 -9.1731073e-03 -3.7157449e-03
   8.4399665e-03]
 [ 1.3809909e-04  6.0806423e-03 -1.2181591e-02 -1.1876912e-02
  -2.6161523e-04]
 [ 1.7502807e-05  4.3611610e-03 -1.7024457e-02  1.0201378e-02
   1.1644590e-03]
 [-4.8602750e-03  5.8218106e-03 -1.2523453e-02 -8.0214962e-03
  -8.6315246e-03]] 
Episode: 28: [[ 4.54203971e-03 -5.47188392e-04 -2.19927030e-03 -4.94454894e-03
  -2.85817683e-03]
 [ 3.75842047e-03  9.34837107e-03 -9.41693038e-03 -3.74755519e-03
   8.61821510e-03]
 [ 4.35969596e-05  6.22165855e-03 -1.26056587e-02 -1.22104008e-02
  -3.36771162e-04]
 [-1.19438264e-04  4.44650697e-03 -1.76663790e-02  1.02714077e-02
   1.08426856e-03]
 [-4.99494467e-03  5.91713283e-03 -1.30379815e-02 -8.17847718e-03
  -8.96614883e-03]] 
Episode: 29: [[ 4.7116652e-03 -5.5061904e-04 -2.3703149e-03 -5.3777634e-03
  -3.0227173e-03]
 [ 3.9191335e-03  9.6465899e-03 -9.7963335e-03 -4.0673362e-03
   8.4731271e-03]
 [ 1.4300698e-04  6.4322716e-03 -1.3035596e-02 -1.2515522e-02
  -4.8768934e-04]
 [-9.6882897e-05  4.5806877e-03 -1.8239208e-02  1.0525867e-02
   8.2148524e-04]
 [-4.8881085e-03  5.8918367e-03 -1.3554086e-02 -8.2184803e-03
  -9.3319500e-03]] 
Episode: 30: [[ 4.93930606e-03 -5.34140912e-04 -2.64775334e-03 -5.83910570e-03
  -3.26673896e-03]
 [ 4.12384840e-03  1.00379074e-02 -1.01390509e-02 -4.44906903e-03
   8.24747887e-03]
 [ 2.81540037e-04  6.70664664e-03 -1.34645505e-02 -1.27743697e-02
  -6.12198783e-04]
 [-6.37148987e-05  4.78892820e-03 -1.88640691e-02  1.07529210e-02
   5.68473362e-04]
 [-4.73176362e-03  6.00397401e-03 -1.41090285e-02 -8.27641040e-03
  -9.69251245e-03]] 
Episode: 31: [[ 5.1838569e-03 -4.6687922e-04 -2.9028845e-03 -6.3330890e-03
  -3.5521002e-03]
 [ 4.3396135e-03  1.0371029e-02 -1.0443607e-02 -4.8972461e-03
   7.9610655e-03]
 [ 4.3771957e-04  6.9725565e-03 -1.3908933e-02 -1.3071438e-02
  -7.8078668e-04]
 [-6.3667067e-06  5.0031925e-03 -1.9497249e-02  1.1002489e-02
   2.5297562e-04]
 [-4.5459573e-03  6.0868077e-03 -1.4691093e-02 -8.3049573e-03
  -1.0019817e-02]] 
Episode: 32: [[ 5.4140063e-03 -4.0268057e-04 -3.1291740e-03 -6.8014222e-03
  -3.8048120e-03]
 [ 4.5511131e-03  1.0677205e-02 -1.0731840e-02 -5.3245057e-03
   7.7218274e-03]
 [ 5.9142511e-04  7.2280378e-03 -1.4371318e-02 -1.3334517e-02
  -9.0779713e-04]
 [ 3.3035842e-05  5.2146595e-03 -2.0133719e-02  1.1268466e-02
  -2.3240354e-05]
 [-4.3689106e-03  6.1746505e-03 -1.5279290e-02 -8.2996860e-03
  -1.0325572e-02]] 
Episode: 33: [[ 0.00556479 -0.00039917 -0.00343435 -0.00705801 -0.00377218]
 [ 0.0047744   0.01123513 -0.01069756 -0.00579665  0.00762465]
 [ 0.00068802  0.0077209  -0.01453043 -0.01377401 -0.00093519]
 [ 0.0001206   0.00556288 -0.02072453  0.01130518 -0.00033935]
 [-0.00428975  0.00646776 -0.01567032 -0.00829248 -0.01042728]] 
Episode: 34: [[ 0.00573179 -0.00040099 -0.00374018 -0.00727562 -0.00372624]
 [ 0.0049757   0.0117525  -0.01073119 -0.00621563  0.00750684]
 [ 0.00075463  0.00816644 -0.01474257 -0.01418662 -0.00097325]
 [ 0.00013722  0.00587093 -0.02134461  0.01143339 -0.00055215]
 [-0.00424235  0.00671201 -0.01608974 -0.00829824 -0.01060142]] 
Episode: 35: [[ 0.00594457 -0.0004189  -0.00392296 -0.00759136 -0.00368318]
 [ 0.00525132  0.01225351 -0.01069808 -0.00677462  0.00747751]
 [ 0.00091953  0.00867329 -0.01495986 -0.01454865 -0.00083974]
 [ 0.00023782  0.0062805  -0.02196805  0.01150258 -0.0008294 ]
 [-0.00405861  0.00713444 -0.01652764 -0.00821162 -0.01070894]] 
Episode: 36: [[ 0.00614553 -0.00037974 -0.00415539 -0.00787632 -0.00362124]
 [ 0.00550262  0.01267981 -0.01071422 -0.0073095   0.0074404 ]
 [ 0.00106519  0.00911205 -0.01512566 -0.01487787 -0.00077338]
 [ 0.000321    0.00663883 -0.02248419  0.01159378 -0.00111441]
 [-0.00393739  0.00751395 -0.01687836 -0.00814922 -0.01082514]] 
Episode: 37: [[ 0.00637466 -0.00043741 -0.00434383 -0.00826586 -0.00367085]
 [ 0.00580842  0.01317164 -0.01060787 -0.00796923  0.00720292]
 [ 0.00131644  0.00967614 -0.01528839 -0.01533451 -0.00092021]
 [ 0.00055485  0.00714658 -0.02302813  0.01176133 -0.001525  ]
 [-0.00377042  0.00807111 -0.01729532 -0.00815152 -0.01098805]] 
Episode: 38: [[ 0.00654291 -0.00048505 -0.00450902 -0.00860645 -0.00370407]
 [ 0.00604172  0.01362695 -0.01048962 -0.0085538   0.00698048]
 [ 0.00150477  0.01018905 -0.01556059 -0.01578521 -0.00108082]
 [ 0.00070689  0.0076063  -0.02368211  0.01184759 -0.00195706]
 [-0.00368796  0.00856082 -0.01783395 -0.00812799 -0.01115424]] 
Episode: 39: [[ 0.00663896 -0.00046096 -0.00473049 -0.00890831 -0.00369948]
 [ 0.00620546  0.01402465 -0.01055246 -0.009056    0.0067884 ]
 [ 0.00164142  0.01059301 -0.01592532 -0.01619547 -0.00124915]
 [ 0.00072057  0.0079515  -0.02438823  0.01194901 -0.00230542]
 [-0.00371953  0.00891585 -0.01842386 -0.00801461 -0.01127491]] 
Episode: 40: [[ 0.00672339 -0.00048069 -0.00493745 -0.00918415 -0.00370311]
 [ 0.00633877  0.01439394 -0.0106014  -0.00953885  0.00658634]
 [ 0.0017454   0.01096615 -0.01626566 -0.01663896 -0.00143558]
 [ 0.00070991  0.00828197 -0.02507162  0.01200322 -0.00261739]
 [-0.00374681  0.00928392 -0.01898868 -0.00792193 -0.01140143]] 
Episode: 41: [[ 0.00686881 -0.00065701 -0.00512636 -0.00952142 -0.00370295]
 [ 0.00652472  0.01493033 -0.01056192 -0.01019718  0.00644425]
 [ 0.00182839  0.01151617 -0.01652086 -0.01723297 -0.00161062]
 [ 0.00089166  0.00873674 -0.02572457  0.01210561 -0.00283443]
 [-0.00359542  0.00976446 -0.01950814 -0.00778098 -0.01144161]] 
Episode: 42: [[ 0.00690453 -0.00075032 -0.00533597 -0.00977201 -0.00369368]
 [ 0.00658387  0.0153353  -0.01058358 -0.0106854   0.0063442 ]
 [ 0.00180647  0.01190213 -0.01687956 -0.01774547 -0.00179017]
 [ 0.00088629  0.0090372  -0.02645335  0.01222967 -0.00296697]
 [-0.00357878  0.01009473 -0.0201065  -0.00774662 -0.01156023]] 
Episode: 43: [[ 0.00682337 -0.00085756 -0.00552212 -0.00995594 -0.00370406]
 [ 0.00651907  0.015648   -0.01063054 -0.01104395  0.00621191]
 [ 0.00168714  0.01219871 -0.017293   -0.0182341  -0.00204313]
 [ 0.00077783  0.00923246 -0.02720249  0.01229731 -0.00302988]
 [-0.00374071  0.0103183  -0.02072656 -0.00770798 -0.01169281]] 
Episode: 44: [[ 0.00671913 -0.00093496 -0.00577077 -0.01020634 -0.00379964]
 [ 0.00647823  0.0159614  -0.0107637  -0.01141857  0.00597151]
 [ 0.00157606  0.01248492 -0.01778192 -0.01871025 -0.00231627]
 [ 0.00065525  0.00941433 -0.02802431  0.01252631 -0.00298511]
 [-0.00389612  0.01048896 -0.02141895 -0.00762041 -0.01180562]] 
Episode: 45: [[ 0.00666119 -0.00122538 -0.00613803 -0.01050778 -0.00390962]
 [ 0.00648919  0.0162838  -0.01094982 -0.01177951  0.00575254]
 [ 0.00147586  0.01279845 -0.01832835 -0.01910315 -0.00254443]
 [ 0.0005678   0.00961182 -0.02885296  0.01284916 -0.00288661]
 [-0.0040118   0.01070204 -0.02215778 -0.00743694 -0.01190775]] 
Episode: 46: [[ 0.00661728 -0.00151251 -0.00648018 -0.01078159 -0.00401209]
 [ 0.00648892  0.0165964  -0.01118879 -0.01212531  0.00556935]
 [ 0.00138892  0.01305432 -0.01890158 -0.0193919  -0.00271202]
 [ 0.00047307  0.00974972 -0.02969169  0.01327733 -0.00282889]
 [-0.00414945  0.01082313 -0.02292269 -0.00718828 -0.0119646 ]] 
Episode: 47: [[ 0.00651952 -0.00176543 -0.00684275 -0.01094436 -0.00406518]
 [ 0.00638017  0.01683634 -0.01146825 -0.01237587  0.0053824 ]
 [ 0.00120624  0.01321374 -0.01944905 -0.01970234 -0.0028558 ]
 [ 0.00027508  0.0097533  -0.03048588  0.01350669 -0.0027488 ]
 [-0.00439233  0.01084561 -0.02363798 -0.00684767 -0.01191012]] 
Episode: 48: [[ 6.34059170e-03 -2.00271118e-03 -7.16422917e-03 -1.10555151e-02
  -4.13020980e-03]
 [ 6.18207129e-03  1.70413554e-02 -1.17349206e-02 -1.25376973e-02
   5.17719798e-03]
 [ 9.52632923e-04  1.33402105e-02 -2.00018156e-02 -2.00124700e-02
  -3.06384545e-03]
 [ 2.09444624e-05  9.72225051e-03 -3.12813893e-02  1.36588365e-02
  -2.68920744e-03]
 [-4.74522309e-03  1.08273467e-02 -2.43467409e-02 -6.52682967e-03
  -1.19000766e-02]] 
Episode: 49: [[ 0.00615592 -0.00223406 -0.00740657 -0.01116944 -0.00422746]
 [ 0.00597047  0.01722064 -0.01191352 -0.01268971  0.00488435]
 [ 0.00068298  0.01347132 -0.02056729 -0.02024243 -0.00332082]
 [-0.00028644  0.00971303 -0.03212273  0.01375287 -0.00254854]
 [-0.00513155  0.01085134 -0.02509603 -0.00617876 -0.01191164]] 
Episode: 50: [[ 0.00597099 -0.00244952 -0.00761924 -0.01133298 -0.00431609]
 [ 0.00576475  0.01741921 -0.01213417 -0.01286189  0.00466294]
 [ 0.00043128  0.01361012 -0.0211619  -0.02051904 -0.00348743]
 [-0.00057215  0.00970108 -0.03296276  0.01398247 -0.00237781]
 [-0.00545274  0.0108795  -0.02585988 -0.00591237 -0.01204644]] 
Episode: 51: [[ 0.00590045 -0.00258879 -0.0077856  -0.01150084 -0.00447734]
 [ 0.00563782  0.01745895 -0.01228959 -0.01309404  0.00433247]
 [ 0.00027428  0.01376149 -0.02177292 -0.02075381 -0.00368482]
 [-0.00075678  0.00975887 -0.03380626  0.01432346 -0.00224741]
 [-0.00564883  0.01090066 -0.02665903 -0.0055722  -0.01221891]] 
Episode: 52: [[ 0.00583035 -0.00273238 -0.00794499 -0.01166585 -0.0046182 ]
 [ 0.00551212  0.01750253 -0.01245542 -0.01332774  0.00403891]
 [ 0.0001157   0.01388263 -0.02235459 -0.02095581 -0.00387754]
 [-0.00093644  0.00978449 -0.03461151  0.01462551 -0.00211463]
 [-0.0058539   0.01088875 -0.02741531 -0.00527162 -0.01239808]] 
Episode: 53: [[ 5.82801225e-03 -2.85419193e-03 -8.06221832e-03 -1.19051300e-02
  -4.78095608e-03]
 [ 5.44368010e-03  1.75685342e-02 -1.25759458e-02 -1.36647178e-02
   3.72518040e-03]
 [ 1.05573226e-05  1.40377274e-02 -2.29318738e-02 -2.11984850e-02
  -4.07972932e-03]
 [-1.08066958e-03  9.85211227e-03 -3.54226008e-02  1.49044162e-02
  -2.00148579e-03]
 [-6.00662362e-03  1.08950315e-02 -2.81776227e-02 -5.00690751e-03
  -1.26020154e-02]] 
Episode: 54: [[ 5.8538816e-03 -2.8929205e-03 -8.1633134e-03 -1.2125284e-02
  -4.9164472e-03]
 [ 5.3838636e-03  1.7576486e-02 -1.2652494e-02 -1.4007705e-02
   3.4343284e-03]
 [-8.0796919e-05  1.4168711e-02 -2.3469403e-02 -2.1406844e-02
  -4.2614755e-03]
 [-1.2358072e-03  9.9280151e-03 -3.6198482e-02  1.5196105e-02
  -1.9323466e-03]
 [-6.1505688e-03  1.0899133e-02 -2.8907912e-02 -4.7671758e-03
  -1.2818439e-02]] 
Episode: 55: [[ 0.00588213 -0.00310092 -0.00805631 -0.01240991 -0.00506479]
 [ 0.00536215  0.01762667 -0.01254503 -0.014416    0.00322141]
 [-0.00012559  0.01433663 -0.02395695 -0.02172537 -0.00434413]
 [-0.00134633  0.01002324 -0.03698701  0.01530587 -0.0019383 ]
 [-0.0061788   0.0108693  -0.02961779 -0.00444475 -0.0127777 ]] 
Episode: 56: [[ 0.0059183  -0.00328278 -0.00789726 -0.01267694 -0.0051746 ]
 [ 0.00535584  0.0176376  -0.01238067 -0.01480465  0.00300604]
 [-0.00016827  0.0144804  -0.02445591 -0.02203781 -0.00454683]
 [-0.00147557  0.01014235 -0.03779341  0.01532605 -0.00185147]
 [-0.00628302  0.01092374 -0.0303459  -0.00417427 -0.0126132 ]] 
Episode: 57: [[ 0.00602284 -0.00332454 -0.00783344 -0.01291265 -0.00528117]
 [ 0.00541424  0.01768167 -0.01242275 -0.0151265   0.00285744]
 [-0.000183    0.01461106 -0.02505435 -0.0222811  -0.00464703]
 [-0.00158274  0.01023273 -0.03865777  0.01548293 -0.00178116]
 [-0.0064033   0.01084686 -0.03113738 -0.00381725 -0.01250707]] 
Episode: 58: [[ 0.00613885 -0.0034295  -0.00798746 -0.01299964 -0.00527018]
 [ 0.00548034  0.01781826 -0.01270799 -0.01521992  0.00294812]
 [-0.00022636  0.01469375 -0.02578498 -0.02241808 -0.00460022]
 [-0.00180596  0.01024997 -0.03962559  0.01568628 -0.00160042]
 [-0.00658573  0.01066355 -0.03202833 -0.00348581 -0.01239133]] 
Episode: 59: [[ 0.00618651 -0.0035026  -0.00815389 -0.01307835 -0.00525459]
 [ 0.00549059  0.01792309 -0.01305264 -0.01529186  0.00305773]
 [-0.00031411  0.01474633 -0.02647014 -0.02257482 -0.00457989]
 [-0.00203891  0.01022327 -0.04052341  0.01586311 -0.00132022]
 [-0.00677292  0.01047333 -0.03284248 -0.00312576 -0.01225624]] 
Episode: 60: [[ 0.00615391 -0.00357217 -0.00830487 -0.01312261 -0.00523719]
 [ 0.00541477  0.01797578 -0.01337069 -0.0153549   0.00314049]
 [-0.00047583  0.0147768  -0.0270603  -0.02275842 -0.00461122]
 [-0.00230419  0.01018453 -0.04130661  0.01600507 -0.00103853]
 [-0.00708928  0.01031072 -0.03353033 -0.00279162 -0.01222507]] 
Episode: 61: [[ 0.00602105 -0.00362117 -0.00844159 -0.01314362 -0.00523402]
 [ 0.00523923  0.0180143  -0.01367624 -0.01538883  0.00318416]
 [-0.00071307  0.01479019 -0.02760359 -0.02301738 -0.00468103]
 [-0.00260722  0.01012901 -0.04202107  0.01611827 -0.00071579]
 [-0.00750714  0.01014182 -0.03415226 -0.00246905 -0.01218102]] 
Episode: 62: [[ 0.00584594 -0.00373057 -0.00861151 -0.01320868 -0.00529295]
 [ 0.00502406  0.01812165 -0.0139801  -0.0154591   0.00316739]
 [-0.0009773   0.01483067 -0.02814936 -0.02327782 -0.00483947]
 [-0.00292892  0.01004602 -0.0427739   0.01622528 -0.00042068]
 [-0.00788644  0.0099627  -0.03480063 -0.00205033 -0.01217447]] 
Episode: 63: [[ 0.00567188 -0.00389611 -0.00886173 -0.01328612 -0.00534749]
 [ 0.0048682   0.01822514 -0.01437765 -0.01545276  0.00321435]
 [-0.00122316  0.01482872 -0.02873486 -0.0233935  -0.00493156]
 [-0.00328657  0.00994402 -0.04354892  0.01641565 -0.00019809]
 [-0.00830856  0.00977605 -0.03545364 -0.00172695 -0.01218922]] 
Episode: 64: [[ 5.59286866e-03 -3.88668641e-03 -8.95602629e-03 -1.32233091e-02
  -5.38475718e-03]
 [ 4.80144657e-03  1.82800479e-02 -1.46683259e-02 -1.52746225e-02
   3.27083515e-03]
 [-1.44563208e-03  1.47698279e-02 -2.93323230e-02 -2.34688222e-02
  -4.95546963e-03]
 [-3.63943120e-03  9.80392192e-03 -4.42976244e-02  1.66075323e-02
   6.44769170e-05]
 [-8.73609167e-03  9.53350775e-03 -3.60459015e-02 -1.46473013e-03
  -1.22341895e-02]] 
Episode: 65: [[ 0.00551515 -0.00403652 -0.00931265 -0.01348099 -0.00561571]
 [ 0.00476607  0.01843365 -0.01500133 -0.01539543  0.0030767 ]
 [-0.00154073  0.01501679 -0.02950732 -0.0237392  -0.00514716]
 [-0.00364741  0.00990382 -0.04480961  0.0166711   0.00017918]
 [-0.0090347   0.00952329 -0.03632012 -0.00123977 -0.0119349 ]] 
Episode: 66: [[ 0.00543472 -0.00416068 -0.00974976 -0.01373628 -0.00587146]
 [ 0.00474224  0.01853921 -0.0154434  -0.01553948  0.0028    ]
 [-0.00162363  0.01521984 -0.02965029 -0.02394922 -0.00537055]
 [-0.00365079  0.00999006 -0.04521913  0.01671318  0.00018258]
 [-0.00933079  0.00947662 -0.03652091 -0.00092751 -0.01164177]] 
Episode: 67: [[ 0.00546309 -0.00429694 -0.01001141 -0.01404225 -0.0062065 ]
 [ 0.0047996   0.01874972 -0.01592596 -0.01568114  0.0025122 ]
 [-0.00168437  0.01552738 -0.02979042 -0.02412556 -0.0056851 ]
 [-0.00359554  0.01013809 -0.0456329   0.01695136  0.00041159]
 [-0.00957456  0.00949427 -0.03672186 -0.00057844 -0.01142688]] 
Episode: 68: [[ 0.00547078 -0.00443154 -0.01024078 -0.01429569 -0.00647627]
 [ 0.00483725  0.0189586  -0.01637656 -0.01576869  0.00232433]
 [-0.00173953  0.01581949 -0.02994842 -0.02425171 -0.0058424 ]
 [-0.00356926  0.01027413 -0.04604409  0.01714248  0.00059796]
 [-0.00980633  0.00951805 -0.03692451 -0.00023706 -0.0112346 ]] 
Episode: 69: [[ 5.48912864e-03 -4.56217816e-03 -1.04414513e-02 -1.45474290e-02
  -6.73699053e-03]
 [ 4.88732057e-03  1.91404652e-02 -1.67279150e-02 -1.58658307e-02
   2.13120086e-03]
 [-1.77516742e-03  1.60901360e-02 -3.01217716e-02 -2.43346039e-02
  -5.96117182e-03]
 [-3.55366734e-03  1.04210945e-02 -4.64897156e-02  1.73280686e-02
   8.30055622e-04]
 [-1.00035788e-02  9.54403728e-03 -3.71679403e-02  6.96017305e-05
  -1.10540316e-02]] 
Episode: 70: [[ 0.00552215 -0.00464926 -0.01066473 -0.01471769 -0.0068121 ]
 [ 0.00497632  0.01936845 -0.0170217  -0.01592768  0.00216768]
 [-0.00183155  0.01640877 -0.03034748 -0.02464548 -0.00597562]
 [-0.0035834   0.01061707 -0.04697496  0.01729175  0.00092152]
 [-0.01023599  0.00970457 -0.03745109  0.00020944 -0.01086362]] 
Episode: 71: [[ 0.0056717  -0.00482271 -0.01072082 -0.01502198 -0.00684367]
 [ 0.00508548  0.019408   -0.0169559  -0.01604464  0.00229093]
 [-0.00189019  0.01668213 -0.03063007 -0.02493003 -0.00570988]
 [-0.00359502  0.0108012  -0.04749313  0.0170645   0.00079586]
 [-0.010363    0.00984474 -0.0378431   0.00048713 -0.01062083]] 
Episode: 72: [[ 0.00570833 -0.00498945 -0.01069613 -0.01527273 -0.00687923]
 [ 0.0050771   0.01939903 -0.01683941 -0.01612117  0.00233948]
 [-0.0020449   0.01686388 -0.03098976 -0.02520167 -0.00558734]
 [-0.00368199  0.01089087 -0.04812152  0.01676918  0.00079315]
 [-0.01059821  0.00994945 -0.03830211  0.00080736 -0.0103432 ]] 
Episode: 73: [[ 0.00573446 -0.00536714 -0.01077753 -0.01550612 -0.0069379 ]
 [ 0.00502172  0.01937617 -0.01682232 -0.01618383  0.00239494]
 [-0.00218483  0.01694166 -0.03147697 -0.02524276 -0.00548751]
 [-0.00378437  0.01087622 -0.04884425  0.01663025  0.00077901]
 [-0.01081007  0.0099086  -0.03888857  0.00124219 -0.01013926]] 
Episode: 74: [[ 0.00574991 -0.00566429 -0.01082364 -0.01569951 -0.00698892]
 [ 0.00495533  0.01930941 -0.01675398 -0.01625672  0.00233808]
 [-0.00232488  0.01698763 -0.03196068 -0.02531714 -0.00552765]
 [-0.00386998  0.0108349  -0.04956984  0.01643806  0.00070665]
 [-0.01104789  0.00983488 -0.03946847  0.0017084  -0.0099955 ]] 
Episode: 75: [[ 0.00591807 -0.00598077 -0.01094168 -0.01594834 -0.00705178]
 [ 0.00505616  0.01929129 -0.01665733 -0.01643726  0.00230873]
 [-0.00229108  0.01712821 -0.03226847 -0.02538039 -0.00536194]
 [-0.00379239  0.01095981 -0.05005613  0.01639099  0.00058227]
 [-0.01099746  0.00997142 -0.03986346  0.00204677 -0.00995706]] 
Episode: 76: [[ 0.00648709 -0.00655799 -0.01106295 -0.01642197 -0.00703792]
 [ 0.00561428  0.01946419 -0.01634815 -0.01686727  0.00257891]
 [-0.00183424  0.01771673 -0.03253279 -0.02537083 -0.00489347]
 [-0.00335201  0.01156136 -0.05051472  0.01654042  0.00035969]
 [-0.01055832  0.01061037 -0.04034605  0.00195831 -0.01027593]] 
Episode: 77: [[ 0.0068095  -0.00699306 -0.01104853 -0.01669402 -0.00700805]
 [ 0.00589878  0.01949685 -0.01603268 -0.01709351  0.00276704]
 [-0.00164008  0.01811153 -0.0327878  -0.02556724 -0.00477909]
 [-0.00309098  0.01194279 -0.05092453  0.01648491  0.00019147]
 [-0.01036403  0.0111159  -0.04075408  0.00208325 -0.01051403]] 
Episode: 78: [[ 7.0876707e-03 -7.4452711e-03 -1.0962619e-02 -1.6947133e-02
  -6.9733793e-03]
 [ 6.1524599e-03  1.9541705e-02 -1.5747588e-02 -1.7283816e-02
   2.9760341e-03]
 [-1.4732048e-03  1.8475261e-02 -3.3150975e-02 -2.5697149e-02
  -4.6076053e-03]
 [-2.8990665e-03  1.2298407e-02 -5.1470801e-02  1.6415399e-02
  -1.1316142e-06]
 [-1.0230420e-02  1.1599109e-02 -4.1247137e-02  2.2920594e-03
  -1.0700358e-02]] 
Episode: 79: [[ 0.0074061  -0.00782715 -0.01080122 -0.01720318 -0.00693335]
 [ 0.0064426   0.0195721  -0.01542994 -0.01750534  0.00318978]
 [-0.00126016  0.01883525 -0.03355775 -0.02578144 -0.00437177]
 [-0.00267661  0.01266331 -0.0520864   0.01637784 -0.00018727]
 [-0.01000847  0.01204739 -0.04179594  0.00247647 -0.01099074]] 
Episode: 80: [[ 0.00761072 -0.00812028 -0.01066203 -0.01739468 -0.00690088]
 [ 0.0066515   0.01956302 -0.01514629 -0.01763652  0.00335651]
 [-0.00113485  0.01912693 -0.03394315 -0.02589009 -0.00415486]
 [-0.00255814  0.01297558 -0.0526449   0.016187   -0.00024584]
 [-0.00986306  0.01242713 -0.04228617  0.00269977 -0.01118499]] 
Episode: 81: [[ 0.00778008 -0.00836249 -0.01058952 -0.01757113 -0.00684393]
 [ 0.00682266  0.01956373 -0.0149268  -0.0177693   0.00351817]
 [-0.00103157  0.01939242 -0.03427379 -0.02601753 -0.00394795]
 [-0.00246858  0.01326962 -0.05316945  0.01596272 -0.00028812]
 [-0.00972371  0.01278853 -0.04269554  0.00291033 -0.01135504]] 
Episode: 82: [[ 0.00795524 -0.00865288 -0.01055823 -0.01777385 -0.00678099]
 [ 0.00702074  0.01965176 -0.01475482 -0.01793499  0.00370376]
 [-0.00090023  0.01969948 -0.03461345 -0.026093   -0.00370092]
 [-0.002371    0.01361627 -0.05371678  0.01581696 -0.00028462]
 [-0.00961121  0.01319968 -0.04314848  0.00313539 -0.01154955]] 
Episode: 83: [[ 0.0079979  -0.00890332 -0.01051436 -0.0179249  -0.00672834]
 [ 0.00708645  0.01971079 -0.01457067 -0.01803771  0.00385663]
 [-0.00088184  0.01996488 -0.03490984 -0.02626338 -0.0035338 ]
 [-0.00236288  0.01391334 -0.05421189  0.01556378 -0.00034409]
 [-0.00960864  0.01359437 -0.04352643  0.00340827 -0.01171694]] 
Episode: 84: [[ 0.00822396 -0.00942741 -0.0105265  -0.01829856 -0.0066246 ]
 [ 0.00735467  0.02016334 -0.01442782 -0.01839608  0.0040613 ]
 [-0.0006787   0.02042123 -0.03498865 -0.02657416 -0.00336378]
 [-0.00217799  0.01437503 -0.0545409   0.01552578 -0.00056916]
 [-0.00947027  0.01405219 -0.04372041  0.00355351 -0.01181582]] 
Episode: 85: [[ 0.00827668 -0.00989968 -0.01054233 -0.01859334 -0.00652342]
 [ 0.00744041  0.02056075 -0.01433044 -0.01869475  0.00422397]
 [-0.00063787  0.02081385 -0.03511078 -0.02695268 -0.00324566]
 [-0.0021233   0.0147631  -0.05491414  0.015421   -0.00071041]
 [-0.00953192  0.01448199 -0.04393072  0.00366986 -0.01201597]] 
Episode: 86: [[ 0.00829727 -0.01027218 -0.0105286  -0.01885521 -0.00639731]
 [ 0.00750016  0.02088897 -0.0142433  -0.01899081  0.00435112]
 [-0.00061215  0.0211681  -0.03528169 -0.02735686 -0.00318549]
 [-0.00213361  0.01511702 -0.05534592  0.01534551 -0.00085231]
 [-0.00955415  0.01484753 -0.04418547  0.00382672 -0.01224132]] 
Episode: 87: [[ 0.00824204 -0.01051833 -0.01050504 -0.01903861 -0.00628631]
 [ 0.00747039  0.02113172 -0.0141708  -0.01919682  0.00444167]
 [-0.00067311  0.02143083 -0.03547139 -0.02778996 -0.00327932]
 [-0.00220538  0.01537506 -0.05577282  0.01521277 -0.00095965]
 [-0.00964383  0.01512981 -0.04443771  0.00400139 -0.01244449]] 
Episode: 88: [[ 0.0082598  -0.01075159 -0.0104931  -0.01920227 -0.00621456]
 [ 0.00746915  0.0211908  -0.01417543 -0.01938595  0.00443286]
 [-0.00072733  0.02162259 -0.03577845 -0.02812507 -0.00335243]
 [-0.00227513  0.01558522 -0.05624618  0.01526625 -0.00105037]
 [-0.00973581  0.01530783 -0.04476993  0.00416288 -0.01269315]] 
Episode: 89: [[ 0.00843194 -0.01095597 -0.01039121 -0.01941224 -0.00616021]
 [ 0.00763615  0.02134041 -0.01407977 -0.01966772  0.00444315]
 [-0.00062598  0.02195795 -0.03598905 -0.02848075 -0.00337336]
 [-0.00219983  0.01600079 -0.05662855  0.01539732 -0.00121959]
 [-0.00965903  0.0156529  -0.04502768  0.0040759  -0.01308309]] 
Episode: 90: [[ 0.00860995 -0.01110896 -0.01025794 -0.019603   -0.00606725]
 [ 0.00778183  0.02151017 -0.01403006 -0.01994057  0.00452434]
 [-0.00053779  0.02229035 -0.03621675 -0.02883194 -0.00329878]
 [-0.00219726  0.01641638 -0.05704103  0.01543114 -0.00141578]
 [-0.00960049  0.01596827 -0.04528343  0.00401873 -0.01333623]] 
Episode: 91: [[ 0.0088196  -0.01142528 -0.01016705 -0.01987729 -0.00596874]
 [ 0.00795959  0.02171886 -0.01393065 -0.0202918   0.00468231]
 [-0.00040482  0.02268489 -0.03638995 -0.02920366 -0.00310624]
 [-0.00212312  0.0169034  -0.05743617  0.01554105 -0.00154493]
 [-0.0094473   0.01630624 -0.04552646  0.00390913 -0.01366622]] 
Episode: 92: [[ 0.00907972 -0.01185631 -0.01012912 -0.02025229 -0.00593228]
 [ 0.00820465  0.02200407 -0.01382313 -0.02076013  0.00477623]
 [-0.00020558  0.02318073 -0.03650756 -0.02954257 -0.00283949]
 [-0.00193546  0.01749378 -0.05776004  0.01573116 -0.00172625]
 [-0.0092065   0.0167299  -0.04571157  0.00386786 -0.01398417]] 
Episode: 93: [[ 9.3778195e-03 -1.2132527e-02 -1.0046909e-02 -2.0635989e-02
  -5.9472248e-03]
 [ 8.4477030e-03  2.2296678e-02 -1.3701632e-02 -2.1238999e-02
   4.7971280e-03]
 [-3.4274613e-05  2.3617255e-02 -3.6636043e-02 -2.9898498e-02
  -2.6695358e-03]
 [-1.6377779e-03  1.8005289e-02 -5.8168996e-02  1.6005706e-02
  -2.0352213e-03]
 [-8.9767501e-03  1.7006623e-02 -4.5915596e-02  3.7537101e-03
  -1.4284126e-02]] 
Episode: 94: [[ 9.5578711e-03 -1.2331842e-02 -9.9954829e-03 -2.0930516e-02
  -5.9608081e-03]
 [ 8.5682999e-03  2.2508090e-02 -1.3640362e-02 -2.1591149e-02
   4.8293332e-03]
 [ 2.4941985e-05  2.3933617e-02 -3.6708511e-02 -3.0253544e-02
  -2.5978480e-03]
 [-1.4580444e-03  1.8368699e-02 -5.8481902e-02  1.6138354e-02
  -2.2688524e-03]
 [-8.8431016e-03  1.7207496e-02 -4.6026476e-02  3.7552794e-03
  -1.4447757e-02]] 
Episode: 95: [[ 9.5889559e-03 -1.2492482e-02 -9.9484753e-03 -2.1152874e-02
  -5.9784073e-03]
 [ 8.5458765e-03  2.2647457e-02 -1.3598573e-02 -2.1838142e-02
   4.8632631e-03]
 [-5.0630930e-05  2.4187744e-02 -3.6764469e-02 -3.0677039e-02
  -2.5904349e-03]
 [-1.3935381e-03  1.8658224e-02 -5.8751728e-02  1.6178992e-02
  -2.3282268e-03]
 [-8.8770213e-03  1.7394453e-02 -4.6095148e-02  3.7762085e-03
  -1.4590366e-02]] 
Episode: 96: [[ 0.00957563 -0.01264484 -0.00987991 -0.02134972 -0.00601126]
 [ 0.00849134  0.02276499 -0.01352245 -0.0220487   0.00483719]
 [-0.00015275  0.02441745 -0.03682209 -0.03104628 -0.00261478]
 [-0.00138058  0.01892449 -0.05901052  0.01618597 -0.00235306]
 [-0.00894481  0.01755353 -0.0461739   0.00385212 -0.01466919]] 
Episode: 97: [[ 0.0094791  -0.01274854 -0.00983146 -0.02150279 -0.0060551 ]
 [ 0.0083602   0.02283547 -0.01346894 -0.02218486  0.00478986]
 [-0.00033216  0.02459035 -0.03688892 -0.0314277  -0.00270087]
 [-0.00144134  0.01911933 -0.05927818  0.01614985 -0.00231365]
 [-0.00910765  0.0176685  -0.04624891  0.00397214 -0.01475646]] 
Episode: 98: [[ 0.00934099 -0.01282881 -0.00976857 -0.02162436 -0.00609639]
 [ 0.00818135  0.02286723 -0.01341528 -0.02229305  0.00471994]
 [-0.00055548  0.02469337 -0.03697931 -0.03178978 -0.00283731]
 [-0.00158182  0.01922447 -0.05959861  0.01607951 -0.00219495]
 [-0.00931248  0.01771456 -0.04635097  0.00412914 -0.01484022]] 
Episode: 99: [[ 0.00919324 -0.01285903 -0.00974654 -0.02173063 -0.00615028]
 [ 0.00797439  0.02286237 -0.01345066 -0.02237593  0.00466514]
 [-0.00077467  0.02474046 -0.03718258 -0.0320365  -0.0029235 ]
 [-0.00176297  0.01925424 -0.06003714  0.01616068 -0.00204732]
 [-0.00953482  0.01768861 -0.046579    0.00423991 -0.01493737]] 
Episode: 100: [[ 0.00906077 -0.01290655 -0.00975132 -0.02191707 -0.00620664]
 [ 0.0078107   0.02292272 -0.0135045  -0.02254615  0.00461381]
 [-0.00093158  0.02483406 -0.03736574 -0.03218196 -0.00297428]
 [-0.00186256  0.01931464 -0.06044115  0.01634173 -0.0019704 ]
 [-0.00974632  0.01759483 -0.04679805  0.00436742 -0.01503528]] 
Episode: 101: [[ 0.00906061 -0.01296557 -0.00969722 -0.02221538 -0.00627985]
 [ 0.00777599  0.02301674 -0.01352695 -0.02287826  0.00459288]
 [-0.00094498  0.02496028 -0.03751241 -0.03231253 -0.00292884]
 [-0.00187567  0.01939599 -0.06081064  0.01663331 -0.00213749]
 [-0.00977082  0.01751315 -0.04698594  0.00447805 -0.01515136]] 
Episode: 102: [[ 0.0090952  -0.01303718 -0.00965238 -0.02253848 -0.00641897]
 [ 0.00776554  0.02312138 -0.01357445 -0.02328045  0.0044738 ]
 [-0.00093178  0.02511129 -0.03773564 -0.03247045 -0.00291305]
 [-0.00185666  0.01949191 -0.06127205  0.01700072 -0.00224191]
 [-0.00975102  0.01743854 -0.04726058  0.00447026 -0.01534888]] 
Episode: 103: [[ 0.00924857 -0.01311872 -0.00959947 -0.02296181 -0.00656562]
 [ 0.00787971  0.0232706  -0.0135682  -0.02379818  0.00440296]
 [-0.00081318  0.02532555 -0.03792043 -0.0326282  -0.00282507]
 [-0.00167295  0.01966238 -0.0617054   0.01750575 -0.00226516]
 [-0.00960698  0.01738534 -0.04751917  0.00442954 -0.01563904]] 
Episode: 104: [[ 0.00942436 -0.01319468 -0.00953968 -0.02347651 -0.00691041]
 [ 0.00804626  0.02340745 -0.01354997 -0.0244136   0.00411696]
 [-0.0006181   0.02550315 -0.03815553 -0.03268095 -0.00266631]
 [-0.00145582  0.01981004 -0.06225242  0.01796062 -0.00228673]
 [-0.00929125  0.01733484 -0.0478727   0.00439265 -0.01593083]] 
Episode: 105: [[ 0.00962451 -0.01324222 -0.0095337  -0.02394682 -0.00723649]
 [ 0.00824019  0.02352816 -0.01345347 -0.02498162  0.00384634]
 [-0.00041598  0.02567973 -0.03840004 -0.03276262 -0.00252151]
 [-0.00123018  0.02000705 -0.06286542  0.01836314 -0.00226064]
 [-0.00897509  0.0173635  -0.04827565  0.00428941 -0.01624155]] 
Episode: 106: [[ 0.00972751 -0.01329977 -0.0094931  -0.0243495  -0.00754715]
 [ 0.00834935  0.02363262 -0.01344368 -0.02545061  0.0035714 ]
 [-0.00030907  0.02581059 -0.0386255  -0.03293619 -0.00245364]
 [-0.00110813  0.02009962 -0.06339943  0.01863151 -0.00216333]
 [-0.00876602  0.01734933 -0.04859582  0.00418422 -0.01655248]] 
Episode: 107: [[ 0.00978609 -0.01334902 -0.00946959 -0.0247274  -0.00784033]
 [ 0.00841168  0.02373034 -0.01343208 -0.02588804  0.00329157]
 [-0.00025277  0.02593171 -0.03883579 -0.03316069 -0.00244643]
 [-0.00101721  0.02018112 -0.06391589  0.01884498 -0.00205539]
 [-0.00861933  0.01734343 -0.04888664  0.00410067 -0.01686983]] 
Episode: 108: [[ 0.00981984 -0.01339186 -0.00944548 -0.0250715  -0.00811849]
 [ 0.00843589  0.0238028  -0.01340477 -0.02630414  0.00299269]
 [-0.00021869  0.02602903 -0.03912132 -0.0333872  -0.00248211]
 [-0.000971    0.02023582 -0.06452478  0.01905251 -0.00202855]
 [-0.00850662  0.01728876 -0.04927479  0.00399014 -0.01722136]] 
Episode: 109: [[ 0.00985356 -0.0134412  -0.00942072 -0.02535311 -0.00834054]
 [ 0.00845194  0.02387362 -0.01340019 -0.02665922  0.00274326]
 [-0.00019612  0.02610758 -0.0393851  -0.03357299 -0.00253469]
 [-0.00092678  0.02026511 -0.06508146  0.01925818 -0.00203565]
 [-0.0084005   0.01721543 -0.04962273  0.00390307 -0.01752195]] 
Episode: 110: [[ 0.00977788 -0.01342639 -0.0094461  -0.02555276 -0.00854071]
 [ 0.00836422  0.0239062  -0.0133997  -0.02687053  0.00252152]
 [-0.00027811  0.02610664 -0.03979496 -0.03370225 -0.00264809]
 [-0.00101437  0.02019845 -0.06580189  0.01925438 -0.00211758]
 [-0.008426    0.01710755 -0.05014452  0.00399216 -0.01772935]] 
Episode: 111: [[ 0.0096503  -0.01346092 -0.00954354 -0.02572897 -0.0087569 ]
 [ 0.00822917  0.02392074 -0.01346176 -0.02704711  0.00225688]
 [-0.00041022  0.02613001 -0.04024374 -0.03391    -0.00273859]
 [-0.00117496  0.02017265 -0.06656663  0.01911272 -0.0022332 ]
 [-0.00850818  0.01703976 -0.05070689  0.00407507 -0.0180614 ]] 
Episode: 112: [[ 0.00952793 -0.01350927 -0.009616   -0.02590877 -0.00889525]
 [ 0.00811114  0.02394876 -0.01340982 -0.02724231  0.00225965]
 [-0.00051376  0.02618284 -0.04061296 -0.03409451 -0.00268373]
 [-0.00132348  0.02016572 -0.06729271  0.01882208 -0.00257263]
 [-0.00861358  0.01700137 -0.05119547  0.00409327 -0.01808859]] 
Episode: 113: [[ 0.00948554 -0.01356899 -0.00962068 -0.02608682 -0.00901132]
 [ 0.00806466  0.02398666 -0.01327877 -0.0274349   0.00236007]
 [-0.00055613  0.02629179 -0.04093993 -0.03433691 -0.00258222]
 [-0.00138028  0.02025872 -0.06797393  0.01846943 -0.00293634]
 [-0.00863095  0.01709624 -0.05164798  0.00402064 -0.01809041]] 
Episode: 114: [[ 0.00941137 -0.01362707 -0.00971061 -0.02631222 -0.00916313]
 [ 0.00802393  0.02412951 -0.01325846 -0.02761215  0.00249328]
 [-0.00059205  0.02644209 -0.04121057 -0.03464564 -0.00246996]
 [-0.00144201  0.0203664  -0.06856424  0.01803385 -0.00345954]
 [-0.00863878  0.01724473 -0.05203111  0.00387901 -0.01816702]] 
Episode: 115: [[ 0.00937251 -0.01368057 -0.00980222 -0.02653513 -0.00930157]
 [ 0.00802673  0.02424124 -0.01321274 -0.02782508  0.00252288]
 [-0.00059678  0.02660144 -0.04147745 -0.03499584 -0.00245822]
 [-0.00150123  0.02053117 -0.06915877  0.01751822 -0.00406468]
 [-0.00862957  0.01744302 -0.05241558  0.00370961 -0.01827299]] 
Episode: 116: [[ 0.00937513 -0.01376249 -0.00989254 -0.02675805 -0.00941205]
 [ 0.00806157  0.02436669 -0.01316651 -0.02806657  0.0025564 ]
 [-0.00056938  0.02677196 -0.04170582 -0.03529842 -0.00241568]
 [-0.00152062  0.02070634 -0.06967779  0.01707701 -0.00465656]
 [-0.0085881   0.01763247 -0.05274913  0.0035537  -0.01834695]] 
Episode: 117: [[ 0.00934042 -0.01376655 -0.01001397 -0.0269791  -0.00963325]
 [ 0.00806483  0.02451533 -0.01320759 -0.02833541  0.0024394 ]
 [-0.00058924  0.02688854 -0.04198545 -0.03558897 -0.00246336]
 [-0.00161178  0.02080287 -0.0702581   0.01658053 -0.00525577]
 [-0.00858824  0.01778138 -0.05313939  0.00345386 -0.01834332]] 
Episode: 118: [[ 0.00927219 -0.01377178 -0.01012959 -0.02717258 -0.00984204]
 [ 0.00802166  0.02461508 -0.01321184 -0.02856273  0.00231797]
 [-0.00065129  0.02695534 -0.04223701 -0.03588332 -0.00256701]
 [-0.00172423  0.02084553 -0.07081837  0.01611943 -0.00572366]
 [-0.00862373  0.01790006 -0.05350073  0.00338075 -0.01830801]] 
Episode: 119: [[ 0.00938363 -0.01388327 -0.01025831 -0.0274361  -0.01002677]
 [ 0.00813647  0.02475525 -0.01320246 -0.02888759  0.00224677]
 [-0.00054956  0.02712277 -0.04241657 -0.03613415 -0.00246954]
 [-0.00167378  0.02103934 -0.07126462  0.01576947 -0.00612463]
 [-0.0084659   0.01814444 -0.05378806  0.00319418 -0.01834271]] 
Episode: 120: [[ 0.00942694 -0.01404411 -0.01037493 -0.02768977 -0.01019286]
 [ 0.00820654  0.02491729 -0.0131825  -0.02918004  0.002181  ]
 [-0.00047325  0.02726468 -0.04257473 -0.0363466  -0.00241365]
 [-0.00165991  0.02119108 -0.07168669  0.01536475 -0.00655759]
 [-0.00832161  0.01834844 -0.05405312  0.00307562 -0.01834276]] 
Episode: 121: [[ 0.00945976 -0.01412473 -0.01050446 -0.02795779 -0.01033103]
 [ 0.00827248  0.0250698  -0.01314429 -0.02948779  0.00211916]
 [-0.00040681  0.02741322 -0.04275719 -0.03661833 -0.0023086 ]
 [-0.00169461  0.0213824  -0.07216045  0.01485322 -0.00676063]
 [-0.00817509  0.01862887 -0.05435345  0.00292077 -0.01847233]] 
Episode: 122: [[ 0.00951708 -0.01418019 -0.01062673 -0.02821137 -0.01045263]
 [ 0.00836469  0.02520618 -0.01310943 -0.02979183  0.00206338]
 [-0.00031138  0.02754994 -0.04293166 -0.0368753  -0.0021998 ]
 [-0.00169298  0.02155893 -0.07260541  0.01442532 -0.00697451]
 [-0.00801062  0.01888528 -0.05462116  0.00278927 -0.01865984]] 
Episode: 123: [[ 0.00952476 -0.01419974 -0.0107554  -0.02842461 -0.01055324]
 [ 0.008405    0.02532047 -0.01312557 -0.03003776  0.00203371]
 [-0.00027479  0.02765316 -0.0430942  -0.03714336 -0.0021318 ]
 [-0.0017296   0.0216835  -0.07302189  0.01399809 -0.00722153]
 [-0.00789932  0.0190917  -0.05485026  0.00277518 -0.01874927]] 
Episode: 124: [[ 0.00939659 -0.01415909 -0.0108501  -0.02856162 -0.01060392]
 [ 0.00831545  0.02532394 -0.01317821 -0.03015145  0.00205433]
 [-0.00034267  0.02758452 -0.04333448 -0.03737045 -0.00216544]
 [-0.00195702  0.02161555 -0.07353413  0.01357439 -0.00729397]
 [-0.00788543  0.01911943 -0.0551528   0.00276826 -0.01891066]] 
Episode: 125: [[ 0.00922742 -0.01410449 -0.01093124 -0.02865605 -0.01065421]
 [ 0.00817813  0.0253139  -0.01324395 -0.03020842  0.00205609]
 [-0.00046412  0.0275127  -0.04355514 -0.03759662 -0.00223938]
 [-0.00221747  0.02154185 -0.07400342  0.01313217 -0.00729455]
 [-0.00795279  0.01915352 -0.05541284  0.00277409 -0.01906685]] 
Episode: 126: [[ 0.00914039 -0.01409837 -0.01104001 -0.02876843 -0.01065865]
 [ 0.00812074  0.02532409 -0.01332925 -0.03032854  0.00211301]
 [-0.00050359  0.02745945 -0.04372868 -0.0377727  -0.00222974]
 [-0.00236306  0.02148851 -0.0744166   0.01274023 -0.00729596]
 [-0.00798208  0.01922818 -0.05561402  0.00273375 -0.01910426]] 
Episode: 127: [[ 0.00917215 -0.01406794 -0.01124684 -0.02884406 -0.01068952]
 [ 0.00815698  0.02534983 -0.01356426 -0.03032861  0.00216972]
 [-0.00053462  0.02744456 -0.04393427 -0.03783288 -0.00225326]
 [-0.00251316  0.02146061 -0.07485054  0.0124181  -0.00718897]
 [-0.00804242  0.01931934 -0.0558349   0.00276168 -0.01913202]] 
Episode: 128: [[ 0.00918636 -0.01397238 -0.01141482 -0.02891157 -0.0107423 ]
 [ 0.0081728   0.02535494 -0.01377829 -0.0303299   0.00218454]
 [-0.00057907  0.02741776 -0.04414535 -0.03791115 -0.00231397]
 [-0.00267121  0.02142256 -0.07527865  0.01208442 -0.00709242]
 [-0.0081313   0.01939047 -0.05606577  0.00282955 -0.01914276]] 
Episode: 129: [[ 0.00912786 -0.01387674 -0.01153421 -0.02899166 -0.01079318]
 [ 0.0081253   0.02535319 -0.01396416 -0.03035525  0.00221422]
 [-0.00067889  0.02736456 -0.0443638  -0.03800068 -0.00237872]
 [-0.00286706  0.02133907 -0.07571391  0.01174031 -0.00698007]
 [-0.0082926   0.01943853 -0.0562826   0.00287517 -0.01914068]] 
Episode: 130: [[ 0.00904413 -0.01370104 -0.01166695 -0.02906786 -0.01089137]
 [ 0.00804911  0.02533575 -0.01421248 -0.03035895  0.00221805]
 [-0.00080551  0.02728537 -0.04467772 -0.03797221 -0.00236164]
 [-0.00313488  0.02119971 -0.07624673  0.01162405 -0.00677997]
 [-0.00849532  0.0193937  -0.05658477  0.0029105  -0.01920056]] 
Episode: 131: [[ 0.00892044 -0.01350126 -0.01181651 -0.0290984  -0.01098032]
 [ 0.00793362  0.02531136 -0.01444958 -0.03030497  0.0022329 ]
 [-0.0009638   0.02717272 -0.04500414 -0.03787173 -0.00232389]
 [-0.00343837  0.02102813 -0.07680404  0.01146737 -0.00666142]
 [-0.00874082  0.01932416 -0.05687646  0.0029905  -0.01922769]] 
Episode: 132: [[ 0.00877383 -0.01351687 -0.01178439 -0.02916374 -0.01101003]
 [ 0.00784233  0.02531327 -0.01443292 -0.0302518   0.00253564]
 [-0.00109537  0.02712318 -0.04533168 -0.03789243 -0.00209635]
 [-0.00375663  0.02095743 -0.07734448  0.01114669 -0.00667556]
 [-0.00891573  0.01930566 -0.05720865  0.00316224 -0.01916393]] 
Episode: 133: [[ 0.00878865 -0.01423785 -0.01164792 -0.02930984 -0.0110188 ]
 [ 0.00784097  0.02539579 -0.01456942 -0.03049748  0.00265382]
 [-0.00110506  0.02746607 -0.04541164 -0.03818444 -0.00201495]
 [-0.00375488  0.021221   -0.07767779  0.01067411 -0.00692274]
 [-0.00884628  0.01930706 -0.05735     0.00359718 -0.01892407]] 
Episode: 134: [[ 0.00887215 -0.01497378 -0.0115982  -0.02949277 -0.01100198]
 [ 0.00790049  0.02554219 -0.01470165 -0.03083059  0.00273008]
 [-0.00104077  0.02795205 -0.04564101 -0.03851405 -0.00184956]
 [-0.0037413   0.02166346 -0.07817163  0.01022476 -0.00731363]
 [-0.00873029  0.01939324 -0.05763256  0.00393888 -0.01878607]] 
Episode: 135: [[ 0.00930649 -0.01448085 -0.01133228 -0.0295432  -0.01047513]
 [ 0.00820155  0.02531059 -0.01535377 -0.03123664  0.00271974]
 [-0.00058649  0.02845716 -0.04561904 -0.03907088 -0.00205148]
 [-0.00333922  0.02229838 -0.07837405  0.00963857 -0.00788828]
 [-0.00823566  0.0192447  -0.05752125  0.00431752 -0.0190428 ]] 
Episode: 136: [[ 0.00971753 -0.01414555 -0.01114902 -0.02959772 -0.01000432]
 [ 0.00847818  0.02509621 -0.01583158 -0.03163758  0.00272278]
 [-0.00015535  0.02895162 -0.04558529 -0.03963495 -0.00215732]
 [-0.00296208  0.02295274 -0.07863958  0.00896655 -0.00847869]
 [-0.00773235  0.01923886 -0.05742571  0.0046277  -0.01927961]] 
Episode: 137: [[ 0.01020397 -0.01439647 -0.011335   -0.03010851 -0.01008795]
 [ 0.00893133  0.02493676 -0.0161704  -0.03227243  0.00239741]
 [ 0.00048888  0.02967725 -0.0454894  -0.04020783 -0.0025796 ]
 [-0.00228877  0.0238641  -0.07896053  0.00849889 -0.00922696]
 [-0.00704024  0.01932854 -0.05754409  0.00483825 -0.0197777 ]] 
Episode: 138: [[ 0.01067639 -0.01472    -0.01162269 -0.03058439 -0.01022838]
 [ 0.00934755  0.024781   -0.01641476 -0.0327975   0.00221916]
 [ 0.00111301  0.03036336 -0.04529095 -0.04061159 -0.00263429]
 [-0.00162492  0.02475665 -0.07919946  0.00800614 -0.00991023]
 [-0.00638162  0.01951411 -0.05755066  0.00503329 -0.02012084]] 
Episode: 139: [[ 0.01117891 -0.01504133 -0.01195179 -0.03122612 -0.01057888]
 [ 0.0098136   0.0246805  -0.01674932 -0.03353508  0.00174856]
 [ 0.00177419  0.031165   -0.04520781 -0.04096078 -0.00272579]
 [-0.00082635  0.02571566 -0.0795098   0.00774973 -0.0105834 ]
 [-0.00566056  0.0197037  -0.05765869  0.00544628 -0.02041111]] 
Episode: 140: [[ 0.0116959  -0.01527752 -0.01234765 -0.03178668 -0.0108455 ]
 [ 0.01029182  0.02457521 -0.0171681  -0.03418114  0.00140341]
 [ 0.00237724  0.03186927 -0.04527783 -0.04126246 -0.00274227]
 [-0.00010724  0.0265503  -0.07991689  0.00764534 -0.01118298]
 [-0.005056    0.01968833 -0.05788554  0.00590606 -0.02063021]] 
Episode: 141: [[ 0.01219905 -0.0153636  -0.01287077 -0.03233199 -0.01102902]
 [ 0.01080703  0.02453935 -0.01748747 -0.03473929  0.00126668]
 [ 0.00296921  0.03258973 -0.04529233 -0.04170768 -0.00277216]
 [ 0.0006027   0.02742279 -0.08028783  0.00737127 -0.01191673]
 [-0.00442587  0.01983268 -0.05806608  0.0062445  -0.02087326]] 
Episode: 142: [[ 0.01259005 -0.01543089 -0.01340222 -0.03282166 -0.01118982]
 [ 0.01121244  0.02449391 -0.01780554 -0.0351966   0.00119342]
 [ 0.00342377  0.0332383  -0.04522144 -0.04210334 -0.00281981]
 [ 0.00119996  0.02820271 -0.08054642  0.00702094 -0.01245954]
 [-0.00392633  0.01994616 -0.05813664  0.00649362 -0.02104002]] 
Episode: 143: [[ 0.01291157 -0.01551606 -0.01389524 -0.0332763  -0.01134524]
 [ 0.0115495   0.02447516 -0.01811169 -0.03562317  0.00109254]
 [ 0.00381009  0.03381447 -0.04521242 -0.04247928 -0.0028923 ]
 [ 0.00170804  0.02887771 -0.08084198  0.00669181 -0.01301993]
 [-0.00349953  0.02004488 -0.05823074  0.00672921 -0.02125907]] 
Episode: 144: [[ 0.01323166 -0.01563174 -0.01434464 -0.03370399 -0.0114573 ]
 [ 0.01186932  0.02446688 -0.01834442 -0.03605456  0.00099483]
 [ 0.00417922  0.0343653  -0.04520945 -0.04281775 -0.00292874]
 [ 0.00217762  0.02952243 -0.08114491  0.00636069 -0.0134981 ]
 [-0.00307598  0.0201586  -0.0583419   0.00695459 -0.02144365]] 
Episode: 145: [[ 0.01403505 -0.01582255 -0.01466896 -0.03448256 -0.01152216]
 [ 0.01266382  0.02439707 -0.0182769  -0.03670837  0.00110885]
 [ 0.00505212  0.03506981 -0.04466153 -0.04302736 -0.00264586]
 [ 0.00312938  0.03044713 -0.08117962  0.00603784 -0.01398081]
 [-0.00227279  0.02038031 -0.05801613  0.00705675 -0.02135419]] 
Episode: 146: [[ 0.01476202 -0.01599052 -0.01497955 -0.03519227 -0.01160031]
 [ 0.01337852  0.02432664 -0.01824948 -0.03730447  0.00117686]
 [ 0.00583655  0.03570013 -0.04417487 -0.04321599 -0.00240362]
 [ 0.0039812   0.03127415 -0.08122665  0.00573718 -0.01442483]
 [-0.00156678  0.02057773 -0.05772141  0.00713856 -0.02129244]] 
Episode: 147: [[ 0.01541311 -0.0161215  -0.01527774 -0.03580641 -0.01164559]
 [ 0.01401279  0.02424136 -0.01825878 -0.03781518  0.00124445]
 [ 0.00652873  0.03624044 -0.04377457 -0.04338039 -0.00220407]
 [ 0.0047402   0.03199317 -0.08132709  0.00549506 -0.01479283]
 [-0.00094945  0.02074821 -0.05748475  0.00727861 -0.02121834]] 
Episode: 148: [[ 0.01599458 -0.01624925 -0.01557428 -0.03635394 -0.011648  ]
 [ 0.01458521  0.02419279 -0.0182991  -0.038258    0.00135044]
 [ 0.00715268  0.03674461 -0.04340435 -0.04346966 -0.00197665]
 [ 0.00540552  0.03265509 -0.08140052  0.00519392 -0.01518237]
 [-0.00042389  0.02090205 -0.05726345  0.00736967 -0.0211451 ]] 
Episode: 149: [[ 1.65273789e-02 -1.63091235e-02 -1.60323363e-02 -3.68354879e-02
  -1.16803590e-02]
 [ 1.51055185e-02  2.40996387e-02 -1.85482726e-02 -3.85872424e-02
   1.44286989e-03]
 [ 7.70141464e-03  3.71260010e-02 -4.32833359e-02 -4.33682129e-02
  -1.71936641e-03]
 [ 5.94991632e-03  3.31656411e-02 -8.16527903e-02  5.10796625e-03
  -1.55431712e-02]
 [-3.14412046e-06  2.08933949e-02 -5.72385900e-02  7.48201506e-03
  -2.11353712e-02]] 
Episode: 150: [[ 0.01698262 -0.01636485 -0.01645518 -0.03724985 -0.01170868]
 [ 0.01554964  0.02400836 -0.01876866 -0.03886005  0.00152886]
 [ 0.0081721   0.0374616  -0.04319656 -0.04329203 -0.00150586]
 [ 0.00642267  0.03361575 -0.08194369  0.00501647 -0.01586503]
 [ 0.00035179  0.02089739 -0.05722641  0.00761377 -0.02114356]] 
Episode: 151: [[ 0.01724613 -0.01642528 -0.01685262 -0.03758607 -0.01173549]
 [ 0.01578789  0.0239261  -0.01899896 -0.03904284  0.00159311]
 [ 0.00844103  0.0377387  -0.04312883 -0.04335811 -0.00139393]
 [ 0.00672575  0.03397424 -0.08222663  0.00490415 -0.01611389]
 [ 0.0005073   0.02089909 -0.05722792  0.00771544 -0.02119714]] 
Episode: 152: [[ 0.01744513 -0.01647847 -0.01722049 -0.03787925 -0.01177116]
 [ 0.01596237  0.02384883 -0.0192108  -0.03918975  0.00163241]
 [ 0.00864277  0.03798543 -0.04309118 -0.04347267 -0.00131272]
 [ 0.00695916  0.03429802 -0.08254401  0.00477799 -0.01628104]
 [ 0.00060126  0.02090918 -0.0572403   0.00779651 -0.02123645]] 
Episode: 153: [[ 0.01762591 -0.01651402 -0.01758367 -0.03814225 -0.01179841]
 [ 0.01610087  0.02376642 -0.0195509  -0.03926795  0.00171326]
 [ 0.00881895  0.03816386 -0.04319421 -0.04350318 -0.0012127 ]
 [ 0.00712032  0.03451495 -0.08301456  0.00484846 -0.01623651]
 [ 0.00062845  0.02080415 -0.05737757  0.00784704 -0.02126208]] 
Episode: 154: [[ 0.01784872 -0.01655607 -0.01792112 -0.0384882  -0.01191431]
 [ 0.01627665  0.02373721 -0.01989206 -0.03945212  0.00178261]
 [ 0.00903639  0.03835309 -0.04332297 -0.04348835 -0.00097961]
 [ 0.00732932  0.03474172 -0.08348286  0.00503524 -0.01615578]
 [ 0.0007005   0.02065513 -0.0575541   0.00793066 -0.02134298]] 
Episode: 155: [[ 0.01800417 -0.0165861  -0.01817562 -0.03880129 -0.01205002]
 [ 0.01640415  0.02373378 -0.02016359 -0.03960621  0.00185208]
 [ 0.00919902  0.03850659 -0.04348907 -0.04351336 -0.00080409]
 [ 0.00744395  0.03490847 -0.08399197  0.00508543 -0.01613182]
 [ 0.00075289  0.02054089 -0.05777289  0.00806525 -0.02136839]] 
Episode: 156: [[ 0.01811713 -0.0166641  -0.01843112 -0.03907857 -0.01217294]
 [ 0.01650632  0.02380487 -0.02032651 -0.03972454  0.00194014]
 [ 0.00933319  0.03867923 -0.04365889 -0.04341341 -0.00058062]
 [ 0.00749831  0.03510551 -0.08453515  0.00518285 -0.01614699]
 [ 0.00071241  0.0204744  -0.0580307   0.00825624 -0.021407  ]] 
Episode: 157: [[ 0.01821693 -0.01673307 -0.01869427 -0.03935777 -0.01230895]
 [ 0.01660642  0.02387685 -0.02052756 -0.03987717  0.00197517]
 [ 0.00945563  0.03883494 -0.04383056 -0.04332712 -0.00038906]
 [ 0.00754196  0.03529412 -0.08508965  0.00528347 -0.01612127]
 [ 0.00066279  0.02044736 -0.05827467  0.00838532 -0.0214682 ]] 
Episode: 158: [[ 0.01832692 -0.0167656  -0.01897451 -0.03963583 -0.01241226]
 [ 0.01669967  0.02390958 -0.02080201 -0.04004811  0.00202524]
 [ 0.00957706  0.03896884 -0.04405373 -0.04327852 -0.00022728]
 [ 0.00760603  0.03544158 -0.0856612   0.00543026 -0.01618064]
 [ 0.00067678  0.02034884 -0.05856042  0.00855899 -0.02148033]] 
Episode: 159: [[ 0.01861482 -0.01680574 -0.01927432 -0.04002115 -0.01251308]
 [ 0.01698123  0.02407006 -0.02086789 -0.04036013  0.00207807]
 [ 0.0098681   0.03939713 -0.04435312 -0.04314688  0.00020934]
 [ 0.00782072  0.03597007 -0.08639938  0.00574383 -0.01646237]
 [ 0.00091206  0.02040584 -0.05897151  0.00865444 -0.02177019]] 
Episode: 160: [[ 0.01887342 -0.01681136 -0.01962561 -0.04051143 -0.01271987]
 [ 0.01724645  0.02417311 -0.02094208 -0.04078369  0.00198495]
 [ 0.01013659  0.03979645 -0.04464506 -0.04306604  0.00055689]
 [ 0.00803708  0.03645929 -0.08714128  0.00615698 -0.01669094]
 [ 0.00111096  0.02049673 -0.05940215  0.00876635 -0.02203606]] 
Episode: 161: [[ 0.01910311 -0.01682404 -0.01998364 -0.04098944 -0.01295238]
 [ 0.01749919  0.02431945 -0.02100693 -0.04118155  0.00186465]
 [ 0.01038698  0.04016745 -0.04492289 -0.04292464  0.00089131]
 [ 0.00823581  0.0369001  -0.08788616  0.00661092 -0.01681632]
 [ 0.0012726   0.02056893 -0.05980694  0.00881244 -0.022319  ]] 
Episode: 162: [[ 0.01929503 -0.01680383 -0.02032047 -0.04144921 -0.01317503]
 [ 0.01769556  0.02441474 -0.02097429 -0.04159455  0.00177033]
 [ 0.01059861  0.04049058 -0.04516404 -0.04282139  0.00122284]
 [ 0.00841033  0.03731361 -0.08859756  0.00701274 -0.01693641]
 [ 0.00141822  0.02066497 -0.06019241  0.00883343 -0.02258535]] 
Episode: 163: [[ 0.01942799 -0.01677955 -0.0206353  -0.04185177 -0.01337487]
 [ 0.01782973  0.02447736 -0.02099871 -0.0419554   0.00165063]
 [ 0.01074313  0.0407222  -0.04540287 -0.04272699  0.00147942]
 [ 0.00853516  0.03758869 -0.08926357  0.00739391 -0.01700467]
 [ 0.00151877  0.02069247 -0.06053712  0.00895456 -0.02273335]] 
Episode: 164: [[ 0.01955298 -0.01675314 -0.02093673 -0.04223046 -0.01356508]
 [ 0.01796825  0.02453785 -0.02102018 -0.04230577  0.00152805]
 [ 0.01088418  0.04093611 -0.04560154 -0.0427069   0.00172482]
 [ 0.00866829  0.03785352 -0.0898364   0.00772547 -0.01710745]
 [ 0.00161621  0.02074517 -0.06082548  0.00900389 -0.02292666]] 
Episode: 165: [[ 0.01963468 -0.01668599 -0.02121411 -0.04258183 -0.01373987]
 [ 0.01806574  0.02458958 -0.02103837 -0.04261131  0.00142477]
 [ 0.01097596  0.04112389 -0.04579332 -0.04263991  0.00194887]
 [ 0.00872755  0.03808821 -0.09041687  0.00797984 -0.01727501]
 [ 0.00163943  0.02078629 -0.06108045  0.00900857 -0.02307345]] 
Episode: 166: [[ 0.01971848 -0.01662909 -0.02146447 -0.0429101  -0.01389534]
 [ 0.0181638   0.02461852 -0.02104599 -0.04289451  0.00134141]
 [ 0.01106787  0.04129234 -0.04598552 -0.04255317  0.00215243]
 [ 0.00878496  0.03831213 -0.0909751   0.00823181 -0.0175425 ]
 [ 0.00165502  0.02083646 -0.06133768  0.00897947 -0.02324586]] 
Episode: 167: [[ 0.01964423 -0.01655885 -0.02167172 -0.04315639 -0.01404362]
 [ 0.01807134  0.02454581 -0.02106883 -0.04306984  0.00124908]
 [ 0.0109934   0.04134177 -0.0462099  -0.04255209  0.00221789]
 [ 0.00868849  0.03837601 -0.09160475  0.00833654 -0.0176771 ]
 [ 0.00156972  0.02083921 -0.06159196  0.00907055 -0.02334416]] 
Episode: 168: [[ 0.0195317  -0.01648428 -0.02186127 -0.04338113 -0.01419472]
 [ 0.01793669  0.02447344 -0.02110342 -0.04321324  0.00112419]
 [ 0.01087901  0.04137472 -0.04645402 -0.04266924  0.0022419 ]
 [ 0.00856924  0.03842138 -0.09224732  0.00833977 -0.01786775]
 [ 0.0014532   0.02083897 -0.06184024  0.00913472 -0.02353822]] 
Episode: 169: [[ 0.01934286 -0.01640377 -0.02212841 -0.04352713 -0.01431518]
 [ 0.01772737  0.02432575 -0.02126572 -0.04325875  0.00101567]
 [ 0.0106984   0.04127966 -0.04675379 -0.04266192  0.00220696]
 [ 0.00832147  0.03830778 -0.09295669  0.00834802 -0.01805102]
 [ 0.00128402  0.02066948 -0.06213812  0.0092936  -0.02374088]] 
Episode: 170: [[ 0.01907941 -0.01631187 -0.0223922  -0.04364668 -0.0144216 ]
 [ 0.01744028  0.02415861 -0.02143903 -0.0432997   0.00089675]
 [ 0.01044751  0.04117485 -0.04707005 -0.04279349  0.00211029]
 [ 0.00802164  0.03818005 -0.09368706  0.008348   -0.0181265 ]
 [ 0.00106022  0.02053208 -0.062423    0.00946728 -0.02395641]] 
Episode: 171: [[ 0.0188369  -0.01622719 -0.02263026 -0.04376419 -0.01450868]
 [ 0.0171738   0.023995   -0.02165446 -0.04336858  0.00077052]
 [ 0.01022341  0.04108471 -0.04736252 -0.04295294  0.00196591]
 [ 0.00773655  0.03806077 -0.09437623  0.00835732 -0.01817351]
 [ 0.00084235  0.02037803 -0.06267714  0.00959396 -0.02416727]] 
Episode: 172: [[ 0.0185735  -0.01615493 -0.02284635 -0.04384028 -0.01458894]
 [ 0.01688367  0.02384298 -0.02184156 -0.04339879  0.00062856]
 [ 0.0099663   0.04099279 -0.04763915 -0.04314067  0.00180055]
 [ 0.0074312   0.03793309 -0.09503171  0.00832267 -0.01813371]
 [ 0.00057615  0.02024794 -0.06290422  0.00973495 -0.02435054]] 
Episode: 173: [[ 0.01829555 -0.01608058 -0.02306493 -0.04391516 -0.01467479]
 [ 0.0165807   0.02371426 -0.02205551 -0.0434372   0.00046831]
 [ 0.0096961   0.0408969  -0.04786786 -0.043292    0.00163767]
 [ 0.00709511  0.03779437 -0.09557432  0.00831167 -0.01806665]
 [ 0.00028243  0.02011582 -0.0630959   0.00986699 -0.02449702]] 
Episode: 174: [[ 0.01828759 -0.01597977 -0.02334146 -0.0441609  -0.01474899]
 [ 0.01666494  0.02376846 -0.02203724 -0.04361068  0.00040297]
 [ 0.00972018  0.04115545 -0.04808026 -0.04344407  0.0018112 ]
 [ 0.00690676  0.03812755 -0.09627564  0.00815729 -0.01823889]
 [ 0.00024464  0.02039305 -0.06342231  0.00994213 -0.02474385]] 
Episode: 175: [[ 0.01824488 -0.01587627 -0.02351265 -0.04436933 -0.01487408]
 [ 0.01668308  0.02376153 -0.02199663 -0.04377894  0.00021512]
 [ 0.00969162  0.04134832 -0.04826719 -0.043691    0.00187317]
 [ 0.00669967  0.03839784 -0.09689046  0.0079643  -0.01836757]
 [ 0.00015945  0.02064132 -0.06368814  0.01001216 -0.02498786]] 
Episode: 176: [[ 1.8210661e-02 -1.5707737e-02 -2.3652811e-02 -4.4522583e-02
  -1.4951645e-02]
 [ 1.6680552e-02  2.3675110e-02 -2.1989424e-02 -4.3879826e-02
   1.4175002e-04]
 [ 9.6658319e-03  4.1457120e-02 -4.8536863e-02 -4.3833453e-02
   2.0246371e-03]
 [ 6.4697578e-03  3.8581163e-02 -9.7566590e-02  7.8992704e-03
  -1.8413873e-02]
 [ 2.9183982e-05  2.0757090e-02 -6.4039886e-02  1.0060002e-02
  -2.5235789e-02]] 
Episode: 177: [[ 1.8225148e-02 -1.5487858e-02 -2.3719817e-02 -4.4926997e-02
  -1.5332094e-02]
 [ 1.6675137e-02  2.3397930e-02 -2.1855799e-02 -4.4255663e-02
  -2.5213760e-04]
 [ 9.7557344e-03  4.1719131e-02 -4.8636556e-02 -4.3951642e-02
   2.3684462e-03]
 [ 6.4129783e-03  3.8966939e-02 -9.8112114e-02  7.6551745e-03
  -1.8684665e-02]
 [ 3.5500223e-05  2.0981936e-02 -6.4268820e-02  9.8752659e-03
  -2.5681602e-02]] 
Episode: 178: [[ 0.01834856 -0.01529736 -0.02382618 -0.04535274 -0.01568966]
 [ 0.01677964  0.02317211 -0.02167764 -0.04468646 -0.00057851]
 [ 0.0099365   0.04205115 -0.04868376 -0.04410788  0.00276881]
 [ 0.00647583  0.03945176 -0.09858157  0.00740137 -0.01900084]
 [ 0.00014634  0.02128692 -0.06448519  0.00971812 -0.025992  ]] 
Episode: 179: [[ 0.01842947 -0.01504752 -0.02393075 -0.04570213 -0.01594571]
 [ 0.01692607  0.02291299 -0.02161201 -0.04496611 -0.00076973]
 [ 0.01009805  0.0423506  -0.0486949  -0.04424525  0.00312316]
 [ 0.00652872  0.03991349 -0.09895073  0.0072567  -0.01936738]
 [ 0.00034691  0.02160271 -0.06463195  0.00955799 -0.02636067]] 
Episode: 180: [[ 0.01854396 -0.01484375 -0.02407712 -0.04603413 -0.01613044]
 [ 0.01711164  0.02281107 -0.02161236 -0.04523351 -0.00084477]
 [ 0.01028817  0.0427038  -0.04876506 -0.04436404  0.00359872]
 [ 0.00660458  0.0404083  -0.09937628  0.00723229 -0.01974333]
 [ 0.00057555  0.02199338 -0.06481065  0.00936676 -0.02672229]] 
Episode: 181: [[ 0.01870002 -0.014624   -0.02418773 -0.04636327 -0.01629025]
 [ 0.01731719  0.022748   -0.02167855 -0.04543878 -0.00081181]
 [ 0.01045449  0.04303559 -0.04887039 -0.04459095  0.00400517]
 [ 0.0066088   0.04085843 -0.09984513  0.00732733 -0.01994091]
 [ 0.00073302  0.02235496 -0.06501156  0.00915602 -0.02709014]] 
Episode: 182: [[ 0.01890869 -0.01447978 -0.02429994 -0.04670503 -0.01644499]
 [ 0.01753587  0.02270256 -0.02168981 -0.04572372 -0.0008333 ]
 [ 0.01064061  0.04339179 -0.04894596 -0.04481799  0.00432784]
 [ 0.00666418  0.04132866 -0.10029224  0.00746663 -0.02012501]
 [ 0.00092334  0.02270003 -0.06521661  0.00898274 -0.02744783]] 
Episode: 183: [[ 0.019143   -0.01439021 -0.0242775  -0.04702193 -0.01655515]
 [ 0.01776461  0.02266458 -0.02159375 -0.04600979 -0.00083253]
 [ 0.01083408  0.04372279 -0.04901454 -0.04504655  0.0045719 ]
 [ 0.00673265  0.04176855 -0.10075226  0.00764893 -0.02026213]
 [ 0.00110811  0.023035   -0.06544731  0.00881447 -0.02780201]] 
Episode: 184: [[ 0.01955013 -0.01420611 -0.02444557 -0.04730327 -0.0168255 ]
 [ 0.01816133  0.02268436 -0.02176337 -0.04613064 -0.00099563]
 [ 0.01105141  0.04410778 -0.04924984 -0.04517471  0.00478206]
 [ 0.00674671  0.04220909 -0.10130123  0.00799762 -0.02031882]
 [ 0.00126454  0.02333715 -0.06579913  0.00892367 -0.02807413]] 
Episode: 185: [[ 0.0196817  -0.01402217 -0.0245945  -0.04744624 -0.01708885]
 [ 0.01827671  0.02262071 -0.02191238 -0.04608237 -0.00121918]
 [ 0.01101755  0.04439391 -0.04948391 -0.04545029  0.00479654]
 [ 0.00661979  0.04255832 -0.10183813  0.00817464 -0.02018071]
 [ 0.00119473  0.02362446 -0.06611054  0.00908319 -0.02833822]] 
Episode: 186: [[ 0.01976283 -0.01384937 -0.02474906 -0.04758389 -0.01735007]
 [ 0.01834263  0.02254296 -0.022018   -0.04604175 -0.00144553]
 [ 0.01095202  0.04462556 -0.04971512 -0.04575962  0.00475805]
 [ 0.00651856  0.04283296 -0.10238136  0.00827079 -0.02022292]
 [ 0.00113622  0.02380593 -0.06642652  0.00931054 -0.02851053]] 
Episode: 187: [[ 0.01987591 -0.01371635 -0.02483048 -0.04771388 -0.01757898]
 [ 0.01842513  0.02250221 -0.02215087 -0.04598642 -0.00159215]
 [ 0.01090098  0.04483271 -0.04997721 -0.04600814  0.00485813]
 [ 0.00640737  0.0430822  -0.10294425  0.00845994 -0.0201644 ]
 [ 0.00110855  0.02399593 -0.06676823  0.00948208 -0.02869862]] 
Episode: 188: [[ 0.01996039 -0.01358941 -0.02501421 -0.04778886 -0.01776908]
 [ 0.01849289  0.02242685 -0.02251095 -0.04583433 -0.00163085]
 [ 0.01081951  0.04496152 -0.05037194 -0.04606759  0.00507583]
 [ 0.00620892  0.04324348 -0.10360979  0.00881331 -0.0200644 ]
 [ 0.000994    0.02397872 -0.06720968  0.00976757 -0.0288408 ]] 
Episode: 189: [[ 0.02007191 -0.01347308 -0.02513614 -0.04789976 -0.01799126]
 [ 0.01857637  0.02237427 -0.02286855 -0.04577315 -0.00173387]
 [ 0.01075989  0.0450998  -0.05079615 -0.04609394  0.00525509]
 [ 0.00605931  0.04340016 -0.10428882  0.00931219 -0.01988466]
 [ 0.00092787  0.02397636 -0.06765716  0.00995927 -0.02897367]] 
Episode: 190: [[ 0.02018597 -0.01334877 -0.02534616 -0.04799614 -0.0181783 ]
 [ 0.01867751  0.02230199 -0.02335824 -0.04568131 -0.00180928]
 [ 0.01071369  0.04519657 -0.05132791 -0.04598655  0.00550361]
 [ 0.00591486  0.04350188 -0.10503539  0.00993997 -0.01963214]
 [ 0.00087225  0.02385447 -0.068186    0.01025687 -0.02906106]] 
Episode: 191: [[ 0.0203207  -0.01323212 -0.02555975 -0.04809922 -0.01835   ]
 [ 0.01881872  0.02224478 -0.02380586 -0.04562413 -0.00191944]
 [ 0.01071351  0.04531155 -0.05181245 -0.04587357  0.00579159]
 [ 0.0058201   0.04363853 -0.10568979  0.01049647 -0.01937835]
 [ 0.00091005  0.02377695 -0.0686494   0.01058846 -0.02914674]] 
Episode: 192: [[ 0.02045416 -0.01313639 -0.02581145 -0.04819166 -0.01851057]
 [ 0.01892421  0.02222263 -0.02425688 -0.04558425 -0.00201514]
 [ 0.01071374  0.04544128 -0.0523186  -0.04577593  0.00605573]
 [ 0.00572518  0.04376622 -0.10638166  0.01111778 -0.01911473]
 [ 0.00086529  0.02370459 -0.06912338  0.01078566 -0.02923824]] 
Episode: 193: [[ 0.02056868 -0.01303443 -0.02601135 -0.04823763 -0.01863227]
 [ 0.01896952  0.02217123 -0.02472423 -0.04553098 -0.00208214]
 [ 0.01068694  0.04548863 -0.05286767 -0.04561883  0.00630718]
 [ 0.00558094  0.0437744  -0.10709807  0.01185418 -0.01876546]
 [ 0.00079516  0.02350861 -0.06960261  0.01098482 -0.02933953]] 
Episode: 194: [[ 0.02053828 -0.01297986 -0.02616254 -0.04828443 -0.01877025]
 [ 0.01885774  0.0220458  -0.02518102 -0.04548795 -0.00219642]
 [ 0.01051715  0.04540268 -0.05347354 -0.04559362  0.00635342]
 [ 0.00529928  0.04360757 -0.10794272  0.01238575 -0.01841174]
 [ 0.00062068  0.0232358  -0.07015184  0.01145827 -0.02922177]] 
Episode: 195: [[ 0.02054235 -0.01290728 -0.02622947 -0.04834799 -0.01887355]
 [ 0.01878103  0.02192868 -0.02556934 -0.04546734 -0.00226845]
 [ 0.01036645  0.04532014 -0.05405579 -0.04561257  0.00634203]
 [ 0.00506942  0.04343866 -0.10877651  0.01293377 -0.0180134 ]
 [ 0.00042987  0.0229966  -0.07066203  0.01194771 -0.02910034]] 
Episode: 196: [[ 0.0205567  -0.01284175 -0.026296   -0.04840557 -0.01894889]
 [ 0.01871765  0.02182823 -0.02591459 -0.04545879 -0.0023342 ]
 [ 0.01023628  0.04524363 -0.05459751 -0.0456339   0.00634099]
 [ 0.00487026  0.0432815  -0.10956529  0.01343578 -0.01764761]
 [ 0.00027925  0.02277818 -0.07114315  0.01241156 -0.02898099]] 
Episode: 197: [[ 0.02056265 -0.01281265 -0.02637917 -0.04847097 -0.01899739]
 [ 0.01868051  0.02179461 -0.02627183 -0.04546454 -0.0023909 ]
 [ 0.01013986  0.04518583 -0.05515425 -0.0456781   0.0063891 ]
 [ 0.00469394  0.04311452 -0.11036687  0.0139332  -0.01720868]
 [ 0.00014142  0.02253741 -0.07162928  0.01268097 -0.02891828]] 
Episode: 198: [[ 2.05795411e-02 -1.27752116e-02 -2.64599770e-02 -4.84878160e-02
  -1.90416295e-02]
 [ 1.86209586e-02  2.17412375e-02 -2.65663881e-02 -4.54496071e-02
  -2.51319516e-03]
 [ 1.00424336e-02  4.50979695e-02 -5.57842329e-02 -4.56344038e-02
   6.35909336e-03]
 [ 4.50062659e-03  4.28961329e-02 -1.11249894e-01  1.45009151e-02
  -1.66654456e-02]
 [ 1.29967129e-05  2.21907794e-02 -7.21922666e-02  1.28799630e-02
  -2.89711915e-02]] 
Episode: 199: [[ 0.02058187 -0.0127411  -0.0265203  -0.0484962  -0.01907259]
 [ 0.01854602  0.02168825 -0.02681057 -0.04544604 -0.00264267]
 [ 0.00993852  0.04502457 -0.05637833 -0.04557268  0.00636204]
 [ 0.00430755  0.04271031 -0.11211255  0.01508332 -0.01608096]
 [-0.00012411  0.02186546 -0.07272807  0.0130857  -0.02902199]] 
Episode: 200: [[ 0.02051957 -0.01269142 -0.02658952 -0.04848998 -0.01910492]
 [ 0.01841819  0.02161123 -0.02703735 -0.0454016  -0.00276883]
 [ 0.00978886  0.04492383 -0.05698342 -0.04552548  0.00634369]
 [ 0.00407272  0.04250099 -0.11300197  0.01556123 -0.01554458]
 [-0.00032501  0.02154215 -0.07328015  0.01329364 -0.02913403]] 
Episode: 201: [[ 0.02037088 -0.01265036 -0.02665679 -0.04845113 -0.01912799]
 [ 0.01821129  0.02151367 -0.02725392 -0.04529801 -0.00290666]
 [ 0.00956729  0.04479884 -0.05755543 -0.04551717  0.00631244]
 [ 0.00378408  0.04226553 -0.11386418  0.01590178 -0.01494935]
 [-0.00058799  0.02122925 -0.0737903   0.01353449 -0.02928562]] 
Episode: 202: [[ 0.02024236 -0.01254148 -0.02705153 -0.04835673 -0.01911576]
 [ 0.01805142  0.02134108 -0.02781778 -0.04500544 -0.00284318]
 [ 0.00935244  0.04457309 -0.05836677 -0.04522391  0.00643832]
 [ 0.00340683  0.04198085 -0.11486332  0.01638743 -0.01432929]
 [-0.00087384  0.02081047 -0.0745458   0.01372929 -0.02956495]] 
Episode: 203: [[ 0.02016853 -0.01244137 -0.02749192 -0.0482825  -0.01909537]
 [ 0.01791081  0.02119103 -0.02834125 -0.04478374 -0.00282146]
 [ 0.00916362  0.04436117 -0.05920474 -0.04495892  0.00651873]
 [ 0.00303753  0.04170555 -0.11588894  0.01700179 -0.01369643]
 [-0.00110313  0.02036358 -0.07538956  0.01398773 -0.02979045]] 
Episode: 204: [[ 0.02008663 -0.01236983 -0.02793537 -0.04821119 -0.0190535 ]
 [ 0.01775054  0.02107208 -0.0288539  -0.04461586 -0.00283039]
 [ 0.00897232  0.04418118 -0.05995111 -0.04475201  0.0065787 ]
 [ 0.00269213  0.04144197 -0.11686186  0.01760581 -0.01299807]
 [-0.00136823  0.01993135 -0.0761476   0.01421026 -0.03005144]] 
Episode: 205: [[ 0.02014486 -0.01208014 -0.02868237 -0.04800435 -0.01890966]
 [ 0.01765239  0.0207148  -0.0296139  -0.04456526 -0.00298103]
 [ 0.00876101  0.04406564 -0.06056531 -0.04473764  0.00631675]
 [ 0.00240714  0.04123013 -0.11776416  0.01825347 -0.01232731]
 [-0.00157212  0.01937642 -0.07678154  0.0145385  -0.03025316]] 
Episode: 206: [[ 0.02015446 -0.01180807 -0.02936631 -0.04779863 -0.01880692]
 [ 0.01751819  0.02033565 -0.03036816 -0.04447735 -0.00313667]
 [ 0.0085134   0.04388527 -0.06112965 -0.0447655   0.00600529]
 [ 0.00212     0.04096005 -0.11858052  0.0187299  -0.0116818 ]
 [-0.00177266  0.01879737 -0.07733653  0.01487411 -0.03035901]] 
Episode: 207: [[ 0.02010852 -0.01156883 -0.0299759  -0.047586   -0.0187067 ]
 [ 0.0173423   0.01990655 -0.03099311 -0.04437093 -0.00327998]
 [ 0.00824514  0.04366357 -0.06164568 -0.04478709  0.00569236]
 [ 0.00181295  0.04067446 -0.11935177  0.01919514 -0.01109192]
 [-0.0019775   0.01823654 -0.07785254  0.01518577 -0.03049842]] 
Episode: 208: [[ 0.02009179 -0.0114091  -0.03022466 -0.04755802 -0.0187604 ]
 [ 0.01723775  0.01958354 -0.03145801 -0.04425021 -0.00329136]
 [ 0.00799561  0.04348462 -0.06201259 -0.04488654  0.00541982]
 [ 0.00150358  0.04041323 -0.12000698  0.01943177 -0.0105388 ]
 [-0.00215392  0.01777499 -0.07818121  0.01545825 -0.03058823]] 
Episode: 209: [[ 0.02010391 -0.01121013 -0.0304911  -0.0475446  -0.0188072 ]
 [ 0.01716828  0.01926924 -0.03187044 -0.04415826 -0.00323089]
 [ 0.00777977  0.04335695 -0.06238548 -0.04506266  0.00515325]
 [ 0.00123977  0.04023208 -0.12066531  0.01963996 -0.01017905]
 [-0.0022673   0.01738406 -0.07852052  0.0157023  -0.03064813]] 
Episode: 210: [[ 0.02013258 -0.01106007 -0.03083307 -0.04754663 -0.0188456 ]
 [ 0.01711671  0.01901481 -0.03226662 -0.04414575 -0.0032129 ]
 [ 0.00760659  0.04327214 -0.06279313 -0.04517007  0.00488422]
 [ 0.00099883  0.0401149  -0.12135167  0.01984203 -0.00984714]
 [-0.00233771  0.01704439 -0.07890022  0.01594526 -0.03073661]] 
Episode: 211: [[ 0.02016265 -0.01087462 -0.03128182 -0.04756517 -0.01891164]
 [ 0.01707994  0.01883225 -0.03274676 -0.04412523 -0.00318354]
 [ 0.0074613   0.04321178 -0.06318017 -0.0452468   0.00466684]
 [ 0.00079812  0.04001212 -0.1219804   0.02002563 -0.00956863]
 [-0.00240641  0.01676478 -0.07923954  0.01615885 -0.03081545]] 
Episode: 212: [[ 0.02046047 -0.01076237 -0.03160391 -0.04767244 -0.01886764]
 [ 0.01718637  0.01883554 -0.0334134  -0.0444027  -0.00304378]
 [ 0.00749637  0.04348594 -0.06348183 -0.04543202  0.00478727]
 [ 0.00075686  0.04018737 -0.1224252   0.02036982 -0.00940882]
 [-0.00245176  0.01664634 -0.07939844  0.01591856 -0.03122336]] 
Episode: 213: [[ 0.02078125 -0.01052384 -0.03194787 -0.04766342 -0.01872573]
 [ 0.01736565  0.01882754 -0.03396607 -0.04442151 -0.0025854 ]
 [ 0.00752956  0.04383368 -0.06368843 -0.04555804  0.0049113 ]
 [ 0.00068657  0.04050899 -0.12276944  0.02077124 -0.00919864]
 [-0.00254054  0.01685499 -0.07946844  0.01562142 -0.03164104]] 
Episode: 214: [[ 0.02105397 -0.0102657  -0.0323178  -0.04765409 -0.01863797]
 [ 0.01753485  0.01879721 -0.03440515 -0.04444561 -0.00216259]
 [ 0.00755729  0.04414755 -0.06385253 -0.04578619  0.00495936]
 [ 0.00064233  0.04082856 -0.1231154   0.02100971 -0.00910688]
 [-0.00260239  0.01709957 -0.07951824  0.01523141 -0.03201031]] 
Episode: 215: [[ 0.02129901 -0.01009268 -0.03268237 -0.04764358 -0.01856255]
 [ 0.01768282  0.01881215 -0.0348105  -0.04447008 -0.00175819]
 [ 0.00759039  0.04443266 -0.06403495 -0.04601975  0.00498402]
 [ 0.00061853  0.0411072  -0.12346037  0.02126119 -0.00900828]
 [-0.00265999  0.01728561 -0.07960068  0.01485734 -0.03229562]] 
Episode: 216: [[ 0.02153377 -0.00991139 -0.03306586 -0.04761474 -0.0184377 ]
 [ 0.01784388  0.01886931 -0.03542253 -0.04434522 -0.00119876]
 [ 0.00763917  0.0446418  -0.06434946 -0.04609499  0.00505508]
 [ 0.00052643  0.04129037 -0.12388796  0.02166536 -0.00896097]
 [-0.00268205  0.01727859 -0.07975339  0.0146105  -0.03255681]] 
Episode: 217: [[ 0.02174478 -0.00980824 -0.03331878 -0.04759603 -0.01830317]
 [ 0.01799506  0.01890551 -0.03595005 -0.04426119 -0.00070406]
 [ 0.00769064  0.04483205 -0.064653   -0.04614096  0.00511291]
 [ 0.00043     0.04146886 -0.12429591  0.02203663 -0.00902658]
 [-0.00270906  0.01728711 -0.07990004  0.01439383 -0.03275885]] 
Episode: 218: [[ 0.02191351 -0.00971588 -0.03358565 -0.04757689 -0.01817424]
 [ 0.01810798  0.01894296 -0.03646278 -0.04420732 -0.00024721]
 [ 0.00772159  0.04498454 -0.06495159 -0.04617853  0.00517512]
 [ 0.00032272  0.04160452 -0.12470418  0.0223962  -0.00910712]
 [-0.00274285  0.01726939 -0.08006187  0.0142159  -0.03293572]] 
Episode: 219: [[ 0.02216675 -0.00962166 -0.03390767 -0.04761983 -0.01811084]
 [ 0.01830564  0.01899402 -0.03703595 -0.04422425  0.00015239]
 [ 0.0077837   0.04516854 -0.06521507 -0.04629907  0.00523178]
 [ 0.00027364  0.0417504  -0.12506367  0.02285867 -0.00894469]
 [-0.00272867  0.01727073 -0.0801761   0.01405474 -0.0330842 ]] 
Episode: 220: [[ 0.02238284 -0.00950343 -0.03428929 -0.04765758 -0.01804154]
 [ 0.01849947  0.01901436 -0.03757255 -0.04420007  0.00055253]
 [ 0.00783983  0.045344   -0.06547931 -0.04638149  0.00536358]
 [ 0.00023721  0.04194817 -0.12546077  0.02330407 -0.00888154]
 [-0.00269357  0.01735079 -0.08029037  0.01373598 -0.03343084]] 
Episode: 221: [[ 0.02257904 -0.00934446 -0.03471433 -0.04776055 -0.01803889]
 [ 0.0187054   0.01902765 -0.03807608 -0.04418535  0.00099013]
 [ 0.0079192   0.04553784 -0.06570105 -0.0465406   0.00550169]
 [ 0.000222    0.04217968 -0.125813    0.02373075 -0.00883386]
 [-0.00262047  0.01746596 -0.08038083  0.0133343  -0.03386081]] 
Episode: 222: [[ 0.02275723 -0.00918425 -0.03510875 -0.04786395 -0.01802334]
 [ 0.0189049   0.01905287 -0.03851468 -0.04418593  0.00141147]
 [ 0.00799897  0.04574312 -0.06589594 -0.04668291  0.00567105]
 [ 0.00020718  0.0424377  -0.12614389  0.02409312 -0.00884364]
 [-0.00254761  0.01761425 -0.08046507  0.01299805 -0.03422136]] 
Episode: 223: [[ 0.0229165  -0.00902807 -0.03545909 -0.04797471 -0.01801708]
 [ 0.01908515  0.01907902 -0.03892637 -0.04419396  0.00181257]
 [ 0.00806937  0.04593766 -0.06608033 -0.04683369  0.00584226]
 [ 0.00019192  0.04267668 -0.12645517  0.02438208 -0.00883117]
 [-0.00248713  0.01776629 -0.08053908  0.01270186 -0.0345195 ]] 
Episode: 224: [[ 0.02295951 -0.00876291 -0.03546479 -0.04830338 -0.01820122]
 [ 0.01930426  0.01928501 -0.03895757 -0.04443215  0.0018326 ]
 [ 0.0081492   0.04632199 -0.06619818 -0.04725699  0.00568091]
 [ 0.00020762  0.04311771 -0.12678677  0.02446042 -0.00858689]
 [-0.00227379  0.01823566 -0.0806746   0.01205448 -0.03510685]] 
Episode: 225: [[ 0.02304624 -0.00851921 -0.03559938 -0.04863651 -0.01832213]
 [ 0.01958657  0.01950048 -0.03907405 -0.04468789  0.00193456]
 [ 0.00826962  0.04670137 -0.06630298 -0.0476279   0.00561761]
 [ 0.00024385  0.0435488  -0.1270704   0.02461936 -0.00829877]
 [-0.00201914  0.01872817 -0.08076742  0.01131972 -0.03575392]] 
Episode: 226: [[ 0.02308658 -0.00829852 -0.03569488 -0.04892602 -0.01843025]
 [ 0.01979502  0.01965311 -0.03918437 -0.04490425  0.0020312 ]
 [ 0.00834488  0.0470074  -0.06640437 -0.04799368  0.00553156]
 [ 0.00024344  0.04390013 -0.12734324  0.02473369 -0.00802245]
 [-0.00182613  0.01913692 -0.08084488  0.01062554 -0.03635659]] 
Episode: 227: [[ 0.02323575 -0.00810159 -0.03577757 -0.04919292 -0.01850379]
 [ 0.02001722  0.01978037 -0.03926934 -0.04510654  0.00214483]
 [ 0.0084087   0.04731094 -0.0665151  -0.04835963  0.00547054]
 [ 0.00028314  0.04422947 -0.12762012  0.024953   -0.00773422]
 [-0.00162176  0.01947979 -0.08093157  0.00998145 -0.03692428]] 
Episode: 228: [[ 0.02325877 -0.00794836 -0.03585438 -0.04943265 -0.01857329]
 [ 0.02010768  0.01987802 -0.03943617 -0.04529197  0.002244  ]
 [ 0.00836634  0.0475219  -0.06665902 -0.04866113  0.00543513]
 [ 0.00024167  0.04443081 -0.12791476  0.02511951 -0.00736511]
 [-0.00154235  0.01972485 -0.08101464  0.0094895  -0.03739396]] 
Episode: 229: [[ 2.3202712e-02 -7.8093787e-03 -3.5918683e-02 -4.9636725e-02
  -1.8641658e-02]
 [ 2.0113025e-02  1.9920355e-02 -3.9617274e-02 -4.5418520e-02
   2.3252270e-03]
 [ 8.2625812e-03  4.7649730e-02 -6.6874318e-02 -4.8894268e-02
   5.3891847e-03]
 [ 1.2804211e-04  4.4544443e-02 -1.2829047e-01  2.5267167e-02
  -6.9783782e-03]
 [-1.5426157e-03  1.9874379e-02 -8.1163369e-02  9.0741813e-03
  -3.7793715e-02]] 
Episode: 230: [[ 2.3353858e-02 -7.6704607e-03 -3.6270734e-02 -4.9669646e-02
  -1.8681115e-02]
 [ 2.0208985e-02  1.9860776e-02 -3.9917435e-02 -4.5415912e-02
   2.4267191e-03]
 [ 8.2120374e-03  4.7711901e-02 -6.7295596e-02 -4.8812170e-02
   5.5577862e-03]
 [-7.3121591e-05  4.4614181e-02 -1.2882514e-01  2.5579764e-02
  -6.7483741e-03]
 [-1.6262169e-03  1.9930383e-02 -8.1550993e-02  8.7858886e-03
  -3.8139675e-02]] 
Episode: 231: [[ 0.02333037 -0.00752154 -0.03661056 -0.04966243 -0.01871744]
 [ 0.02012635  0.01975832 -0.04020755 -0.04534386  0.00250826]
 [ 0.00800774  0.04770549 -0.06775609 -0.04882603  0.00566583]
 [-0.00036469  0.04460885 -0.12944108  0.02580727 -0.00647063]
 [-0.00188     0.01991716 -0.08197748  0.0085256  -0.03850836]] 
Episode: 232: [[ 0.02321042 -0.00735753 -0.03698156 -0.04964364 -0.01875797]
 [ 0.01997593  0.01963171 -0.04050537 -0.04522222  0.00256176]
 [ 0.00774916  0.04768386 -0.0682526  -0.04887364  0.00568375]
 [-0.00070566  0.04460321 -0.13013479  0.02591922 -0.00620164]
 [-0.00218798  0.01990807 -0.08245052  0.00836273 -0.03885381]] 
Episode: 233: [[ 0.02298728 -0.00717987 -0.03732036 -0.04959192 -0.01879987]
 [ 0.01972344  0.01944448 -0.04075336 -0.045042    0.00258583]
 [ 0.0074084   0.04761099 -0.0687761  -0.04892845  0.00563714]
 [-0.00107665  0.04456061 -0.13090888  0.02596771 -0.00589859]
 [-0.00260116  0.01988078 -0.08296274  0.00822277 -0.03919896]] 
Episode: 234: [[ 0.02272565 -0.00702065 -0.03768633 -0.04953932 -0.01884421]
 [ 0.01944406  0.01928055 -0.04103716 -0.04485948  0.00261352]
 [ 0.00704564  0.04753596 -0.06924056 -0.04898286  0.00556826]
 [-0.00145892  0.04449642 -0.13159314  0.02595892 -0.00562855]
 [-0.00302581  0.01980762 -0.08342119  0.00820806 -0.03951458]] 
Episode: 235: [[ 0.02248356 -0.00688656 -0.03803772 -0.04949026 -0.01887104]
 [ 0.01918749  0.01912521 -0.04131721 -0.04470697  0.00265844]
 [ 0.00671077  0.0474574  -0.06967269 -0.04901012  0.00551223]
 [-0.00182163  0.0444293  -0.13222808  0.02593463 -0.00543233]
 [-0.0034049   0.01974262 -0.08384869  0.00819548 -0.03979663]] 
Episode: 236: [[ 0.02224896 -0.00675389 -0.03835438 -0.0494259  -0.01888377]
 [ 0.01892463  0.01894868 -0.04162672 -0.0445344   0.00269645]
 [ 0.00637973  0.04731702 -0.07014862 -0.04895458  0.00546383]
 [-0.00219003  0.04428674 -0.13289154  0.02598985 -0.00518506]
 [-0.00378454  0.01955551 -0.08429519  0.00817623 -0.04011212]] 
Episode: 237: [[ 0.02204263 -0.00664282 -0.03863281 -0.04937034 -0.01889434]
 [ 0.01869699  0.01880136 -0.04189438 -0.04439595  0.00270572]
 [ 0.0060872   0.04719143 -0.07060751 -0.04889615  0.00541166]
 [-0.00252873  0.04415544 -0.1335397   0.02603889 -0.00495705]
 [-0.00412688  0.01937913 -0.08473111  0.00815368 -0.04044078]] 
Episode: 238: [[ 0.02180308 -0.00651946 -0.03887352 -0.04930061 -0.01892453]
 [ 0.01841838  0.01859838 -0.04213995 -0.04423176  0.00264415]
 [ 0.00575883  0.04703799 -0.07106134 -0.04885593  0.00534299]
 [-0.00290669  0.04401773 -0.13418801  0.02601456 -0.00468077]
 [-0.00453948  0.01924225 -0.08516199  0.00811194 -0.04076488]] 
Episode: 239: [[ 0.02161227 -0.00640652 -0.03923395 -0.04916894 -0.01893865]
 [ 0.0181361   0.01836295 -0.04247407 -0.04400857  0.00258865]
 [ 0.00546806  0.0467791  -0.07164135 -0.04856768  0.00536983]
 [-0.00329651  0.0437939  -0.1349272   0.0261745  -0.00441389]
 [-0.00487842  0.0189568  -0.0856709   0.00809155 -0.04108604]] 
Episode: 240: [[ 0.02146765 -0.00632086 -0.03956937 -0.04903311 -0.01887276]
 [ 0.01793873  0.01824443 -0.04280535 -0.04377379  0.0026009 ]
 [ 0.00525206  0.04663375 -0.07219517 -0.04841785  0.00537436]
 [-0.00367881  0.04369948 -0.13567302  0.02632313 -0.00428665]
 [-0.00515448  0.01883862 -0.0861652   0.00796019 -0.04152292]] 
Episode: 241: [[ 0.02134611 -0.00621327 -0.0399492  -0.04894256 -0.01880046]
 [ 0.01777427  0.01815624 -0.04314274 -0.04352607  0.0027197 ]
 [ 0.00507405  0.04652571 -0.07269786 -0.04834342  0.00536844]
 [-0.00405931  0.04363086 -0.13639279  0.02634143 -0.00421928]
 [-0.00540313  0.01876423 -0.08663055  0.00782582 -0.04189564]] 
Episode: 242: [[ 0.02123134 -0.00613781 -0.0403014  -0.04889872 -0.01876195]
 [ 0.01762317  0.0180703  -0.0433908  -0.04333412  0.00274298]
 [ 0.00490678  0.04642852 -0.07316634 -0.0483168   0.00527811]
 [-0.00440698  0.04358076 -0.13712308  0.02631637 -0.00419478]
 [-0.00564373  0.01872741 -0.08710362  0.00769322 -0.0422159 ]] 
Episode: 243: [[ 0.02113739 -0.00608184 -0.04074366 -0.04883919 -0.01869855]
 [ 0.0174811   0.01802725 -0.04370836 -0.04317132  0.00272685]
 [ 0.00476639  0.04629926 -0.07368651 -0.04814141  0.00521253]
 [-0.00472861  0.04347312 -0.13788207  0.02647532 -0.00412888]
 [-0.00589709  0.01863666 -0.0876108   0.00768075 -0.042486  ]] 
Episode: 244: [[ 0.02109403 -0.00595023 -0.04118348 -0.04880628 -0.01863134]
 [ 0.01739857  0.01801089 -0.04410626 -0.04301792  0.00282238]
 [ 0.00467494  0.04621721 -0.07413886 -0.04802456  0.00524508]
 [-0.00500917  0.0434197  -0.138553    0.02658303 -0.00411282]
 [-0.00615579  0.01860228 -0.08802769  0.00760536 -0.04275771]] 
Episode: 245: [[ 0.02109943 -0.00584873 -0.04149024 -0.0488869  -0.01856096]
 [ 0.01735616  0.01801415 -0.04441108 -0.04309653  0.00283668]
 [ 0.00463452  0.04622991 -0.07456809 -0.04800908  0.00525856]
 [-0.00523817  0.04346144 -0.1392238   0.02666262 -0.00409964]
 [-0.00635093  0.01864334 -0.08846812  0.00753071 -0.04302252]] 
Episode: 246: [[ 0.02113976 -0.00575222 -0.04172746 -0.04902323 -0.01847629]
 [ 0.01737909  0.01813023 -0.04470487 -0.0432422   0.00285804]
 [ 0.00463865  0.04631403 -0.07500197 -0.04801201  0.00536004]
 [-0.00544791  0.0435447  -0.13985439  0.02668552 -0.00428026]
 [-0.00649422  0.01868469 -0.0888984   0.0075208  -0.04316948]] 
Episode: 247: [[ 0.02124695 -0.00557736 -0.0417996  -0.0492071  -0.01836524]
 [ 0.0174691   0.01824961 -0.0449486  -0.04351674  0.00289441]
 [ 0.00470774  0.04640707 -0.07541823 -0.04813926  0.00550381]
 [-0.00562377  0.04362384 -0.14043567  0.02661918 -0.00463197]
 [-0.00659437  0.01862251 -0.08933691  0.00739219 -0.04339607]] 
Episode: 248: [[ 0.0213898  -0.00540121 -0.04184167 -0.0494088  -0.01826915]
 [ 0.01758908  0.01833964 -0.04513334 -0.04385645  0.00294836]
 [ 0.00481683  0.04650135 -0.07570963 -0.04819984  0.00568679]
 [-0.00577021  0.04372257 -0.14087799  0.02658821 -0.00509381]
 [-0.00664455  0.0186138  -0.08965711  0.00732226 -0.04353296]] 
Episode: 249: [[ 0.02143265 -0.00516839 -0.04203718 -0.04967376 -0.01828996]
 [ 0.01759601  0.01819588 -0.04527489 -0.04422697  0.00287189]
 [ 0.0048335   0.04646833 -0.07591098 -0.0483913   0.00570315]
 [-0.00597577  0.04378902 -0.14120926  0.02637849 -0.00558877]
 [-0.0068134   0.01863962 -0.08995754  0.00724683 -0.04372378]] 
Episode: 250: [[ 0.02177072 -0.00523362 -0.04221879 -0.05010881 -0.01821805]
 [ 0.01789875  0.01846583 -0.04536377 -0.04485209  0.00299534]
 [ 0.00516936  0.04677901 -0.07583035 -0.04850147  0.00603236]
 [-0.00604911  0.04415999 -0.14126265  0.02636932 -0.00621756]
 [-0.00667868  0.01905067 -0.09002335  0.00703559 -0.04368171]] 
Episode: 251: [[ 0.02210321 -0.00525765 -0.04239713 -0.05057792 -0.01819801]
 [ 0.01820872  0.01869384 -0.04543349 -0.04551332  0.00305101]
 [ 0.00550405  0.04703569 -0.07574531 -0.04866856  0.00630298]
 [-0.00610286  0.04449058 -0.14126888  0.02637381 -0.00681532]
 [-0.00655005  0.01942013 -0.09004585  0.00672044 -0.04370877]] 
Episode: 252: [[ 0.02232057 -0.00530316 -0.04257863 -0.05099751 -0.01818964]
 [ 0.01839441  0.01885895 -0.0454924  -0.04608615  0.00308566]
 [ 0.00571539  0.04724855 -0.07570397 -0.04893423  0.00644424]
 [-0.00619578  0.04477018 -0.1413603   0.02630316 -0.00745042]
 [-0.00652654  0.01975362 -0.0901209   0.0064264  -0.04382719]] 
Episode: 253: [[ 0.02260371 -0.00528862 -0.04277191 -0.05134792 -0.01818935]
 [ 0.01858855  0.01894132 -0.04548393 -0.04653364  0.00309691]
 [ 0.00591075  0.04738006 -0.07582313 -0.04907876  0.00655863]
 [-0.00630091  0.04498919 -0.14157677  0.02638355 -0.00801662]
 [-0.00652257  0.0199756  -0.09034832  0.0061804  -0.04397511]] 
Episode: 254: [[ 0.02280386 -0.00531958 -0.04294534 -0.05166924 -0.01819347]
 [ 0.01869427  0.01904298 -0.04542023 -0.04695287  0.00304913]
 [ 0.00603179  0.04751227 -0.07586711 -0.04928637  0.00660676]
 [-0.00645121  0.04518888 -0.14173904  0.02636787 -0.0085179 ]
 [-0.00656976  0.02019437 -0.09051418  0.00604026 -0.04408797]] 
Episode: 255: [[ 0.0231105  -0.00538981 -0.04304248 -0.05200496 -0.01818296]
 [ 0.01888149  0.0191276  -0.04520494 -0.0474925   0.00298379]
 [ 0.00623857  0.04767968 -0.07588181 -0.04948231  0.00668567]
 [-0.00651217  0.04545338 -0.14190678  0.02646299 -0.00883006]
 [-0.00651055  0.02048396 -0.09068757  0.00583967 -0.04421436]] 
Episode: 256: [[ 0.02340174 -0.00545758 -0.0431564  -0.05233189 -0.01815967]
 [ 0.01905891  0.01920703 -0.04503418 -0.04803468  0.00292642]
 [ 0.00644244  0.04784068 -0.07591308 -0.04961604  0.00677855]
 [-0.00654593  0.04569688 -0.14209908  0.02658851 -0.00918917]
 [-0.0064536   0.02074208 -0.09086206  0.00564327 -0.04437919]] 
Episode: 257: [[ 0.02360022 -0.00551541 -0.04328522 -0.05261744 -0.01813728]
 [ 0.01915045  0.01923235 -0.04491132 -0.04849296  0.0028632 ]
 [ 0.00656323  0.04794262 -0.07593641 -0.04978673  0.00683079]
 [-0.00659552  0.04588412 -0.14227372  0.02667717 -0.00943478]
 [-0.00647635  0.02096146 -0.09101082  0.00552611 -0.04449872]] 
Episode: 258: [[ 0.02367404 -0.00554824 -0.04342847 -0.05286703 -0.01812187]
 [ 0.01912204  0.01919023 -0.04487064 -0.04888482  0.00278765]
 [ 0.00657092  0.04799043 -0.07601202 -0.05001783  0.00684103]
 [-0.00670959  0.04601669 -0.14249197  0.02673572 -0.00962216]
 [-0.0065873   0.02114728 -0.09117552  0.00547074 -0.04464843]] 
Episode: 259: [[ 0.02367993 -0.00558168 -0.04356105 -0.05305569 -0.01809457]
 [ 0.019028    0.01909174 -0.04488066 -0.04921199  0.00272033]
 [ 0.00651315  0.04799931 -0.07606529 -0.05030387  0.00682911]
 [-0.00682179  0.04611003 -0.14263996  0.02678628 -0.00965626]
 [-0.00673196  0.02128557 -0.09129352  0.00549172 -0.04478459]] 
Episode: 260: [[ 0.02376343 -0.00553909 -0.04380667 -0.05322035 -0.01807325]
 [ 0.01899277  0.01905655 -0.04504839 -0.04949286  0.00271693]
 [ 0.0064764   0.04802945 -0.07623506 -0.05057374  0.00696103]
 [-0.00695259  0.04620678 -0.14290692  0.02693778 -0.00969096]
 [-0.00688973  0.02136431 -0.09151372  0.0056461  -0.04486613]] 
Episode: 261: [[ 0.02374198 -0.00552237 -0.04402818 -0.05333938 -0.01804753]
 [ 0.01886053  0.01901777 -0.04519503 -0.04970297  0.00268759]
 [ 0.00635139  0.04801192 -0.0764064  -0.05085377  0.00697521]
 [-0.00711359  0.04623064 -0.14319088  0.02705261 -0.00970739]
 [-0.00712032  0.02140322 -0.09173123  0.00588728 -0.04487409]] 
Episode: 262: [[ 0.02379591 -0.0056553  -0.04440582 -0.05349676 -0.01800736]
 [ 0.01883089  0.01901606 -0.04546916 -0.04988661  0.00277233]
 [ 0.0062858   0.04802069 -0.07658981 -0.05107471  0.0070707 ]
 [-0.00725529  0.04623244 -0.14348006  0.02733758 -0.00971604]
 [-0.00738843  0.02144951 -0.09193927  0.00623997 -0.04485264]] 
Episode: 263: [[ 0.02384188 -0.00579961 -0.04471398 -0.05365022 -0.01797115]
 [ 0.01880543  0.01902371 -0.04570138 -0.05009138  0.00285408]
 [ 0.00623834  0.04805481 -0.07676933 -0.05130146  0.00717146]
 [-0.00738812  0.0462534  -0.14376752  0.02761476 -0.00967214]
 [-0.00762854  0.02150664 -0.0921393   0.00654108 -0.04478281]] 
Episode: 264: [[ 0.02382013 -0.00592638 -0.04499431 -0.05377676 -0.01794118]
 [ 0.01871646  0.01901488 -0.0459154  -0.05024471  0.00292974]
 [ 0.00612876  0.04806245 -0.07697292 -0.05150253  0.0072441 ]
 [-0.00756414  0.04623888 -0.14409198  0.027854   -0.0096221 ]
 [-0.00789495  0.02154198 -0.09235246  0.00683486 -0.04472468]] 
Episode: 265: [[ 0.02377003 -0.00603598 -0.04524864 -0.05387704 -0.01791627]
 [ 0.01860401  0.01899528 -0.04611037 -0.05035217  0.00298921]
 [ 0.00599529  0.04805891 -0.07716164 -0.05168017  0.00729853]
 [-0.00774388  0.04621447 -0.14439897  0.02805459 -0.00952988]
 [-0.00816237  0.0215653  -0.09254276  0.00713465 -0.04467173]] 
Episode: 266: [[ 0.02366857 -0.00612591 -0.04551957 -0.0539276  -0.01789872]
 [ 0.01843792  0.01893356 -0.04630522 -0.05038827  0.00302319]
 [ 0.00581916  0.04800478 -0.07735512 -0.05181902  0.00732592]
 [-0.00797866  0.04614895 -0.1447329   0.02824834 -0.00943525]
 [-0.00846299  0.02156535 -0.09273928  0.00739043 -0.04467254]] 
Episode: 267: [[ 0.02367219 -0.00626089 -0.04591683 -0.05394665 -0.01784616]
 [ 0.01830752  0.01893668 -0.04662184 -0.05062697  0.0029039 ]
 [ 0.00568598  0.04807215 -0.07754624 -0.05190978  0.0073979 ]
 [-0.00815252  0.04617628 -0.14509667  0.02854765 -0.00938919]
 [-0.00871971  0.02158501 -0.09294381  0.00762059 -0.04479156]] 
Episode: 268: [[ 0.02365709 -0.00638445 -0.04630411 -0.0539801  -0.01780044]
 [ 0.01816084  0.01893678 -0.04683632 -0.05086714  0.00274137]
 [ 0.005525    0.04815238 -0.07775997 -0.05196815  0.00749559]
 [-0.0083806   0.04624601 -0.14556254  0.02875663 -0.00938571]
 [-0.00897111  0.02163677 -0.09317131  0.00779455 -0.0449173 ]] 
Episode: 269: [[ 0.02368193 -0.00652436 -0.04673558 -0.05397139 -0.01771912]
 [ 0.01801892  0.01890651 -0.04715623 -0.05109346  0.00264428]
 [ 0.00536582  0.04819999 -0.07802317 -0.05190045  0.0076083 ]
 [-0.00861914  0.04628272 -0.1460552   0.02906087 -0.00941101]
 [-0.00918731  0.02161112 -0.09345231  0.00801576 -0.04498985]] 
Episode: 270: [[ 0.02373687 -0.00666227 -0.04713618 -0.05396916 -0.01764961]
 [ 0.01792403  0.01887866 -0.04745517 -0.05131026  0.00256338]
 [ 0.00525233  0.04826199 -0.07824928 -0.05181003  0.00775406]
 [-0.008828    0.04633689 -0.14649832  0.02937471 -0.0094106 ]
 [-0.00937928  0.02160444 -0.09369095  0.00819088 -0.04507213]] 
Episode: 271: [[ 0.02438481 -0.00637915 -0.04749777 -0.05445237 -0.01753146]
 [ 0.0184645   0.01943972 -0.04787688 -0.05180116  0.00283923]
 [ 0.00574826  0.04898738 -0.07863381 -0.05166636  0.00820066]
 [-0.00871144  0.04687024 -0.14713737  0.02965831 -0.00965055]
 [-0.00903922  0.02204911 -0.09401576  0.00807253 -0.045049  ]] 
Episode: 272: [[ 0.02506862 -0.00618085 -0.04785023 -0.05492819 -0.01744331]
 [ 0.019058    0.01995077 -0.04818149 -0.05232435  0.00304722]
 [ 0.00628846  0.04971043 -0.07896413 -0.05148783  0.00873222]
 [-0.00854047  0.04746375 -0.14771254  0.03001292 -0.00988739]
 [-0.008659    0.02252953 -0.09431078  0.00791624 -0.04505904]] 
Episode: 273: [[ 0.02569848 -0.00599182 -0.04820362 -0.055327   -0.01734338]
 [ 0.01959781  0.02040714 -0.04851593 -0.05277677  0.00328313]
 [ 0.00676875  0.05034388 -0.0793239  -0.05119055  0.0093012 ]
 [-0.00841793  0.04797248 -0.14828563  0.03039081 -0.01011359]
 [-0.00833736  0.0229561  -0.09462223  0.00777505 -0.04505971]] 
Episode: 274: [[ 0.02631583 -0.0058499  -0.04850674 -0.05570865 -0.01721979]
 [ 0.02011201  0.02084024 -0.04878002 -0.05324025  0.00346761]
 [ 0.0072405   0.05093876 -0.07966901 -0.05092699  0.00985777]
 [-0.00828205  0.04844539 -0.14883128  0.03079269 -0.01034522]
 [-0.00800166  0.02330605 -0.09493355  0.0076666  -0.04508201]] 
Episode: 275: [[ 0.02692222 -0.00572656 -0.04892859 -0.05608779 -0.01712085]
 [ 0.02062809  0.02122643 -0.04910752 -0.05368681  0.00367352]
 [ 0.00771571  0.05151398 -0.07989755 -0.05075713  0.01041454]
 [-0.00814276  0.04893867 -0.14922097  0.03108338 -0.01057561]
 [-0.00763677  0.02369086 -0.09515329  0.00754604 -0.04513025]] 
Episode: 276: [[ 0.02750809 -0.00558518 -0.04928865 -0.05646026 -0.01699116]
 [ 0.02113601  0.02158355 -0.04941801 -0.05412276  0.00386254]
 [ 0.00816309  0.05203235 -0.08012556 -0.05066022  0.0108978 ]
 [-0.00802925  0.04937496 -0.1495927   0.0312955  -0.01087736]
 [-0.00729937  0.02403535 -0.09535833  0.00744077 -0.04519464]] 
Episode: 277: [[ 0.02804809 -0.00546433 -0.04963851 -0.05679916 -0.01687213]
 [ 0.02160092  0.02191428 -0.04970133 -0.0545242   0.00403783]
 [ 0.00857291  0.05250078 -0.08033556 -0.05057539  0.01133892]
 [-0.00792307  0.04976297 -0.14993654  0.03150702 -0.01117482]
 [-0.00700136  0.02433546 -0.09555086  0.00734495 -0.0452655 ]] 
Episode: 278: [[ 0.02841654 -0.00530878 -0.04996436 -0.05707932 -0.01678553]
 [ 0.02190185  0.02216725 -0.04998326 -0.05483198  0.00417841]
 [ 0.00883468  0.05285371 -0.08055235 -0.05054585  0.01168986]
 [-0.00787425  0.05003972 -0.15028006  0.03167809 -0.0113413 ]
 [-0.00683679  0.02456648 -0.09572881  0.00730053 -0.0453153 ]] 
Episode: 279: [[ 0.02871986 -0.00517684 -0.05025053 -0.05731219 -0.01670336]
 [ 0.02213354  0.02240501 -0.05028034 -0.05508832  0.00433535]
 [ 0.0090372   0.05316928 -0.08074471 -0.05050469  0.01203308]
 [-0.00784846  0.05028024 -0.15056008  0.03184196 -0.01151323]
 [-0.00671045  0.0247719  -0.09587757  0.0073048  -0.04533975]] 
Episode: 280: [[ 0.02882538 -0.00501074 -0.05046918 -0.05748435 -0.01661956]
 [ 0.02216624  0.02255258 -0.05055024 -0.05530854  0.00435171]
 [ 0.00904903  0.05339558 -0.08106471 -0.05060092  0.01230091]
 [-0.00794997  0.05040934 -0.15100834  0.03180325 -0.01183818]
 [-0.00665125  0.02491271 -0.09615837  0.00735091 -0.04536948]] 
Episode: 281: [[ 0.02893542 -0.00483299 -0.05073547 -0.05762503 -0.01651996]
 [ 0.02219556  0.02262112 -0.05085614 -0.0555271   0.00439979]
 [ 0.00905838  0.05354454 -0.08135299 -0.05074412  0.01241624]
 [-0.0080126   0.05049114 -0.15140931  0.03182347 -0.01202355]
 [-0.00660622  0.02502221 -0.09640007  0.00743816 -0.04537308]] 
Episode: 282: [[ 0.02890264 -0.00462609 -0.05099291 -0.05770774 -0.01637857]
 [ 0.02216975  0.02255799 -0.05107813 -0.05549316  0.00470947]
 [ 0.00897384  0.05359639 -0.08169943 -0.05081598  0.01256623]
 [-0.00820885  0.05053658 -0.15189742  0.03180944 -0.01214647]
 [-0.00665625  0.02516099 -0.09667223  0.00748207 -0.04545876]] 
Episode: 283: [[ 0.02885916 -0.00443089 -0.05124006 -0.05777682 -0.01623542]
 [ 0.02213606  0.02250409 -0.05132117 -0.05544292  0.00499342]
 [ 0.00889417  0.05362773 -0.08205014 -0.05086685  0.01272649]
 [-0.00839143  0.05055337 -0.15236963  0.031838   -0.01222087]
 [-0.0067142   0.02524676 -0.09694143  0.00749639 -0.04557261]] 
Episode: 284: [[ 0.02876255 -0.00424191 -0.05145842 -0.05780747 -0.01610727]
 [ 0.02205475  0.02243716 -0.05155583 -0.0553481   0.00522742]
 [ 0.00877043  0.05364124 -0.08237127 -0.05094657  0.01281009]
 [-0.00858479  0.05055734 -0.15281245  0.03181851 -0.01221485]
 [-0.00680937  0.02533721 -0.09717871  0.00753229 -0.04569716]] 
Episode: 285: [[ 0.02884466 -0.00403863 -0.05133505 -0.05801205 -0.01592129]
 [ 0.02219036  0.02239395 -0.05138783 -0.05556201  0.00572686]
 [ 0.00885558  0.0539198  -0.08237085 -0.0512098   0.01315302]
 [-0.00874671  0.05094733 -0.15297744  0.03166849 -0.01245038]
 [-0.0067818   0.02575632 -0.09722409  0.00735445 -0.04581985]] 
Episode: 286: [[ 0.02885752 -0.00389326 -0.05112431 -0.05814325 -0.01579421]
 [ 0.02223422  0.02233066 -0.05130173 -0.05561562  0.00634359]
 [ 0.00884181  0.05410702 -0.0824235  -0.05149843  0.01350505]
 [-0.00895187  0.05122516 -0.1531602   0.03142033 -0.01249186]
 [-0.00681103  0.02607972 -0.09725244  0.00726478 -0.04580802]] 
Episode: 287: [[ 0.02891496 -0.00374011 -0.05092357 -0.05826085 -0.01568386]
 [ 0.02230474  0.02224714 -0.05122998 -0.05568646  0.00689428]
 [ 0.00885651  0.054289   -0.08242923 -0.05174441  0.01381764]
 [-0.00910515  0.05150839 -0.15326263  0.03119124 -0.01254429]
 [-0.00682561  0.02640537 -0.09722811  0.00718159 -0.04576976]] 
Episode: 288: [[ 0.0289756  -0.00357831 -0.05071208 -0.05834186 -0.01556997]
 [ 0.02238082  0.02213461 -0.05109774 -0.05571122  0.00739026]
 [ 0.00886132  0.05442008 -0.08242846 -0.05188344  0.01405804]
 [-0.00926414  0.05172992 -0.15337344  0.03106824 -0.01256269]
 [-0.00684133  0.02670933 -0.09721573  0.00712094 -0.04565167]] 
Episode: 289: [[ 0.02907646 -0.00341288 -0.05061353 -0.05847833 -0.01539908]
 [ 0.02249464  0.02207451 -0.05110343 -0.05581079  0.00782794]
 [ 0.00891654  0.05461129 -0.0823658  -0.05202224  0.01415576]
 [-0.00936938  0.05199942 -0.15341035  0.03108437 -0.01275951]
 [-0.00684406  0.02695825 -0.09713521  0.00700397 -0.04558887]] 
Episode: 290: [[ 0.02926114 -0.00332772 -0.05068601 -0.05873067 -0.01525743]
 [ 0.0226777   0.02212287 -0.05112989 -0.05611713  0.0082182 ]
 [ 0.00908748  0.05487948 -0.08235514 -0.05213029  0.01432425]
 [-0.00935271  0.05237082 -0.15345974  0.03121334 -0.01304424]
 [-0.00670505  0.02719011 -0.0970924   0.00676862 -0.04567873]] 
Episode: 291: [[ 0.02943902 -0.00322721 -0.05092343 -0.05891298 -0.01508318]
 [ 0.0228651   0.02222154 -0.05127572 -0.05638465  0.00865166]
 [ 0.00925057  0.05509204 -0.08247093 -0.05209909  0.01453659]
 [-0.0093765   0.05266508 -0.1536041   0.03145204 -0.0132169 ]
 [-0.00657861  0.02736619 -0.09717263  0.00667586 -0.0457489 ]] 
Episode: 292: [[ 0.02966214 -0.0030434  -0.05123599 -0.05924568 -0.01496344]
 [ 0.02307796  0.02236808 -0.05144328 -0.05687286  0.00888199]
 [ 0.00946976  0.05537306 -0.0825497  -0.05202605  0.01485092]
 [-0.00943029  0.05299389 -0.15368868  0.03173254 -0.0136085 ]
 [-0.00641007  0.027518   -0.0972456   0.00656616 -0.04597928]] 
Episode: 293: [[ 0.0298112  -0.00277012 -0.05158433 -0.05951548 -0.01491314]
 [ 0.02322025  0.02240693 -0.05165145 -0.0572042   0.00895272]
 [ 0.00960425  0.05557572 -0.08258148 -0.05208346  0.01512655]
 [-0.00949778  0.05327196 -0.15375713  0.03179822 -0.01401986]
 [-0.00625104  0.02755935 -0.09740154  0.00671404 -0.0459412 ]] 
Episode: 294: [[ 0.02983364 -0.00245487 -0.05188323 -0.05977606 -0.0149063 ]
 [ 0.02323864  0.02243689 -0.05190261 -0.05741048  0.00899565]
 [ 0.00963464  0.05572342 -0.0827217  -0.0521885   0.01536686]
 [-0.00969703  0.05351711 -0.15396096  0.03168413 -0.01427128]
 [-0.0061884   0.02766613 -0.09760638  0.00685005 -0.04593109]] 
Episode: 295: [[ 0.02980321 -0.00213041 -0.05217965 -0.05991276 -0.0148844 ]
 [ 0.02320191  0.02244763 -0.05223408 -0.05745699  0.00926827]
 [ 0.00961995  0.05587688 -0.08284368 -0.05219587  0.0156892 ]
 [-0.00994046  0.0537567  -0.15413544  0.03153053 -0.01446079]
 [-0.00621825  0.02778511 -0.09779245  0.00704662 -0.04572809]] 
