Episode: 1: [[0. 0. 0. 0. 0. 0. 0. 0. 0. 0.]
 [0. 0. 0. 0. 0. 0. 0. 0. 0. 0.]
 [0. 0. 0. 0. 0. 0. 0. 0. 0. 0.]
 [0. 0. 0. 0. 0. 0. 0. 0. 0. 0.]
 [0. 0. 0. 0. 0. 0. 0. 0. 0. 0.]] 
Episode: 2: [[ 0.0005     -0.00049999 -0.0005      0.00049992  0.0005      0.
   0.0005      0.          0.         -0.0005    ]
 [-0.0005     -0.0005      0.0005      0.00049999 -0.0005      0.
  -0.0005      0.          0.         -0.0005    ]
 [ 0.0005     -0.0005     -0.0005      0.0005     -0.00049999  0.
  -0.0005      0.          0.         -0.0005    ]
 [ 0.0005     -0.0005     -0.0005      0.0005      0.0005      0.
   0.0005      0.          0.          0.0005    ]
 [ 0.0005      0.0005     -0.0005      0.0005      0.0005      0.
  -0.0005      0.          0.         -0.0005    ]] 
Episode: 3: [[ 0.00096386 -0.00094386 -0.0009803   0.00089703  0.00046131  0.
   0.00096697  0.          0.         -0.00090703]
 [-0.00099925 -0.00069622  0.00099272  0.00024183 -0.00056588  0.
  -0.00093306  0.          0.         -0.00100036]
 [ 0.00096141 -0.00086454 -0.00095404  0.0009037  -0.00089686  0.
  -0.00024797  0.          0.         -0.00099272]
 [ 0.00098236 -0.00085052 -0.00098789  0.00080282  0.00020784  0.
   0.00099056  0.          0.          0.00049062]
 [ 0.0009241   0.00080937 -0.00094233  0.00042585  0.00067664  0.
  -0.00035595  0.          0.         -0.00100019]] 
Episode: 4: [[ 1.4424982e-03 -8.2371006e-04 -1.4699973e-03  1.3396498e-03
   6.6045916e-04  0.0000000e+00  9.4891264e-04  0.0000000e+00
   0.0000000e+00 -8.5782231e-04]
 [-1.4115756e-03 -9.2664012e-04  1.4211460e-03  1.0731137e-04
  -8.8468625e-04  0.0000000e+00 -7.7345094e-04  0.0000000e+00
   0.0000000e+00 -9.2972955e-04]
 [ 1.4259664e-03 -1.0713733e-03 -1.4258364e-03  1.0003777e-03
  -1.1660109e-03  0.0000000e+00 -2.5362094e-04  0.0000000e+00
   0.0000000e+00 -1.3597653e-03]
 [ 1.4458493e-03 -1.1725390e-03 -1.4698489e-03  1.1286973e-03
   4.0125960e-04  0.0000000e+00  8.1358827e-04  0.0000000e+00
   0.0000000e+00  2.2403669e-04]
 [ 1.3741256e-03  1.2035865e-03 -1.3940792e-03  6.6806551e-04
   5.2720291e-04  0.0000000e+00 -2.9189521e-05  0.0000000e+00
   0.0000000e+00 -1.4731489e-03]] 
Episode: 5: [[ 0.00192042 -0.0005379  -0.00195747  0.00109447  0.00056083  0.
   0.00090323  0.          0.         -0.00079532]
 [-0.00183215 -0.00127282  0.00183085  0.0001287  -0.00126951  0.
  -0.00054388  0.          0.         -0.00120141]
 [ 0.00188978 -0.001354   -0.00188658  0.00129171 -0.00152957  0.
  -0.00037017  0.          0.         -0.00144289]
 [ 0.00191395 -0.00156494 -0.00193892  0.0014804   0.00070318  0.
   0.00051207  0.          0.          0.00039612]
 [ 0.00184175  0.0016366  -0.00186388  0.00101503  0.00046597  0.
   0.00012414  0.          0.         -0.00195201]] 
