Episode: 1: [[0. 0. 0. 0. 0. 0. 0. 0. 0. 0.]
 [0. 0. 0. 0. 0. 0. 0. 0. 0. 0.]
 [0. 0. 0. 0. 0. 0. 0. 0. 0. 0.]
 [0. 0. 0. 0. 0. 0. 0. 0. 0. 0.]
 [0. 0. 0. 0. 0. 0. 0. 0. 0. 0.]] 
Episode: 2: [[ 0.0005     -0.00049999 -0.0005      0.00049994  0.0005      0.
   0.0005      0.          0.         -0.0005    ]
 [-0.0005     -0.0005      0.0005      0.00049999 -0.0005      0.
  -0.0005      0.          0.         -0.0005    ]
 [ 0.0005     -0.0005     -0.0005      0.0005     -0.00049999  0.
  -0.0005      0.          0.         -0.0005    ]
 [ 0.0005     -0.0005     -0.0005      0.0005      0.0005      0.
   0.0005      0.          0.          0.0005    ]
 [ 0.0005      0.0005     -0.0005      0.0005      0.0005      0.
  -0.0005      0.          0.         -0.0005    ]] 
Episode: 3: [[ 0.00099051 -0.00092278 -0.00099884  0.00088875  0.00036222  0.
   0.00099245  0.          0.         -0.00093562]
 [-0.00099647 -0.00062502  0.00097096  0.00020106 -0.00046333  0.
  -0.00091446  0.          0.         -0.00098757]
 [ 0.00098888 -0.00087882 -0.00098348  0.00093154 -0.00088865  0.
  -0.00020504  0.          0.         -0.00097096]
 [ 0.00099948 -0.00085831 -0.00100057  0.00078535  0.00017925  0.
   0.00100067  0.          0.          0.0003884 ]
 [ 0.00095528  0.00079554 -0.00097353  0.00033243  0.00059795  0.
  -0.00027876  0.          0.         -0.00099439]] 
Episode: 4: [[ 1.4817875e-03 -8.4177661e-04 -1.4995404e-03  1.3194296e-03
   4.8982230e-04  0.0000000e+00  9.7575900e-04  0.0000000e+00
   0.0000000e+00 -8.7131659e-04]
 [-1.4046611e-03 -8.1058242e-04  1.3761442e-03  4.2948930e-05
  -7.5607182e-04  0.0000000e+00 -7.9125352e-04  0.0000000e+00
   0.0000000e+00 -9.3338668e-04]
 [ 1.4615871e-03 -1.0851250e-03 -1.4675300e-03  1.0378173e-03
  -1.1612680e-03  0.0000000e+00 -1.4658074e-04  0.0000000e+00
   0.0000000e+00 -1.3426832e-03]
 [ 1.4693782e-03 -1.1960983e-03 -1.4893069e-03  1.1119971e-03
   3.2632388e-04  0.0000000e+00  8.3299435e-04  0.0000000e+00
   0.0000000e+00  7.9131998e-05]
 [ 1.4285458e-03  1.1865118e-03 -1.4506696e-03  5.2163401e-04
   3.9733507e-04  0.0000000e+00  7.7165962e-05  0.0000000e+00
   0.0000000e+00 -1.4564497e-03]] 
Episode: 5: [[ 1.9776167e-03 -6.1055896e-04 -2.0021428e-03  1.1018134e-03
   4.0896749e-04  0.0000000e+00  9.3942531e-04  0.0000000e+00
   0.0000000e+00 -8.0011511e-04]
 [-1.8002467e-03 -1.1328176e-03  1.7461816e-03 -1.2209579e-05
  -1.1050230e-03  0.0000000e+00 -6.1998499e-04  0.0000000e+00
   0.0000000e+00 -1.1952337e-03]
 [ 1.9439290e-03 -1.3509945e-03 -1.9531397e-03  1.3239387e-03
  -1.5021705e-03  0.0000000e+00 -1.7397563e-04  0.0000000e+00
   0.0000000e+00 -1.4968917e-03]
 [ 1.9514317e-03 -1.5964026e-03 -1.9805448e-03  1.4745818e-03
   5.6339533e-04  0.0000000e+00  5.6285836e-04  0.0000000e+00
   0.0000000e+00  1.7147353e-04]
 [ 1.9127997e-03  1.6178630e-03 -1.9367745e-03  8.4862439e-04
   2.7961499e-04  0.0000000e+00  2.9203747e-04  0.0000000e+00
   0.0000000e+00 -1.9318725e-03]] 
Episode: 6: [[ 2.4763655e-03 -3.7821746e-04 -2.5059169e-03  1.1263744e-03
   1.4104010e-04  0.0000000e+00  1.0385056e-03  0.0000000e+00
   0.0000000e+00 -5.6959165e-04]
 [-1.9988636e-03 -1.5049354e-03  1.9697759e-03 -2.0781059e-04
  -1.3057383e-03  0.0000000e+00 -6.0349342e-04  0.0000000e+00
   0.0000000e+00 -1.5449468e-03]
 [ 2.4322935e-03 -1.6981671e-03 -2.4439276e-03  1.5802152e-03
  -1.8403282e-03  0.0000000e+00 -1.3100078e-04  0.0000000e+00
   0.0000000e+00 -1.4592669e-03]
 [ 2.4403937e-03 -2.0285812e-03 -2.4756198e-03  1.8314732e-03
   8.8963681e-04  0.0000000e+00  2.1881246e-04  0.0000000e+00
   0.0000000e+00  4.2145234e-04]
 [ 2.3992122e-03  2.0589973e-03 -2.4187043e-03  1.2359220e-03
   8.3830980e-07  0.0000000e+00  6.1504910e-04  0.0000000e+00
   0.0000000e+00 -2.4054558e-03]] 
Episode: 7: [[ 2.9749668e-03 -6.2915802e-05 -3.0026597e-03  1.1257299e-03
   1.0033741e-05  0.0000000e+00  9.9423272e-04  0.0000000e+00
   0.0000000e+00 -4.9558503e-04]
 [-2.1469279e-03 -1.7202287e-03  2.1412363e-03 -1.6702733e-04
  -1.5567533e-03  0.0000000e+00 -4.4324610e-04  0.0000000e+00
   0.0000000e+00 -1.7102215e-03]
 [ 2.9226202e-03 -1.9839716e-03 -2.9315567e-03  1.9039423e-03
  -2.1846981e-03  0.0000000e+00  7.2286639e-05  0.0000000e+00
   0.0000000e+00 -1.5882395e-03]
 [ 2.9343269e-03 -2.4439732e-03 -2.9692180e-03  2.1860490e-03
   1.2154143e-03  0.0000000e+00 -1.3020028e-04  0.0000000e+00
   0.0000000e+00  5.0878577e-04]
 [ 2.8847014e-03  2.5174927e-03 -2.9005129e-03  1.5525388e-03
  -3.0312972e-04  0.0000000e+00  9.7430480e-04  0.0000000e+00
   0.0000000e+00 -2.7413554e-03]] 
Episode: 8: [[ 0.00346623  0.0003106  -0.00349043  0.00102005 -0.00022527  0.
   0.0009503   0.          0.         -0.00024338]
 [-0.00239204 -0.00202519  0.00240872 -0.00011297 -0.00188303  0.
  -0.00025511  0.          0.         -0.00197555]
 [ 0.00334201 -0.00228405 -0.00332272  0.00227653 -0.00257525  0.
   0.00029218  0.          0.         -0.00178438]
 [ 0.00332592 -0.00288614 -0.00332329  0.00257854  0.00156824  0.
  -0.00052057  0.          0.          0.00058177]
 [ 0.00337186  0.00298676 -0.00338205  0.00177234 -0.00063966  0.
   0.00136438  0.          0.         -0.00312684]] 
Episode: 9: [[ 3.9313929e-03  5.9197639e-04 -3.9465814e-03  9.6247479e-04
  -4.1649782e-04  0.0000000e+00  8.6350529e-04  0.0000000e+00
   0.0000000e+00  5.5716820e-05]
 [-2.5015341e-03 -2.3902960e-03  2.5670328e-03  1.2509638e-04
  -2.2562800e-03  0.0000000e+00  4.2195483e-05  0.0000000e+00
   0.0000000e+00 -2.3143736e-03]
 [ 3.7847364e-03 -2.5188096e-03 -3.7452786e-03  2.6679453e-03
  -2.8211747e-03  0.0000000e+00  2.3167886e-04  0.0000000e+00
   0.0000000e+00 -1.7432590e-03]
 [ 3.7507087e-03 -3.2353566e-03 -3.7215606e-03  2.9321834e-03
   1.9659272e-03  0.0000000e+00 -9.4156933e-04  0.0000000e+00
   0.0000000e+00  8.0186693e-04]
 [ 3.8120858e-03  3.3916782e-03 -3.8179371e-03  2.0134985e-03
  -9.9436392e-04  0.0000000e+00  1.7464518e-03  0.0000000e+00
   0.0000000e+00 -3.5222108e-03]] 
Episode: 10: [[ 0.00441068  0.00089535 -0.00441314  0.00104438 -0.00065029  0.
   0.00068156  0.          0.          0.00036585]
 [-0.00274808 -0.0027906   0.00283179  0.00041588 -0.00264947  0.
   0.00039875  0.          0.         -0.00253197]
 [ 0.00417519 -0.00264345 -0.00411589  0.00304022 -0.00313165  0.
   0.00041519  0.          0.         -0.00188203]
 [ 0.00410867 -0.00355511 -0.00405531  0.00326987  0.00229763  0.
  -0.00128015  0.          0.          0.00080735]
 [ 0.00427254  0.00381744 -0.00427526  0.00231692 -0.00129138  0.
   0.00204344  0.          0.         -0.00388153]] 
Episode: 11: [[ 0.00488929  0.00106234 -0.00486008  0.00129249 -0.00096958  0.
   0.00074201  0.          0.          0.00072654]
 [-0.00296786 -0.00316188  0.00307181  0.00058544 -0.00286953  0.
   0.00039256  0.          0.         -0.00270129]
 [ 0.00453597 -0.00286604 -0.00444242  0.00333766 -0.00348252  0.
   0.00070756  0.          0.         -0.0021509 ]
 [ 0.00438739 -0.0039275  -0.00429941  0.0035484   0.00266503  0.
  -0.00164964  0.          0.          0.0006769 ]
 [ 0.00474945  0.00423182 -0.00474783  0.00267041 -0.00165034  0.
   0.0024023   0.          0.         -0.00423139]] 
Episode: 12: [[ 0.00532353  0.00119582 -0.00526233  0.00155545 -0.00126291  0.
   0.00081775  0.          0.          0.00104327]
 [-0.00316125 -0.00350345  0.00328302  0.00067358 -0.00304654  0.
   0.00037091  0.          0.         -0.00283473]
 [ 0.00487213 -0.00310028 -0.0047444   0.00358565 -0.00381538  0.
   0.00098163  0.          0.         -0.00239132]
 [ 0.00464414 -0.00428558 -0.00452263  0.00378835  0.00297875  0.
  -0.00196471  0.          0.          0.0005593 ]
 [ 0.00518986  0.00460346 -0.00518175  0.00300446 -0.00198108  0.
   0.00274078  0.          0.         -0.00455725]] 
Episode: 13: [[ 0.00577831  0.00133651 -0.0056883   0.00179705 -0.00156106  0.
   0.00088639  0.          0.          0.0013461 ]
 [-0.00335017 -0.0038      0.003489    0.00077939 -0.00316133  0.
   0.00028884  0.          0.         -0.00295997]
 [ 0.00524085 -0.00339898 -0.00507556  0.00388828 -0.00417242  0.
   0.00127901  0.          0.         -0.00265027]
 [ 0.00494015 -0.00467319 -0.0047747   0.00408342  0.00332275  0.
  -0.00231324  0.          0.          0.00042162]
 [ 0.00565195  0.00500228 -0.0056395   0.00332456 -0.00230929  0.
   0.0030852   0.          0.         -0.00488363]] 
Episode: 14: [[ 0.00624199  0.00150335 -0.00612361  0.00205003 -0.00183752  0.
   0.00090189  0.          0.          0.00169498]
 [-0.00357834 -0.0040629   0.00372951  0.0008251  -0.00326287  0.
   0.00021074  0.          0.         -0.0030718 ]
 [ 0.00560434 -0.00372193 -0.00539251  0.00423445 -0.00457427  0.
   0.00159193  0.          0.         -0.00294388]
 [ 0.00523707 -0.00505587 -0.00501684  0.00442966  0.00361695  0.
  -0.00263645  0.          0.          0.00023431]
 [ 0.00612211  0.00537145 -0.00610327  0.00358647 -0.00268106  0.
   0.00347601  0.          0.         -0.00519642]] 
Episode: 15: [[ 6.7029968e-03  1.6918269e-03 -6.5490897e-03  2.3091931e-03
  -2.1392545e-03  0.0000000e+00  9.1452128e-04  0.0000000e+00
   0.0000000e+00  1.9719938e-03]
 [-3.7976124e-03 -4.3599340e-03  3.9565205e-03  8.3949068e-04
  -3.3684846e-03  0.0000000e+00  1.4529674e-04  0.0000000e+00
   0.0000000e+00 -3.1994211e-03]
 [ 5.9634647e-03 -4.0279445e-03 -5.6992243e-03  4.6190694e-03
  -4.9762693e-03  0.0000000e+00  1.9028676e-03  0.0000000e+00
   0.0000000e+00 -3.2034249e-03]
 [ 5.5311229e-03 -5.4302607e-03 -5.2470826e-03  4.7951047e-03
   3.9154403e-03  0.0000000e+00 -2.9762867e-03  0.0000000e+00
   0.0000000e+00  8.3303283e-05]
 [ 6.5724440e-03  5.7229809e-03 -6.5452750e-03  3.8242459e-03
  -3.0581567e-03  0.0000000e+00  3.8651223e-03  0.0000000e+00
   0.0000000e+00 -5.4677776e-03]] 
Episode: 16: [[ 7.1629854e-03  1.9140230e-03 -6.9749355e-03  2.5678789e-03
  -2.4367138e-03  0.0000000e+00  9.0360257e-04  0.0000000e+00
   0.0000000e+00  2.2418916e-03]
 [-3.9784969e-03 -4.6961964e-03  4.1358951e-03  8.0292986e-04
  -3.4595975e-03  0.0000000e+00  9.2192116e-05  0.0000000e+00
   0.0000000e+00 -3.3458136e-03]
 [ 6.3418769e-03 -4.3483167e-03 -6.0348511e-03  4.9706860e-03
  -5.3589409e-03  0.0000000e+00  2.1956922e-03  0.0000000e+00
   0.0000000e+00 -3.4587334e-03]
 [ 5.8494410e-03 -5.8019711e-03 -5.5144122e-03  5.1459954e-03
   4.2079533e-03  0.0000000e+00 -3.3116254e-03  0.0000000e+00
   0.0000000e+00 -7.1997893e-05]
 [ 7.0140376e-03  6.0480684e-03 -6.9758268e-03  4.0947278e-03
  -3.4496945e-03  0.0000000e+00  4.2649526e-03  0.0000000e+00
   0.0000000e+00 -5.7532820e-03]] 
Episode: 17: [[ 7.6352828e-03  2.0200235e-03 -7.4075987e-03  2.8201982e-03
  -2.7339617e-03  0.0000000e+00  9.3881565e-04  0.0000000e+00
   0.0000000e+00  2.5504334e-03]
 [-4.1355961e-03 -5.0434028e-03  4.2910455e-03  7.5460685e-04
  -3.5462363e-03  0.0000000e+00  2.8451919e-05  0.0000000e+00
   0.0000000e+00 -3.5229870e-03]
 [ 6.7536710e-03 -4.6785427e-03 -6.4010886e-03  5.3304425e-03
  -5.6980597e-03  0.0000000e+00  2.5361890e-03  0.0000000e+00
   0.0000000e+00 -3.7274039e-03]
 [ 6.2087080e-03 -6.1940742e-03 -5.8162594e-03  5.5236816e-03
   4.4686575e-03  0.0000000e+00 -3.5845852e-03  0.0000000e+00
   0.0000000e+00 -2.4742063e-04]
 [ 7.4776704e-03  6.3471356e-03 -7.4206544e-03  4.4098035e-03
  -3.8392125e-03  0.0000000e+00  4.6754042e-03  0.0000000e+00
   0.0000000e+00 -6.0603037e-03]] 
Episode: 18: [[ 8.1166681e-03  2.1957965e-03 -7.8506190e-03  3.0948459e-03
  -3.0494106e-03  0.0000000e+00  1.0049975e-03  0.0000000e+00
   0.0000000e+00  2.9018151e-03]
 [-4.3099914e-03 -5.4066805e-03  4.4581275e-03  6.2843249e-04
  -3.6028430e-03  0.0000000e+00 -1.6183367e-05  0.0000000e+00
   0.0000000e+00 -3.7182593e-03]
 [ 7.1716476e-03 -4.9997163e-03 -6.7722355e-03  5.6743030e-03
  -6.0590245e-03  0.0000000e+00  2.9054286e-03  0.0000000e+00
   0.0000000e+00 -3.9948318e-03]
 [ 6.5831174e-03 -6.5673473e-03 -6.1282492e-03  5.8669839e-03
   4.7101919e-03  0.0000000e+00 -3.8339312e-03  0.0000000e+00
   0.0000000e+00 -4.2652109e-04]
 [ 7.9409434e-03  6.6470727e-03 -7.8652380e-03  4.7526578e-03
  -4.2347307e-03  0.0000000e+00  5.1049134e-03  0.0000000e+00
   0.0000000e+00 -6.3705915e-03]] 
Episode: 19: [[ 0.00857272  0.00231892 -0.00826792  0.00336901 -0.00338943  0.
   0.00111943  0.          0.          0.0032695 ]
 [-0.00446388 -0.0057272   0.00460784  0.00040435 -0.00358446  0.
  -0.00010934  0.          0.         -0.00393993]
 [ 0.00757005 -0.00535377 -0.00712435  0.00599482 -0.00642438  0.
   0.00328579  0.          0.         -0.00425667]
 [ 0.00692645 -0.00698007 -0.00640519  0.00623282  0.00487065  0.
  -0.00398443  0.          0.         -0.00059784]
 [ 0.00838955  0.00694584 -0.00829642  0.00511014 -0.00461216  0.
   0.0055129   0.          0.         -0.00669361]] 
Episode: 20: [[ 0.00902148  0.00251293 -0.00867366  0.00361252 -0.00365565  0.
   0.00109767  0.          0.          0.00362227]
 [-0.00459924 -0.00609339  0.00474292  0.00019437 -0.00365463  0.
  -0.00021592  0.          0.         -0.00417367]
 [ 0.00795341 -0.00570061 -0.00745363  0.00633574 -0.00682512  0.
   0.0036407   0.          0.         -0.0045487 ]
 [ 0.00723464 -0.00741863 -0.00663809  0.00663115  0.00504121  0.
  -0.00414736  0.          0.         -0.0007889 ]
 [ 0.00883705  0.00726391 -0.00872793  0.00548796 -0.00498043  0.
   0.00587883  0.          0.         -0.00705366]] 
Episode: 21: [[ 9.4323996e-03  2.7058139e-03 -9.0455962e-03  3.8946683e-03
  -3.8978418e-03  0.0000000e+00  1.1204621e-03  0.0000000e+00
   0.0000000e+00  3.9371136e-03]
 [-4.6591996e-03 -6.4924560e-03  4.8470208e-03  5.9734000e-05
  -3.8079026e-03  0.0000000e+00 -3.1660704e-04  0.0000000e+00
   0.0000000e+00 -4.3948605e-03]
 [ 8.3203223e-03 -6.1047450e-03 -7.7635101e-03  6.5910742e-03
  -7.2638881e-03  0.0000000e+00  3.9880951e-03  0.0000000e+00
   0.0000000e+00 -4.7951778e-03]
 [ 7.5317649e-03 -7.8696031e-03 -6.8649305e-03  6.8995827e-03
   5.1678065e-03  0.0000000e+00 -4.2903316e-03  0.0000000e+00
   0.0000000e+00 -9.6081017e-04]
 [ 9.2229759e-03  7.5427485e-03 -9.1032693e-03  5.8391527e-03
  -5.2986317e-03  0.0000000e+00  6.2062433e-03  0.0000000e+00
   0.0000000e+00 -7.3998515e-03]] 
Episode: 22: [[ 9.8525314e-03  2.8752505e-03 -9.4301058e-03  4.1940780e-03
  -4.1885087e-03  0.0000000e+00  1.2114764e-03  0.0000000e+00
   0.0000000e+00  4.2456361e-03]
 [-4.7796732e-03 -6.8801655e-03  5.0045075e-03 -6.4280888e-05
  -3.9278902e-03  0.0000000e+00 -4.2049197e-04  0.0000000e+00
   0.0000000e+00 -4.6209688e-03]
 [ 8.6947232e-03 -6.4778714e-03 -8.0888551e-03  6.8035936e-03
  -7.6882122e-03  0.0000000e+00  4.3204576e-03  0.0000000e+00
   0.0000000e+00 -5.0225402e-03]
 [ 7.8455489e-03 -8.2852403e-03 -7.1165473e-03  7.1232719e-03
   5.2907970e-03  0.0000000e+00 -4.4386815e-03  0.0000000e+00
   0.0000000e+00 -1.1307836e-03]
 [ 9.6071577e-03  7.7908468e-03 -9.4779693e-03  6.2059821e-03
  -5.6334808e-03  0.0000000e+00  6.5566539e-03  0.0000000e+00
   0.0000000e+00 -7.7393269e-03]] 
Episode: 23: [[ 0.01029082  0.00303957 -0.00983573  0.00449108 -0.00445027  0.
   0.0012387   0.          0.          0.00454355]
 [-0.00497237 -0.00721725  0.0052382  -0.00014406 -0.00403001  0.
  -0.00051932  0.          0.         -0.00474548]
 [ 0.00905219 -0.00671823 -0.00838516  0.00698117 -0.00812148  0.
   0.00463924  0.          0.         -0.00531897]
 [ 0.00815129 -0.00860926 -0.007345    0.00730532  0.00543961  0.
  -0.0046394   0.          0.         -0.00138604]
 [ 0.00998151  0.00803938 -0.00984088  0.00656144 -0.00592835  0.
   0.00687094  0.          0.         -0.00807536]] 
Episode: 24: [[ 0.01075069  0.0032276  -0.01026353  0.00470243 -0.00470687  0.
   0.00124878  0.          0.          0.00486561]
 [-0.00518014 -0.00756023  0.00548    -0.00024203 -0.00412528  0.
  -0.00062785  0.          0.         -0.00484486]
 [ 0.00944699 -0.00689281 -0.00871826  0.0071627  -0.00848278  0.
   0.00490992  0.          0.         -0.00564133]
 [ 0.00849872 -0.00891026 -0.00761412  0.00753563  0.00560396  0.
  -0.00484839  0.          0.         -0.00167589]
 [ 0.0103994   0.00828782 -0.01024489  0.00695392 -0.00625279  0.
   0.00723181  0.          0.         -0.00840609]] 
Episode: 25: [[ 0.0112139   0.00336435 -0.01070062  0.00496891 -0.00502096  0.
   0.00135772  0.          0.          0.00514434]
 [-0.00546289 -0.00790338  0.00579588 -0.00040441 -0.00408387  0.
  -0.00083873  0.          0.         -0.00495602]
 [ 0.00981845 -0.00702698 -0.00902848  0.00734686 -0.00883563  0.
   0.00514726  0.          0.         -0.00593785]
 [ 0.00882322 -0.00914237 -0.00786219  0.00774384  0.00576455  0.
  -0.00507525  0.          0.         -0.00193338]
 [ 0.01080371  0.00844336 -0.01063619  0.00734964 -0.00662396  0.
   0.0076308   0.          0.         -0.00874138]] 
Episode: 26: [[ 0.01165831  0.00345312 -0.01111512  0.00527804 -0.00532599  0.
   0.00142494  0.          0.          0.00547473]
 [-0.00570957 -0.00822244  0.00608978 -0.0005062  -0.00411314  0.
  -0.00098854  0.          0.         -0.00513537]
 [ 0.01019278 -0.00720944 -0.00933181  0.00742412 -0.00914983  0.
   0.00538819  0.          0.         -0.00619535]
 [ 0.00914084 -0.00942212 -0.00809134  0.00783328  0.00599547  0.
  -0.00536109  0.          0.         -0.00213093]
 [ 0.01122247  0.00865283 -0.01104077  0.00778674 -0.00704406  0.
   0.00807958  0.          0.         -0.00911763]] 
Episode: 27: [[ 0.01209089  0.00348197 -0.01152217  0.00556467 -0.00563419  0.
   0.00151717  0.          0.          0.00584964]
 [-0.00596573 -0.00858409  0.00638791 -0.00053145 -0.00423063  0.
  -0.00103394  0.          0.         -0.00533557]
 [ 0.01056301 -0.00738863 -0.00963834  0.00754937 -0.0095013   0.
   0.00569761  0.          0.         -0.00650622]
 [ 0.00945813 -0.00973668 -0.00832421  0.00796708  0.00618297  0.
  -0.00558093  0.          0.         -0.00239912]
 [ 0.01163548  0.00884476 -0.01144174  0.00823943 -0.00748051  0.
   0.00853988  0.          0.         -0.00949269]] 
Episode: 28: [[ 0.01250107  0.00353049 -0.01191578  0.00583427 -0.00592355  0.
   0.00162753  0.          0.          0.00612795]
 [-0.00612583 -0.00888778  0.00658373 -0.00069927 -0.00419442  0.
  -0.00119769  0.          0.         -0.00543745]
 [ 0.01094901 -0.0075628  -0.009982    0.00758147 -0.00974907  0.
   0.0058836   0.          0.         -0.00678042]
 [ 0.00979515 -0.01002111 -0.00859757  0.00805248  0.00633217  0.
  -0.00572378  0.          0.         -0.00262636]
 [ 0.01202063  0.00903385 -0.01182868  0.00861318 -0.00779903  0.
   0.00885377  0.          0.         -0.00977604]] 
