Episode: 1: [[0. 0. 0. 0. 0. 0. 0. 0. 0. 0.]
 [0. 0. 0. 0. 0. 0. 0. 0. 0. 0.]
 [0. 0. 0. 0. 0. 0. 0. 0. 0. 0.]
 [0. 0. 0. 0. 0. 0. 0. 0. 0. 0.]
 [0. 0. 0. 0. 0. 0. 0. 0. 0. 0.]] 
Episode: 2: [[ 0.001       0.001       0.00099999 -0.001       0.001       0.
   0.001       0.          0.          0.001     ]
 [ 0.001      -0.001       0.00099999  0.001      -0.001       0.
   0.001       0.          0.          0.001     ]
 [ 0.001      -0.001       0.00099998  0.001      -0.001       0.
  -0.001       0.          0.         -0.001     ]
 [ 0.001      -0.001      -0.001       0.001      -0.001       0.
   0.001       0.          0.         -0.001     ]
 [ 0.001       0.001      -0.001       0.001       0.001       0.
  -0.001       0.          0.         -0.001     ]] 
Episode: 3: [[ 0.00182276  0.00102304  0.00175266 -0.00181998  0.00182926  0.
   0.00026578  0.          0.          0.00065921]
 [ 0.00039091 -0.00041202  0.00174897  0.00195909 -0.00131895  0.
   0.00068743  0.          0.          0.00035602]
 [ 0.00062369 -0.00195061  0.00174881  0.00191012 -0.00183039  0.
  -0.002       0.          0.         -0.00200104]
 [ 0.00094737 -0.00192822 -0.00033766  0.00195681 -0.00186614  0.
   0.00094737  0.          0.         -0.002     ]
 [ 0.00188851  0.00041826 -0.00179963  0.00196224  0.00028879  0.
  -0.00026477  0.          0.         -0.00060973]] 
Episode: 4: [[ 2.5366468e-03  1.3387484e-03  2.3232067e-03 -2.6491196e-03
   2.5743470e-03  0.0000000e+00 -4.5076763e-04  0.0000000e+00
   0.0000000e+00  6.6263729e-04]
 [-1.6737299e-04  1.3731221e-04  2.3620031e-03  2.6263671e-03
  -1.5658969e-03  0.0000000e+00  1.0101260e-03  0.0000000e+00
   0.0000000e+00 -1.4861436e-04]
 [ 2.4919864e-04 -2.6574775e-03  2.3980073e-03  2.6213261e-03
  -2.4688942e-03  0.0000000e+00 -2.4637631e-03  0.0000000e+00
   0.0000000e+00 -2.7256249e-03]
 [ 8.8806241e-04 -2.5606959e-03  2.7350857e-04  2.8976284e-03
  -2.5165454e-03  0.0000000e+00  1.2831616e-03  0.0000000e+00
   0.0000000e+00 -2.2619925e-03]
 [ 2.6888426e-03 -1.5941105e-04 -2.5734112e-03  2.6840302e-03
  -2.4763949e-04  0.0000000e+00 -6.0672533e-05  0.0000000e+00
   0.0000000e+00 -8.1519445e-04]] 
Episode: 5: [[ 0.00329934  0.00179246  0.00274622 -0.00312341  0.0032058   0.
  -0.00126538  0.          0.          0.00070554]
 [-0.00073555  0.00062684  0.00289293  0.00333326 -0.00194625  0.
   0.00130914  0.          0.         -0.00055212]
 [-0.00023807 -0.00332737  0.00295838  0.00328817 -0.00302622  0.
  -0.00260238  0.          0.         -0.00350487]
 [ 0.00067469 -0.00315189  0.00075925  0.00368159 -0.00310032  0.
   0.00178371  0.          0.         -0.00273858]
 [ 0.00350541 -0.00055016 -0.00343096  0.00331859 -0.0006755   0.
  -0.00022823  0.          0.         -0.00106229]] 
Episode: 6: [[ 4.14326834e-03  2.03904044e-03  3.33509757e-03 -3.46437376e-03
   3.72518622e-03  0.00000000e+00 -1.18424778e-03  0.00000000e+00
   0.00000000e+00  3.89547262e-04]
 [-1.36993628e-03  1.31064514e-03  3.42108379e-03  3.75872641e-03
  -1.58012449e-03  0.00000000e+00  1.23432686e-03  0.00000000e+00
   0.00000000e+00 -9.06492060e-04]
 [-8.40018329e-04 -3.98674421e-03  3.43487575e-03  3.76902777e-03
  -3.53726163e-03  0.00000000e+00 -2.98545160e-03  0.00000000e+00
   0.00000000e+00 -4.35467623e-03]
 [ 4.30924585e-04 -3.85395624e-03  1.01932453e-03  4.02516546e-03
  -3.68735357e-03  0.00000000e+00  1.90709950e-03  0.00000000e+00
   0.00000000e+00 -3.34298983e-03]
 [ 4.35549347e-03 -1.17071555e-03 -3.52269621e-03  4.07485291e-03
  -1.14433537e-03  0.00000000e+00 -1.43052885e-05  0.00000000e+00
   0.00000000e+00 -9.33839998e-04]] 
Episode: 7: [[ 0.00465458  0.00156258  0.00357393 -0.0040305   0.00348411  0.
  -0.00146607  0.          0.         -0.00011944]
 [-0.00186928  0.00122472  0.00371982  0.00416301 -0.00187362  0.
   0.00162325  0.          0.         -0.00146763]
 [-0.00093607 -0.0040394   0.00376189  0.00420029 -0.00387506  0.
  -0.00303804  0.          0.         -0.00472634]
 [ 0.00054844 -0.00406762  0.0012975   0.0041956  -0.00411323  0.
   0.00222261  0.          0.         -0.00360498]
 [ 0.0052151  -0.00191557 -0.00362474  0.00490916 -0.00175106  0.
  -0.00012491  0.          0.         -0.00058384]] 
Episode: 8: [[ 5.3029954e-03  1.0487316e-03  3.9534671e-03 -4.3625901e-03
   3.1845756e-03  0.0000000e+00 -1.6400964e-03  0.0000000e+00
   0.0000000e+00 -6.9734786e-04]
 [-2.5326808e-03  1.1660716e-03  4.1601569e-03  4.4528740e-03
  -2.2126266e-03  0.0000000e+00  2.1125481e-03  0.0000000e+00
   0.0000000e+00 -1.9759622e-03]
 [-1.2703992e-03 -4.0835366e-03  4.2313542e-03  4.5014415e-03
  -4.1681989e-03  0.0000000e+00 -3.1173720e-03  0.0000000e+00
   0.0000000e+00 -5.2435808e-03]
 [ 3.9091936e-04 -4.3499172e-03  1.5543744e-03  4.0221075e-03
  -4.5071240e-03  0.0000000e+00  2.2807613e-03  0.0000000e+00
   0.0000000e+00 -4.0084361e-03]
 [ 6.1191279e-03 -2.6806295e-03 -3.6545573e-03  5.7961186e-03
  -2.2614799e-03  0.0000000e+00  2.1014273e-05  0.0000000e+00
   0.0000000e+00 -8.7815628e-05]] 
Episode: 9: [[ 0.00604105  0.00048684  0.00418571 -0.00473638  0.00282385  0.
  -0.00203582  0.          0.         -0.00137622]
 [-0.00326875  0.00093428  0.00459215  0.00473397 -0.00264839  0.
   0.00276203  0.          0.         -0.0025158 ]
 [-0.00171739 -0.00423436  0.00473109  0.00480446 -0.00446801  0.
  -0.00297372  0.          0.         -0.00545659]
 [ 0.00021936 -0.00461847  0.00169377  0.00407708 -0.00486424  0.
   0.00250754  0.          0.         -0.00451663]
 [ 0.00705764 -0.00351642 -0.0039976   0.00672008 -0.00285117  0.
   0.0003444   0.          0.          0.00051132]] 
Episode: 10: [[ 6.6637485e-03 -1.5883290e-04  4.3793595e-03 -5.0661280e-03
   2.3796677e-03  0.0000000e+00 -2.5004256e-03  0.0000000e+00
   0.0000000e+00 -2.1269664e-03]
 [-3.9155092e-03  6.2768941e-04  4.9376213e-03  5.0858282e-03
  -3.0811403e-03  0.0000000e+00  3.3775638e-03  0.0000000e+00
   0.0000000e+00 -2.9434538e-03]
 [-2.1338542e-03 -4.3650544e-03  5.1554511e-03  5.1311352e-03
  -4.7486415e-03  0.0000000e+00 -2.9164618e-03  0.0000000e+00
   0.0000000e+00 -5.4462971e-03]
 [-1.5380287e-05 -4.8795887e-03  1.6947344e-03  3.9145453e-03
  -5.2044378e-03  0.0000000e+00  2.5308479e-03  0.0000000e+00
   0.0000000e+00 -5.1051136e-03]
 [ 7.8757107e-03 -4.3722675e-03 -3.8141487e-03  7.6623890e-03
  -3.4376436e-03  0.0000000e+00  7.9736306e-04  0.0000000e+00
   0.0000000e+00  1.1867669e-03]] 
Episode: 11: [[ 0.00724407 -0.00071497  0.00458201 -0.00522835  0.00200363  0.
  -0.00273969  0.          0.         -0.00279017]
 [-0.00450724  0.00037891  0.00526201  0.00537638 -0.00341873  0.
   0.00391201  0.          0.         -0.00328841]
 [-0.00255638 -0.00447965  0.00555287  0.00540541 -0.00499597  0.
  -0.00300219  0.          0.         -0.00533609]
 [-0.00030003 -0.00511709  0.00170901  0.00372586 -0.00551305  0.
   0.00243764  0.          0.         -0.00544971]
 [ 0.00863628 -0.0051244  -0.00371993  0.00854544 -0.00395111  0.
   0.00123666  0.          0.          0.00159472]] 
Episode: 12: [[ 0.00776615 -0.00120595  0.0047533  -0.00541297  0.00167597  0.
  -0.00285775  0.          0.         -0.00329952]
 [-0.00500008  0.00015569  0.00551928  0.00558742 -0.00371036  0.
   0.00444279  0.          0.         -0.00359927]
 [-0.00282072 -0.0045907   0.00584466  0.00568577 -0.0052185   0.
  -0.00306188  0.          0.         -0.00532421]
 [-0.00032394 -0.00533657  0.00164126  0.0037834  -0.00580715  0.
   0.00250966  0.          0.         -0.00588581]
 [ 0.00937299 -0.00580085 -0.00371271  0.00919276 -0.0043902   0.
   0.00143141  0.          0.          0.00178001]] 
Episode: 13: [[ 8.3498359e-03 -1.5958025e-03  4.9986620e-03 -5.6428299e-03
   1.4426039e-03  0.0000000e+00 -2.9929737e-03  0.0000000e+00
   0.0000000e+00 -3.6855519e-03]
 [-5.4954919e-03 -3.8776321e-05  5.7884143e-03  5.7165283e-03
  -3.9614011e-03  0.0000000e+00  4.9796132e-03  0.0000000e+00
   0.0000000e+00 -3.9093592e-03]
 [-3.0614056e-03 -4.7273086e-03  6.1627394e-03  6.0324315e-03
  -5.4310160e-03  0.0000000e+00 -2.9399830e-03  0.0000000e+00
   0.0000000e+00 -5.1628896e-03]
 [-2.0021007e-04 -5.5587715e-03  1.6643162e-03  4.0230136e-03
  -6.0743392e-03  0.0000000e+00  2.7156889e-03  0.0000000e+00
   0.0000000e+00 -6.1212438e-03]
 [ 1.0177102e-02 -6.3477936e-03 -3.9915778e-03  9.9180341e-03
  -4.7574760e-03  0.0000000e+00  1.6086153e-03  0.0000000e+00
   0.0000000e+00  1.7867108e-03]] 
Episode: 14: [[ 8.7642986e-03 -1.8966964e-03  5.2444283e-03 -5.8722519e-03
   1.2581501e-03  0.0000000e+00 -3.0982462e-03  0.0000000e+00
   0.0000000e+00 -3.9540930e-03]
 [-5.8215768e-03 -1.5679015e-04  5.9905029e-03  5.9346766e-03
  -4.1062147e-03  0.0000000e+00  5.2829040e-03  0.0000000e+00
   0.0000000e+00 -4.2053959e-03]
 [-3.0664562e-03 -4.8450599e-03  6.3048652e-03  6.4211236e-03
  -5.6215972e-03  0.0000000e+00 -2.7782049e-03  0.0000000e+00
   0.0000000e+00 -5.1139286e-03]
 [ 8.5568419e-05 -5.7311687e-03  1.5095912e-03  4.3057953e-03
  -6.3004768e-03  0.0000000e+00  2.7966411e-03  0.0000000e+00
   0.0000000e+00 -6.3876132e-03]
 [ 1.0834397e-02 -6.7754043e-03 -4.1492144e-03  1.0530833e-02
  -5.0489320e-03  0.0000000e+00  1.5962290e-03  0.0000000e+00
   0.0000000e+00  1.8503345e-03]] 
Episode: 15: [[ 0.00901241 -0.00217819  0.00547685 -0.00602168  0.00110192  0.
  -0.00315483  0.          0.         -0.00419797]
 [-0.00595477 -0.00030195  0.00609434  0.00619415 -0.00425366  0.
   0.00554061  0.          0.         -0.00455166]
 [-0.00287818 -0.00498024  0.00628014  0.0068052  -0.00580808  0.
  -0.00261124  0.          0.         -0.00505182]
 [ 0.00049835 -0.00591049  0.00121398  0.0045465  -0.0065118   0.
   0.00273072  0.          0.         -0.00655122]
 [ 0.01139587 -0.00716719 -0.0042748   0.01110131 -0.00531102  0.
   0.00154645  0.          0.          0.0019666 ]] 
Episode: 16: [[ 0.00931104 -0.00241048  0.00575874 -0.0059675   0.00095629  0.
  -0.00300641  0.          0.         -0.00444034]
 [-0.00611093 -0.00037244  0.00624586  0.00655858 -0.00439663  0.
   0.0057708   0.          0.         -0.00478459]
 [-0.00277179 -0.00506891  0.00631719  0.00724514 -0.00596923  0.
  -0.00262774  0.          0.         -0.00501212]
 [ 0.0008363  -0.00605705  0.00094713  0.00476743 -0.00671766  0.
   0.00254156  0.          0.         -0.006827  ]
 [ 0.01197682 -0.00749091 -0.00441574  0.01168671 -0.00553554  0.
   0.00147281  0.          0.          0.00213466]] 
Episode: 17: [[ 0.00936811 -0.00282548  0.00604821 -0.00604722  0.00073803  0.
  -0.00276679  0.          0.         -0.00482587]
 [-0.00599312 -0.00045065  0.00615405  0.00691338 -0.0041755   0.
   0.0057847   0.          0.         -0.00497125]
 [-0.00250238 -0.00504623  0.00599994  0.00766428 -0.00596856  0.
  -0.00275768  0.          0.         -0.00482037]
 [ 0.00128819 -0.00617163  0.0004232   0.00504291 -0.0067831   0.
   0.00250413  0.          0.         -0.00693848]
 [ 0.01225336 -0.00800248 -0.00416855  0.01200255 -0.00585797  0.
   0.00125355  0.          0.          0.00242414]] 
Episode: 18: [[ 0.00946506 -0.00331599  0.00604868 -0.00602402  0.00044991  0.
  -0.00276225  0.          0.         -0.00521338]
 [-0.0060468  -0.0006665   0.00604116  0.00732575 -0.0041112   0.
   0.00579401  0.          0.         -0.00527997]
 [-0.00233933 -0.00497745  0.00586093  0.0080371  -0.00599832  0.
  -0.00271077  0.          0.         -0.00455359]
 [ 0.00152109 -0.00623648  0.00022641  0.0050963  -0.00690231  0.
   0.00259613  0.          0.         -0.00691001]
 [ 0.01257456 -0.00856064 -0.0041489   0.01244058 -0.00623451  0.
   0.00112553  0.          0.          0.00281529]] 
Episode: 19: [[ 9.7280694e-03 -3.7007059e-03  6.1502215e-03 -6.0887351e-03
   2.8283702e-04  0.0000000e+00 -2.6037020e-03  0.0000000e+00
   0.0000000e+00 -5.3707100e-03]
 [-6.2274626e-03 -8.3397614e-04  6.0220384e-03  7.4705286e-03
  -4.0319669e-03  0.0000000e+00  6.0046706e-03  0.0000000e+00
   0.0000000e+00 -5.4603955e-03]
 [-2.3425582e-03 -4.8559238e-03  5.7929391e-03  8.3251372e-03
  -6.0244021e-03  0.0000000e+00 -2.6643462e-03  0.0000000e+00
   0.0000000e+00 -4.2529292e-03]
 [ 1.6601762e-03 -6.2406617e-03  5.5470569e-05  5.3119520e-03
  -7.0028780e-03  0.0000000e+00  2.5702133e-03  0.0000000e+00
   0.0000000e+00 -6.7615854e-03]
 [ 1.3033066e-02 -8.9501450e-03 -4.1448222e-03  1.2735215e-02
  -6.4700255e-03  0.0000000e+00  1.0831299e-03  0.0000000e+00
   0.0000000e+00  3.0219706e-03]] 
Episode: 20: [[ 0.00990473 -0.00407123  0.00621867 -0.00626667  0.00012156  0.
  -0.00254513  0.          0.         -0.00554843]
 [-0.00633676 -0.00100844  0.00597249  0.0076026  -0.0039982   0.
   0.00624685  0.          0.         -0.00562321]
 [-0.00224636 -0.00474192  0.00572005  0.00858667 -0.00608573  0.
  -0.00263773  0.          0.         -0.0038954 ]
 [ 0.00191367 -0.00627627 -0.00013815  0.00555723 -0.00715628  0.
   0.00254826  0.          0.         -0.00650974]
 [ 0.01339819 -0.00936894 -0.00410508  0.01297772 -0.00678525  0.
   0.00089654  0.          0.          0.00333492]] 
Episode: 21: [[ 1.0183961e-02 -4.3814126e-03  6.3468707e-03 -6.4092404e-03
  -1.4280535e-05  0.0000000e+00 -2.3451603e-03  0.0000000e+00
   0.0000000e+00 -5.7272273e-03]
 [-6.5045562e-03 -1.1187886e-03  5.9924070e-03  7.7524860e-03
  -3.9747246e-03  0.0000000e+00  6.5014386e-03  0.0000000e+00
   0.0000000e+00 -5.7012811e-03]
 [-2.2537438e-03 -4.6310560e-03  5.6774663e-03  8.8752322e-03
  -6.1369119e-03  0.0000000e+00 -2.7119918e-03  0.0000000e+00
   0.0000000e+00 -3.5772314e-03]
 [ 2.1173453e-03 -6.2960228e-03 -3.2923129e-04  5.8616563e-03
  -7.2897198e-03  0.0000000e+00  2.4070626e-03  0.0000000e+00
   0.0000000e+00 -6.4058807e-03]
 [ 1.3795074e-02 -9.7186174e-03 -4.1276352e-03  1.3177312e-02
  -7.0500891e-03  0.0000000e+00  7.1456714e-04  0.0000000e+00
   0.0000000e+00  3.5323219e-03]] 
Episode: 22: [[ 0.01027316 -0.00480091  0.00654581 -0.00666956 -0.00023034  0.
  -0.00208179  0.          0.         -0.0060487 ]
 [-0.00653705 -0.00124243  0.00596689  0.00797259 -0.00379926  0.
   0.00650916  0.          0.         -0.00574908]
 [-0.00215263 -0.00442519  0.00557901  0.00919795 -0.00612021  0.
  -0.00293072  0.          0.         -0.00314924]
 [ 0.00232945 -0.00625915 -0.00060155  0.00606159 -0.00734637  0.
   0.00216241  0.          0.         -0.00643079]
 [ 0.0140217  -0.01020468 -0.00393516  0.01351255 -0.00741878  0.
   0.00040934  0.          0.          0.00383464]] 
Episode: 23: [[ 0.01037784 -0.00524219  0.00674287 -0.00701514 -0.00056297  0.
  -0.0016843   0.          0.         -0.00616552]
 [-0.00653067 -0.00140042  0.00594966  0.00800275 -0.00376277  0.
   0.00673412  0.          0.         -0.00557597]
 [-0.00193318 -0.0041356   0.00550175  0.00946865 -0.00610138  0.
  -0.00327074  0.          0.         -0.00292257]
 [ 0.00266402 -0.00614725 -0.00081561  0.00614783 -0.00735313  0.
   0.00182765  0.          0.         -0.00656816]
 [ 0.01439215 -0.01069485 -0.0039005   0.01396044 -0.00787737  0.
   0.00028478  0.          0.          0.00397553]] 
Episode: 24: [[ 0.01057091 -0.00559151  0.00701773 -0.00716843 -0.00084445  0.
  -0.0014012   0.          0.         -0.00632655]
 [-0.00655057 -0.0015077   0.00594506  0.00819266 -0.00369024  0.
   0.00682733  0.          0.         -0.0054427 ]
 [-0.00179723 -0.00391474  0.00535651  0.00982236 -0.00606862  0.
  -0.00362549  0.          0.         -0.00266678]
 [ 0.00292917 -0.00608184 -0.001093    0.00627672 -0.0073406   0.
   0.00143688  0.          0.         -0.00680407]
 [ 0.0147816  -0.01108939 -0.00388949  0.01439303 -0.00826317  0.
   0.00025704  0.          0.          0.00409956]] 
Episode: 25: [[ 0.01090338 -0.00591048  0.00732695 -0.00709526 -0.00113008  0.
  -0.00099875  0.          0.         -0.00647191]
 [-0.00677716 -0.00157547  0.006086    0.00838967 -0.00364058  0.
   0.00705366  0.          0.         -0.00518141]
 [-0.00183835 -0.00373584  0.00537908  0.01000502 -0.00600599  0.
  -0.0040496   0.          0.         -0.00252394]
 [ 0.00301427 -0.00601146 -0.00125038  0.00622416 -0.00721659  0.
   0.00097363  0.          0.         -0.00712656]
 [ 0.01527142 -0.01148711 -0.00392613  0.01492379 -0.00870189  0.
   0.00037161  0.          0.          0.00433463]] 
Episode: 26: [[ 0.01115276 -0.00620401  0.00765522 -0.00709463 -0.00138062  0.
  -0.0004983   0.          0.         -0.0065887 ]
 [-0.00689093 -0.00161446  0.00614976  0.00853149 -0.00349935  0.
   0.00722153  0.          0.         -0.00495607]
 [-0.00171993 -0.00354089  0.00528223  0.01024693 -0.00591455  0.
  -0.0045129   0.          0.         -0.002374  ]
 [ 0.00323222 -0.00589871 -0.00148354  0.00633711 -0.00706892  0.
   0.00067615  0.          0.         -0.00730247]
 [ 0.01572432 -0.01179532 -0.00403216  0.01523859 -0.00903196  0.
   0.00033653  0.          0.          0.00441956]] 
Episode: 27: [[ 1.1375276e-02 -6.4739618e-03  7.9703219e-03 -7.0665590e-03
  -1.6361654e-03  0.0000000e+00 -1.6942337e-05  0.0000000e+00
   0.0000000e+00 -6.6946489e-03]
 [-6.9888681e-03 -1.6511285e-03  6.2108035e-03  8.6129475e-03
  -3.3744478e-03  0.0000000e+00  7.3518315e-03  0.0000000e+00
   0.0000000e+00 -4.7404091e-03]
 [-1.6031163e-03 -3.3513950e-03  5.1945131e-03  1.0386888e-02
  -5.8115339e-03  0.0000000e+00 -5.0214780e-03  0.0000000e+00
   0.0000000e+00 -2.1903592e-03]
 [ 3.4402132e-03 -5.7891160e-03 -1.6980859e-03  6.2960889e-03
  -6.8934397e-03  0.0000000e+00  2.9763664e-04  0.0000000e+00
   0.0000000e+00 -7.3489393e-03]
 [ 1.6156618e-02 -1.2057813e-02 -4.1325409e-03  1.5603555e-02
  -9.3563683e-03  0.0000000e+00  4.3900457e-04  0.0000000e+00
   0.0000000e+00  4.4619492e-03]] 
Episode: 28: [[ 0.01173187 -0.00666931  0.0083735  -0.0068138  -0.00176236  0.
   0.0004962   0.          0.         -0.00676315]
 [-0.00715461 -0.00163492  0.0063357   0.00868835 -0.00322301  0.
   0.00740061  0.          0.         -0.00446805]
 [-0.00160066 -0.00326639  0.00511366  0.01065018 -0.00577258  0.
  -0.00552166  0.          0.         -0.00203385]
 [ 0.00357869 -0.00586264 -0.00194289  0.00641113 -0.00684384  0.
  -0.0001188   0.          0.         -0.00749995]
 [ 0.01667219 -0.01217215 -0.00431368  0.01577813 -0.0095981   0.
   0.00066081  0.          0.          0.00437659]] 
Episode: 29: [[ 0.01207279 -0.00683856  0.00869683 -0.00647084 -0.00184654  0.
   0.00080764  0.          0.         -0.00681817]
 [-0.00730093 -0.00163063  0.00643694  0.00882565 -0.00310502  0.
   0.00747649  0.          0.         -0.00425077]
 [-0.00150288 -0.00319517  0.00505317  0.0109504  -0.00573493  0.
  -0.0058182   0.          0.         -0.00194545]
 [ 0.00384356 -0.00592896 -0.0021859   0.00664313 -0.00678431  0.
  -0.00037746  0.          0.         -0.00774358]
 [ 0.01720932 -0.01226104 -0.00439662  0.01578975 -0.00983997  0.
   0.00072822  0.          0.          0.00417921]] 
Episode: 30: [[ 0.01248878 -0.00700012  0.00889998 -0.00626036 -0.00191245  0.
   0.00096462  0.          0.         -0.00681165]
 [-0.0075274  -0.001771    0.00658832  0.00880505 -0.00321228  0.
   0.00772528  0.          0.         -0.00403565]
 [-0.00149997 -0.00321407  0.00507365  0.01109057 -0.00582434  0.
  -0.00593558  0.          0.         -0.00200848]
 [ 0.00400405 -0.00600282 -0.00241144  0.00670201 -0.00683073  0.
  -0.00072032  0.          0.         -0.00806942]
 [ 0.01773977 -0.01230814 -0.00460713  0.01593561 -0.01006709  0.
   0.00091536  0.          0.          0.00388339]] 
Episode: 31: [[ 0.0130117  -0.0071774   0.00932562 -0.00595746 -0.00204378  0.
   0.00105514  0.          0.         -0.00697358]
 [-0.00792305 -0.00187575  0.00687719  0.00898708 -0.00338336  0.
   0.00778614  0.          0.         -0.0037588 ]
 [-0.00164863 -0.00326746  0.00509341  0.01128641 -0.00596321  0.
  -0.00618019  0.          0.         -0.00191683]
 [ 0.00400516 -0.0061978  -0.00269386  0.00661157 -0.00699697  0.
  -0.0011378   0.          0.         -0.00840395]
 [ 0.01833443 -0.01244396 -0.00478628  0.01620231 -0.01031385  0.
   0.00120732  0.          0.          0.00373878]] 
Episode: 32: [[ 0.01359797 -0.00727498  0.00978954 -0.00554121 -0.00205039  0.
   0.00128991  0.          0.         -0.00711307]
 [-0.00835121 -0.00192197  0.00723063  0.00921769 -0.00350751  0.
   0.0078123   0.          0.         -0.00346607]
 [-0.00192743 -0.00331913  0.00518726  0.01158568 -0.00609553  0.
  -0.00646255  0.          0.         -0.00190887]
 [ 0.00386802 -0.00638134 -0.00289513  0.00667145 -0.00715191  0.
  -0.00146596  0.          0.         -0.00881169]
 [ 0.01897174 -0.01246556 -0.0050157   0.01647207 -0.01041606  0.
   0.00159127  0.          0.          0.0035355 ]] 
Episode: 33: [[ 0.01400154 -0.00748705  0.0102174  -0.00518044 -0.00216802  0.
   0.00157076  0.          0.         -0.00716527]
 [-0.00861595 -0.00202538  0.00749654  0.00931979 -0.00358907  0.
   0.00782789  0.          0.         -0.00330552]
 [-0.00207309 -0.00330341  0.00522619  0.01179114 -0.00621522  0.
  -0.00677464  0.          0.         -0.00175707]
 [ 0.00383486 -0.00652682 -0.00312311  0.00664088 -0.0073352   0.
  -0.00164806  0.          0.         -0.00906884]
 [ 0.01946196 -0.01264342 -0.00508483  0.01680713 -0.01067393  0.
   0.00181023  0.          0.          0.00323582]] 
Episode: 34: [[ 0.01436052 -0.00765547  0.01059369 -0.00486164 -0.00224862  0.
   0.00184718  0.          0.         -0.00717324]
 [-0.00885116 -0.00210059  0.00772809  0.00936397 -0.00364072  0.
   0.00781153  0.          0.         -0.00315795]
 [-0.00215804 -0.00329547  0.00525205  0.01199018 -0.00632712  0.
  -0.00704661  0.          0.         -0.00168019]
 [ 0.00389182 -0.00665697 -0.00333986  0.00671813 -0.00750373  0.
  -0.00175004  0.          0.         -0.00940649]
 [ 0.01991851 -0.01276918 -0.00515222  0.01699348 -0.01087653  0.
   0.0019309   0.          0.          0.00285094]] 
Episode: 35: [[ 0.01480837 -0.00768266  0.01093674 -0.0046333  -0.00221135  0.
   0.0019883   0.          0.         -0.00701314]
 [-0.00913089 -0.00211899  0.00793515  0.00923294 -0.00366281  0.
   0.00789565  0.          0.         -0.00301894]
 [-0.00225143 -0.00329606  0.00527282  0.01211401 -0.00640028  0.
  -0.00715194  0.          0.         -0.00153128]
 [ 0.0039958  -0.00685582 -0.00357791  0.00692391 -0.00766765  0.
  -0.00193683  0.          0.         -0.00960216]
 [ 0.02042533 -0.01266862 -0.00526985  0.01702247 -0.0109064   0.
   0.00216064  0.          0.          0.00239065]] 
Episode: 36: [[ 0.01525749 -0.00768668  0.01127036 -0.00442227 -0.0021379   0.
   0.00212972  0.          0.         -0.00683882]
 [-0.00940044 -0.00211175  0.00813105  0.00912987 -0.00364997  0.
   0.00798142  0.          0.         -0.00289309]
 [-0.00233186 -0.0033066   0.00528157  0.01229187 -0.00645676  0.
  -0.00729298  0.          0.         -0.00146145]
 [ 0.00415668 -0.00706224 -0.00380874  0.00724192 -0.00780792  0.
  -0.00221532  0.          0.         -0.00988401]
 [ 0.02095661 -0.0125331  -0.00534658  0.01702528 -0.01089137  0.
   0.00248668  0.          0.          0.00188036]] 
Episode: 37: [[ 0.01572802 -0.0077524   0.01160739 -0.00414495 -0.00213254  0.
   0.00220427  0.          0.         -0.0067678 ]
 [-0.00968276 -0.00215583  0.00835115  0.00915048 -0.00370384  0.
   0.00801534  0.          0.         -0.0026589 ]
 [-0.00246299 -0.00330979  0.00528649  0.01250842 -0.0065153   0.
  -0.00746706  0.          0.         -0.0013655 ]
 [ 0.00427235 -0.00727471 -0.00407641  0.0074664  -0.00797196  0.
  -0.00257544  0.          0.         -0.01024281]
 [ 0.02147166 -0.01244505 -0.00539736  0.01716365 -0.01090841  0.
   0.00289786  0.          0.          0.00153973]] 
Episode: 38: [[ 0.01628431 -0.00774607  0.01192598 -0.00382242 -0.00203974  0.
   0.00228485  0.          0.         -0.00662689]
 [-0.00999563 -0.00221845  0.00860723  0.00914133 -0.00381445  0.
   0.00808351  0.          0.         -0.00247915]
 [-0.00262956 -0.00327167  0.00537175  0.01271287 -0.00657796  0.
  -0.0077061   0.          0.         -0.00122485]
 [ 0.00438009 -0.00737    -0.00424737  0.00777197 -0.00807451  0.
  -0.00300827  0.          0.         -0.01045895]
 [ 0.0220946  -0.01218571 -0.00541837  0.01736759 -0.01080187  0.
   0.00338439  0.          0.          0.00112012]] 
Episode: 39: [[ 0.01691371 -0.0077105   0.01229016 -0.00344529 -0.00188564  0.
   0.00243169  0.          0.         -0.006587  ]
 [-0.01036233 -0.00223635  0.0088762   0.00910936 -0.00385714  0.
   0.00814096  0.          0.         -0.00231758]
 [-0.00286733 -0.00320759  0.0054694   0.01292127 -0.00664685  0.
  -0.00795036  0.          0.         -0.00102071]
 [ 0.00443397 -0.00742709 -0.00438522  0.00812731 -0.00816937  0.
  -0.00328639  0.          0.         -0.01058063]
 [ 0.0228089  -0.01189884 -0.00548445  0.01761808 -0.01067449  0.
   0.00393326  0.          0.          0.00063034]] 
Episode: 40: [[ 1.7532226e-02 -7.6471595e-03  1.2611414e-02 -3.0250407e-03
  -1.7079656e-03  0.0000000e+00  2.4015647e-03  0.0000000e+00
   0.0000000e+00 -6.4839553e-03]
 [-1.0761412e-02 -2.2493319e-03  9.1418540e-03  9.1871563e-03
  -3.9011724e-03  0.0000000e+00  8.3258357e-03  0.0000000e+00
   0.0000000e+00 -2.1822408e-03]
 [-3.2013280e-03 -3.1977170e-03  5.5996967e-03  1.3158496e-02
  -6.7232014e-03  0.0000000e+00 -8.0804089e-03  0.0000000e+00
   0.0000000e+00 -9.1284019e-04]
 [ 4.3392577e-03 -7.5563574e-03 -4.4752778e-03  8.4456755e-03
  -8.2847485e-03  0.0000000e+00 -3.6450319e-03  0.0000000e+00
   0.0000000e+00 -1.0795669e-02]
 [ 2.3497839e-02 -1.1695895e-02 -5.5046030e-03  1.7966224e-02
  -1.0600290e-02  0.0000000e+00  4.5418646e-03  0.0000000e+00
   0.0000000e+00  7.8175312e-05]] 
Episode: 41: [[ 0.01823141 -0.00748459  0.01309138 -0.0024799  -0.0014623   0.
   0.00233812  0.          0.         -0.00653352]
 [-0.01130975 -0.00219536  0.00961084  0.00933239 -0.00397428  0.
   0.00850545  0.          0.         -0.00201757]
 [-0.00364755 -0.00320936  0.00587845  0.01335744 -0.00682237  0.
  -0.00825858  0.          0.         -0.0006939 ]
 [ 0.00411467 -0.00765868 -0.00449652  0.00872724 -0.00840504  0.
  -0.00385771  0.          0.         -0.0108831 ]
 [ 0.02426904 -0.01134936 -0.00574502  0.01822943 -0.01043025  0.
   0.00496921  0.          0.         -0.00052948]] 
Episode: 42: [[ 0.01900023 -0.00700791  0.01343281 -0.00219096 -0.00090819  0.
   0.00212437  0.          0.         -0.00641226]
 [-0.01198154 -0.00231741  0.01021772  0.00926776 -0.00431071  0.
   0.00886912  0.          0.         -0.00198295]
 [-0.00419111 -0.0034039   0.00643758  0.01368412 -0.00717441  0.
  -0.00827049  0.          0.         -0.00035258]
 [ 0.00377636 -0.0075612  -0.00414906  0.00911522 -0.00867805  0.
  -0.00393992  0.          0.         -0.01085629]
 [ 0.0251104  -0.0106749  -0.00603405  0.01832814 -0.00998115  0.
   0.00546814  0.          0.         -0.00118653]] 
Episode: 43: [[ 0.01972748 -0.00653565  0.01373836 -0.00198738 -0.00037454  0.
   0.00199222  0.          0.         -0.00627433]
 [-0.01259013 -0.00238505  0.01074289  0.00919323 -0.00458322  0.
   0.00920899  0.          0.         -0.00197718]
 [-0.00463572 -0.00357891  0.0068956   0.0140114  -0.0074899   0.
  -0.00831803  0.          0.         -0.00011377]
 [ 0.00361258 -0.00744591 -0.00390993  0.00954662 -0.00888255  0.
  -0.00412189  0.          0.         -0.01082935]
 [ 0.02591407 -0.01002719 -0.00632488  0.01840716 -0.00954408  0.
   0.00592125  0.          0.         -0.00188753]] 
Episode: 44: [[ 2.0456901e-02 -6.0668900e-03  1.4080786e-02 -1.7377735e-03
   1.8101526e-04  0.0000000e+00  1.9112650e-03  0.0000000e+00
   0.0000000e+00 -6.1037517e-03]
 [-1.3182139e-02 -2.3853050e-03  1.1249841e-02  9.1498783e-03
  -4.7798282e-03  0.0000000e+00  9.4914949e-03  0.0000000e+00
   0.0000000e+00 -1.9764074e-03]
 [-5.1031485e-03 -3.7598801e-03  7.3199808e-03  1.4431342e-02
  -7.7928160e-03  0.0000000e+00 -8.3771404e-03  0.0000000e+00
   0.0000000e+00  1.9042531e-05]
 [ 3.3886887e-03 -7.3704771e-03 -3.6761386e-03  1.0067061e-02
  -9.0806670e-03  0.0000000e+00 -4.1772826e-03  0.0000000e+00
   0.0000000e+00 -1.0911362e-02]
 [ 2.6716560e-02 -9.3915705e-03 -6.6786413e-03  1.8342089e-02
  -9.0694753e-03  0.0000000e+00  6.2097642e-03  0.0000000e+00
   0.0000000e+00 -2.6084254e-03]] 
Episode: 45: [[ 0.02117519 -0.00562273  0.01441247 -0.00150335  0.00071205  0.
   0.00185432  0.          0.         -0.00593602]
 [-0.01375083 -0.00238669  0.01173367  0.00907559 -0.00496805  0.
   0.00982299  0.          0.         -0.00197973]
 [-0.00558855 -0.00394959  0.00772358  0.01479516 -0.00807485  0.
  -0.00838982  0.          0.          0.00011501]
 [ 0.00313212 -0.00732607 -0.00344252  0.01057286 -0.00925591  0.
  -0.00422431  0.          0.         -0.01109096]
 [ 0.0274981  -0.0087676  -0.00702702  0.01828913 -0.00861933  0.
   0.00658463  0.          0.         -0.00333381]] 
Episode: 46: [[ 2.1962680e-02 -5.0102500e-03  1.4835396e-02 -1.3079525e-03
   1.3146208e-03  0.0000000e+00  1.9355143e-03  0.0000000e+00
   0.0000000e+00 -5.6221252e-03]
 [-1.4389806e-02 -2.1698202e-03  1.2251038e-02  8.7148119e-03
  -5.0986777e-03  0.0000000e+00  1.0114560e-02  0.0000000e+00
   0.0000000e+00 -2.3106379e-03]
 [-6.1679943e-03 -4.3484145e-03  8.1315394e-03  1.5046298e-02
  -8.4001357e-03  0.0000000e+00 -8.4448559e-03  0.0000000e+00
   0.0000000e+00  5.2255968e-05]
 [ 2.8459656e-03 -7.4408744e-03 -3.2562520e-03  1.1159615e-02
  -9.4819693e-03  0.0000000e+00 -4.3752561e-03  0.0000000e+00
   0.0000000e+00 -1.1357995e-02]
 [ 2.8350063e-02 -8.0306455e-03 -7.0632957e-03  1.8233018e-02
  -8.2146218e-03  0.0000000e+00  7.0363898e-03  0.0000000e+00
   0.0000000e+00 -4.0965700e-03]] 
Episode: 47: [[ 0.02251234 -0.00467429  0.01520861 -0.00127373  0.00170595  0.
   0.00192655  0.          0.         -0.00544743]
 [-0.01479028 -0.00203189  0.0125775   0.00836095 -0.00512323  0.
   0.01030788  0.          0.         -0.00245797]
 [-0.00653507 -0.00461909  0.00833345  0.01497689 -0.00872834  0.
  -0.00834437  0.          0.          0.00014243]
 [ 0.00272941 -0.00759146 -0.00327201  0.01154742 -0.00982836  0.
  -0.00440229  0.          0.         -0.01149232]
 [ 0.02903104 -0.0075571  -0.00696009  0.01831988 -0.00788992  0.
   0.00732572  0.          0.         -0.00466864]] 
Episode: 48: [[ 0.02297966 -0.00438113  0.01553982 -0.00128701  0.00205086  0.
   0.00197739  0.          0.         -0.0053107 ]
 [-0.01512655 -0.00190404  0.01285402  0.00799749 -0.00513072  0.
   0.01048738  0.          0.         -0.00257528]
 [-0.00682941 -0.00486016  0.00849113  0.01487509 -0.00902626  0.
  -0.00819961  0.          0.          0.00025923]
 [ 0.00264469 -0.00774441 -0.00332231  0.01182131 -0.01016726  0.
  -0.00431838  0.          0.         -0.01153867]
 [ 0.02964349 -0.00714168 -0.00683451  0.01832806 -0.00756852  0.
   0.00747006  0.          0.         -0.00513445]] 
Episode: 49: [[ 0.02335976 -0.00411773  0.01578445 -0.00140161  0.0023526   0.
   0.001911    0.          0.         -0.00518969]
 [-0.0154185  -0.00183116  0.0130916   0.00758104 -0.00517451  0.
   0.0106714   0.          0.         -0.0026841 ]
 [-0.00710807 -0.00507665  0.0086397   0.01466619 -0.00933818  0.
  -0.00794428  0.          0.          0.00050838]
 [ 0.0024897  -0.00786515 -0.00337691  0.01193122 -0.01051256  0.
  -0.0041351   0.          0.         -0.01147453]
 [ 0.03015213 -0.00674959 -0.00656549  0.01835359 -0.00731702  0.
   0.00748493  0.          0.         -0.00566465]] 
Episode: 50: [[ 0.02354781 -0.00406392  0.0158868  -0.00133128  0.00253651  0.
   0.0018536   0.          0.         -0.00524865]
 [-0.01547869 -0.00192533  0.01314823  0.00737679 -0.0052411   0.
   0.0106306   0.          0.         -0.00292585]
 [-0.00720758 -0.00536032  0.00865175  0.0146051  -0.00969912  0.
  -0.00757006  0.          0.          0.00058633]
 [ 0.00249022 -0.00809039 -0.0035275   0.01210361 -0.01091968  0.
  -0.00386283  0.          0.         -0.01152249]
 [ 0.03048821 -0.00656049 -0.0061314   0.01833145 -0.00706885  0.
   0.00738417  0.          0.         -0.00602825]] 
Episode: 51: [[ 0.02365852 -0.00403747  0.01593966 -0.0011626   0.00268115  0.
   0.00174695  0.          0.         -0.00537143]
 [-0.01549216 -0.00206762  0.01322788  0.00706147 -0.00534156  0.
   0.01062283  0.          0.         -0.00313969]
 [-0.00720118 -0.00551788  0.00877169  0.01426877 -0.01002093  0.
  -0.00709174  0.          0.          0.00079775]
 [ 0.00258365 -0.00815477 -0.00351355  0.01212369 -0.01127531  0.
  -0.00351082  0.          0.         -0.01146017]
 [ 0.03078512 -0.00641498 -0.00577613  0.01828916 -0.00679617  0.
   0.00718011  0.          0.         -0.0064662 ]] 
Episode: 52: [[ 0.02370377 -0.00407662  0.01596512 -0.00113407  0.0027485   0.
   0.0016186   0.          0.         -0.00555615]
 [-0.01550973 -0.00222314  0.01328629  0.00673646 -0.00539684  0.
   0.01079972  0.          0.         -0.00334458]
 [-0.00723698 -0.00555754  0.00890801  0.01382679 -0.0102612   0.
  -0.00652221  0.          0.          0.00112664]
 [ 0.00254092 -0.00808559 -0.003491    0.01200898 -0.01152267  0.
  -0.00308737  0.          0.         -0.01129892]
 [ 0.03096772 -0.00635934 -0.00538858  0.0183913  -0.00667421  0.
   0.00688375  0.          0.         -0.00674785]] 
Episode: 53: [[ 0.02369969 -0.00412327  0.01596127 -0.00122302  0.00280446  0.
   0.00152929  0.          0.         -0.005747  ]
 [-0.0155001  -0.00236848  0.01332316  0.00640911 -0.00542806  0.
   0.01100909  0.          0.         -0.00353773]
 [-0.00722905 -0.00556705  0.00903832  0.0134283  -0.0104716   0.
  -0.0059606   0.          0.          0.00144099]
 [ 0.00253866 -0.00798489 -0.00347255  0.01189885 -0.01174594  0.
  -0.00259991  0.          0.         -0.01115465]
 [ 0.03109779 -0.00633432 -0.00507125  0.0184829  -0.0065634   0.
   0.00650489  0.          0.         -0.00692826]] 
Episode: 54: [[ 0.02384656 -0.00408751  0.01601415 -0.00134823  0.00290719  0.
   0.00148022  0.          0.         -0.00594208]
 [-0.01568592 -0.00247023  0.01353926  0.00616575 -0.00561443  0.
   0.01117616  0.          0.         -0.00354361]
 [-0.00737055 -0.00571634  0.00925509  0.01311025 -0.01087228  0.
  -0.00531713  0.          0.          0.00186157]
 [ 0.00239897 -0.00804432 -0.0034331   0.01172917 -0.01218518  0.
  -0.00205508  0.          0.         -0.01091892]
 [ 0.03137806 -0.00620982 -0.00480857  0.0186362  -0.00634921  0.
   0.00605231  0.          0.         -0.00720173]] 
Episode: 55: [[ 0.02398148 -0.00402033  0.01605569 -0.00162901  0.00301173  0.
   0.00134721  0.          0.         -0.00609573]
 [-0.01583028 -0.00255964  0.01372331  0.00593413 -0.00580263  0.
   0.01139191  0.          0.         -0.00354353]
 [-0.00743506 -0.00589993  0.0094454   0.0128552  -0.01127481  0.
  -0.00464798  0.          0.          0.00223807]
 [ 0.00237324 -0.00812846 -0.00342801  0.01151134 -0.01262815  0.
  -0.00155998  0.          0.         -0.01060115]
 [ 0.03165546 -0.00606946 -0.00444684  0.01891324 -0.0061667   0.
   0.00560501  0.          0.         -0.00747735]] 
Episode: 56: [[ 0.02395138 -0.00415133  0.01613377 -0.00207853  0.00300604  0.
   0.00131429  0.          0.         -0.00640028]
 [-0.01581815 -0.00262376  0.01383418  0.00571314 -0.00576744  0.
   0.01139167  0.          0.         -0.00334457]
 [-0.00734481 -0.00602369  0.00955748  0.01277619 -0.01168459  0.
  -0.00419406  0.          0.          0.00271366]
 [ 0.00243712 -0.00838499 -0.00354836  0.01145099 -0.01322602  0.
  -0.00100751  0.          0.         -0.01042133]
 [ 0.0317899  -0.0061346  -0.00398608  0.01902117 -0.00593292  0.
   0.00509043  0.          0.         -0.00761256]] 
Episode: 57: [[ 0.02397355 -0.00423915  0.01622236 -0.00244171  0.00303124  0.
   0.00127885  0.          0.         -0.00663932]
 [-0.01584365 -0.00267338  0.01395252  0.00547645 -0.0057272   0.
   0.01142921  0.          0.         -0.00319878]
 [-0.00734041 -0.0060936   0.00966607  0.01267394 -0.01201757  0.
  -0.00376662  0.          0.          0.00320704]
 [ 0.0023981  -0.00853698 -0.00364704  0.01139348 -0.01369723  0.
  -0.00061802  0.          0.         -0.01015408]
 [ 0.03194259 -0.00614856 -0.00360228  0.01907086 -0.00568037  0.
   0.00474149  0.          0.         -0.00784582]] 
Episode: 58: [[ 0.02399025 -0.00434369  0.01627208 -0.00283044  0.00302223  0.
   0.00124745  0.          0.         -0.00687224]
 [-0.01588351 -0.00272486  0.01407158  0.00524764 -0.00571362  0.
   0.01147656  0.          0.         -0.00307192]
 [-0.00734895 -0.00615589  0.00980388  0.01254403 -0.01235329  0.
  -0.00333714  0.          0.          0.00364826]
 [ 0.00233731 -0.00867806 -0.00370107  0.01123576 -0.01417006  0.
  -0.00016073  0.          0.         -0.00994494]
 [ 0.0320775  -0.00619555 -0.00325702  0.01914923 -0.00548712  0.
   0.0043157   0.          0.         -0.00801661]] 
Episode: 59: [[ 0.0239858  -0.00444028  0.01632492 -0.00324098  0.00299861  0.
   0.00116537  0.          0.         -0.00704838]
 [-0.01589467 -0.00275091  0.01416321  0.0049849  -0.00569736  0.
   0.01148315  0.          0.         -0.0029433 ]
 [-0.00730187 -0.00628202  0.00989447  0.01240832 -0.01269445  0.
  -0.00285134  0.          0.          0.0040213 ]
 [ 0.00234117 -0.00889809 -0.00379212  0.01113103 -0.01466067  0.
   0.00035736  0.          0.         -0.00981769]
 [ 0.03219382 -0.00626356 -0.00287792  0.01908422 -0.00530003  0.
   0.00382119  0.          0.         -0.00821195]] 
Episode: 60: [[ 0.02398018 -0.00450372  0.01634371 -0.00353014  0.00299893  0.
   0.0010917   0.          0.         -0.00717517]
 [-0.01590356 -0.0027879   0.01424434  0.0047931  -0.00570861  0.
   0.01146943  0.          0.         -0.0028421 ]
 [-0.00724606 -0.00643441  0.00999404  0.01232453 -0.01304942  0.
  -0.00232896  0.          0.          0.00431264]
 [ 0.00236541 -0.00912158 -0.00386297  0.0110982  -0.01515715  0.
   0.00092996  0.          0.         -0.00975407]
 [ 0.03231031 -0.00630891 -0.00257103  0.01895877 -0.00509346  0.
   0.0032652   0.          0.         -0.00850052]] 
Episode: 61: [[ 0.02405226 -0.0044725   0.01640728 -0.00374646  0.00311258  0.
   0.00109398  0.          0.         -0.00724665]
 [-0.01594511 -0.00276122  0.01434471  0.00465665 -0.0056931   0.
   0.01143167  0.          0.         -0.00277044]
 [-0.00722137 -0.00657245  0.01009385  0.01240464 -0.0133815   0.
  -0.00197269  0.          0.          0.00455497]
 [ 0.0023909  -0.00928526 -0.00392022  0.01120475 -0.01558643  0.
   0.00133772  0.          0.         -0.00972437]
 [ 0.03252799 -0.00623988 -0.00222167  0.01873204 -0.00487936  0.
   0.00287773  0.          0.         -0.0088725 ]] 
Episode: 62: [[ 0.02414443 -0.00442131  0.01646899 -0.00394485  0.00323785  0.
   0.00107214  0.          0.         -0.00731439]
 [-0.01599522 -0.00272738  0.01445248  0.00453489 -0.00567524  0.
   0.01138672  0.          0.         -0.00272012]
 [-0.00722351 -0.00666127  0.01020592  0.0125314  -0.01365193  0.
  -0.00168411  0.          0.          0.00478897]
 [ 0.00240615 -0.00935386 -0.00395254  0.01142496 -0.01592253  0.
   0.00159751  0.          0.         -0.0096883 ]
 [ 0.03274993 -0.00612709 -0.00191958  0.01846489 -0.00466745  0.
   0.00264129  0.          0.         -0.00927471]] 
Episode: 63: [[ 0.02423975 -0.00442841  0.01643268 -0.0043712   0.00331059  0.
   0.00087913  0.          0.         -0.00740136]
 [-0.0160446  -0.00284575  0.01454165  0.00446079 -0.00579346  0.
   0.01151374  0.          0.         -0.00272588]
 [-0.00724167 -0.00675258  0.0103461   0.01273574 -0.01396771  0.
  -0.00128255  0.          0.          0.00506061]
 [ 0.00239946 -0.0094027  -0.00396139  0.01175604 -0.01627837  0.
   0.0018281   0.          0.         -0.00954663]
 [ 0.03293896 -0.00600911 -0.00158526  0.01817888 -0.00443885  0.
   0.00252644  0.          0.         -0.00964139]] 
Episode: 64: [[ 0.0243688  -0.00444016  0.0164283  -0.00472133  0.0033835   0.
   0.00070779  0.          0.         -0.00745463]
 [-0.01610976 -0.00294849  0.01463761  0.00441121 -0.00589701  0.
   0.01153487  0.          0.         -0.00272285]
 [-0.00729802 -0.0068009   0.01049202  0.01300922 -0.01424964  0.
  -0.00097223  0.          0.          0.00522091]
 [ 0.00234784 -0.0093853  -0.00397254  0.01218541 -0.016584    0.
   0.0019289   0.          0.         -0.00952841]
 [ 0.03314646 -0.00591029 -0.00125475  0.01778277 -0.00422714  0.
   0.00251991  0.          0.         -0.01008464]] 
Episode: 65: [[ 0.02458142 -0.00445405  0.01641195 -0.00480337  0.00343002  0.
   0.0005674   0.          0.         -0.00748402]
 [-0.01628762 -0.00307937  0.01480253  0.00439374 -0.00598839  0.
   0.01159777  0.          0.         -0.00261706]
 [-0.00750267 -0.00668402  0.01069168  0.01310061 -0.01440663  0.
  -0.00071356  0.          0.          0.0055104 ]
 [ 0.00215761 -0.00918935 -0.00398991  0.01243687 -0.01671114  0.
   0.00191218  0.          0.         -0.00940315]
 [ 0.03325474 -0.00576186 -0.00121428  0.01756882 -0.00404691  0.
   0.00262539  0.          0.         -0.0104619 ]] 
Episode: 66: [[ 0.02471889 -0.00444314  0.01646809 -0.005064    0.00347159  0.
   0.00061669  0.          0.         -0.0076599 ]
 [-0.01635442 -0.00313833  0.01487842  0.0042617  -0.00592924  0.
   0.01171659  0.          0.         -0.00256149]
 [-0.00753201 -0.00657114  0.01076664  0.01312055 -0.01446905  0.
  -0.00055438  0.          0.          0.00579945]
 [ 0.00213082 -0.00895555 -0.00409801  0.01259424 -0.01672764  0.
   0.00200433  0.          0.         -0.0092576 ]
 [ 0.03333789 -0.00565973 -0.00114327  0.01746042 -0.00390754  0.
   0.00260901  0.          0.         -0.01068588]] 
Episode: 67: [[ 0.02499919 -0.00444976  0.01656651 -0.00513087  0.00349974  0.
   0.00072133  0.          0.         -0.00789566]
 [-0.01659283 -0.00315445  0.01507365  0.0041884  -0.00587188  0.
   0.01171695  0.          0.         -0.00246378]
 [-0.0077094  -0.00638806  0.01094916  0.01312692 -0.01453309  0.
  -0.00055778  0.          0.          0.00617665]
 [ 0.00196512 -0.00868179 -0.00412769  0.01269425 -0.0167457   0.
   0.00198011  0.          0.         -0.00901735]
 [ 0.03358594 -0.00553509 -0.00131942  0.01737637 -0.00373384  0.
   0.0027052   0.          0.         -0.01100132]] 
Episode: 68: [[ 0.02527182 -0.00441438  0.01665672 -0.00519872  0.00356644  0.
   0.0008197   0.          0.         -0.00809606]
 [-0.0168094  -0.00313981  0.0152522   0.0042096  -0.00581197  0.
   0.01169302  0.          0.         -0.00238538]
 [-0.00783128 -0.00621244  0.01109699  0.01329777 -0.01456778  0.
  -0.00063503  0.          0.          0.00648449]
 [ 0.00192854 -0.00840692 -0.00415964  0.0129168  -0.01671793  0.
   0.00185144  0.          0.         -0.00891077]
 [ 0.0338465  -0.0053706  -0.00150514  0.01724383 -0.00353028  0.
   0.00290231  0.          0.         -0.01127553]] 
Episode: 69: [[ 0.02557313 -0.00436244  0.01675142 -0.00518239  0.0036429   0.
   0.00090893  0.          0.         -0.00822736]
 [-0.01703146 -0.00312817  0.01542851  0.00421395 -0.00577893  0.
   0.01167641  0.          0.         -0.00235202]
 [-0.00797331 -0.00606092  0.01123135  0.01345615 -0.01460255  0.
  -0.00068514  0.          0.          0.00673712]
 [ 0.00187617 -0.00813435 -0.00419475  0.01320295 -0.01667174  0.
   0.00162898  0.          0.         -0.00877552]
 [ 0.03417677 -0.00520542 -0.00176963  0.0170269  -0.00337662  0.
   0.00318988  0.          0.         -0.01163662]] 
Episode: 70: [[ 0.02597526 -0.00434923  0.01690035 -0.00496202  0.00373719  0.
   0.0011543   0.          0.         -0.00837907]
 [-0.01729447 -0.00308571  0.01565433  0.00428825 -0.0057167   0.
   0.01154302  0.          0.         -0.00233544]
 [-0.00812497 -0.00582791  0.0113764   0.01362099 -0.01464019  0.
  -0.00087553  0.          0.          0.00691251]
 [ 0.00186889 -0.00785316 -0.00421787  0.01348646 -0.01664678  0.
   0.00138123  0.          0.         -0.00876382]
 [ 0.03462465 -0.00509618 -0.00212683  0.01679454 -0.00319482  0.
   0.0034317   0.          0.         -0.01195343]] 
Episode: 71: [[ 0.02649051 -0.00433073  0.01719211 -0.00468287  0.0037735   0.
   0.00154396  0.          0.         -0.00853415]
 [-0.01764927 -0.00292707  0.01596734  0.00454941 -0.0056017   0.
   0.01125276  0.          0.         -0.00218068]
 [-0.00841289 -0.00549353  0.01143983  0.01400582 -0.01457536  0.
  -0.00118995  0.          0.          0.00707548]
 [ 0.00172009 -0.00754079 -0.00447584  0.01387361 -0.01650427  0.
   0.00105122  0.          0.         -0.00886298]
 [ 0.03510377 -0.00495609 -0.00240185  0.01672872 -0.00307295  0.
   0.00376003  0.          0.         -0.01212233]] 
Episode: 72: [[ 0.02710501 -0.00436921  0.01747189 -0.00431864  0.00373347  0.
   0.00182717  0.          0.         -0.00871457]
 [-0.01805897 -0.00281415  0.01627579  0.00493159 -0.00549087  0.
   0.01089845  0.          0.         -0.00201466]
 [-0.00875177 -0.00509032  0.01144309  0.01442635 -0.01448193  0.
  -0.00158482  0.          0.          0.00737055]
 [ 0.00154913 -0.0071556  -0.00484602  0.01415553 -0.0163572   0.
   0.0006474   0.          0.         -0.00884259]
 [ 0.03567416 -0.0048401  -0.00281023  0.0168106  -0.00292684  0.
   0.00406047  0.          0.         -0.01228101]] 
Episode: 73: [[ 0.02770872 -0.00437986  0.01778089 -0.00396543  0.00368091  0.
   0.00210829  0.          0.         -0.00888049]
 [-0.0184409  -0.00266264  0.0165675   0.00535301 -0.00537386  0.
   0.01052487  0.          0.         -0.00186   ]
 [-0.00906629 -0.00482404  0.01141841  0.01489096 -0.01442074  0.
  -0.00208053  0.          0.          0.00749279]
 [ 0.00144226 -0.00690838 -0.00521684  0.01452989 -0.01624318  0.
   0.00017732  0.          0.         -0.00893359]
 [ 0.03627386 -0.00472189 -0.00313981  0.01695641 -0.00280906  0.
   0.00444207  0.          0.         -0.01239509]] 
Episode: 74: [[ 0.02822988 -0.00432344  0.01810645 -0.00368577  0.00368743  0.
   0.00252922  0.          0.         -0.00902221]
 [-0.01874608 -0.00243888  0.01681145  0.0057343  -0.00519034  0.
   0.0100013   0.          0.         -0.00166244]
 [-0.00929833 -0.00464177  0.01136711  0.01539801 -0.01439989  0.
  -0.0026654   0.          0.          0.00758131]
 [ 0.00143776 -0.006735   -0.00557459  0.01499776 -0.01618945  0.
  -0.00035222  0.          0.         -0.00907763]
 [ 0.03682531 -0.00456316 -0.00341597  0.01701614 -0.00265362  0.
   0.00480417  0.          0.         -0.01257148]] 
Episode: 75: [[ 0.0286719  -0.0043012   0.01840593 -0.00345462  0.00365421  0.
   0.00286888  0.          0.         -0.00910278]
 [-0.01899503 -0.00228095  0.0169752   0.00608469 -0.00502054  0.
   0.00956613  0.          0.         -0.00153857]
 [-0.00939238 -0.00450926  0.01131908  0.01586147 -0.01440772  0.
  -0.00307026  0.          0.          0.00757967]
 [ 0.00155327 -0.0066157  -0.00588779  0.01540108 -0.01620169  0.
  -0.0007215   0.          0.         -0.00931448]
 [ 0.03727368 -0.00440459 -0.00357383  0.01707866 -0.00251287  0.
   0.00501718  0.          0.         -0.01262495]] 
Episode: 76: [[ 0.02903704 -0.00431355  0.01862795 -0.00330514  0.00360176  0.
   0.00307874  0.          0.         -0.00920391]
 [-0.01922563 -0.00215635  0.01712726  0.00625538 -0.00487524  0.
   0.00937196  0.          0.         -0.0014238 ]
 [-0.00954918 -0.00441311  0.01126598  0.01607161 -0.01445844  0.
  -0.00329153  0.          0.          0.00767978]
 [ 0.00151381 -0.00655103 -0.00625675  0.01562912 -0.01626384  0.
  -0.0009468   0.          0.         -0.0094178 ]
 [ 0.03761373 -0.00431466 -0.00372838  0.01720719 -0.00243124  0.
   0.00509649  0.          0.         -0.01279003]] 
Episode: 77: [[ 0.02936276 -0.00431847  0.01882595 -0.00317459  0.00355692  0.
   0.00327705  0.          0.         -0.00928713]
 [-0.01942932 -0.00204155  0.01724629  0.00641657 -0.00473545  0.
   0.00918435  0.          0.         -0.00133151]
 [-0.00967058 -0.00434586  0.01120074  0.01627255 -0.01451686  0.
  -0.00347041  0.          0.          0.00776633]
 [ 0.0015053  -0.00651138 -0.00660565  0.01585178 -0.01634253  0.
  -0.00104277  0.          0.         -0.0094987 ]
 [ 0.0379249  -0.00422697 -0.00388336  0.01731215 -0.0023539   0.
   0.00505588  0.          0.         -0.01296238]] 
Episode: 78: [[ 0.02971472 -0.00430702  0.01908437 -0.00299904  0.00349905  0.
   0.00350255  0.          0.         -0.00935729]
 [-0.01963732 -0.00190181  0.01737646  0.00666729 -0.00461347  0.
   0.00894295  0.          0.         -0.00125463]
 [-0.00983245 -0.00430282  0.01109793  0.01658251 -0.01455912  0.
  -0.00369896  0.          0.          0.00769384]
 [ 0.00145445 -0.00650185 -0.0070025   0.01618427 -0.0164043   0.
  -0.00123557  0.          0.         -0.00968151]
 [ 0.03826657 -0.00412312 -0.004073    0.01746458 -0.00225664  0.
   0.00513106  0.          0.         -0.01301416]] 
Episode: 79: [[ 0.03018786 -0.00411239  0.01926487 -0.00269747  0.00361991  0.
   0.00372187  0.          0.         -0.00922956]
 [-0.02002989 -0.00172598  0.01766662  0.00701606 -0.00455025  0.
   0.00893255  0.          0.         -0.00109222]
 [-0.01013229 -0.00430133  0.01125743  0.01685896 -0.01473328  0.
  -0.00393248  0.          0.          0.00748065]
 [ 0.00126569 -0.00626413 -0.00712587  0.01648427 -0.01648859  0.
  -0.00151533  0.          0.         -0.00995575]
 [ 0.0387454  -0.00385536 -0.00442602  0.0175734  -0.00204315  0.
   0.00508714  0.          0.         -0.01317812]] 
Episode: 80: [[ 0.03060685 -0.00393252  0.01940502 -0.00246254  0.00373487  0.
   0.00386247  0.          0.         -0.00906845]
 [-0.02037156 -0.00158248  0.01791259  0.00732366 -0.00450444  0.
   0.00898208  0.          0.         -0.00094539]
 [-0.01035907 -0.00427551  0.01138593  0.01711376 -0.01487534  0.
  -0.00411547  0.          0.          0.00731051]
 [ 0.00117827 -0.00601821 -0.00723198  0.01680438 -0.01655449  0.
  -0.00177614  0.          0.         -0.01009242]
 [ 0.03916758 -0.00358321 -0.00476809  0.01761386 -0.00180544  0.
   0.00506505  0.          0.         -0.0134425 ]] 
Episode: 81: [[ 0.03113923 -0.00378769  0.01964452 -0.00220019  0.00381539  0.
   0.00401334  0.          0.         -0.00891826]
 [-0.0207791  -0.00139637  0.01826085  0.00759692 -0.00451546  0.
   0.00902858  0.          0.         -0.00075925]
 [-0.01065834 -0.004257    0.01158     0.01740545 -0.01498689  0.
  -0.00436562  0.          0.          0.00703942]
 [ 0.00111395 -0.00583466 -0.00728309  0.01714221 -0.01658547  0.
  -0.00211764  0.          0.         -0.01032491]
 [ 0.03971683 -0.00338805 -0.00513071  0.01777876 -0.00162955  0.
   0.00515721  0.          0.         -0.01362288]] 
Episode: 82: [[ 0.03171644 -0.00364929  0.01995303 -0.00176891  0.00389345  0.
   0.00432255  0.          0.         -0.00880247]
 [-0.0212234  -0.00115061  0.01863013  0.00790251 -0.00443696  0.
   0.00903571  0.          0.         -0.0005871 ]
 [-0.01108027 -0.00413125  0.01168004  0.01770786 -0.01497985  0.
  -0.00473228  0.          0.          0.00682296]
 [ 0.00091293 -0.00554084 -0.00743307  0.01746684 -0.01646307  0.
  -0.0025316   0.          0.         -0.01062915]
 [ 0.04021331 -0.0032077  -0.00558389  0.01794664 -0.00148972  0.
   0.00535183  0.          0.         -0.01390222]] 
Episode: 83: [[ 0.03228617 -0.00348557  0.02027992 -0.00161327  0.00403244  0.
   0.00472467  0.          0.         -0.00872961]
 [-0.02164307 -0.00085647  0.01897295  0.00802687 -0.00433032  0.
   0.0090401   0.          0.         -0.00053173]
 [-0.01149846 -0.00397731  0.01176906  0.0179289  -0.01502161  0.
  -0.00520221  0.          0.          0.00669024]
 [ 0.00065429 -0.00517304 -0.00754555  0.01784043 -0.01637226  0.
  -0.00301062  0.          0.         -0.01079304]
 [ 0.04071587 -0.00302476 -0.00599791  0.01800478 -0.0013756   0.
   0.00563835  0.          0.         -0.01427014]] 
Episode: 84: [[ 0.03282158 -0.00332234  0.02053927 -0.00149853  0.0041633   0.
   0.00509943  0.          0.         -0.00866172]
 [-0.02202354 -0.00056797  0.01928453  0.00824191 -0.00426562  0.
   0.00903381  0.          0.         -0.00048159]
 [-0.01182335 -0.00381796  0.01183859  0.01822863 -0.01508125  0.
  -0.00565405  0.          0.          0.00656028]
 [ 0.00056372 -0.00483528 -0.00767436  0.0182402  -0.01631608  0.
  -0.00354806  0.          0.         -0.0109667 ]
 [ 0.0412067  -0.0028241  -0.006397    0.01808561 -0.00124516  0.
   0.00584702  0.          0.         -0.01469471]] 
Episode: 85: [[ 0.03329834 -0.00316625  0.0207537  -0.00144096  0.00429826  0.
   0.00538136  0.          0.         -0.00856865]
 [-0.02236295 -0.00030154  0.01956913  0.00848652 -0.00420702  0.
   0.00905438  0.          0.         -0.00044476]
 [-0.0120946  -0.00363958  0.01192331  0.01853141 -0.01512695  0.
  -0.00605326  0.          0.          0.00644762]
 [ 0.00052347 -0.0044905  -0.00775207  0.01860235 -0.01624858  0.
  -0.00410867  0.          0.         -0.0110127 ]
 [ 0.04165019 -0.0026171  -0.00677278  0.01818236 -0.00110664  0.
   0.00604276  0.          0.         -0.015126  ]] 
Episode: 86: [[ 0.03381107 -0.00304758  0.02093634 -0.0015686   0.00444244  0.
   0.0055562   0.          0.         -0.0084305 ]
 [-0.0227371  -0.00011285  0.01984914  0.00848804 -0.00423688  0.
   0.00928592  0.          0.         -0.00046995]
 [-0.01243287 -0.00367572  0.01205325  0.01871789 -0.01526709  0.
  -0.00626731  0.          0.          0.0061959 ]
 [ 0.00035276 -0.00443774 -0.00777064  0.01893672 -0.01633899  0.
  -0.00450586  0.          0.         -0.01116398]
 [ 0.04217004 -0.00248958 -0.00697254  0.01817378 -0.00097564  0.
   0.00615594  0.          0.         -0.01539932]] 
Episode: 87: [[ 3.44286785e-02 -3.09939822e-03  2.11924333e-02 -1.54546625e-03
   4.42855339e-03  0.00000000e+00  5.61023923e-03  0.00000000e+00
   0.00000000e+00 -8.50240327e-03]
 [-2.31731497e-02  1.72279997e-05  2.01792698e-02  8.57275911e-03
  -4.30165604e-03  0.00000000e+00  9.42366291e-03  0.00000000e+00
   0.00000000e+00 -4.46167513e-04]
 [-1.27726225e-02 -3.71497590e-03  1.22409947e-02  1.88971013e-02
  -1.54079888e-02  0.00000000e+00 -6.49437215e-03  0.00000000e+00
   0.00000000e+00  5.83183812e-03]
 [ 2.81220797e-04 -4.46348544e-03 -7.76817510e-03  1.91549361e-02
  -1.64573975e-02  0.00000000e+00 -4.96982550e-03  0.00000000e+00
   0.00000000e+00 -1.14097539e-02]
 [ 4.28074859e-02 -2.60210992e-03 -7.21247448e-03  1.83134936e-02
  -1.03915890e-03  0.00000000e+00  6.37069624e-03  0.00000000e+00
   0.00000000e+00 -1.55274523e-02]] 
Episode: 88: [[ 3.5138465e-02 -2.7894820e-03  2.2033380e-02 -9.5014391e-04
   4.9258173e-03  0.0000000e+00  5.8328602e-03  0.0000000e+00
   0.0000000e+00 -8.7570176e-03]
 [-2.3768948e-02  7.1873673e-04  2.0930143e-02  8.9030452e-03
  -3.7692836e-03  0.0000000e+00  9.3354387e-03  0.0000000e+00
   0.0000000e+00 -3.7961229e-04]
 [-1.3232758e-02 -3.7175284e-03  1.2640287e-02  1.9117426e-02
  -1.5696952e-02  0.0000000e+00 -6.8402006e-03  0.0000000e+00
   0.0000000e+00  5.6557888e-03]
 [ 7.4848642e-05 -4.5363917e-03 -7.8739244e-03  1.9232593e-02
  -1.6672848e-02  0.0000000e+00 -5.4937466e-03  0.0000000e+00
   0.0000000e+00 -1.1521019e-02]
 [ 4.3547601e-02 -2.6281634e-03 -7.1204482e-03  1.8584713e-02
  -1.1733185e-03  0.0000000e+00  6.6765472e-03  0.0000000e+00
   0.0000000e+00 -1.5525493e-02]] 
Episode: 89: [[ 0.03588294 -0.00247425  0.02281854 -0.00037404  0.00542965  0.
   0.00604274  0.          0.         -0.00895566]
 [-0.02437617  0.00137486  0.02165979  0.00918361 -0.0033075   0.
   0.0092836   0.          0.         -0.00031287]
 [-0.01370872 -0.00372101  0.01307833  0.019293   -0.01600955  0.
  -0.0071706   0.          0.          0.00543313]
 [-0.00012156 -0.00456632 -0.00789449  0.01933683 -0.01689615  0.
  -0.00602149  0.          0.         -0.01171085]
 [ 0.04429734 -0.00259964 -0.00702838  0.01884048 -0.00124677  0.
   0.00706407  0.          0.         -0.0156405 ]] 
Episode: 90: [[ 0.03670464 -0.00225077  0.02366836  0.00016141  0.00581279  0.
   0.00608431  0.          0.         -0.0093207 ]
 [-0.02511989  0.0018685   0.02254817  0.00959035 -0.00304609  0.
   0.00939159  0.          0.         -0.0002406 ]
 [-0.01428972 -0.0041445   0.01369721  0.01935123 -0.01649007  0.
  -0.00760883  0.          0.          0.00535503]
 [-0.00043961 -0.00501388 -0.00777884  0.01929146 -0.01726644  0.
  -0.0066031   0.          0.         -0.01199114]
 [ 0.04513602 -0.00279059 -0.00679738  0.01921534 -0.00165332  0.
   0.00752481  0.          0.         -0.01562726]] 
Episode: 91: [[ 0.03758903 -0.00214691  0.0244733   0.00062534  0.00609531  0.
   0.00603671  0.          0.         -0.00983069]
 [-0.02586607  0.00229436  0.02338509  0.00995414 -0.00281259  0.
   0.0095433   0.          0.         -0.0002466 ]
 [-0.01486486 -0.00453556  0.01430281  0.01936891 -0.01693662  0.
  -0.00805258  0.          0.          0.00536314]
 [-0.0007041  -0.00546178 -0.00764302  0.01913321 -0.01762789  0.
  -0.00723308  0.          0.         -0.01235262]
 [ 0.04605226 -0.0030873  -0.00655961  0.01969576 -0.00207448  0.
   0.00805119  0.          0.         -0.01549911]] 
Episode: 92: [[ 0.03834466 -0.00217742  0.0251161   0.00099254  0.00629325  0.
   0.00590589  0.          0.         -0.0104503 ]
 [-0.02654933  0.00255342  0.0241665   0.01015188 -0.00268277  0.
   0.00979163  0.          0.         -0.00024806]
 [-0.01547852 -0.00478495  0.01494422  0.01911877 -0.01736379  0.
  -0.00830705  0.          0.          0.00551892]
 [-0.001083   -0.00581747 -0.00750882  0.01885389 -0.01795711  0.
  -0.00769271  0.          0.         -0.01256819]
 [ 0.04685617 -0.00343089 -0.0063344   0.02026975 -0.00253729  0.
   0.00841204  0.          0.         -0.01542073]] 
Episode: 93: [[ 0.03906264 -0.00221846  0.02571056  0.00135881  0.00645735  0.
   0.00576551  0.          0.         -0.01101776]
 [-0.02718023  0.00278231  0.02487476  0.01041071 -0.00257815  0.
   0.0100164   0.          0.         -0.00025907]
 [-0.01603441 -0.00501556  0.01552339  0.01899346 -0.01775134  0.
  -0.00855     0.          0.          0.00559936]
 [-0.00138289 -0.00615153 -0.00737655  0.01874072 -0.01825674  0.
  -0.00821283  0.          0.         -0.01287125]
 [ 0.04762571 -0.00375461 -0.00611628  0.0207874  -0.00294325  0.
   0.00884834  0.          0.         -0.01528098]] 
Episode: 94: [[ 3.98600996e-02 -2.09370884e-03  2.63115875e-02  1.59233424e-03
   6.66635018e-03  0.00000000e+00  5.75406663e-03  0.00000000e+00
   0.00000000e+00 -1.13386847e-02]
 [-2.77828518e-02  3.06885340e-03  2.54917387e-02  1.06886495e-02
  -2.43350747e-03  0.00000000e+00  1.01341261e-02  0.00000000e+00
   0.00000000e+00 -7.47625381e-05]
 [-1.65987555e-02 -5.22128725e-03  1.59320664e-02  1.88533925e-02
  -1.81595925e-02  0.00000000e+00 -8.90983082e-03  0.00000000e+00
   0.00000000e+00  5.66026522e-03]
 [-1.62159011e-03 -6.33846410e-03 -7.37425499e-03  1.85030866e-02
  -1.85576957e-02  0.00000000e+00 -8.78727995e-03  0.00000000e+00
   0.00000000e+00 -1.30345607e-02]
 [ 4.84766923e-02 -3.97796510e-03 -5.85157145e-03  2.13258527e-02
  -3.30879749e-03  0.00000000e+00  9.12858266e-03  0.00000000e+00
   0.00000000e+00 -1.52724329e-02]] 
Episode: 95: [[ 4.06569056e-02 -1.96755654e-03  2.69087069e-02  1.76021981e-03
   6.85462309e-03  0.00000000e+00  5.71103115e-03  0.00000000e+00
   0.00000000e+00 -1.16264345e-02]
 [-2.83387434e-02  3.33700562e-03  2.60565467e-02  1.08189769e-02
  -2.31242552e-03  0.00000000e+00  1.01869544e-02  0.00000000e+00
   0.00000000e+00  1.38384758e-06]
 [-1.70791075e-02 -5.43974107e-03  1.63048264e-02  1.86535679e-02
  -1.86629761e-02  0.00000000e+00 -9.12620779e-03  0.00000000e+00
   0.00000000e+00  5.75884758e-03]
 [-1.82764069e-03 -6.52520219e-03 -7.38337915e-03  1.82507131e-02
  -1.89950969e-02  0.00000000e+00 -9.19725373e-03  0.00000000e+00
   0.00000000e+00 -1.30723445e-02]
 [ 4.93121557e-02 -4.17408394e-03 -5.50660398e-03  2.16627866e-02
  -3.60119645e-03  0.00000000e+00  9.26875137e-03  0.00000000e+00
   0.00000000e+00 -1.53814685e-02]] 
Episode: 96: [[ 0.04142628 -0.00183341  0.02746731  0.00191503  0.00704231  0.
   0.00572475  0.          0.         -0.0118435 ]
 [-0.02889032  0.00362198  0.02657668  0.01096299 -0.002165    0.
   0.01014497  0.          0.          0.00011901]
 [-0.01758915 -0.00559294  0.01667955  0.01851899 -0.01910006  0.
  -0.00942532  0.          0.          0.00585555]
 [-0.00210488 -0.00664256 -0.00732957  0.01806664 -0.01935913  0.
  -0.0096725   0.          0.         -0.01302878]
 [ 0.05008883 -0.00432868 -0.0052418   0.02196072 -0.00383056  0.
   0.00950628  0.          0.         -0.01551507]] 
Episode: 97: [[ 0.04195677 -0.00171556  0.02799893  0.00203365  0.00726079  0.
   0.00582909  0.          0.         -0.01208977]
 [-0.02933089  0.00395467  0.02696434  0.0111169  -0.00177502  0.
   0.0101009   0.          0.          0.00042343]
 [-0.01811882 -0.00567692  0.01692613  0.01848966 -0.01947662  0.
  -0.00956759  0.          0.          0.00609234]
 [-0.00249667 -0.00667685 -0.007444    0.01803865 -0.01972001  0.
  -0.00999343  0.          0.         -0.01288045]
 [ 0.0506666  -0.00447786 -0.00480726  0.02208264 -0.00387055  0.
   0.00960837  0.          0.         -0.0157521 ]] 
Episode: 98: [[ 0.04258571 -0.00170692  0.02864669  0.00251032  0.00731092  0.
   0.00609723  0.          0.         -0.01229914]
 [-0.02968952  0.00436641  0.02735892  0.01133121 -0.00133766  0.
   0.0098526   0.          0.          0.00079748]
 [-0.0184327  -0.00553566  0.01677286  0.01839319 -0.01953354  0.
  -0.00983598  0.          0.          0.00615466]
 [-0.00270433 -0.00658495 -0.00815338  0.01787734 -0.01979504  0.
  -0.01038846  0.          0.         -0.01285613]
 [ 0.05135041 -0.00461686 -0.00457455  0.02226773 -0.0038234   0.
   0.00968325  0.          0.         -0.01608182]] 
Episode: 99: [[ 0.04313842 -0.00163485  0.02921869  0.0028507   0.00742018  0.
   0.00635051  0.          0.         -0.01234643]
 [-0.03001177  0.00475729  0.02773349  0.01164443 -0.00091057  0.
   0.009564    0.          0.          0.00096319]
 [-0.01857577 -0.00551098  0.01665837  0.01846913 -0.01962508  0.
  -0.01002299  0.          0.          0.006062  ]
 [-0.00274805 -0.00655281 -0.00880459  0.01779843 -0.01986158  0.
  -0.01063741  0.          0.         -0.01289549]
 [ 0.05200388 -0.00470183 -0.00436231  0.02250846 -0.00371308  0.
   0.00963872  0.          0.         -0.01649457]] 
Episode: 100: [[ 0.04368496 -0.00156442  0.02976015  0.00324841  0.00753298  0.
   0.00663739  0.          0.         -0.01233757]
 [-0.03034163  0.0051291   0.02810307  0.01192573 -0.00052082  0.
   0.00928679  0.          0.          0.00112292]
 [-0.01874633 -0.00543761  0.01659914  0.01853375 -0.0196861   0.
  -0.01021936  0.          0.          0.00594842]
 [-0.00283557 -0.00646172 -0.00936823  0.01773846 -0.01987789  0.
  -0.01096755  0.          0.         -0.01297817]
 [ 0.0526167  -0.00479264 -0.00417179  0.02267837 -0.00369869  0.
   0.00971039  0.          0.         -0.0169817 ]] 
Episode: 101: [[ 0.04411094 -0.00148539  0.03026213  0.00359814  0.00765494  0.
   0.00699521  0.          0.         -0.01231261]
 [-0.03060405  0.0054867   0.02844766  0.01217268 -0.00014677  0.
   0.00898874  0.          0.          0.00126142]
 [-0.01890979 -0.00530667  0.01656196  0.01858585 -0.01971109  0.
  -0.01039757  0.          0.          0.0059071 ]
 [-0.00300411 -0.00631693 -0.0098564   0.01771961 -0.01985662  0.
  -0.01116585  0.          0.         -0.01294276]
 [ 0.05306174 -0.00484612 -0.00402025  0.02276604 -0.00368312  0.
   0.00966326  0.          0.         -0.01753545]] 
Episode: 102: [[ 0.04456962 -0.00141845  0.03073602  0.00396035  0.00779014  0.
   0.0073442   0.          0.         -0.01215407]
 [-0.03090201  0.00581934  0.02879957  0.01237251  0.00018819  0.
   0.0086747   0.          0.          0.00142992]
 [-0.01910514 -0.00519647  0.0165977   0.01867171 -0.01979713  0.
  -0.01054376  0.          0.          0.00586121]
 [-0.00318871 -0.00622179 -0.01025168  0.01784008 -0.01993055  0.
  -0.011238    0.          0.         -0.01280128]
 [ 0.05353604 -0.00489247 -0.00387968  0.022699   -0.00366854  0.
   0.0095095   0.          0.         -0.01814886]] 
Episode: 103: [[ 0.04498323 -0.00133856  0.03117541  0.004286    0.00791271  0.
   0.00766506  0.          0.         -0.01191466]
 [-0.03115719  0.00613724  0.0291076   0.01253623  0.00050997  0.
   0.00837217  0.          0.          0.00161825]
 [-0.01925081 -0.0051043   0.01660302  0.01872326 -0.01987043  0.
  -0.01069605  0.          0.          0.00576884]
 [-0.00332233 -0.00614202 -0.01063217  0.01785839 -0.0199938   0.
  -0.01138096  0.          0.         -0.01264845]
 [ 0.0539915  -0.00491311 -0.00378869  0.0226913  -0.00364872  0.
   0.00932079  0.          0.         -0.01881567]] 
Episode: 104: [[ 0.04538192 -0.0012898   0.03159904  0.00462977  0.00797744  0.
   0.00794904  0.          0.         -0.01175039]
 [-0.03139973  0.00642055  0.02940054  0.0126548   0.00078924  0.
   0.00804155  0.          0.          0.00174428]
 [-0.01939925 -0.00499635  0.01658995  0.01870388 -0.01990941  0.
  -0.01086704  0.          0.          0.00572891]
 [-0.00344116 -0.00604447 -0.01100793  0.01780894 -0.02000736  0.
  -0.01158842  0.          0.         -0.01240101]
 [ 0.0544318  -0.00493955 -0.0037523   0.02272959 -0.00364963  0.
   0.00926023  0.          0.         -0.01943213]] 
Episode: 105: [[ 0.04578352 -0.00121446  0.03199589  0.00497842  0.00803416  0.
   0.00824477  0.          0.         -0.01154893]
 [-0.03163309  0.00671034  0.02966162  0.0128446   0.00103695  0.
   0.00774374  0.          0.          0.00189744]
 [-0.01951686 -0.00488013  0.0165411   0.01874423 -0.01991504  0.
  -0.01106611  0.          0.          0.00565033]
 [-0.00346089 -0.00592913 -0.01139338  0.01781195 -0.01997869  0.
  -0.01188154  0.          0.         -0.01225911]
 [ 0.05487478 -0.00493109 -0.00374824  0.02275803 -0.00361646  0.
   0.0090942   0.          0.         -0.02007423]] 
Episode: 106: [[ 0.04630068 -0.00147709  0.03244939  0.00515912  0.00801618  0.
   0.00832962  0.          0.         -0.01155539]
 [-0.03193366  0.00687706  0.02990261  0.01328265  0.00116852  0.
   0.00765097  0.          0.          0.00165912]
 [-0.01978311 -0.0048429   0.0163567   0.0190719  -0.02016122  0.
  -0.01120752  0.          0.          0.00542885]
 [-0.00362288 -0.00614343 -0.01205186  0.01795244 -0.02028274  0.
  -0.01203871  0.          0.         -0.01224165]
 [ 0.0553497  -0.00539369 -0.0033678   0.02263698 -0.00383181  0.
   0.00892925  0.          0.         -0.02053484]] 
Episode: 107: [[ 0.04673409 -0.00171376  0.03288165  0.00523473  0.00803403  0.
   0.00845155  0.          0.         -0.01163218]
 [-0.03214919  0.00699329  0.03009249  0.01362293  0.00127433  0.
   0.0074859   0.          0.          0.00136317]
 [-0.01995183 -0.00486272  0.01618866  0.01932864 -0.02048863  0.
  -0.01121922  0.          0.          0.00532322]
 [-0.00377528 -0.00641503 -0.01265199  0.01804401 -0.02064078  0.
  -0.01207367  0.          0.         -0.01211596]
 [ 0.05575843 -0.00580319 -0.0029136   0.02256231 -0.00398874  0.
   0.00866898  0.          0.         -0.02104788]] 
Episode: 108: [[ 0.04705494 -0.00191726  0.03320978  0.00520764  0.00808359  0.
   0.00845398  0.          0.         -0.01173446]
 [-0.03230153  0.00705096  0.0302341   0.01388803  0.00135312  0.
   0.00739     0.          0.          0.00100483]
 [-0.02002295 -0.00493396  0.01604497  0.01947614 -0.0208562   0.
  -0.01109698  0.          0.          0.00534401]
 [-0.00388845 -0.00673441 -0.01321045  0.01798827 -0.02105417  0.
  -0.01199879  0.          0.         -0.01189306]
 [ 0.05611915 -0.00611576 -0.0025489   0.02259251 -0.00401057  0.
   0.00832319  0.          0.         -0.02156495]] 
Episode: 109: [[ 0.04738806 -0.00210037  0.03352211  0.0052191   0.00815527  0.
   0.00854368  0.          0.         -0.01173527]
 [-0.03245562  0.00710604  0.03037845  0.01409168  0.00140978  0.
   0.00733021  0.          0.          0.0007399 ]
 [-0.02007889 -0.00499759  0.01592402  0.01966369 -0.02120019  0.
  -0.01104701  0.          0.          0.00527113]
 [-0.00393757 -0.00702276 -0.01371561  0.0180755  -0.02142579  0.
  -0.01203769  0.          0.         -0.01180243]
 [ 0.05654314 -0.00640387 -0.00220834  0.02263808 -0.00406269  0.
   0.00812407  0.          0.         -0.02214597]] 
Episode: 110: [[ 0.04770316 -0.00227329  0.03382264  0.00514554  0.00820671  0.
   0.00855344  0.          0.         -0.01172707]
 [-0.03257429  0.00713694  0.03049385  0.01426825  0.00142086  0.
   0.00730947  0.          0.          0.00042885]
 [-0.02009601 -0.00507632  0.01580252  0.01985798 -0.02156424  0.
  -0.01096669  0.          0.          0.00520128]
 [-0.00391268 -0.00730959 -0.0141746   0.01819472 -0.02182233  0.
  -0.01210735  0.          0.         -0.01161637]
 [ 0.05694961 -0.00666727 -0.00192683  0.02267808 -0.00411473  0.
   0.00805665  0.          0.         -0.02277741]] 
Episode: 111: [[ 0.04805114 -0.00243813  0.03400912  0.00504159  0.00823505  0.
   0.00841081  0.          0.         -0.01153416]
 [-0.03279816  0.00710252  0.0306393   0.0144325   0.00131703  0.
   0.0073883   0.          0.          0.00029764]
 [-0.02019925 -0.0050864   0.01582262  0.02008414 -0.02194363  0.
  -0.01074898  0.          0.          0.00498784]
 [-0.0039817  -0.00752289 -0.01448455  0.018406   -0.02222429  0.
  -0.01219119  0.          0.         -0.01155869]
 [ 0.05740605 -0.0068551  -0.0017795   0.02267085 -0.00409164  0.
   0.00807586  0.          0.         -0.02346091]] 
Episode: 112: [[ 0.04839321 -0.00260655  0.03417428  0.00499903  0.00824897  0.
   0.00823628  0.          0.         -0.01137191]
 [-0.03301578  0.0070606   0.03075933  0.01462939  0.00121598  0.
   0.00748066  0.          0.          0.00017237]
 [-0.02027617 -0.00503326  0.0158109   0.02028878 -0.02225243  0.
  -0.01052184  0.          0.          0.00485733]
 [-0.00397647 -0.00766924 -0.01479679  0.01855062 -0.02254597  0.
  -0.01224267  0.          0.         -0.01139731]
 [ 0.05785206 -0.00701851 -0.00165818  0.02267036 -0.00406275  0.
   0.00803836  0.          0.         -0.0241371 ]] 
Episode: 113: [[ 4.86579314e-02 -2.76959012e-03  3.43104899e-02  4.81295120e-03
   8.25680327e-03  0.00000000e+00  8.10836162e-03  0.00000000e+00
   0.00000000e+00 -1.12427492e-02]
 [-3.31660211e-02  7.00511737e-03  3.08237877e-02  1.47416089e-02
   1.11073186e-03  0.00000000e+00  7.51170097e-03  0.00000000e+00
   0.00000000e+00 -3.82066901e-05]
 [-2.03079544e-02 -5.05576795e-03  1.57409925e-02  2.04788800e-02
  -2.26571299e-02  0.00000000e+00 -1.02685746e-02  0.00000000e+00
   0.00000000e+00  4.70797671e-03]
 [-3.99911543e-03 -7.87340943e-03 -1.51307415e-02  1.86874196e-02
  -2.29813047e-02  0.00000000e+00 -1.21813482e-02  0.00000000e+00
   0.00000000e+00 -1.11427978e-02]
 [ 5.81386499e-02 -7.19027547e-03 -1.43726170e-03  2.26738602e-02
  -4.03830269e-03  0.00000000e+00  7.89263472e-03  0.00000000e+00
   0.00000000e+00 -2.47257650e-02]] 
Episode: 114: [[ 0.0487328  -0.00299025  0.03409881  0.00427039  0.00819772  0.
   0.00781638  0.          0.         -0.01094265]
 [-0.0330743   0.00659237  0.0305292   0.014748    0.00076786  0.
   0.00749992  0.          0.         -0.00043641]
 [-0.0201726  -0.00539102  0.01540072  0.02054371 -0.02330213  0.
  -0.01012313  0.          0.          0.00465209]
 [-0.00387245 -0.00814617 -0.01578873  0.01867175 -0.02359761  0.
  -0.01201867  0.          0.         -0.01080464]
 [ 0.05821878 -0.00739052 -0.00104004  0.02282672 -0.00417242  0.
   0.00764976  0.          0.         -0.02518219]] 
Episode: 115: [[ 0.04875649 -0.00314529  0.03391951  0.0037822   0.00820258  0.
   0.0075877   0.          0.         -0.01064435]
 [-0.03294902  0.00627471  0.03022198  0.01482518  0.00052909  0.
   0.00740722  0.          0.         -0.00077711]
 [-0.01993624 -0.0056831   0.01502765  0.02064992 -0.02388157  0.
  -0.00997473  0.          0.          0.00461519]
 [-0.00361289 -0.00837998 -0.01644924  0.01868601 -0.02416464  0.
  -0.01176492  0.          0.         -0.01039135]
 [ 0.0583062  -0.00752734 -0.00058379  0.02297089 -0.00421073  0.
   0.00731967  0.          0.         -0.02570936]] 
Episode: 116: [[ 0.04876658 -0.00325684  0.03375745  0.00337089  0.00823714  0.
   0.00743589  0.          0.         -0.01030625]
 [-0.03280851  0.00602948  0.02997641  0.01492654  0.00032571  0.
   0.00731781  0.          0.         -0.00110749]
 [-0.019666   -0.0059501   0.01472132  0.02075589 -0.02442114  0.
  -0.00985232  0.          0.          0.00444907]
 [-0.00326953 -0.0086082  -0.01704776  0.01867565 -0.02470143  0.
  -0.01153152  0.          0.         -0.01012885]
 [ 0.0584038  -0.00761534 -0.00023067  0.02310578 -0.00421144  0.
   0.00701213  0.          0.         -0.0262999 ]] 
Episode: 117: [[ 0.04864892 -0.00339084  0.03360029  0.00300013  0.00824514  0.
   0.00731479  0.          0.         -0.01005687]
 [-0.03255069  0.00579984  0.02967997  0.01504636  0.00016652  0.
   0.0071761   0.          0.         -0.00147455]
 [-0.01926189 -0.00615164  0.01436351  0.02086568 -0.02488239  0.
  -0.00973618  0.          0.          0.0042694 ]
 [-0.00281681 -0.00875138 -0.01764717  0.01865992 -0.02514315  0.
  -0.01133908  0.          0.         -0.00989994]
 [ 0.05840224 -0.00774493  0.00013898  0.02320673 -0.00423759  0.
   0.00662355  0.          0.         -0.0267138 ]] 
Episode: 118: [[ 4.8483811e-02 -3.4836608e-03  3.3424277e-02  2.6757836e-03
   8.2889777e-03  0.0000000e+00  7.2154105e-03  0.0000000e+00
   0.0000000e+00 -9.7358804e-03]
 [-3.2291166e-02  5.5891997e-03  2.9377762e-02  1.5183974e-02
   4.9428381e-05  0.0000000e+00  7.0430492e-03  0.0000000e+00
   0.0000000e+00 -1.7770249e-03]
 [-1.8878765e-02 -6.3142655e-03  1.4010871e-02  2.1000894e-02
  -2.5273956e-02  0.0000000e+00 -9.6086934e-03  0.0000000e+00
   0.0000000e+00  4.1440292e-03]
 [-2.4490505e-03 -8.8539282e-03 -1.8213373e-02  1.8699057e-02
  -2.5509851e-02  0.0000000e+00 -1.1177332e-02  0.0000000e+00
   0.0000000e+00 -9.5845954e-03]
 [ 5.8362182e-02 -7.8168362e-03  5.1061576e-04  2.3213733e-02
  -4.2136158e-03  0.0000000e+00  6.1622267e-03  0.0000000e+00
   0.0000000e+00 -2.7202213e-02]] 
Episode: 119: [[ 4.8495457e-02 -3.5530238e-03  3.3318847e-02  2.5383399e-03
   8.3845593e-03  0.0000000e+00  7.0063928e-03  0.0000000e+00
   0.0000000e+00 -9.4354758e-03]
 [-3.2171037e-02  5.4246457e-03  2.9158238e-02  1.5327790e-02
  -3.4440876e-05  0.0000000e+00  6.8632741e-03  0.0000000e+00
   0.0000000e+00 -2.0662686e-03]
 [-1.8524585e-02 -6.4684334e-03  1.3755688e-02  2.1129098e-02
  -2.5677342e-02  0.0000000e+00 -9.4669070e-03  0.0000000e+00
   0.0000000e+00  3.8968867e-03]
 [-1.9746402e-03 -8.9600813e-03 -1.8731132e-02  1.8809419e-02
  -2.5885681e-02  0.0000000e+00 -1.0939290e-02  0.0000000e+00
   0.0000000e+00 -9.4104568e-03]
 [ 5.8502477e-02 -7.9096407e-03  9.8557526e-04  2.3308091e-02
  -4.1871849e-03  0.0000000e+00  5.8593838e-03  0.0000000e+00
   0.0000000e+00 -2.7757412e-02]] 
Episode: 120: [[ 4.8597515e-02 -3.5806794e-03  3.3275981e-02  2.4432919e-03
   8.5370392e-03  0.0000000e+00  6.8157958e-03  0.0000000e+00
   0.0000000e+00 -9.0766251e-03]
 [-3.2094561e-02  5.3206775e-03  2.9004471e-02  1.5424837e-02
  -6.9591268e-05  0.0000000e+00  6.6993074e-03  0.0000000e+00
   0.0000000e+00 -2.3222661e-03]
 [-1.8193524e-02 -6.6360175e-03  1.3536135e-02  2.1260869e-02
  -2.6033880e-02  0.0000000e+00 -9.3898540e-03  0.0000000e+00
   0.0000000e+00  3.5235346e-03]
 [-1.4577808e-03 -9.0924324e-03 -1.9209225e-02  1.9014375e-02
  -2.6207609e-02  0.0000000e+00 -1.0834127e-02  0.0000000e+00
   0.0000000e+00 -9.3631884e-03]
 [ 5.8750719e-02 -7.9800421e-03  1.3644026e-03  2.3437502e-02
  -4.1414490e-03  0.0000000e+00  5.6988774e-03  0.0000000e+00
   0.0000000e+00 -2.8372454e-02]] 
Episode: 121: [[ 0.04881065 -0.00361021  0.03326015  0.00244934  0.00869813  0.
   0.00667402  0.          0.         -0.00874889]
 [-0.03211668  0.0052405   0.02892249  0.01551878 -0.00011241  0.
   0.00660936  0.          0.         -0.0024803 ]
 [-0.01797472 -0.00681171  0.01340826  0.02144309 -0.02636144  0.
  -0.00941676  0.          0.          0.00307687]
 [-0.00101249 -0.00924108 -0.0196036   0.01933819 -0.02647978  0.
  -0.01084836  0.          0.         -0.00942991]
 [ 0.05912485 -0.00810409  0.00170601  0.02357067 -0.00414218  0.
   0.0056662   0.          0.         -0.02895998]] 
Episode: 122: [[ 0.04916158 -0.00364966  0.03330497  0.00256388  0.00889426  0.
   0.00661948  0.          0.         -0.00864406]
 [-0.03235935  0.00517915  0.02899895  0.01557855 -0.000196    0.
   0.00650875  0.          0.         -0.00263009]
 [-0.01794323 -0.00711286  0.0134175   0.02159124 -0.0267455   0.
  -0.00956182  0.          0.          0.00268093]
 [-0.00067256 -0.00950659 -0.01996677  0.01962288 -0.02681824  0.
  -0.01094814  0.          0.         -0.00959904]
 [ 0.05963162 -0.00827089  0.00200311  0.02371996 -0.00409925  0.
   0.00572346  0.          0.         -0.0293715 ]] 
Episode: 123: [[ 0.04952966 -0.00371708  0.0333876   0.00266262  0.00908449  0.
   0.00651201  0.          0.         -0.0086535 ]
 [-0.03261497  0.00511124  0.02906675  0.01561047 -0.00028456  0.
   0.00645338  0.          0.         -0.0027671 ]
 [-0.01794356 -0.00741485  0.01339406  0.02167962 -0.02714163  0.
  -0.00962117  0.          0.          0.00236088]
 [-0.00036203 -0.00980134 -0.02033943  0.01980056 -0.02717558  0.
  -0.01099572  0.          0.         -0.00981947]
 [ 0.06010577 -0.00845389  0.00227703  0.02389195 -0.00404977  0.
   0.00588656  0.          0.         -0.02962504]] 
Episode: 124: [[ 4.9918350e-02 -3.8042853e-03  3.3479482e-02  2.7075876e-03
   9.2548477e-03  0.0000000e+00  6.3840169e-03  0.0000000e+00
   0.0000000e+00 -8.6645223e-03]
 [-3.2872371e-02  5.0266148e-03  2.9143453e-02  1.5537875e-02
  -3.6672238e-04  0.0000000e+00  6.5614586e-03  0.0000000e+00
   0.0000000e+00 -2.8891081e-03]
 [-1.7931061e-02 -7.6703043e-03  1.3375030e-02  2.1747509e-02
  -2.7477210e-02  0.0000000e+00 -9.6194865e-03  0.0000000e+00
   0.0000000e+00  2.0688770e-03]
 [-1.6996479e-05 -1.0024646e-02 -2.0669132e-02  2.0063415e-02
  -2.7442051e-02  0.0000000e+00 -1.1108282e-02  0.0000000e+00
   0.0000000e+00 -9.9777216e-03]
 [ 6.0640771e-02 -8.6535364e-03  2.4742193e-03  2.4054904e-02
  -4.0810113e-03  0.0000000e+00  6.1447006e-03  0.0000000e+00
   0.0000000e+00 -2.9968955e-02]] 
Episode: 125: [[ 0.05027442 -0.0038928   0.03358345  0.00274339  0.00940819  0.
   0.00630526  0.          0.         -0.00869657]
 [-0.03308497  0.00494271  0.02919858  0.01544989 -0.00045568  0.
   0.00664524  0.          0.         -0.0029955 ]
 [-0.01782426 -0.00795322  0.01331694  0.02183815 -0.02782167  0.
  -0.00964671  0.          0.          0.00175107]
 [ 0.0004385  -0.01028491 -0.02100637  0.02039403 -0.02774059  0.
  -0.01129146  0.          0.         -0.01022971]
 [ 0.06115076 -0.00885044  0.00266113  0.02414276 -0.00408439  0.
   0.00642884  0.          0.         -0.03019565]] 
Episode: 126: [[ 0.05066231 -0.00395484  0.03366578  0.00278318  0.00958765  0.
   0.00605249  0.          0.         -0.0087612 ]
 [-0.03333813  0.00484756  0.0292929   0.01548332 -0.00057009  0.
   0.00690284  0.          0.         -0.00305714]
 [-0.01777723 -0.0082857   0.01331756  0.02199017 -0.02819885  0.
  -0.00951979  0.          0.          0.00136405]
 [ 0.0008346  -0.01061308 -0.02130421  0.02071643 -0.02806518  0.
  -0.01144036  0.          0.         -0.01056591]
 [ 0.0616366  -0.00899532  0.00284486  0.02418616 -0.00404903  0.
   0.00679603  0.          0.         -0.03028331]] 
Episode: 127: [[ 0.05104252 -0.00409566  0.03375832  0.00282899  0.00961334  0.
   0.00577787  0.          0.         -0.00895524]
 [-0.03359356  0.00476742  0.02938049  0.01556055 -0.00070103  0.
   0.00699668  0.          0.         -0.00324078]
 [-0.01783722 -0.00854787  0.01324238  0.02205509 -0.02846212  0.
  -0.00940053  0.          0.          0.00093862]
 [ 0.00106164 -0.01090429 -0.02168661  0.02086437 -0.0282948   0.
  -0.01167131  0.          0.         -0.01097773]
 [ 0.06204109 -0.00920026  0.0030016   0.02438027 -0.00402897  0.
   0.00723778  0.          0.         -0.03024621]] 
Episode: 128: [[ 0.05141128 -0.00421028  0.033863    0.00290418  0.00965891  0.
   0.00559989  0.          0.         -0.00908257]
 [-0.03382707  0.00473223  0.02944867  0.01570816 -0.00077871  0.
   0.00711003  0.          0.         -0.00339892]
 [-0.01784981 -0.0087901   0.0131412   0.02223602 -0.02868303  0.
  -0.00934318  0.          0.          0.00044493]
 [ 0.0013802  -0.01120187 -0.02204071  0.02113739 -0.02849523  0.
  -0.01192649  0.          0.         -0.01145747]
 [ 0.06245259 -0.00938009  0.00309697  0.02449677 -0.00398856  0.
   0.00774646  0.          0.         -0.03012082]] 
Episode: 129: [[ 5.1654570e-02 -4.3550949e-03  3.3938624e-02  2.9398394e-03
   9.6640876e-03  0.0000000e+00  5.4530525e-03  0.0000000e+00
   0.0000000e+00 -9.2221219e-03]
 [-3.3973932e-02  4.6904623e-03  2.9470004e-02  1.5846578e-02
  -8.2476437e-04  0.0000000e+00  7.2369808e-03  0.0000000e+00
   0.0000000e+00 -3.5135790e-03]
 [-1.7772341e-02 -9.0042641e-03  1.3019877e-02  2.2369036e-02
  -2.8885970e-02  0.0000000e+00 -9.3119042e-03  0.0000000e+00
   0.0000000e+00  4.6922956e-05]
 [ 1.7377044e-03 -1.1487443e-02 -2.2390485e-02  2.1305589e-02
  -2.8687062e-02  0.0000000e+00 -1.2098369e-02  0.0000000e+00
   0.0000000e+00 -1.1779560e-02]
 [ 6.2776551e-02 -9.5735854e-03  3.2099362e-03  2.4624020e-02
  -3.9976528e-03  0.0000000e+00  8.0924137e-03  0.0000000e+00
   0.0000000e+00 -2.9894339e-02]] 
Episode: 130: [[ 0.05186983 -0.00451876  0.03398844  0.00299337  0.00967606  0.
   0.00521306  0.          0.         -0.00938829]
 [-0.03413652  0.00463143  0.02947642  0.01597496 -0.00083338  0.
   0.0072922   0.          0.         -0.00357999]
 [-0.01780752 -0.00905473  0.01290538  0.02246204 -0.02901416  0.
  -0.00920104  0.          0.         -0.00015505]
 [ 0.0019118  -0.01160379 -0.02271883  0.02138895 -0.0287776   0.
  -0.01221847  0.          0.         -0.01195997]
 [ 0.06302319 -0.0097639   0.00327953  0.02470007 -0.0040365   0.
   0.00829217  0.          0.         -0.02980644]] 
Episode: 131: [[ 0.05204085 -0.00466523  0.03401241  0.00300671  0.00969797  0.
   0.00493332  0.          0.         -0.00956703]
 [-0.03425432  0.00455991  0.02943892  0.01612217 -0.00083339  0.
   0.00735813  0.          0.         -0.00362961]
 [-0.01780854 -0.00911582  0.01275091  0.02260068 -0.02913758  0.
  -0.00904746  0.          0.         -0.00032982]
 [ 0.00207487 -0.01169821 -0.02303797  0.02154404 -0.02881327  0.
  -0.0123675   0.          0.         -0.01213429]
 [ 0.06323707 -0.00993332  0.00332987  0.02470508 -0.00408489  0.
   0.00839543  0.          0.         -0.02973013]] 
Episode: 132: [[ 0.05225644 -0.00479026  0.03403813  0.00304487  0.00973434  0.
   0.00469313  0.          0.         -0.00973963]
 [-0.03441152  0.00450168  0.02942939  0.01622127 -0.00083369  0.
   0.00741147  0.          0.         -0.00365252]
 [-0.01784877 -0.00917917  0.01266509  0.02271907 -0.02926578  0.
  -0.00887943  0.          0.         -0.00048134]
 [ 0.00222408 -0.01177966 -0.02328016  0.02171119 -0.02885649  0.
  -0.01251847  0.          0.         -0.01236321]
 [ 0.06348971 -0.01011342  0.00328398  0.02475566 -0.00415348  0.
   0.00859963  0.          0.         -0.02960278]] 
Episode: 133: [[ 0.05248093 -0.0048743   0.03408073  0.00310293  0.0097975   0.
   0.00449     0.          0.         -0.00988515]
 [-0.03457551  0.00446843  0.02943618  0.016381   -0.00082545  0.
   0.00743959  0.          0.         -0.00367616]
 [-0.01791904 -0.00922037  0.01259511  0.02291626 -0.02936843  0.
  -0.00878303  0.          0.         -0.00063768]
 [ 0.00232972 -0.01182718 -0.02348986  0.02199438 -0.02886451  0.
  -0.01276619  0.          0.         -0.01264411]
 [ 0.06375346 -0.01023454  0.00323852  0.0248109  -0.0041949   0.
   0.0088945   0.          0.         -0.02955352]] 
Episode: 134: [[ 0.05266322 -0.00480232  0.03391523  0.00284602  0.00992804  0.
   0.00449333  0.          0.         -0.01016378]
 [-0.03490034  0.00464363  0.02939565  0.01611241 -0.00068777  0.
   0.00724038  0.          0.         -0.00406565]
 [-0.01814895 -0.00907358  0.01281698  0.02321253 -0.02926206  0.
  -0.00885056  0.          0.         -0.00093273]
 [ 0.00227716 -0.01137699 -0.02342666  0.02238893 -0.02845045  0.
  -0.01310078  0.          0.         -0.0130067 ]
 [ 0.06389044 -0.01031698  0.00284419  0.02470285 -0.00409427  0.
   0.00904847  0.          0.         -0.02960927]] 
Episode: 135: [[ 0.05285026 -0.00468012  0.03377048  0.00265475  0.01010951  0.
   0.00457898  0.          0.         -0.01036399]
 [-0.03518726  0.0048397   0.02937667  0.015886   -0.0005404   0.
   0.00704553  0.          0.         -0.00452141]
 [-0.0183546  -0.00896112  0.01306875  0.02353301 -0.02918765  0.
  -0.00895935  0.          0.         -0.00120788]
 [ 0.00223149 -0.0109708  -0.02332966  0.02282463 -0.02808941  0.
  -0.01349212  0.          0.         -0.01322286]
 [ 0.06399317 -0.01039476  0.00251589  0.02454098 -0.00395556  0.
   0.00918218  0.          0.         -0.02977592]] 
Episode: 136: [[ 0.05311082 -0.00456333  0.03360784  0.00251793  0.01031228  0.
   0.00461111  0.          0.         -0.0106085 ]
 [-0.0355575   0.00498709  0.02937367  0.01569991 -0.00040089  0.
   0.00700245  0.          0.         -0.00477588]
 [-0.01868669 -0.00885682  0.01334486  0.02381247 -0.02913543  0.
  -0.00896001  0.          0.         -0.00129923]
 [ 0.00206664 -0.01058059 -0.02321756  0.0231578  -0.02776259  0.
  -0.01378162  0.          0.         -0.01330742]
 [ 0.0641306  -0.01048297  0.00222897  0.02445817 -0.00386696  0.
   0.00935467  0.          0.         -0.02992228]] 
Episode: 137: [[ 0.05335961 -0.00444426  0.03346052  0.00238111  0.01051135  0.
   0.00463477  0.          0.         -0.0107968 ]
 [-0.03589894  0.00511837  0.02937888  0.01551468 -0.00029322  0.
   0.00699287  0.          0.         -0.00500777]
 [-0.01899615 -0.00875823  0.01360325  0.02406187 -0.02909946  0.
  -0.00894169  0.          0.         -0.00137299]
 [ 0.00191261 -0.01022915 -0.02312033  0.02346073 -0.02747823  0.
  -0.01410005  0.          0.         -0.01332301]
 [ 0.06426133 -0.01055581  0.00196672  0.02434831 -0.00375092  0.
   0.00951852  0.          0.         -0.03017066]] 
Episode: 138: [[ 0.05348088 -0.00448987  0.03333503  0.00220245  0.01050859  0.
   0.00465374  0.          0.         -0.01089455]
 [-0.03614988  0.00520354  0.02934235  0.01537091 -0.00022053  0.
   0.00701585  0.          0.         -0.0052129 ]
 [-0.01923997 -0.00865097  0.01377185  0.02430821 -0.02908854  0.
  -0.00879496  0.          0.         -0.00159366]
 [ 0.00168844 -0.01001143 -0.02306072  0.02366118 -0.0273318   0.
  -0.01427393  0.          0.         -0.01344704]
 [ 0.06429026 -0.01073133  0.0017817   0.02419637 -0.0037135   0.
   0.00955359  0.          0.         -0.0302772 ]] 
Episode: 139: [[ 0.05348498 -0.00456341  0.03320057  0.00208619  0.01043236  0.
   0.00449752  0.          0.         -0.01101421]
 [-0.03626017  0.00528012  0.02923631  0.01537133 -0.00015837  0.
   0.00696802  0.          0.         -0.0054856 ]
 [-0.01929081 -0.00860261  0.01381762  0.02457487 -0.02907988  0.
  -0.00861449  0.          0.         -0.00194503]
 [ 0.00163513 -0.0098778  -0.02310001  0.02381081 -0.02721644  0.
  -0.01431798  0.          0.         -0.01366849]
 [ 0.06426466 -0.01093811  0.00162881  0.02406671 -0.00374519  0.
   0.00947299  0.          0.         -0.03025645]] 
Episode: 140: [[ 5.3484704e-02 -4.6022958e-03  3.3076655e-02  1.9937386e-03
   1.0385680e-02  0.0000000e+00  4.3799332e-03  0.0000000e+00
   0.0000000e+00 -1.1104578e-02]
 [-3.6341555e-02  5.3604641e-03  2.9128682e-02  1.5402081e-02
  -9.5396274e-05  0.0000000e+00  6.9249524e-03  0.0000000e+00
   0.0000000e+00 -5.7633403e-03]
 [-1.9272730e-02 -8.5762423e-03  1.3826179e-02  2.4844619e-02
  -2.9065140e-02  0.0000000e+00 -8.4731616e-03  0.0000000e+00
   0.0000000e+00 -2.3034695e-03]
 [ 1.7042627e-03 -9.7614564e-03 -2.3161937e-02  2.3986479e-02
  -2.7094666e-02  0.0000000e+00 -1.4469756e-02  0.0000000e+00
   0.0000000e+00 -1.3897400e-02]
 [ 6.4261757e-02 -1.1101885e-02  1.4751604e-03  2.3939259e-02
  -3.7539306e-03  0.0000000e+00  9.3595590e-03  0.0000000e+00
   0.0000000e+00 -3.0322585e-02]] 
Episode: 141: [[ 5.35630770e-02 -4.58112825e-03  3.29727083e-02  1.91428000e-03
   1.03894128e-02  0.00000000e+00  4.27069375e-03  0.00000000e+00
   0.00000000e+00 -1.11812139e-02]
 [-3.64597254e-02  5.45792049e-03  2.90554725e-02  1.54602090e-02
  -5.24945281e-05  0.00000000e+00  6.89821457e-03  0.00000000e+00
   0.00000000e+00 -6.05320046e-03]
 [-1.92525014e-02 -8.55460949e-03  1.38147967e-02  2.51498818e-02
  -2.90341396e-02  0.00000000e+00 -8.32920242e-03  0.00000000e+00
   0.00000000e+00 -2.66662682e-03]
 [ 1.84191484e-03 -9.64013021e-03 -2.32786965e-02  2.42029484e-02
  -2.69320831e-02  0.00000000e+00 -1.47182904e-02  0.00000000e+00
   0.00000000e+00 -1.42100453e-02]
 [ 6.43546283e-02 -1.11665465e-02  1.25881296e-03  2.38242038e-02
  -3.66276456e-03  0.00000000e+00  9.25383717e-03  0.00000000e+00
   0.00000000e+00 -3.04984953e-02]] 
Episode: 142: [[ 0.05375489 -0.00424299  0.03339225  0.00232773  0.01078003  0.
   0.00435812  0.          0.         -0.01105556]
 [-0.03651394  0.00599612  0.02890437  0.01544607  0.00070671  0.
   0.00664995  0.          0.         -0.00617692]
 [-0.01931206 -0.008634    0.01325944  0.02549315 -0.02856155  0.
  -0.0083556   0.          0.         -0.00314576]
 [ 0.00193891 -0.00968528 -0.02392408  0.02453983 -0.02641967  0.
  -0.01482979  0.          0.         -0.01460135]
 [ 0.06460177 -0.011179    0.0014038   0.02364336 -0.00342569  0.
   0.00904598  0.          0.         -0.03077292]] 
Episode: 143: [[ 0.05402137 -0.00392524  0.03374941  0.00261324  0.01121875  0.
   0.00425294  0.          0.         -0.01086972]
 [-0.03668295  0.00643813  0.02888288  0.01538286  0.0013102   0.
   0.00652889  0.          0.         -0.00631318]
 [-0.01950581 -0.00883062  0.01293255  0.02572443 -0.02835755  0.
  -0.00822479  0.          0.         -0.00352039]
 [ 0.0018784  -0.00985895 -0.02440601  0.02472614 -0.02616185  0.
  -0.0148182   0.          0.         -0.01484318]
 [ 0.06486955 -0.01116691  0.0014283   0.02348442 -0.00320245  0.
   0.00874663  0.          0.         -0.03113573]] 
Episode: 144: [[ 0.05427563 -0.00364348  0.03407902  0.00287862  0.01160387  0.
   0.00413307  0.          0.         -0.01070584]
 [-0.03683269  0.00683188  0.02885686  0.01538472  0.00184727  0.
   0.0064155   0.          0.         -0.00645942]
 [-0.01964206 -0.00901078  0.01262973  0.02602242 -0.02817166  0.
  -0.00810764  0.          0.         -0.00391557]
 [ 0.0019105  -0.01001349 -0.02482833  0.02502981 -0.02592088  0.
  -0.01488086  0.          0.         -0.01517063]
 [ 0.06513274 -0.01116284  0.00141272  0.02332923 -0.00301315  0.
   0.00859008  0.          0.         -0.03140277]] 
Episode: 145: [[ 0.05437886 -0.00339665  0.03434842  0.00314652  0.0119155   0.
   0.00393496  0.          0.         -0.01055168]
 [-0.03688541  0.00714909  0.02874204  0.01543929  0.00230403  0.
   0.00624237  0.          0.         -0.00651031]
 [-0.01976147 -0.009246    0.0122783   0.02618413 -0.02806658  0.
  -0.00784853  0.          0.         -0.00411541]
 [ 0.00179235 -0.01020121 -0.02530636  0.02516043 -0.02576492  0.
  -0.01482525  0.          0.         -0.01535521]
 [ 0.06526647 -0.01118854  0.0014837   0.02326043 -0.0028525   0.
   0.00833685  0.          0.         -0.03169209]] 
Episode: 146: [[ 0.05430312 -0.0030667   0.0345485   0.00325718  0.01234427  0.
   0.00368969  0.          0.         -0.01050153]
 [-0.03670093  0.00745766  0.02855067  0.01532117  0.00279961  0.
   0.00614808  0.          0.         -0.00639742]
 [-0.01970047 -0.00952402  0.0118881   0.02616062 -0.02799468  0.
  -0.00746308  0.          0.         -0.00414113]
 [ 0.00183275 -0.01038479 -0.02582332  0.02513643 -0.02563278  0.
  -0.01466342  0.          0.         -0.01541139]
 [ 0.06520476 -0.01119741  0.00151443  0.02303704 -0.00268845  0.
   0.00799681  0.          0.         -0.03204366]] 
Episode: 147: [[ 0.05434921 -0.00276804  0.0347791   0.00337178  0.01270715  0.
   0.00342448  0.          0.         -0.01048954]
 [-0.03660612  0.0077497   0.0284106   0.0153073   0.0032232   0.
   0.00604303  0.          0.         -0.00626004]
 [-0.01974909 -0.00983302  0.01158495  0.02621168 -0.02801189  0.
  -0.00717164  0.          0.         -0.00425568]
 [ 0.00182905 -0.01059824 -0.02623168  0.02517962 -0.02561874  0.
  -0.01462964  0.          0.         -0.01557165]
 [ 0.06525144 -0.01122562  0.00148966  0.02284068 -0.00255756  0.
   0.00780331  0.          0.         -0.03246585]] 
Episode: 148: [[ 0.05452692 -0.00256456  0.03503022  0.00350461  0.012976    0.
   0.00316097  0.          0.         -0.01049033]
 [-0.03658279  0.00799561  0.02834207  0.01523699  0.00357434  0.
   0.00606049  0.          0.         -0.00611364]
 [-0.0198035  -0.01023646  0.01134434  0.02615866 -0.02807992  0.
  -0.00686103  0.          0.         -0.00451082]
 [ 0.00197184 -0.01092349 -0.02660093  0.0250853  -0.02566201  0.
  -0.01451663  0.          0.         -0.01582542]
 [ 0.06547263 -0.01137573  0.00151114  0.02282649 -0.00248531  0.
   0.00774148  0.          0.         -0.03272868]] 
Episode: 149: [[ 0.05481802 -0.00241344  0.03532536  0.0036476   0.0132015   0.
   0.00298478  0.          0.         -0.01050718]
 [-0.03666427  0.00825695  0.02832757  0.01527518  0.00391104  0.
   0.00611244  0.          0.         -0.00599129]
 [-0.01999096 -0.01058484  0.01114748  0.02621211 -0.02812895  0.
  -0.00664163  0.          0.         -0.00489118]
 [ 0.0020407  -0.01122454 -0.02689979  0.02509802 -0.02568302  0.
  -0.01452678  0.          0.         -0.0161632 ]
 [ 0.06583256 -0.01157025  0.00145639  0.02297433 -0.00244354  0.
   0.00779793  0.          0.         -0.03284842]] 
Episode: 150: [[ 0.05500139 -0.00228462  0.03559307  0.00374754  0.01342441  0.
   0.00279332  0.          0.         -0.01054459]
 [-0.03665111  0.0084783   0.02824961  0.01530318  0.00425588  0.
   0.00617034  0.          0.         -0.00586411]
 [-0.02005568 -0.01089329  0.01087946  0.02625144 -0.02815576  0.
  -0.0064256   0.          0.         -0.00508078]
 [ 0.00220056 -0.01146832 -0.02723879  0.02512676 -0.02566311  0.
  -0.01442424  0.          0.         -0.01635751]
 [ 0.06609595 -0.011757    0.00146727  0.02307002 -0.00241985  0.
   0.00773674  0.          0.         -0.03287549]] 
Episode: 151: [[ 0.05533137 -0.00229098  0.0359251   0.00378732  0.01351216  0.
   0.00273675  0.          0.         -0.01077444]
 [-0.03681539  0.00866307  0.02832421  0.01527609  0.00451579  0.
   0.00621923  0.          0.         -0.00557132]
 [-0.02028015 -0.01096147  0.01080742  0.02617272 -0.02821354  0.
  -0.00638652  0.          0.         -0.00518739]
 [ 0.00219797 -0.01150279 -0.02743188  0.0250115  -0.02566286  0.
  -0.01423241  0.          0.         -0.01664166]
 [ 0.06650861 -0.01203985  0.00147371  0.02329765 -0.00252218  0.
   0.00756989  0.          0.         -0.03278334]] 
Episode: 152: [[ 0.05571508 -0.00230881  0.03626673  0.0038625   0.01357996  0.
   0.00280358  0.          0.         -0.01099312]
 [-0.03703105  0.00884832  0.0284271   0.01535041  0.00476596  0.
   0.00626499  0.          0.         -0.00521733]
 [-0.02061161 -0.01103544  0.01071465  0.02617116 -0.02825239  0.
  -0.00643996  0.          0.         -0.00529292]
 [ 0.00207406 -0.01158791 -0.02765842  0.02488711 -0.02566192  0.
  -0.01411216  0.          0.         -0.01700655]
 [ 0.06694871 -0.01231568  0.00139844  0.02366093 -0.00262714  0.
   0.0075316   0.          0.         -0.03258418]] 
Episode: 153: [[ 0.05622342 -0.00237459  0.036666    0.00404733  0.01358129  0.
   0.00296381  0.          0.         -0.01130285]
 [-0.03738153  0.00905552  0.02865272  0.0155323   0.0049933   0.
   0.006293    0.          0.         -0.00476853]
 [-0.02107324 -0.01106701  0.0106603   0.02615459 -0.02824054  0.
  -0.00664157  0.          0.         -0.00535364]
 [ 0.00181793 -0.01167998 -0.0278848   0.02463453 -0.02562862  0.
  -0.0140521   0.          0.         -0.01744398]
 [ 0.06751826 -0.01260117  0.00128293  0.0241448  -0.00275164  0.
   0.00756582  0.          0.         -0.03228895]] 
Episode: 154: [[ 0.0568423  -0.00255636  0.03712738  0.00425674  0.01345469  0.
   0.0031439   0.          0.         -0.01155163]
 [-0.03791865  0.00926742  0.02903196  0.01587521  0.00517952  0.
   0.00626152  0.          0.         -0.00420668]
 [-0.02165035 -0.01101371  0.01064293  0.02626318 -0.02819625  0.
  -0.00697517  0.          0.         -0.00544249]
 [ 0.0014438  -0.01175717 -0.02820572  0.02431237 -0.02559163  0.
  -0.01411025  0.          0.         -0.01794658]
 [ 0.06820224 -0.01289554  0.00105864  0.02471189 -0.00280355  0.
   0.00770843  0.          0.         -0.03190753]] 
Episode: 155: [[ 0.05753968 -0.0027975   0.03749386  0.00438944  0.01322209  0.
   0.00311956  0.          0.         -0.01189212]
 [-0.03852032  0.00933946  0.02945298  0.01625388  0.00513648  0.
   0.00641299  0.          0.         -0.00377867]
 [-0.02231758 -0.01119163  0.01071561  0.0263079  -0.02835513  0.
  -0.00713453  0.          0.         -0.0056743 ]
 [ 0.0010099  -0.0119759  -0.02848865  0.02388285 -0.02573646  0.
  -0.0142746   0.          0.         -0.01850772]
 [ 0.06885625 -0.01322555  0.00081343  0.02537704 -0.00293144  0.
   0.00794842  0.          0.         -0.03144876]] 
Episode: 156: [[ 0.05822226 -0.00304226  0.03784955  0.00449122  0.01299718  0.
   0.00307755  0.          0.         -0.01225834]
 [-0.03909542  0.00940507  0.02986587  0.01654909  0.00509776  0.
   0.00659421  0.          0.         -0.00337301]
 [-0.02294455 -0.01136897  0.01080086  0.02630755 -0.02849356  0.
  -0.00728351  0.          0.         -0.00584791]
 [ 0.00064762 -0.01218794 -0.02874639  0.023454   -0.02583891  0.
  -0.01453434  0.          0.         -0.0190743 ]
 [ 0.06950133 -0.01357489  0.0005937   0.02607057 -0.00315372  0.
   0.00827588  0.          0.         -0.03106252]] 
Episode: 157: [[ 0.05889966 -0.00322243  0.03819255  0.00456946  0.01282719  0.
   0.00302343  0.          0.         -0.01256418]
 [-0.03964739  0.00948851  0.03027851  0.01683004  0.00504708  0.
   0.00678456  0.          0.         -0.00305996]
 [-0.02354258 -0.01155317  0.01089585  0.02632539 -0.02864208  0.
  -0.00739268  0.          0.         -0.00606679]
 [ 0.00032252 -0.01238105 -0.0289705   0.02308091 -0.02594655  0.
  -0.01471161  0.          0.         -0.01964958]
 [ 0.0701251  -0.01386715  0.0003952   0.02669049 -0.00334161  0.
   0.00855997  0.          0.         -0.03083148]] 
Episode: 158: [[ 0.05960089 -0.00332514  0.03859472  0.00470264  0.0127503   0.
   0.00313458  0.          0.         -0.01285091]
 [-0.04023584  0.00963658  0.03078303  0.01711519  0.00504939  0.
   0.00691926  0.          0.         -0.00270581]
 [-0.02424121 -0.01180448  0.01099217  0.02637415 -0.02878117  0.
  -0.00763069  0.          0.         -0.00611057]
 [-0.00011388 -0.01261055 -0.02925345  0.02272016 -0.02601845  0.
  -0.01498313  0.          0.         -0.02005748]
 [ 0.07072657 -0.01409636  0.00018286  0.02738632 -0.00348184  0.
   0.00892736  0.          0.         -0.03060572]] 
Episode: 159: [[ 6.0253069e-02 -3.4236943e-03  3.8941912e-02  4.8556388e-03
   1.2693158e-02  0.0000000e+00  3.1737757e-03  0.0000000e+00
   0.0000000e+00 -1.3056043e-02]
 [-4.0787570e-02  9.7372010e-03  3.1246947e-02  1.7383462e-02
   5.0071585e-03  0.0000000e+00  7.0410985e-03  0.0000000e+00
   0.0000000e+00 -2.3842694e-03]
 [-2.4816815e-02 -1.2071584e-02  1.1136393e-02  2.6459619e-02
  -2.8965956e-02  0.0000000e+00 -7.8135831e-03  0.0000000e+00
